-0.3326733
-0.03744302
-0.77385724
-0.48929903
-0.7231978
0.2182014
-0.16716139
0.17585912
-0.8487906
-0.76765835
-0.033639476
-0.042264137
0.031119298
0.05363913
-0.01954289
0.004450969
-0.37540296
-0.09062128
-0.018857524
-0.014695712
0.021332705
0.011143232
-0.15666953
0.1675662
-0.08091041
0.03831365
0.13031834
-0.08100259
0.049680233
-0.09167793
-0.8852876
-0.004048285
-0.18820451
0.19783552
-0.05961049
0.07815333
-0.19443631
0.060300853
0.06480215
0.034049466
0.18884152
-0.6969185
0.028634034
0.042221922
-0.5968352
0.27325898
-0.64652723
-0.15902038
0.214723
0.18445385
-0.15614489
0.019533379
-0.12028378
1.626645
0.030846277
0.42292935
-0.077404425
0.026835343
-0.00970764
0.25481313
-0.02827072
-0.10813274
0.067773476
-0.17973332
0.007981318
0.008032749
0.0007332923
0.08150097
-0.13183269
-0.050363194
-0.04469395
0.05957815
0.031017002
0.016950252
-0.11433807
0.44880384
-0.015253267
-0.5447405
-0.16965336
-0.011380151
0.68438494
-0.19092727
0.17570283
0.17438653
0.5110954
0.027324382
0.47305536
0.04438856
-0.0088912
0.07486255
0.13967039
0.14304309
-0.07632606
-0.018957764
0.060315777
-0.06279772
-0.07148598
0.110760696
0.0131060295
-0.05770228
