-0.08092909
-0.004102384
0.0023001358
0.0007480342
-0.0014272479
0.07228375
0.013350631
0.0023353717
0.0015686089
-0.0077772643
-0.0037944117
0.021045929
0.027098233
-0.023212994
0.0008488119
-0.0006236077
-0.00051422487
0.00057837454
0.00034867114
-0.007278404
-0.0030114811
0.0056093656
0.0019090429
0.058096405
0.0029435055
0.0019872899
-0.012539976
-0.025078058
-0.00022708566
-0.0008028051
0.0009261914
0.0007530164
0.0037380683
-0.0030500896
0.00055329397
-0.07336853
-4.8634407e-05
-0.0014712408
0.00036033062
-0.002480111
0.021235708
0.103931494
-0.0033093255
0.0037809878
-0.008534584
-0.0129914805
0.048783366
-0.0021275305
0.008154592
4.987295e-05
-0.0013143175
0.0051353755
-0.012990466
-0.032960784
-0.018976593
0.0029932607
0.020002764
-0.017421475
-0.004513115
-0.003171055
1.5403204e-05
0.013241263
-0.023532143
0.0006560869
-0.07260778
0.014425994
0.0023551227
-0.0006819862
-0.027887879
-0.010483363
0.00070717727
0.008674907
0.002638484
-0.0018685403
-0.000597722
-0.002736846
-0.0020103229
0.0055302754
-0.005485261
0.0016799615
0.00735664
0.00083782163
0.007999042
0.094718836
-0.0015522494
-0.0022808502
-0.05241959
-0.003431723
-0.004765949
-0.0005808079
-0.00068042125
-0.00042195455
0.009685773
0.00013034443
-0.002358843
-0.0018455315
-0.0019092256
-0.043659292
0.0026077533
0.0022319169
-0.033620823
-0.00026850266
0.0022658005
0.00095521804
0.0050048176
-0.010343091
0.032834336
0.0004382997
-0.01074014
-0.0062133186
0.0039445
0.045857504
0.13343698
-0.044890217
0.003928666
8.901221e-05
0.0009198695
-0.001639003
0.00019546418
0.011831405
0.001809896
0.0060452214
-0.0005975068
-0.041188568
0.0013010113
0.0014507574
0.034217954
0.032170106
0.00291296
0.00017018325
-0.0074676727
0.0022944089
-0.0010115819
-0.0017781525
-0.005497377
0.07153821
0.0014169251
-0.0028711923
0.0015805069
0.011727434
0.0075181364
-0.03332139
0.00060044316
-0.0017070759
0.0022549133
0.10898309
-0.022619776
0.00069046585
-0.00368208
0.003076369
0.00092061167
-6.46548e-05
0.0011137264
-0.04706189
-0.0024418295
0.0005651662
0.0071923737
-0.046063185
0.0045255367
-0.0040232497
-0.0029423577
0.0023665717
0.049300767
0.0028631832
0.05993102
0.002814987
0.00090376474
-0.0047558323
0.0020469709
-0.014951061
-0.00039052343
-0.0028063995
0.000514104
-0.0010848909
0.0037184376
-2.104228e-05
-0.0007496944
0.008571693
0.006208044
0.0028583547
0.011124818
-0.005320562
-0.00081225135
0.07945181
-0.0021312353
0.007330755
0.030378332
0.01752129
-0.0054729893
-0.0028312933
-0.00150875
-0.00023388806
-0.0115380045
0.00011716745
-0.0076300693
-0.00076281006
0.0010030973
0.018501138
0.0021940873
0.0015437279
