-0.0025802352
-0.00853652
-0.0012398511
-0.000829772
-0.0047083464
0.012569443
-0.048604637
0.006844773
0.0026817715
0.0050570793
0.0016410275
0.0038047414
-0.000109464054
-0.009597497
0.0036808655
0.0036737204
-0.00021857495
-0.0022097519
9.837837e-05
0.036841977
0.057940297
-0.00898057
-0.00602491
0.0013315362
0.053083885
0.06702239
-0.08025296
-0.00087916397
-0.0032448838
0.018820425
-0.0013901311
0.0029202034
-0.0012644179
0.049368028
0.02201677
-0.025396299
0.0018155436
0.027909916
-0.028262176
0.021608403
-0.01496839
-0.010312457
0.005355391
0.002691902
-0.025543226
-0.066828996
-0.053791247
0.04310953
0.05929142
-0.0011481616
0.0006040629
-0.0073541123
0.022615902
-0.00410414
0.0020174768
-0.009476017
0.0032679583
0.0025130636
-0.0023511364
0.01694138
-0.05609895
-0.010900557
0.031136394
-0.0069163204
-3.319171e-05
0.0014549174
-0.023255443
-0.0007764401
0.0025130122
0.0969916
-0.0041015036
0.00081297435
-0.0141857155
-0.0030107165
0.0065633347
-0.0009840482
-0.009926894
0.00020934611
0.0016431592
0.022494359
-0.0023700914
-0.07793067
0.00086651265
-0.010726286
0.016812364
-0.0006645296
0.038792137
0.049191896
0.00239733
-0.012920717
-0.0016279594
-0.0039342325
-0.00071643275
-0.015606799
-0.008698146
0.053633824
0.055513754
-0.0024356637
0.05009412
0.0027314334
-0.004178245
0.05821567
0.0047520343
0.0011124734
0.0057290923
0.0012403312
0.005828066
0.054200612
0.0006282311
0.032956585
0.012181423
0.0073129777
0.094537385
-0.053706553
-0.005293972
0.0071733827
0.009196646
0.01933563
0.009560536
0.02585263
-0.0075232876
0.008853046
0.014803295
0.002109921
0.0017541356
0.009225566
-0.0059246756
0.024849052
-0.024595348
0.0004339905
0.010720379
0.021418663
0.022254847
0.030540615
-0.0010314516
-0.023050116
0.0038414295
-0.022945398
0.023564132
-0.0056061964
0.012504414
0.025135403
-0.024190841
-0.007999887
0.040152207
0.0012342806
-0.0022697032
0.04940673
-0.03235763
-0.005655803
-0.006406099
0.026204342
0.05480332
-0.003292518
-0.03637629
-0.0135963885
-0.0053598415
-0.0007104559
0.08829726
0.017159335
0.0031719762
-0.014317198
-0.027006673
-0.0008906262
0.0070885536
0.0031165555
5.5983233e-05
-0.0051082172
0.04880428
-0.040335666
0.0005870333
-0.0031839623
0.00026410358
0.0029538309
0.00018992953
-0.0019116211
-0.015697919
0.0005042155
0.0022999337
0.061310947
0.010763521
0.036807645
0.020226376
-0.07215169
-0.00036679566
-0.003253669
-0.011321242
0.001513219
0.018622575
-0.007671284
0.0021999937
-0.0073338975
-0.0020509227
0.04645
0.0007574829
-0.05850918
0.009502769
0.0033893855
-0.029914416
-0.0062648747
0.00021682424
-0.09165139
0.002612584
0.01272229
0.010918375
0.022352513
0.021586047
0.042073965
-0.00093006715
0.0026521455
0.0006919646
0.023565188
-0.0025892062
-0.02341542
-0.0032729018
-0.017178113
0.025187232
-0.016900314
-0.0028940695
0.03581308
0.024987606
0.024543082
0.00070038787
-0.00045113757
-0.021589376
0.03744271
0.037234012
-0.0028116093
0.0017193895
0.07205794
0.004042211
-0.0009153021
0.003314403
0.058880445
-0.04634474
0.011866288
-0.006188926
0.07219092
0.0007156048
0.052037425
0.06917108
0.044411305
0.050175853
-0.0033828134
-0.0122395065
0.017309107
0.049623348
0.0015909997
-0.035962835
0.007905732
-0.029598106
0.004265886
0.02604192
-0.00070542
-0.00096930505
0.020504579
0.0021977013
-0.0038619419
0.005565871
-0.00063523906
-0.03340305
0.015931917
0.008447715
0.010741391
-0.0050635478
0.00029860946
0.015801838
0.001346703
0.0016752438
-0.00057894504
-0.0038282692
-0.0016290334
0.017400037
-0.004386201
0.0039581666
-0.0012043308
0.0057025687
2.7753078e-05
-0.0017686243
0.023045916
0.012028636
0.022638552
-0.0010609063
-0.0158983
0.003777125
0.00013479571
-0.046752244
0.016713662
-0.0032537512
0.0157826
0.030272055
-0.0028728049
-0.0006632184
0.031988695
-0.037599556
0.022287015
0.024821972
0.0019145752
-0.0018989511
0.0064062243
0.0151564125
0.049046114
0.009647232
0.00043434897
0.0029147088
0.012103479
0.0006838312
0.0075873435
0.00016394813
-0.07187412
-0.005034243
0.01607042
-0.023820639
-0.01416005
-0.0029329455
0.013685443
0.0003819839
0.10679204
0.05160493
-0.028893288
-0.004290904
0.007180367
0.016264386
-0.0003528967
0.002013601
0.0024156624
0.0515771
-0.022979118
0.018071782
-8.734617e-06
-0.004712234
-0.055867422
0.012574594
0.0011065386
-3.903155e-05
-0.022458717
0.0012150732
-0.023770384
0.032664876
0.015949152
0.033333212
-0.017681507
-0.0053566503
-0.06826635
-0.026432421
-0.00030624343
0.0061716177
-0.046107296
-0.001030054
-0.020296581
-0.018304678
-0.013441318
0.04017589
-0.0019997468
0.010426709
0.010715984
-0.026745027
0.00029935033
0.0062426613
-0.003627579
0.09158942
0.055871338
0.010964714
-0.001037259
-0.0015478017
0.003997795
0.009896616
-0.006104481
0.045800444
0.02072409
0.0005054456
-0.011450176
0.0020372893
0.044849396
4.366545e-06
0.002731362
0.0238489
0.023340205
0.0005768452
0.043617047
0.00093079597
-0.013072594
0.01000163
0.028433913
-0.000513406
0.0029415109
0.023979774
0.004957594
-0.005655098
-9.818181e-06
-0.009486723
0.011302462
-0.005663086
0.032899227
0.00047550103
0.01410405
0.0045443266
-0.011900405
-0.0094721
0.027426569
