0.009812486
0.28856167
-0.04458417
0.62391293
0.06782397
0.11898199
-0.020453619
0.13321954
-1.047407
-0.17914657
0.1357398
0.117480844
0.13447279
0.025217123
-0.029667726
0.21798715
0.16988608
0.42910522
0.2011224
-0.0732114
0.014615841
0.0723265
0.09159007
0.22259063
-0.22286847
0.023763562
-0.06424194
-0.024894606
0.2677548
0.0893162
-0.012448031
0.059754025
0.08655948
0.3430147
0.114408135
-0.11669615
0.21442488
-0.011735496
0.09166831
-0.08539753
0.07808331
0.053723462
0.06473694
0.05500581
-0.0028127942
0.5051037
0.21727006
0.19184175
-0.01688131
0.23538409
0.21491528
0.03670156
-0.06409519
0.33754036
0.0025104566
0.02893902
-0.056063533
0.026122108
0.54713356
-0.05354073
0.10886412
0.1399598
-0.023344815
-0.27520624
-0.38172492
0.040282615
0.020059032
0.14875731
0.027816484
0.11740199
0.17450647
0.13061537
0.035187755
0.068624824
0.419681
0.073721506
0.48996818
0.1878796
-0.019256352
0.12796001
0.14373738
0.09030185
0.0953342
0.076430924
0.26390573
0.011656799
0.20274518
-0.78461415
-0.002035569
0.06002027
-0.06850481
0.044972815
0.61887014
0.4578888
-0.08216157
0.1983907
-0.3443334
0.41899845
0.48790142
0.20648809
0.082693435
0.1533543
0.1830526
0.66368186
-0.0961142
-0.0730578
0.20994952
0.008512251
0.24046414
0.112627916
0.047009155
0.37087467
0.0013517591
0.23388228
0.37722573
0.7581023
-0.010720371
0.35547423
0.39135772
0.18014635
0.029024746
0.03622429
-0.011582917
0.09306944
0.26786715
0.055748798
0.022465583
0.09007957
-0.057721622
0.057076827
0.25000247
0.19422166
0.10960642
0.34439185
0.026784895
-0.00948504
0.0010839317
0.23168677
0.03232718
0.37708518
0.25954723
0.3241752
0.03725253
-0.010776926
0.121478744
-0.10226679
0.03981626
0.015123805
0.18999209
0.235947
0.0034212444
0.04513779
0.3357194
0.025506284
0.3897163
0.10965337
0.1418106
0.38085845
0.18419193
0.17912564
0.48620677
-0.009021618
-0.26712295
-0.33267948
0.65510744
-0.11254897
0.38037568
0.050957702
0.04921063
-0.0064434097
-0.34832937
0.28242502
-0.5414615
0.12290449
-0.030364972
0.11035379
-0.3949633
-0.3609959
-0.25714082
-0.06906234
-0.007135584
-0.23587956
0.121424936
0.05187968
0.19613113
0.3632244
0.03340245
0.04813162
-0.11799511
0.1504347
0.18182449
0.22208214
-0.04542047
0.019399235
0.25744373
0.39837483
0.06557131
-0.039374407
-0.060949598
0.27138266
