0.026058301
0.00090109237
0.057503816
-0.031785052
-0.030951193
0.030978777
0.05075641
0.01773581
-0.012338592
0.16162491
0.042032152
-0.063310325
0.02246953
0.036365643
0.015505048
0.052070845
-0.23900643
-0.015048727
0.11170865
-0.043312583
0.024101183
0.10546342
-0.12175996
0.04965825
0.11044737
-0.08166933
-0.043995824
-0.05879514
0.027671965
-0.23987968
-0.0118822185
0.0028869626
-0.5257347
0.13386685
0.023277178
0.07904349
-0.14893846
0.09241657
0.07837647
0.14162634
-0.13989472
0.0675572
-0.0074007344
-0.05001119
0.035998985
0.027260358
-0.05848478
0.020001683
-0.2599344
0.15860683
-0.11067147
0.059351973
-0.042180438
0.16730024
-0.03708171
0.025970677
-0.007751243
0.22562839
0.055707905
-0.01873684
0.0047057695
-0.056197952
-0.0069022416
0.043531466
0.008259934
-0.14825708
0.084905244
0.0038110942
-0.05297042
0.20416264
-0.08033377
-0.072953865
0.06919987
0.017059423
0.094504595
0.030187946
-0.063333936
-0.041076846
-0.10381571
0.0864205
-0.11180872
0.015125384
-0.021538232
0.046273477
0.02503071
0.010166107
0.0037897837
-0.06577307
-0.013313963
0.18754207
-0.020473467
-0.02439375
0.20203978
0.034959618
0.056518324
-0.010602364
0.031984918
0.04779035
0.046830047
-0.04405406
0.047207344
0.05167268
0.15251951
0.0033439544
-0.054459296
-0.04081798
0.12193329
-0.062946565
-0.030361313
0.12547772
0.053389348
0.016149294
-0.043217685
-0.02973502
0.09197229
0.22679798
-0.045504287
-0.08252373
0.0038560217
-0.031235758
0.004359813
-0.020774344
-0.034782764
0.05260954
0.08369203
-0.011859787
-0.05128125
0.010592076
-0.028264629
0.064664364
0.045802217
0.05353491
-0.097159274
0.051006254
0.0010979514
-0.017130082
0.040490232
-0.0916444
-0.0017578173
-0.04604763
-7.2380164e-05
0.013169072
0.14461465
-0.043610625
0.044981454
-0.012225207
0.07179386
0.08607042
0.056332633
0.004372016
0.0039160214
0.08209614
0.0512053
-0.010036142
0.031089483
0.07658115
-0.09335721
0.028002981
0.052725054
0.042154945
0.11839754
-0.003631546
-0.006098085
0.007316228
0.17614226
-0.13220997
0.034694787
0.064586945
0.031166924
0.0817303
0.13520755
0.067745365
-0.041241553
-0.017154826
-0.03696683
-0.08323063
0.074633874
-0.03810633
0.026077222
-0.030158099
0.024389109
0.0054381094
-0.025539778
-0.047270007
-0.12020595
0.053863693
0.018628446
-0.000120493
0.31224328
-0.008359994
0.09847152
0.04028063
0.027989391
0.11195664
0.019368019
-0.0022430932
-0.013547477
-0.018684033
0.039641708
-0.014217919
-0.0080971755
0.05782913
-0.086195774
0.08288682
0.063192695
0.28075653
0.004212749
0.18589032
0.025286533
0.2118606
0.030453485
-0.04789903
-0.07213484
-0.03836693
-0.020176252
-0.007880354
0.07043606
0.011944163
0.056228783
-0.104203016
0.032840077
0.06757371
-0.047421247
0.18881354
0.009948695
0.2567912
0.03176402
0.05155475
-0.015808132
0.094291046
-0.019389644
0.010325139
-0.23634374
-0.014378295
0.11154435
0.12075947
0.108318396
-0.03495417
0.14635178
0.029000932
-0.22181395
-0.12765908
-0.039661355
0.07818517
0.036597308
0.020526465
0.036152687
0.07390079
-0.14945324
0.04019875
0.09622099
-0.037373073
0.05424147
-0.13702053
0.046093337
0.17925757
-0.010018215
0.16017036
0.021321498
0.03592746
0.12218699
-0.05464601
0.0019367336
-0.070134
-0.21701851
-0.17290911
0.13722947
0.083626226
0.07905623
0.17528367
-0.053552855
0.10901809
-0.03101123
-0.12534517
0.038935095
0.16685256
0.018067835
0.040296312
-0.046976827
0.11197588
0.1726704
0.089604236
-0.0704865
0.007231695
-0.21377301
0.01449794
-0.14001736
-0.06151987
0.038443673
-0.19896205
-0.020033095
-0.0077813244
-0.21333396
0.07496816
-0.22847898
-0.100576505
0.02618459
0.044695236
0.11310369
0.06494031
0.02914103
0.06842412
0.056197416
-0.1769456
0.091481134
0.0074204965
0.20815
-0.0034313905
0.05873497
0.26075497
-0.029100377
-0.103352025
0.053206164
0.13334227
0.12829061
0.11295541
0.033016045
-0.03991593
0.090768084
-0.040510807
0.076140344
-0.0053532096
0.048364405
0.08328244
0.101215854
0.12461155
-0.022515967
-0.02039876
0.03628771
0.03883111
0.035029165
-0.007654335
-0.027099863
-0.25186205
-0.12182216
-0.01147654
0.07504552
-0.19915538
-0.049389478
0.0012788341
0.106501274
-0.16918518
0.12906033
-0.04140641
0.08486283
0.022017004
0.0116061075
0.0692363
-0.14869912
-0.00022100579
0.053823665
0.072833054
0.06880007
-0.020722734
-0.10048589
0.21141678
0.13906355
0.014205998
-0.33572832
0.008287057
-0.06548487
-0.03630055
0.07008503
0.05009154
-0.04754452
-0.11651436
0.243947
0.11706632
-0.03384618
-0.05220254
-0.10412726
0.08969052
-0.073969014
0.09043686
-0.04825155
0.13161038
-0.19332744
0.06536107
-0.005667629
-0.004333068
-0.021292787
0.11622924
0.06429436
0.028686656
0.03370071
-0.08640795
-0.009712612
0.1609258
0.3470687
-0.020081053
0.09249043
-0.14612326
0.1659267
0.24919237
0.0687464
-0.017166428
-0.21076685
-0.060910363
-0.01958664
0.2950529
0.04383882
-0.020074103
0.02624935
-0.058143456
-0.029291118
0.062278558
0.019092297
-0.011146653
0.01757086
-0.0044006994
0.037875813
0.012453698
-0.0015715952
-0.018822035
0.01651297
-0.10976873
-0.06698452
0.038897313
0.044414207
-0.070138074
-0.04349375
-0.045381796
-0.011887946
-0.024795027
-0.014985989
-0.014438467
-0.041706726
0.0049277167
-0.04788569
-0.086944066
-0.019540008
-0.0046948125
-0.029036429
-0.02557288
-0.0046267556
-0.04176226
-0.024272123
-0.06990755
-0.043368194
-0.011646422
0.028857786
-0.030938424
-0.05480513
0.033722572
-0.108923696
-0.02403027
0.02683752
-0.038875576
0.04963845
-0.041275818
-0.048474077
0.075702295
-0.017309291
-0.13126083
0.06858624
-0.020311108
-0.055176277
0.037080523
0.013782681
0.046863023
0.0037205713
0.07138588
-0.050513953
0.016934838
0.0017710894
0.01909226
0.021712705
-0.08570508
-0.024236336
-0.058106393
-0.06030736
-0.05645632
-0.050375618
-0.059443668
-0.13971107
-0.0764396
0.02350188
-0.08362025
-0.10426373
-0.010137322
-0.06299124
0.02659225
0.0039912937
-0.10127156
-0.08637383
-0.060221262
-0.01707511
-0.051642198
-0.012957163
-0.03663611
0.022850059
-0.06965022
-0.0917628
-0.010980311
-0.06274201
-0.078458935
-0.064373836
-0.07307933
-0.062074047
0.0432932
0.03714285
0.04646216
-0.0041578324
-0.07754603
-0.06590268
-0.009945769
-0.0548669
-0.03506132
-0.038621914
0.013504609
-0.07918086
-0.06722448
-0.06035012
-0.052949604
0.07570121
-0.034723487
0.010862985
-0.04773655
-0.07545345
0.037477873
0.010409901
-0.028050032
0.025962003
-0.08293932
0.009156792
0.035854936
0.03413128
-0.06286875
-0.034879614
0.018399086
-0.072435364
0.03016399
-0.06354303
-0.02273524
-0.042655963
-0.066303834
0.05943503
0.026125
-0.048973132
-0.07385875
0.016938172
-0.043364566
-0.0028317121
-0.058749154
-0.062011253
0.044004895
-0.057082012
0.022985365
-0.058761682
-3.1201005e-05
-0.032897543
-0.060288023
-0.09204371
-0.090091795
-0.04050986
0.043316614
-0.00739334
-0.035900142
-0.042676315
0.020210797
0.022088565
0.03921609
-0.0037993167
-0.061902266
-0.04632952
-0.009174172
0.029811645
0.03129121
-0.11349071
-0.0077736904
-0.118987
-0.07640875
-0.06665633
0.03196378
0.0023949707
0.023750873
0.018956438
0.049042717
-0.06162634
0.061091162
-0.035313066
-0.047054056
0.03768677
-0.011229695
0.018719682
-0.059044745
0.03799581
-0.056757327
-0.06519391
0.049010746
0.008548043
0.048327312
0.03726801
-0.0015366231
-0.050219484
-0.018090926
-0.006107215
-0.017015884
-0.064391784
0.007172919
0.03443185
0.0930761
-0.08806108
0.031177348
-0.05319499
-0.065902576
-0.14576088
-0.4579611
-0.008479567
-0.048553355
-0.048547525
-0.025245288
-0.08101421
-0.03294852
-0.1661955
0.002457483
0.01918833
-0.00403553
-0.03091714
-0.09701086
-0.0963717
-0.24181871
0.11760446
-0.1188221
0.015717836
0.05806604
0.031895112
-0.033152405
-1.0876645
-0.05870025
0.044750385
0.0016463221
-0.12379363
-0.02361696
-0.21420622
-0.1542661
-0.019640757
-0.008374671
0.046284195
0.09246505
-0.18987425
0.00466569
-0.061972048
-0.5726998
-0.08914962
-0.009748927
-1.4448037
-1.2703655
-0.14041579
-0.070090175
-0.22960185
0.04000434
-0.044300184
-0.029183332
0.08733594
-0.048792087
0.043665845
-0.029689567
0.0043160506
-0.16396445
0.024338
-0.10914961
0.015938926
-0.00019317913
0.008951453
-0.60192543
-0.052714974
-0.13644964
-0.09000712
-0.15484352
-0.51748633
-0.05287181
-0.012455082
-0.17807388
0.04801113
-0.19809411
0.017653748
-0.123271786
-0.032976534
-1.1334802
-0.014990851
-0.43063393
-0.46687007
-1.1295439
-0.011424108
-0.027390214
-0.26966795
-0.015240534
-0.5706554
-0.03589573
0.016069043
-0.23956883
0.031158192
0.009033862
-0.00037166526
-0.72636557
-0.027973643
0.010580378
0.03077511
-0.051618617
-0.19442356
-0.010025792
0.0116509665
0.0003309149
0.054511316
-0.27262238
0.06266827
0.0047385534
-0.19150716
0.075985186
0.13794108
-0.0044482206
-0.4980303
-0.24825141
-0.037998483
0.07977296
-0.04892952
-0.027594725
-0.0028176403
-2.0395248
0.0023677319
-0.023482557
-0.059076533
-0.13944376
0.021668956
-0.98429614
-0.010641951
-0.016433846
0.016591411
-0.05449883
-0.039567873
0.06427296
-0.029576192
0.056170788
-0.057193488
-0.023431975
-0.037861466
-0.1137992
-0.20064855
-0.03826859
0.019042283
-0.041675262
-0.27442223
-0.028360946
0.10904639
-0.033373266
-0.016709639
0.026755579
0.0014524043
-0.037894975
-0.074318856
-0.07790044
0.0043611554
-1.6786237
-0.0051297676
-0.120886184
-0.24410595
0.017117903
0.017850196
0.09824521
-0.0051865135
-0.05338471
-0.0012407581
-0.123209365
0.024147056
-0.027747711
0.050752033
-0.017666224
-1.1879385
0.038477816
-0.015809381
-0.02831794
-0.00075598795
0.022741785
-0.03752363
-1.5473496
-0.012510086
-0.006127399
-0.004097972
-0.045294184
0.062206797
0.022783142
-0.041187182
-0.1069519
0.013698356
-0.0008625408
-0.046296615
-0.04593054
0.08497793
-1.9222778
-0.016768651
0.0061482457
-0.13458453
-0.14578603
-0.03601036
-3.6659577
-0.0035119816
-0.043990813
-0.13238418
-0.0013043063
-0.002997066
-0.046057068
-0.06932292
-0.074918166
0.022657463
-0.015097125
-0.07402776
0.0089740595
0.030019483
0.024501571
0.028964
-0.033455793
-0.010169635
0.042979706
0.021492617
-0.06353339
-0.044368766
-0.07489241
-0.058056027
0.01239243
0.028337378
-0.029292937
-0.02598839
-0.052690096
-0.02843634
-0.010708771
0.010267725
0.021214548
0.0016744541
-0.041305162
0.061686642
0.005481973
-0.042220622
0.051012445
-0.031372
0.038024474
-0.0027882967
0.02627055
-0.01679103
-0.04194248
-0.05829043
0.010444306
0.031751964
0.019851731
-0.0042329435
-0.10093826
0.025082193
-0.012574134
-0.016991084
-0.062978186
0.018957177
-0.014009664
0.017727625
-0.026506094
0.069555774
-0.0260289
-0.010597581
0.05515243
-0.0033807384
-0.026185563
0.049802944
-0.048587933
-0.07272754
-0.066068254
0.03937889
-0.04245063
0.05606926
0.020993667
-0.033478335
0.013684281
0.023843676
-0.021550262
0.002017445
0.03570741
-0.085003555
-0.025801713
-0.06025272
0.0008525035
-0.12355203
-0.09402614
-0.023762522
-0.055625692
-0.015412164
-0.03298028
-0.056361202
-0.034504157
0.016187435
0.012204064
0.02421573
-0.04430418
-0.03878751
-0.018318161
0.004771873
-0.08552678
-0.026625212
0.012086244
-0.022933185
0.06862881
0.01669265
-0.036567178
0.006704117
0.03785361
0.001931113
-0.047114357
0.01216709
-0.076570876
-0.06875771
0.0067857667
-0.050850913
-0.039009932
0.04074471
-0.04028985
-0.056356303
-0.065181054
-0.00428999
-0.08838209
-0.032525323
-0.025544949
-0.011513456
0.028815873
-0.047150075
0.029929522
0.06285164
0.012523841
-0.03868387
-0.026790721
-0.02835445
-0.058275655
-0.00035130585
0.0235399
-0.016010346
-0.039930318
-0.06465486
-0.0043419814
0.049119893
-0.06846052
-0.024662673
-0.0656468
-0.005206424
0.025406813
-0.046132725
-0.035799865
0.041630123
-0.073175214
0.03232689
0.058859583
-0.0034762484
-0.077183105
0.016409049
-0.075588144
-0.03606902
-0.066981934
-0.105357595
-0.031030854
0.0011063841
-0.027033731
-0.076085076
-0.09164865
-0.008468586
-0.010813106
-0.028328653
-0.036502104
-0.07411481
-0.06036345
-0.097836964
-0.12890863
-0.02065526
0.023012219
0.017807495
-0.0013552946
-0.08121985
-0.08320773
0.052723583
0.01740597
-0.07601729
-0.063333295
-0.024253853
0.051627584
0.05204717
-0.0072461376
0.018865887
0.06523296
-0.014375611
0.023033949
-0.06969501
0.029844735
0.05291856
0.05568011
0.026984397
-0.11906863
-0.005049659
-0.008336936
0.036268108
-0.063775055
0.0032381946
0.030123714
0.046137493
-0.061887912
-0.036825847
-0.08562855
-0.06584203
-0.06325877
0.043040574
0.041617643
-0.023291018
0.00884085
0.030081913
-0.0051232455
-0.082531445
0.010290824
-0.056779016
-0.032319717
0.07624454
0.0057716975
-0.082086205
-0.0038382777
-0.07759659
-0.0055622905
0.015680807
0.05004779
0.052534033
-0.02581988
-0.032968886
0.011314731
0.010730697
0.026119288
0.06325781
0.024812069
0.022654174
-0.018734934
0.017064834
-0.021784337
-0.050603718
-0.07605518
-0.006993379
-0.026637636
0.004408027
0.03746757
-0.01527625
-0.039621476
-0.025798667
0.0459126
0.031228816
0.010217172
0.017025486
-0.026193764
-0.06722279
-0.007969136
-0.016857706
-0.03475184
-0.03641026
0.04508791
-0.07572547
0.022008305
-0.02200059
0.051067222
-0.073464215
0.01641299
0.01169295
-0.03285924
-0.06945691
-0.0033439558
-0.03943838
0.03034188
-0.039273903
0.01706848
0.05413625
-0.0012757779
0.041313224
-0.06739811
-0.011996172
-0.048571922
0.059031527
-0.06879998
-0.0678934
0.05866961
-0.08829309
-0.0544269
-0.044512875
-0.022157358
-0.03486692
-0.046892595
0.027270455
0.015854001
-0.027705448
-0.07519877
0.037170585
-0.020525454
-0.06081191
-0.03705978
0.046516173
-0.054284055
-0.030705636
-0.14685959
0.0071847453
-0.036539778
-0.09530548
-0.04419296
-0.11746378
-0.069118276
-0.037262
-0.018169463
0.031812735
-0.04638453
-0.029103244
-0.065190375
-0.053104166
0.02608452
-0.031103054
0.0409295
-0.046304293
0.0005226342
-0.040449582
0.04169081
0.040509287
0.024690365
-0.07637723
-0.09288227
-0.043981012
-0.023357108
-0.06547277
0.014063671
-0.011872609
-0.049324792
-0.020402398
-0.056298748
-0.034845736
-0.052694563
-0.08052575
-0.03756271
-0.011637071
-0.06071533
-0.052212086
-0.06282917
-0.028422419
-0.06717793
-0.031331357
0.020323357
-0.020021752
0.0139098335
-0.021756953
0.02663296
-0.06860056
-0.05986698
0.010721332
-0.056787618
-0.03499096
0.02795754
-0.056037612
-0.04863249
-0.016727509
0.04236741
-0.04682183
-0.058405653
-0.06927811
-0.07163369
-0.034861863
-0.12945163
-0.078641854
-0.0055895313
0.034694687
-0.010008645
-0.013194355
-0.030204635
-0.09749031
-0.07812455
-0.049071472
0.031889454
0.017307995
0.00014799021
0.014670246
0.034833178
0.03396362
-0.041204773
-0.069733925
0.050423056
-0.020381913
-0.08331917
-0.06498099
-0.0027882357
0.04077863
0.0012837971
-0.070430405
-0.11108068
0.047834102
-0.07425578
-0.05775936
0.016428115
-0.016259609
0.033667106
0.009839984
-0.08083232
-0.055645425
0.01463173
-0.02738926
-0.027879043
-0.021466661
0.050410777
0.0039642444
0.016294356
0.050435025
-0.002736622
0.027175657
0.1387093
0.058175206
0.13892674
-0.13024478
0.011200186
-0.022587487
-0.08918916
0.09261431
0.11142422
0.07310732
0.056657545
0.0615439
0.04914632
0.12071887
0.033508
0.0704426
0.019581903
-0.06450445
-0.04064948
0.06284647
0.016429925
0.055432312
0.11147805
0.0120526105
0.029176181
-0.008140289
0.1617097
-0.03770651
0.032361276
0.12055452
0.041709736
0.12400151
-0.040866416
0.00012393417
0.07603728
-0.010757596
-0.015072819
0.10660748
0.0330912
0.00979909
0.01196733
0.07419557
0.028857559
-0.01726714
0.043525603
0.39229986
0.050858274
-0.03116384
0.097571425
-0.00025605227
0.07204082
0.015699293
0.08028029
-0.07666961
0.0055802767
0.03186083
-0.037987612
0.003665869
0.04285378
-0.06697351
-0.00090238504
-3.4677374
-0.015304807
0.040065613
0.017871855
0.009274326
0.041769538
0.0073492387
0.0034278133
-0.031698134
0.028458174
0.07091513
0.027563525
-0.024720911
0.12507355
-0.03366247
0.015647963
-0.046510503
0.04625989
-0.050447285
0.023252817
0.0614073
0.32377714
0.011038776
-0.06166129
-0.026442079
0.06004168
0.028612131
0.04690287
0.016745435
0.008710563
0.00533738
-0.04151666
-1.9368148
-0.027965179
0.0050118854
0.02245202
-0.008133939
0.05249295
-0.023808694
-0.089581326
0.048309132
-0.06439038
0.031728905
0.2529196
0.05051422
-0.009478761
-0.070282444
-0.015905356
0.037429668
-0.015754214
0.02041274
-0.03596186
-0.033572674
0.086427405
0.06494327
0.0043062097
0.06433838
-0.033759005
0.08680193
-0.023711033
0.10699122
0.047014754
0.055022433
0.017552862
-0.0376028
0.034987077
0.18508792
0.015055306
-0.0173414
0.034066804
-0.007720406
-1.0071256
0.04650816
0.0058373525
0.027916357
-0.038413376
0.057346437
-0.008510502
0.0995382
-0.008884249
0.010092827
0.02192071
-0.052119665
0.060242422
-0.04240386
0.026763082
0.011306113
0.041982666
-0.029259128
-0.02690025
-0.0062163407
0.06242815
0.043101557
0.04987345
-0.06817939
0.026972502
-0.047134172
-0.042789776
-1.1242933
-0.33589897
-0.028399523
0.04507424
-0.14143401
0.0509026
0.007657818
0.05016718
0.096681446
0.13595979
-1.2033731
-0.03589945
-0.047266323
0.06593298
-0.74154764
-0.5956977
0.0070784125
0.029920658
-0.02779852
-0.37988633
0.07155497
0.07396192
0.07187472
0.091386534
-0.021677
0.09479732
0.0009936312
-0.020657195
0.072957985
0.043866962
-0.009249168
-0.040941324
-0.021152485
0.015501803
0.012246429
0.021301543
0.029844383
0.022264408
0.05041895
0.042225946
-0.021227026
-0.16063902
-0.05832002
-0.08768283
-0.031888228
-0.029522397
0.19196369
0.02145952
0.08065782
0.42263454
-0.0021859463
-0.02102239
0.09052993
0.21078885
-1.42369
-0.14718938
0.008458478
-0.0066340226
-0.044013232
-0.025740659
-0.044982523
-0.09586252
0.033241384
-0.41229004
0.048149753
-0.011037748
-0.026485551
-0.9552356
0.037902664
-0.015964473
0.08796542
0.12654017
-0.040653683
-0.09081568
-0.6118933
-0.2909553
-0.33178306
0.028843822
-0.33913344
-0.0213905
-0.07321877
-0.00430776
0.07996904
-0.049376164
-0.008483219
0.006676991
0.26273817
0.031028206
-0.021749025
0.103961594
-0.059330374
0.11380709
-0.06992689
0.012932254
-0.033440724
-0.03910585
0.041728847
0.0060124365
0.049248815
0.043110408
0.008446874
0.09330852
-0.039100032
-0.0020895111
0.13535559
-0.109697506
0.030873034
0.033889778
-0.028171295
0.23747478
0.042563286
0.006281232
0.09300548
-0.05032508
-0.14334309
0.07732127
0.116490975
0.029505095
-0.34353113
0.022106567
0.19618759
0.005341818
0.023781523
-0.029212728
0.08366496
0.019437354
0.029859897
0.005065774
-0.027662082
0.03896739
0.0777599
0.03912342
0.15424696
0.040625207
-0.002373607
-0.032073278
0.047408532
0.002488323
-0.023808697
0.085785985
-0.038949564
0.052844096
-0.014229714
-0.019917719
-0.059000775
-0.05082417
0.07886264
-0.049422074
0.011923486
-0.22590162
-0.041544493
0.015848558
-0.042408537
-0.009268524
-0.019427624
0.009463559
-0.049245145
-0.01973967
-0.04295709
0.083243266
0.016434394
0.058733527
0.11036901
-0.02117103
-0.07136672
-0.0023961517
-0.00062617817
-0.09554141
-0.20252389
0.063891046
0.076845564
-0.027169123
0.078830615
-0.009115486
0.027103161
-0.00317956
-0.034766033
-0.012257676
-0.07018233
0.19582368
0.13260955
-0.034068532
-0.065851994
-0.045667417
-0.012310777
0.058908865
0.025093917
0.16386913
-0.041442107
0.05216892
0.008703881
-0.04256694
0.30434063
0.21023285
-0.14141066
0.030417599
-0.005877907
0.05227596
0.0035124994
-0.044349432
0.03527278
-0.03000909
0.08980547
0.07888857
0.03480338
-0.013757224
0.044736367
-0.011952006
0.013356262
0.041408174
-0.0020054197
0.11799263
0.058855418
0.018752938
0.06886113
0.009735409
-0.064721875
-0.044829994
-0.039971467
-0.06587699
-0.0018162201
0.039956763
0.026944514
0.08037782
0.10146298
-0.024808915
-0.079600245
0.008713109
0.04445103
-0.10996763
0.021875879
0.09418277
-0.023736058
-0.0026697128
0.27845225
0.051621832
0.090083115
0.17478672
0.018597307
-0.06545207
0.0084273415
-0.10365936
0.05750607
-0.011705486
0.004405052
0.03725707
-0.00013356142
0.026827198
-0.061308306
-0.083192304
-0.05886009
-0.033019394
-0.0750279
-0.09284925
-0.04756569
-0.007962291
-0.012313204
-0.042426284
0.057001658
-0.051226437
-0.028630327
-0.026905846
-0.013145983
-0.052092843
0.019930257
-0.012641616
0.015186064
-0.008162318
0.009577255
-0.062467497
-0.025652707
-0.07927073
-0.06648494
-0.010867401
0.0073104533
0.01547539
-0.069032
-0.031967122
-0.008249942
0.016518466
-0.046055254
-0.046005853
-0.050115608
0.009355329
-0.0043000258
0.021975972
0.05489273
0.022922996
-0.019236648
0.041525275
0.05928382
-0.03555739
-0.035023436
-0.036942434
-0.069039054
-0.06036713
0.021164775
-0.06759126
0.049395803
0.02334272
-0.03363199
-0.05260173
-0.050424945
-0.03703604
0.027314406
0.018410495
-0.020495195
-0.059649482
-0.05959081
-0.025867194
-0.012000658
0.017296966
-0.043188512
0.035547648
-0.104735956
0.021150935
0.036181968
-0.090754785
-0.09754747
-0.07567843
0.027982173
-0.047542993
-0.053223494
-0.07598253
-0.10081621
0.0034641044
-0.04371594
-0.00833259
0.034803603
0.05459177
-0.027942095
-0.037847325
-0.09818151
0.040061593
0.009618635
-0.010785706
0.01618082
-0.082446046
0.026856031
-0.06489176
0.052072722
-0.03853712
-0.084806114
-0.049592726
0.02906705
0.0062138927
0.03894418
0.006882991
0.012719596
-0.008268759
-0.012317533
-0.021085864
-0.01900552
0.0032911685
0.016165668
0.0029659225
-0.04610065
-0.041005023
0.021567572
-0.06864439
0.06278015
-0.026174573
-0.01971053
-0.01629251
-0.053665962
-0.04803383
-0.036042582
0.0291764
0.02177767
-0.07009227
-0.10929888
-0.030543473
-0.055739388
-0.031684678
-0.030595029
-0.006952235
0.00046295047
-0.08999705
0.009318928
0.03030241
0.021699827
0.015729401
-0.05479926
0.004306776
-0.04000941
-0.0053834696
-0.061654128
-0.04482016
0.02904486
-0.042123087
-0.08082413
-0.009688262
-0.00033846305
0.05167972
-0.039537333
-0.13213024
0.014212195
-0.03219185
-0.06753395
-0.025663683
-0.045714907
0.018822577
-0.050207485
-0.059051387
-0.0028962083
0.0016205914
-0.015788533
0.009450652
0.04586951
-0.019924589
0.051258642
-0.06889201
-0.097975664
-0.04398353
-0.06832233
0.060150053
0.060739815
0.05265927
0.05730408
-0.048914075
-0.01468253
-0.04543526
0.027726816
-0.10421514
-0.065218054
-0.07822745
-0.004723269
-0.02929857
-0.065002464
-0.08690997
-0.06340156
0.0036286279
-0.0026396094
-0.009285288
-0.08423232
0.020892827
0.0010158475
0.033380333
-0.025821721
-0.01601902
-0.0312088
0.026309462
0.075595915
0.20409101
0.08292692
0.13358489
0.11746045
0.031860046
-0.0014879949
0.06723855
-0.007275094
-0.040046725
0.0013966215
-0.008572556
-0.064464755
0.012154675
-0.03550053
0.016868481
0.106439196
-0.04423998
0.074203916
0.01925877
-0.12904634
0.1666054
0.03875867
0.012294477
0.054599985
-0.14646402
0.069133185
0.11749938
-0.03186425
-0.093605146
0.089548476
0.23714288
-0.028506175
0.037625015
0.28316796
0.09680741
0.0710484
0.1291476
-0.046213962
-0.14470014
0.023158483
-0.09730052
-0.011488382
0.07137287
-0.044695165
0.07141628
0.020450542
0.05847205
-0.057209283
0.004624908
-0.0037832486
0.053197462
-0.037121456
0.0920621
0.046469666
-0.23135188
0.13057123
-0.14261273
-0.06160422
-0.09677205
-0.029596806
-0.7796965
0.17120315
0.06539033
-0.037807267
0.053918105
-0.25550294
-0.15234847
-0.046060234
-0.10522909
-0.011486766
0.010169131
-0.0007329018
0.006024702
-0.1286712
-0.10137559
0.11974793
0.13361366
-0.26371208
0.030491734
-0.0202283
0.083892114
-0.4910152
0.15282114
0.13765171
-0.19048187
-0.057381574
0.02687445
0.1534799
-0.04820147
0.0068622357
-0.39495337
-0.008660759
0.016915586
0.076342866
-0.041068245
-0.05085594
0.009100364
0.08607531
0.014326702
-0.29714838
-0.3689732
0.23935325
0.015760636
-0.0077923904
0.38801792
0.069236234
0.11792428
-0.20322338
-0.0621802
-0.016535468
0.10856255
-0.00881591
-0.083017424
-0.055773754
-0.2781443
0.05944231
-0.019709876
0.058107387
-0.06556259
0.038932625
-0.313792
0.022355253
0.016324624
-0.031324465
0.091305345
-0.20206605
-0.028454563
-0.021664778
0.1474036
0.054929607
-0.035622094
0.15506692
0.18459982
0.028910382
0.028891318
0.17629182
-0.2217746
0.11435048
-0.06483408
-0.19490843
-0.017840927
0.034429144
0.053082325
-0.12386274
-0.092861794
-0.025126899
0.099136926
0.04094656
-0.047187407
-0.042081177
0.03478755
-0.28114966
0.10298687
0.20341568
-0.046748295
0.014919357
-0.008451981
0.016841147
-0.07603243
0.02542525
-0.15993288
0.055782557
0.0061603617
-0.08035052
-0.006285735
0.08968287
-0.024887288
0.14001085
0.15366653
-0.1560323
-0.06816845
0.084969155
-0.019290147
0.019223379
-0.040215343
-0.02284618
-0.11048325
0.015421078
0.038751498
-0.0013571868
0.060690302
0.019959547
-0.12463908
0.36271763
-0.05439315
-0.058198653
0.1926761
-0.0023878424
0.00242848
0.10168143
-0.04480996
0.06608238
0.06346164
-0.5358014
-0.06782101
0.0098931845
-0.04334216
-0.0034878226
-0.22034402
0.027929988
-0.2704402
-0.0010780849
-0.065863416
0.06490654
0.020133156
0.03414779
0.1621172
-0.007554372
-0.06753595
0.07730031
0.09223431
-0.09147925
0.038044624
-0.07755624
0.07805246
-0.022272915
-0.09776163
0.036490873
-0.124464095
-0.10378163
-0.20512028
0.006812704
0.09724825
0.025138054
-0.050859448
-0.030561129
0.08405959
0.05913178
-0.004771427
-0.05104263
-0.019416708
-0.10819296
0.0049319947
-0.25329518
0.0153347645
-0.10852327
-0.070797965
-0.11718145
-0.1597164
0.039957132
-0.037539948
0.0075722854
-0.14722784
0.12176641
-0.073506534
0.067100585
0.026727539
-0.06787461
-0.06208701
0.016112523
-0.08647443
-0.043468926
0.13693218
0.03126305
-0.029332586
-0.028294476
0.2120692
-0.010111964
0.011716717
-0.018799663
0.091037326
-0.05802077
-0.002665316
0.09485424
0.082765155
0.12610306
0.063372105
-0.083614364
0.063775145
0.15619373
0.019298524
-0.07527005
0.05635416
0.1575574
-0.032381706
-0.09242451
0.015385176
-0.0052740662
0.034595456
-0.046284642
-0.07363598
0.002838074
0.21570672
0.024286421
-0.0025683274
-0.023991147
0.057779036
-0.21992993
-0.0026575555
0.0261545
0.040869284
-0.01260391
0.07589323
-0.2764111
0.02204064
0.03244261
0.019823462
-0.24731663
0.11142205
-0.038327448
0.048281197
-0.35396034
0.09743572
0.032523166
-0.38413468
-0.12500216
0.014812886
0.0454163
0.0013960691
0.10591843
-0.23514342
-0.063729905
0.103059925
0.06022017
-0.1145858
0.06744142
-0.06903151
-0.08756212
-0.12811017
-0.06479912
-0.01578184
-0.000109381755
0.052697226
0.012695156
0.12698023
-0.06384929
0.034606315
0.058590837
0.015926803
0.040998492
0.019018868
-0.051020246
0.12651984
0.053626675
0.023925152
-0.37798882
-0.074442856
-0.27287018
-0.0015172638
-0.11229181
-0.049686372
0.05618773
-0.07385702
0.09973617
0.13783665
-0.04878116
-0.14375637
0.02870345
0.016176375
0.0050196243
0.048982427
-0.09525632
0.049275458
0.06899245
-0.044053406
-0.24664398
-0.009154274
-0.015434314
-0.034882344
0.09834194
0.11586295
-0.055338446
-0.0702286
-0.14425379
0.04187245
0.0018432292
-0.04497419
0.044720184
-0.21898009
0.006267948
-0.061740022
-0.08433795
0.014802076
-0.0067675696
-0.014004648
0.018151479
-0.04413126
0.12435771
0.026984883
-0.047651708
-0.004656391
-0.011168791
-0.00105058
-0.10328347
0.042593557
-0.098359354
-0.006029368
-0.026957875
-0.094589315
-0.18215057
-0.008759954
0.011361424
0.030697789
-0.5629897
0.05976963
-0.0131700905
-0.026418269
-0.097521536
0.08013961
0.05092419
0.13989034
-0.011546175
0.033240836
-0.047533162
0.097020954
0.02614772
-0.019216746
0.08278418
0.059832495
0.023612076
0.057444405
0.09666352
0.03482933
-0.037228167
0.026602138
0.0025254777
0.0033151163
0.040986955
0.095619835
-0.05741529
0.1316446
-0.025704332
-0.009049018
0.028715951
0.088050276
0.07637145
0.1185995
0.07469627
-0.012115597
0.060636785
0.04296584
0.004389452
0.012085153
0.11753043
-0.0149628
0.08067445
0.044396505
-0.026460506
-0.030120153
-0.0004433609
-0.006920846
-0.0034522256
0.005993956
-0.08401558
-0.039448604
0.07574998
0.016144905
-0.059600703
-0.030874707
0.06383739
0.053221785
-0.04839329
0.0472598
0.03761712
0.009003469
0.16984095
0.03399936
-0.019841773
0.06287362
-3.5436456
-0.055869613
0.11066083
0.015633248
0.036881156
0.031545654
-0.013748435
-0.0067474446
0.0625872
0.00027349795
0.07279717
0.059307046
0.08067789
-0.033112008
-0.013067989
-0.025133902
0.054292288
-0.086442456
0.024735993
-0.03990723
-0.039005093
0.09992608
-0.104079925
0.052198105
-0.05135647
0.02712122
0.015465278
-0.03490957
0.0012267383
0.04656189
-0.04569192
0.012812201
-2.1041453
0.024871066
-0.030820744
0.046720922
0.013711112
0.12448442
-0.0119188335
-0.09332566
-0.047531545
0.02432351
0.11316246
-0.026879776
0.023714105
0.16893336
0.027255913
-0.025041273
0.00013554779
-0.023012316
0.07155587
0.0251123
-0.047030054
0.014199526
0.0020168342
-0.009588765
0.03581212
0.046860144
0.016489647
-0.15714313
-0.04968779
-0.035227466
0.043168176
-0.057101216
-0.051542066
0.07143611
0.007444151
-0.06491809
-0.020379541
-0.010712068
0.00706757
-0.50475097
0.07191971
-0.0023258459
0.026402801
0.017581783
0.015010595
-0.051195633
0.08334345
0.03140456
-0.04842722
0.06471374
0.102865
-0.034968294
0.002328186
0.072020434
-0.025877515
-0.0495705
-0.057923056
-0.003240605
-0.05488578
-0.2269276
-0.07539876
0.031122882
0.13114439
0.0012755888
-0.008509788
0.0154165
-1.0395658
-0.20136185
-0.023630328
0.010548485
-0.041555073
0.119226836
0.009534344
-0.026370123
-0.060934182
-0.06532436
-1.2404345
0.018483229
-0.12400034
-0.05993645
-0.620581
-0.5030289
-0.040486
0.06632752
-0.08700422
-0.4124061
-0.009749363
-0.059387103
0.11335145
0.016351653
0.06412353
-0.018744744
0.22145663
0.030128777
0.04565556
0.0060104304
-0.021231806
-0.030408222
-0.035006706
0.0006788688
-0.048808776
0.038295567
-0.01698083
-0.074609615
-0.025680132
0.057816733
0.089718975
0.11520311
0.046264045
0.07354372
0.0040886668
0.033884764
0.1877928
0.21544878
-0.006767912
-0.03952726
0.044012785
-0.014859876
0.03624031
-0.03100458
0.02471255
-0.0934324
0.05534963
-0.10515644
0.04594862
0.0818122
-0.050055895
0.087104775
0.071148306
0.023495376
-0.018304097
-0.06008854
-0.0106827095
0.12192433
-0.01854746
0.010511437
-0.22153868
-0.12407202
0.103236586
0.111443765
-0.00563089
0.10536292
0.031917993
0.05394108
-0.104934916
0.124782085
0.0793849
0.004556315
7.6554286e-05
-0.055867292
-0.055511322
0.043561984
-0.53325945
-0.15676369
0.005325964
0.083807796
-0.04211092
0.17513128
-0.04082197
0.046886362
-0.043316133
0.21516068
0.19372414
0.006481786
-0.012516884
-0.08854352
-0.0038125578
-0.024757521
0.012063439
-0.110973105
0.09616804
0.09534977
-0.012146348
0.16204605
-0.11237979
-0.2952618
-0.035809737
-0.096369125
0.01914024
0.062248036
0.029059583
-0.01373391
-0.29949915
-0.016362125
-0.12411783
0.036360156
-0.062106185
-0.07552785
0.029365508
-0.045114364
0.004676376
0.13202772
-0.03440671
0.14130133
-0.004519922
0.07581166
0.2266514
-0.04115677
0.06227991
0.041060496
0.037354972
-0.0037399756
0.03854906
-0.008543034
0.06257456
0.08919315
0.21541008
0.022975795
-0.031637985
-0.06463207
0.26329395
-0.20884089
-0.051143143
0.120120324
0.062731534
0.046958447
-0.012483616
-0.1012193
0.13647693
0.27401423
-0.0035937652
-0.10807573
-0.04116124
0.014748072
0.031548202
-0.03263401
-0.007968642
-0.009866033
0.08764146
0.036540713
-0.048795167
0.0323455
0.010831148
-0.113419525
0.070073634
0.08732521
-0.12735923
0.13605554
-0.19220817
0.065272816
0.046235107
0.11248375
0.0581375
-0.06821045
0.024093699
-0.35840422
0.01145426
0.07263674
0.0027815383
-0.019681446
0.103577
-0.0046232855
0.013129099
-0.07400678
-0.050571997
0.18524975
-0.048839863
-0.019319454
-0.05832926
-0.23660477
-0.11911197
0.04492502
0.09640093
0.020393426
0.19135414
0.038154595
-0.10416842
-0.08180167
0.21694374
-0.29545408
0.0076345988
0.006372681
-0.069613926
-0.009576074
-0.006249418
-0.027658027
0.14191121
-0.07147204
-0.015238477
0.026344715
0.043150958
0.04460935
0.06258162
0.02828573
-0.040337015
-0.060257263
-0.029798845
-0.036346562
-0.079409584
0.051538456
0.121696435
0.043409668
0.30960408
-0.0038446418
0.13013002
0.01082574
0.008918881
-0.05723415
0.024456007
0.028358234
0.022092555
-0.017321883
-0.02264911
-0.10165282
0.06914397
0.05762079
-0.032766208
0.83117586
0.03574924
-0.08026109
-0.034303322
0.12080072
-0.012066125
-0.17483991
-0.0039974577
0.070390426
-0.0082375975
-0.02335239
0.055490937
0.06319077
-0.0024384945
0.007631654
0.112015314
-0.014340259
-0.00744809
-0.111000516
0.008306633
0.1821803
-0.02498141
0.008372804
0.042003103
-0.155892
0.027150718
0.08269995
0.005024981
0.008375509
0.17763571
0.17633036
0.014069793
0.0085813925
-0.027940592
0.13567631
-0.43304092
0.1633991
0.23857309
0.10672403
-0.0431446
0.018375553
0.009802954
-0.04278065
0.025695762
-0.092427924
0.1912808
-0.010917908
0.015552906
0.03162358
-0.021953056
0.053534124
0.00403951
0.05918066
-0.008732896
-0.10810295
0.057639785
-0.28890592
0.02939147
-0.109012306
-0.027306145
-0.021743417
-0.03804353
-0.195597
-0.011548148
-0.05541868
-0.022350885
0.016891684
0.045943905
0.26688
-0.049407218
-0.05301162
0.03170265
0.037443213
-0.038154565
-0.053491037
0.22374706
-0.0638453
-0.014396952
0.023714894
-0.20873672
-0.009511798
-0.012386309
0.015885822
-0.38567045
-0.017857952
0.043336798
-0.023237407
0.044014763
0.058968704
0.016186852
-0.026143672
0.20657898
-0.22060008
0.060290664
0.14061603
-0.044440992
0.0014271191
-0.14608735
0.016002882
0.025399115
0.18156108
-0.039659787
-0.3079466
0.063476734
-0.028750438
0.02534925
-0.10398248
-0.30523217
0.373252
-0.13277636
-0.15488017
-0.051209837
-0.10295326
-0.04742611
0.038670853
-0.17821416
-0.060023867
0.049992308
-0.031320706
0.044588596
0.06271916
0.07302437
-0.14529216
0.034208793
0.00083605223
-0.00019339274
0.100765906
0.0068984893
0.0006653623
0.044864498
0.052924685
-0.1990059
-0.03576465
0.032240234
-0.0031834831
-0.0020513393
0.015444649
0.06201513
0.20831783
0.12368247
-0.057696458
-0.33596605
-0.03777209
0.023135448
-0.026928626
0.11383142
0.07345367
-0.061296154
-0.07021951
0.056895595
-0.015518254
0.28132924
0.06881292
-0.18062127
0.014887178
0.0921129
0.033554576
0.019247482
-0.008001122
0.039975323
-0.026403302
0.13050446
0.069459155
-0.008397713
0.0932964
-0.03321386
0.01320278
-0.24279477
-0.08809684
-0.019913672
-0.3940784
-0.6971721
0.007757025
0.023732694
-0.053697668
-0.04687782
0.03556348
-0.018874966
-0.04753974
0.03865199
0.0205696
-0.047490362
0.14884962
0.034446154
-0.0011862271
-0.47135338
0.035527606
-0.09218694
-0.085643955
-0.071097754
-0.3526804
0.015451939
0.00168673
0.25257578
0.039751206
-0.022019584
0.1104066
0.06695406
-0.11970692
0.026396457
-0.045247
0.07966401
-0.05932387
-0.07659802
-0.047360826
0.06692482
-0.1085444
-0.12390725
0.051248383
-0.01794533
-0.063529655
-0.08006403
-0.004012911
-0.110552445
-0.054766994
-0.05203427
-0.15153019
-0.10131862
-0.19633396
0.1400561
0.10440927
0.016730048
0.2551219
-0.052606292
-0.45475814
-1.0550387
0.34653288
-0.047660325
0.055546705
-0.28849116
-0.021745197
0.0632836
0.03229394
-0.0017081051
0.3371877
0.14554863
-0.23474395
-0.06353584
-0.17554605
0.019906018
-0.56766486
-0.020939952
0.030765425
-1.5325114
-0.36412597
-0.15800129
-0.1750998
-0.38856167
0.020303069
0.023606917
0.058196995
-0.047533672
-0.22843966
0.025414998
-0.1864492
-0.053192873
-0.029335132
0.02929325
-0.042914703
-0.042172268
-0.020453457
-1.3145794
-0.027092334
0.0037394157
0.05128469
-0.056318972
-0.006601103
-0.0977464
0.016883763
0.006663689
-0.08593032
-0.018797597
-0.046169836
0.0069522136
-0.10206908
0.017772386
-1.0620915
-0.07626035
-0.19564335
-0.3570053
-1.3327317
-0.17267464
-0.05665228
-0.19983278
0.0061670793
-0.41799638
0.15889156
0.056114916
-0.14432329
-0.061724402
0.004444403
-0.18456788
-0.19895253
-0.709568
-0.29559168
0.010951731
-0.14258367
-0.12671284
0.12904383
0.00086547725
-0.26808605
0.002502593
0.008829241
-0.14628391
0.053984683
0.11727227
0.23046863
-0.04697239
0.039254162
-0.1627245
-0.21547936
-0.086397305
0.008343377
0.060252115
-0.05654259
-0.021718655
-0.98769146
-0.13535893
0.057526104
-0.051721558
0.08837191
-0.07404513
-0.23410346
-0.018304236
0.11139625
-0.010160832
-0.006467859
-0.21682563
0.16976555
0.04003446
0.049454655
-0.103837386
0.10514332
-0.046574447
0.018833922
-0.0776969
-0.07142895
0.0034462302
-0.03025112
-0.09409705
0.20918755
0.006879568
-0.029453203
0.0562311
0.0480633
-0.20698972
-0.002578044
-0.024635535
-0.14111999
0.05278944
-1.6695396
-0.04562828
0.048547346
0.025408925
-0.0060121566
0.11958163
0.12550654
0.02264622
-0.02942659
-0.28442863
0.19840185
0.011255815
-0.03211773
0.1197276
-3.35843e-05
-0.5227498
0.07981109
-0.0051286938
0.062360674
-0.267735
-0.23711172
-0.03585661
-0.50140285
-0.13882233
0.03692877
-0.100698024
0.054094195
-0.07711717
0.044298515
-0.18866508
-0.16876741
-0.011548196
-0.08895726
0.051110525
-0.09292188
-0.10755833
-2.2430673
0.13587472
0.00984615
-0.2100658
-0.23866369
0.01428742
-4.1215086
-0.16694202
-0.013246888
-0.12510927
0.19975401
0.05058986
-0.061877757
-0.02694614
0.121584155
0.007365582
0.21113352
0.04005365
0.041534353
-0.03272398
0.11875124
0.016803961
-0.018842181
-0.030512009
-0.045316905
-0.010741402
0.084245645
-7.652302e-05
0.051776282
0.022077657
-0.03398678
0.026664432
-0.03337367
0.031640943
0.040553145
-0.088335946
0.04285623
0.08873226
-0.047084723
-0.03838442
-0.05204666
-0.02819431
0.024135526
-0.0023295016
-0.35710588
0.021854937
0.19258706
0.009539353
0.009521241
0.025450896
-0.028407136
-0.0023564927
0.17796023
0.01768092
0.039059
-0.035601452
0.0012666734
0.04486208
-0.07656834
-0.15362255
-0.009895321
0.029212909
-0.0124948025
-0.027287032
-0.07944343
-0.0027279793
0.045392394
0.019145917
0.06884791
0.022440018
-0.048920833
0.14409038
0.041937456
-0.00028646924
0.061348572
-2.4980266
-0.13135108
0.1672468
0.04007561
0.060228
0.09591206
-0.11599107
-0.09262884
-0.0060459403
0.067823075
0.027185652
0.030882983
-0.016027505
-0.100522585
0.0040824986
-0.09579555
0.009409329
-0.08486127
-0.025729876
0.046516437
-0.028055238
0.07225273
-0.033332627
0.22174242
0.09574487
-0.12042454
0.056769986
-0.041535772
0.067381896
0.051691398
0.073361464
-0.0446889
-1.1056515
-0.0017344566
-0.03099073
-0.06450044
0.0315802
0.021777814
0.0013127713
-0.0015524382
-0.0710082
0.0042553307
0.23124838
0.13377927
0.07410338
0.114099815
0.0461023
0.025393143
-0.06553841
0.026439296
0.060222995
0.14446983
0.08157775
-0.0026324587
0.015811596
0.015729789
0.057976123
-0.0050436943
0.07297445
-0.014275859
-0.10412978
-0.024215877
0.021289172
0.060337678
-0.016460251
0.05354152
-0.026926367
0.067260146
-0.0028783826
-0.016541738
-0.0136919785
-0.05004164
0.0112765115
0.01883502
-0.052846957
0.074971706
0.06068647
-0.037596963
0.22151372
0.010432215
-0.03859171
-0.017048717
0.05168686
-0.031138424
-0.060845546
0.046563044
-0.00927587
-0.21387275
-0.010228802
0.015715655
-0.015526398
-0.031350337
-0.045324653
0.027333975
0.10565061
0.033566386
0.003844779
-0.048261803
-0.47965318
-0.08754687
0.11965644
0.057913292
0.022522654
0.090538256
-0.09212675
-0.04130812
-0.015355835
-0.06305533
-0.7466852
0.019289685
-0.10661224
-0.016465288
-0.23264578
-0.2719711
0.046589732
-0.017963493
-0.031652242
-0.11530666
-0.0009949291
0.057283778
-0.061719146
-0.007818345
0.02269627
0.06748801
0.21552323
-0.020130685
0.043773953
-0.0069424617
-0.086209066
0.035832383
-0.022917923
-0.020399354
0.0035765788
0.013507773
-0.008196816
0.011971684
0.0028900695
0.018898973
-0.0012745202
-0.11789909
-0.0015782182
-0.047111973
0.035557024
0.044608206
0.056114517
0.07299084
0.077865936
0.0067663724
-0.0062726894
0.023289334
0.077653825
0.12941206
-0.0011019638
0.033647228
0.024917636
-0.050241858
-0.043638423
-0.021765681
-0.015145264
0.049198076
-0.038441498
0.015759116
0.05278728
0.017365487
0.015920099
0.057513252
-0.010917635
0.032643706
0.030023683
0.022318132
0.023879278
0.065356
-0.08334361
0.054729808
-0.02135944
0.052292373
-0.22430812
0.0023459839
0.0036595894
0.03092943
0.039168414
0.012223234
0.02342105
0.04579459
0.13339019
-0.00314834
6.2493345e-05
0.055526227
0.05081302
0.047511667
0.004630011
-0.054721538
0.023459602
0.042985406
0.010607289
-0.013262555
0.10455146
-0.0503514
0.03553642
0.01393246
-0.016130202
-0.010161945
0.06269282
0.0075752754
0.060250897
0.06566801
-0.011031076
-0.060996566
-0.05550879
0.008374306
0.10616717
0.03517868
-0.044924453
0.03350845
-0.026158553
0.009205071
-0.28497893
-0.041524943
-0.0049110213
-0.010684065
-0.015714243
-0.026536271
0.07672028
0.094683
0.010352845
0.063195206
0.04712182
0.0085850945
0.020394228
-0.012733069
-0.0037837848
0.01040927
0.03198203
0.00042988866
-0.03149792
0.0041844198
0.10460226
0.051253892
0.052988473
0.017655544
0.044795856
-0.03880926
0.058301367
-0.027521184
0.056778632
-0.028916422
0.028443871
-0.05710927
0.01849548
0.012928626
0.054555677
0.032057926
0.03089545
-0.0032824764
0.051355895
-0.014719936
0.071790874
0.03380912
-0.033381958
-0.024437318
-0.0044526006
0.05115206
0.05691023
-0.024491154
0.038290422
-0.082716666
-0.03042934
0.10502201
-0.04816186
0.0034965836
0.013843774
-0.0075028753
0.08234536
-0.00040759944
0.03187502
-0.00040100713
0.053065836
0.0040807975
0.0036045534
0.025168229
0.034152914
0.028583333
-0.01955812
0.09073499
0.02244983
0.07721731
-0.016773181
0.044302747
0.020995822
-0.03423908
-0.11867965
-0.05169318
-0.015230096
-0.0028207793
0.11022282
0.011935969
0.03147431
-0.023892574
-0.012742534
-0.05223649
0.04018248
0.03437392
-0.028579185
0.013709339
-0.03278401
0.00027220708
0.032620918
-0.055244766
-0.019416267
-0.03184359
0.023878634
-0.035964347
-0.02787088
-0.047632895
0.019956226
-0.025539728
-0.021146908
0.0030714283
0.048964832
-8.6024505e-05
-0.038436305
0.017580826
-0.01557502
0.04362509
0.036406577
-0.014766278
0.08009298
0.06437355
-0.07466768
-0.010729163
-0.026961759
0.0030101018
-0.13493122
-0.00095561374
0.07037033
0.005566302
-0.0063419156
-0.027727766
0.111306496
0.029830841
-0.14676644
-0.024970936
-0.2887359
-0.5749381
0.031499702
-0.035291117
-0.27527452
-0.056841757
0.072336026
0.0027267833
-0.19733371
0.0046812394
-0.015687976
-0.0583958
-0.11682623
-0.20132105
-0.056184642
-0.49740326
0.13003525
-0.25079417
0.034204938
-0.001428976
-0.009056937
-0.15505663
-0.85077554
-0.0032786164
-0.011333627
0.025675325
-0.17853129
-0.03756099
-0.32806873
-0.27776206
0.019809624
-0.029291537
-0.005803975
0.14911579
-0.062152024
0.045467574
0.00442382
-0.5447709
-0.17040187
-0.012664119
-1.8160989
-1.1977019
0.027588788
-0.054540984
-0.18191797
0.01906204
-0.0087599335
0.09347927
0.04760575
0.04750769
-0.009998492
0.0089465445
0.036780875
-0.033323865
-0.097009555
-0.3124119
0.029070241
0.012805142
-0.008111883
-0.6270459
-0.1695469
-0.08680519
-0.012128034
-0.12770922
-0.4706992
-0.11014518
0.057348352
-0.1802824
-0.055911507
-0.35895607
-0.02014856
-0.15872532
-0.09989602
-1.423052
-0.10645648
-0.32821023
-0.45845267
-1.5177944
0.0069932295
0.039026175
-0.49075258
0.0060803522
-0.56885284
0.012109133
0.007756153
-0.25078714
0.059140928
0.082522795
0.023964746
-0.734149
0.053612713
-0.020917924
0.01662659
-0.38947758
-0.44985524
0.089261025
0.03275326
-0.0042297677
-0.090428516
-0.38759077
0.21580243
0.00822812
-0.05394492
0.042118456
0.012016846
-0.019009072
-0.51423925
-0.3375755
0.044318397
0.051760104
0.024976544
-0.017458986
-0.05530107
-2.138233
0.010060682
0.013821788
0.029055981
-0.1294648
0.016513253
-0.9960432
-0.006297323
-0.0046602543
0.023425968
0.16443388
-0.019716967
0.025450386
0.005060094
0.02787875
-0.03294316
0.010570885
0.016032413
0.121123254
-0.11476486
-0.13619086
0.017332131
-0.015997004
-0.11677536
0.024956629
-0.06679164
-0.016760793
0.0068561477
-0.009159843
-0.010651489
-0.003977389
-0.048834316
-0.147473
-0.033639647
-1.6434139
-0.013324199
-0.15835233
-0.18603714
-0.030485287
0.013864174
-0.052461855
0.06273557
-0.015216414
-0.05378566
0.019406956
0.04717734
-0.08064223
-0.03811668
0.055045012
-1.4647135
0.051257286
0.03768838
-0.06989245
0.014512986
-0.16004568
0.031135915
-1.4040302
0.03646593
0.008108555
0.07319662
-0.029070003
0.019337961
-0.12693295
-0.10139132
-0.21419552
0.063918546
0.038457993
0.16207373
-0.007828717
0.16966194
-2.2991266
0.022930404
0.11399494
-0.23253736
-0.12664491
0.020297797
-4.3532066
0.0039096377
-0.08677197
-0.055622365
0.0040669395
0.025301313
-0.068045445
0.013561207
0.0029296486
0.010911637
-0.04176147
-0.04880081
0.034552183
0.0021145558
-0.0009157642
-0.06356138
0.03099626
-0.040263064
0.04655063
-0.02768353
-0.019812096
-0.028035225
-0.05383304
0.025566323
0.02045845
-0.043073278
-0.040518355
-0.023919765
0.031156065
-0.042373516
0.014004024
0.026670635
-0.04391104
-0.00853736
-0.009077212
0.02282839
-0.035174374
0.024120841
-0.0069223475
-0.07001234
-0.01902313
0.0074470695
-0.007859219
0.022324597
-0.0025304088
-0.058820453
-0.033683937
0.025668241
-0.041726705
-0.007988557
-0.03723702
0.029311664
-0.01101592
0.049605608
-0.020573441
-0.043452624
0.05551853
0.048002034
0.0039058388
-0.03709014
-0.054532092
0.033069603
0.028736547
-0.028599193
-0.056968763
-0.02138554
-0.029877713
-0.047110517
-0.04492749
-0.06381946
0.0264532
0.015537911
0.00897367
-0.028133515
-0.021716055
-0.0042565344
0.017725797
0.009435759
0.019869221
-0.005021471
-0.007875321
0.0030568633
0.020823605
-0.05116542
0.020773523
-0.07712354
0.03879577
0.04087977
-0.037010398
0.01236075
-0.03470634
0.021789242
0.012196393
0.043400917
-0.008544656
-0.050036132
-0.071113996
0.002643243
-0.08704872
-0.07730958
-0.07902411
0.011441026
-0.035901736
-0.020930473
-0.047396652
-0.00012433318
0.011167494
0.062435172
-0.07074036
-0.020336399
0.024339087
0.019536309
0.033823784
-0.07638998
0.021022025
-0.014258178
0.02775446
0.00512565
0.0013463114
0.027062787
-0.053706072
-0.045761224
0.0027822373
-0.03946294
0.0052644764
0.045579914
0.032365914
-0.04074732
0.0013981978
0.0039696964
-0.069560245
0.03642638
-0.08449339
0.05446761
0.032418642
0.050535455
-0.07635037
-0.09904973
-0.040082652
-0.037831616
-0.038269147
-0.051457774
0.010479373
-0.033081796
-0.02750056
-0.011956082
0.051812507
0.03645397
0.010184861
0.046265393
-0.0013910118
-0.043318123
0.03179224
-0.025263052
-0.02859275
0.051453356
-0.022553084
-0.07465132
-0.07667241
-0.03509565
-0.031523157
0.049470432
-0.0600565
0.04063743
0.038764495
-0.060193248
0.008040983
0.04153379
-0.051497042
-0.012962631
-0.012212356
-0.025400203
0.022767477
0.03387231
-0.009019709
0.00042661736
-0.05693808
0.019372096
0.013849499
0.004354807
0.040993676
-0.031474326
-0.02371089
-0.07117788
-0.035303894
0.009354094
-0.04913447
-0.03351908
-0.030236898
0.05495385
-0.060692266
0.01247702
0.0029667986
0.010639418
-0.0766908
-0.08352466
0.01639871
0.05296766
-0.063545115
-0.046289977
-0.05723246
-0.018655455
0.039073806
0.009307258
-0.0067078774
-0.027158901
0.07960488
0.11324174
0.1869351
0.08228887
0.066147976
-0.0098996535
-0.033219665
0.09096698
0.21792372
0.041452494
-0.05379788
0.10105425
0.05005066
-0.011893434
0.0023276606
-0.010791368
-0.023444211
0.002820732
-0.0317388
0.095476374
0.063525304
-0.16292292
-0.032945644
-0.016930813
0.07514904
-0.016484508
-0.05055071
0.010631762
-0.143551
-0.030597722
-0.01604782
-0.22947402
0.11013528
0.10208389
0.14070447
0.06371418
-0.0019138985
0.089415744
0.11826628
0.18452176
0.06425325
0.08568323
0.06589506
0.0067663356
0.0514359
-0.010914772
0.08016383
-0.5878732
0.089206316
-0.026680082
0.012519164
-0.04840593
0.13479343
0.09963626
0.064099066
0.012478461
0.21605866
0.12269301
-0.0290674
0.06848016
0.01127109
0.074584484
-0.05758587
0.009673437
-0.10492913
0.12438063
0.081878245
0.06196747
0.11022792
-0.06408849
0.07981969
0.095632985
0.009975256
-0.018350651
0.026913533
-0.033724405
-0.012083302
-0.22764677
-0.015059687
-0.0028850413
0.06412083
-0.044016693
0.07092662
-0.069820374
0.03075052
-0.061562933
-0.06654149
-0.0047290795
-0.03730673
0.038783483
0.08238681
0.14865558
-0.04183407
0.12818325
-0.109033585
-0.071403995
0.006751803
0.11008845
-0.014440294
0.020414522
0.053112365
0.17960969
0.022631617
-0.028538179
-0.16926552
0.23117524
-0.086969845
0.06475455
0.16098754
0.012916503
0.01869337
-0.041045148
-0.16095099
0.097303264
0.28263876
0.02948804
-0.11788486
-0.08945236
-0.008271208
0.12425407
-0.008746253
-0.049795896
-0.058477987
0.017502554
0.056156836
0.011262395
-0.009422074
-0.03684294
0.012553235
-0.0039308546
0.095970176
-0.10745629
0.14603235
-0.17066644
0.023003347
0.09824529
0.08315833
0.004035215
0.037953503
0.059131287
-0.1189167
0.103154205
-0.030151786
0.046696324
0.075287275
0.049718414
0.06048145
-0.0477147
0.033341747
0.026790397
0.11879589
-0.049614917
0.04696189
-0.010315841
0.07199867
0.035621077
0.053265974
0.047400657
0.054475512
0.15091716
0.0012822055
-0.023787055
-0.104229175
0.13622597
-0.1536939
0.022610525
0.007902551
-0.03253423
-0.04433378
0.072478466
0.044509027
-0.019242143
-0.027365588
0.027997524
0.10653053
0.049563464
0.014983981
-0.006165016
0.07166553
0.030098852
-0.056687936
0.01962376
-0.14091145
-0.18354924
0.108288154
0.091723986
0.054882832
0.29371387
0.07390035
0.092125796
-0.014217743
-0.0151777
0.22070219
0.018283578
0.023263989
-0.032776445
-0.04312317
-0.103112824
0.009844956
