-0.044942603
-0.052330237
0.012970102
0.009668962
-0.020026835
-0.030131599
-0.063029915
-0.09218836
-0.101216435
-0.09079092
-0.05683063
0.07059626
-0.013445632
-0.039759703
-0.040189024
-0.026910458
-0.10388282
-0.0038119303
-0.019331155
-0.06917397
0.004739078
-0.14283568
-0.057682894
-0.17487815
0.004186807
-0.05888722
-0.06256257
0.023127535
-0.07346386
0.0071435682
0.02612557
-0.03303217
-0.019492753
-0.032628525
0.0082490025
-0.12213069
-0.1324288
-0.0380267
0.041051593
-0.012704477
-0.004500902
-0.06071061
-0.054185364
0.0347548
-0.0075433105
-0.034396905
0.042778295
0.20910466
0.11865094
0.061818365
0.09412152
0.12909111
0.10291135
0.107028596
0.0030273243
0.03540318
-0.016673885
-0.06582574
-0.08580384
0.020991784
0.13994098
0.04957183
0.026004145
0.12825288
0.036275804
0.025584714
0.10209243
0.015111155
-0.044097032
-0.08515926
-0.073885836
-0.094375506
-0.026127325
0.12900184
0.123747095
-0.06318476
-0.094293706
-0.15859435
-0.12334427
0.026897503
0.09402247
-0.04867437
-0.16144212
-0.08874693
0.0058176746
-0.029357223
0.0140260095
0.11353558
0.14616673
0.07474003
-0.0049180705
-0.100200355
0.014000394
0.05646062
-0.022343546
0.006244839
-0.19631624
-0.08522417
-0.10157298
-0.08140136
-0.07984374
0.12117022
0.17527656
0.15851976
0.08321678
0.13897493
0.19163828
0.026376814
-0.10239485
-0.031911515
-0.0039175055
-0.063378364
0.024782427
-0.1396989
-0.14683352
0.053993378
0.043207966
-0.009090494
-0.013998389
0.11557984
0.08539052
-0.15577352
-0.007672426
0.10171272
0.12664057
-0.013040502
-0.042748127
-0.071318224
-0.12806681
0.091170475
0.050554655
-0.115386724
-0.026263945
0.01244583
-0.0718167
-0.02810715
0.17112745
0.12662381
0.081127405
-0.06171258
-0.020791804
-0.115504794
0.007916573
0.05146383
0.027020387
-0.003609201
-0.04760444
-0.017026527
-0.04657877
0.09616999
0.117360994
0.15920871
0.042002626
-0.007074014
-0.06254902
-0.009563417
-0.07683349
-0.019513743
-0.009505852
0.08865983
0.08170197
0.13803762
0.17777394
0.17437534
0.00630787
0.022247568
-0.047739945
-0.0118077975
-0.029739557
0.0044350903
-0.13462009
-0.029240519
-0.11566105
0.05192255
0.040045638
0.06587287
0.09691956
0.018219627
-0.06251332
-0.11172043
0.003895416
-0.026122632
-0.06358424
-0.00797539
-0.05353841
-0.046931546
0.021127593
-0.05513966
-0.09700151
-0.15086992
-0.045788165
-0.013730664
0.045036256
0.0051756576
0.024282925
-0.056567445
