-0.31585374
-0.178536
-0.18001309
0.2702954
-2.011979
1.7791203
-0.43091083
0.058242597
1.5806617
1.0230331
-0.0006950761
-0.331978
0.17988364
0.29584706
1.1526781
0.7161219
-0.2577175
2.1886609
0.72976124
1.5700663
-1.8800509
-0.47516906
1.0788971
-1.9407816
1.3445141
0.8268681
2.023915
0.6168931
-1.539456
-0.23227479
2.044415
-0.2292421
-0.13947165
-1.4713147
-1.1142782
1.5311463
0.024308218
2.3911436
0.8819327
-1.550285
-1.9469107
1.5643657
-1.6332176
-0.7743222
-0.11834257
-0.25740218
-0.78816336
1.6522628
-1.8686011
1.2609046
1.388664
1.0689677
1.4717895
-0.691348
-2.0442545
0.4255074
-1.870483
-0.68627006
0.03971856
-0.22344433
-0.38090974
-0.0014375165
-0.45220003
-1.3911741
-2.0722919
-0.079783686
-1.7709157
0.16625904
1.1710491
1.6006436
1.4174289
0.8617034
-0.7770479
-1.2683909
-0.6787763
-1.4636327
1.3493904
0.6253523
-1.2271917
-0.63229364
1.1933309
-0.68749857
-1.6979479
-1.7567623
0.3405134
1.3931245
-1.2449491
1.6263374
-0.81536806
1.2858396
-0.27214047
0.0036350267
-1.3079761
-0.29739136
-2.0901248
1.3254974
1.3562995
-1.774541
-1.3994637
-1.0668089
-0.50348604
0.1663984
2.450362
-0.8306579
-0.27564836
2.472044
1.4792206
0.7072005
-0.14539954
0.061954264
1.5886557
0.6151369
-0.17370157
0.98842245
-0.8418603
-0.58871526
-0.1664128
-2.1107025
-1.6982782
0.15818857
1.9923533
0.28082085
1.5787306
1.4287438
-0.53201395
-1.7842216
1.1412909
-1.2782426
-0.14007449
-0.8292102
-1.0363065
-1.2202214
-1.4159589
-0.5464562
-1.1056553
-0.60789704
-0.59595436
0.24599586
-0.049885575
-0.043551773
-0.21211484
-1.1092949
-1.8487836
-1.448941
-0.5792769
1.7770691
0.26696387
1.1449635
-1.7647767
-1.3385353
-1.0699248
0.20272171
-1.281542
-0.625095
1.6412531
-0.2082472
-1.3359619
-0.70419526
-1.0205861
-1.1179179
-1.6093363
0.18270728
0.07936411
-0.17447716
1.5597265
0.8567521
1.6542692
1.3065281
-0.38555616
-0.7063636
0.030828157
-1.1945567
1.7261147
-1.4897133
-0.3188833
0.061300676
0.32855827
-0.5179503
0.3751418
1.3945241
-1.8654227
-0.048912287
-1.9202323
0.4358511
0.19743568
1.480265
-2.0485632
0.2565189
-0.90763396
-0.3068862
-0.8261806
-1.5334466
-1.3497292
-0.022919817
-0.4137295
0.13698348
1.6076133
0.5239789
1.0855896
-1.8931733
