0.25645882
0.12172931
-0.03993543
0.0834659
0.1723101
0.17637093
0.06071583
-0.087239444
0.17337643
0.1273818
0.10917551
-0.08808995
0.009035546
0.041334487
-0.08661203
0.14931339
0.018575432
-0.0030524659
0.30166122
0.11898347
0.16339265
-0.24181506
0.010103113
0.03900476
0.027505433
-0.04669627
0.2002216
0.063396685
0.0202968
-0.048438333
0.15765072
-0.08817744
-0.05468611
0.0689523
-0.12767231
0.10137424
-0.13667615
-0.006647273
0.028822789
0.22245538
0.07338247
-0.04537558
-0.05775736
-0.028745215
0.06721469
0.039117485
-0.03762639
-0.21547948
0.012456604
0.12670432
0.09823022
-0.00918283
-0.053139903
0.16998374
-0.06576972
0.22697015
-0.07458722
-0.4942214
0.047781423
0.18291669
0.15775235
-0.019948164
-0.008506131
-0.08844133
-0.042312108
0.13483456
0.07191364
0.12417254
0.13309757
0.057273287
-0.096249714
0.15829656
0.23457035
0.12572174
0.031221114
0.034077685
0.21090093
0.053957213
0.18669155
0.11512372
0.039028477
0.08254463
-0.05732003
0.1213117
0.0051899236
-0.09893035
0.23561472
0.099461816
0.1797368
0.029007267
0.04996596
-0.015874617
0.12995178
0.17700416
-0.1265242
0.013735217
-0.05220231
0.2347612
0.093550116
0.057927366
0.16885242
-0.01942166
-0.03572451
-0.0806621
0.03318406
-0.085794546
-0.05414506
0.19307393
0.067683615
0.052357946
-0.029210517
0.012407058
0.076437205
0.095898286
-0.036943495
-0.07469928
-0.15138991
-0.08018892
-0.09462144
-0.052999903
-0.028279617
0.2442046
0.029998897
0.048008464
-0.07480627
0.013306375
0.17433758
0.18729469
-0.053121727
0.15333901
0.1315474
-0.054502834
-0.08020886
0.07375403
0.113973856
0.19986697
0.08363854
0.3108295
-0.12779513
-0.15131557
-0.06487945
-0.07989116
0.018683089
0.19439667
0.05596079
-0.20941134
0.067990646
0.33159077
-0.11932429
-0.054876316
0.16934486
0.14464273
0.12854509
0.2866892
-0.03847047
0.09429508
0.019040473
0.18847767
0.1467287
0.026777005
-0.17444326
0.17025387
-0.021460533
0.01477789
0.43289942
-0.04706601
0.12390498
0.029266983
0.12993239
-0.36910802
-0.093834125
0.2847782
-0.031372935
0.08533354
-0.02952446
0.22131649
0.16797264
0.2041066
-0.023777904
0.048288494
-0.08152713
0.09825868
0.10839279
0.17868371
0.07860872
-0.07763746
0.14583893
0.012827896
0.089969374
-0.00040874965
0.08074205
0.011677644
0.031477302
0.05564281
-0.05359923
-0.016137589
-0.48269495
-0.028821236
0.11673043
-0.16795851
