0.23439433
0.1268151
0.009317972
0.14290258
0.010521998
0.24749778
0.034278903
0.13748479
0.29717904
0.028529482
-2.5698748
0.2775833
-0.34909424
-0.8947448
0.55156547
-0.19027527
-0.17278424
0.23814285
0.23204002
0.17162365
0.1383621
-0.99992514
0.27034155
0.1259018
-0.0014284368
0.14428198
-0.0064886166
-0.24112247
-0.8121333
0.19315518
0.12236319
-0.16055647
-2.2445111
-2.5431406
-0.19302765
0.09160939
-0.024928413
0.027691249
-0.055751473
-0.2708098
-0.7541044
0.36366737
-0.046269715
-1.3501232
0.10791236
0.25478
-0.14220257
0.022524158
0.31140006
0.5900315
0.2061263
0.08492344
0.1503708
0.06720645
0.06665023
-0.65965825
0.04879536
-0.35452208
-0.13786742
-2.3168614
-0.73509836
-0.3018781
-0.28630722
0.19815205
0.1581809
-0.06785957
-0.11922496
0.037873313
0.14095251
0.1447721
-0.09752342
0.5437871
0.28085735
0.13379543
0.59968144
0.13039026
-0.2336132
-0.24287306
0.015221576
-0.29226467
-2.6988285
-0.090827964
0.027241845
-0.14746854
0.15959813
0.069904305
0.12680249
0.17530346
-0.0098826485
0.040883485
0.05443563
-0.5650121
0.057252508
-2.1108963
-0.20674144
0.036893096
-0.014340057
0.21919096
-0.0066562323
0.44935915
0.1041877
0.024748178
0.8504294
0.037786625
0.1285815
0.14217676
0.026807811
-0.059164546
0.10263755
0.08231731
-2.2691772
-0.082125545
-0.24260989
-0.21766183
-1.3544588
0.16528216
0.35251874
-0.24487634
0.19275951
0.35756585
-0.088182084
-3.1411953
0.20513535
-0.26592132
0.045369174
0.03894554
0.2538383
-0.5946344
-3.2005517
0.14660782
-0.061735667
0.09340054
-2.2939174
-1.8526995
-0.045453202
0.08236042
0.7762184
0.64819723
0.019644784
-0.0030824488
-0.6177417
-1.36485
0.020883072
0.95722115
-0.097100556
0.0006691762
-0.020586796
0.9119831
0.40597174
-1.8567725
0.007876358
-0.16456488
0.22746006
0.011860477
-0.042515326
-0.18626638
0.09344202
0.26263735
0.29488462
-1.5869219
-0.43592572
-0.24321422
0.3061081
-0.18704288
0.044446483
0.26755518
0.05646789
0.04760268
-0.047956016
0.16834259
0.1325214
-1.888816
-0.33990374
-0.014183227
-2.0149882
0.09277042
-0.030100726
0.17461444
-0.30481791
0.083633184
-1.0127468
0.09143378
0.17507006
-0.008059753
0.037636884
0.12905541
-0.24104077
0.09254118
0.25289616
-0.021957947
-0.38289267
0.3579626
0.052898195
-0.34637138
0.1247021
0.85254306
-0.05727965
-0.058921415
0.105573736
0.142526
-0.12874839
0.031889413
-1.494635
-0.12577955
0.19191246
-0.057774432
0.10413733
0.16816512
0.05712464
0.15036587
0.06317878
-0.034531288
-0.02796849
-0.390922
-0.09915649
0.25133497
-0.18825579
0.10758853
0.10739855
-0.16411394
0.094413124
-0.019937191
0.017783122
-0.13271183
0.14758861
0.025606249
-0.1809522
0.25134593
0.008931592
-0.050545126
0.04303471
0.028618472
0.35971645
0.67508477
-0.11059656
0.1411676
0.06380898
0.09185956
0.28166044
0.22333372
-1.7376913
0.41950417
0.03379845
-1.2732918
0.10655015
0.00022446651
-0.03853956
-0.4543023
-0.03681748
-0.14489909
-0.17751242
-0.37355638
-0.527435
0.06931427
0.052920975
-0.15462382
0.10125983
0.27513283
0.03295157
0.5587399
-0.33453885
-0.05824147
0.020670064
-0.041378494
-0.042153787
0.2535949
0.16204529
0.25724915
-0.014519526
0.028293854
0.019934736
-0.25244227
-0.24338911
-5.3464897e-05
-0.45907748
-0.4203819
0.08542862
0.1933329
-0.14357853
0.058947932
0.8796162
0.023582077
0.044273525
0.19384794
-0.18174328
-0.09942338
-0.07608007
-0.11777136
0.0050463225
-0.077490315
-0.29743567
0.33001125
0.040012028
0.5477422
0.101250105
-0.15483004
-0.119928315
0.043445863
0.2710553
0.25760058
0.07319533
0.16265056
-0.06023853
0.11085731
0.11112149
3.3286095e-05
0.06609814
0.17841463
0.0722816
0.07153088
0.13803646
-0.21996334
-0.17139055
-0.51470417
0.0350939
0.06703477
0.10721321
-0.11270976
0.17570883
0.34350446
-0.12111611
0.091061816
0.037354056
-0.12867086
-0.020986702
0.17737487
0.097711146
-0.14272724
0.1941105
0.07294919
-0.029161973
0.06991231
0.18846877
0.33269522
-0.18693006
0.06742983
0.015746571
-0.07832409
0.10729138
-0.08174053
-2.031298
-0.6033391
-0.29649127
-0.61471224
0.01473292
0.06040917
-0.34593445
0.16927701
0.25509652
0.4539713
0.14689164
-0.44804555
0.049396433
0.113380514
0.056880366
-0.3657005
0.062091477
-0.15703529
-1.544751
0.1285825
-0.3667082
-0.07245481
-0.021314798
-0.20639081
-0.16251537
0.33091334
-0.15783429
-0.010788805
0.15346535
0.14536558
0.10968547
0.4449884
-0.07069352
-0.084102
0.4567022
-0.37920687
-0.11599464
0.15757765
0.057484914
0.12042799
0.17374064
0.024577057
0.250367
-0.087888405
0.12723902
-0.0803705
-0.2647115
0.08373435
-0.095882945
-0.3765358
-0.21551408
0.4063724
-0.1763213
0.24038967
-0.30528477
-0.14479916
-0.26997396
0.11584777
0.3387904
0.054198485
0.14980668
0.16288312
-0.24960428
0.27219918
-0.089772694
0.15665706
0.19137825
-0.002206688
-0.04214482
-0.04537213
0.3772828
-0.48417842
0.06756096
0.13956387
-0.07301744
0.19682427
-0.008878828
-0.10453752
-0.086450964
0.030880548
-0.041429363
-0.2525141
0.09332985
-0.012550039
-0.06719103
0.011113432
-0.12987363
-0.21506596
-0.0764574
0.08457022
0.16315514
-0.14203818
-0.15868819
-0.16879238
0.0022114285
-0.022739494
-0.48277864
-1.5039841
0.03769809
0.07347258
-1.3649387
-3.739038
0.08785333
0.01824684
0.022788282
0.2819308
0.24074616
-0.0847555
0.08452945
-1.3571553
0.26554662
-0.018771987
-0.18433094
-0.010328126
0.099002
0.19066176
0.19874537
-0.24571061
-5.4327583
0.033199497
0.09748611
-0.013631743
0.08029977
-0.267725
0.33475006
-0.010674229
0.101446934
0.010973276
0.2740218
0.18368201
-0.0769957
-1.5645157
0.17898864
0.042678464
-2.036807
-0.08620798
0.15064928
0.054800197
0.17800304
-0.066329844
0.17969432
0.09876454
-0.15349178
-0.0407257
0.2955328
0.32282448
-0.34232825
0.21313532
0.18710971
-0.21249367
0.19593847
0.36663494
0.09470172
0.32607752
0.24504419
-1.358709
0.1373949
0.16496094
-0.0036303315
-0.26843402
0.118004695
0.2006114
0.17910056
0.15301444
-0.020866554
0.07359389
0.09151378
0.069129705
-0.35408035
0.0032900618
-0.06667514
-0.116417944
-0.8545818
-0.5151451
-0.33490762
0.00042119354
0.048704598
0.16206619
-0.3733597
0.16628574
-0.05111859
-0.2349307
0.12809579
0.035750907
-0.01099805
-0.16806546
0.21536905
-0.03687364
0.10877539
0.14800447
0.16883504
0.14411722
-0.12827605
-0.33987126
-0.45709014
0.016931996
-0.62940115
-0.05470329
0.12244254
-0.10089924
-0.94316757
-5.103809
-0.45113042
-0.842617
0.03087486
0.20026983
0.011782574
0.030437585
0.045908872
0.39484596
-0.01397673
0.002534451
-0.26864442
0.14725053
-0.064100854
-1.4821928
0.15188067
-0.13051179
-1.6051568
-0.19287676
-0.00892497
-1.538244
0.0653655
-0.119577914
0.17461158
0.20422664
0.15305261
0.18367629
0.119199544
0.21582486
0.052385192
0.4018089
-0.13667051
-0.22675504
0.44784155
-0.01811578
-0.1578994
-0.0022671134
-0.05769629
0.19158582
-0.30937126
-0.058164705
0.04882638
-0.42184928
0.13684937
0.048715018
-0.046468485
0.048349578
0.19863373
-0.41562304
0.03316741
0.03431601
-0.10522782
-0.041007526
-0.0755546
-0.20831469
0.13084804
0.14448309
0.10231868
-0.24267511
0.08766011
0.005134264
-1.7340074
-0.017751975
-0.22942483
0.1855523
0.08487435
-0.26921242
-0.8966201
-0.115504794
-0.5330271
-0.10241286
0.5468349
0.9047608
-0.28355014
-0.04222639
-0.159137
0.032302197
-0.62675107
0.06446231
0.21565954
-1.0478554
0.1766763
-0.2539498
0.11385899
0.1161844
0.027240679
-0.22312362
-0.8020855
0.09133087
0.1694281
0.13323268
-0.32895666
-0.13872264
0.071041
-0.3937281
-0.3972633
-0.46571654
-0.36888048
0.22555815
-0.9341058
0.26002884
-0.32721537
-0.049617458
0.14560525
0.06624519
0.13306537
-1.5065697
0.12993671
-1.2356173
0.093721725
0.44534045
-0.40314528
-0.31250706
0.015366948
0.9171393
0.029285543
0.03818823
-0.6456986
-0.281096
0.8242008
0.30392274
0.07727268
0.024936961
0.10043226
0.4646713
0.29136288
0.3068215
0.015921667
0.12709625
-0.04567068
-0.8448235
-0.51613444
-0.1012897
-0.61117435
0.22681801
0.41455108
0.034221526
0.41239724
0.39449942
-0.22379217
-0.057394575
-0.16139148
0.005396251
0.04122202
0.0098708095
0.0976832
-0.038039833
0.09740694
-0.24017218
0.46478152
-0.1957495
-0.18235785
-0.20747828
0.29534647
-0.3406423
0.16453223
0.116914935
-0.32008678
0.0011578245
-0.0046813143
-0.061710637
-0.053896546
-0.093240865
0.07464229
0.05796062
0.049859088
-0.0047242763
-0.016813291
-0.014143908
0.012265245
0.013014841
-0.095502436
-0.053934585
0.012283564
-0.03293214
-0.085546784
-0.09306586
0.044740833
-0.03565942
0.011697376
-0.056691412
0.05649571
0.077844895
-0.00078729657
0.012300885
-0.0727083
-0.047798328
0.07363865
-0.10521474
-0.08493079
0.05610949
-0.08907528
0.03139318
0.010652137
-0.06921841
0.078240216
-0.017039385
-0.097850755
-0.047617838
-0.094690315
0.002706659
0.027086748
0.00848186
0.07006769
0.063449465
0.093983576
-0.06102991
0.08093031
-0.023528595
-0.094553486
-0.04923756
-0.03794209
0.025226772
-0.07444663
0.00974176
-0.011132893
-0.10068675
0.0051398277
0.0014152635
0.09130031
-0.01454109
-0.019691164
0.0809026
-0.089630835
0.09305496
-0.08057779
0.074224636
0.027802546
0.05236954
0.08030791
-0.079089925
0.09971805
-0.05641749
0.02240681
0.043321155
-0.017190851
0.060357142
0.048300665
0.010774981
-0.019956244
-0.007887268
0.05901381
-0.07186355
-0.093422554
-0.077054985
-0.022798432
-0.067233555
-0.026719514
-0.06313477
-0.022971591
0.08200618
-0.079307795
0.00690794
0.029840011
-0.09734396
0.07747821
-0.0964519
-0.0672418
-0.049778488
0.09651407
0.05531187
0.5912473
0.14584401
0.2295063
0.1654462
0.18626623
0.2128924
-0.15540728
-0.0690482
-1.3585265
-0.10146454
-0.30002034
-2.7856357
-0.518606
0.14884907
-0.27374578
-0.15900423
-0.20572434
0.2644954
-0.020161126
-1.1167482
0.1431824
-0.077852115
0.032247894
0.15306076
0.088805005
0.37734452
-1.5202568
0.13268682
0.073339686
-0.089574106
-1.0234226
0.09484959
-0.5058557
0.23208027
-0.8885378
-1.2321182
0.10542839
-0.32686442
0.3711637
-0.03989875
-0.2996297
0.35284463
-0.20808922
0.1322162
0.1332428
0.5285225
-0.04815992
0.1594249
0.08478907
-0.08012484
-0.689729
0.19471738
0.093632676
-0.8908008
0.10305992
-0.2769654
-1.7458763
0.10448963
-2.4046955
-0.28524128
-0.10847292
0.15182713
0.17742954
0.090029076
0.20546907
0.07671342
0.17309819
0.06519978
-0.0717015
0.069399714
-0.0835107
0.02382033
0.11004226
0.10259582
-0.38730648
0.19056168
-0.5724923
-0.29168063
0.21854442
-0.022182478
0.13942191
-0.25632578
0.09014888
0.16680588
0.24612667
0.19965747
0.17696118
-0.3592299
-0.3087863
0.6164539
-0.08582404
0.3771144
0.19515976
-1.3868437
0.14915322
0.14322208
0.2589029
-0.2351674
0.05891913
0.16276878
0.04195435
0.058397546
0.09666075
0.17967993
0.20748183
-0.044036526
-1.3530972
-0.03847559
-1.7987267
-0.19540548
-0.25750276
-0.05284612
-1.1296676
0.342574
0.22302695
-2.4148161
-0.9203009
0.29499474
-4.0494914
0.7645048
0.15984249
-1.6958253
-2.9467034
0.07284604
0.24957827
-1.1472716
-0.09711011
0.2702732
-0.02679723
0.06279088
-2.0948184
-0.84119105
-0.17530838
0.10255407
-0.45548064
-0.52469635
0.053320333
-0.66664773
-0.7794443
0.18496974
-0.27698094
-0.051888514
-2.6172922
0.017449882
0.10939019
0.09329191
0.35887218
0.6717324
-0.100858346
0.52419883
-0.12983344
0.029676525
-0.0011775255
-0.14325102
0.012599329
-0.19700372
-0.6669137
-0.40607733
0.05921173
-0.2953553
0.05351339
0.36368036
0.08347651
0.2194444
0.22461094
0.43716747
-0.18701224
0.122026235
0.22331078
0.90898734
-1.559112
-0.083786406
0.33792922
-0.39577195
-0.68287057
0.23606743
-0.045271724
0.21829715
0.05058512
-0.040440667
0.2216402
-0.14155056
0.055585068
0.052959643
0.31563264
0.01861566
0.28023544
-0.19641902
0.13690488
-0.031275626
-0.0995224
0.3496007
0.08048317
-0.28251997
0.2017179
-0.026967358
0.07845011
0.40301695
0.09363537
0.118987605
0.14400089
0.22349578
0.14023717
0.08203128
0.034276027
-0.06312295
-0.09620923
0.035745285
-3.2837327
-0.18821007
-0.17312361
0.0663575
-0.22913158
0.08309841
-0.33990183
-0.021721594
0.17401835
0.12027782
0.08975952
-2.274776
0.14973365
0.059276834
0.2452487
0.112427205
0.17785549
-0.15023454
-3.074238
0.08802862
0.082747065
-0.13657002
-3.0156848
-1.3737208
-0.1501832
0.1125097
-0.29325768
-0.083893
-0.05527459
-0.061865903
0.679918
0.10004828
-0.027921723
0.1349397
0.07017256
0.047528375
0.013695179
0.36520913
0.20528182
-1.3443438
0.24875668
-0.23333208
-0.49160004
0.026773008
-0.010526228
-0.17277204
0.15196349
-0.13417877
-0.5631248
-1.0547124
0.07803017
-0.10597175
-0.04214704
0.021018852
-0.24499932
0.19652784
0.1636402
0.40106574
0.15984382
0.053801797
-0.25716943
-0.8691789
-0.10580863
0.062861726
-0.21593316
0.15615867
0.1850208
-0.003196703
0.15121466
0.097290665
-0.81423956
0.013457966
0.1384603
-0.0698231
0.0038226128
-0.17790285
0.00656853
0.2502946
0.04757961
-0.18044023
0.023816787
0.64010215
-0.00607574
0.0129454965
0.21349345
-0.093872815
0.04499589
0.16448177
-0.026032206
0.06860415
-0.02598909
-0.022438753
-0.017954756
0.08516793
-0.026252497
-0.051277626
0.0044725775
-0.07489587
-0.02887044
-0.0839047
0.033640407
-0.040798414
0.08927657
-0.03779013
0.041022476
-0.053607464
-0.008546372
-0.030258466
0.036760043
0.018348789
0.0120813865
0.07852583
-0.07174769
0.089026265
0.04946017
-0.04840064
-0.010782278
-0.02478746
0.05255619
-0.01918806
0.021644143
0.048427317
0.07474706
-0.09759398
0.061118733
-0.01258527
-0.071984805
-0.07608904
-0.003996575
-0.06922509
-0.08102938
0.012000135
-0.012259281
-0.09910365
-0.085467905
-0.09244544
0.052026328
-0.05991741
-0.09464794
-0.03666565
-0.055089056
0.07940998
-0.09407003
-0.015361321
0.051344275
0.09920193
-0.0028951408
-0.027413104
-0.034157384
-0.017721947
-0.072992444
-0.07307259
0.04139795
0.09542433
0.05787426
-0.02871945
0.06507478
-0.04337311
-0.050265603
-0.036012735
0.023367029
-0.00031839104
0.09027139
-0.06323185
-0.022090122
-0.058531765
0.03653072
-0.045773234
-0.05870567
-0.056838922
-0.06934629
0.088980295
0.0030291916
0.078367464
-0.07646377
-0.090104274
-0.04760022
0.047614917
0.08437619
0.08168191
-0.01403097
-0.056986023
0.081400886
0.030728545
0.058064837
0.010349561
0.038513407
0.017168935
0.025451839
-0.010156095
0.05969721
-0.03525198
0.11841841
0.022065343
-0.013588898
-0.12511906
-0.033113185
0.04361564
0.2052193
0.10031191
0.17126463
-0.024342844
-0.039916154
-0.41120714
0.58145803
0.2510533
-0.43217123
0.008151408
0.15549104
0.09794564
0.22752486
0.5124533
0.024155835
0.06908814
-0.010005359
0.04494947
0.15536226
-0.106609985
0.38130313
-0.010897371
0.03238702
-0.10347187
0.31715414
0.7090629
-0.08618756
0.10541557
-0.11939235
-0.33717483
0.12536424
-1.2700634
0.81939113
0.77348256
-0.22787398
0.20060544
0.0015739743
0.009365326
-0.16286823
0.22957657
0.13021877
0.7149778
0.28595018
0.24335471
-0.43593928
0.02782598
0.06385453
-0.24588358
0.057195365
-1.0189133
-0.40560108
0.51372564
-0.4371734
-0.06060587
-0.27331907
0.3198885
-0.24551803
0.49128062
0.13055831
0.27750593
0.2692924
0.013033159
-0.30354968
1.0185714
-0.13058738
-0.035382528
0.8431752
-0.25581327
-1.2568375
0.16229904
-0.5903438
-0.45194337
0.7047429
0.004542768
0.030725053
0.010350333
-0.12702982
-0.12017209
0.4260054
0.21364033
-0.11018466
-0.0901394
-0.69695735
0.24314207
0.022967609
0.62708426
-0.0759187
-0.2878236
-0.16852711
0.2994302
0.14703971
0.22299293
0.06890244
0.035611924
0.46049815
0.113932475
-0.74870443
-0.1362454
0.0022786
-0.39226472
0.5332447
-0.23256078
0.32974234
-0.08643404
-0.14703068
-1.1097046
0.21374834
-1.1022803
-0.0808951
0.23026122
0.18990351
-0.2664337
0.2607263
0.49239442
-0.016474053
0.27458584
0.18000518
-0.4680909
-1.0859748
0.31348345
0.2935087
-0.0058847605
0.12254762
-0.18862525
-0.004416411
0.26601985
0.15771627
-0.71395636
0.32442236
-0.21015748
-0.8729112
0.15475982
0.087004386
-1.1857466
0.14136088
0.37563828
0.031290103
0.025859043
0.10547824
0.6353784
1.2282479
-0.4365885
0.07879764
-0.89008015
0.56390023
-0.60464036
-0.048291326
-0.7623736
-0.08776337
0.14254782
-0.67882556
0.36572096
-0.19018252
-0.24158566
-0.21927059
-1.1448932
-0.062471185
0.016024815
0.06754838
0.019278055
-0.040524613
0.027626889
-0.26477072
-0.63174796
0.3182298
-0.004890204
-1.1862001
0.13618249
0.17046995
-0.49949056
0.087908864
-0.009160094
0.3626287
0.032392513
-0.84610087
-0.32366213
0.03602152
-0.20881711
-1.0345
-0.007841568
-0.21416575
0.24472453
0.084699884
0.44801262
0.012769734
0.45046592
0.17172599
0.33537623
-0.036931448
0.10006305
-0.8553185
1.364267
-0.055898577
0.06281738
0.72522867
0.028534465
-0.63985217
0.026906734
-0.0810778
-0.7780211
0.09523437
-0.32337543
-0.12101958
-1.4774803
-0.57258236
-0.029922247
0.06945993
0.56138104
0.3276525
-0.33525366
-0.035621163
0.3074053
-0.18087906
0.030203216
-0.008042146
-0.3305159
-0.18578388
-0.030098446
0.251848
0.1049483
-0.112947255
0.026902378
-0.0965605
0.33060604
0.1028008
0.42280996
0.8381824
-0.6934743
0.28657693
-0.088270284
-0.31884378
0.09787529
0.08772338
0.08183202
-0.16071798
1.5950485
-0.3827258
-0.08914411
-0.062989436
0.79180497
0.7140395
-0.5970407
-0.07556471
-2.6609151
0.33731455
-0.53462434
0.02099967
-1.1651503
-0.033346087
-0.0039284662
-0.14471124
0.2551886
0.029055957
0.33080795
0.33137015
-1.6182765
0.15966155
0.06982265
0.061565597
-0.03317506
0.03233197
-0.010261922
0.21227291
-0.49314544
-0.36048892
0.15214139
-0.8174409
0.003971189
0.00013299585
0.6186656
-0.0852246
0.057318393
0.4895719
-0.029177725
-0.34972513
0.68082315
0.08921866
0.19264452
-1.8369092
-0.058843933
0.39763585
-0.26395848
-0.025314583
0.7019403
0.012636509
0.5580851
0.050450042
-0.06807346
0.029809656
-0.044492237
-0.054306485
0.061470114
0.11505153
0.18010564
-0.20404315
0.08336068
-0.07304932
0.12797143
0.20259583
-0.069995
-0.0030127016
-0.17505212
-0.12219514
0.24606615
-2.6273303
-1.0632663
-0.64159685
0.366995
0.051810194
0.16374132
-0.6521361
0.1768102
0.32223713
-0.18560255
0.24007672
-0.039908327
0.24871795
0.06399143
0.2917518
0.010876842
-0.38068733
0.16651708
0.14637923
0.21326025
0.060593598
0.22246417
-2.6322026
-0.08898632
-0.6648151
-0.29801583
-0.241589
-0.10609964
0.19919398
0.22631797
-0.3274938
-0.18702072
0.15376377
0.040681273
-0.03536452
-0.22910814
0.08704608
-0.1022989
-0.006795819
-0.2607221
-0.35138464
-0.21191391
0.00792929
-0.9572225
0.021538178
-0.014215997
0.05466168
0.2735023
-0.52627206
-3.0007806
0.26251402
0.2844024
0.22266836
0.14363192
0.104201935
0.110254414
0.119750984
0.08478046
0.2040648
-0.17396332
0.050393723
-0.09836792
-0.43312097
-0.062133037
-0.0484375
0.3839347
0.010772617
-0.021250729
0.23429386
0.07418926
0.10446806
-2.4932044
0.17427024
0.1984906
0.16149816
0.124416605
0.25127473
-0.4900852
0.07016766
-0.09616169
-0.059368186
0.25491032
0.12813896
-0.24043198
0.06713196
0.107700944
0.16206522
0.22328681
0.05584363
0.08005713
-0.36624342
0.104076646
0.089401975
0.10524615
0.00017815708
0.09459994
0.035282876
-0.069220945
-0.48078474
-0.29723442
0.5210016
-0.024495324
0.10881592
-0.41163695
0.30245906
0.26033497
-0.08798032
-0.039336413
0.1463028
-0.5979139
0.08805042
-0.011495451
0.21334118
-0.12528928
-0.57993567
0.24911663
-0.71567214
0.040119927
0.0063226135
0.09879987
-0.6790578
-0.26375294
-0.2412984
0.065599926
0.123215005
-0.2149515
0.02286959
0.24833217
-0.12711859
-3.1007445
-0.14220992
-1.5093611
0.15392613
0.020853208
0.07961079
-0.21532722
-0.20326279
0.52233243
0.17197354
-5.095674
0.2499721
-0.04664081
-0.01623335
0.47898066
0.04872448
0.2414436
-0.97434896
-0.38405618
-0.0015190891
0.4429166
0.20129406
-1.07481
-0.008291386
0.01637487
-0.00629396
-0.08282671
0.15192291
-0.016206987
0.19344309
0.67670965
-0.10409127
-0.06336097
0.5421558
0.098746896
0.32643276
-0.50931436
0.16306874
0.30055237
-0.43816683
-0.023862123
-0.2228348
0.2831162
0.11475366
-0.021558702
-1.1631902
0.120822184
-0.22474557
-0.09464394
-0.007325053
-0.12211402
-0.033024427
-0.34399495
0.118002
-0.13439864
0.10373464
0.005311681
0.05119086
-0.32471713
-0.062497877
-0.1607694
0.4260065
-0.11225116
0.27241927
-0.067307904
0.039022952
0.2837177
-0.0022823517
0.028445626
0.45038703
-0.23999605
-0.26166806
-0.26214582
0.047858745
0.24520034
0.07447895
-0.09391933
-0.051432367
0.18032807
-0.2699296
0.503413
-0.0036701881
-0.18061113
-0.14497168
0.17890747
0.18250665
-0.45880577
0.7525337
-0.13580112
-0.05142251
0.027498864
0.29246542
0.49066833
0.09630959
0.35164157
0.3156657
0.5050226
0.23666807
-0.13637543
-0.95406425
-0.30289915
0.031858522
-0.17827009
-0.18256253
0.015498732
0.023888743
0.38210693
0.0054617357
0.50581646
-0.28323552
-0.38140327
0.027720885
0.35346386
-0.08033849
-0.56200886
-0.1330301
0.26663345
-0.19668299
0.38094625
-0.47843918
-0.259723
0.056559816
-0.6230848
0.017757168
0.14515403
-0.046689153
0.10357402
-0.19235644
-0.08087978
0.038824014
0.44345266
-0.21093693
-0.059348878
0.54581773
-0.011093088
-0.12084334
0.3164682
0.0661294
0.36584237
0.7092105
-0.058245745
0.29145432
-0.02512524
-0.04357696
-0.008668768
-0.6999168
-0.08190126
-0.108961776
0.15826946
-0.32608086
0.45646578
-0.096247785
0.47685793
0.009867062
0.42542052
-0.05066577
-0.19355065
0.46413797
-0.11490214
0.2872335
0.33483735
-1.5624261
0.17419021
0.1265492
0.29635397
0.26332372
0.108139746
-0.6465116
0.23318234
0.18587299
-1.6968896
-1.1216992
-1.8860323
0.08375102
-0.027513918
0.10250631
-0.6199252
-0.080780394
-0.12784077
-0.15408398
0.113315694
0.17381549
-0.087293856
-0.24937202
0.18282002
0.10493957
-0.70673525
0.024280714
0.29961234
0.21741955
0.114401154
0.16587104
-0.03512078
0.38893718
0.1170741
0.27097917
0.036127392
0.13777277
-0.18888995
-0.09152279
-0.02226138
0.08777345
-0.1948603
0.12174347
0.30751154
0.20600085
-1.1062711
-0.83409935
-0.22450763
0.24950987
-1.8838817
-1.1754332
0.19676809
-0.015045571
-3.254724
0.1504887
-0.2608534
0.2791456
-0.0057604644
-1.169706
-1.1894032
0.24799207
-3.970594
0.15916355
0.17517737
0.24765177
0.16531034
0.26136985
0.34751424
0.27987233
-0.2059886
-0.35740936
0.22434634
-0.102690585
0.32334393
-0.15806223
0.07060126
0.21867256
-0.1091664
-0.18395597
-0.058983088
0.1771939
-0.45352733
0.31533152
0.24356742
-4.0692544
0.34033284
0.3010765
0.2464468
0.11675968
-0.5392988
0.11968225
-0.45811898
0.37841374
0.09309113
0.26748794
0.2913493
0.14159925
-1.4921616
0.21339568
0.1272824
-0.027191358
0.16144891
-0.07965045
0.10440866
0.023035659
-0.008425688
-0.0070152297
-0.039526477
0.014636794
-0.49654558
-0.10284371
-0.8134817
-0.08561734
0.1279993
-0.09502148
0.00096286676
-0.109059036
0.08785346
0.15829559
-0.38500175
0.2029532
-0.06352892
0.15343855
-0.1959127
0.14533384
-0.04181151
-0.10728135
0.05678708
0.11785578
0.17642924
-0.33976525
0.06077099
0.15337333
-0.010506314
-0.022225985
0.53432083
0.04789809
0.12980528
-1.5593177
-3.8555543
0.12663996
-0.865654
0.007309558
0.14607254
-0.0373865
-0.03475289
-0.12640275
-0.56449395
0.04570641
-0.08038371
0.04791493
0.16704667
0.038039435
-0.07572976
0.16018341
0.26539314
-0.18708023
0.04645031
-0.6327544
-0.07215699
0.009494575
0.17108129
0.05776183
-0.07071212
-0.2593889
-0.15750828
0.09021149
0.17172214
0.086528875
-0.70717037
-0.14453423
0.035705984
-1.0480787
-0.19068801
0.019540178
0.14337656
0.014650905
0.09362851
-0.03184172
-0.07179499
0.029264912
0.30537206
0.16916858
0.025659485
0.2578355
0.14124443
-0.12662143
0.11584471
-0.064874016
0.10723437
0.018805275
0.095782205
-0.060331363
0.71500736
-0.09180277
0.1559574
0.038645137
-0.22798388
0.13726069
0.06511478
-0.4975795
0.121203065
0.10586349
0.012655563
0.011553425
0.11217127
0.3298357
0.015928483
-0.87440985
0.6622409
0.39438722
-1.6904395
0.0054459283
-0.009208905
0.20938075
0.14855987
0.011069631
-0.05637556
0.12697332
0.048605483
0.0016774549
0.29016185
0.07619142
-0.084392846
0.07854989
-0.30292317
-0.48195723
0.13704869
0.15216024
0.11642075
-0.3778986
0.06757036
-0.04330313
0.08358294
-0.3358112
-0.32803082
0.05917013
0.02656776
-1.4919766
-0.645693
-0.2853526
-0.41838855
0.15703227
0.11085896
-0.029586397
-0.33117926
-0.1038489
0.39702594
0.16713989
-0.7867325
0.22737768
0.12247589
-0.05531875
-0.12342567
0.008682243
-0.07824804
-0.9470101
0.08837601
-2.0024261
0.15116043
0.053960368
0.060057886
0.113015346
0.28962466
-0.16021077
-0.105959624
-0.0021393548
0.10190121
0.22920497
0.51158017
0.24439804
-0.026166638
0.4176325
-0.030014412
-0.11996909
0.09349075
-0.33115804
0.02311858
0.28538582
-0.07126069
-0.047670417
0.2960351
0.0618217
0.15416777
0.083431624
0.17372027
0.04279167
-0.33342603
-0.26194566
0.22051278
-0.0744355
0.26081023
0.021300165
-0.29380465
0.020858489
0.0044818586
0.10805271
0.20207767
-0.007924301
-0.31016767
0.34358355
-0.090123
-6.0693207
-0.13906293
-0.5318181
-4.4546466
-0.47871694
-2.0844402
0.78016955
-0.5867363
-0.116635635
0.09755146
0.4078859
-2.1514971
0.2520051
0.057078972
-0.5704911
-0.1658926
0.07654721
0.819978
-0.06818079
-0.38057035
0.1391516
-3.8210196
-0.5922173
0.35638097
0.8760594
-0.03051271
0.020945022
0.2662412
0.795894
0.9161348
0.72681844
-6.6684465
0.4105574
0.6953136
-4.292191
0.330647
0.017115751
-2.1961608
-1.3231834
0.18602219
0.04462651
-0.03468819
0.06958869
0.5081094
-0.29952124
0.9066293
-0.08870652
-1.1057221
0.18450087
-4.964167
0.030683398
0.02466531
-0.5661309
0.2531042
-0.8659114
0.62551683
0.071358986
-0.14011562
0.16613793
-1.3130147
0.036700826
0.2806521
0.21353024
0.17511643
-0.08831206
-0.3474762
0.076576434
0.6818132
-0.3911493
-1.2055846
0.13634916
0.11221682
0.24919389
-2.2065847
0.22300428
0.260384
0.88370264
-0.08167193
-4.660749
-0.13537891
-0.06161098
-0.13631316
-1.5058073
0.041318946
-0.11533106
-1.4099461
0.24743286
0.47483203
-0.7730696
0.62893075
0.2706206
0.73052347
0.1692311
-0.14724478
-3.087898
-0.25416163
0.14539015
0.096260175
0.1668674
0.041716717
-0.0069844956
0.16722591
0.10019328
0.07873487
-0.020611564
-0.11999974
-0.118541725
-0.38499227
0.055242073
-0.30493763
-0.09794131
0.22660245
-0.41161606
-0.13284636
0.0974941
0.12406254
0.11036684
-0.30942383
0.11109393
-0.063089184
0.09784736
-0.06534972
0.14288196
0.2920195
-0.29151776
0.088143125
0.104402885
-0.21853925
0.21315402
0.42552808
0.09666063
0.057404116
-0.23226267
0.28804347
0.13797303
-0.071104586
-2.130408
-0.73553735
-0.4142542
-1.045983
-0.089712255
0.14283231
0.08876535
-0.23087293
-0.0942965
0.09539564
-0.10791701
-0.09250022
-1.3399374
0.1858866
-0.029346168
-0.022453332
0.10638133
-0.08081143
-2.6671312
0.3039491
-0.29547894
0.13609381
-0.27907908
0.023545213
0.054608036
0.03878656
0.24902554
0.13526724
0.11531407
0.15869497
-0.16468132
-0.033528745
-0.35642165
-0.14863797
0.040057104
-0.14209218
0.026183628
0.21396697
-0.33573753
0.08101202
0.6159958
-0.019321525
0.0021996528
0.1104265
0.0051256926
0.1548107
0.06900612
-0.01018377
0.14677252
-0.39438364
-0.1869953
0.103497386
-0.032468885
0.40543485
0.20300274
0.16698468
0.13261168
0.0027378302
0.07684851
-0.24010861
0.14354523
-0.062075403
-1.7305726
0.098981366
0.18906179
0.0027373245
-0.06548306
-0.0033841934
-1.7912365
-0.07939384
0.22756582
-0.36973742
0.09851557
0.44766608
0.33641043
0.02971213
-0.23004487
-0.8274094
-0.5636762
0.04766557
-0.029443663
0.3908302
0.13566455
-0.8236065
0.40941742
0.03981705
-0.007487428
0.55400884
0.2960288
0.09804533
-0.028612977
-0.27050012
0.012383572
-0.040954154
-0.13437581
0.08693295
-0.32937574
-0.22917731
0.24212517
0.37458023
-0.31058934
-0.47651365
-0.10956843
-3.0142806
-0.24297184
0.04442102
0.22060284
-2.187226
-0.19091164
0.73366904
0.015426251
-0.090030216
-2.3025537
0.24001907
-0.0071540116
0.32063714
-0.03569792
0.33210352
0.2123626
-0.09766702
0.4370604
0.1481896
-0.1891217
-0.22314817
-0.020236872
0.11157461
0.22675799
0.08710566
-0.09944396
0.12901781
-0.30686954
0.62049305
-1.1160146
0.040141314
0.358905
0.10220827
0.308439
0.04658634
0.15231614
0.3370266
-0.34643686
0.032208014
0.1933082
-0.04821271
0.081034206
0.08864669
-0.06488972
0.005270011
0.0688902
-0.10697582
0.26548284
-1.187801
0.15293376
-0.70814896
0.36420593
-0.07344645
0.23407054
-0.05037326
0.1713367
-0.29348746
-0.076334216
-0.013606343
-0.9169498
-0.050554555
-0.071134746
0.012999888
-0.11011579
0.08233078
0.38098958
0.22303969
0.10245734
0.43128583
0.07102149
-0.0780759
-0.16834888
0.12859051
0.09028443
0.19044721
0.20809045
-0.17308871
-0.2951265
-0.28570944
-0.07572091
0.13339436
-0.16230331
-0.12136606
-0.37762746
0.29712927
-0.11208915
-0.13889529
-0.024006696
0.11442726
-0.34216633
0.11961285
0.002825342
0.0076094284
0.10308817
0.13676599
-0.08142899
-0.012135787
1.311638
-0.29031286
0.3118361
-1.6394771
0.07657462
-0.009788975
0.042376798
0.008379889
0.11660236
-0.35698473
-0.13463216
-0.1900639
-0.012389766
0.08130598
-0.078999236
0.104054675
0.1179638
-0.00010070223
0.60283226
0.021030882
-0.023362858
-0.13237825
0.12942646
-0.51024985
0.238627
-0.19354995
-0.0284419
0.01958334
-0.016820919
-0.06873928
0.13011976
-0.34173378
0.29936033
0.07367935
-0.56244177
-0.19533083
0.09434636
-0.0044683935
0.06304061
0.029526994
0.009582724
0.0014395952
-0.0076195705
-0.14798892
0.07697014
0.09489143
-0.5177583
-0.09917385
-0.21131778
0.15421024
0.026618894
0.3992545
0.04523892
0.30387855
-0.10534955
0.0077665327
0.030935314
-0.10474248
0.043789115
0.3997986
-0.109376684
-0.094549514
0.28569132
-0.14602
0.20436037
-0.11716621
-0.10220013
0.30948043
0.4125159
-0.123930626
0.35151085
0.01186387
-0.27021593
-1.6183624
0.6058119
0.13428503
0.17142989
0.010973345
0.36286464
0.0155944945
0.09842427
0.63464046
-0.17146148
0.113567725
0.07881359
0.2170223
-0.01916534
0.36273104
0.4472398
-0.019934077
-0.1008794
0.28149712
0.55975246
0.7046435
-0.25058612
0.23261778
-0.2580941
-0.21225926
0.23696332
-0.46573696
-1.2289246
0.37998405
-0.0452714
-0.30231243
0.05130008
-0.096157424
-0.17603585
0.2276432
-0.12703669
0.881694
-0.026185399
0.24917042
0.62878263
0.3390865
0.0030241848
-1.2225173
-0.07879302
-0.33980215
-0.5474349
0.72847474
-1.5418034
-0.36520833
0.11578078
0.17944095
-0.1263925
0.2757054
-0.2102927
-0.03496608
0.03208415
-0.06496885
-0.013492018
0.92695683
0.10343162
-0.23976433
0.869878
-0.112564616
-0.48266482
0.15104593
-0.40925714
-0.07755295
0.86250675
-0.04719683
0.14928012
-0.08951076
-0.042606454
-0.14854649
0.2384707
-0.12954116
-0.123984866
-0.088386685
-0.4191173
0.3432468
-0.13741916
0.8128075
-0.18125859
-0.2044299
-0.004074763
0.010578483
0.23008676
0.17859693
0.1792374
0.124019325
-2.1869721
0.12628974
0.110745676
0.19497135
0.16311711
-0.1112272
-0.28207242
0.03676968
0.41006446
0.46652845
-0.64354557
-0.41720515
-0.056032464
0.2082351
-0.1850047
-0.15345728
-0.2995972
-0.10231497
0.04786495
0.17159119
0.06616765
0.10533268
0.05562026
0.043174557
0.08266479
-0.021490179
0.10236445
0.10856768
0.1646478
-0.20298493
0.6201739
0.34601066
-0.11150416
0.14888881
0.06713228
0.031968005
0.14113104
0.012806286
-0.31424102
0.5986987
0.13890274
-2.8161285
0.29655644
0.07311037
0.10395354
-1.1735764
0.11240263
-0.08810517
0.14858219
-0.14859873
-0.5488874
0.019351732
0.038761903
-0.48275247
0.03242214
-0.07592044
0.19908445
0.28754464
-0.39884475
-0.31876567
-0.1108665
-0.06508908
0.16868235
-0.30880296
-0.007264607
-0.14364581
0.0070521096
0.11858377
-0.19435042
-0.36107934
0.11362874
0.21598789
-0.22738357
0.12996776
0.060009725
0.13824248
-0.12781377
-0.16192621
0.22516197
0.052746248
0.011495704
-0.18832392
0.15203181
0.16673638
0.123941526
0.11993469
0.07909289
-0.088319935
0.14058903
-0.66568255
0.22963756
-0.18273309
-0.005890774
0.065201476
0.016030747
0.06843974
0.2596252
0.09127892
0.13334818
0.045505073
-0.7306808
0.018365225
0.035576127
0.13770916
0.1335733
-0.012094326
-0.029021492
-0.17655891
0.3378394
0.13889745
-0.41158694
-0.7402709
-0.15501122
0.06252476
-0.060775857
0.12171813
-0.4002005
0.04882422
0.45327026
0.1662134
0.07732357
-0.14605823
0.34492338
0.039108995
0.021213362
0.48990425
0.25605232
0.0833405
0.11090853
-0.04300519
0.008592718
-0.040395003
-0.0015805403
-0.12543255
0.10192597
0.02406486
0.059784126
0.068250015
-0.5331783
-0.24367902
-0.06770838
-1.8328744
0.23599596
0.0038106681
-0.08283468
-0.4186859
0.22179314
-0.64953953
-0.013274866
0.085829906
0.0803384
-0.07345688
0.09293275
-0.1273593
0.08114645
0.026438681
-0.41258487
0.13133863
-0.70572263
-0.013908251
0.0045994846
0.32419193
0.09911649
-0.32707772
-0.04813899
-0.19384663
-0.014169413
0.07238003
0.051221624
-0.8138372
0.09257133
0.118757084
-1.3352897
-0.07094932
0.11586567
0.12727758
-0.061633196
-0.37130523
-0.1689642
-0.09127219
0.0438393
-0.19983752
0.15291698
0.08370274
0.35303155
0.010110935
0.1033217
-0.17640372
-0.20030972
-0.16410467
0.027396448
-0.07171018
-0.2158536
0.080332346
-0.054030072
-0.086123586
0.06743414
0.49769166
0.03656369
0.0055411635
-1.2702403
-0.12077966
-0.01918473
-0.07098094
-0.113955334
0.024428312
0.030933104
0.08016116
0.076771684
0.36525303
0.33509904
0.09654889
0.29869455
-0.049613096
-0.4956375
0.24459235
0.08009746
-0.4479817
0.13249822
0.38758948
0.033219695
0.12994349
0.17191331
-0.087135874
-0.39800337
0.1814959
0.4112367
0.006187102
0.006039587
-0.71120685
-0.3858116
-0.35279036
0.09167971
-0.089547455
0.4482082
0.26223984
-0.11208978
0.27082247
0.5492811
-0.04516516
0.3231214
-1.4466344
0.32382897
0.026449623
-0.041544978
-0.5997781
0.20384035
-0.0032229263
-0.048736382
0.11802383
-0.40508142
-0.13902977
0.094704114
0.33625358
0.097918965
0.2375462
1.063571
-0.30690888
0.06412798
0.3017445
-0.6351575
0.16115452
0.24080296
-0.2189705
-0.120689504
-0.064604774
0.06871805
-0.119278744
-0.65649
-0.036262285
0.111291386
0.13940547
0.00855023
-0.0650306
0.1626327
-0.12827702
0.040911958
0.0033749517
-0.4092867
-0.07069009
-0.11203819
0.1716918
0.13013701
0.0846659
0.21651037
0.022805642
-0.061736133
0.1735532
0.106334224
-0.06884646
0.10887787
-0.34999347
0.024195407
0.21760122
0.10637032
0.08903501
-0.05919953
0.51520693
-0.016655888
-0.17315647
0.05537497
-0.123671636
0.032750636
-0.011994071
-0.0059562307
0.00197327
-0.00506948
-0.07842273
-0.08874628
0.020575693
-0.07224257
-0.061084215
0.00891958
0.039963726
0.029665688
0.0030942678
-0.11001449
-0.0069569824
-0.04680072
-0.049439717
-0.05420228
-0.0733715
-0.10406701
0.032817557
0.0029157156
-0.016999047
-0.04881779
-0.12621221
-0.059542738
0.044537917
-0.035459306
0.049063977
-0.067629576
-0.12704006
0.068997815
-0.02547155
-0.14902802
0.005960386
0.013796254
-0.046247505
0.0003024378
-0.022147978
-0.06606318
-0.050884433
-0.14994559
-0.03980571
-0.06461601
-0.104074515
-0.10244378
-0.03703828
0.0468261
0.014598075
0.037184656
-0.036497302
-0.050693482
-0.05788509
0.0056303144
0.011228722
-0.05428027
-0.061829906
0.0058765244
-0.073240474
0.004390746
-0.07343686
-0.10404589
-0.101663955
-0.12171572
-0.09992201
0.015091802
0.019538725
-0.010330749
-0.048332743
0.035071645
-0.13515417
0.04654015
0.005153909
0.011265285
-0.11288433
-0.05484753
-0.032027483
-0.061910525
0.08781728
-0.042878315
-0.03786731
0.06959376
-0.03206214
0.0146221295
-0.11537757
-0.16631833
-0.018555319
-0.0319159
-0.066829875
-0.016830185
-0.099096775
-0.14570111
-0.15059057
-0.020903116
-0.10680742
0.24999744
0.21469085
-0.04922942
0.119161434
0.15040076
0.29595637
0.19829683
-0.073883474
-1.2943536
0.10279977
-1.9930542
-0.21600974
-0.28612584
0.027653785
-2.1771433
0.31772485
0.19135633
-1.411045
-0.96595407
0.32577324
-3.0744085
-0.11592861
0.19146065
-1.340148
-2.7501123
0.21643952
0.33463112
-1.7120398
-0.6494845
0.21759464
0.12217966
-0.039835334
-1.5475614
-0.5241318
-0.33843866
0.048267234
-0.6353465
-0.70420927
-0.022772709
-0.27245572
-0.65850204
-0.13179561
-0.2152822
-0.09586348
-1.689265
0.082247265
0.056469318
-0.063011006
0.43142426
-0.039516
-0.21224143
0.47542864
-0.59151137
-0.09087117
-0.06963692
-0.034207452
0.12652563
0.09757232
-0.5153605
-0.18664098
0.0824014
-0.2015527
0.17114478
0.31790462
0.2377665
0.38117087
0.3484832
0.33780342
-0.0537663
0.13003585
0.09729887
0.14403392
-1.4376155
-0.08657399
-0.15085407
-0.4058421
-0.5136321
0.18494184
0.12139576
0.24189435
-0.11048045
0.002765453
0.21950218
-0.26889914
0.25588107
0.210584
0.36971295
0.13365288
0.21105611
-0.163437
0.028474929
-0.08200284
-0.2286595
0.01025362
0.034054678
-0.5657752
0.20433135
0.010039622
0.09718927
0.381924
-0.08854931
-0.018329343
-0.08465939
-0.098028675
0.02466272
-0.014242396
-0.039634936
-0.12810123
-0.036729433
-0.113146864
0.02046365
0.025040584
-0.06534623
-0.0957812
-0.0320422
-0.079920724
0.07605051
-0.07434733
0.09683601
-0.06828262
0.058357764
0.0029053262
-0.106058165
0.033866286
-0.09639654
-0.029631337
0.055209916
-0.043474745
0.12762867
0.07816488
0.032743726
-0.017563136
-0.06808555
0.030799974
-0.13279341
0.035962418
-0.058812413
0.109385505
0.02208055
-0.02915539
0.050632644
0.07788401
0.027644236
0.019414116
-0.051890183
-0.012824645
0.010878103
-0.09001868
-0.011474091
0.0506629
-0.1439462
0.08148219
0.011337376
-0.0798289
-0.026305152
-0.10649405
0.011900275
0.10483822
0.0361352
-0.025497688
-0.008326335
0.011277745
0.090566404
-0.028488563
-0.04675102
-0.015163452
-0.07287541
0.0344483
-0.10737318
0.034979172
0.001342898
-0.024956685
-0.07322126
-0.06778068
-0.021583745
-0.12977146
0.042323574
-0.055975076
-0.022802096
-0.07653987
-0.085159376
0.017911507
-0.04407054
-0.08131219
0.055276375
-0.067976214
-0.079622276
-0.084301084
-0.04128126
0.028428951
-0.044397682
-0.08705392
-0.061509475
0.01534493
-0.04957889
0.002224024
-0.0461565
-0.09504011
-0.0841636
-0.03873239
-0.022821166
-0.21720338
0.25011146
-0.10150471
-0.6499645
-0.094993554
-0.35971436
-0.94728523
-0.23534018
-1.0448912
0.451714
0.6876307
0.6894756
1.0697987
0.38631448
0.11012082
0.20792261
0.120239444
-0.5024993
0.11845382
0.24436459
0.40859354
-0.12929693
-0.042992692
0.05926995
-0.28700078
0.05844532
0.24832268
0.2735301
0.058976118
-0.0021690265
-0.11626359
0.2358043
0.2992725
0.13581559
-0.7213404
0.18155879
-0.06471153
-0.56430346
0.25298867
-1.2519007
0.7525761
-0.33732975
0.64034545
-0.06265427
-0.04435004
0.018053139
0.38266942
0.44905654
-0.8547958
-0.10942122
0.63937706
0.22256605
-0.60161406
0.08641964
0.93799645
-0.6322452
0.2041162
-0.06200933
0.3439328
1.0807046
0.722919
-0.0639399
0.6937419
-0.03755839
0.041608933
0.14593056
0.04341901
-0.12937498
-0.20994017
0.032503713
-1.0375655
0.07845852
-0.13444461
-1.0485166
0.06289033
0.14442956
0.18040615
0.26729175
0.20668636
0.4149304
-0.06633478
-0.4424537
0.3066217
-0.074885055
-0.05772206
0.7858094
-0.12100102
-0.053713188
-0.66474
0.21793565
0.42601094
-0.370733
0.33080396
0.15382239
0.16131204
0.007607229
-0.26507273
-0.21027236
0.5289555
0.0302054
-0.103882134
-0.33111846
-0.040768243
-0.14240262
0.05200309
0.0095071765
-0.34106797
0.34669653
-0.8623841
-0.2686394
0.9747536
-1.6521257
-0.4954437
0.20936707
0.12541285
0.08927424
-0.061911315
-0.007644134
0.15865387
0.12981108
-0.314844
0.16692816
0.2698928
0.07124078
-0.07363018
-0.11380519
0.28203097
-0.40988722
0.19826107
0.08982105
0.12267484
-0.24273589
-0.04321769
-3.3992455
-0.2146272
0.061427794
-0.08495883
-0.2736306
0.0026274894
-0.037449736
-0.09657083
0.029041251
-1.8635528
0.14910965
-0.004057509
0.11787785
-0.35445264
0.21724427
-0.18710263
-0.06833499
0.3986115
-0.050041527
-0.29779837
-0.04280856
-1.0640254
-0.2233186
0.11646574
0.48490113
0.08966672
-0.31119838
-1.558262
0.1353168
0.73353976
0.233541
0.19806622
0.17102067
0.099448524
0.0011691084
0.07385717
0.22251794
-0.25464472
0.4480086
-0.6180827
-0.105839655
0.003111611
-0.01859587
0.123914175
0.048245575
0.18447842
-0.06594798
0.05345268
-0.19362849
-1.9340461
0.020076144
0.13884322
0.64645666
0.02976509
0.030944211
-0.17485684
0.11826554
-0.09449393
-0.44790962
-0.087037444
0.11486021
-0.27382067
0.047692657
0.0020709485
-0.2089824
0.6597813
-0.043410875
-0.044134878
-0.030508924
-0.015205274
0.052749917
-0.07873773
-0.08706376
-0.087357946
-0.02328161
-0.089871705
-0.07128986
-0.0030287623
0.0286244
0.03352863
-0.023689462
-0.008383542
-0.074527204
-0.024018213
-0.122391716
-0.08599617
-0.04693929
-0.066759385
0.008368687
0.002910732
-0.03964602
-0.12465793
-0.04239243
-0.01232102
0.07665696
0.030324971
-0.07917746
0.017838323
-0.073175766
0.04657935
-0.09319387
0.0021573934
0.08844489
-0.049735725
0.013181094
0.010263932
0.06548651
0.08438559
0.047695145
-0.02183019
0.0109115895
0.020546993
0.032764327
-0.005277765
-0.09595919
-0.06899496
-0.12114013
-0.02680823
0.03184401
-0.10998856
0.0024325014
-0.053165324
-0.06814979
-0.005610514
-0.024551451
-0.055299234
0.0026812623
0.031587258
0.06823516
-0.008235062
-0.03904375
-0.057954397
-0.031794965
-0.07291018
-0.12590489
-0.102081224
0.088283315
0.05932493
-0.044441745
0.026458284
-0.027351677
0.008390891
0.001832676
0.014703517
-0.09112606
0.063284114
0.011396957
-0.08756794
0.024400292
-0.038813233
0.052237988
-0.024978554
-0.068795025
0.06050254
0.0053231004
-0.045047108
-0.0879033
-0.026550436
-0.044604216
-0.057160925
0.047582746
-0.057226684
-0.052553356
-0.10558145
-0.055016994
0.07328405
0.045291327
0.07709062
-0.036199346
0.049980674
0.108538486
0.2072803
0.02571548
-0.016061202
-2.2031157
0.031882342
-0.22108385
-0.7141552
0.22987548
0.66044426
-0.40182272
-0.008074752
0.043073185
-0.8609441
-0.96417755
0.35051784
-0.1710857
-0.37935212
0.15186697
-1.6949131
0.22770534
0.08890495
0.36167055
0.2903733
-0.2219317
0.27044538
0.16877197
0.130614
-0.9255259
-1.8199584
-0.1281763
0.030420838
-0.15375423
-0.18547754
0.023931237
0.16030239
-0.2928785
-0.1061758
-0.31707028
0.018121434
-0.5573659
0.11512444
0.14701363
0.1965178
0.21206604
0.023250252
-0.019843824
-0.14407852
-1.7410893
-0.11156004
-0.038808417
0.31486917
0.17052577
0.3379859
-0.23367445
-1.890403
0.6587993
0.12941879
0.19111319
-0.26238498
0.30050132
0.35141248
0.24553727
0.32920757
-0.0058483966
0.10036259
0.106145695
0.01511851
-2.2618024
-0.058874328
-0.12177415
-0.033551387
0.3592379
0.11426502
0.3757477
0.53308
-1.9759883
-0.04998244
0.24792002
-0.019253729
0.12384965
0.2965456
-0.1890916
0.020934882
0.2626157
-0.33158803
0.22232543
-1.9319441
-0.12837386
-1.856535
0.11704478
-0.12770079
0.16399038
-0.05497957
0.117025346
-0.02647598
-0.44152063
-0.21779533
1.1073314
-0.58881736
0.03611298
-0.2544859
-0.08965617
0.15304023
-0.15227875
0.0066797696
-0.09636346
0.00032144005
0.54907805
0.6500948
0.032332465
0.055349886
-0.23430945
-0.60328865
0.399856
0.10747451
-1.8043871
-0.037969314
-0.31660622
-0.4056298
-1.7390387
0.025397202
0.051627755
0.5290628
0.0962856
-0.2799233
-0.56321406
-0.63676554
-0.09451107
-0.029807746
0.41665152
0.16718613
0.684696
0.75988626
0.288561
0.2128729
-0.19324636
0.2417657
0.16593556
1.8036803
-0.40071437
-0.4003964
-0.7543186
1.1605705
0.17814463
0.0730899
-0.6463108
0.31107673
-0.0828748
0.14704461
0.08312503
0.53424555
-0.087128885
0.3873623
0.41672575
-0.0891602
0.5140597
0.46494073
-0.3844669
0.08823088
0.23857372
-0.7400285
-2.5634775
-2.5278728
-0.38768357
-0.16481061
-0.3989581
0.15798597
-0.25698128
-0.03576744
-0.038893573
-2.0589502
0.06002132
-0.023395305
0.42143828
-0.009689924
0.040056765
0.08712707
0.13775729
0.4482492
0.36953357
0.13084017
0.100667804
-0.43051648
-0.16944522
0.2054742
-0.12539472
-0.14231002
-0.15327188
-0.048006605
-1.439337
0.8188101
-0.45283863
-0.386933
-0.007186393
0.07345641
0.043738034
-0.11429055
-0.1440166
-0.011568475
-0.009320002
-0.003180003
-0.06619776
-0.075097464
0.14388327
-0.07761684
-0.16716042
0.56862795
0.06562304
0.08190198
-0.0959558
-0.18267162
-0.0062947967
0.3002277
0.04485586
-0.11355493
0.26637024
-0.079301886
0.018872151
0.30991116
0.075777456
-0.09464398
-0.054976564
-0.18849774
-0.14440316
-0.117173605
-0.0089748595
0.04198915
-0.57713366
-0.31053165
-0.06831381
0.025634075
-0.044578273
-0.2022318
0.07467487
0.16652888
2.0150077
-2.246705
-0.22421046
-0.7033333
0.2629027
-0.08338695
0.06965687
-0.34077504
-0.042818055
0.27814803
0.11872753
-0.33109528
-0.0731496
0.016451515
0.07897921
0.36442068
0.075187474
-0.029939486
-0.41719866
-0.29270703
-0.0470276
-0.0767019
0.09916114
0.35585672
-0.13629577
0.1034363
0.13710481
0.048294384
0.12602802
0.060508516
0.037809853
0.27355152
0.14998338
-0.14886448
-0.029934704
0.10996457
0.22435406
-0.02511679
0.12339851
0.033367917
-0.47295317
-0.07489201
-0.10604743
-0.0015454221
0.014687398
-0.13664207
0.34917697
0.11658575
-0.22913347
-0.261588
-0.12579562
0.06911965
-0.075180285
-0.20278862
0.08519582
-0.26125023
0.15249671
0.17658144
0.032048352
0.08715441
-0.07511412
0.02689718
-0.022237314
0.005410035
0.00038719177
-0.06263131
-0.016653884
-0.09727862
0.0044288635
0.044579484
-0.041818086
0.077313535
0.093258716
0.051238563
-0.07748095
-0.09046211
-0.053315267
0.039159264
0.032793116
0.09272896
-0.05363288
0.056215525
0.060325004
0.0021695495
-0.07385001
0.06870538
-0.037927866
-0.053734094
0.09450905
-0.0042369566
-0.034787558
0.013482371
0.0542646
0.02904229
9.4377996e-05
-0.06568714
-0.038303368
0.051797982
-0.027088512
-0.07120934
-0.06867884
-0.043536097
0.015158856
-0.07395285
-0.039031733
-0.043927893
-0.069168165
-0.07485404
0.013020599
0.019281793
-0.079938486
-0.0429353
0.098800994
-0.07433849
-0.058573734
0.0063589932
0.0122348545
0.007303455
-0.011666637
0.038419172
0.061950993
-0.05346793
-0.06358608
0.024522532
0.012831906
0.07465813
0.05665814
0.04842216
0.036919773
-0.0015581131
-0.025103794
0.08056688
-0.08944257
-0.09091892
0.0913313
-0.0567386
-0.0880854
0.014154923
0.069128715
-0.09475313
-0.0034034133
0.08260349
-0.02630204
-0.04657842
0.031286046
-0.09139325
0.02765206
0.059589557
-0.09245898
-0.06783141
-0.017914748
-0.0018032313
0.09293216
0.01030575
0.01826991
-0.011985238
-0.07217604
0.007996023
0.042409457
-0.007963315
0.09194073
0.26078877
-0.4089507
0.070997655
0.08201143
0.022720434
0.08047938
0.08198384
-0.025402768
0.122523576
0.3435934
-0.010176219
0.0793376
-0.405527
-0.0794172
0.12906802
-0.21377361
0.109635785
-0.07106031
0.13429604
0.10236986
-0.1314002
0.06160366
-0.04756212
0.09219643
-0.019007074
0.030697025
-0.019810861
0.1733319
0.118325986
0.12061104
-0.41208172
0.12695666
0.18040875
-0.17169988
0.03794206
-0.007588245
-0.26197028
0.025391497
-0.36241195
-2.503384
-0.8164137
-0.13348693
-0.10803396
0.17701127
0.16439888
-0.0927398
-0.26170358
0.2251845
0.6019242
0.043192178
-0.17463319
-0.45225146
0.028285544
0.00032752752
-0.2616583
0.2200041
-0.12054166
-0.8337692
0.45456377
-0.33319607
-0.025717173
-0.39064494
-0.106539614
0.057419904
0.26426357
-0.0373142
-0.0014982072
0.13690364
0.09083519
-0.34793672
0.7236592
-0.25376847
0.10068601
0.28640583
-0.26129603
-0.28725412
0.16336119
-0.0979336
-0.055621188
0.46754682
0.066925965
0.07125021
-0.098148584
0.17108165
-0.10624617
-0.005222574
0.19872318
0.03460901
-0.20334245
-0.10150685
0.21982752
0.027552385
0.47642294
-0.099834725
-0.314987
-0.03374738
0.16402641
0.069291174
-0.028369643
0.08514324
-0.0047521205
0.11734477
-0.037609242
0.1092622
0.13991533
0.08128279
-0.0967214
-0.2253199
0.03709325
-0.24459423
-0.3762695
0.005366101
-0.16966657
-0.026503535
0.22253235
-0.45354882
-0.007384219
-0.07702053
0.19313554
0.2992865
-0.38480723
0.065125145
-0.4056826
0.27892092
0.07983989
0.1711481
0.2171815
-0.40512744
-0.021669721
-0.053275008
-0.4817764
-0.036611628
0.43044677
-0.12035453
0.10817661
0.10569179
0.82588947
0.101607375
-0.049595937
-2.2517388
0.24529688
-0.29170236
-0.7128828
0.012451811
0.115757935
0.18771589
0.2589926
0.1856869
-0.099031046
-0.0102053955
-0.41032064
-0.7312234
0.09948053
-0.014116013
-0.103483655
0.07372543
-0.047450118
-1.691069
0.3101955
-0.2402354
0.12552233
-0.49068582
-0.15515992
0.097562626
0.04757448
0.21081533
0.17323545
-0.0010446402
0.09202863
-0.3332761
-0.15693066
-0.31146172
-0.022785261
-0.46302438
-0.1956948
-0.13391802
0.30087164
-0.18706201
-0.14923756
0.59526277
0.06208458
0.14131823
-0.007353075
-0.04301465
-0.01077407
-0.15196094
0.017133083
-0.03407867
-0.16936345
-0.16220587
0.447284
-0.027413407
0.48036578
0.09802643
0.71473557
0.018040048
-0.018757407
0.08259456
0.2427268
0.03756805
-0.09541873
0.08723439
0.05025895
-0.039681982
-0.016313097
-0.050568637
-0.08545824
0.027709855
0.008207596
0.027589524
-0.019320525
0.06732454
0.06809004
-0.08269998
-0.05532562
0.07231198
0.003950286
-0.07269263
-0.031541415
0.06342739
-0.02558763
0.06864393
-0.079663634
0.077716686
-0.115257934
-0.050421588
0.06923624
0.03002691
-0.10774864
-0.015643185
0.068421125
0.004206779
0.08618949
-0.043664288
-0.016187001
0.0013474049
0.058478005
-0.060453515
-0.03507224
-0.02983765
0.087503344
-0.096279755
-0.017162014
-0.0027795832
-0.04933618
-0.07467125
0.03745252
-0.12052672
0.008653981
0.008119399
-0.12126509
-0.06516615
-0.0066740275
0.028304422
-0.047317255
0.07055636
-0.02304096
0.06038688
-0.03718415
-0.07138682
0.0025433302
-0.004673199
-0.07923918
-0.049697887
-0.07695934
0.06457308
-0.11097466
0.04688632
0.008686078
0.041316587
0.059878077
0.024991287
-0.02076881
-0.03630727
-0.0014626516
0.023549227
0.06764458
-0.0972288
-0.052187562
-0.0535115
0.027628804
-0.03794915
-0.07095466
0.00043540972
-0.042071696
0.06800881
-0.10214954
-0.050770443
0.012466431
-0.067462005
0.012821341
-0.07874294
-0.07178889
0.0666657
-0.062071886
-0.05732307
-0.10630243
-0.047773216
0.06304626
-0.38401392
-0.021124259
-0.7752239
-0.16653065
0.120441295
-0.18418385
0.118909344
0.16868952
0.27269623
0.12303409
0.06939796
-0.17102306
0.386726
0.32256165
-0.054639317
0.07700014
-0.8262678
0.25732833
0.401919
-0.2624275
0.70466304
-0.077729836
-0.053028207
0.22864541
0.6238156
0.1607603
-0.08652031
-0.84856427
-0.03668585
-0.11889199
-0.29855582
-0.6357788
-0.08370186
0.69605863
0.33020377
0.16886564
-0.033317704
0.034037374
0.16314904
0.083826505
-0.5604359
0.18858378
0.34873426
-1.2091957
0.27019092
-0.0201864
-3.029736
-1.0777117
-0.029812504
0.03410528
-0.09944043
0.023470685
0.025751494
0.20318203
-0.046459354
0.4748159
0.06449575
-0.14936064
0.68492734
0.61205554
0.22524832
0.35728046
-0.80516833
0.099228874
-0.88689345
-1.7572906
-4.962963
-5.7319803
0.101345345
-0.029865915
-0.8753293
0.013989413
0.10202682
0.017171307
0.02047111
-0.143408
-0.048182197
0.13354453
-0.30425185
-0.2991147
0.59154826
-0.011761069
0.12000052
0.22749397
-0.462826
-0.7161704
0.19399053
-0.14790916
-0.25808728
0.42538506
-1.4420122
-1.047368
0.062918134
0.17408983
-3.3742845
-0.023104507
-1.8880246
0.011416324
0.01806969
-0.03756559
0.03963971
0.033869226
0.011552041
0.106459334
0.27707738
-0.058059435
0.08434038
0.17126027
-0.11087423
0.19166897
0.17048286
-1.1282294
-0.13357025
-0.14094105
-0.7249914
-0.12941495
-0.14245845
0.095503986
-0.10476331
-0.06716971
0.08780252
0.3661023
-0.011245319
-0.09308528
0.19292198
0.1720356
-0.14306828
0.30069774
0.34522063
0.03649795
0.04149412
0.14248453
0.10127078
0.23951422
-0.49937254
0.15281367
-0.56816876
-0.39718345
0.06421514
0.32192773
-0.0053581237
0.7991203
0.09553628
-0.04207386
0.14945455
0.16204193
0.120727785
-0.14392138
-1.3376634
0.999629
0.14835905
-3.619501
0.03496443
0.15591702
0.09656487
0.19334096
0.035075862
0.30708587
0.24121791
0.16969956
-0.62933606
-0.025246728
-0.09836431
-2.3182335
0.07742925
0.17572798
0.114587694
0.059881896
0.1747139
0.033363238
-0.086598046
0.7851205
-0.2045437
0.031113887
0.7744836
0.23818888
0.31841746
-0.16221036
0.15441826
0.24451779
0.1122054
-0.03769535
0.1941891
-0.62817097
0.15614882
-0.13298939
-2.6074424
0.09273195
-0.06164347
-0.024223948
0.115276605
-0.67353034
0.08438765
-0.21787438
0.08540027
-0.29398745
0.16391566
0.12774499
0.13283573
-1.4043206
0.06670591
-0.08182695
-0.07083917
0.009367188
-0.07797176
-0.055979006
-0.009989476
-0.095069125
-0.077608205
-0.03673142
-0.08596065
0.009513247
0.005942011
0.009983683
-0.06817963
0.051306907
0.083253495
-0.07288238
-0.014924896
0.01166321
0.043099288
0.035993706
-0.09506242
-0.05082759
-0.07819483
0.029967144
-0.060372896
-0.06852784
-0.061283495
-0.06981155
-0.0047002863
-0.030866861
0.09345751
0.05509683
0.021373987
-0.06664488
-0.04615483
-0.016886413
-0.10348736
0.06528391
-0.06644242
0.07964357
-0.061695337
0.08720874
-0.05801997
-0.0102963755
0.013707379
-0.05823058
-0.062295664
0.03497374
-0.014215585
-0.010897267
-0.09294736
0.006326821
0.008322144
-0.044696894
0.07532455
-0.088642985
-0.07866222
-0.0799946
0.0215227
0.01355232
0.03552301
-0.097544886
0.011846197
0.0004545265
0.010377106
-0.0159425
0.0011890167
0.074019626
-0.017374504
0.08900868
0.09813
0.01880264
-0.0681021
0.029331036
-0.10292009
-0.01641751
-0.095820725
0.04724661
-0.049227204
-0.034052182
0.029350096
-0.07306448
-0.07453753
-0.08679914
0.05365764
-0.031836316
0.06084288
-0.07133698
0.020471493
0.053362202
0.05232921
0.07222141
-0.082713105
-0.07555885
0.013963861
0.06194582
0.083553515
0.06315172
0.18593611
0.10395683
-1.10167
0.1583585
0.03333235
0.09281153
0.12741481
0.119553365
-0.47056562
-0.044253975
-0.55495256
-0.322051
-0.2955656
-0.41405392
-0.40636584
0.35405293
-0.3724699
-0.017443564
-0.37561586
0.14577948
0.26574293
-0.82433397
0.09188269
-0.26552805
0.514888
0.00014065624
0.016083883
0.4763899
-0.752157
0.122487865
0.122984216
-0.42061034
-0.095998496
0.3127402
-0.44618773
0.037413035
-0.89147365
-0.84343636
0.11101937
0.01629334
-0.84596145
-0.15463851
-0.31738514
-0.7492823
-0.0043282765
0.16209838
-0.081170164
-0.6359637
0.25486195
-0.012984804
0.13218099
-0.10732461
-1.0472054
0.13889252
0.006698263
-0.24580032
0.13748507
-0.084822394
-0.07577958
0.35344952
-0.330791
-0.12248264
-0.5073664
0.052061558
0.2069833
-0.31409782
-0.088212006
-0.09542606
0.12229673
0.17359464
-0.256968
-0.07232104
-0.3727222
-0.0934022
-0.16331062
0.13282073
-0.17489949
0.25706446
-0.1406163
-0.078903906
0.34709
-0.045146238
0.13753866
-0.33505803
0.02549085
0.21568562
0.16746645
0.111960165
0.0021695604
-0.35430267
0.07417977
0.028081235
-0.05568398
0.2578994
0.08381256
-1.0195423
-0.020730693
0.15127425
0.2695481
0.29220095
-0.07690252
0.008907058
-0.20598826
0.028600868
0.07086303
-0.24451868
-0.041219976
0.13413356
-0.2565641
0.13577324
-0.021063816
-1.0628307
0.47547513
0.7331676
-0.06482994
-0.12371698
-0.7056384
-0.1390919
0.08293282
-0.41052178
0.32023022
-0.091751404
-0.023874622
-0.19495742
0.1577728
-0.006673988
-0.14078303
0.39260808
-0.072111465
-0.23780003
-0.0614713
-0.15613529
0.07746788
0.04135289
0.15040055
0.036710024
-0.21782295
-0.67728645
0.047991224
0.45501304
1.7308955
-0.65874773
-0.07753891
0.091538124
-0.070789285
-0.076230146
0.28050518
-0.2883601
-0.46027234
0.37026098
0.33025846
0.058254976
-0.9186749
-0.033756908
-0.090693764
0.61270016
0.095373005
0.35457256
-0.5249353
-0.13544713
0.7635176
0.356676
-0.25911564
0.07769609
-0.23066776
0.33634156
0.2635146
0.31066537
0.14829712
-0.098212734
-0.38464493
0.6019713
-0.30569327
0.027122796
0.7410076
0.1345574
0.32896256
-0.12930986
0.44593868
0.31950504
-0.07451224
0.004378152
-0.13493691
0.14664678
-0.046314273
-0.3283193
0.19658951
0.13712063
-0.27621356
0.13869037
0.21570435
0.032442875
0.025714597
0.020475797
0.24854209
-0.3539409
0.053382616
0.123978354
-0.08984798
-0.7498835
-0.2944563
0.06444099
0.71267205
-0.092152305
-0.14014098
-0.52659595
-0.16299137
0.009109339
0.32237434
-0.02201045
0.9026822
0.043176938
-0.13383634
-0.080621965
-0.40237755
-0.838143
-0.3691104
0.47618505
0.33263564
-0.29316312
0.21006292
1.1878349
-0.26016375
0.3377304
0.1579284
-0.23546414
-1.2008555
-0.11388924
1.0584413
-0.7817118
-0.09494474
-1.8196646
-0.012248299
-0.39646405
0.0004958893
-0.1161837
-1.1967101
-0.9738876
-0.10722329
-0.60526294
0.04157075
-1.6877108
0.12874056
0.7800596
0.16977343
-0.082302555
0.3358596
0.5797537
0.06998708
-0.66046584
0.109580375
1.22193
0.42674497
-0.030988734
-0.01677475
-0.51861423
0.05659604
-0.64313596
0.046652533
-0.271122
0.3664039
-0.037100956
-1.2356597
-0.057944488
-1.6008848
-0.7635097
0.2117082
-0.2019051
0.044039495
-0.23131788
-1.0853287
-0.864873
0.3172913
0.08410888
-0.7585278
0.06840177
-0.4316064
-0.692489
-0.16918065
-0.7329682
-0.22650287
0.04293275
-0.2743161
-0.02978685
-0.33260536
-1.9120594
0.057427876
0.064945705
-1.7939553
0.2015279
0.4714344
0.83199525
0.14310311
0.41789305
0.3618928
-1.6042717
0.047711853
0.12509693
-0.15041861
0.08804967
-0.051220343
-0.07195561
0.37563607
0.063220896
-0.059910394
-0.08943894
-0.052613348
-0.096366465
0.17947559
-0.07361209
0.033057254
0.5323139
-0.024324533
-0.18327764
-0.046417106
0.15687688
-0.095893
0.16931118
-0.00395818
-0.009297645
0.109902084
-0.28838935
0.02738717
0.20843185
0.03451536
0.015791878
-0.15426832
-0.058641385
-0.17659459
-0.053109184
0.011537066
0.007957194
-0.11091348
0.4078512
-0.19580345
0.041227978
-1.2515792
-1.2404479
-0.04815926
-0.73057044
0.14850937
-1.8320209
0.093166284
-0.4211137
-0.0726546
0.0929847
0.058031473
0.4848465
0.14078113
-1.008884
0.1558022
0.070057325
-0.12920794
0.05007377
-0.08985307
-0.38493165
-0.018226732
-0.93637383
-0.027049903
0.6204248
0.12785679
-0.21461815
-0.035888597
0.37694937
0.15177174
0.17247413
0.196002
0.09315753
0.07769244
0.03036356
-0.092593834
-1.2211137
0.26938877
-0.048136335
-1.5611954
-0.21879824
-0.41504908
0.1940054
-0.112209335
-0.2043669
0.66649306
-0.042452145
0.016640238
-0.04217141
0.08969865
0.004961356
0.25949803
0.08115295
0.024504473
-0.05614066
0.13680471
0.64305925
-0.19041619
0.9262741
0.14035682
-2.1001558
0.012856936
0.1088698
-0.11162997
0.12217312
-0.018803809
0.1817149
0.41347566
-0.045649666
0.2041922
0.11669858
0.17652276
0.14263976
0.019102512
0.059331775
0.25472093
-0.97610193
-0.34076455
0.039687257
0.3857491
-0.16315462
-0.15464054
-0.27794
0.2268901
0.15230906
-0.3821508
-0.10896957
0.16459084
-0.017509121
-0.2619556
0.13289046
-0.0055820835
0.032210253
0.23221411
0.075635076
-0.0006125919
-0.1949813
-0.98335874
-1.3277462
-0.043026567
0.067609794
0.25435603
0.61772394
0.053320955
-0.13442013
-1.9748362
0.9888423
0.06949307
-0.07529143
-0.019829769
0.01629499
0.041363727
0.40731835
0.08173925
0.96231174
-0.015066698
-0.25738814
0.018623099
0.1535043
0.040642824
-0.3136233
0.15745497
-0.02675795
0.92244285
-1.3402209
0.098385386
-0.37236542
-0.19505596
-1.5982716
-0.06838286
-0.10950396
0.09496601
0.1194648
0.111971214
0.085048534
-0.16711192
0.96299607
-0.22339293
0.26758587
0.92423683
0.10753907
0.042684697
-0.20118774
0.032781858
-0.18750556
-1.5978893
-0.086249225
0.19140583
-0.1535676
0.11443316
-0.05951095
-1.239586
0.07046538
-0.11635885
0.0070123016
0.035481732
0.11932872
0.1156046
-1.1896513
0.012704684
0.41932905
0.04531181
0.08952448
0.1538696
-0.1497864
0.14447622
0.13111919
-0.39879918
0.14540832
-0.3697607
0.041823722
0.057466656
-0.26661634
0.04038205
-0.035785727
-0.19570833
0.6780412
0.21814194
0.3894531
-0.3432747
-0.54559577
0.1603241
0.34782046
-0.019361574
-0.15543096
0.43867233
-0.2117104
0.06367929
0.43774945
0.13674715
-0.1611588
-0.4201113
0.03152267
-0.15314429
-0.0059974142
-0.0016707731
0.09464702
-0.58497524
-1.1570194
0.10788859
-0.41040382
0.3939635
-0.4192356
-0.43924916
0.21889225
-0.37184268
0.8218551
0.05524196
-0.25441328
0.37646177
0.145888
0.035489604
-0.4074675
-0.29574475
-2.089724
0.09432162
0.17821155
-0.39320365
-0.26095068
0.030397272
0.35281697
0.025103819
0.10170639
0.55937874
-1.2253151
-0.060195655
0.16043106
-0.019635918
0.8382878
0.09373299
0.21126221
-0.056349266
0.1511079
0.01882567
0.13002682
-0.022307565
-2.1177537
0.24541757
0.2598747
-2.4341004
0.120770805
0.27429265
-0.54005617
0.10258365
0.1759655
-1.4627362
-0.09449873
-0.073574215
0.032723237
0.007100477
0.069637835
0.91452837
0.13769332
-0.15784562
-0.15891744
-0.045514163
-0.7629512
0.3456329
-1.2353147
0.012159425
-0.51956844
0.024512505
0.16578186
-0.3339832
0.1664571
0.027863782
0.086877994
-0.002126924
0.04062676
0.17338005
0.11380869
0.10047441
-0.020984322
-0.35023654
-0.12210732
0.63141096
-0.11498655
-0.8946902
-0.19436376
-0.18256432
0.4079159
-0.11327516
-0.28226084
-0.99887544
0.186446
-0.1658449
0.14465964
0.15114193
-0.11428034
0.08302176
0.107125
0.14362797
-0.11560186
0.75814253
0.124176115
0.04486228
-0.2395106
0.8092812
1.0894908
-0.2663679
0.14834872
0.050889563
-0.14913307
0.22247635
-0.17292096
-0.34669992
-0.6517268
-0.028585592
0.075019725
-0.09480072
0.005227727
-0.060324185
0.3634846
0.2798097
-1.228245
-0.12788019
0.0019926475
-1.1593642
0.13033926
0.048028458
-0.7579005
0.04607909
0.021213675
0.34535536
0.83622557
-0.26271847
-0.6216319
-0.12647016
-0.031680025
-0.008012379
-0.2620333
-0.040966906
-0.17687361
-0.11673963
0.11596276
-0.05102351
-1.6459024
-0.10423821
-0.033996843
-1.558505
0.11972503
-0.10209543
0.3652833
0.17144787
0.036119957
1.0047789
-0.022581875
0.13361494
-0.29254162
0.16803321
0.12552327
-0.02143584
0.0009226079
0.13773274
-0.1790037
-0.0013776042
0.5755364
0.080523334
0.60529196
-0.04001274
-0.29425737
0.0056766355
-0.027164418
0.38050863
0.23214807
0.042913426
0.09023259
0.09098798
-0.034652498
0.0077499035
-0.0822404
-0.07386986
-0.056553043
0.012504471
-0.06557005
-0.038911294
0.05116744
0.064076
-0.072176196
0.045341063
-0.06372613
-0.08726454
-0.05759989
-0.044011712
0.08330511
0.010119259
-0.047035325
0.0076691867
-0.032274343
-0.05386534
-0.0857744
0.09064567
-0.010807335
0.03809861
0.020512093
-0.06658355
-0.056244005
-0.03445355
0.010387981
-0.08224618
0.046879556
-0.081988014
-0.0934416
0.048716653
-0.014232457
-0.009189225
-0.061460257
-0.09666624
-0.019192195
0.029102767
0.07120575
0.011517572
0.030841017
0.009455049
-0.07539662
0.064112246
-0.08970441
0.07959473
0.016116858
0.039181363
-0.049773205
-0.061971415
0.01924578
0.0155582195
0.02642448
-0.008403611
0.051224004
-0.09541376
0.085664704
-0.02725383
-0.07256613
-0.055303156
-0.015266538
-0.07950782
-0.015463985
0.0029596568
0.07145125
0.047287475
0.033965077
0.012296713
0.081501655
0.033985652
-0.07680316
-0.095052
-0.06479671
0.05327643
0.021777058
0.08430932
-0.002718103
-0.0063928366
0.046414126
-0.09892211
0.061130095
-0.0935573
0.08396216
-0.018755842
-0.027420783
-0.07862276
-0.098051906
-0.0318473
0.062661305
-0.09689776
-0.048677504
-0.046917226
-0.055998873
0.04229561
0.13188739
0.006877028
0.08145531
-0.00071589346
0.122122526
0.09730588
-0.03863669
-0.08294586
0.14179571
-0.32715055
0.42942217
-0.36607963
-0.603106
-0.7856954
0.2650249
-0.049839
0.13260621
-0.31725052
0.22299781
0.15075272
-1.0558193
0.0056576934
-0.013919374
0.10637607
-0.055115238
0.16061772
0.39077064
-1.2726891
0.14055353
-0.009752527
-0.5154668
-0.07756589
0.26101482
-0.19318506
0.15425368
0.033364046
0.45657068
0.11215266
-0.065260135
-0.2812003
-0.010236978
0.09659743
-0.66530174
0.19427629
0.15612249
-0.14991346
-0.12417695
-0.08849311
-0.33776334
-0.059262905
-0.07411184
0.19735423
0.090731114
-0.012374115
-0.06695019
-0.079169415
0.13541508
0.68002546
0.29164138
-0.68155044
-0.38520357
-0.3994993
0.33774173
0.0725121
-0.4737415
-0.027253512
-0.29844597
-0.008096946
0.09056199
-0.26815128
-0.3156615
-0.06883574
0.11775503
-0.33583307
-0.12916982
-0.08556458
0.23655109
-0.14945213
0.13844755
0.47306332
0.0768164
0.03385855
-0.16283365
0.17143251
0.06680392
0.23177814
-0.01636557
0.12055784
-0.007994468
-0.29660723
0.22723572
0.00624115
0.4272525
0.03587909
0.39606854
-0.07883513
0.023685995
0.2549112
0.107381925
-0.13047361
-0.121914424
-0.027859204
-0.1270509
-0.081410535
-0.09746392
0.047819927
-0.067020446
-0.0673742
0.064747296
-0.013105708
-0.03914543
-0.10021098
-0.08156643
0.01919759
-0.09296092
-0.15673357
-0.013649812
0.040762886
-0.15053828
-0.088785775
-0.05463934
-0.12545533
-0.032323442
0.055567574
-0.09730197
-0.026690343
-0.09419133
0.04966759
-0.0869107
-0.04564492
-0.12861465
0.06619
-0.030413974
-0.04166196
0.0008754004
0.040858466
0.032341562
-0.05005968
0.04027891
0.031557437
-0.081135444
0.01586923
-0.08512635
0.026803287
0.05615166
-0.011319717
0.083826266
-0.072776675
-0.09698291
0.06526229
-0.10898744
0.08253561
0.08331917
-0.09386112
0.056315765
-0.08899564
-0.12283485
-0.022389704
0.06507549
0.01858236
0.03131884
0.012315107
-0.10155985
-0.06767146
-0.084810734
-0.027095698
-0.07077662
-0.12439184
-0.009724607
-0.15443113
-0.048809946
-0.02209707
0.05792905
-0.03193086
-0.022892417
-0.12048084
0.025744053
-0.06360496
0.04689488
0.038203347
0.05851836
0.0008662029
-0.074317895
-0.100074664
-0.14984778
0.024552122
0.008659354
-0.0029033076
0.054446004
-0.0754722
-0.06358158
-0.05976546
0.016602404
0.016151303
-0.100855224
-0.044935916
-0.052231964
-0.09805074
0.009081731
0.13046435
0.1995464
-3.083994
0.15177509
-0.8096885
0.16043505
0.078577384
-0.89517254
0.14657089
-0.35704798
-0.19763805
1.063717
0.27244306
0.6429465
-0.14800903
-0.78450984
-0.025429824
0.5367299
-0.26538986
-0.593103
0.50228345
-0.5336641
0.056342427
0.698019
0.19828133
-0.41112885
-0.448001
-0.10107778
-0.369791
0.16241314
0.15123786
-0.018054157
-0.64637464
-1.0089401
1.8780488
-1.1662536
0.15667756
-0.0077271503
-1.2860192
0.098555565
-0.8264708
-0.90327084
0.32573992
-2.7529805
0.5522454
0.15224746
0.09100239
-2.1561744
-0.15389046
-0.86661744
0.24957256
0.93279284
-1.2580965
-1.2163811
-0.06859215
0.67923665
0.044215217
0.13454701
0.47067478
-0.93104166
0.06990684
-0.8774919
0.13347688
0.94536895
0.13456145
0.17997254
0.12672076
0.20460235
0.282341
0.20861965
0.08507853
-1.0177583
0.7785963
0.39421856
-0.8349537
0.11768328
0.055753138
-0.81833947
0.1878971
0.17650072
-1.1220053
0.0125060445
-0.9611165
-0.085650906
0.07147901
0.048526935
1.1948011
0.19344744
0.13061452
-0.011008033
0.12812625
-1.0467722
0.29653114
-1.18462
0.31678772
-0.05805838
0.086055055
0.21828918
-1.0628804
0.4563822
-0.020234978
0.037312936
-0.3836979
0.040389795
0.24710634
-0.045520402
-0.04998761
0.23354037
-0.06900679
-0.045638394
0.4154389
0.0028076028
-0.2979926
-0.24126846
-0.2175133
0.16847672
-0.24856086
0.153971
0.021813601
0.05862919
0.3041552
0.6486138
0.03479619
-0.12082668
0.28648484
0.055905536
0.004786426
0.3995984
0.66700447
-0.030202072
-0.1006289
-0.1797259
0.4070075
0.8083914
-0.10860236
0.09733049
-0.0152388085
-0.22213662
0.036308248
-0.33383235
0.80712867
-0.30488935
-0.1827589
-0.69664735
-0.099380955
0.053793244
0.03097464
-0.02675391
0.08838459
0.3999615
-0.043679196
-0.014100643
-0.16607994
0.12397984
0.005245173
-0.3266229
-0.01769058
-0.15705769
-0.039695654
0.5349875
-0.17621875
-0.28421608
-0.12307227
0.2122851
-0.23758009
0.35078517
0.12563905
0.16111703
0.1685347
-0.07080302
-0.28161293
0.19483846
-0.011246222
-0.020505508
0.34547845
-0.32298407
-0.30915892
0.18199052
-0.22139744
-0.06814296
0.6220026
0.063176885
0.2367948
-0.13388179
0.054377478
-0.13276559
0.12783703
0.05932285
-0.1866307
-0.18358254
-0.40020603
0.34955588
-0.14011618
0.58957183
0.012114571
-0.48608848
-0.003193829
0.17548996
0.22769123
0.042397536
-0.29948062
-0.4610451
0.02220436
-0.36606294
0.085425004
-0.2735176
-0.7426952
0.20088305
-0.54034954
-0.61422515
0.6774467
-0.07821496
-0.34318918
-0.18693991
0.3813177
-0.0981647
0.104369365
-0.21425278
-0.32875034
-0.25238037
0.036502738
0.57559884
-0.24146251
-0.36293614
0.13621928
0.09751116
-0.24844703
0.080350086
0.6652132
-0.36462954
-0.26738113
-0.0115332585
0.37841192
0.3669193
-0.092343695
0.05596803
0.4135
0.5652835
0.106587
0.12728886
-0.37022135
1.4750521
-0.30729872
-0.51020634
-0.18885227
-0.3908407
-0.026945714
0.31492904
-0.035519406
0.8561858
-0.40301073
-0.12979837
-0.38827544
0.060028493
0.067085765
-0.25866807
-0.59666616
0.07824964
0.78876394
0.5607214
-0.13701761
-0.26484168
-0.056072827
-0.17017972
-0.26924306
0.061445914
-0.17027931
-0.028571092
-0.25094035
-0.39670476
-0.06201929
0.8592112
-0.3731965
-0.26621214
0.98636967
-0.3564767
0.1663047
-0.047588017
0.12801634
0.14528207
0.42855847
0.027972747
-0.14580774
-0.007406552
-0.29963747
-0.27713946
-0.27092603
-0.23937866
-0.3096838
-0.6287836
-0.020864008
0.545114
-0.65913486
0.58445877
-0.13515927
0.49212417
-0.19352971
-0.24728037
-0.05640646
-0.037451074
0.035585094
0.1296742
-0.16595879
0.06108578
0.07631695
0.110016726
0.011224986
0.01071649
-0.017934745
-0.057260815
0.007825897
-0.26760855
0.094711944
-0.16309367
-0.117878325
0.05698912
-0.12867263
0.021113127
0.015983371
0.058872875
0.45499495
0.2641564
0.018306544
-0.021516047
0.37491268
-0.061901752
-0.21496819
0.02629514
0.21804018
-0.07124812
0.09454
-0.15154235
-0.0035703413
0.32507116
-0.10412765
0.027546022
0.06475605
0.38296026
0.16882914
0.12652531
-1.7053477
-3.1431959
-0.24134815
-0.10907959
0.13233136
0.054758023
-0.092910364
-0.34086642
0.15157235
0.111010075
-0.018980877
-0.30355123
-0.37653792
0.046063296
0.046816446
0.2354918
0.07737293
0.087238744
-4.6039133
0.1929679
-0.24545792
0.06354257
-0.05494657
0.31017599
-0.116524704
0.22647144
-0.14427477
0.043997757
0.04428238
-0.0055730646
-0.07754333
-0.045781344
-0.31460682
0.056937635
-0.5429148
-0.07021137
0.11632869
0.0721091
-0.2503189
0.087137446
0.20704986
0.022499645
-0.048453894
0.1760956
-0.01568712
-0.09077223
0.30633903
0.04392217
-0.16458803
-0.32023638
-0.31160858
0.07512122
0.16116206
0.12536757
-0.02213228
0.46703592
0.0074407635
0.13326152
0.16498755
0.14981414
0.06513109
0.071437776
-0.5820928
0.068824336
0.042928696
0.17678764
0.13276243
0.0021956072
-0.4059862
0.014671929
0.49807468
-0.32767707
-0.36261103
0.33890286
0.0013226147
0.17623147
-0.13051249
-0.98645747
-0.10386555
0.17103091
-0.57065266
-0.3472134
0.20265196
-0.53332573
-0.19790894
0.18866125
0.192177
-0.64426315
0.11276564
0.18613397
0.083791025
-0.028723927
0.48036224
0.13790515
-0.036976326
0.124740176
0.47413397
0.38465673
0.20898393
-0.077689834
-0.8077649
-0.1061161
-0.042788215
0.19776888
-0.45983374
0.070791826
0.042536024
-1.7721204
-0.01590087
0.22009745
-0.07745597
-0.36435986
-1.82355
0.028285762
0.06740669
-0.30123216
0.058800787
-0.031660523
0.072227046
0.030895086
0.36488345
-0.29980627
-0.09643074
-0.44630665
0.12752001
0.06872081
0.1159806
0.02840863
-0.038267653
0.103131786
-0.11824542
0.016809866
-0.52366614
0.15492052
0.12376361
-0.0035593845
0.0057422374
0.16988152
0.36263725
0.31187254
-0.296058
0.016870106
0.11376334
-0.0746644
0.15073428
0.24825309
-0.41788584
-0.08300574
0.15486664
-0.15404777
0.24153262
-0.55721474
0.118125156
-0.3633183
0.011724107
0.3489144
-0.093468346
-0.045570944
0.2934843
-0.33417302
0.20075698
0.15736209
0.70518464
0.043327443
0.15607496
0.06113005
0.114166655
0.011370508
0.08563424
0.11875951
-0.2907444
0.5537419
-1.031257
-1.3158972
-0.22820598
0.1962861
0.2212532
0.14010783
-0.15968567
0.41705763
-0.05565812
-0.14705423
0.105990425
0.25107068
-0.02352875
0.058720298
0.15514012
-0.4164556
-0.07682829
0.16768484
0.19520134
0.2764202
-0.27045912
-0.12194829
-0.24906458
0.016136162
0.008774621
-0.26478997
0.011773478
-0.34215456
-0.3936952
-0.64374375
-0.1968086
0.4999161
0.3109611
0.16569743
-0.09246487
0.72128105
0.37054414
0.010758354
0.13177116
0.42584983
0.28761545
-0.049304057
-0.007988202
-2.2216146
0.12898733
-0.29687387
-0.5729884
0.10924659
-1.1810844
-1.0982732
0.28326574
-0.00592795
0.26945218
0.08215532
0.008194169
0.0070784125
0.14370091
0.055081517
0.24491766
0.19659616
0.27691117
-0.09442093
0.4626047
-0.002221394
-0.41712224
0.35858703
-0.16099499
-0.29357573
0.323982
-0.017696297
0.20823817
-0.5275656
0.049285997
0.18405773
-0.008500472
0.11864309
0.24316867
-0.26954383
-0.030984726
0.45447233
-0.2821953
0.22941105
0.01742762
-0.21372253
0.06095612
0.018741757
0.084339656
-0.068122886
-0.04431184
0.13116248
-1.0895275
0.14164115
0.15886344
0.10606143
0.14883825
0.16454615
-0.19078013
0.019124383
0.04518218
0.055256844
-0.02682761
-0.60600245
-0.13141379
0.3197155
-0.19681181
0.3269244
-0.50190645
-0.17613672
0.3016298
-0.0838238
0.06806236
-0.1443156
0.31830662
0.17390914
0.09287429
0.49732876
-0.067089155
-0.05808004
0.08478935
-0.43691778
0.30582437
0.3296043
-0.122375235
0.05915045
-0.36593008
-0.043876603
0.09866948
0.015602313
-2.3548865
0.0848688
-0.024391714
-1.2548255
0.22457464
0.14754516
-0.04270915
-0.5830094
0.23664565
0.20144412
-0.011556192
-0.17738327
0.47866803
0.12937419
-0.08588662
-0.365804
-0.016509384
0.13954961
0.24305035
0.3513886
-0.5775639
0.03761973
-0.28949437
0.07582895
0.029889485
-0.23458983
-0.05120248
-0.14297074
-0.028631115
0.015236687
-0.35947394
0.09878079
-0.23436236
-0.14206763
0.18104412
0.034966793
-0.10669685
0.2525982
-0.14166343
0.022372507
0.5647794
0.069228485
0.059172187
-0.13038558
-0.0039324295
0.049609784
-0.039855376
0.01463203
-0.009735419
-0.10534315
0.044438746
0.24562912
-0.16823485
0.4787493
-0.05522621
-0.013274837
-0.16929859
0.03255661
0.13929872
0.2980891
-0.09047045
-0.07020785
-0.02590151
-0.0004217148
0.013413382
0.096240066
-0.01957642
-0.06017028
0.04481566
-0.080932036
-0.0047528744
-0.030446697
-0.024367237
0.0639537
0.022908855
-0.07582039
0.024040295
0.004759991
-0.048960675
0.039881635
-0.08412462
-0.053190675
-0.05949824
0.0026293993
0.04413035
0.029731238
-0.06723088
-0.096562825
-0.02709881
-0.09653586
-0.09020197
-0.08591487
0.08032409
-0.03617388
0.046284556
0.008927966
-0.09190484
0.08482907
-0.033695232
-0.07764869
-0.03342265
-0.09100743
0.012058127
-0.048964955
0.08467213
0.08480107
-0.04372256
-0.071800075
0.028151691
-0.057458043
0.0470937
0.055566847
0.08312769
0.031228459
-0.09324745
0.051582586
0.07130664
-0.041677225
-0.085877016
0.09374273
0.061193824
-0.033743203
0.09151411
0.035829365
0.092158936
-0.07476001
-0.09027698
-0.020748187
-0.018623745
-0.062877774
-0.023825157
-0.06861208
-0.07134656
0.054333594
-0.09327314
-0.09315955
-0.091864266
-0.08100741
0.05221882
0.051598217
-0.028265942
-0.042419124
-0.0040237666
-0.02445134
-0.015215683
-0.033032667
-0.084698014
-0.057970703
-0.07280884
-0.060435332
-0.03821224
0.016281128
-0.07570334
0.042003334
-0.014394117
-0.08947171
-0.04819982
-0.019123888
0.07821665
0.05901891
0.0052561997
0.045976557
-0.053507317
-0.047370482
-0.07580824
-0.062159766
-0.04828465
0.057317317
-0.09342009
-0.03909874
-0.061956417
-0.039197385
0.08515411
0.030019283
0.08543392
0.08374392
-0.06856022
-0.004856825
-0.02165742
-0.06030798
0.023313498
-0.0729952
-0.091865815
-0.025153412
0.03246807
0.026538325
0.077892244
-0.09974704
-0.086104564
0.0001829505
-0.06562429
-0.058515668
-0.039369334
-0.096360065
0.049688637
-0.04403789
0.03574541
-0.031030452
0.086415425
-0.07852061
-0.06318523
-0.088666275
0.060909342
-0.085324086
0.0031926872
-0.035886373
0.051735103
0.09719218
-0.0019907474
0.068469405
0.053510584
0.056814145
0.073862605
-0.06031667
0.06318917
-0.011906219
-0.043387152
-0.09531486
0.07755037
-0.08251251
-0.0114979865
-0.062809944
0.08322396
0.024797333
0.014097703
-0.029016746
0.058151986
0.058146954
0.07022109
0.07590884
-0.03174565
0.03995123
0.061666217
-0.054992795
-0.09759009
-0.08704994
0.010204948
-0.025173534
0.018540716
-0.035328925
0.06622666
-0.027039636
-0.09315737
0.014955604
-0.04336189
-0.08877482
-0.043819632
0.054589856
-0.035747387
0.034381807
-0.019400347
-0.032309722
0.06330893
-0.044383146
-0.014865684
0.014582443
0.0755456
-0.021736993
-0.0422853
0.06925352
-0.06155829
0.088765
-0.39282262
0.012151815
0.1799471
-0.094379835
0.11415768
0.15062697
-0.23095937
0.2686435
0.053630598
-1.7799969
-0.08454778
-0.17805558
0.034864433
0.22540367
-0.34064153
-0.06932947
-0.14279081
-0.16281423
0.193377
-0.1532474
0.012886594
-0.38298187
0.2401239
0.14966811
-0.16045243
0.020623421
-0.12246678
-0.0845042
0.064864926
-0.41834733
0.16615891
0.2885938
-0.06652662
-0.050501924
0.24341846
-0.1658981
0.038008377
0.21810539
-1.6441435
0.08191389
-0.104398735
-0.80238736
0.077079736
-0.04101151
-0.011521956
0.054664023
0.13224123
-0.28332058
0.020745913
0.02973975
-0.119975656
-0.021413835
-0.05762103
0.17233531
0.0734765
0.15211147
-0.09963434
0.35268107
-0.14290865
0.0005214809
-0.5290327
0.23975313
-0.15975504
0.21275467
0.0657712
0.0743876
0.053380065
-0.03131041
-0.5200254
-0.19141178
-0.42642447
0.22041683
-0.31770977
0.11192234
0.079970956
0.19458213
-0.0026018678
0.03240694
0.5558257
0.099008314
0.13111436
-0.053618893
-0.06843703
-0.23013616
0.12235103
-0.0025703474
-0.26240462
-0.14436892
-0.1428625
0.4614465
0.1916672
0.4624038
0.100075975
-0.08566335
0.15908594
0.10764134
0.22221951
-0.0018745991
0.18947977
0.2556905
-0.6903248
0.080485985
0.10595807
0.15072218
0.27180603
-0.06488444
-0.088377096
0.096944556
-0.21611911
0.18751538
-0.0668428
0.13264507
0.102359496
-0.38369763
-0.0488214
0.11938047
-0.14007413
-0.022026876
0.14357987
-0.4590352
0.16101235
0.1901656
0.16824998
0.19577648
0.07136848
-0.12138452
-0.15145555
0.26559576
0.15699631
-0.037588272
-0.78577
-2.2743404
0.0048086722
-0.069034286
0.2968455
-0.5080165
-0.19707578
-0.044810135
-0.1818917
0.40757158
-0.123038076
-0.97592574
0.337401
0.2585117
-0.018935693
-0.8967087
-0.18577394
-1.9207973
0.16172126
0.18316936
-0.36822024
-0.1911486
0.09664104
-0.044413637
0.1925954
-0.23892263
0.06518855
-1.7687942
0.36484313
-0.022750348
-0.10318213
-0.0736772
0.114882715
0.1744368
0.031080203
0.21621187
0.1855735
0.2383703
-0.023958098
-1.4547541
0.07136887
0.3017994
-1.0412453
0.13983998
0.07498932
-0.2765772
0.37607792
0.18221878
-2.438057
-0.0071209907
0.017646557
-0.109419525
0.11211142
0.03862616
0.1183007
0.17940338
0.16170171
-0.13819721
0.2756354
-1.2258452
0.35354054
-1.9796795
0.19765744
-0.5649648
0.12164864
0.12984803
-0.00108774
-0.007014691
0.0052973437
0.14133354
1.729689
0.060132217
0.22872089
0.12973556
0.100278944
0.24089691
0.08671704
0.2269475
-1.1713991
-0.60959893
0.31365943
-0.31403428
0.26333687
0.31848046
0.48475736
-1.0109411
0.21066655
0.34018287
-1.8611097
1.4423445
0.15398131
-0.34726065
-2.3535104
0.31346422
0.343166
-5.0135946
1.6790104
0.20058687
0.0842119
0.26897252
-1.1719681
-0.3843464
0.26951578
0.2395014
0.43662873
-0.27874964
0.3492603
-0.20999178
-0.13747707
0.5074315
0.12590519
1.4382408
-1.0918528
0.0856054
-0.26593325
1.7057831
0.39533234
1.2040101
0.09224716
0.24717453
0.5463264
0.23166314
0.076377764
0.08730628
0.1949408
0.148097
-0.0659878
-0.50842834
-0.5039988
0.36903012
0.46068394
-0.2241916
0.017991235
-0.07767452
-0.23741747
-0.015241783
0.22921124
0.15459995
0.60178214
0.76923525
-0.43200028
0.08103606
1.4006892
-0.38685337
-1.1956972
0.21865724
-1.3411256
-0.7044326
-0.5366903
-0.018051757
0.31098017
0.22372288
-0.16877665
-0.012827091
-0.20131999
0.14337067
0.14509287
0.0641567
-2.2944405
1.0008658
0.0696248
-0.29068786
-0.22225182
-0.27598155
0.011938804
0.09748557
0.2770824
0.10915956
0.10902198
0.13430518
-0.24997057
0.105013065
0.1334034
0.21695852
0.19116397
0.09611749
0.06398332
-0.062071092
-0.117548294
-0.31995258
0.19259802
-1.1692349
-0.034993213
0.27834138
-0.07125638
0.08787316
0.1422707
0.1050175
0.15884733
0.020063018
0.21793248
-0.07993894
0.15292934
0.1460602
0.16655399
0.25694045
-0.017867059
0.1089854
0.18186766
-0.06638008
-0.01215445
0.19571428
-0.12757641
0.14321291
-0.3094513
-0.162789
0.14117862
-0.03755649
-0.5925158
-0.015282403
-0.36659274
-0.8724275
0.052140832
0.09484503
-0.2659205
-0.09028674
0.14701203
0.46097258
0.19665453
-0.33995262
0.14626639
0.20364913
0.048325267
-0.35461298
0.1629642
-0.021266049
-1.1521904
0.12917987
-1.2968243
0.13454252
0.036154065
0.00011906882
0.05311952
0.037188835
-0.35684434
-0.27414307
0.21399276
0.09790501
-0.0120403655
0.40593293
0.030891418
-0.15356256
0.4064004
-0.21172975
-0.21956329
0.16303675
-0.26389644
-0.08597443
0.34030914
0.0068124295
0.13780637
0.047512617
0.03975024
-0.03470266
-0.1061059
0.100286685
0.025641045
-0.14407453
-0.22303659
0.09640347
-0.052557766
0.31135285
-0.2075912
-0.099845566
-0.23755248
0.1184416
0.15007783
0.18211043
0.18117753
0.13242313
-0.13854772
0.11917232
-0.2453817
-0.14153658
0.0805202
-0.13508394
0.64652205
0.17313614
-0.83179814
0.050417494
-0.08566418
-1.0466273
0.04108736
-1.3735651
-0.52764213
0.57106936
0.26404727
-2.487479
0.40707183
-1.4077992
-0.08339916
0.49761224
0.42997006
-0.15387256
-1.6173744
0.18034278
-1.1036992
-0.22036524
0.15802898
-0.5155604
-0.7428492
-0.97232264
-0.4560674
-0.2923904
-0.27712613
-3.6007082
-0.5454772
-0.09505316
0.047182143
-1.8440222
0.42728865
-0.62332845
0.32865182
0.21053316
0.35589606
0.0841992
2.0480573
-2.4880795
0.33032465
-1.2823098
0.46429986
-0.3622644
-0.01833303
-0.5300124
0.14249574
-0.15573642
-0.038025487
-0.609215
-0.62500936
-0.17438625
-0.24485983
-0.105663665
-0.06372323
-0.089797415
0.16332944
0.057424024
0.35620594
0.005239773
-0.2371313
-2.3185642
0.6528702
0.32710356
-2.260773
0.3794476
0.15772055
-1.2794431
0.049673527
-0.12309188
-0.7296067
0.008091152
-0.44091332
-0.33927366
0.06777116
-0.102901295
-0.049755517
0.10882787
-0.06951777
0.31715003
0.38799924
0.17832369
0.26930043
-0.27341235
0.43690407
-3.567828
0.25425386
0.22515067
-0.59515685
-0.07441715
-0.025199134
0.0030806903
0.07735042
0.002026518
0.09163677
0.09204182
-0.09742052
0.08626639
-0.07440754
-0.1495812
0.01838226
-0.05729406
-0.22943868
-0.555366
0.501921
0.21127163
-0.38751793
0.092064485
-0.13198176
0.004216805
0.20730422
0.34834173
0.028369796
-0.18821743
0.22537097
0.14506894
0.143608
0.3286454
0.098244585
-0.010855426
0.065025024
-0.42078733
0.32121354
0.5817493
-0.123490825
0.16375911
0.06665393
-0.14508316
0.26778626
-0.50796086
0.4991
-0.08984943
-0.11304687
-0.41956583
-0.006430195
0.094547056
0.060734034
0.26128906
0.21697772
0.6179431
0.042327207
0.10854134
0.07498285
0.10389274
0.09060806
-0.59357625
-0.07542984
-0.20576052
-0.15766835
0.5040317
-0.55083
-0.31695366
-0.41149977
0.33336782
0.004576521
-0.1824038
-0.08916309
-0.003836749
0.073326066
-0.06806089
-0.5145758
0.5373356
-0.2584232
-0.14457156
0.59498113
-0.14587574
-0.59663665
0.2658042
-0.28416798
0.016642721
0.84159184
-0.0055781486
0.12273897
-0.19523732
0.024741532
-0.072571374
0.17581102
0.021384275
-0.09545241
-0.11016161
-0.29116952
0.5060066
-0.16656594
0.82193637
-0.07348149
0.016053218
-0.06336916
-0.06437133
0.2819806
0.22412795
0.08513018
0.049992967
-0.039230894
-0.025546992
-0.09250768
0.009702361
0.055627264
-0.09801506
0.05389285
0.045725524
0.06023419
0.030246615
-0.024571931
-0.009777689
-0.04857706
0.06562841
0.025177682
-0.010104418
0.035812523
0.006231165
-0.031652655
-0.0954836
-0.09171625
-0.035535254
-0.048460186
0.023424232
0.02226665
-0.009908534
0.09932919
-0.09616246
0.08152237
-0.055674173
0.01966703
-0.081649594
0.069186226
-0.030780006
-0.09379166
-0.07536843
0.06330135
0.0770626
-0.098197035
-0.013274682
-0.066132106
-0.08427965
0.050707947
0.058460604
0.076074235
-0.038859524
0.05497395
-0.08294665
-0.071744196
-0.018274022
0.0028355836
0.03532933
-0.036065247
0.013973022
-0.070854284
0.05477208
-0.098954655
0.04161465
0.09753113
-0.021030605
-0.05909921
-0.021517098
-0.023704423
0.048105147
-0.050574638
-0.020314658
-0.096576765
0.040279057
-0.012614024
0.034694232
-0.0037548782
0.06608921
-0.033931863
0.090146504
-0.028177464
-0.023139883
0.043473985
-0.047533598
0.041889038
-0.08014765
-0.07601807
0.0016391516
0.010264981
-0.062484454
-0.06890283
0.030681992
0.032964196
-0.08348153
0.015889956
-0.043931197
-0.007956934
0.023809029
0.07425349
-0.0071262717
-0.09497841
-0.050017953
-0.041706324
0.07501582
0.1537358
0.08360703
-0.16748782
0.105663784
0.2433246
0.17973067
0.054244336
0.27784953
0.16562182
0.16961542
-0.8452803
-0.04705465
-0.359282
-2.9705813
-0.11780656
0.33454227
0.07796138
-0.030426834
-0.05550698
-0.028232353
0.003259167
0.42371073
0.06483012
0.07025044
-0.040341914
0.27074766
0.07080856
-0.067282446
-0.17296699
0.1361256
0.026184427
9.6627424e-05
-0.33075422
0.24172097
0.062240575
0.16814321
-0.014827199
0.019690497
0.12198893
-0.12035661
-1.6814407
0.06694056
0.2558993
-1.0447106
-0.086402215
0.1503521
0.015945483
-0.31768087
0.11367591
0.13904107
-0.02373434
-0.47262523
0.30953696
0.15314618
0.033008505
-1.0238208
0.16429052
-0.10784778
-0.27067378
0.2549817
-3.2138367
-0.24567291
0.07434183
-0.25518164
0.065191574
0.06336527
-0.15197493
-0.14250214
0.15624858
0.12771724
0.03847891
0.059564274
0.12119317
0.062820084
0.05361642
0.057204604
-0.16683097
0.4017334
-0.27942005
-0.10021668
-0.0024302518
-0.039892208
0.09721351
-0.14359306
-0.06159096
0.081444696
-0.3992466
0.12087064
0.05807591
0.19397566
-0.26665893
-0.077910386
0.05161133
0.20902793
-0.010987965
-0.069349565
0.08826212
0.004000025
0.08615499
-0.026849436
0.12766044
0.25031158
-0.29543665
0.064159684
-0.043121167
0.22380796
0.13512611
0.021027066
0.07318562
-0.18372007
-0.15109469
-0.6319414
0.32871625
-0.350327
-0.09354491
-0.04072124
0.13549952
-0.019574294
0.25015607
0.1082039
0.16342333
-0.12856808
0.21667896
-0.010328188
0.18722339
-0.011035454
0.046283156
0.13086995
-0.1643379
0.20995526
0.1283346
0.23528913
-0.16180001
-0.056372736
0.13131222
0.016979463
-0.34534422
-0.35048577
0.08787731
-0.03726955
-1.0189978
-5.636002
-0.49184343
-0.08429033
-0.05238235
0.18303682
-0.04254551
-0.35027185
0.0536104
-0.9839041
0.099886514
-0.11974987
-0.2825159
0.024544151
0.049283992
0.1018155
0.2328719
0.02575527
-2.9406605
0.06494839
-0.28681687
0.2051252
0.27868855
-0.016164126
-0.086527444
0.15470949
0.0060242647
0.17641558
0.21673653
0.117942534
0.270727
-1.2798033
-0.14964996
-0.009120917
-1.892617
-0.33871478
0.117667906
0.07772572
-0.17818756
-0.11645124
-0.020171963
-0.01761191
-0.12183211
0.07449693
0.021773236
-0.12623046
-0.04253301
0.18301967
0.06471316
-0.39252433
-0.031975936
-0.0043767313
0.10658831
0.029057274
0.06971922
-0.2969272
0.0010296464
0.23124062
0.1001894
-0.107856736
0.07830728
-0.011089834
-0.8737041
-0.04024109
0.2276698
0.031621303
0.08958181
0.19597614
-0.45441142
0.07476405
0.6058604
-0.22996809
-0.6378554
-0.37529615
-0.8298648
0.14328961
-0.33364525
0.00023969579
-0.65792966
0.022918379
0.16095813
0.38366184
0.00024205676
-0.40925178
0.28313014
0.22934085
0.10042719
0.63436097
0.43037903
0.12069855
0.09857146
-0.45181277
0.5787675
0.49749094
-0.48703253
0.1945142
-0.34457374
0.019649763
0.25361484
-0.15319486
-0.008960274
0.5662573
0.33465222
-0.8369442
-0.0875595
0.08198124
0.05058608
-0.7606168
0.08169258
0.1419788
-0.06925313
-0.14687474
-0.5327942
0.1785307
-0.032088388
-0.25268427
0.042400297
0.12916565
1.1345342
0.31973737
-0.37604195
-0.44988036
-0.46815196
0.030872665
-0.030839952
-0.34536693
-0.029513756
-0.1401696
0.10198634
0.12818323
-0.40061456
-0.033483773
-0.3743112
0.17829275
0.15478949
-0.111451596
-0.29728657
0.19083472
-0.37394372
-0.013567821
0.44597435
0.09684246
0.0877459
-0.37890813
0.1564926
0.14394894
0.02395982
0.06985294
0.01818864
0.075941116
-0.14204127
0.04729994
0.04490682
0.25603324
0.08620409
0.0046067215
0.06321017
0.031709656
0.16966294
0.07944237
0.15857261
0.08559524
-1.2168864
-0.024660245
0.009288692
0.009070114
0.039065182
0.088854134
0.097245105
0.19351988
-0.3584332
0.15612698
0.20669922
0.090669826
0.12540711
-0.08470549
-0.26289088
0.1121019
-0.027481439
-0.40787998
0.15263191
-0.26548052
-0.03936695
0.17408516
0.13698445
0.025160791
-0.31166455
0.036075026
-0.33013403
0.061559297
0.05792318
-0.37977487
-0.30135354
-0.3651337
0.11124243
0.00783738
0.22748606
-0.09443674
-0.009229489
0.20292841
-0.67522216
0.26187882
0.2751118
-1.7857409
0.13765784
0.059097778
0.29895222
-1.0662261
0.15457517
0.0960159
-0.01195689
-0.16391018
-0.30559474
-0.10488337
0.008901096
0.14493465
-0.005888945
0.11011317
0.9701383
-0.3708166
-0.025511092
0.076463744
-0.32433465
-0.26047933
0.06410424
0.109432474
0.036558855
0.058631346
0.14406243
-0.03819923
-0.38206726
0.008069079
0.055686083
0.16304412
0.1910388
0.031841315
-0.017334394
-0.12926461
0.13401826
0.11133723
-0.6152825
0.042015612
-0.07438776
0.16382107
0.0417707
0.12684348
-0.1460422
-0.048409484
-0.030939257
0.12239923
0.23312078
-0.41182187
0.2739414
-0.75648814
0.14520448
-0.09806727
0.30442002
0.12811293
0.014509378
0.1807182
-0.012089666
-0.061006747
0.27632213
0.1633908
-0.002599518
0.029313097
-0.01491012
-0.09365776
-2.3803298
-0.22404514
-0.10045543
0.14325991
0.062028743
0.09930722
0.40750396
0.15987904
-0.0194575
0.061320644
-2.0959122
0.19707789
0.49629858
0.28458473
0.10789342
-0.6338604
0.45791402
0.15917155
0.30123362
0.57341814
0.02988001
0.062233984
0.083292626
-0.16836329
-0.13562727
0.15790866
-0.035868105
-0.008462079
0.20513503
-0.243995
0.096236326
0.05040849
-0.081048734
0.15242882
-1.2211307
-0.77315086
0.041272603
-0.07339246
0.09895669
0.12412235
0.22258487
0.1501964
0.1000626
0.66069347
-0.61006117
0.093147375
-0.00556196
0.30780295
0.18913592
0.13032171
-1.2528744
0.181555
0.15127523
0.18880844
-0.1373659
0.7204859
0.0015025653
0.009676049
0.008673447
0.104694545
-0.06707183
-0.021662816
-0.092425145
0.18660626
-0.8549843
-0.7843784
0.059568625
-0.083576724
0.09480891
0.20206277
-0.025954418
-0.06585911
0.4179327
-0.031549133
0.025610711
0.41630375
0.066600285
0.02232055
0.8498161
0.15461965
0.0571232
-1.0673703
-0.16402546
0.23430686
-0.5960186
0.3220489
-0.0171042
-0.18416347
-0.06297076
0.03404966
-0.019187178
0.17913386
0.23172376
0.067000985
0.5643985
0.13888857
0.10069097
0.25930116
0.21797597
0.13724616
0.11798463
-0.02607289
-0.39164543
0.43436083
-1.2486522
-1.0093613
-0.22208054
0.107841164
0.5084636
0.3815205
-0.34636688
0.45926017
0.16522568
-0.3362901
0.1410539
0.19162132
-0.011539552
-0.05734472
0.25176248
-0.22313678
-0.24138008
0.11181533
0.07411783
0.22372714
-0.46393543
-0.2889045
-0.6523421
-0.07557238
-0.15820885
-0.12927403
-0.17368402
-0.45912355
-0.9466775
-0.64059603
-0.42061067
0.20720287
0.33125776
0.11545274
0.023465548
0.7041804
0.7325462
0.22052303
0.08275566
0.37431872
0.46294922
-0.09051082
0.06312957
-2.2486281
0.087262675
-0.32520032
-0.875815
-0.15749049
-0.92381966
-1.4043349
0.21747993
0.22729756
0.2974937
0.16083321
-0.0737612
0.07720721
0.11285755
0.21492521
0.2418151
0.39851367
0.22505014
-0.0604416
0.5648952
-0.056559086
-0.34092525
0.12756762
-0.24583676
-0.2811856
-0.19761808
-0.0028861165
-0.039820924
-0.82550377
0.11250204
0.23115373
0.16550316
0.036310375
0.11866709
-0.49694315
-0.08397985
0.67913526
-0.120444044
0.24084656
-0.03447808
-0.25939623
-0.059110917
0.087625965
0.04284079
0.3159077
0.11499299
-0.033574242
-0.2493851
-0.050236806
0.11579121
0.012753457
-0.06524626
0.08600665
-0.23614404
-0.10060041
0.49528864
-0.16942896
-0.010529568
-0.67061585
-0.15374471
0.39232844
-0.1991343
-0.025773289
-0.12125683
0.0888387
0.2711134
0.2833144
0.07232305
-0.29085085
0.42982846
0.14943773
0.085998036
0.6108792
0.34479213
0.1280323
0.09226574
-0.29452893
0.57871395
0.6524461
-0.14116505
0.25527176
-0.1687497
-0.22926728
0.19903672
-0.22756034
-2.9725738
0.6587391
-0.15804611
-0.17673197
-0.07950558
0.111825936
0.13911916
-0.1636162
0.14772929
-0.07981183
0.0015411797
-0.27927655
-0.93761057
0.18044682
0.066222444
-0.2735776
-0.047841594
-0.08033276
-0.27287304
0.62372774
-0.6733401
-0.060927134
-0.35730177
0.099250294
-0.03905802
-0.018876819
0.03834722
0.17206997
0.020952974
0.09730838
-0.32512873
-0.15728262
-0.3657907
-0.16857089
-0.46989653
-0.22275761
-0.24832045
0.23885843
-0.31246912
-0.024170741
0.9262721
0.014541424
0.06653444
-0.09354199
0.076074
0.07939588
0.041117936
-0.09982849
0.14502183
-0.25653616
-0.27139243
0.24257614
-0.12350874
0.7270454
0.17354369
-0.17951295
0.037059207
-0.12141277
0.29830363
0.061339863
0.29072687
0.08598623
-0.3387085
0.18311015
-0.09276494
0.39274126
-0.013567261
-0.007642207
-1.4642744
-0.09644261
-0.41923726
0.2238742
-0.17374046
-0.27126276
0.37826797
-0.20683125
0.456325
-0.30658612
-1.5311772
0.23594187
-0.0047528856
-0.09694272
0.19382226
-0.7040163
0.02454502
-0.012958547
0.30709478
0.5766963
-0.24488126
0.3803213
0.14001791
0.42322057
-1.2740766
-1.7853293
-0.13336697
0.016376602
0.16828239
0.101586886
-0.10607996
0.37627202
0.43512696
0.35027355
-0.12996005
0.21546857
-0.18105985
0.14901584
0.06822521
-1.5008215
0.18288785
0.6536308
-0.09224399
0.2734695
0.09645764
-0.12074584
0.064136766
-0.056537572
0.076752976
0.3855818
0.39320573
-1.7801474
-0.28179812
0.05062415
0.26871258
0.47832677
0.40175146
0.22093584
0.13959779
0.22772053
-0.08610333
0.27693516
0.50011945
0.8662908
-0.7497958
0.03463387
0.6743428
-0.074880816
0.23708591
-0.18707533
0.12109816
0.15664482
-1.8306218
0.06985815
-0.028315153
-0.2320492
0.35120347
0.37411848
0.50214046
0.07127725
0.20486277
-0.2510608
0.041557442
-1.8652351
0.2006781
-1.9512446
0.10404316
-0.04153588
0.17109907
0.0134531725
-0.17217262
0.39981025
0.2157608
0.26776925
-2.990303
0.18851633
-0.0098095285
0.2504477
0.14478056
0.05678648
-0.61944175
-0.02139504
0.10228878
-0.58633775
-0.2944716
0.22491202
-0.20855096
0.17503664
-0.09555714
-0.4880224
-0.25898623
0.23422225
-0.29527283
-0.055489067
0.08384995
-0.2225173
0.06899729
0.016191227
0.19376265
-0.18592604
-0.011576609
0.23083462
0.217433
-0.15503909
0.1504512
0.18966815
-0.07590309
0.11682905
0.16623159
-0.0026389696
0.17840275
0.023856122
-0.4476002
-0.17330503
-0.38020822
-0.14405009
0.07182051
0.10545281
0.11889703
-2.3688366
0.07961894
0.11456636
0.052671395
-0.041941907
-3.8810322
0.04377863
0.08637761
-0.06712939
0.27467585
-0.014573809
0.27436098
0.07171599
0.26636547
-0.2990368
-0.10704178
-0.48814353
0.22496848
0.039764337
0.060297955
0.061998308
-0.037562426
0.1933121
-0.11866142
0.051796786
-0.43621537
0.14074908
-0.20168452
0.095559254
0.059817374
0.22698669
0.12833619
0.3035197
-0.06512918
0.0006098747
0.110551864
-0.16684803
0.14755459
0.1140105
-0.28288788
0.08660854
0.25085372
-0.29993394
0.047795538
-0.9785851
0.2907004
-0.3812191
0.08914225
0.121321075
0.17574228
0.11461528
0.22499007
-0.3313874
0.032196093
-0.0820007
-0.44061726
-0.11851123
0.19868955
0.0483115
-0.041253038
0.15807231
-0.31426194
0.25392768
-0.11532021
-0.9389659
-0.13399903
-0.027265547
0.015855974
0.08569734
-0.38420054
0.12221463
-0.09174247
-0.20724548
0.27220398
-0.15046936
-0.10094826
-0.24400334
0.02241025
-0.061644387
-0.19830576
0.19099732
-0.20829488
-0.0057333824
-0.027801044
-0.29331467
-0.080672145
0.09677005
0.024705743
0.18508694
-0.5088349
-0.0627977
0.112868674
0.03698636
-2.1635475
-0.4256895
-0.009349858
-2.2512183
0.032501675
0.016114466
0.14548512
-0.026832573
-0.055355933
0.6650186
-0.018942889
0.14641027
0.1191823
0.14778312
-0.03393198
0.102220885
-0.01893587
-0.0610761
-0.908346
0.07001048
-0.1855916
0.018866174
-0.22531387
-0.023346914
-0.06017696
0.017056828
0.14228061
0.06722906
-0.024639927
0.011527849
-0.35818207
0.75523615
-0.4257763
-0.013891414
0.67437726
0.067212366
0.07071539
0.03375588
0.12081891
-0.038577046
0.3919376
0.050906755
0.0021472366
0.20510042
0.029109327
0.06426691
-0.23449583
-0.07254137
-0.056421008
0.09531495
0.019954812
0.34256735
-0.069065645
0.13529994
0.1941921
0.058284946
0.18115439
0.056457978
0.13130222
-0.06352102
0.2270478
0.10673436
1.2953203
0.16223581
-0.042273123
0.09561743
0.20321381
-0.0047899266
-1.0163314
-0.9823707
-0.18553886
-0.22313201
0.038394593
-1.1571116
-0.05086287
0.2249195
0.2634784
-0.03138728
-2.7927096
0.35325843
0.14646953
0.19719683
0.2046112
-0.35028288
0.15754563
0.15922356
0.45165098
0.14004132
-0.17435706
0.16334774
0.20652151
0.08559269
0.014317006
0.09721515
-1.5611348
0.00488398
-0.26358107
-0.5670785
-0.043220695
0.012894456
-1.7679511
0.42049286
-2.2190237
1.550328
0.1294867
0.05559165
-0.04698428
0.19798109
0.23177378
0.12421299
0.05315797
-0.18203905
0.51450515
-0.05034939
-0.077809535
-0.113835886
-0.005331599
-0.038901653
-1.1531595
0.1535255
-0.6823537
-0.59888643
0.14850451
-0.15621875
0.1314122
0.18426873
0.0010992822
0.05308342
-0.0037642706
0.054086458
0.23764868
0.12842646
-0.37504068
-0.7734267
-0.054958876
-0.16962983
0.05800475
0.3091401
-0.17328835
0.103029296
0.30935505
0.04569409
0.18806581
-0.14917307
0.13590094
0.23754168
-0.21198335
0.20999151
0.22888033
-2.8565116
-0.0042966264
0.080416456
-0.61208385
0.32729155
0.1571839
-0.49252284
-0.044870224
0.041985866
0.20286869
0.088700525
-0.09130234
-0.14843622
0.48342258
-0.0009707551
0.109682165
-0.15486868
-0.24741606
0.16464779
0.16139059
-0.14298989
-0.15177995
0.2644886
-0.074968986
-0.026121471
-0.095586054
0.02983977
-0.16327742
0.33678162
0.105248794
0.06461371
0.28546992
0.06975406
-0.17264904
0.09726725
0.165193
-0.03535277
-0.03855297
0.1831708
0.07195967
-0.19929542
-0.20476004
0.053640906
-0.3496892
-0.2505399
-0.16583887
-0.021614121
-0.33846983
-0.89571476
0.013974112
-0.3324344
1.8140373
0.27645776
-0.3371706
-0.40717596
0.08023303
-0.07815032
0.16344532
0.50705916
0.15002684
0.56513226
0.1343574
0.2515662
0.30017364
0.0063445116
0.06878682
0.000752656
0.0006623515
-0.30902272
-0.48474434
-0.19673462
0.07958974
-0.290271
-0.07052382
0.30979463
-0.13637105
0.019874789
0.24085912
0.25063795
0.18074037
-0.20069656
0.010738016
0.48618087
0.18786046
-0.28399938
0.45689952
0.030785581
-0.16182825
0.0030465345
-0.10222605
-0.016401872
-0.056944102
-0.045464873
-0.079715475
-0.09058651
-0.11092202
-0.15562929
0.4852979
-0.03668697
-0.20176426
-0.38002074
-0.02108181
0.3529657
-0.37572828
0.1590317
0.13496688
-0.91659474
0.07866155
0.042897902
-0.04291373
0.24916632
-0.052144844
0.12494635
-1.0773133
-0.19137847
0.0725461
0.09124519
0.11730427
0.17946886
-0.34936845
0.16236167
0.49697575
0.12820362
0.2554208
0.38500777
0.4720752
0.2760447
-0.23481908
-0.21416527
0.01917995
0.20865932
-0.7389148
0.47397697
0.17001657
-0.13867755
-1.3729484
0.06753026
0.14505352
-1.4575638
0.60739493
0.20395458
-0.013659321
-0.07992615
-0.02455762
-0.050452363
0.37296298
0.16083512
0.6173749
0.6829915
0.30818218
1.4482393
-1.2818775
1.0506043
0.3035787
-0.5440073
-0.13349783
0.07319045
-2.479305
-0.57617295
0.18635634
0.86175
-0.24824333
0.25206524
-0.42463103
0.2812382
-0.02326318
0.48892894
0.08481954
0.5017121
0.6157579
-0.026948249
0.37285402
0.29072273
-0.20975412
0.18506734
0.16989169
-1.0516188
-2.5686104
-1.7693937
-0.13934718
0.26449415
-0.17134726
0.7817351
0.009207532
0.03523554
0.8525405
-0.2768785
1.8378195
0.10236284
-0.31341287
-0.33284605
0.023846233
0.020740641
0.12384494
0.3299765
-0.060405765
0.20420328
0.18948574
-0.080291025
0.1595627
0.31083435
-1.1341897
-0.12931831
0.088611655
0.040707834
-2.408887
0.5724803
-1.7292972
-0.22034796
0.27511245
0.11834027
0.084863566
0.0543325
-0.06877075
0.07789662
-0.28537148
-0.12275679
-0.016908312
-0.25329515
0.16695501
-0.29912618
-0.60546744
0.99745804
-1.0550455
0.6482157
0.45265773
-0.7803241
-0.0712256
0.49261895
0.12845673
-0.40273693
0.4292967
-1.0411265
-0.08837927
0.3203825
0.39615527
-0.22672802
-0.12460972
0.28141978
-0.8445181
0.059414674
0.13214573
-0.047978226
-0.32619268
-0.5221438
-0.6780596
-0.37874228
0.011825327
-0.01951832
-0.69341356
0.11091432
-0.11399093
-0.38398015
0.09908762
-0.17176595
0.5467969
-0.024939748
0.091203764
-0.2457337
0.13180274
-0.09968679
0.11421459
1.0828407
0.14511283
-0.5877235
0.06968512
0.33762392
-0.063769795
0.06991917
0.30153954
-0.3696409
0.6006537
-1.6115825
0.08088277
1.0788833
0.12867878
0.17377687
0.15503877
0.1194593
0.010892477
-0.065009154
-0.07600183
0.16369489
0.57000214
-0.0144465715
0.37563217
0.15791303
0.22495973
-0.8088715
0.059677057
-0.044060543
-0.5771895
-0.0985893
-0.4981375
-1.7068278
0.015965488
0.08731857
1.0453159
0.025559034
0.078555204
0.05252026
0.29144734
-0.15043512
0.07559333
-0.4004398
0.3384078
-0.07183098
0.0018432881
0.1319041
-0.7786543
0.64863515
-0.08863328
-0.0003316164
0.029502034
-0.047613323
-0.059938658
-0.042222407
0.0046236753
-0.015285623
-0.08037873
-0.07990326
0.078599684
0.036611628
0.0852045
-0.09731044
-0.060014047
-0.05944705
0.05252559
-0.03960023
0.0054643154
0.002963841
-0.0999616
-0.011125267
-0.06759896
-0.06329459
0.04337385
-0.028573561
-0.08090118
0.0038129927
0.007361376
0.08327267
0.019834995
0.090039514
-0.048066903
-0.007980645
0.013085234
-0.078816704
-0.017300297
0.014237511
-0.017534876
-0.07644296
0.019478882
-0.07444376
-0.06075591
-0.010213638
-0.047430992
0.017950153
-0.02473631
-0.07321308
0.03443296
0.07321805
0.06301122
0.073527776
-0.0052024485
0.0569307
0.004467881
-0.07702084
-0.01629584
-0.037326705
-0.026483132
-0.021433128
0.09428068
0.042802025
0.020297958
0.009115529
-0.06946807
-0.04723233
0.06737
0.06701583
-0.041306984
0.027695764
-0.07965159
-0.035081305
0.09322655
0.024065172
-0.022740996
0.041667737
-0.09959561
-0.08145871
0.06992183
-0.034151483
-0.091685556
-0.07068421
0.09689613
-0.027509773
0.039650716
-0.08267938
-0.04128001
-0.071534894
-0.037568033
-0.031256236
-0.066723466
0.04715252
0.09080827
-0.09981077
-0.064044885
0.035421014
0.052206375
-0.05593543
0.05761614
0.07229525
0.20576279
0.16278304
-0.09958383
0.118401736
0.24643286
0.36661172
0.1782548
-0.09468224
-1.9671786
0.005327408
-1.9552109
-0.6792355
-0.3909266
-0.09708952
-1.106676
0.4270494
0.18347482
-2.4180396
-0.72034025
0.43779024
-1.8926027
-1.1934787
0.2923804
-1.4793675
-1.0644617
0.17681831
0.3610568
-0.64593565
-0.80525196
0.36514372
0.14889954
-0.18265207
-1.3397546
-0.20599838
-0.4604916
-0.0005268585
-0.33934143
-0.5063865
0.020588396
0.21072571
-0.72029537
-1.1598206
-0.31848404
-0.018222952
-1.0595778
0.3090448
0.011311243
-0.06258361
0.467957
-1.3105615
-0.27020168
-0.0077362387
-0.9882048
0.0059776525
