0.49274772
0.5005198
-0.44835067
0.40107816
0.42870694
0.55638283
0.49742666
0.29111952
0.09914057
0.28167862
-0.26819527
-0.30063206
-0.15309647
-0.4645946
0.052175965
0.27641138
0.20096073
0.24624264
0.058687065
0.24059352
0.25514913
-0.16951634
0.46988568
0.23243582
0.2273234
0.44320822
0.3740196
0.22578743
-0.24809496
0.18409826
0.38195625
0.326156
-0.29592624
-0.23944119
0.053747185
0.36618146
-0.026773458
-0.12828827
0.3067619
0.21983415
-0.73941386
-0.6457202
0.18524058
-0.59338206
0.20957056
0.5118249
0.5259011
-0.35661256
0.096316285
-0.34674087
0.42502257
0.02103599
-0.16290656
0.33990416
-0.5064076
-0.27146327
0.48639458
0.15554002
-0.36811066
-0.23216482
-0.46866572
-0.14643928
0.3692365
-0.13729815
0.4324478
0.5340576
0.6175899
0.50866735
0.54546
0.32441077
0.19809183
-0.48497292
0.17337243
0.20105375
-0.4753712
0.6097807
0.2333833
0.21986234
0.32772085
0.26915756
-0.21847926
-0.69382393
0.43475533
-0.021255983
0.5122487
0.5666695
-0.15538354
0.28728494
0.21562004
0.18434015
0.35624075
-0.26472744
0.336126
-0.2774529
0.3851538
-0.1611803
0.5632425
0.3863808
0.36149603
-0.11509676
