0.08473199
0.028587846
0.09810607
0.12887129
0.23192433
-0.3640679
-0.38563982
0.01962507
0.07950528
-0.05421791
0.08547088
-0.2500845
0.24545117
-0.08054394
0.15483527
0.2021027
-0.05393773
0.113135874
0.030553738
0.053628113
-0.11512114
-0.16608523
-0.062179517
-0.05269114
-0.048656203
-0.009386601
-0.23321167
0.5391776
-0.0595563
0.30633688
0.11351776
0.019458892
0.43366757
0.094547816
-0.0333152
-0.09245509
-0.033026535
-0.060640465
-0.08154872
0.10515637
0.07494372
0.02266856
0.37728146
-0.101339646
0.31038374
-0.030612504
0.026637224
0.38344058
0.102497265
0.056501344
0.041271217
0.15751426
-0.16018564
0.29623815
-0.054378733
0.046347104
0.07854647
-0.121839575
-0.046836726
-0.09449797
0.03296897
0.007952667
0.34924814
-0.09636599
0.20179805
-0.054333176
-0.13958229
-0.0025192196
-0.1070433
-0.010595396
0.01501476
-0.012420592
-0.049670164
0.11767896
-0.089235485
-0.07551169
0.27966204
-0.2545038
0.38420102
-0.072021104
0.295998
0.103405274
-0.5153221
-0.21582627
-0.050568793
0.16176058
-0.21552686
0.050352845
-0.06431243
0.19470999
-0.14436752
-0.16970804
0.36176467
0.09853511
-0.083676875
0.14028928
-0.24245304
0.060334384
-0.29166347
0.06624859
0.19017445
-0.044032477
0.026056351
0.24527657
0.12855019
0.102067575
0.14875211
0.08488647
-0.23476857
0.3536778
-0.024193808
0.05025773
0.4425508
0.099504225
-0.012810978
0.33923882
-0.0825187
-0.09636284
0.20733455
-0.10336058
0.34168768
0.09331771
0.03226721
0.06188758
0.09519367
0.20040798
-0.05102506
0.085759714
0.18228272
0.07232606
0.5193905
0.024921114
-0.11820783
0.4427757
0.021334227
-0.27828795
-0.09001487
0.087282
0.040799547
0.16920243
0.026094953
0.13677509
-0.2615996
0.0018335077
0.022638429
0.08021832
0.11399942
-0.18071866
0.22440185
0.18859795
0.25886568
0.012392583
-0.102825746
-0.23306471
-0.21168104
0.07901493
0.010284424
0.36257964
-0.0050958516
0.098085515
-0.053943
-0.05929258
0.20348683
0.08676555
-0.0750661
0.40155396
-0.02478199
0.056116518
-0.029980917
-0.43489984
-0.25478
0.26440117
0.10727344
0.025143012
-0.10497757
-0.0214581
-0.08855178
-0.040539075
-0.16861995
-0.03643426
0.19195685
0.20389126
0.24329978
0.023385601
0.36002383
-0.0602365
0.3428617
0.29852018
0.106933035
-0.11440836
-0.28738692
-0.14503643
-0.03385995
-0.08881317
0.0195652
0.28929648
-0.08481279
-0.08953169
-0.06786863
-0.14464112
