-0.15188357
-0.14133638
-0.12783803
-0.16252716
-0.05536127
-0.023480857
0.26384807
-0.18327732
-0.23959804
0.34811094
-0.082705386
-0.16163436
-0.14893048
0.06567083
0.11462668
-0.19231123
0.106500044
-0.095421754
0.12759231
-0.12012797
0.30924278
0.20026255
0.12691924
-0.08313295
0.10142497
0.081676744
-0.109104306
-0.30010957
0.2006744
-0.24314553
-0.20767769
0.35196388
-0.10115705
0.23568445
-0.10415097
0.061629817
0.19321753
-0.1270144
0.249544
-0.22507891
-0.12414984
-0.06058216
-0.18094903
0.25209707
0.08401322
0.05837988
-0.33543503
0.17094313
-0.10207911
-0.048411686
0.0022345914
-0.26010323
0.051168744
0.23515287
0.13799153
0.13560216
-0.11994296
-0.093383566
0.0985934
-0.21028681
0.23853283
-0.38344792
0.31413496
-0.13092348
-0.1789052
0.18918146
0.026336705
0.060202066
0.11380281
0.13658746
0.23865394
0.099683754
0.18532267
0.09620659
-0.1246946
0.3267371
-0.07567057
-0.4032851
-0.164798
0.18218242
0.25316805
-0.23071678
-0.12061273
0.17449991
0.2429329
0.19139047
0.12303038
0.054432914
-0.097910866
0.06085192
-0.10339799
0.067068845
-0.10978243
-0.1180214
0.34314927
-0.11726776
0.29571378
0.138498
0.04130004
-0.043389026
