-0.048060097
0.006870375
0.0055231377
-0.0282983
-0.0012303417
0.0012113008
-0.0018332286
0.0040284907
0.0011498489
0.0028434186
-0.015729899
-0.0345614
-0.06695385
-0.000597746
-0.0019387206
0.012321072
0.0032753279
0.013529617
-0.0010399627
-0.04576274
0.0043720095
0.004292264
0.00029428504
-0.039403446
-0.0006068201
0.0035754782
-0.028334387
-0.0019571893
-0.0019559076
0.0059742955
-0.00027705572
0.0017892907
-0.035113737
-0.00049307453
-0.017171443
0.0043842015
0.0020013037
-0.005721602
-0.0033413651
0.00042346984
-0.024736613
-0.00059875834
0.0020216745
-4.2002215e-05
-0.009858202
0.0016614103
0.0017342212
-0.0006829016
0.0011619194
-0.008002675
-0.009171004
0.0040226425
-0.0023697738
0.0010429906
-0.0017446524
-0.0007163126
0.007276847
-0.031935703
0.0070886244
-0.001253306
0.0014970065
0.0041375547
-0.0012403259
-0.06854931
0.034891207
0.00016995572
0.0032616116
0.010161425
-0.0069696517
0.00022851751
-0.0021552253
-0.0062922183
0.0009486024
0.0024960064
-0.026091436
0.00049441087
0.0018760379
0.0040624943
0.022481978
-0.0038975817
-0.0023325572
0.0056735044
0.08053019
0.002220751
0.00059339555
0.0014612733
0.0052224183
0.006810157
0.021679753
0.019231236
0.051232055
-0.011741677
0.011450226
-0.022513624
-0.0006180171
-0.03248156
0.0014135584
-0.0066481372
0.00032939573
0.0012825088
-0.029493202
0.00028610363
-0.10266434
0.020316903
-0.011660119
-0.0015190515
0.00038682646
0.0038515022
-0.0046580597
-0.0010460401
-0.04768298
-0.027564222
0.055844735
0.014538698
0.008919721
-0.061094612
-0.0063575367
-0.014621585
0.011088904
-0.06306191
0.016747572
0.00019786278
-0.00084373343
0.013456119
0.0025892395
-0.015416763
0.009436533
-0.005563385
-5.9402315e-05
0.0003016092
-0.0043037
0.00035926653
0.034829993
0.0064198016
-0.013151526
0.0009644024
-0.0006911578
-0.005425056
8.201348e-05
-0.0035327063
0.041867137
-0.0020955552
-0.002232854
0.0031721697
-0.0072745956
0.0012678001
-8.9469126e-05
0.0023956732
0.008102289
-0.0034328504
0.000101460195
0.00062614086
-0.003174961
-0.0025502844
0.002535087
-0.001701681
-0.004395574
-0.040024657
-0.0027596282
-0.00039415425
-0.001081956
0.0012374887
0.007813014
0.040205937
0.003633589
0.0034467601
-0.006852867
-0.00072217087
-0.019962102
-0.0013109326
0.0035655883
-0.016884444
0.002014729
0.0024149737
-0.038487576
0.00028292547
-0.06599626
-0.0004754214
-0.010347077
0.00023883772
0.0006370703
0.0011487273
-0.0019673926
-0.0012446529
-0.0020484256
-0.00045833204
0.0017694414
-0.0112532135
-0.0041588275
-0.012381348
0.0329349
-0.006510322
0.11622394
-0.010212607
-0.0005443427
0.027139317
0.0002402235
-0.0065546376
0.00025116155
-0.00070033286
