-0.019801276
-0.058040187
0.11536662
-0.061140772
-0.026984742
-0.080974795
0.094792515
0.13953495
-0.050234135
0.26505038
0.051699482
0.021913283
-0.053920638
0.61381906
0.111863345
-0.04167479
-0.403166
0.0010787754
0.42379832
0.0752737
-0.038073488
-0.006576771
-0.14793979
0.052929834
-0.040230878
-0.047036514
-0.029289536
-0.0015651209
-0.035700664
-0.08921739
-0.05320615
-0.07760157
0.022677423
-0.004771635
-0.0011351067
-0.040853746
0.17663953
0.04622283
0.03364886
-0.06043342
-0.060338274
-0.13963255
-0.14398244
-0.027613727
0.010039429
0.10572569
-0.13834697
0.19311567
-0.043695703
0.015330475
0.53110325
-0.07625859
0.08393043
0.25854096
0.21270572
0.58216584
0.0043807807
0.048814915
0.99301064
-0.08996581
0.18700857
0.203208
-0.057829667
0.048187118
-0.038377117
0.024385454
-0.07203295
0.29428485
0.053981967
-0.13033938
0.059862968
-0.05594784
-0.023599911
-0.033478085
-0.06361233
0.11015213
0.031479493
-0.36487496
-0.045523982
0.030339044
-0.027144598
-0.13966264
0.026546368
-0.06962636
0.008619268
0.056837443
0.52582914
-0.06561052
0.0046103373
-0.038172368
0.0066712173
-0.009764789
0.057910718
0.16108578
-0.03631136
0.025660316
0.069847755
-0.32662565
-0.05186367
0.056872096
0.056884494
-0.018972838
-0.061840378
-0.039578345
0.05216941
-0.11771321
0.071677096
-0.5216873
-0.28570974
-0.042080715
0.029656883
-0.0262806
-0.0017801375
-0.22419354
0.9395077
0.025666203
0.60777074
-0.033842754
-0.20297165
-0.0012278246
-0.03538616
-0.07670146
0.52137786
0.053133447
-0.04797049
0.020615606
-0.012060445
-0.45844382
-0.0060201865
0.08039433
0.0050444
0.022166496
-0.045794137
0.097810835
-0.036057424
0.07593824
-0.1266775
-0.0868061
-0.07741325
0.35869873
0.08049305
0.18112953
0.16542773
-0.06078411
-0.036121625
0.939415
-0.054088026
0.27079338
0.06353885
0.1535344
-0.5053502
-0.090629384
-0.07711043
0.020869045
-0.419129
0.15759882
0.0016571326
0.07079033
0.31476635
-0.035252508
-0.10650596
-0.20967925
0.045531813
-0.033417825
0.04181246
-0.30749238
-0.04629157
-0.37587535
-0.19372793
0.022903332
0.08752164
-0.041225627
0.057446085
-0.02738332
0.018346189
0.1800442
0.09020935
-0.079325296
0.058476217
-0.08354435
-0.017168805
-0.40195793
-0.06392192
0.12399628
-0.13981536
0.12075572
0.47737512
-0.016080452
-0.016469361
0.3854155
-0.09336578
-0.13088053
-0.08161165
0.055041455
0.091185376
0.007262756
0.1729105
0.0039440133
0.063108124
0.17744769
