-0.15003543
0.06619357
0.06835528
0.21199137
0.19905542
-0.11253145
-0.106066555
0.24736686
0.070633784
0.2269476
-0.10923937
-0.16465037
-0.14868069
-0.055693876
0.24917373
0.14923376
0.14504136
0.062855676
-0.1197997
-0.10740573
0.1173416
0.14357129
0.13586608
-0.11278364
0.11308835
-0.43463105
-0.06056074
-0.12494143
0.318966
0.11906773
0.117453344
0.26292515
0.15641846
0.22238134
0.09472894
-0.07096089
0.3660124
-0.18288851
0.25519392
-0.30610508
-0.080744326
-0.09000559
-0.17819579
0.12605149
-0.13350067
-0.17953455
-0.086081296
0.14221503
0.030448213
0.27243254
0.28136435
0.08020249
-0.021423865
-0.1253586
-0.07496954
-0.15901898
-0.08346715
-0.04927009
0.12075328
0.08806632
0.111862235
-0.18433149
-0.10715095
-0.000675624
-0.1518231
-0.020287028
-0.17363714
-0.39668354
-0.12501395
-0.13565439
-0.15534894
-0.35722157
0.2160908
0.20838968
-0.16073795
-0.21866198
0.2119765
0.21844885
0.12984842
-0.24938188
0.038336463
0.040394165
-0.14440481
-0.13101418
0.2770899
0.14803828
-0.1444054
0.07419309
0.24849227
-0.35096914
-0.22646125
0.13986816
0.12641405
0.20334607
0.15313272
0.10994886
-0.15627998
-0.1342534
0.14111365
0.2148396
