-0.054221872
0.0386474
-0.11231598
-0.00031246833
-0.020542206
-0.07833959
-0.094369866
0.01564894
0.011830224
-0.11095576
-0.017180866
-0.041848157
0.06962105
0.031977743
-0.046811145
-0.009426051
0.055204123
0.014094328
-0.0061657066
-0.020802269
-0.059272964
-0.016072636
-0.054994565
0.055383615
-0.06368766
-0.053069282
-0.026631823
-0.0032563668
0.04561274
-0.01750557
0.013107049
-0.057294607
-0.047156043
0.013578868
0.0064105806
-0.06854524
0.022613548
-0.06594054
-0.07492095
-0.06032376
0.035835166
-0.05971986
-0.040824804
-0.049707625
-0.08549616
-0.08649544
-0.006496787
0.0008908387
-0.057081487
0.022234568
-0.03963485
0.0054712025
-0.05062719
-0.020951346
-0.011196581
-0.083963774
-0.078732915
0.02852292
0.017108358
0.030369088
-0.0423503
0.106833294
-0.079939544
0.061552417
0.08589598
0.023747416
-0.054046817
-0.03471567
0.0062317797
-0.0609975
0.014611213
0.00051002746
0.0781179
-0.006312164
0.030873748
-0.011628578
0.001454901
-0.021449147
0.022681206
0.024102012
-0.07264796
0.023808615
-0.05671154
0.016289106
0.0314585
0.055045187
-0.009909981
0.012942028
-0.036288723
-0.0014975466
0.05679387
0.0107823955
-0.045921776
0.006334344
-0.008645607
-0.0011024269
-0.007058079
-0.03543509
0.022332873
-0.03747601
0.02491817
-0.019076824
-0.04710056
0.060725335
0.05554092
-0.0328415
-0.035538975
0.06393273
-0.054778155
-0.006531158
-0.09134554
-0.1036179
-0.066881016
-0.029584264
-0.025513984
-0.031453554
-0.1331319
-0.0052651674
0.012842693
0.06817871
-0.06532531
0.019838871
0.05603046
-0.026085736
0.04973023
-0.056789044
-0.08676131
0.014327409
0.0136595005
0.021161208
0.041869752
-0.056001484
-0.101696715
-0.042662494
-0.05890562
-0.01598292
-0.029879875
-0.029022524
0.014972406
-0.041163355
0.0061527193
0.059874687
0.024777256
0.07217497
-0.0044090915
-0.042406246
-0.079567984
0.02164401
0.043667838
0.049066443
-0.06010468
-0.026197964
-0.094305985
-0.010517179
0.04511663
-0.1347827
-0.07085292
-0.023694875
-0.06881604
-0.08287937
-0.003037417
0.024944015
-0.051699545
-0.10598099
0.038567986
-0.015763663
-0.05703219
-0.005691472
0.038436234
-0.06408855
0.016986605
-0.14415488
0.020478673
-0.0678049
0.032455396
0.019002581
-0.06829369
-0.096887
-0.0307785
0.037999123
-0.02085215
0.028229075
0.0028665245
-0.033144124
-0.056913566
-0.09501238
-0.038742404
-0.08468644
0.02764175
-0.13788158
-0.08160607
-0.07707212
0.09421711
-0.040806837
-0.12766488
-0.07035597
-0.0119069945
0.047663234
-0.034993064
0.034297835
-0.066879295
-0.08767468
-0.4467113
-0.034399003
-0.13050726
0.13268422
0.113558434
0.075781025
-0.13759476
-0.47385025
0.14264664
-0.12605609
-0.20472282
0.0051751276
0.0038674655
0.0110811815
0.03110726
0.09974358
0.058852177
0.044870276
-0.16505055
-0.15622665
0.019118736
-0.1764986
0.20854591
0.028505398
-0.08176587
-0.102440275
0.08302168
0.14943804
-0.3277298
-0.026668234
-0.109442286
-0.176567
-0.03581257
0.17896418
-0.058470108
0.08176855
-0.026495289
-0.01899912
0.030194143
-0.18211938
-0.048950687
-0.037736487
0.060058407
-0.11442399
0.10988382
0.017820958
0.0010860147
-0.059907198
0.081405364
-0.1754803
-0.2674934
-0.29688054
-0.031897444
0.09631887
-0.16663852
-0.077207126
0.031828176
0.021500815
-0.061641257
-0.15584016
-0.05328501
-0.20247144
-0.05764543
-0.22765496
0.009144984
0.06333676
-0.09520212
-0.0013627653
-0.00040908752
0.074016295
0.35696748
-0.011560016
-0.21246774
-0.17183356
0.2653793
-0.054280862
-0.16873586
-0.016635314
-2.3197916
-0.1599408
-0.086708866
0.086645715
0.14248173
-0.07813708
-0.2701828
-0.35361424
-0.16824038
-0.1259613
0.04075535
-0.363564
-0.00734759
-0.047552485
0.23099679
0.05033645
-0.42081147
-0.024518905
-0.14871493
0.0330077
-0.06315464
-0.011816875
0.03169742
-0.09070442
-0.11666144
0.11590921
-0.035073694
-0.2552941
-0.65862125
-0.13066396
0.06123617
0.09967417
-0.28179643
-0.09307902
-0.014998836
0.056073494
0.044537444
-0.29288527
-0.024236174
0.058086105
0.009096031
-0.07678205
0.010541236
-0.2503599
-0.053646058
0.004391042
-0.045911472
-0.05758785
0.18618354
0.036846478
-0.0690918
0.0022327472
-0.08873339
0.10412637
-0.1395977
-0.012738821
-0.024604943
-0.27282745
0.027927743
-0.12426682
-0.05478482
-0.10195971
-0.10479676
-0.076239556
0.13089249
-0.13895135
0.17322032
-0.00032275653
-0.17847705
0.32996058
0.020129658
-0.07775395
0.022981115
-0.16357072
-0.17718144
0.0643209
-0.36779934
-0.06329138
0.20222682
0.06978523
-0.03569928
-0.08390615
-0.36996907
-0.27674532
-0.16974472
-0.051371615
-0.027343184
0.124629386
0.061671413
0.030879611
-0.009087402
0.019267742
-0.022846775
-0.095210426
0.0562598
-0.017079124
0.027115297
-0.050711058
-0.09322122
-0.06642446
0.07185904
0.010565704
0.03544959
0.08099208
-0.10310578
-0.15276104
-0.6027806
-0.16888861
-0.09514271
-0.1726646
0.19379541
-0.012331036
0.20762348
0.16794613
-0.22700016
-0.30802298
0.045227394
0.009499904
0.04117275
-0.28877115
-0.01780106
0.048344553
0.01981222
-0.043004286
-0.022921637
-0.0050590346
-0.09532626
-0.04819595
0.026317868
-0.05394488
0.020439988
0.035200894
0.0033833876
0.020077694
0.022093983
-0.064096265
0.02686474
0.0117834015
0.0003110784
0.032759693
0.02548659
-0.017335743
0.03667285
-0.019853603
-0.01674761
-0.009685094
-0.009662074
-0.07436984
0.037241615
0.014648987
-0.098333105
0.043816302
-0.046555147
-0.0704373
0.00251391
0.021930555
-0.04164068
0.010869544
-0.040806152
0.008062797
-0.0073112804
-0.0059698466
0.051057063
0.051679567
-0.10284453
0.029427852
0.014102398
0.039580554
-0.08382678
-0.016114976
-0.014740481
-0.03103952
-0.032187603
-0.072412156
-0.07787176
-0.07081238
0.019578714
0.059198596
-0.06450481
-0.03538874
0.06707341
0.07572175
-0.027569147
0.04812638
0.0148588335
-0.04200394
0.011418113
-0.07445876
0.04950747
0.012157668
-0.034095854
-0.018939238
-0.081525944
0.042200327
0.012275884
0.008493575
-0.0008218752
0.0006690642
-0.10629084
-0.021767246
0.041361287
0.017007835
-0.014655964
-0.07677757
0.025216237
-0.09031911
-0.038574394
-0.008103793
0.046169862
-0.041608367
-0.041948657
-0.07063423
-0.00820994
0.044877753
0.028110242
-0.018503517
0.05738294
-0.057883218
0.015655924
0.028235702
-0.07482005
-0.024214987
-0.01366647
-0.047672424
0.00809538
-0.021696344
0.02277149
-0.09025275
-0.059885085
0.014657959
-0.07023579
-0.0067734392
-0.06576511
0.015596888
-0.022903156
-0.0490612
0.028761717
0.033094257
-0.061645113
-0.08227681
-0.10619092
-0.027542433
-0.025158314
-0.024760105
-0.018044755
0.03336649
0.060613867
0.04514184
-0.060456064
-0.037442885
0.038798638
-0.024700942
-0.05880341
-0.045034297
-0.066516474
0.040713
0.045989387
-0.034617938
-0.038781296
0.014074588
-0.010582387
-0.061256744
0.03139766
0.03470641
-0.06621614
-0.027019769
-0.04875764
-0.017003845
-0.019885797
-0.05783912
-0.025176834
0.017606238
-0.0061030807
-0.09247017
-0.082909614
-0.03699059
0.012524121
0.023046257
-0.06028598
-0.10514973
-0.030816048
0.0023470619
-0.010626409
-0.048388615
0.022688836
-0.09818744
-0.07413539
-0.0630188
-0.035690375
0.04565708
-0.043201018
-0.021428548
0.035383783
-0.021619394
-0.038572
-0.05318544
-0.028060991
-0.104508616
0.052523863
-0.027069028
-0.08326516
0.013134404
-0.07851069
-0.024763305
0.030283343
-0.08762845
-0.036206357
0.06820745
0.035100177
-0.1025334
0.027004367
-0.017556937
-0.04458594
0.026947483
0.004550737
0.03958217
-0.10759973
-0.022411887
-0.024478901
-0.037073165
-0.03015487
0.009418586
-0.073506005
0.07217247
0.041483857
-0.086399086
0.044530094
-0.019337364
-0.0110106785
0.018469837
0.050773688
-0.051155753
-0.06114419
-0.06973118
-0.060910653
0.062249586
-0.014124252
-0.05349061
-0.060146905
-0.010437968
-0.03732833
-0.02224709
0.07193642
0.0172093
0.026445733
0.007095856
-0.06994506
0.05698499
0.0012718944
-0.027821014
-0.029912816
-0.041915134
-0.029576715
0.04274513
0.05170473
0.05725543
0.056638923
-0.08591943
0.04615482
0.0017315014
-0.025870224
0.028155975
0.040924095
0.04203222
0.045919724
-0.03906932
-0.005151189
0.006291108
-0.014562186
0.023590984
-0.06440057
-0.047708005
-0.114498265
-0.09531754
-0.04663645
-0.025339209
0.020106072
-0.068059824
-0.057941064
-0.029964836
-0.001084481
0.01701685
-0.01761457
-0.06866882
-0.06915926
-0.011815059
-0.007961247
-0.031839848
0.05001979
0.008779261
0.0117156245
-0.03615061
0.061487846
-0.029461494
-0.028587103
-0.02539907
0.047856
-0.006856215
-0.10520583
0.018253507
-0.03832817
0.023551319
-0.04493177
0.039959442
-0.07099172
-0.013403138
-0.0009601384
-0.08282163
0.009555058
0.016832026
-0.046666045
0.023630837
-0.05926639
-0.07898684
-0.07020908
-0.0011793142
0.0075584953
-0.06388848
-0.06328584
0.019060664
0.05176633
-0.07485765
-0.03226479
0.022347696
-0.08258226
-0.015219824
-0.05938082
0.013841803
-0.074701145
0.047492366
0.018884055
-0.006647401
-0.06624783
-0.06656318
-0.006985092
-0.0067814235
0.034267962
-0.010843062
-0.05308019
0.027706778
-0.034822196
0.010409438
-0.06294213
-0.0309564
-0.060350526
0.04696903
0.007267096
0.021912232
0.04845047
0.023681547
-0.0070574316
0.019492384
-0.026693486
-0.06556085
0.01818966
0.018693255
-0.061008092
0.0240399
-0.05858858
-0.07574805
-0.09427554
-0.038732156
-0.08427069
-0.019089438
-0.0028823444
-0.061451443
-0.10606117
-0.00022480359
0.03636484
0.04132577
0.0629707
-0.0018680347
0.008974279
-0.102821715
-0.0622186
-0.12465867
0.027936434
0.062478945
0.01558823
-0.08812954
-0.024763087
-0.042087458
-0.06387993
-0.07270704
-0.010798765
-0.021825725
-0.09199966
-0.04399871
0.023001285
-0.042175163
0.0633112
0.02304867
-0.029208371
-0.044074744
-0.115098745
-0.029988147
-0.034373816
-0.04112069
0.021736547
-0.03484061
-0.03130943
-0.005071494
-0.030400796
-0.055430274
-0.0506748
-0.10061082
-0.06294419
-0.06259702
0.018161086
-0.060584236
0.03174704
-0.0553253
-0.032402348
-0.054269996
-0.034706034
-0.057044778
0.03649953
0.030787323
-0.044605285
0.0054401625
-0.0050863037
-0.1846444
-0.0035503276
-0.029934732
-0.06149491
0.004871812
-0.2540686
-0.05593557
0.062390864
0.031737342
-0.0059580766
-0.21216784
0.13803765
0.4223996
0.060547505
-0.028378064
-0.028779564
0.19133213
0.06678271
0.04946303
0.027418412
-0.0469114
-0.056144208
-0.15980469
0.0007913918
0.08325903
0.18193692
0.044110764
0.14820948
0.13662209
0.05705967
0.0016031944
-0.2217859
0.25654313
0.26543617
0.033491947
0.040066477
-0.18375835
0.21666202
-0.34954408
0.35199302
0.074484326
-0.008375942
0.076517835
0.14129496
0.17035788
-0.009440881
0.17179948
-0.10666217
-0.19386753
-0.02215932
-0.033686776
-0.0022815294
-0.077992596
-0.07563144
-0.0012956494
0.24270247
0.045851756
0.045748606
0.21474291
-0.028756218
0.12451589
0.22454903
0.099311836
-0.011720379
-0.06356177
-0.0015698639
0.36578026
0.1329181
-0.061073
-0.07732546
0.49874046
-0.21057397
-0.030291313
-0.080507345
-0.010666717
-0.0059123314
0.1186847
0.024952512
0.105313994
0.02787212
-0.12586537
0.17466718
-0.8004408
0.2469286
0.033507455
-0.3125322
0.04666426
0.37871552
-0.024661737
-0.0024414756
-0.004719893
-0.016911134
0.012291739
0.08413244
0.03282422
0.09638505
-0.043279037
0.4222411
0.023182705
0.2625804
0.049992118
-0.040179558
0.15122597
-0.06907262
0.064238004
-0.13431029
0.078738995
-0.31670895
0.23663813
-0.12194313
0.060740314
-0.031680122
0.09054401
0.07267146
0.10483463
0.106126346
0.11105733
-0.04899701
0.006130698
0.031166535
-0.07285946
-0.031524535
0.312894
-0.052321594
-0.048300058
0.00081198517
0.0510271
-0.19950663
0.15443014
0.081263565
-0.0064468137
-0.52651405
-0.61336374
0.09865225
-0.052697323
-0.018890375
0.061463993
-0.02848943
0.07747899
-0.29785725
0.021699453
0.105057955
0.15428087
-0.15380259
0.057020616
0.005513134
0.15387869
-0.088989444
-0.129332
0.062118486
-0.35039172
-0.1467608
-0.05671461
-0.055079125
0.015967252
-0.25306875
0.044846788
0.108127
-0.14511584
0.105330184
0.31825525
-0.22579727
-0.02795676
0.026457068
-0.058735404
-0.012786921
-0.14624725
0.017576616
-0.16964571
-0.022702739
0.022551574
0.25579786
-0.2576128
-0.08030027
-0.017561274
0.011267065
0.11283062
0.2949785
-0.018831102
-0.1184127
-0.050192624
-0.099588245
0.12015189
-0.05140001
0.21008675
-0.08826447
-0.12421423
-0.030128812
0.0014786661
0.05735903
-0.080401495
-0.12310491
0.025055028
0.06637644
0.021911217
0.037335925
-0.016061682
0.047223054
-0.18699773
0.05264844
-0.056927823
-0.03490763
0.052496318
-0.0021196206
0.010932029
0.11197808
-0.07218836
-0.06811577
-0.05439019
-0.013280975
-0.046587087
-0.00032449953
0.012623034
-0.07136069
0.04650527
0.037009336
-0.04330929
-0.02575922
0.016265258
-0.0494134
-0.03866093
0.008386247
-0.047444567
-0.096404016
0.014880454
0.010520553
0.011540088
0.0115152225
0.010034968
-0.017258612
0.027843405
0.005002387
0.044608973
-0.020613052
-0.1335727
-0.0019390674
-0.05464959
0.012329804
-0.12402755
-0.07165529
0.009462851
-0.08598389
-0.0209199
-0.065071434
-0.013208413
-0.07195945
0.042518876
-0.11808592
-0.075883605
0.002494698
-0.0048612365
-0.022313261
-0.023996513
0.04783294
0.02994991
0.0154281
-0.020910807
-0.022189394
-0.09165035
0.06982717
0.021598287
-0.08360664
-0.0149076255
-0.033675447
-0.024855891
-0.06337577
-0.018641759
-0.042114947
-0.006227454
0.017242154
-0.0080752075
-0.05124914
-0.012907403
-0.050821774
-0.07055481
-0.050363425
-0.12812826
-0.08588555
-0.07985704
-0.039810687
-0.066128515
-0.019821435
-0.002956048
-0.10677494
0.030123435
0.0032748154
0.06967883
-0.004444351
-0.047909267
0.052619133
0.016182689
-0.04683099
-0.006482854
-0.050255638
-0.10708197
0.026631331
0.055427942
-0.0864757
-0.029205443
0.036272082
-0.048543848
-0.022548715
-0.062877335
-0.017684324
-0.11593991
-0.056180894
-0.037988875
0.06877133
0.00470078
-0.032980025
-0.013640859
-0.07445566
-0.08399626
0.009859161
0.0069051017
-0.10538944
-0.03354737
-0.033932656
0.03826828
0.04329985
0.03515245
-0.040689107
-0.07739986
-0.08512879
-0.050266188
0.010372488
0.029914644
-0.08296954
-0.020132296
-0.039717507
0.1135481
-0.12205438
0.02594709
0.056373097
0.021118283
0.02540589
-0.04405092
-0.09762989
-0.042882126
0.026795324
-0.029632643
-0.044270832
0.00037276582
-0.035618197
-0.047558006
-0.08526737
-0.038430866
0.042177673
0.03428953
0.02237326
-0.009051448
-0.0650703
-0.020775743
0.07949527
-0.0050160363
-0.02658514
-0.059153806
-0.07263195
-0.047115427
0.08886841
0.093164064
-0.006962256
0.025776114
0.020021986
0.010690359
0.012202757
-0.065678105
0.005082382
-0.014683461
0.054575045
0.007148114
-0.051631853
-0.09030765
-0.09696899
-0.022671852
-0.04117454
-0.01104226
-0.03341511
-0.11901041
-0.03735595
-0.060602996
-0.102330685
-0.09017233
-0.095951095
-0.008781386
-0.015300614
-0.062310614
-0.036420666
0.015707362
0.07595276
-0.10495556
0.009535832
-0.05952316
0.007016443
-0.042331748
-0.026002306
0.057259448
0.0026665998
0.0067994064
-0.07689924
0.04365942
0.0018570002
-0.02860849
-0.04972043
-0.07147301
-0.00049057056
-0.014940302
-0.09777626
-0.09557543
-0.090149924
0.053073205
0.04820267
-0.03494157
-0.036415778
0.06552824
-0.03228414
-0.082430795
0.06258205
0.016216442
-0.080146946
0.01744532
0.055663083
0.006057219
-0.045442197
0.06133995
-0.019923117
-0.04659057
-0.11042589
-0.030151408
0.03651868
-0.0027428318
-0.098256774
0.03155829
-0.023989188
0.068063214
-0.018694354
-0.06270296
-0.033935323
-0.05783134
-0.008868706
-0.095095366
-0.041120883
-0.07042527
-0.015504581
0.05224365
-0.09664815
0.034172896
-0.017297298
0.00743645
0.050824214
-0.099053524
-0.031439394
-0.01827941
-0.053013626
-0.090380765
0.0029271294
-0.07336199
-0.082878366
0.06218464
-0.0575568
-0.016742954
-0.017312445
0.0073670116
-0.0051905666
0.03465658
-0.06683317
-0.026586706
0.06074516
-0.079977416
0.049340505
-0.068940505
0.018424781
0.024558907
-0.035048027
0.055424605
0.077112816
0.041693754
-0.06322127
-0.047907937
-0.06589289
-0.06591258
-0.015130418
-0.092940964
-0.03081898
-0.10086499
0.023815019
-0.0017482108
0.010613
0.0142363245
-0.015067381
-0.07867079
0.034714136
-0.08000028
0.030067274
-0.11391109
-0.012189583
0.033446606
-0.0025843848
0.012777977
0.019775076
-0.09859177
-0.08223201
-0.043087855
-0.020051433
-0.03357928
-0.043582488
-0.04602266
-0.06761338
0.10003733
-0.019827459
-0.019211855
-0.010067848
0.010361977
-0.0703542
0.016199753
-0.110725336
0.020519968
0.039713625
-0.06540111
-0.10012838
-0.048817083
-0.06798599
0.05269372
0.0018933191
-0.07872656
0.0066723
-0.04837467
-0.039998237
-0.08956888
-0.043811537
-0.01966337
0.008888006
-0.06391543
-0.041561548
-0.06600527
0.019622816
-0.04955946
-0.023940688
-0.0033484066
-0.02353412
-0.07832097
-0.06901025
-0.09163819
-0.040506884
-0.07265234
0.011452852
0.01015201
-0.061856426
-0.07166386
-0.03943813
0.017115237
0.022049954
0.041969273
0.075183004
-0.030575281
-0.0020357813
-0.07785053
-0.070579045
-0.043986984
-0.03874331
0.06849012
-0.010641461
-0.04560531
0.08685177
0.016763179
-0.07661459
-0.08134576
-0.03312941
0.014714322
0.035377987
0.016637057
-0.07784842
0.04457948
0.03604098
-0.006274588
0.0046766195
0.00084233034
-0.058429275
-0.114914834
-0.1231197
-0.026398059
-0.11424256
0.0036153994
-0.07702888
-0.027712464
-0.033484228
0.008151675
-0.0051902034
0.010344191
-0.07818024
-0.053584017
-0.021679115
0.03124324
-0.016556945
-0.049633283
-0.0021699828
0.04276685
0.063554764
-0.12285663
-0.047092695
-0.04146746
-0.016304402
-0.031875238
0.002525161
-0.06800288
-0.008497559
-0.07918586
-0.0789836
-0.05424636
-0.015301011
0.02607401
-0.06741643
-0.024068588
-0.05908706
-0.01836632
-0.0075880894
0.019686513
-0.067391425
0.04836078
-0.057562243
0.05320862
-0.04136001
-0.050157063
0.001479303
-0.014418896
0.051495012
-0.038865395
0.02547769
0.060016494
0.022472356
-0.07645229
-0.093820505
-0.05671768
0.037605025
0.018618131
0.04800154
0.018559314
-0.0017357313
-0.009152658
-0.08355808
-0.012246779
-0.025695616
-0.0585805
-0.040765777
0.016764836
0.00861332
-0.007572014
-0.05649881
-0.04889216
-0.054471605
-0.049298026
-0.102578886
-0.0100228265
0.012083606
0.048601657
-0.06317516
-0.030184967
-0.010730015
0.031115504
0.028906599
-0.0779427
-0.00015549592
0.026962502
0.020702211
-0.074431404
-0.048223995
0.04770823
-0.06456342
-0.053469207
0.008671022
-0.0011502954
-0.056288786
-0.04859001
-0.07427986
-0.02132759
0.028454117
-0.014215788
0.03362714
-0.03311237
0.00586028
-0.020619266
-0.057363775
-0.049896527
-0.027372748
-0.02536783
-0.012321576
-0.0038617258
0.0068067736
0.05297565
-0.055730287
0.026120093
-0.0060973433
-0.011619704
-0.07602087
-0.053965915
-0.059971157
0.052223228
-0.04044717
0.044208128
0.053790063
0.034586653
-0.02586363
0.0044522127
-0.025975734
-0.06962063
-0.092625245
-0.03045574
0.023291776
-0.010513144
-0.075550854
-0.012659661
-0.038178597
0.006124539
0.05417815
-0.0653067
0.019643355
0.022814395
0.014017862
0.089045346
-0.095460534
-0.026278963
-0.016083712
0.038745724
-0.010154212
-0.029713273
0.047309063
-0.001270687
-0.08313817
-0.018921297
-0.02720046
0.037583444
-0.015631704
-0.045016307
0.012953961
-0.05017238
-0.007882991
-0.0050944863
-0.03239796
-0.024845535
-0.034307767
-0.06534725
0.028082991
-0.0002330373
-0.037147544
-0.08146268
0.015673803
-0.025721777
-0.06756991
0.014911931
0.03052803
0.044391945
0.09329695
0.017368356
0.049712945
-0.098707154
-0.006054039
-0.029813847
-0.0302836
-0.00424333
0.05128493
0.03796794
0.04470923
-0.074287504
-0.054763805
0.026215682
-0.058289748
0.032790717
-0.015517243
-0.016257323
0.030893208
0.042095046
0.05513591
0.014218949
-0.0468994
-0.045353092
0.037676513
-0.046874043
0.04520048
0.03988925
0.051101465
0.046045873
-0.043112937
-0.027426263
-0.05469324
0.04658419
0.02270496
0.050511394
0.05140777
-0.105832115
-0.10047816
-0.01849199
0.027014643
-0.0071127377
-0.020018883
-0.12067254
-0.06796116
0.0017674229
0.039099135
0.016872607
-0.10952076
-0.029532913
-0.0036741958
-0.016155751
-0.11642551
0.1040572
-0.048328627
0.08596645
0.12351979
-0.03708881
-0.05925822
0.1159509
-0.08572122
0.09170911
0.0023429098
0.089971855
0.0058676586
-0.124262884
-0.071190245
-0.5110829
-0.14760275
-0.8540479
-0.022324003
-0.32897827
0.042386107
0.03238304
0.020191357
0.033464905
-0.0538086
0.028241977
0.115847796
-0.090243146
-0.019698791
-0.11539473
0.027350966
0.015525228
0.051648058
-0.060044307
-0.18884107
-0.0075094863
0.09863905
-0.13513082
0.046698775
-0.006298968
-1.8792658
0.033958763
-0.20769979
-0.19426584
0.034452558
-0.40358543
-0.03424036
-0.017857982
-0.07481857
-0.05019571
0.0050079213
0.17815092
-0.089299984
-0.21844512
0.020007191
-0.14866853
0.07194398
-0.10536218
-0.24981171
0.09589267
-1.2013676
-0.21003342
0.10980948
-0.15431696
0.057335965
-0.79162997
-0.202044
0.24579549
-0.055514902
-0.021359006
0.09888138
-0.05767016
-0.25429785
-0.14610869
0.009931798
-0.16216405
-0.031768292
0.12565152
0.0008002151
-0.020452097
0.12775737
-0.007217096
-0.19706258
-0.12792136
-0.039037123
-0.25786448
0.03954843
-0.03852422
-0.056881562
-0.049263563
0.022355843
-0.155926
0.050031487
-0.037869025
0.03436747
0.12263289
-0.09922954
0.01038001
-0.016687665
-0.07822253
-0.15235557
0.033364926
-0.032458182
-0.3512755
-0.07141307
0.093605354
-0.40304708
0.25334823
0.11935541
0.2905262
0.13710661
0.014223738
0.02233267
0.049365416
0.008686499
-0.25250387
-0.0059429086
-0.08994239
-0.03544254
0.06749663
-1.1126527
0.022254255
-0.029077824
0.014867045
-0.07446489
-0.053032067
-0.19698423
-0.14159492
0.021319635
-0.016679559
0.09619647
-0.098442614
-0.040155817
0.0111979805
-0.03687006
0.06424589
0.13339931
-0.021909434
0.058381695
0.261351
-0.16711238
-0.49675676
0.025567
0.15143846
-0.019280868
-0.13214016
0.06112988
-0.4297983
0.16405053
-0.03765148
0.06115356
0.023247734
0.040165145
-0.014893426
-0.17342138
0.038242154
-0.19255692
0.074777305
0.01413633
-0.05693497
-0.19933483
-0.13778065
0.277928
-0.2750291
0.028474797
0.08283531
-0.002733772
-0.087192066
-0.16575539
-0.39165926
-0.11027482
-0.011667494
0.061359968
-0.01610409
0.080830395
-0.0634288
-0.25307667
0.03502946
-0.20989363
-1.036189
-0.049605407
-0.20339721
-0.1377328
-0.040007927
-0.26466575
0.052900422
-0.024799103
-0.035304904
-0.08050878
-0.019287191
0.023982488
-0.5452278
0.018560622
-0.024583409
0.042702626
-0.2545867
0.051301483
-0.048994165
0.0143059855
-0.043345556
-0.010301245
-0.09994
-0.0013643905
-0.018214708
-0.028799325
0.003128443
-0.0904973
-0.037700076
0.010198391
-0.03266805
-0.042554215
0.02347159
-0.032229815
0.033482194
0.03390025
-0.011375749
0.018773753
-0.10511642
0.023799721
0.027505465
0.014370067
-0.05721589
-0.10152981
-0.056263316
-0.08085782
0.011870297
0.049072236
0.01003175
0.0035144147
-0.05150307
0.0071709882
0.019811299
-0.07034463
0.012706993
-0.044675466
-0.033120617
0.012022983
-0.09057208
0.0007198995
0.031659562
-0.05612767
0.045459975
-0.071470246
0.010441257
-0.092532076
-0.073243156
-0.055460867
-0.047922704
0.0013778957
-0.051702604
0.016998291
-0.003008307
-0.13340166
-0.020574747
-0.0424292
-0.02032219
-0.0023651372
-0.023391098
-0.043491613
-0.03183871
-0.015009813
-0.10193276
-0.065730624
-0.0586427
-0.03321906
-0.036414143
0.004077489
-0.048921954
0.02983317
0.025491176
0.026495209
-0.010022188
-0.043702237
-0.04997987
0.011976866
-0.00048294978
-0.04886696
-0.028954595
0.014335177
0.052487873
0.04458744
-0.061295837
0.01670962
-0.023250397
-0.0069877785
-0.077334665
0.008782373
0.017477524
0.0074626775
-0.06274007
-0.042237304
-0.035469197
-0.054428868
0.038857624
-0.013690957
0.031912677
-0.110567145
-0.12803754
-0.098549075
0.046602678
0.004215737
-0.10950896
-0.020085933
-0.06959979
-0.037540607
0.0065829195
-0.0850621
0.035172105
0.0063699447
0.01698621
-0.05441112
-0.017539613
0.04184387
-0.016976561
0.031926632
0.04245069
-0.029514931
0.0601055
-0.041531224
0.051247515
0.034944467
-0.07460701
-0.09043402
-0.040194023
-0.064017184
0.06934203
-0.073081866
-0.07208336
-0.08283451
0.057854094
0.049551327
-0.09956029
-0.0052787946
0.0027553998
-0.04731302
-0.035594184
-0.032699104
-0.02125247
-0.041275334
-0.05312053
-0.08427982
-0.059923287
-0.07111663
-0.03940809
-0.068375915
-0.06433459
0.037988946
-0.012625888
-0.042678516
-0.0394693
0.04718482
-0.059755035
-0.006786753
-0.06902545
-0.054539315
-0.0054124524
0.04705671
-0.019080702
-0.09890349
-0.0047936067
0.03103203
0.018079506
0.0044854726
-0.054320425
0.009128097
-0.067436084
-0.023830606
-0.11190422
-0.05880244
-0.121126905
-0.023157518
0.040275753
-0.03771105
-0.033393163
-0.04282673
-0.039539736
-0.024744045
-0.0035574816
-0.056760952
-0.0633597
-0.052511662
0.017258905
0.025517756
-0.08146574
0.012066785
-0.019765584
0.056766123
-0.06664505
-0.047470808
-0.06524698
-0.029779049
-0.057773948
0.028552646
0.013709136
-0.11353242
-0.0012091602
-0.051127527
-0.00609542
-0.06397868
-0.041858394
-0.06241071
0.017868118
-0.08735211
-0.0036424499
0.015501252
0.014045242
-0.06595416
-0.082121156
0.038651433
-0.044078887
0.007765778
-0.0040901047
-0.05420664
-0.0857624
0.051595222
0.0122756455
-0.070232034
-0.07077359
0.04848835
-0.055790324
0.010940388
0.020580104
-0.07727821
-0.03818969
-0.061290585
0.03875799
0.041278288
0.010913119
-0.006653811
0.05326209
-0.026466874
-0.0593043
-0.0031698956
0.030301545
-0.007839419
-0.018064411
0.032719284
-0.07690021
0.015521694
-0.00029288186
-0.041429188
-0.043196935
-0.01916085
-0.009783102
-0.12190368
0.0077684154
-0.024465227
-0.070313364
-0.05160476
-0.05876274
0.03445565
0.07242363
-0.009205798
0.031095091
-0.06515474
-0.033642147
-0.008616669
-0.022337308
-0.0050035226
0.006103413
-0.025136242
-0.005209705
-0.07029828
-0.07302469
0.036484312
0.04817789
-0.00843138
0.02513999
-0.07039918
-0.005847921
0.055623237
0.011261475
-0.011571774
0.03833883
-0.08195221
-0.07766064
0.048876047
-0.0070540723
-0.052247066
0.001835337
0.054826535
-0.0061567267
0.051031414
0.04206138
0.022985464
-0.05413696
-0.035470493
0.0049378877
0.0019692539
0.026392424
-0.082722776
0.016004601
-0.03299341
-0.020478364
0.05247625
0.029861344
-0.03044199
0.013948025
-0.05151751
-0.07518225
-0.08061693
-0.053118147
0.0058726016
-0.026386207
-0.01773184
-0.058855116
-0.10697774
0.005143805
-0.032422084
0.03431283
0.039601214
0.021674285
-0.048162248
0.03513279
-0.012091108
-0.035850924
-0.016586991
-0.0051287636
0.026538962
-0.066839606
-0.019782506
0.03473016
-0.022274468
-0.074153386
-0.038585443
-0.07322693
0.025646707
-0.054518387
-0.013387754
-0.01175229
0.0502494
0.022764074
-0.06037353
0.044399932
0.013995327
-0.016022854
0.009161974
0.03627433
0.00010773581
0.0018397823
-0.07724037
-0.08501077
0.07988674
-0.014484524
0.03197587
0.016769174
-0.011328934
0.027738973
-0.0758131
-0.0060059116
-0.07051271
-0.11525977
-0.04025921
-0.06485916
0.02071379
-0.031651612
-0.024881598
0.0014268919
-0.064749345
-0.019372327
0.008590668
0.012053166
0.051573794
0.0407437
0.05450342
0.05197349
0.013652072
-0.101223834
0.007595031
0.04849956
0.031207701
-0.07659077
-0.052566927
-0.009703204
-0.05971474
0.014190879
-0.07373824
0.0027717322
-0.08720947
-0.018445587
-0.06176305
0.00059416937
0.055096783
0.010778893
-0.04597875
0.039998736
0.026835298
0.03197446
-0.02588065
0.036453996
-0.041732725
-0.102015056
-0.065993406
0.05520166
-0.06494163
0.05248311
-0.0057552513
0.05440326
-0.042415794
-0.03892941
-0.06366463
-0.0785336
-0.08946713
0.02987864
-0.05521475
-0.06129125
-0.03348521
-0.002949857
-0.02300806
0.033502035
-0.016250232
0.018552905
-0.058015812
0.022052413
-0.0012563942
-0.0066341665
-0.07440643
0.060504626
0.060296655
0.060009744
-0.038041987
-0.012205895
-0.04861965
-0.05815271
-0.046113808
0.0059493557
-0.074251756
0.013746709
-0.016948193
0.020860815
-0.07578228
-0.059020095
-0.06926778
-0.007846636
0.046226308
0.0005641671
0.00013652716
-0.023991534
0.00029764
0.008292412
0.019310746
0.018555142
0.011527322
-0.010117961
-0.0780783
-0.023932273
-0.080727555
-0.0683924
-0.097065695
0.0063489224
-0.067535244
-0.0155131975
-0.08798269
-0.10187845
-0.019517358
-0.022060754
-0.030794157
0.015856043
0.040938925
0.0066159703
0.05477098
-0.07310213
-0.023386445
-0.03598232
-0.0054782555
-0.01750462
0.02193971
0.0448584
-0.014089998
0.014165545
-0.045243453
-0.083993435
-0.021851743
-0.0020892438
-0.0848837
-0.046958927
0.010057092
-0.05099736
-0.05456711
-0.060030624
0.0121662775
0.00080435723
0.0522464
-0.026779862
-0.02573372
-0.064899735
0.0062944246
-0.04479738
-0.022101926
-0.025711136
0.05686811
-0.07194207
-0.04851511
0.0068908962
0.030872235
0.048908543
0.062730566
0.021641906
0.0037023996
0.008555071
0.013439551
-0.048207507
-0.039162796
0.017352853
-0.06699082
-0.027097378
-0.04564932
-0.024069013
0.024051463
-0.027728308
-0.018822191
0.01189908
0.006630764
-0.0018174857
0.024177635
-0.05515474
-0.012920229
-0.032534044
-0.0012831064
-0.002319849
-0.058029853
0.0358255
-0.004660075
-0.11171056
-0.051398452
-0.026187453
-0.021434799
0.0022407307
-0.0658766
-0.051179506
-0.012004308
-0.02436465
0.049409032
0.013950014
-0.024714638
0.0008353398
-0.038244117
0.047462273
-0.06028242
-0.055059325
-0.07833045
0.014393117
-0.04996246
-0.06829299
-0.0016851912
-0.05803342
-0.05528458
0.019143974
-0.062888615
0.013369421
0.011567251
-0.085922234
0.040270574
0.03440122
-0.05448753
0.009749687
-0.0009696439
-0.044941645
-0.008566364
-0.03755702
0.017821964
0.009525759
0.05935582
-0.049584705
0.021364825
-0.057300065
-0.051419362
0.02894504
0.045372218
-0.011930341
-0.09723091
-0.06540998
-0.043506082
-0.027543275
0.004475192
0.012076073
0.0069653094
0.046089172
-0.008394214
0.03310588
-0.04494586
-0.046270017
-0.09519408
0.029651543
-0.015006334
0.00019751357
-0.07581807
-0.10074915
-0.012182331
0.011205609
-0.06828269
-0.05401518
0.05595958
-0.04309096
-0.038175303
-0.013302119
-0.11047297
0.08080516
-0.1268801
-0.031452376
-0.0030747901
0.05876031
0.21179684
-0.23882584
0.033645537
-0.005455673
-0.0038074194
0.04465244
0.13881473
0.30987245
0.03406053
0.06575491
-0.05201619
0.13948965
-0.066977695
-0.5713713
-0.07874879
-0.11317219
0.0043810317
0.16783637
0.038074426
0.059532724
-0.024637558
0.07045306
0.16942687
-0.0044944943
0.08502457
0.041588828
-0.09635835
0.34121758
0.2656627
0.043604378
-0.021892803
-0.036217246
0.11830483
-0.32902953
0.29201984
-0.088576876
0.015163552
-0.03677046
0.0152178425
0.23786739
0.03344376
0.03227096
-0.240327
-0.31260368
-0.16740187
0.0063193217
-0.039686233
-0.1353207
0.05278592
0.06908104
0.21279863
-0.017687257
-0.078984916
-0.30709454
0.05617361
-0.059537895
-0.10343442
0.07161193
-0.058768023
0.07098435
-0.084306926
0.008938163
-0.019875662
-0.020105785
-0.1481611
0.41970783
-0.05626156
0.08493163
-0.021115301
-0.064055696
0.08709941
0.216372
0.03938852
-0.043736916
-0.028730243
-0.017575616
-0.010283836
-0.42394137
-0.016576007
0.06290809
-0.062807344
0.013264018
0.24645601
0.011839165
0.06627486
-0.010821296
-0.0065139593
-0.112146795
0.011263946
-0.0123406425
0.16317339
-0.031391907
0.20491238
0.116359666
0.0682514
-0.09740902
-0.06646801
0.11993036
-0.18377249
-0.16419926
-0.13417405
0.029235905
-0.18364985
0.123239264
-0.139314
0.034049142
-0.0055411286
0.295549
0.07812022
0.2059133
0.20228997
0.015270575
-0.0014839998
0.1973479
0.0299166
-0.08156996
-0.015637914
0.24897155
-0.16934003
0.063759655
-0.0057446277
-0.080713175
-0.10957018
0.16505146
0.028157707
0.078622036
-0.21402894
-0.35709086
-0.018495316
0.013269068
0.06660704
0.07981027
-0.53771794
-0.028188448
-0.26763025
0.0048545324
-0.0214783
0.20369254
0.04109319
0.021260241
0.021275984
0.080566294
-0.12641856
-0.17479114
-0.0551499
-1.5165133
0.07736708
-0.025864225
-0.05431363
-0.16879402
0.10160664
0.18167125
0.043621827
-0.37224638
0.1983021
0.29402417
0.010430327
-0.06697464
-0.13928795
-0.18227969
-0.0833728
0.078666314
-0.070178
0.13282223
-0.007306609
0.05874315
0.18532123
-1.3392193
-0.06594935
-0.02332045
-0.052712448
0.08794102
0.16732335
-0.10795733
0.12671925
-0.053219214
-0.11886991
-0.01637322
0.045411788
0.019939322
-0.2645818
-0.060359623
0.056092463
-0.0029519107
0.06005642
-0.033369925
-0.14482623
0.056765255
0.056481536
-0.095212676
0.07100619
0.087146364
-0.13483608
-0.088230036
0.096991554
-0.035490263
-0.024176134
0.059158448
-0.02738611
0.017994571
-0.0239141
0.059830535
-0.050487746
-0.08205292
0.19030306
-0.059743132
-0.06812188
0.12504351
0.03309801
-0.00038143148
-0.01494714
-0.013892536
-0.0059898277
-0.18635856
-0.021634854
0.002299271
0.17894965
-0.14483328
0.21737003
0.10392124
-0.01611163
0.040865712
-0.018930586
-0.06326155
0.07520701
-0.11300309
0.21763748
0.033455387
0.2487003
0.0007999353
-0.0181445
-0.010567484
0.010578277
-0.07967821
0.12172192
0.021858213
0.0010382932
-0.03433378
-3.9529765
0.08768825
0.028564204
-0.13115638
-0.0042978744
0.013908172
-0.030175969
0.055519022
0.06167166
0.0068926765
-0.037117444
0.07713017
0.14769186
-0.031505708
0.015762186
-0.045650482
0.17133626
-0.062974826
-0.047428846
-0.091037005
-0.0011873009
-0.08225251
0.03613671
0.033642806
0.0016711478
0.023670916
-0.05190793
-0.09569968
0.1397676
-0.061978135
0.112412624
-0.024509186
-0.12057171
0.11813323
0.0875378
-0.059628308
0.018307745
0.03193893
-0.082814515
0.0039625396
-0.07601936
0.0028965382
-0.04144139
0.018891199
-0.15528871
-0.41303867
-0.01826387
-0.022087993
-0.04271596
0.024543386
0.017709786
-0.26635706
0.037961304
0.00601894
0.014993395
0.00278159
-0.018241648
0.048732407
-0.0025182122
-0.16834594
0.12297394
0.03674908
-0.038889542
-0.14108334
0.09615007
-0.03804647
-0.056199964
0.15877841
0.058148775
0.120007105
0.09691048
0.08007124
-0.028544175
0.06040179
0.049726397
-0.10959677
-0.035121292
0.076930426
-0.031991646
-0.011351837
0.011714214
-0.00068166613
0.005022726
0.11509302
-0.14970948
0.08264681
0.10650315
0.089483365
0.010392052
0.018324504
0.10195829
0.10301096
-0.04015097
0.05210757
-0.077485
0.073390484
0.07319293
0.16139665
-0.0050883344
0.023331616
-0.0979472
0.005667402
-0.04886802
0.13033889
-0.02632232
-0.026051663
-0.018015467
-0.13001646
-0.041434903
0.01255059
0.029607706
0.053742275
-0.17263854
0.06585582
-0.07303319
0.07480872
-0.082544826
0.08288179
-0.011415539
-0.011515034
-0.05342964
0.03990111
0.0575199
-0.07764176
0.20348653
0.023645418
-0.19062015
-0.023121549
-0.053161047
-0.0011620852
-0.038567543
-0.0011745727
0.058935508
-0.059761424
0.117319204
0.039811537
-1.4445823
0.02949372
-0.14990757
-0.12175336
-0.09722386
-0.09686235
-0.08246544
0.0059532966
0.00041383912
0.027290074
0.0884111
0.13941474
-0.052154828
-0.050636385
-0.021337163
-2.0435216
-0.05441753
0.019623829
-0.1462721
-0.051538542
-0.081810005
-0.11476343
0.054415293
0.033305366
-0.2102701
-0.02575606
-0.013225312
-0.032713745
0.168952
0.079757646
-0.025704045
0.024299687
-0.013243242
-0.01565068
0.08353475
0.012134197
0.03788286
0.24621466
0.024908105
-0.13516383
-0.04789602
0.021704046
-0.12780453
-0.06411782
-0.18716994
0.066558115
-0.10061642
-0.013575208
-0.00013028926
-0.12629314
0.0411886
0.040978897
-0.06087322
-0.05387941
0.07660301
-0.03347266
-0.01941994
-0.019561702
0.029120818
0.059263352
0.037296765
-0.17612194
0.05066771
-0.0027927223
0.21920493
0.07552022
-0.054984745
-0.03541494
0.061501354
0.023398796
0.017206695
0.094159506
0.13063334
0.092655405
0.09105595
0.0037299807
0.09367964
0.07534465
0.14689003
-0.095144995
-0.06346207
-0.11016495
-0.07725661
-0.012944384
-0.08693517
-0.04983114
0.00077610125
-0.17467123
0.03895507
0.17296001
-0.10986371
0.1247237
0.02479725
-0.13509586
0.07121451
0.12050541
-0.11877363
-0.18197273
-0.08346842
-0.2536134
-0.05666988
0.01884134
-0.06377914
0.029216306
0.14292452
-0.019044364
-0.0405526
-0.20237787
0.012252656
0.10905061
-0.02800352
0.004103985
0.03992817
-0.029712442
-0.021979097
0.24607714
0.3181688
-0.030085512
-0.026666686
-0.006647004
0.046699014
-0.0522428
0.010369363
0.0023645642
0.026409298
-0.07728249
0.16770831
0.009336391
-0.12979898
-0.039281204
0.16624643
0.02191197
-0.02248677
0.033629116
0.091759786
-0.1253928
0.002765973
-0.053885397
0.0023726516
0.0683525
0.026073776
-0.36502478
0.01897505
-0.07385556
-0.021725222
-0.052482698
0.14152035
-0.09385001
0.22477823
-0.0004162654
-0.37803906
0.07667898
0.038324542
0.023746116
0.08790311
-0.13219
0.037915017
-0.19181909
-0.078723386
-0.010446041
0.045509838
0.10537259
0.042248562
0.0056976234
0.04426479
0.19346187
0.01809687
-0.2935058
0.23252387
0.017044611
0.040253434
-0.052579746
-0.047239713
-0.00223782
0.113418356
-0.080513254
0.22441639
-0.07563976
-0.06782087
-0.056906562
-0.06310023
0.040456697
0.030507166
0.07537466
0.062788025
0.015338898
0.30343813
0.17943437
0.14325324
0.08951101
-0.009585149
0.019592632
-0.009521449
-0.018158197
0.14080212
0.053859994
0.02802441
-0.1854762
0.063330404
0.0027777236
0.16025373
-0.02191702
-0.0039801663
0.09865292
-0.041497156
0.05800951
-0.051438235
-0.0011882134
-0.19554316
-0.07066866
-0.029408585
-0.100763224
0.015968284
0.063322365
0.082089804
0.08488775
0.22205253
0.1630046
-0.052700695
0.02365307
-0.035471693
-0.02054907
-0.0666006
0.000747812
-0.01013574
-0.057753656
-0.03545529
-0.024874745
-0.010119873
0.015800467
-0.067041345
0.009895596
0.03547854
0.037528202
-0.052963607
0.025466004
0.050200835
-0.037081596
0.008838891
-0.08207285
-0.054573953
0.023539454
0.062672995
0.043472867
-0.04373806
-0.026145069
-0.008368642
-0.07649932
0.014280312
-0.06947589
-0.015414083
-0.00796981
-0.05348007
0.04425951
0.009585783
0.054265734
0.05178741
-0.014765347
0.024580294
0.0019919442
-0.032305904
-0.024327092
0.037690636
0.018670604
-0.04712283
0.04253439
-0.039775815
0.0013099271
-0.023560181
0.046123695
-0.06353079
-0.027364466
-0.018345088
-0.008691197
0.046778984
-0.0189026
-0.029209813
0.022429856
-0.015116725
-0.003986981
-0.092778265
-0.06464934
-0.017481726
0.0020155394
-0.04252658
-0.08017841
-0.003367312
0.05182338
-0.020193908
-0.04874958
-0.018077448
-0.03377463
0.060189046
-0.09510872
0.05686096
-0.045012187
-0.053955916
0.04813447
0.030004743
-0.082198285
-0.03401091
-0.077371895
-0.076601736
-0.042377926
0.026117818
-0.030030066
-0.06946284
-0.010662884
-0.052719295
-0.04551976
-0.004608443
-0.007067366
-0.050797213
-0.040337663
-0.06773306
-0.08202478
0.018939255
0.048526604
0.000999898
-0.0052676215
0.041109897
-0.08282047
-0.059778243
0.023556206
-0.018546304
-0.041440208
-0.058903012
0.024007503
-0.035233926
-0.05588745
-0.048583347
-0.071977735
0.008040941
-0.07690183
0.037101157
-0.07288322
0.009362853
-0.04164009
-0.018798025
-0.0039340183
-0.079414636
-0.070879735
0.037764188
-0.021792376
-0.0055830064
0.013755504
-0.021211646
-0.108874895
-0.056009855
-0.028210118
-0.010757213
0.01593353
0.014344741
-0.070194714
-0.05602428
-0.055140622
0.06600766
-0.004414826
-0.07932365
-0.0071136313
-0.016814496
0.040092845
-0.0841561
-0.015738111
0.0033372506
-0.06046707
-0.031986486
-0.038078398
0.00829358
-0.056403477
-0.028308814
0.029729985
0.022792915
-0.045745235
-0.08147946
-0.029037714
-0.09461667
-0.01225043
-0.028789518
-0.08955335
-0.09907188
-0.0127605805
-0.06308916
0.0069314
-0.021416469
0.03325463
-0.1134095
0.014892964
-0.00820961
-0.055277213
0.02434575
0.024520619
-0.022701256
-0.01386184
-0.0045171897
0.048610885
-0.037252266
-0.06658863
-0.016586196
0.005996304
-0.014986598
-0.044216916
-0.060471196
-0.04308901
0.026655184
-0.007833641
-0.06299061
-0.053175025
-0.006349762
-0.09646707
0.0004859657
0.050781786
0.01844045
-0.066128306
-0.0060778954
-0.012464961
0.004320347
-0.01937192
0.05002515
-0.034389842
-0.05235965
0.030860508
-0.0012158547
-0.015502434
-0.17292923
-0.13124357
-0.32964626
-0.051589403
0.3088928
-0.033307217
0.111772254
0.108993545
0.096856065
0.17963009
-0.031076156
-0.022816617
0.055274904
-0.19415365
0.06526135
-0.004600706
0.014679684
-0.45047507
0.16806741
-0.06991604
0.03309554
-0.016690016
0.042875163
0.07985887
-0.01692438
-0.08415703
0.0313372
0.085096054
-0.1393142
0.2638107
0.14438137
-0.0864613
-0.057030655
0.22943577
0.15813893
0.36689433
0.08000462
-0.049175423
-0.027665962
-0.049207494
-0.68746483
0.022228997
-0.020728126
0.11397288
0.052915152
-0.11747059
0.06386106
-0.11923558
-0.05648542
-0.16667022
-0.07762314
-0.014581804
0.27778214
-0.042444117
0.023874559
0.03914709
-0.13495949
-0.066747494
0.1373541
-0.03767865
0.009585993
-0.030521533
-0.038134053
0.11557632
0.058907397
0.05502434
0.07675671
0.17584811
-0.07635731
0.0008040055
-0.15630579
-0.047691435
-0.08906529
-0.017851027
0.055896625
0.1443712
0.04391089
0.08260159
0.016206007
-0.37731835
0.14820732
-0.16298155
-0.17986938
0.13888733
0.25325704
0.17387605
0.0021719409
-0.06150889
0.007196176
-0.05586685
-0.02354628
0.5022062
0.2339453
-0.028717775
0.22931749
0.066707514
0.009300168
0.020167423
-0.00052726595
0.07330934
0.02535812
0.16435587
-0.08540672
0.11484138
-0.16516456
-0.057343032
-0.24855103
0.016902223
-0.048512004
0.35925588
0.05260481
0.15699917
0.020738846
0.09510203
-0.013248429
-0.11881186
0.05167858
-0.019097418
-0.0057091797
0.034404505
0.0057047154
-0.032765444
-0.0490541
0.10801021
-0.29972202
-0.10852391
-0.04387897
0.019525161
-0.060350567
-0.5456457
0.01004868
-0.2175625
-0.003566846
-0.036538802
-0.09820146
0.06459337
-0.19935282
-0.07950049
0.07186884
0.2979857
0.18937106
-0.34454077
-0.0007686689
0.3056956
0.1318821
-0.14477989
0.039744668
-0.38219646
-0.12282499
-0.06589239
-0.094847366
-0.072173126
0.18175036
-0.04313162
-0.032720223
-0.010960693
0.08816106
0.18735528
0.010705119
0.02497381
0.058250286
-0.017457452
-0.06569577
0.13989937
-0.09049052
-0.42778563
-0.1268577
-0.045768753
0.0112354085
-0.5739615
-0.08688237
0.0076467255
-0.007147509
0.07800159
0.06828544
0.045613356
-1.0582693
0.06752296
-0.0795674
0.18400544
0.08724019
0.19081385
-0.41781938
-0.053111568
-0.32480747
0.024815898
-0.16074635
0.013467019
-0.259001
-0.06189687
0.12435238
-0.295767
0.21886788
-0.0022687104
-0.04454194
-0.16877285
-0.066815235
-0.05683136
-1.8056213
0.051014557
-0.017920852
-0.03157558
0.0296004
-0.015065359
0.047446642
-1.3373642
-0.03645239
0.115446694
-0.20169875
0.06080357
0.0064220736
0.049432177
0.033736125
0.008384145
0.06652365
-0.005463254
0.08315285
0.01723509
0.023689318
0.024773384
-0.08848605
-0.028647134
-0.1798067
-0.034013174
0.03478243
0.05587909
-0.044568323
-0.053751007
-0.06630293
0.10574304
0.009818899
-0.93664163
0.04322948
0.04394706
-0.37584963
0.041769125
-0.024607256
-0.3051411
-0.04588164
-0.025939798
0.002348475
0.09636077
-0.29555467
0.040544275
0.13117118
-0.7900636
-1.1030545
-0.011298829
-0.11366844
-0.03550601
-0.070092015
-0.021255065
0.009169257
-0.0024537572
-0.11266952
0.044426482
0.007008177
-0.006668042
0.124870524
-0.34182033
-0.52752733
0.02546695
0.0041176663
0.07018034
-0.11989913
-0.058823157
-0.35690448
-0.055433795
-0.0795985
-0.06358597
0.12964736
-0.76504976
-0.25837147
-0.18502858
-0.02708568
-0.054102197
-0.007789936
-0.17470627
-0.0244779
0.006066451
0.0068882396
0.14792888
-0.69938666
0.0050432673
0.13388622
0.045708273
0.032573577
-2.6521046
0.045463677
-0.059277058
-0.06626573
0.066419736
-0.0860999
-0.049670003
0.035362843
0.042633347
-0.33450085
0.102236964
0.019797517
0.12139196
0.017082898
0.06483377
-0.00639999
0.04667074
-0.0071831574
-0.5428933
-0.0012252069
-0.07051083
-0.017593302
-0.2029126
0.058732633
-0.05452859
0.2052752
0.014433205
-0.039533775
0.12361547
0.02326124
-0.03725976
-0.0054788482
0.017237166
-0.35317004
-0.005065378
-0.107389234
-0.03614888
0.005193536
-0.06093515
-0.0835819
-0.15763552
-0.024668282
-0.0141015295
0.03982864
0.0152824605
-0.030446222
-0.46899253
-0.42435288
-0.05614044
-0.0042976155
-0.16599105
0.05896959
0.17938648
-0.16433166
-0.0046244967
-0.010365405
-0.033099584
-0.00038224822
-0.030257456
0.05973594
-0.38522348
0.011203136
-0.0549278
-0.16558407
0.008796332
-0.6141166
-0.006210427
-0.019173823
-0.032445103
-0.13074079
0.030071594
-1.2822031
-2.1877038
-0.04115163
-0.32074183
-0.21634941
-0.0022757186
0.14238347
-0.021228714
0.05847998
0.0009051544
0.24622265
-0.32842553
-1.2918805
0.026910678
0.065088704
-0.48436046
-0.008361471
-0.013961296
-0.008293078
-0.06343225
0.0067526596
0.008086386
0.069537975
-0.08560388
0.008741804
0.06302101
-0.055634353
-0.16750404
-0.05839193
-0.08628897
-0.017507436
0.013832524
-0.03819687
-0.09251132
-0.004596888
-0.03234588
-0.27490008
-0.53996474
-0.048809264
0.14588554
-0.0037863993
-0.0072638416
0.038302716
0.024392134
0.005165495
-0.032604817
-0.035138622
-0.013206391
-0.015049704
0.006801971
0.12314506
-0.026061978
-0.0032135271
0.053395614
-0.03892952
-0.008247339
-0.010963413
-0.18012938
-0.01703103
-1.8450748
0.1029193
-0.048037566
0.05720234
-0.079723775
-0.017146345
-0.073467955
-0.0053945817
0.005257053
0.1169606
-0.083443984
0.06725955
-0.03812174
0.08223893
0.00092844566
0.0009255809
-0.019322786
-0.9741482
-0.054926943
0.00412892
-0.013656826
0.06542115
-0.01876743
0.009897753
-0.066954575
-0.59073615
-0.24180543
-0.07367155
-2.4859245
-3.3056397
0.042753935
0.06342008
0.045886416
0.032942474
0.027593281
-0.08828631
0.0054859975
0.13454787
-0.42388722
0.0065164044
0.022150416
-0.4013078
0.3322156
-2.8717039
-0.1494157
0.017032562
-0.025575053
-1.2094264
-0.028076267
-2.0323083
-0.49427447
-0.021200486
0.060750663
-0.06277593
0.006846189
-0.04125737
0.0050469474
0.046281192
0.039636962
0.005343647
0.014982265
0.02036602
0.024714025
0.084891506
-0.26712847
0.0046183052
-0.006801755
-0.05462543
0.00031498654
-0.026381996
0.0012862589
0.032042414
0.06115823
0.062205154
-0.028159356
0.073522404
0.042523745
-0.13015449
-0.0648971
-0.5249905
-0.06306956
-0.023082264
-0.17046829
0.014852903
-0.033680554
0.013338784
-0.008740809
0.030862907
-1.430138
0.005137753
1.6204787e-05
0.015103831
0.015192074
-0.13954638
-0.031031048
-0.06068028
0.073408455
-0.016885597
-0.09201319
-0.046892535
0.08585025
0.005607446
-0.01838095
-1.8801987
-0.020154895
0.020912085
-0.0151798725
-0.025427718
-0.22928232
0.15490164
-0.011741429
0.0104784295
0.020432983
-0.19178076
-0.3670257
0.0035216885
0.026279327
-1.0509187
-0.09248564
0.022703063
0.08259717
-0.06881004
-0.47450674
-0.028303633
0.0032706037
-0.019028692
0.05333213
0.13481483
0.016624745
-0.052102514
-0.21917622
0.011804228
0.036119502
0.1722314
0.014403034
-0.061174322
0.054584038
-0.0038306152
-0.02069444
0.06709299
0.06710177
-0.012491917
-0.004145488
-0.067576736
-1.1846792
-0.022374574
0.030604163
0.050089337
0.073020376
-0.019587098
0.030643467
-0.22446366
-0.13391541
-0.042602926
0.020433914
0.0092048235
-1.6744703
-0.009986598
0.03711885
-0.056097865
-0.06868029
0.004370656
-0.06635311
0.04406216
-0.040535703
-0.009610519
-0.0072873454
-0.3212581
-0.0066807424
0.057137396
0.07355211
0.13997895
-0.01010713
-0.045985628
0.12145474
0.0013667726
-0.0360128
-0.5454292
-0.33494774
0.12057721
0.17041397
-0.021385279
0.026933162
-0.023010584
0.025219167
-0.04710049
0.020859824
0.067583114
-0.0140675185
-0.04811125
0.32970226
-0.05693574
0.041082267
0.035260744
0.0141783
0.016479077
0.10616224
-0.019513944
-0.2743536
-0.08430661
0.0061358786
0.02009016
0.041213635
0.0072508743
-0.0048157065
0.065702684
-0.018173687
-0.016435724
-0.044076756
-0.10160558
-0.05900558
-0.015530122
-0.045624226
-0.11150659
-0.21395466
-0.05962799
-0.0014199611
-0.42823243
0.047477517
-0.01288992
0.040986106
-0.009635291
0.019425081
0.1268665
-0.5172591
0.06902394
-0.23366967
0.07361822
-0.087710984
-0.009182668
0.08345658
0.03924834
-0.27973056
-0.11683193
0.2619833
0.09448317
-0.7964826
0.013593547
-0.01179967
0.05868519
0.106766805
0.0821667
-0.39103726
-0.030920431
0.16460766
0.05456006
0.23478644
-0.099343225
0.10356745
-0.026978597
-0.08857624
-0.07935703
-0.025829451
-0.021511897
-0.0186458
0.07616195
0.2186737
-0.1748946
-0.17684208
-1.8836449
0.1215274
-0.022377526
0.05164108
0.25657892
0.02666368
0.018579211
-0.522998
-0.07931535
0.04106784
-0.02231484
-0.09421912
0.0021967818
0.0039980807
-0.008211992
0.16722767
-0.3377308
0.05369916
-0.13453124
-0.10847231
-0.28529504
-0.050749023
-0.0050400314
0.11469157
0.07308345
0.15668084
-0.0063064727
-0.22746974
-0.705356
-0.5220979
0.051673047
-0.0760004
-0.6212334
0.10825167
0.01165762
-0.35392037
-0.02023154
-0.05486522
0.038162965
0.0058404543
-0.0009307924
-0.3627607
-0.051686414
0.08527782
0.0013681224
0.0022157722
0.043073885
0.041015863
0.06101553
-0.0364316
-0.18734366
0.14814568
0.06361754
-0.16066734
-0.11614379
0.049512185
0.057077017
0.018240303
-0.12630188
-0.039617058
-0.05339279
-0.078119695
-0.069144525
-0.023894101
0.2079873
0.019652782
0.033078805
-0.16181423
-0.15039474
0.10745126
0.023663452
-0.11778794
-0.0103723975
-0.2240351
-0.249528
-0.007725557
0.22396733
-0.13338688
0.014752623
0.027973672
-0.18071447
-0.039589487
0.088154584
0.051237807
0.032438125
0.07274388
0.1310627
0.10697251
0.20408915
0.03568896
0.06597411
0.058378566
0.058937404
-0.4725432
-0.10143111
-0.011348871
-0.11598499
-0.46789265
-0.18915719
0.041575827
0.08411148
-0.007284741
0.07452259
0.0040135393
0.24126895
-0.042117763
-0.7919293
-0.050769158
0.07796186
0.06892901
0.10580979
0.0072483188
0.051671866
0.02733924
0.0019329619
-0.11460361
0.12289876
-0.08122641
-0.07284521
-0.13377927
-0.0783374
-0.11252547
-0.024684692
-0.0023899886
-0.02055378
-0.06579316
-0.044649817
-0.040491894
-0.0001598527
0.03985419
0.07353556
0.03122354
-0.028489446
0.03437288
0.050251644
-0.027920105
-0.0017152335
0.069788925
-0.017135043
-0.04290639
-0.10333441
-0.023574818
0.012001961
0.017625391
-0.039994843
0.01046215
-0.034107804
-0.0371893
-0.020513576
0.0193156
0.01809104
-0.015236273
0.011433178
-0.06523564
-0.077467225
-0.046112187
0.059958674
-0.13441135
-0.08907417
-0.04522416
-0.05875643
-0.10072931
0.014770324
-0.007420192
-0.06961071
-0.055563945
-0.024362061
-0.035524663
-0.045556694
-0.032355994
-0.014683651
0.084565885
-0.036148194
-0.13574244
0.055961687
-0.0617284
-0.0010534916
-0.042645495
-0.0059147156
-0.03718099
0.05712962
-0.11406098
-0.04224492
-0.03137256
0.024200758
-0.06961458
-0.06823325
-0.08555812
-0.08978799
-0.08226086
-0.023229215
-0.043325137
-0.06858268
-0.0009183007
-0.04432641
-0.15196379
0.025148345
0.014086795
-0.07120416
-0.06738588
0.002299173
-0.038267687
-0.061093334
-0.022250183
0.008372307
0.0017966896
-0.07904631
-0.056270022
-0.03544236
0.03711518
-0.057274014
0.035620216
-0.05027758
-0.012313421
0.08732765
0.04604133
-0.063672476
-0.027758528
0.024042225
-0.06896376
-0.015033684
-0.08314979
-0.02302727
-0.012426293
-0.039212108
-0.062144868
0.010831334
-0.06858108
-0.012619387
-0.059744436
-0.041198924
0.0049699773
0.015042222
0.047217853
-0.012613818
-0.019485302
-0.06988047
-0.055744015
0.004947661
-0.016359122
-0.09108026
0.14893061
-0.007036565
-0.012841312
-0.055556502
-0.002363545
0.021488683
-0.08178173
-0.01693538
-0.07030863
-0.08843144
0.020154215
0.010513954
-0.04179362
0.011960404
-0.05633198
-0.055522945
0.056315415
-0.014509274
-0.029863017
0.048803378
-0.060608383
-0.10191161
0.048622645
-0.034162898
-0.016276412
-0.093142495
0.06588777
0.04811661
0.021836318
0.039490122
-0.052883185
-0.10249879
-0.015935807
0.042630233
-0.036259945
-0.027408598
-0.06867878
0.04143851
-0.0728668
0.095516816
0.014770767
-0.081157036
0.03680473
-0.068779625
-0.07520443
0.058130126
0.062129308
-0.08797624
-0.094592094
-0.033464134
-0.059258394
-0.039915834
-0.06810846
-0.0062559177
-0.026498748
0.043069597
-0.016758326
0.01928668
0.008945592
0.024996761
-0.060551193
-0.088349566
0.042594615
-0.011766303
-0.06802122
0.06022014
0.018672224
0.021695087
-0.042633176
-0.013179061
-0.03414337
-0.0020778114
-0.11232393
-0.08904394
-0.049860217
-0.051524833
0.0015655039
0.036598478
0.017691104
0.10534505
-0.073218144
0.001136517
-0.026557865
-0.046395443
0.027748594
-0.17952913
-0.015477884
0.2448943
0.026307445
0.13798909
0.020532351
0.13534218
0.1294682
0.017805979
-0.039243232
0.03763017
-0.03027544
0.055944152
-0.10239038
-0.060642276
0.0012429119
0.052112523
0.09769558
0.056303445
0.070556685
0.0025016319
0.011114195
0.03499809
-0.099778
-0.07240787
-0.10797789
-0.006030361
0.06455945
0.097795114
-0.06375056
-0.054531455
-0.005354347
-0.1406009
-0.1056675
0.077867664
-0.119164854
0.0724061
0.009862398
-0.44447386
0.19520237
-0.04350331
-0.09526448
-0.14669935
-0.071075395
-0.013309019
-0.061461218
0.04066344
0.0022607578
0.004410303
0.10953443
-0.046216045
0.06642689
-0.17737181
-0.058797773
0.123245955
-0.0094067585
-0.04573785
-0.37957835
-0.014864539
-0.03990328
0.1593862
-0.097610556
-0.06360593
0.25257906
-0.06542712
-0.05385472
0.018582867
-0.0496606
-0.12909673
0.043982822
-0.09370034
0.04868684
0.01136467
-0.008900524
0.011202441
0.039389748
-0.012553089
-0.17502157
-0.12694865
0.15946889
0.1268991
-0.026060002
-0.1825214
0.0890554
-0.04377961
-0.004243071
0.023309706
0.15165435
-0.05693732
0.39179143
-0.040923763
0.07557257
-0.07547942
0.10153822
0.0257934
-0.019697275
-0.0037807308
-0.010153826
0.031563636
0.0015554291
-0.72021717
0.020373486
-0.077109896
-0.17677248
-0.055139147
0.0972299
-0.035666805
0.1813375
0.031232025
-0.018931996
0.0072801774
0.14986254
-0.04411778
0.20796941
0.065284915
-0.106812164
0.0808163
-0.13043386
-0.05778068
-0.0077736583
0.05058548
0.015790513
-0.05715371
0.21392336
-0.15515159
0.05452272
-0.11643514
-0.098825395
0.008063226
-0.059289068
0.01232522
-0.004529775
0.12364764
0.06286994
-0.06962862
0.0981662
-0.047159214
0.2670263
0.17857803
-0.060406238
-0.18574128
0.082036965
-0.07628433
-0.029580649
-0.044595286
0.2612192
0.11163095
-0.012117906
-0.28019515
-0.06895485
0.15659934
-0.06417959
0.01374069
0.016598606
0.3487487
-0.19961527
0.10883965
0.04061244
0.1811076
0.06544874
0.012193932
0.112551086
0.003708297
0.11362887
-0.08311638
-0.060216885
-0.011321153
0.024321917
-0.118108094
0.072251655
0.024476318
-0.048361994
-0.088198215
0.022358183
-0.27772102
-0.030479206
0.05468942
-0.19803385
0.06517268
0.18537669
0.003989863
-0.34446663
-0.03453485
0.017795814
0.16244394
0.12139089
0.032680895
0.0023281726
-0.045363147
0.31256247
-0.16136645
-0.07431079
-0.14128505
-0.010064597
0.15910397
-0.114794225
-0.22375597
-0.043634888
-0.092150524
-0.07221514
-0.180315
0.16692261
0.023577958
-0.27179918
0.012612654
0.010539252
-0.051503602
0.011086082
0.05936754
0.05649318
0.026799677
-0.42763188
-0.33759126
-0.024388004
-0.2727106
-0.035335
-0.040814508
0.013936202
-0.2439544
0.0007230861
-0.24567127
0.024068834
-0.07210123
-0.2425995
0.048392918
0.05342041
-0.00031106567
0.09646814
-0.037285857
0.041302126
-0.02604816
0.105109476
-0.08405869
0.040417332
-0.06462243
-0.23661305
0.04081328
0.06242465
0.093627326
-0.09119566
-0.014669537
-0.030371333
0.069674164
-0.097406596
0.13738203
-0.25453502
-0.42773244
-0.2968775
-0.04918985
-0.19648579
0.09562069
-0.09620038
-0.050523676
0.090715624
-0.4852406
0.07549657
0.026500402
0.20831756
-0.098998174
-0.04649625
-0.36236823
0.029818194
0.084276736
-0.43340737
-0.13320504
0.060578562
-0.01396827
-0.16460937
-0.035782244
-0.25792405
-0.19391716
-0.060711052
-0.020772899
-0.18188654
0.035967253
0.14262998
-0.2854727
-0.0596059
0.0892504
-0.006961871
-0.082550086
0.13838387
-0.06758889
-0.013245453
0.0644955
-0.067633525
-0.049697686
-0.11777705
-0.23188457
0.07234961
-0.15535927
-0.016967772
-0.046188988
-0.0015689919
0.081583306
-0.0530742
0.021869965
0.04588719
0.014772776
0.1736972
-0.13018388
-0.024941463
-0.05624771
-0.05292781
-0.39480376
-0.092537865
0.079668954
-0.034167238
0.05321298
-0.13557172
-0.08026285
0.022656042
-0.0051883915
-0.32883027
0.042714305
0.11574298
-0.042101435
0.0645161
-0.060087647
-0.021603707
-0.16125011
0.020357832
0.11428383
-0.034799978
0.12847319
-0.0718423
-0.12459529
0.081878655
-0.12416914
0.005522865
0.04454268
-0.016884096
-0.028129026
-0.024026494
-0.10275293
0.025497863
-0.039045114
0.037915148
-0.06147636
-0.19840883
-0.10434562
-0.15856896
0.07674857
-0.16710153
0.06299947
-0.019986384
0.117258534
0.020389505
0.051283315
-0.043881338
-0.04776327
-0.14292593
-0.09150394
0.08245601
0.011204374
-0.039632853
-0.40696508
0.094474964
-0.2104731
-0.065507054
-0.0278414
-0.14934185
-0.22860207
-0.09693262
-0.025296262
-0.45128182
-0.025656598
-0.04877883
0.05814409
0.0215144
0.023784172
0.06322516
0.041496873
0.032922152
-8.0336504e-05
-0.02369683
-0.27156517
-0.2743262
-0.07310298
-0.23289149
0.06439683
-0.0015756465
-0.07316158
-0.0072916066
-0.17397664
-0.06445057
0.037178215
-0.3920717
0.16471408
-0.22519681
0.11162404
-0.13529554
0.02873639
-0.08816268
-0.2616828
0.06544183
-0.005591342
0.031605966
0.14566009
-0.007966587
0.060589742
-0.008431608
-0.12421777
0.010208848
-0.04786663
-0.014724409
0.0955943
-0.083353944
-0.14724298
0.012904553
-0.067497276
0.0333514
0.07865178
0.06531972
0.035278056
-0.018527584
-0.06363605
-0.17248155
-0.084543705
0.14979577
-0.11484212
0.19359963
-0.018564746
0.028914437
-0.10618344
0.18208775
-0.14304306
0.012041494
-0.07771209
0.0496857
-0.0016838295
0.019136067
-0.0089983065
0.02483589
-0.05102936
-0.048946016
0.1369585
-0.022614341
-0.30035675
-0.19711404
-0.001606076
-0.03960528
-0.10561701
-0.029457785
0.04512959
-0.03227792
0.015845668
-0.009685214
-0.0058226595
-0.031113027
0.02918594
0.0153217325
0.026609413
0.020195838
-0.066284955
0.13342503
-0.010959873
0.14720686
0.03731053
-0.11448298
0.087757066
-0.4015348
-0.012833906
-1.4559143
0.043647632
-0.011690218
-0.011845615
0.17527044
-0.053995345
0.0029835526
0.2282383
-0.026013099
-0.024500368
0.27505547
0.031302795
-0.02920882
0.027105594
-0.021379469
0.0008352607
-0.26151714
-0.11668454
0.07027596
0.0016980951
-0.48889616
0.01643728
0.007681459
0.044769134
0.027293624
0.034884065
0.09745491
-0.09161066
0.029198373
0.021139745
0.12642437
-0.045707
-0.02393357
-3.1503544
0.009868717
-0.07663715
-0.02432501
-0.06869266
0.22133875
-0.012023969
0.04865697
0.043045286
-0.14310536
-0.086322136
0.031141102
0.12686765
0.022419443
-0.017289707
-0.08160218
-0.013526326
0.110079356
-2.1386201
0.10480455
0.029510736
0.009076875
-0.027364952
-0.0517998
-0.072498344
-0.09427635
0.06779066
0.040934533
0.19598065
-0.02162005
-0.0019183824
-0.020784454
0.18156064
0.24078521
-0.020822346
0.0080793
0.026433961
0.035322882
-0.018027348
0.10666195
0.022628402
0.024861183
0.07508538
-0.4628681
0.04836703
0.01275559
0.21058558
0.10401174
0.064178415
-0.0067017535
0.10324388
0.020300558
0.12966318
0.06986879
0.045537233
-0.013371121
0.09137403
-0.07064594
0.17616503
0.011725687
-0.018929267
-0.016016034
0.15250929
-0.020513484
-0.15177168
0.075294785
-0.53257394
0.018958846
0.30174235
0.10601864
-0.1104803
-0.041560523
0.023525257
-0.021380724
0.06979257
-0.038236685
-0.045305967
-2.2267392
0.22776403
0.033450063
0.24234079
-0.8033968
0.1783166
0.10609001
0.1053737
0.008852249
-0.38758367
-0.033102516
0.025190596
-0.0024592562
0.11162415
0.05153793
-0.02635335
-0.12805939
0.017864963
0.1912297
0.059035074
-0.29534703
-0.06236162
0.017034888
-0.007115278
0.07103086
0.11436965
-0.15657215
-0.30830574
-0.27199063
0.0066301012
0.04383698
0.1263164
-0.057750963
0.14309831
0.3274795
-0.017630544
-0.07378821
0.067295805
-0.09230903
0.112354785
-0.07585814
0.13195491
-0.16027315
-0.0054437392
0.0011978793
-0.06564308
0.009623689
0.054679576
-0.0450103
-0.059565954
0.004171834
-0.10425863
-0.06439604
0.046839457
0.049064826
-0.029875128
0.09250474
-0.00834307
0.12850037
0.05910099
0.08977801
0.16157496
0.06492603
0.044157397
0.02231772
-0.23129034
0.025824025
-0.05498341
-0.13758558
-0.1926334
-0.056499638
0.12576035
0.080152914
0.11817535
-0.09494591
-0.0465352
0.060546786
0.030946989
0.20499063
-0.095462315
0.039365314
0.13361585
-0.06613715
0.008148409
-0.47504544
0.05651368
0.007166201
0.12961912
-0.0220514
-0.048911333
-0.07594514
0.08973538
0.15891083
0.29669127
-0.023746498
0.2271875
0.019187229
0.34455952
-0.0064222733
-0.043519996
0.20425178
-0.045077663
-0.03613538
-0.029885044
0.0185387
0.27888504
-0.022870714
-0.26202407
0.12131026
-0.04844352
-0.11016397
-0.015790593
0.02014899
-0.01471961
-0.40847287
-0.10699819
0.06490544
0.29597035
0.035943616
0.1876499
0.0008274168
0.11793778
-0.21722269
0.011133494
0.02261853
0.038738843
0.016851187
-0.75627273
0.46184692
-0.13060704
0.16765684
-0.30102766
-0.14162867
0.13806933
0.23384626
0.10014102
0.015528403
0.07765433
0.072400734
0.012525746
-0.19346711
-0.040722873
0.23971662
-0.017964868
-0.06191306
-0.050470993
-0.027357528
0.04422352
-0.034646776
-0.2640767
0.18518762
0.42723885
-0.007907513
-0.22864333
0.051128626
-0.03155705
-0.08960787
-0.028274799
0.15946102
-0.089023754
-0.038245343
0.04761273
0.0837619
0.022473676
0.18947229
0.011126146
-0.3371737
-0.07520843
0.19294474
-0.008866001
0.5312587
-0.024063
-0.15968874
0.10231135
0.10063248
-0.51868796
-0.13591293
-0.054573208
-0.15293293
0.18404177
-0.21136238
0.11420735
0.15041938
-0.052976675
-0.09013183
0.005989379
0.1303114
-0.03663802
-0.01746919
0.15036978
0.14166108
0.39317808
0.17661357
-0.03695828
-0.086637765
0.04274217
0.057857305
0.03929792
0.036140874
0.04880352
0.069322616
0.19169253
0.036016293
0.18794155
0.011696339
0.12770401
0.03829586
0.02362063
-0.044661634
-0.07574262
-0.046758413
-0.0191812
-0.13350035
-0.06505297
0.007745927
-0.07175037
-0.10539575
-0.15087149
0.23927487
0.05982612
-0.009624376
-0.0699444
0.045009337
0.0070458837
0.02950195
0.037194002
-0.07932961
-0.019675475
-0.049388643
-0.022671655
-0.027072031
-0.030624498
-0.065037884
-0.057281535
0.0053382176
-0.06060996
0.0516201
0.01960825
0.04119127
-0.017478442
-0.083702184
-0.06916883
-0.050925575
-0.017684562
-0.06666292
-0.046209477
-0.055630054
-0.070365295
-0.023938406
0.050153736
-0.05462085
-0.06664667
-0.034009475
-0.101351865
-0.029569048
-0.053742286
-0.0479276
0.01912346
0.01938934
-0.018443702
-0.045715462
-0.05479682
0.0030578172
0.051044036
-0.01055952
0.0103212455
-0.061216194
-0.04691528
-0.01721578
-0.06308445
0.008452169
-0.048326995
-0.042740878
-0.034767255
-0.0055619045
0.045869447
0.033096716
-0.09983284
0.0248043
-0.036820218
-0.085353814
-0.09534676
0.034005366
0.045549143
0.015966685
-0.058045045
-0.028113123
-0.07113091
-0.05970108
0.031903114
0.018680958
0.0015382399
0.03292009
0.007365303
-0.027711878
-0.028115172
-0.015509213
-0.03014086
0.025418406
-0.015193405
-0.03532706
-0.10482728
-0.051414993
-0.058413304
-0.09057271
0.014578769
0.038945705
0.0052807583
-0.004401344
-0.036665194
-0.062731
0.05282239
-0.026852762
0.06735439
-0.015905155
-0.06226715
-0.0407745
-0.055431288
-0.046050176
-0.010777298
0.07286879
-0.07284387
-0.110835336
-0.036633298
-0.072496824
-0.057459835
-0.068835355
-0.07229759
-0.024487723
-0.028503388
-0.024816466
-0.03839068
-0.087504804
-0.01772859
0.05940779
-0.027358608
0.0239538
0.03562801
0.019571582
0.01673841
-0.066054516
-0.01727732
0.0666888
-0.06950075
0.006486918
-0.023745513
-0.018476909
-0.058616407
-0.06624115
-0.057474595
-0.03596926
-0.013258683
-0.0040098857
0.019220581
0.062144257
0.068302915
0.026795948
-0.04741606
0.018710133
0.026906027
0.061428837
0.01730383
-0.035519075
0.007917412
0.005990648
-0.03500812
0.028866747
-0.09022235
0.05998616
-0.04832841
-0.003749792
-0.055731993
0.025817076
0.03305194
-0.0021607361
-0.034655113
-0.06928729
-0.03814614
-0.024318684
0.012137823
-0.10731512
-0.030337555
-0.09494882
-0.069312066
-0.063791186
-0.0469236
-0.005946807
0.013224869
-0.052954867
0.05195625
0.031339355
-0.043144103
-0.08944739
0.06666834
-0.03214112
0.0015464567
-0.06520438
-0.059329294
-0.028857121
-0.009623913
0.02119846
-0.036952455
0.06511456
-0.010517168
-0.048622526
-0.03593131
-0.10094076
-0.031136263
0.010168666
-0.061646674
-0.041593287
-0.11145194
-0.08296926
-0.026926462
-0.0118923485
-0.0306816
-0.05678551
-0.030359326
0.05276279
0.02046178
-0.04758586
-0.16445167
0.08245282
-0.002236322
-0.04923241
0.13880472
0.04687589
-0.46019536
0.1373662
-0.015862511
-0.1511919
0.024259612
0.020913206
0.15721565
0.18084846
-0.030380275
-0.04906303
-0.04253286
-0.015731864
-0.17329022
-0.184342
-0.025526807
-0.035912126
-0.11398467
0.009001365
0.0746923
0.06723609
0.055086065
-0.026192041
0.001402018
-0.113363676
0.07966893
-0.008421151
0.09330036
0.22020915
0.21848387
-0.16785057
0.02137273
0.008329875
0.015448605
-0.16626875
0.19491237
-0.009432494
0.0068590133
-0.0004611178
0.04408318
0.045003574
0.060850624
-0.10253129
0.018214742
-0.12628415
-0.089421235
0.04545789
0.08921958
0.032079507
0.018767664
0.07390648
0.027648123
-0.127348
-0.18009287
-0.1425721
0.060943663
0.10773164
-0.06482915
-0.50845516
-0.04037185
0.015061574
0.10063734
-0.027483668
0.084806986
-0.06734078
-0.046157762
0.11131545
0.14568384
-0.075152375
-0.38137195
-0.035360046
0.0005827597
0.1322538
0.09299749
-0.36759904
-0.17073348
0.1487835
0.09056485
-0.082438976
-0.01342653
0.15287507
-0.20534697
-0.15427518
-0.08047104
-0.54849327
0.02117117
-0.03166752
-0.05126372
0.06191472
0.15368602
-0.015379117
-0.11656065
-0.02584705
-0.033569284
0.12356241
-0.006797428
-0.11653324
0.050997615
0.011664208
-0.12930776
0.07322375
-0.27451283
-0.033098526
-0.74051803
-0.03659867
-0.098900974
0.16585463
-0.17926341
0.18700315
0.04025111
0.106983356
0.14654289
0.17496711
-0.053094354
-0.5037949
0.009488163
0.17032306
-0.029631535
0.008548611
-0.061615486
0.04522556
0.049126275
-0.03521856
-0.33794677
0.22960182
-0.23700155
0.03897116
-0.05010055
-0.56457716
0.03855292
-0.034164354
-0.03337591
-0.046943244
-0.2267986
-0.04048656
0.15744637
0.12321125
-0.0013962707
0.1882962
0.06981804
-0.051059004
0.08595935
-0.11122699
0.053951874
-0.024075726
-0.049148027
-0.26360074
0.22743027
-0.06102087
-0.33484268
0.028258728
0.061132506
-0.052018162
-0.04569673
0.011988791
-0.09709841
0.2006172
-0.016355464
-0.020087602
0.0753849
-0.23861241
0.19948372
0.06467557
-0.1283442
0.10258617
-0.1947892
0.14084412
0.016132524
-0.23033431
-0.08809857
0.0029655069
-0.07268709
-0.0401433
0.04072113
-0.07107601
0.19020438
-0.017373605
-0.0639792
0.0052220304
0.19272067
0.15958098
-0.13975962
-0.047996383
0.06752083
0.035399888
0.20045044
-0.017640863
0.14263965
0.088829085
0.014299534
-0.1570765
-0.3973628
0.13344607
-0.08225211
-0.13810079
-0.1686519
0.124424264
0.0054458086
-0.040603418
0.0683529
0.115621276
-1.1720495
-0.022637911
-0.1317188
0.021365032
0.020552846
0.05011813
0.18478814
0.17786078
-0.015911825
-0.03302631
-0.021214887
-0.19154379
-0.020382196
-0.08359432
0.0077663814
-0.032759845
-0.08771783
0.13674441
-0.028644145
-0.00031400225
0.081371546
-0.03532167
0.043093834
0.006700608
0.016445471
0.057523284
-0.011692052
0.100105785
0.10176576
0.07655676
-0.007341121
-0.02921019
0.014297235
0.0606745
0.06461221
-0.15157343
0.0972526
-0.025037397
0.10501233
0.04945813
0.04221528
0.0026930475
-0.07518507
0.043232203
0.0699067
0.09584552
0.0072299982
-0.037105747
-0.058659412
0.05729635
-0.027553696
0.043991063
0.13995995
0.009614014
0.15038803
-0.011410826
-0.04116713
-0.55857474
0.031393897
0.08299465
0.08248255
-0.056553647
-0.017205682
-0.23619021
0.1272769
0.01960157
-0.09758274
-0.3237598
-0.36029774
-0.031504832
0.174541
0.18875386
-0.3164052
-0.353923
-0.07790043
0.058778767
0.10687985
-0.037070066
0.005840504
0.08921477
-0.19368054
-0.04727903
0.009810978
-0.5150058
0.037093543
-0.04124703
0.024428762
0.09706292
0.1942373
0.01807962
-0.03101802
-0.033484247
0.09335724
-0.018848047
-0.0038902392
-0.0827798
0.056311667
0.071279235
-0.17987631
0.058305603
-0.018624607
0.21359156
-0.8914503
0.07019955
-0.106924124
0.16590823
-0.1447683
0.2694959
0.09101477
-0.022743907
0.074430965
0.15848672
0.026393007
-0.17866232
0.007760475
0.0293299
-0.03866738
0.034126945
-0.05386112
-0.041890915
-0.004690443
-0.02314517
-0.43849558
0.16304916
-0.1096611
0.062158566
0.02888098
-0.47421837
-0.012573801
-0.003690585
0.043347444
-0.07665947
-0.024635604
0.035042822
0.08362588
-0.16121283
0.08610339
0.18353231
0.026916213
-0.15151589
0.094435506
-0.054386068
0.097744964
-0.25190637
0.020488115
-0.18894966
0.10161727
-0.15304019
-0.5234996
0.050594933
-0.04357018
-0.2584831
-0.088505946
-0.16483101
0.10890652
0.14338365
-0.102643006
-0.04541346
0.042012587
0.0020118998
-0.18073492
0.10667717
-0.13616323
0.03817298
-0.35673353
0.19126837
-0.0066198576
-0.09540199
-1.26633595e-05
-0.03812233
-0.029593237
0.019825622
0.02953862
-0.03789942
0.19198881
-0.023901356
0.044222083
-0.03353715
0.16604564
0.07565544
0.08855972
0.035682738
0.024477143
-0.03862731
0.11454526
-0.26942095
0.1087898
-0.07276129
-0.01122048
-0.15664212
-0.06950856
0.122416936
-0.036081485
-0.06605661
0.031045312
-0.065603174
-0.0008516167
0.057510354
-0.04729491
0.01326583
-0.017619923
0.1137359
-0.054062437
-0.049119327
0.08366351
-0.038950752
-0.2054444
0.038789082
-0.012111432
0.025529675
0.027344016
-0.00043697198
-0.07600171
-0.2710783
-0.079015695
-2.2113316
0.07317338
-0.15849182
0.071586505
0.0044196444
-0.014341764
-0.12696613
0.023767052
-0.07811046
0.008861131
-0.00050642685
0.06853998
0.08887084
0.15850483
-0.0034185147
-0.06551868
-0.05551852
-1.0006111
0.025433503
-0.12427111
-0.0030864934
-0.02304147
0.0303451
-0.002510326
-0.09173925
-0.87676394
-0.15457769
-0.0035487895
-2.45343
-3.016086
-0.018313468
-0.016191565
-0.039782334
-0.04140157
0.08514017
0.19015521
-0.118607216
-0.080048725
-0.20390631
0.12256208
-0.030572286
-0.3625769
0.0009851073
-2.2815096
0.06226891
0.00039208026
-0.00046384835
-0.8993791
0.043847498
-1.9477326
-0.46191558
0.11302561
-0.012624263
0.0672715
-0.0011097213
-0.05801564
0.06436019
0.013600921
-0.046327643
-0.00725395
0.02537982
-0.06842881
-0.05743528
-0.03639435
-0.270068
-0.048128672
-0.009305787
-0.01849703
-0.0018243305
-0.075460784
-0.02825424
0.0025064733
0.016626282
-0.0055204034
-0.057606284
0.05470846
-0.057135336
0.13455664
-0.117508285
-0.6082484
0.03924929
0.01814213
-0.032376487
-0.011678639
-0.0221464
0.015530122
-0.10284037
0.0005410563
-1.5257615
0.0065854513
0.16252634
0.021976903
0.13000281
0.1175903
0.054766234
-0.052794408
0.059983782
-0.0014437378
0.0009160978
0.034965795
-0.11735809
-0.014093073
0.045362037
-1.4850007
0.0065823244
0.005699282
0.06270736
0.020689575
-0.25406155
-0.1291951
0.06173647
0.0059792046
-0.041449603
-0.09286331
-0.7599584
-0.022671483
-0.009315413
-1.1790167
-0.09569585
-0.044968084
0.09195601
0.10614651
-0.53082836
0.0021787838
0.05376106
-0.006339267
0.0069001983
0.13517131
-0.06363559
0.049621914
-0.10984271
0.0049181515
-0.03727442
0.03910304
0.027637873
0.048773963
-0.003506495
-0.062487964
0.059640028
0.01513031
0.041686688
-0.002579332
-0.02841837
0.095158495
-1.1563243
0.119184166
-0.080637835
0.03834643
-0.00559763
-0.12552102
-0.032635376
-0.0796502
-0.4073424
-0.03873031
-0.024925288
0.011235146
-1.7214572
-0.042790186
-0.037993796
0.07032146
0.019643392
-0.08052808
0.028783035
-0.0018630018
0.02758128
-0.048046425
-0.037606515
-0.9427468
0.043205004
0.022004858
0.044170137
-0.07066942
0.03827097
0.020522315
0.0057037664
-0.032936044
-0.13935581
-0.58711267
-0.23304452
-0.028199095
0.10534933
0.032130837
-0.06447614
-0.025381068
-0.010766056
0.06986133
-0.24839468
0.006896725
0.04776515
-0.038340546
0.09739279
0.2009548
0.35784242
0.08335948
-0.011519109
-0.050852887
-0.09722186
-0.0017722612
0.012278489
0.07958453
0.048396226
0.08105249
0.17465742
0.029587036
0.031560086
0.06496164
0.022429153
0.2464469
0.2197046
0.029816873
0.09275316
-0.19303744
0.21392947
0.23878025
0.015682876
0.03711756
0.024238866
0.07116045
0.16911605
0.17579752
0.05872733
0.08394275
0.021446943
0.14134032
0.18757358
0.2223834
0.03209283
-0.13815813
-0.056054182
-0.04577219
0.0021723658
-0.06868071
0.014417707
0.013147158
-0.015581766
0.029174749
-0.054448154
-0.05839529
-0.17167787
-0.06835025
-0.019053826
0.12056339
-0.14161208
-0.044042375
0.11157136
0.030412398
0.21597955
-0.07905225
-0.035978355
-0.00047111916
0.30415472
-0.2562754
0.084865466
-0.3291878
0.061738502
0.015878337
0.28713554
0.120409206
-0.040741958
-0.006379826
-0.15284277
0.18824607
-0.4248159
0.048707895
0.34389305
0.1253488
-0.10583284
0.25668043
-0.24382606
-0.037772853
-0.046929125
-0.038057216
-0.0116827525
0.06920099
-0.046864044
0.043021902
-0.016349519
0.1388655
0.010822578
0.22306792
-0.052058563
-0.0692342
0.026307277
0.058214217
-0.10541755
-0.21819112
0.0634124
-0.2917236
0.173311
0.012562561
-0.182494
0.00021372417
0.44713953
0.10104179
0.1046709
0.2520986
0.24081378
-0.045327324
0.024926422
0.0623924
0.012223044
0.015641902
0.259041
0.042694584
-0.01485507
-0.029387979
-0.18398538
-0.17271268
0.33490896
-0.16328396
0.24786471
-0.2254162
-0.39456028
-0.022738101
0.22171813
-0.05147161
-0.0040625143
-0.0065039713
0.04029935
-0.19042453
0.065802425
-0.037374917
0.5230511
-0.05098419
0.020954281
-0.036454234
-0.11231396
-0.20486271
-0.005295497
-0.038705442
-0.26538134
-0.117844775
0.013869951
-0.11502412
-0.15832478
0.06872212
0.2138376
-0.0052365917
-0.17412324
0.1314725
0.18688029
0.102205195
0.04008234
-0.21313478
0.046157137
-0.1422995
-0.08176263
-0.12029026
0.07708138
-0.0048151114
-0.11197379
0.18972515
-0.08183142
0.018037654
-0.033866897
-0.04606768
0.03471105
0.16474096
-0.01420785
-0.05166299
-0.021736061
-0.015678177
0.0065196543
0.2923417
-0.0817806
-0.024218274
-0.14657113
0.1667439
-0.025452517
-0.081074715
0.018706635
0.02164144
0.051465534
0.011282774
-0.09721247
0.07427694
0.12780249
-0.1609763
0.15914734
