0.41280624
0.012435798
-0.023954079
0.029674834
-0.072680406
-0.060589653
-0.07166378
-0.085198574
0.10647594
-0.3527747
-0.069334865
-0.0705107
-0.045403425
-0.028225593
0.04109078
-0.10510244
-0.041151285
-0.1354137
0.07503195
-0.070552126
0.012079156
0.05212323
0.09318558
0.32247138
0.12761189
0.015288294
0.10364082
-0.12519643
-0.08251803
-0.04522008
-0.075322986
-0.07951884
0.0020778107
-0.016136622
-0.0016526653
0.02768777
0.041461762
-0.017772904
0.051895108
-0.055348545
-0.08300864
0.09619989
0.091533996
0.061768048
0.05294438
-0.13602959
-0.11437499
-0.114074156
-0.12740158
-0.122626096
-0.31293797
-0.08813619
-0.02541931
0.09138025
-0.18094844
-0.04156202
-0.08204801
-0.10068451
-0.062459286
0.20910935
0.24556705
-0.09297365
-0.116179205
-0.06701789
-0.10395938
0.08525019
-0.014231793
-0.09301921
0.18679921
-0.063400455
-0.3403269
-0.126382
-0.543835
-0.09265146
-0.100712195
-0.10628868
-0.10770189
0.07608644
-0.05414727
-0.0053686504
0.14803271
0.30522698
0.19395505
-0.06895175
-0.02869132
-0.21432373
-0.005337087
0.0194876
-0.010258531
-0.16029839
-0.015760865
0.297874
0.19608212
-0.088651784
-0.058325026
-0.03394831
-0.178447
0.27434418
0.06417167
-0.06552668
-0.077030405
-0.0038845218
-0.07656802
-0.114712276
0.38077956
-2.6661723e-05
-0.050963983
0.08170383
-0.03995425
-0.27812973
-0.040057186
-0.03464052
0.102042116
-0.09766197
0.05151722
0.00627669
0.20343886
-0.12976117
0.113176264
-0.13829312
0.0751382
0.035140526
-0.11253769
-0.10889142
-0.03970851
-0.048567038
-0.10786729
-0.10149039
-0.11332693
-0.1302442
0.041168783
0.25806168
0.08560328
-0.096429616
-0.15802999
0.09404569
0.2070634
-0.02097055
-0.12200531
-0.15871456
-0.03561417
-0.03430644
0.20200782
-0.071381666
-0.08799442
0.22261788
-0.009653952
0.04002064
0.15512651
0.034391556
0.12921742
-0.025509324
-0.05001316
-0.046153728
-0.10011967
-0.11022376
-0.096222766
0.14097834
-0.06709968
-0.0070710722
-0.2539992
-0.61260504
-0.10661709
-0.17459714
-0.018104045
-0.24688001
-0.07151868
-0.11075333
-0.075984016
-0.12111668
0.3568858
0.09013525
-0.06558945
-0.08438331
0.120504506
-0.08696227
-0.10857695
-0.27114043
0.2816996
0.014356524
-0.44261575
0.0452257
0.1831971
0.2185944
-0.08771555
-0.0739913
-0.072690435
0.029386194
0.103561535
-0.11120733
0.060755722
0.1797696
-0.11501162
-0.020302989
2.0788244e-05
-0.08875576
0.3225835
-0.26113513
0.09845122
0.0059554935
