-0.112614274
-0.16014709
0.3268792
0.01573134
0.45592391
-0.29377776
0.45278767
0.4246401
-0.18906876
0.4376571
-0.081801884
0.3049649
-0.18860078
0.58675164
0.16552342
0.304333
-0.28146622
0.56555474
-0.01163601
0.63635445
0.6493625
-0.30823806
-0.11649418
0.2486178
0.22190927
-0.18087038
0.021156602
0.19652821
0.27556637
-0.7918186
0.36754286
0.3409068
0.5009322
0.40779683
0.57009107
0.3530922
0.5140447
0.104317054
0.65690815
0.25387022
0.10467465
-0.233023
0.041173596
-0.07376278
0.063924424
0.5100422
-0.17575245
0.111737944
0.48842028
0.46298826
0.49763784
0.1415261
0.34112185
-0.015794467
0.24401815
-0.26448184
-0.6052652
0.24123539
-0.19160838
0.31095707
0.40901095
-0.054251477
-0.11040681
-0.76024884
-0.30382463
-0.123507835
0.2747512
-0.43663663
0.22985488
0.15667735
-0.42498302
0.5295898
-0.054078396
0.1182094
-0.45300892
-0.066667244
-0.24186303
0.58465326
0.26384908
0.06327315
-0.6329816
0.4629172
-0.3141013
0.67437375
0.1348062
-0.2992092
0.6946966
-0.07376977
-0.28490987
-0.13368855
-0.27450293
0.53041655
-0.17650408
0.30242127
0.28795597
0.2447261
0.3831433
-0.253027
0.5121584
0.45505556
-0.100150086
0.21983781
-0.09487064
0.39846036
-0.3304166
-0.3019305
-0.17107518
0.0013186985
0.23830369
-0.0631181
-0.19328836
0.4904813
0.055652272
-0.08907988
-0.30176133
-0.057920765
-0.87112576
0.1765222
-0.5533964
-0.119893454
0.085541844
0.5197349
-0.093066745
-0.21672837
-0.5265828
0.12472002
0.13652302
0.34230798
0.024901893
0.1134289
0.55386
-0.6876795
-0.7004586
0.31024876
-0.27988312
-0.040502366
-0.12427791
-0.36141884
0.53758556
0.35204276
0.054642793
0.6230918
-0.48510006
-0.9298407
0.23954847
0.09214258
0.31312546
0.05406993
-0.31926396
0.5808738
-0.74142456
0.10095168
-0.37580654
0.090829514
-0.76490456
0.15997377
-0.35566548
-0.10970098
0.41005373
0.4909288
-0.26423857
-0.020985268
0.2077895
-0.736225
0.6046995
0.28674775
-0.3309713
-0.14481573
0.3544293
0.3194679
-0.421676
0.56392556
-0.0051973322
-0.048731107
0.64196086
-0.45564345
-0.15749979
0.17095262
-0.58612233
0.45309472
0.44924077
-0.15139794
0.087241404
-0.37808043
0.28795624
-0.30048025
0.10837284
-0.27771047
0.36552727
-0.4209953
0.26215863
0.070123866
0.2448739
0.15419288
0.1198137
0.23655161
0.19334793
-0.80895996
-0.08008226
0.023663092
-0.21012543
-0.6979914
-0.052471403
0.2910809
-0.12790439
0.113802135
0.14866844
0.27393535
0.0023472332
-0.24049866
-0.28266373
0.119082995
0.036465157
0.13335079
0.14502065
0.19658665
0.21385089
0.16148362
0.4812876
0.08784789
0.098306224
0.19009593
0.47363663
-0.117589585
0.35181057
0.2783479
0.2797033
-0.03573069
0.61429757
0.071219824
0.05161236
0.16795564
0.19721133
0.3635287
0.02326445
-0.41599742
0.6061681
-0.58972406
-0.24375027
0.26656473
-0.07071816
0.14516011
0.15966322
0.44703427
0.34300563
0.33117214
-0.24265952
-0.018021265
-0.10123699
-0.47630516
0.23653375
-0.38830006
-0.09047684
0.50255996
0.1844071
-0.40278658
0.36836106
0.0956823
-0.22814946
-0.137372
0.037545815
-0.13497546
-0.107337415
0.30711332
-0.19280614
0.059937585
0.6255931
0.41898933
0.007519779
0.79725343
0.36703274
-0.10987355
-0.035068877
0.44082412
0.3286016
0.2570392
-0.108974956
0.027464416
-0.5088813
0.31144875
-0.79158026
0.32571006
0.08749857
-0.4446308
0.32687604
0.06712243
0.043137632
-0.3542299
0.4011294
-0.18207352
-0.18649873
0.5015038
-0.0549956
-0.006476841
-0.80913186
0.5378105
-0.21659113
0.20473804
-0.05383318
0.20124787
-0.42076248
0.4266526
0.7231842
-0.07637429
0.6912248
0.027988955
-0.22734597
-0.5648163
-0.07041374
0.31324676
0.24012914
-0.20937823
-0.6450014
0.8366764
0.11853386
0.2470639
0.16272685
-0.17172936
-0.24040732
-0.70222026
-0.70714664
-0.031104306
-0.7899028
-0.18905167
-0.64921474
0.3177886
-0.30726874
0.1098051
-0.43562979
-0.047971014
0.023231773
0.66915995
0.6359635
0.4572312
0.20974223
-0.10524931
-0.030466024
0.0219566
0.019164506
0.77115613
0.49366656
-0.23788148
0.53079367
0.06454622
0.19217327
-0.57355297
-0.37817806
-0.41498613
0.6174751
0.0074743032
0.10411282
0.035176933
-0.083419345
-0.46450832
-0.14944598
0.2510072
0.4508291
-0.1750386
0.009661794
0.06981449
0.34978253
0.7458568
-0.16833381
-0.07302487
0.07384274
-0.058970746
0.1474977
0.33182988
0.07345161
-0.28824896
0.5200864
0.25689414
0.2890537
0.57266974
-0.37689906
0.5658959
-0.23467769
-0.2965714
0.052791532
0.1892554
-0.11316503
0.54611266
-0.33170283
-0.45720997
-0.15353385
0.13710055
0.14162855
-0.34251174
-0.50475097
-0.32104272
-0.10529688
-0.16007605
0.055008974
0.358178
0.03718193
0.040349647
-0.46374196
0.2893285
0.015600834
0.5069573
