-0.05022824
-0.018790144
-0.057885695
-0.0231478
0.15310186
0.10210533
0.062316965
0.062523484
-0.03972868
-0.059902932
-0.018732348
-0.01700584
0.021063583
0.036985703
0.019730994
0.036916107
0.031670123
-0.026606493
-0.011921005
-0.02110223
-0.0066765593
0.010684096
0.05410371
-0.050689753
0.047061265
-0.10970997
0.03950172
0.0906159
0.031917226
-0.06296921
0.00070233154
0.12026735
0.00076578767
0.03022183
-0.04099792
0.0110376
-0.05714772
0.0015919365
-0.06047554
-0.013873189
0.08396488
0.0015417623
-0.011230504
0.00951829
0.03796558
-0.029802822
0.05869265
0.08357615
-0.007674805
0.053176016
0.13209464
0.009923618
0.05708576
0.030192578
-0.019878782
0.019787418
-0.02083679
-0.12697946
-0.01780231
0.013826563
0.060334638
-0.051593058
-0.031067785
-0.01824704
-0.17791657
0.14390643
0.09135129
-0.06893146
0.056999467
0.1377943
0.0060733887
-0.03854959
-0.102867946
-0.13490564
-0.029796608
0.053343628
-0.005726328
0.06561217
0.09089757
-0.15758516
-0.0838311
-0.05326238
-0.03313657
0.024470666
-0.12529221
0.05151033
0.013681144
-0.12954643
-0.025374798
-0.041386794
-0.013277968
0.11249757
-0.035079192
-0.024610627
0.014900325
-0.043756954
0.0007239441
0.008388158
0.059423782
0.101499826
-4.1455478e-05
-0.049360167
-0.056571007
0.010992096
0.015989274
0.10847395
-0.050902218
-0.04982185
-0.033356
-0.00666022
-0.012766478
0.103617504
-0.12737848
0.06021028
-0.036016505
-0.04824916
-0.07144466
-0.02941358
-0.12439167
-0.0618722
-0.05726153
-0.028249318
0.05127514
0.014603899
0.11303585
-0.19450203
-0.05257104
0.04646641
0.06914062
-0.089186944
0.19299202
-0.007305557
-0.020993864
-0.04702074
-0.14479952
-0.008052141
0.057593144
-0.2865724
-0.07586893
-0.049288243
-0.026454346
-0.059431355
-0.021594686
-0.07922005
-0.050777424
0.014572567
0.0028357285
0.036438465
0.0086683
-0.017126605
0.049769305
-0.013609736
-0.018889066
-0.052937925
-0.024397556
0.041514564
-0.019469246
-0.0034871558
0.09111572
0.03245047
0.06935887
0.0070269397
0.1341936
0.04005127
-0.10760855
0.018864617
0.00994879
0.034368012
-0.044113405
0.15640393
0.01422694
0.11898375
0.11558847
0.16083395
-0.014908745
-0.03358381
-0.29894245
-0.011832668
0.061157823
-0.08050689
0.00024534404
-0.031849075
0.013215743
-0.0033440818
-0.002417609
-0.0021621652
0.20611925
0.100982465
-0.08792794
-0.025913944
0.042590868
-0.06502105
0.031806715
-0.0005156199
0.03035974
0.15337063
0.18080951
-0.046268504
-0.00067769724
-0.22342399
-0.0610409
0.0031076705
0.01967929
0.07985943
-0.0070830304
-0.31023836
-0.11715399
0.028574744
0.02152273
-0.033521015
0.0016476177
0.042967238
-0.006182382
0.026761385
0.012054404
-0.26574636
0.09169275
0.07638
-0.09736049
0.03501175
0.04244665
-0.019748857
0.014605286
-0.039224584
-0.1213241
0.02155387
0.04376138
-0.22301126
0.06702952
-0.044532366
-0.043897748
0.04955905
-0.054692715
0.052735996
-0.0125804795
0.14681537
-0.015271598
-0.08241883
0.05342589
0.08990298
-0.03068151
0.034467496
0.026102751
0.020487973
-0.030543277
-0.092343375
0.01190442
0.04336455
0.09741547
-0.13436808
0.046503138
-0.028143778
0.030569367
-0.11263368
-0.031415507
0.031186016
-0.015418592
0.22765386
0.04087039
0.011473907
-0.0065508094
-0.023646526
-0.09273595
0.034219336
-0.09424132
-0.058973
-0.020266924
0.08988578
-0.045444764
-0.0050240015
0.081003755
-0.06418473
-0.0180428
-0.0031685752
0.042203046
0.010243743
-0.06384286
-0.4258627
-0.07028799
0.02922725
0.19230792
-0.0027915956
-0.07767891
0.0683846
0.029216629
0.0003082579
-0.08083386
0.069468684
0.0017397305
-0.0057297708
-0.28418013
0.08774357
0.06093188
0.049763683
0.008543742
0.0065341373
0.00206958
0.03287661
-0.20922206
0.0625175
0.0028331138
0.048595674
-0.0055736857
-0.00864767
0.030802343
-0.058641396
0.119923845
-0.027985642
0.06296004
-0.037396736
0.00931576
-0.2557532
-0.09468418
-0.08037931
0.016971536
0.03276641
0.015594718
0.02672896
-0.02520695
0.024896776
-0.059416186
-0.014311291
-0.016832767
0.006322955
-0.08732795
-0.0402438
0.0019987442
0.11441442
-0.081910126
0.012697665
0.07029332
0.014023192
-0.017266205
-0.018615829
0.022892186
0.018510517
-0.019922594
0.06908961
0.039332204
0.036199532
0.025262898
0.049779125
-0.037747916
0.046540573
-0.008003026
-0.071537144
0.09117594
0.13377184
-0.027747242
0.009975013
0.025379363
0.014985042
0.0056872945
-0.01637541
-0.0033017867
0.04028746
-0.019824835
-0.015331598
0.11995148
-0.033802357
-0.04345283
-0.010361958
0.00887954
0.05415469
-0.20544547
0.031094957
-0.04021257
-0.027775796
0.05378558
0.022583626
0.022899168
-0.056323446
-0.009638123
0.029394316
-0.2608694
0.08847787
0.012889567
-0.056893002
0.023347374
-0.018446645
-0.019695926
-0.18180934
0.087963834
-0.013608251
0.113131344
0.012953933
-0.071523264
0.1264268
-0.041280467
0.017780915
-0.026745856
-0.17895825
0.00297446
-0.0028789218
-0.011328884
-0.059545074
-0.0637064
-0.10393592
-0.01722119
-0.0046405667
-0.052175287
0.029299688
-0.0023915223
0.015152579
0.017910657
-0.017113412
-0.0055755978
-0.03722203
0.016180068
0.042135715
-0.014110974
-0.07329797
-0.022967927
0.020228306
-0.01949772
-0.038076077
0.016328003
0.069694944
0.0023129624
-0.015446668
-0.031361584
-0.023240793
0.030965112
0.023259081
0.012411784
-0.02028225
-0.04476777
0.042804856
0.03562935
0.04948956
-0.014102968
-0.018766819
-0.0567635
0.048786283
-0.064281516
-0.05035916
-0.016983835
-0.012583286
0.002980681
0.037765104
0.10864538
-0.020628113
0.010304872
0.025625242
-0.03340227
-0.07712487
-0.049111854
-0.039939385
0.008519949
-0.027812503
0.029524244
0.002649847
-0.039425444
-0.028741838
-0.03966591
0.03518729
0.016365426
0.03663809
0.044517178
-0.093641736
0.016280375
-0.02691544
0.044245496
-0.008571438
0.024122698
-0.017660625
0.0027537465
-0.020220814
0.037331134
-0.023051823
-0.022968601
-0.051729064
0.0065110717
-0.028249204
0.009742123
-0.074053645
0.0012847956
-0.026421718
0.024597852
0.036679603
0.025357991
-0.030856892
-0.003885524
-0.030565117
0.05643295
-0.073269054
0.0038004245
0.004928613
-0.0071741045
0.085966855
0.052361347
0.04146826
0.010654474
0.008196722
-0.04792443
-0.069629915
0.01729789
0.0014630964
-0.07401747
0.0986826
0.026891207
-0.007780562
-0.014769728
-0.043677423
-0.015720366
-0.08837641
-0.05927272
-0.031382367
0.01959774
-0.0629383
-0.011892864
0.008825376
0.027074952
-0.046223957
-0.014484268
-0.052487474
-0.040411353
0.070842944
0.02477871
0.044564646
0.004725426
-0.091104455
0.09253024
0.024159202
0.034108013
-0.011417972
0.0060843807
0.028474478
-0.056901876
0.0116812065
0.012771409
-0.0014255699
0.0022051362
-0.0034440814
0.008415714
-0.06439754
0.013313094
0.019352484
0.016317803
0.013587274
0.019986847
0.038611036
-0.031111812
0.029443203
-0.020084696
0.010591184
-0.029726015
0.028475784
0.060745597
-0.011870353
0.02963996
0.060863037
-0.0052162795
0.046225935
0.016199617
-0.056955636
0.050702065
0.05383929
0.04554744
-0.011637633
-0.032600738
0.059322175
-0.024105733
-0.017591393
0.0055578947
-0.0645132
-0.011267611
0.052621547
0.058948603
0.028660191
0.06583538
-0.056562148
-0.001164779
0.003267404
-0.009516738
0.013705751
-0.049982358
-0.013162938
-0.01595807
-0.030321041
-0.0067938664
0.018211775
-0.030337526
0.09850126
0.0143359
0.017371083
-0.007485602
0.05314163
-0.010766335
0.087905824
-0.025486067
-0.060665037
0.003327575
-0.051803738
-0.006107264
0.0021738925
0.0019802107
-0.021132505
0.0011671919
-0.013094277
0.018411797
0.05371472
-0.08690693
-0.006376016
-0.02687213
0.038646884
0.024269182
0.022719976
0.026113585
-0.02417854
-0.019208208
-0.0664596
0.020652078
-0.08789591
0.029604243
-0.034818277
-0.038784984
0.05115301
-0.05494684
0.017293395
-0.029910253
-0.04430529
0.0008519625
-0.024635816
-0.015759457
-0.049840022
-0.017503235
-0.026020288
0.004652218
-0.036923088
-0.009945178
-0.04898232
0.016226174
-0.021592291
-0.080578774
-0.008114214
-0.01899698
-0.020248335
0.04018822
-0.11961987
-0.017518671
-0.01679049
0.086567186
0.009892059
0.07494519
-0.012225934
0.012659404
-0.037682064
0.025513029
0.0028377473
-0.08158504
-0.008807061
-0.051491607
0.018265106
-0.06960825
0.06737781
0.034737345
0.014375051
0.0262744
-0.04207129
0.03747336
-0.0568442
-0.017606027
0.03620601
-0.03258558
0.06730382
0.052242756
0.026063533
0.032540295
0.01594338
0.01684169
-0.008343155
-0.010893586
-0.03652733
-0.09195961
-0.044657
-0.025537223
-0.0054973993
0.055811845
0.023032647
0.0062639406
-0.020440465
-0.045747817
-0.026883446
0.0017773093
0.03873712
0.010787231
0.021172963
-0.02695816
-0.026087305
0.017506922
0.065450035
-0.003454686
0.04303652
0.034737986
-0.045609802
0.038430445
-0.0332299
0.002077936
-0.01687247
0.023216778
-0.010828672
0.07118346
0.023598736
0.046326548
-0.011729237
0.018202735
-0.022938319
0.008913626
0.013063253
0.011964076
-0.019324597
0.056391053
0.007483036
0.012537272
0.014330717
-0.021212673
0.03904169
0.0258421
-0.010306556
0.0063533555
0.034150537
-0.04598668
0.0229617
0.016987529
0.06357433
0.053634655
-0.029760744
-0.011794128
-0.050633542
0.029316494
0.02685063
0.015165067
-0.006250135
-0.09417543
-0.034491766
0.050458577
0.013349799
0.03232871
-0.033441108
0.073582016
-0.0018895242
0.016822843
0.052045304
-0.09182167
-0.065623924
0.033188697
-0.036789797
-0.047436427
0.03951567
-0.054710243
-0.05912714
0.026362354
0.07378165
-0.010670762
0.00037168266
0.07837858
-0.043668963
-0.032315973
-0.012979948
0.031280607
0.00027953027
-0.053835534
-0.0032456322
0.010065425
-0.0010266029
0.065944195
-0.052541886
0.0039733015
0.032656297
-0.036039054
-0.011497431
0.013756775
0.084975906
-0.024244372
0.002876885
-0.042907223
-0.031020695
-0.009270045
-0.004700769
-0.07462603
-0.038909208
-0.033568032
-0.024908533
-0.01398303
0.0083439015
-0.022146393
0.0502301
-0.018931339
-0.03565686
0.08713028
-0.010172518
0.019298833
0.020777253
0.028068569
-0.0034306515
-0.08402959
0.0132038845
-0.005180783
-0.021521186
-0.06056488
0.07344255
-0.08331306
0.04978563
-0.03603723
-0.044700544
0.08597522
0.062994
-0.042593423
-0.028928325
-0.01699879
0.108208925
-0.05267872
0.08927287
0.096231855
0.12776704
0.04264678
0.21464196
0.04051456
0.045888126
0.07561724
-0.037717544
0.0002258604
-0.021732073
-0.047023166
-0.0037998003
0.17001739
0.05292807
0.07482816
0.05358498
0.04475877
-0.036876127
-0.18576007
0.06616692
0.055014092
0.19544394
-0.07442202
0.09599242
0.0055321977
-0.064783126
-0.062295616
-0.026139008
0.031823862
0.028735535
-0.024023842
0.01652878
-0.025194293
0.123518996
0.08262875
0.1299823
0.03626776
0.12249108
0.046881266
-0.04891597
0.08134841
-0.069767505
-0.053248093
0.1229849
0.025057413
-0.030946808
0.18786219
0.07248761
0.0024651145
0.009658966
-0.1305446
0.021897882
-0.21616432
0.027818166
-0.010033732
0.06912755
0.04944269
0.18969458
0.061890688
-0.025606778
0.06831402
0.011977163
-0.008257793
0.06596858
-0.09920651
0.2422777
-0.036404733
-0.109437086
0.03037784
0.12802087
0.012338257
-0.018256374
0.06405624
-0.09432443
-0.03728524
0.0075030965
-0.039226387
0.046545204
0.006582061
-0.05643294
0.14026678
0.023394106
-0.10800159
0.022260457
-0.06098636
0.0393858
0.03357216
-0.09321662
-0.0460362
0.13202667
0.035863783
0.029254455
0.022382287
0.021669487
-0.20364916
-0.1111686
0.00712513
0.075781815
-0.00035514258
0.03991544
0.004273994
0.0428612
-0.05007489
0.0153670125
-0.01632552
-0.10016877
-0.028253898
-0.09331397
0.11461063
-0.058648687
0.0070071807
-0.07648932
-0.10306613
0.019880898
-0.07809104
-0.0107933795
-0.028092988
0.06269917
-0.05494612
0.030167324
0.062090565
-0.024705963
-0.06313145
0.057799876
-0.0136857685
-0.038102236
0.008607407
-0.1272589
0.034773458
0.020496964
0.14129086
-0.001056422
-0.103524275
-0.08373821
-0.020153327
-0.115322664
-0.045315344
-0.03753695
-0.018722713
-0.009684528
0.03801178
0.004781672
-0.08865859
0.064319946
0.020191139
0.049348556
-0.099827945
-0.050229594
0.02225616
-0.09215095
-0.12188104
-0.04894325
0.14752427
-0.002574652
0.026558965
-0.058805898
0.07505177
0.04343345
-0.021375407
-0.048277196
0.04833471
-0.049747817
0.054676
0.018683719
0.025351847
-0.15332042
0.13347974
-0.058103222
0.07461726
-0.089286946
-0.056715515
0.011083397
-0.044038627
0.00489695
0.05296315
0.04366211
0.16790119
0.0070996447
-0.023431594
-0.013155994
-0.053906444
0.012099426
-0.032902382
0.017484616
-0.067351446
-0.05098373
-0.12140713
-0.09071649
0.008113683
0.021485467
-0.087856464
-0.18237069
-0.11884846
0.036672737
0.04899009
-0.084121786
-0.085337326
-0.013173793
-0.004542511
0.12246737
0.09611852
-0.034796037
0.17808239
-0.004945184
-0.01776276
0.04362957
-0.018322548
-0.060600642
-0.0028546401
-0.027661497
-0.05850382
-0.073732644
-0.019327885
-0.10153424
-0.09019229
-0.14378838
-0.04020886
0.029875195
-0.123411596
0.07402272
0.07249095
0.008758431
-0.10108145
-0.08054698
0.0115654515
0.118353546
-0.06815753
0.06880594
-0.012594212
0.08536101
-0.025833094
0.049481302
-0.06345267
0.053977128
0.04820986
-0.006794164
0.046913
0.072251976
-0.010767653
-0.042729307
0.074362
-0.078786075
0.0780126
-0.08315603
-0.014535948
0.10657871
-0.07534506
0.007030999
0.14617772
0.042978954
0.014498625
0.05068519
0.12841177
-0.11825663
-0.020244202
0.05124157
-0.022256142
-0.13251257
0.13824363
0.015682802
-0.08026438
0.041832767
-0.080632925
-0.011234734
0.010708717
-0.16077629
-0.22896634
-0.087943636
-0.13279852
-0.05247427
0.088445134
0.09012386
-0.0075459294
-0.056888282
0.0011744235
-0.07122247
-0.056334145
0.10845343
0.01564933
0.0261957
0.07220185
0.08216748
0.0283017
-0.12086839
-0.0031998623
0.041854095
-0.016320638
0.046723064
-0.010963827
0.053297635
0.2122569
0.1954645
-0.087106176
-0.012900677
0.021830887
-0.0064057815
0.006020837
-0.1432724
-0.0059242537
-0.06403898
0.008137924
-0.07307428
0.030014165
-0.03775211
0.039233707
0.08871407
-0.04482624
-0.05689475
0.19648054
0.08901474
0.03945086
-0.014517065
-0.04427539
0.040140063
0.08296218
-0.062252782
0.22691098
-0.04207777
0.0016318436
0.11954633
0.046886276
-0.01553987
-0.02594028
-0.19958545
0.028446443
0.08852454
-0.115668364
0.034674164
0.14383826
0.05317675
0.07892727
0.04005066
0.07993459
0.040628187
-0.081108704
-0.09622505
-0.11044429
0.017929677
-0.024291629
0.036217857
-0.016534
-0.005779196
-0.064451694
0.010423971
-0.035648886
0.041710388
-0.027378958
0.13135107
-0.0025345397
-0.12132527
0.097390726
-0.101407945
0.018195553
0.019790975
-0.021723976
0.0053360467
0.065342784
-0.1286335
0.08019501
0.1634241
0.024037821
0.07354523
-0.17754243
0.025301883
-0.02586652
0.08289832
-0.039059326
-0.05709081
-0.0074682804
0.059043612
-0.03875418
0.021637885
-0.034841854
-0.00018054816
-0.013979382
-0.02264804
0.003663268
-0.03370006
0.01561486
-0.06047289
-0.051334526
-0.11191425
-0.16844937
-0.019183492
-0.06456267
0.06300479
-0.029714737
-0.01598211
0.020138761
-0.0018983306
-0.04339729
-0.059077356
0.16432832
0.024113737
0.013833788
-0.12417007
0.04203477
0.054242745
-0.24358428
-0.015028389
-0.09780549
0.00093863823
0.017924374
0.032487176
-0.022115
-0.013809087
-0.068111755
-0.08766459
0.029338963
-0.04279611
-0.1500768
-0.11568236
0.1089619
0.08691257
-0.008726105
-0.14001875
0.026757928
0.070236936
0.11185526
0.016489925
0.031378925
-0.06995957
0.05326946
-0.03275545
0.1989435
0.058946766
0.034216695
-0.04618386
-0.097539626
-0.047121543
-0.037102915
0.21041994
-0.29061058
-0.023767447
-0.07396347
-0.017868433
-0.14785656
0.025894206
0.08102311
-0.05228902
-0.010850551
-0.2358062
0.035215117
0.043736972
-0.07690353
-0.035772905
0.041401424
-0.028441576
0.044190012
-0.021315508
-0.27583334
-0.16625908
0.04604898
-0.17678729
0.04399235
-0.04853177
-0.17144848
-0.012559692
-0.05048569
0.11860833
-0.12401748
0.047924135
-0.049982324
0.12188513
0.09921296
0.10724184
-0.06305068
0.013787019
-0.050880693
0.1596991
-0.08591647
0.026481945
0.298563
-0.06498489
0.006270283
-0.10773186
0.04756172
-0.020214614
-0.08885459
-0.01006987
0.07120462
-0.13779858
-0.018655557
-0.16840854
-0.07671409
0.044978935
-0.05031463
0.042541586
0.016286636
-0.02187172
0.027344195
0.015022426
-0.07715988
-0.040744904
0.0070896796
-0.03001089
-0.03450239
-0.02286082
0.057485815
0.0104543455
0.034036964
0.036280055
-0.095665365
-0.060860656
-0.056663703
-0.11203156
-0.075795695
0.24904789
-0.034580044
0.012542183
0.037279967
-0.008611026
-0.026580008
-0.09717326
0.023484593
0.043192156
-0.12297062
-0.015787937
0.026612291
0.089180395
-0.106939934
-0.066073745
0.03543304
-0.25407195
-0.16835082
-0.03249706
-0.032689445
0.213251
0.08858261
-0.06732347
0.056987785
0.09763481
0.08276976
0.13559094
-0.008605939
-0.001995802
-0.0045244913
-0.017442342
-0.050986066
0.058996107
0.005127739
0.18424252
0.01619668
0.039489657
0.06537324
-0.09708068
-0.06358439
0.01647202
-0.0053329463
-0.06611262
0.061672345
0.10468751
0.011888978
0.0070763836
-0.03423751
0.020361675
-0.07405184
-0.03071091
-0.09044402
0.059696015
0.10390421
0.0017730406
-0.15911728
0.05827826
-0.19089572
-0.1296051
0.09073099
-0.025702614
0.06181365
0.05574444
-0.028851422
-0.012952711
0.026439233
-0.049044814
0.086357296
-0.14500941
-0.019943764
-0.035385482
0.027477419
-0.01902022
-0.031848427
0.047067128
0.05578563
0.015676998
0.03475458
-0.04921375
0.0030643097
-0.021258142
0.049332827
0.11011322
0.052483402
0.015048984
-0.029225266
0.19306429
0.0029123612
0.011280067
-0.012242548
0.12749946
0.06639089
0.0906122
0.038695544
0.087785885
-0.04016204
-0.1784117
0.005656475
0.038573507
-0.015817216
0.02034717
0.024551596
-0.11396569
-0.037108257
0.0026324394
0.025197454
-0.08990138
-0.016223295
-0.09259855
-0.059222374
-0.08541273
0.08255223
0.072712824
0.0009773149
-0.013452932
-0.063318014
0.037999723
-0.06683482
0.04127306
0.01930423
-0.0034215783
-0.008738497
-0.024674518
0.011199891
0.095575765
-0.044939846
0.07132142
-0.04994184
-0.010799408
0.14663249
-0.039885484
-0.13401867
-0.04622865
0.056594763
-0.09651145
-0.09041307
0.017130567
-0.078848936
0.024819873
0.004945498
-0.004146647
-0.07680311
0.0034854254
-0.09216483
0.038796213
0.11411806
0.054419164
-0.007296925
0.067725316
0.046363942
-0.040002935
0.008584281
0.120164484
0.08657484
-0.03069688
-0.023890752
-0.19061324
0.05951214
0.05539972
-0.13776997
0.018658547
-0.0005107089
0.033124115
0.2821022
0.017322676
-0.1041754
0.029987646
0.065061375
-0.0354967
0.03986128
-0.13226831
-0.16727549
0.11146377
0.042509995
-0.0053409883
0.07790682
0.070751764
-0.17650266
0.004943567
-0.0027310178
0.021641187
0.16107152
0.07464065
-0.052350022
-0.024554528
0.115707114
0.12702341
0.123577915
-0.025930721
-0.049266804
-0.031857945
-0.13099757
0.120903924
-0.119876534
0.062419575
-0.00077693065
0.018460909
0.056143526
0.02733545
-0.08535523
0.10313019
-0.13545024
0.0689265
-0.10655906
0.053329088
0.088593796
-0.19889814
0.0558891
-0.02851877
-0.046501685
0.054185707
0.29468888
-0.06410184
0.10083688
-0.12499676
-0.0045215455
0.034934342
-0.01407122
-0.0547621
0.024937699
0.061162204
-0.025126422
-0.079498224
-0.06489495
0.00424014
-0.012884029
0.0350893
-0.06322013
-0.029578172
0.015068235
0.04709288
0.006440451
-0.05859048
0.02192196
-0.15261163
0.10335086
0.0325822
0.11876129
0.08016235
-0.042665433
-0.00032883542
-0.030008301
0.032662444
-0.00091677235
-0.054156374
0.04921232
-0.168867
-0.1409072
-0.030956535
0.015847966
-0.0021507523
-0.04681897
-0.045765836
-0.14058876
-0.08813913
0.095602974
0.060102973
-0.017359415
0.008421151
0.04016942
0.014956299
0.089417785
-0.103538275
0.05912655
-0.11230099
-0.056886975
0.0008769319
0.05165645
-0.059602737
-0.0013862514
-0.13175917
0.009839625
0.0594582
-0.03705375
-0.081407644
-0.120334044
0.13442369
-0.06249993
0.013300036
-0.011524626
0.014545534
0.003520774
-0.022036262
0.012436352
-0.005964689
-0.030049851
0.00504941
-0.09050558
0.060024917
0.02604147
-0.029153517
0.009448944
-0.007297991
-0.027613726
-0.0007672023
0.03625956
0.03102135
-0.06252035
0.012895974
0.040804684
-0.014198924
-0.06642369
-0.014508449
-0.0022762278
-0.0044388757
0.096914515
-0.030126294
0.025095025
0.020924881
-0.07591383
-0.026190264
-0.045824006
0.024451265
0.03587219
-0.0119741205
0.0040443595
0.047872517
-0.011183372
0.0047824634
0.0014880868
-0.0011414189
0.0056367414
0.0032627012
0.00024064964
-0.009513195
-0.0522516
-0.059962347
0.0073471917
-0.0029704545
-0.008659257
-0.054313064
-0.021914328
0.016924426
-0.018178064
0.007902364
-0.03113091
-0.014396915
-0.06716658
-0.016221449
0.024137465
0.026044233
0.0038472156
-0.038520426
-0.025382338
0.006396277
0.04538844
0.020673215
0.03171318
0.030364053
0.027876064
0.03336864
-0.0129339835
0.007955468
-0.025402403
-0.016677987
-0.018059922
0.02468407
0.01139024
-0.0119015565
-0.0039247978
-0.057093855
0.055561244
-0.050059028
0.034949914
0.05623261
0.11999289
0.01532097
-0.0048977626
0.009231271
-0.06854714
0.000420497
-0.02874547
-0.0659452
0.034302585
0.05563042
0.05407413
0.015717018
0.0271125
0.01456463
-0.018674439
-0.05676213
0.011294841
0.06986027
-0.08002476
-0.0031520366
0.05643132
-0.11163517
0.09550901
0.04117233
0.0058859033
0.0073241484
0.002313267
0.012579964
0.0005850728
0.029374823
-0.015495182
0.0033460055
-0.07317051
-0.005897008
0.05263409
-0.054461695
-0.074623115
0.03556109
0.01132441
-0.028585829
-0.012377469
-0.059272896
0.012469385
0.035631288
-0.010144202
0.014275105
0.045269143
-0.06527472
-0.014049187
0.007130718
-0.026534732
-0.015444004
-0.015905177
-0.05784353
0.0011143242
-0.024539677
-0.074732706
0.012952005
-0.029176708
-0.04742514
-0.03941054
-0.014797774
0.053599924
0.012929604
0.041306786
-0.008481008
0.036519594
-0.037454914
-0.015536984
-0.027509475
-0.03430628
0.0002446398
0.07621804
-0.005996493
0.019449728
0.02784044
-0.065574
0.00989619
-0.017085604
0.025404457
0.046358764
-0.034500554
-0.005752218
0.012824096
0.017533945
-0.012553218
-0.012305954
-0.0029816169
-0.0026228915
-0.005441537
0.0252567
0.04808265
-0.05193085
-0.003193444
0.010473879
0.049633615
-0.019611955
0.026961934
-0.03426962
-0.025196664
-0.058855306
0.009598516
-0.004811439
-0.040263884
-0.049004033
-0.036261607
-0.016406113
-0.008822118
-0.005997185
-0.038294498
-0.011472842
-0.0022890281
0.024635969
0.025340997
0.07465366
0.018035607
-0.022795457
0.019157829
-0.053892724
-0.027016921
0.014279875
-0.01837183
-0.0023701421
0.010498394
0.010127124
-0.014674345
0.04500855
0.080465585
-0.012572072
0.021362446
-0.062424723
-0.00039036124
0.02193737
-0.03795897
0.032613408
-0.00091218675
-0.016381452
0.03514945
0.035142824
-0.017921427
-0.029644959
0.01716111
-0.037648495
0.058966152
-0.017273983
-0.03438561
0.014988517
-0.047152232
-0.072465725
0.017781645
-0.013380542
-0.05708979
0.039257526
-0.015840918
0.024754506
-0.04398466
-0.017608542
0.049180385
0.07432512
-0.009407967
-0.013269654
-0.018323615
-0.013031457
0.037148662
-0.038705967
0.03582758
0.08919184
-0.049321614
-0.03068758
-0.052917458
-0.005103031
0.016018787
-0.02821878
-0.008757772
-0.018462505
0.070260085
0.024670716
0.0032848278
0.002667387
-0.012014611
-0.008129504
0.042065818
-0.026405755
-0.039142657
-0.061328344
0.031297486
0.07727409
-0.009259605
-0.04355993
0.015126749
-0.02018099
0.027787251
-0.01879017
0.018901335
0.014876458
-0.07312268
-0.020056712
-0.006772643
-0.04108863
-0.027410217
0.025074888
-0.024226267
-0.0012406
-0.0061244965
0.009495195
0.03623175
0.0035079475
0.011582531
-0.04444946
0.023662494
-0.012798006
0.014278953
-0.02207724
0.03146957
0.0817088
0.049235288
-0.016366113
-0.018569218
-0.012610774
-0.0037909169
0.07734393
0.037661567
-0.0069332696
-0.0452112
0.026287362
-0.013842673
-0.018657697
-0.023806263
-0.068681344
0.0658521
-0.018194938
-0.06856366
-0.007859007
-0.006236417
-0.06914528
-0.0031405676
0.006923778
0.02302675
0.014196031
-0.050095685
-0.020166611
0.027683515
-0.041687876
-0.03578109
0.07149728
0.019289734
0.007923703
-0.0030278836
0.009169973
-0.01771181
0.007482538
-0.05605144
0.058449373
-0.089154124
-0.040826872
0.00782796
0.023833923
0.00052641885
0.0265082
-0.01820928
-0.016273618
0.014744401
0.0022023704
-0.026914723
-0.037581034
0.08068745
-0.0698227
0.06516003
0.042142022
-0.029088564
0.014498906
0.0322381
-0.01716092
-0.039300498
0.0142938085
0.0058978545
0.031182542
-0.056844715
-0.0009457247
-0.0041773478
0.04444893
0.08123314
-0.052332874
-0.0015883063
-0.0013494082
0.0011088153
0.049240176
0.06918582
-0.016703086
0.018239366
0.033376876
0.029997297
-0.035020802
0.046927486
0.02484942
0.0056211245
0.081967294
-0.0003641982
0.027344987
0.0133784
0.09394405
0.0033787847
-0.03225886
0.012753732
-0.012960226
-0.033190515
0.016728448
-0.009897028
-0.029372264
-0.04035659
0.06241426
-0.01499968
0.018420426
-0.032352004
0.034340795
0.039541226
0.0651572
-0.03627405
0.0062658163
0.0023222435
0.008526731
0.067849405
0.04184986
-0.011720188
-0.040328354
-0.038700517
0.0059210784
0.024343764
0.008595509
-0.058764864
0.022363184
-0.029640263
-0.032664694
-0.020904241
-0.00402194
-0.0014589843
-0.004768396
-0.06431867
-0.027833367
0.0028136724
0.035102624
0.06724561
-0.03766719
0.03282305
0.04707162
-0.025224976
0.015717972
0.019654065
-0.055281058
-0.0336193
-0.020774432
-0.02421399
-0.02070304
0.037697095
-0.05918796
-0.010449324
0.014379164
0.014627406
0.021547746
0.015435205
-0.024066258
-0.056145687
-0.018614331
0.006484564
-0.02211069
-0.005638408
-0.0026568037
-0.024899665
-0.037351884
0.01545882
-0.046111263
0.021480951
0.05016425
0.0011443598
0.044524644
0.021721529
-0.054611146
-0.014266158
0.016866876
-0.00017731517
-0.027116228
-0.015811758
0.013917792
-0.006612507
-0.002499524
0.0359782
-0.007301534
0.016712245
0.03920286
0.014231592
0.03148757
0.029290494
-0.072984055
0.0028785511
-0.008804563
-0.029505694
0.009398629
0.04521733
0.013973486
0.06707186
0.051316205
-0.008992931
-8.196043e-05
-0.00035143417
-0.02402936
0.014718131
-0.023044895
0.003916518
0.004084046
0.031417634
0.030232335
-0.019854408
-0.012871652
0.042100556
0.07071573
0.043789137
0.012803008
-0.019867783
-0.030886697
0.035132945
-0.029684812
-0.0004219846
0.026126519
-0.007281391
0.017758157
-0.022970527
0.0025535997
-0.04139945
0.034597836
0.0023536482
-0.015933024
0.045440968
0.04565454
0.025120687
0.021464296
0.024054533
0.05017147
0.010397915
-0.021973453
-0.029747097
0.06675873
-0.018954165
-0.014136124
0.0068595405
0.0016748172
0.014579755
0.02103423
0.030110482
-0.012268405
0.05287367
0.009125435
-0.0079476535
0.011227881
0.00084612746
-0.035736166
-0.031604245
0.008804334
0.024022209
-0.028116442
0.015088479
-0.011512019
-0.0064819986
0.008494938
0.0064376504
0.00034934032
-0.0003076227
-0.044094056
-0.012693301
0.03606332
-0.006862699
-0.030959008
-0.018379532
-0.0432755
0.039777968
-0.030417515
-0.034296356
-0.015894067
0.041185055
0.00013622348
0.037749846
0.05496321
0.1464492
0.0028262762
0.022831596
0.018810399
0.026871322
0.035485163
-0.037061147
-0.01664022
-0.04219309
-0.0032524765
0.0018909733
-0.033018805
0.006998866
0.034849126
-0.05388034
0.036545835
0.021333784
0.010958979
-0.039727915
-0.0048802295
-0.037773564
-0.025646217
0.013702947
0.032561477
0.019199193
0.00524728
-0.017661672
-0.011444116
-0.028486833
0.03735089
-0.02493323
-0.020429133
-0.011854273
0.032138806
0.013543543
0.0065396847
-0.015829053
-0.03698218
0.01606322
-0.030732654
0.041950967
0.030012432
-0.048479017
0.039004028
-0.00485725
0.027525544
0.015792394
-0.011670421
-0.014576602
0.012112234
-0.003668815
-0.0072879186
0.09463326
-0.07612455
0.04073362
0.020411044
0.023156716
-0.0015708029
0.013351916
0.022418587
0.011899773
0.089514606
-0.030117817
0.022500377
-0.0029609965
-0.020137407
-0.0034323644
0.0432809
-0.018934164
-0.045011856
0.0009723456
0.04589271
0.046594378
-0.015981702
-0.017512986
-0.0316771
-0.060041327
-0.029111758
0.012458324
0.05294266
0.07706322
0.012545965
0.0015268545
-0.0076481025
-0.04106198
-0.05044272
0.005857377
-0.054455634
-0.017556652
0.018498268
-0.007360734
0.0012035699
0.021347856
-0.03204815
0.011639101
-0.021907972
0.031977084
-0.02832404
-0.0058608246
-0.020260945
-0.047355436
0.0012231433
-0.044821724
-0.03287495
0.057816464
-0.06501973
-0.015608107
0.029051946
0.015418865
0.0050772675
-0.010612917
0.026952539
0.06960718
-0.03088106
-0.03193884
-0.0019456953
0.01267648
0.007843911
-0.015530714
0.06840145
-0.0037032063
-0.0014691611
0.018375928
0.025780031
-0.01731147
0.027397096
-0.0051872395
-0.018977476
0.042633045
0.008004909
0.029374043
-0.0066598263
-0.03659229
-0.028821532
-0.021675607
-0.028557384
0.0044358913
-0.027505323
-0.003131422
0.006326928
-0.005753064
0.018330058
0.0059596077
0.022927828
0.0013212346
0.03599278
0.033662625
0.0734778
-0.00043877057
0.06454127
0.073972344
0.04057782
-0.054113816
0.04667027
0.04067787
0.009938577
0.01734582
0.010571828
-0.025644511
-0.047890697
-0.025533406
-0.00924888
-0.023226153
-0.05734726
-0.031571504
-0.0014886874
-0.018639239
-0.025893226
-0.013315354
0.027755078
-0.009645784
0.0100463545
0.055204842
-0.06320543
-0.044156287
0.014496459
0.011363916
-0.056230795
-0.00048492439
0.0064155785
-0.001594556
0.0035661866
-0.02910808
0.039168477
-0.021664489
-0.009604642
0.031091077
-0.04051683
-0.009105295
-0.039915428
0.06536032
-0.005018511
-0.018619196
0.01895009
-0.06376722
-0.024647642
-0.005460011
0.0032951715
-0.033511654
-0.024458539
0.007898618
0.019477248
-0.018932253
0.089915164
-0.013256087
0.006714248
0.036004137
0.015121639
0.029252838
-0.011354988
-0.013228344
-0.06250638
0.0129124215
0.025955424
-0.0023201557
-0.005470607
-0.01711644
0.0027522333
0.04188324
0.025844464
-0.011889453
0.022454873
0.009724104
0.015357924
0.011920441
0.018899828
-0.0632238
-0.03732748
0.014388539
-0.052692454
-0.0029537762
0.054013953
-0.0011896191
-0.025832504
0.023295047
-0.008788801
0.0032446191
0.020926856
-0.046315245
-0.008104195
-0.024372125
-0.0010923414
0.017526459
0.069424205
-0.0014552678
0.0043970766
-0.029755307
-0.0057799607
-0.022677254
0.06717835
0.01359706
0.082408324
-0.026315812
0.0149916755
-0.0040849755
0.014200437
0.051397096
-0.027630305
-0.023935804
-0.05078274
-0.015324287
0.0028960728
0.03038653
-0.0017828839
-0.07983282
-0.025053915
0.0765424
-0.011752921
0.0014768078
0.023276707
2.848302e-06
0.03385228
-0.033620562
0.008834599
-0.019094067
0.0070165023
0.04095016
-0.030634921
0.0043660887
0.011456463
-0.03175831
-0.0003849857
-0.015215968
-0.0005295546
0.013361134
-0.016735207
0.0064133075
0.0012550695
0.013384956
-0.007588641
0.030899908
0.048971836
-0.010654934
0.017187845
-0.0447475
-0.020974064
-0.0154265845
-0.026873238
-0.005400278
-0.010633164
0.018144354
0.018189559
0.020655528
-0.026598055
0.01383728
0.004342835
-0.040942695
-0.031039817
-0.017966479
0.032163147
0.00672924
0.009566271
-0.019330053
0.014972493
0.0019219022
0.005949112
-0.06567785
0.022957332
-0.017175158
0.032791547
-0.055552237
-0.037314717
0.0056676264
0.05830452
-0.018307617
-0.00509248
-0.02402236
0.08812619
0.0029309737
0.0031528757
0.00080426957
-0.05955727
0.02385548
0.005364163
0.0032808043
0.0012431929
-0.004793167
-0.057201855
-0.00022861801
0.054017864
0.023717424
0.020638272
-0.010643306
-0.0036735889
0.022289477
-0.022678912
0.0368809
0.019260664
-0.03766706
-0.0039991047
0.026616506
0.0032051364
-0.027654113
0.025451211
0.008010471
0.043235023
0.026866948
0.102726825
-0.011243693
-0.012775144
-0.04500923
0.10841385
-0.07839684
0.011667633
-0.034075785
-0.016752487
-0.08246414
-0.0030435503
-0.04498339
0.03731193
-0.0011476049
0.029903745
-0.0050310125
-0.015972285
0.035321288
-0.05531748
0.0091558155
0.03377151
0.0060085873
-0.034677897
-0.011683583
0.023503445
-0.04559945
0.013167943
-0.06734265
0.09900664
-0.02686172
-0.006306093
-0.037550345
0.055636764
-0.029417176
0.047398984
-0.03060506
0.0030010438
-0.055781383
0.008017383
0.00589896
-0.06406059
0.024645299
0.0033111363
-0.079176284
0.036449432
0.00019439435
0.018484963
0.008903308
-0.0034355412
0.009761359
-0.024395287
0.03904176
0.03468281
0.030085284
-0.011392719
0.04080878
0.017748691
0.036002688
0.0036228267
-0.008408779
-0.0569095
0.03173748
-0.016132338
0.0544485
-0.026479816
-0.017678292
-0.049577978
0.039681192
0.027483735
0.024735412
-0.0018487708
0.012620528
-0.0129272165
-0.03499932
-0.061994273
0.0047808094
-0.030480534
-0.027336415
0.06394076
-0.024173733
0.0024940881
-0.02384418
-0.07727562
-0.001633141
0.061119188
-0.032463416
-0.041782152
0.008420249
0.029594218
-0.034345534
-0.008689962
-0.009635791
0.004699586
-0.020580042
-0.003994102
0.028529607
0.02438015
0.028193088
-0.0026751054
-0.010762848
0.008711733
-0.0140496995
0.011450386
0.0038518973
-0.006229446
0.0053731436
-0.061490748
0.013072366
-0.023197936
0.037068464
0.004296209
0.011418887
-0.011892129
0.048483703
-0.01043639
0.0073569245
0.018695094
-0.082849376
0.012722909
0.015736517
-0.0066034673
0.0072215702
0.035132684
-0.02403533
-0.0054822415
0.020112263
-0.037536316
0.038781743
0.10286418
0.040037554
-0.0860338
-3.6682522e-05
0.041046727
-0.0036728773
-0.006617756
-0.011035599
0.038742907
-0.0037104392
-0.0349259
-0.06629674
-0.020038528
0.043153238
-0.046760898
0.039683558
-0.011018457
0.029137157
-0.038445655
0.034269493
-0.02550197
0.023287863
-0.036398392
-0.031687345
0.015378035
-0.020468684
0.019227939
-0.010998675
-0.013420233
0.08909224
-0.031904716
0.030255638
-0.014883112
-0.014464947
0.0025444385
0.03608342
0.019423842
-0.10421769
-0.01033675
0.050116092
0.03284488
-0.0069306553
-0.0106615415
0.06164241
-0.018596856
-0.03646029
0.018628329
-0.035464287
0.0019819303
0.008876946
0.10125579
-0.061582
0.022508493
-0.00994676
-0.018455686
0.099612
0.010562492
0.027415877
-0.07836332
0.0142997755
-0.011967175
-0.08610143
-0.06025444
-0.024620242
-0.017881375
0.05104865
0.010092164
-0.0031583142
0.051554136
-0.007067163
-0.042907353
-0.034821585
-0.030213065
-0.0179937
0.012670116
-0.011173012
0.014712717
-0.07230956
-0.026484452
0.08881821
0.03258688
0.012666006
0.032929894
0.017131297
0.016237974
-0.0036585946
-0.02550544
-0.014696084
-0.019246893
-0.021979947
0.028256869
-0.014395791
-0.05367138
-0.041836422
-0.0005519674
-0.006150834
-0.02137843
0.10222686
-0.021996
0.07250235
-0.006303044
0.08350379
-0.0054333033
0.029982714
-0.051125754
-0.027471865
0.012815667
4.421493e-05
0.030013625
-0.051729202
-0.026781693
0.021168184
-0.0075168246
-0.04158735
-0.009890751
0.092967495
-0.0012583856
0.014533926
0.0039319824
-0.018072704
0.014041774
0.0034269039
-0.007544767
-0.035948873
0.015572059
0.029114958
0.014716174
-0.043026917
-0.042836323
0.0026450288
-0.0019792204
-0.0372454
0.025796045
-0.04517483
0.004448764
-0.005494421
0.027147353
0.08464592
0.008576046
0.000399474
0.0067001935
-0.0074173086
-0.031011455
0.051368814
-0.017595682
-0.002876704
0.032813426
-0.021311505
0.012405012
-0.026631434
0.065417334
0.07105272
-0.021598842
0.068680376
-0.021718452
0.02651553
-0.031266544
-0.014419646
-0.0026766332
0.02165164
-0.042486362
-0.02306994
-0.024269208
-0.064417854
-0.0395032
-0.00399007
0.007692841
-0.04346067
0.0036065886
0.011785179
-0.015483123
-0.0024216578
-0.04305353
0.014331506
0.04099428
-0.035889674
-0.029963348
-0.047770303
-0.06918398
-0.007917395
0.006210934
0.038214453
-0.014476127
-0.0728853
-0.03226245
0.0070537524
-0.03109409
0.03053334
0.019766761
0.06258549
-0.0049614026
0.024042075
0.0038679647
0.0030376788
0.04244726
-0.05487059
-0.009976009
0.007427292
0.06771465
-0.026513208
0.0033860567
0.0085883755
-0.02077266
-0.029201146
-0.008126001
-0.003126843
0.0326475
0.037727654
-0.038555715
-0.03437352
-0.010698009
-0.03148165
0.03517755
-0.0003192592
-0.04502651
0.017463425
0.05482249
-0.026593765
-0.0074165817
0.014463185
-0.0040679225
-0.00020641813
-0.025115984
-0.011467559
-0.012504522
-0.0231854
-0.058393322
0.033663336
-0.012932816
0.013706261
-0.020605376
0.021432461
-0.03287489
-0.009845895
0.0049560242
0.015221968
-0.071713276
0.037845626
-0.009739206
-0.031809565
-0.03961749
-0.06732135
0.062068805
0.04302598
-0.0023908205
0.012523261
-0.020049214
-0.02867772
0.010275753
0.012786489
0.042565543
-0.004316742
0.060520273
0.030220684
0.023487516
0.04577783
0.040538903
-0.05697596
-0.01301315
-0.009860342
-0.0019417307
0.01911165
-0.042597566
-0.025613986
0.019954955
0.055030767
-0.06908784
0.078415595
-0.014352748
-0.031736054
0.014272467
-0.005427906
-0.055180438
-0.005094517
-0.029605402
0.021440247
0.007850312
-0.0739696
-0.005922318
0.033838667
0.040045265
-0.052576374
-0.00025780266
0.06318987
-0.044844393
-0.0042226627
0.015100852
0.08072449
0.007215573
0.023890464
-0.06343079
-0.012839379
0.008208582
0.050846986
-0.005042845
0.0040640426
-0.02959388
-0.035385735
0.02899918
-0.0054550953
-0.06592344
0.0053818035
0.036105167
-0.031387523
-0.08547877
0.022511369
-0.009368904
-0.0044258917
0.013501002
0.054846793
0.030163607
0.02321686
-0.048682887
0.07279453
-0.041261286
0.023781946
0.02641068
-0.006201889
0.0007806605
0.06279452
0.0056885
-0.007345178
-0.014345622
-0.02173903
-0.020088691
0.02854649
-0.003503672
0.035189494
0.0469585
-0.060125202
0.016077042
-0.048166443
-0.018014062
0.07015558
0.025795173
0.029318001
-0.04623642
0.044955745
0.027723387
-0.0570098
-0.042207506
-0.054871976
-0.025150435
0.042303894
-0.023678582
-0.024732657
-0.009335191
-0.0008587759
0.005901254
0.06228781
0.0036092936
-0.074845545
-0.004825398
-0.0007373237
-0.07026404
0.04367312
-0.036715165
0.09422795
-0.01154216
0.011651752
0.03156808
-0.12808554
-0.02189128
-0.015581908
0.038023934
-0.057272565
0.0077061476
0.043479655
0.04290138
0.011650556
0.01733533
0.023802467
0.007532758
0.008830473
0.028040161
0.023624815
-0.026097262
-0.04581797
0.024098665
0.025549462
0.01802473
-0.018009827
0.032764122
0.0047649024
-0.03939219
0.018422903
0.035468046
0.016359037
0.0046137255
0.06099321
-0.03928737
0.030244121
0.037272375
-0.012354875
0.02683098
-0.009093593
0.00849964
0.014674559
-0.04528448
0.022093471
0.02523972
-0.032781225
0.05507263
0.00023072257
-0.030171447
-0.041247375
-0.012016174
0.022949476
-0.039768647
-0.049728043
0.015346003
0.032978974
-0.011533507
0.059675843
-0.011969809
-0.002601003
-0.045725267
0.009311786
-0.033843197
0.06469433
0.022292238
0.00091475924
-0.0048219087
-0.066567264
-0.03621289
-0.004098385
0.0071266596
0.023780722
0.047926553
-0.03404195
-0.0030147987
0.01982513
-0.0016313691
-0.021072889
-0.01772447
-0.04499417
0.016100585
-0.042914096
0.028964825
0.055671692
0.030006794
0.043885108
0.015434171
0.028336765
0.046905495
-6.6362816e-05
-0.029307848
0.027811732
-0.021042395
-0.008407934
0.019838147
-0.067908436
-0.00590778
-0.014490209
0.026763516
0.005477559
-0.060247604
-0.0416522
0.015163834
-0.019003607
-0.04252128
-0.0023010448
0.002667042
-0.038745042
0.021589037
0.02582665
0.091035366
0.06380343
0.030851586
0.0106873745
0.011710964
-0.045179475
-0.010563176
-0.009981589
0.025966235
-0.055937335
-0.020802138
-0.034777936
-0.011623145
-0.03841977
0.031359766
0.022910727
0.032247096
0.011708739
-0.024097385
-0.012313052
-0.045715332
0.04293241
0.025378324
-0.046947766
-0.0143287275
0.0137184
-0.011236121
0.032639258
-0.026235923
-0.0025084473
-0.005997085
-0.012167982
0.008480861
-0.034092635
-0.03258393
-0.079813346
0.026644906
-0.0818902
0.008194162
0.04620958
0.0023406467
-0.017905962
0.10934015
0.027196437
0.01620404
-0.0010347401
0.0042739306
-0.02619319
-0.038714636
0.019093262
-0.012253446
0.003377768
-0.004893202
0.007944694
-0.014909584
0.017220292
0.023853589
0.011638644
0.06370537
-0.059216045
-0.0033571266
0.0018634367
-0.07260095
-0.006983478
0.045289543
0.03773565
0.020027697
0.056263972
0.019538928
0.023355726
-0.035113513
0.036485124
-0.047620986
-0.008226314
0.038069833
0.030387532
-0.00024434004
-0.06172925
-0.0052912743
0.015172792
-0.028666899
0.04211495
0.072420254
0.06424532
0.054350056
0.018005999
-0.0009077413
-0.10296997
0.0065334705
0.03084081
0.025790635
-0.034281537
0.053603347
-0.012604766
-0.09344607
0.08253556
-0.086105175
-0.047750663
0.014531664
-0.034817465
-0.0015008084
0.02464346
0.03968535
-0.2311784
-0.005575527
-0.037381098
-0.050155703
-0.10225759
-0.1761054
-0.054267444
0.012588682
0.04830699
-0.04417498
0.096290395
0.07304117
-0.09877992
-0.108292855
-0.08958622
-0.0011356433
-0.004480567
0.18343273
0.06787051
0.034571793
0.016978206
-0.11263554
0.057379346
-0.004530396
0.039098725
-0.07078701
-0.009738648
-0.03380562
-0.0049021407
0.044821706
0.038639367
-0.11411502
-0.040704075
-0.004263975
-0.08872701
0.12136858
-0.14893547
0.015253242
0.107411645
0.005710354
0.02044832
0.049686853
0.060392484
-0.0021344973
-0.29364964
0.0064205625
-0.04514875
0.04238726
-0.13239743
-0.12250434
-0.08927703
-0.20186144
-0.015252255
-0.014099527
-0.032920986
0.030145349
0.037833087
-0.017366191
-0.04157032
-0.07351095
0.14451255
0.038421944
0.089980006
-0.06084117
0.04713313
0.009349315
0.007781605
-0.033868212
-0.076984584
0.06920514
0.048401423
-0.12316323
-0.06508261
-0.08465956
-0.028610775
-0.04447122
-0.048905198
0.034359608
0.03462094
0.1026437
-0.03211575
-0.047803666
0.0040409896
0.007919456
0.11540306
0.17326505
0.0706188
-0.04969367
-0.011481486
-0.01697247
0.078284085
0.006389299
0.08307454
0.05908466
0.018861737
0.10892997
0.020483453
-0.025211958
0.09263738
0.056759655
0.1065844
0.11920935
-0.031244997
0.020747013
-0.104220584
-0.02617715
-0.09290052
-0.04144691
0.025859823
0.010453827
0.049435258
0.063508935
0.063949525
-0.11052414
0.13923146
0.0773379
-0.005610345
0.052569784
-0.037436035
-0.010621395
-0.012793616
0.03166966
0.08203646
-0.099488586
0.007621467
-0.027026199
-0.013086802
0.031851802
0.06143113
-0.005281516
-0.069884
-0.02303149
0.07038893
0.051958714
0.015451147
-0.009545011
-0.07463592
0.026424471
-0.029232038
-0.07518755
0.03270363
-0.018710885
-0.06428679
0.06296828
-0.20773043
-0.0074310014
0.04195471
0.03143101
0.009906642
-0.04865728
0.026361203
-0.07088262
0.033399716
-0.077965826
0.057667043
-0.045866553
0.020167422
-0.10101604
0.033793665
0.12671328
-0.07625742
0.019405607
0.008627513
0.061152954
-0.04066446
0.02693973
-0.029104616
0.020814057
0.047898572
-0.053180516
0.030035619
-0.087042004
0.007871202
-0.15850918
-0.07386223
-0.051860124
0.078775525
0.044197384
0.040562455
-0.0914374
0.1347374
-0.012620131
0.0074856873
-0.13360089
-0.06161486
-0.037854806
-0.0051718582
-0.08356141
0.05611171
0.026151666
0.04556344
0.009393139
-0.0105693415
-0.051144276
-0.12332733
0.0030388567
-0.13387607
0.14746289
-0.042684194
0.0098123215
0.067184865
0.059926774
-0.0032652137
0.013593739
0.12922333
0.124443896
-0.07532838
-0.10453263
0.11735007
0.00028156978
-0.028929839
-0.0716854
-0.062306542
-0.0072979922
0.013480505
0.18773067
0.106706455
-0.029076377
0.018497463
0.03081118
-0.0012078509
-0.05615918
-0.0068079014
-0.011050731
0.04448248
-0.018316366
0.041490182
0.05005095
-0.068255395
-0.011247738
0.01164839
0.071648985
0.0434391
-0.057595044
-0.104508646
0.049842373
-0.056825977
0.09086378
-0.12215461
0.047584843
0.02549515
-0.047201227
0.05703709
-0.025090482
-0.11315397
-0.10772836
-0.047165617
-0.029202286
0.04326563
-0.07155832
-0.03476933
0.05125658
0.010888646
-0.01600144
-0.14395206
0.099827714
-0.005869754
-0.082402766
-0.121235184
-0.04533559
0.05973151
-0.020747015
0.01563073
-0.047293294
-0.05005674
-0.06304433
-0.006417299
0.09163709
0.05635575
-0.033160985
-0.027418245
-0.06810427
0.073258266
-0.05719895
-0.027780427
0.060860302
0.05560917
-0.1320158
0.023631694
0.033409823
0.0714236
-0.004577905
-0.017685732
-0.064801544
-0.033903312
0.009879222
0.045540996
-0.09770744
0.049952
-0.032769173
0.059963293
-0.120849386
-0.029332224
-0.044042945
0.026324984
0.0646121
-0.08020169
-0.054640863
-0.1100322
-0.049534507
-0.018997585
-0.092920415
0.00542859
0.00075232075
-0.07901702
-0.051963072
-0.030365756
0.00060081674
0.012348743
0.09341746
-0.0341977
0.04365219
-0.018737216
-0.04236719
-0.03092414
0.007675151
0.1260701
-0.0042445958
-0.1182008
-0.09023058
0.040364485
0.08314086
0.10778276
0.004303884
0.085067816
-0.094480865
-0.15527847
-0.05281142
-0.018618967
0.023531742
-0.031033833
-0.04640809
0.014055201
0.07756576
0.03183247
0.12038982
-0.096808225
-0.11660783
0.008237896
-0.07834684
-0.049839567
0.029043254
0.03889693
-0.09394548
-0.021389358
0.080274455
0.01787509
-0.0057238224
0.023862313
-0.035620295
0.012641029
0.013162669
-0.02958861
-0.040950667
0.114810765
0.07468728
0.0021652817
-0.01510373
-0.0003584903
-0.048280198
0.025611417
0.017455785
0.094737455
0.10700929
-0.026214473
0.053381782
0.009877093
0.009484609
-0.018315246
0.03434959
-0.15937349
0.20204903
-0.040982433
-0.016791305
-0.0026287108
0.026671402
-0.04557199
0.0024159127
0.030471101
0.058681596
0.00776221
-0.20266746
-0.004779529
-0.17455964
-0.050240077
-0.08996332
0.13479382
0.019023482
-0.019207112
0.025696719
0.011277425
0.034532204
0.07015503
-0.10406576
-0.08521403
0.023910657
0.027041944
0.0054205055
-0.04807852
0.06886282
-0.23774537
-0.005304776
-0.0047421684
-0.04045157
0.054919004
-0.010415955
0.06795071
0.01857227
0.065161794
0.059928734
-0.052794985
0.007000994
0.10634451
-0.0027939624
0.018482381
0.11724597
0.006194679
-0.035128776
-0.038103733
-0.026621545
-0.020073747
0.28623673
-0.0052805953
-0.0171028
0.003674184
-0.0022751205
0.018658703
0.08126198
-0.11982963
0.13055359
-6.2428975e-05
0.031993907
0.11125972
-0.013480096
-0.011574217
0.09439505
-0.045282256
0.01510312
0.24256168
0.1505701
0.01803829
0.0063794516
0.055622745
-0.06773359
-0.13544454
-0.003430186
0.08283325
0.0032618858
0.13276973
0.052779857
0.101131976
-0.30867714
0.17923997
0.084676385
0.014805606
0.008038079
-0.071303904
-0.010215994
-0.083289415
0.26242843
0.09706668
0.021347247
-0.040784635
0.07173846
0.022867475
0.028632887
-0.18289192
0.0047718585
0.03249256
-0.00042458353
0.23485918
-0.14577654
-0.02085045
0.029102389
-0.16869743
0.13506934
0.03662351
-0.004998461
0.07456346
0.048296668
0.090281524
0.04961403
-0.14757434
0.04966081
0.0664734
0.0934846
0.06373758
0.0932311
-0.0053615277
0.013633527
0.11255162
0.013064088
0.05234189
0.036601063
-0.0347147
0.099292025
-0.028208205
0.0059639825
-0.047558036
-0.00393568
0.021123178
0.18672012
-0.0036146415
0.022188814
0.17906852
0.0011596924
-0.02835938
0.02364692
-0.07065132
-0.033984073
0.04546207
0.030854765
-0.00828
0.057864256
0.044397704
-0.028905967
0.00079124817
-0.03565623
-0.10253901
0.054465525
-0.05979595
0.034651827
0.13892086
-0.034218717
-0.0408125
-0.028950319
0.009225549
-0.0032492941
-0.122777075
0.05553738
-0.003400813
0.00014402463
0.09231115
0.06738576
-0.05422133
0.03181558
0.07527772
-0.0047217873
0.13068543
-0.27051362
0.012688869
0.021375543
0.16297497
0.024800584
0.049621105
-0.0033654617
0.03569078
-0.026135515
0.00592563
0.12174095
-0.06815309
-0.025808195
0.08673424
0.065548964
0.039584097
-0.054833043
0.014769647
-0.008128031
-0.2052561
0.031730354
0.03862033
-0.028179787
-0.0209761
-0.033744056
0.006291429
0.08799306
0.03993603
-0.20268121
-0.20735939
0.052654125
0.07620667
0.043404095
0.033168085
0.26894718
-0.06482265
-0.041028824
0.060444057
0.018204782
-0.019445656
-0.049876634
-0.0875414
-0.0039513065
-0.040466152
0.015722286
0.006632201
-0.058864832
-8.419546e-05
0.0047179437
0.0918149
0.037287116
0.103964746
-0.001553668
0.0011850585
0.021398008
-0.22803839
0.06260785
-0.019358184
-0.16763593
0.0058533656
-0.02660723
-0.04770039
-0.030702794
-0.042123668
-0.15375572
-0.15650053
-0.06060466
0.14833899
-0.045065
0.03966591
-0.021107612
-0.0018800627
0.012057535
0.17850532
-0.003707159
-0.09895032
-0.031492975
0.09862821
-0.018553803
0.09585988
0.03489296
-0.022088714
0.0056589576
-0.04840866
-0.01155284
-0.015628388
0.021566877
0.09300238
-0.030467577
0.13783015
-0.0075740353
0.026563881
0.007840321
-0.09514102
0.011823024
-0.050529566
0.047808677
-0.005555947
0.10364556
-0.103763744
0.15706654
0.00027381998
-0.05296867
-0.008652352
-0.043246035
-0.1619278
0.09212877
0.030408455
0.013654458
-0.122855596
-0.06776737
-0.089044765
-0.011310428
-0.022277432
0.024896057
-0.12506266
0.11466881
-0.08730621
-0.07926779
-0.077102706
0.14768875
0.0047306237
0.08401834
0.053106997
-0.038130555
0.023344282
-0.12551682
0.05038421
0.1065963
0.03152215
0.04826174
0.039435532
0.032079
-0.016301904
0.014675912
-0.15087909
0.026762204
-0.16316035
-0.044210438
-0.06362106
0.017001932
-0.13433066
0.0015974075
0.01318143
0.079203755
-0.16374895
0.071754225
0.034415714
0.10261315
0.03564068
0.02210088
0.095406584
-0.12911482
0.047999837
-0.0056635845
-0.04493398
-0.05369076
0.042244576
0.02540991
0.02432747
0.15771602
0.059680812
0.0013638487
0.007969434
0.14796399
0.0032231833
0.015724767
0.01845244
-0.038184192
0.02601765
0.06166628
0.07207419
0.0924556
-0.15117358
0.056873694
-0.0045131077
0.09423168
-0.0979135
-0.07551646
-0.15536019
0.01370245
0.009578644
0.04781799
0.29716665
-0.09012609
0.04473205
-0.09731876
-0.16529872
-0.013946813
0.009394763
-0.010004083
-0.016720353
0.00952804
0.02807164
0.017707288
-0.009314108
-0.06478762
0.009216492
0.10700127
0.0014379033
0.0034038203
0.015504379
-0.012441474
-0.0070076003
-0.013999711
-0.1305674
0.04787435
0.0017988898
0.03625646
0.036882974
-0.032706253
-0.0940826
-0.006629599
0.10390018
0.017581776
0.0013474878
0.14021471
0.028464396
-0.033478886
-0.23012112
0.020388821
-0.047792096
-0.09415653
0.060605463
0.061755024
0.032264188
-0.004318533
0.24396469
0.14174576
0.017824015
-0.018411392
-0.005771451
0.16311441
0.0027720416
0.006492983
0.042810462
0.01139657
0.1767749
-0.0033445426
-0.065576345
0.016109217
-0.026974183
0.0124974195
0.019979525
-0.0020480591
-0.012938945
0.014454432
-0.025669461
0.018620046
0.0057631284
0.0057756575
0.0076255132
-0.019960713
-0.010563953
0.0108320145
-0.04047244
-0.06508865
-0.000937313
-0.017833354
0.030347373
0.01174607
-0.029124342
-0.0015118684
-0.07704844
-0.05538962
0.0116092255
-0.00916876
-0.003394119
0.062139392
-0.017655367
0.011077623
-0.002504747
0.010392154
0.022243358
0.0058284793
0.038015462
0.027547069
-0.0682304
-0.04819525
0.009171041
-0.012034246
-0.05118881
0.008029172
0.03265105
-0.041200675
-0.04465315
0.0012300295
0.0177223
-0.0013655007
-0.002615527
0.010384525
-0.012779659
-0.01951233
-0.011581065
-0.032709535
-0.00027074083
-0.02302126
0.0015885067
-0.03585895
-0.012750026
0.047921102
0.026855549
-0.028943913
-0.030974172
-0.03446502
-0.018200925
-0.03427622
-0.003404675
-0.05301427
0.015090808
-0.009586019
-0.046117283
-0.009265158
-0.008817408
0.015867442
-0.07404062
0.0051707486
0.021628043
0.038709432
-0.033838917
0.0041058925
-0.006281799
-0.050850164
-0.026596526
0.0101111075
0.0045874976
0.029752202
-0.013081564
0.08428303
0.035165396
-0.0038038923
0.009887047
-0.010810571
-0.13722585
-0.053826194
0.041971274
-0.0010582252
0.00850142
-0.008300574
-0.014831467
-0.010950926
0.013718858
0.10220859
0.0023500503
0.07563952
0.06419849
-0.02352189
0.025759488
-0.012316922
0.04411168
-0.01074315
0.026322195
0.02966004
0.027773695
-0.006662026
0.04184204
0.010658301
0.04113132
0.019928085
-0.0011142531
-0.019609997
0.009512648
-0.003318266
-0.008060534
0.020934887
0.010098826
-0.06886048
-0.067205794
0.009791333
0.024238976
-0.00252165
-0.031107634
-0.026158618
-0.008391181
-0.004477777
-0.098708525
-0.09477893
-0.033433087
-0.014804713
0.028509788
-0.020224934
0.048919056
-0.09308665
-0.0119345635
0.0011639737
0.054704588
-0.0029379362
-0.010092772
0.08795606
-0.032689482
0.06589081
-0.020967487
0.031273764
-0.01601968
0.02882284
0.013564269
0.023487113
0.009391765
-0.009166698
-0.019426981
-0.02236639
-0.015007143
0.00554038
0.022428999
-0.06603802
-0.0009335686
-0.031394932
0.039080292
0.07491161
0.026863962
0.03930363
0.028956965
0.008926464
-0.033472348
-0.03260818
0.10122192
0.00032180705
-0.0047499216
0.018384168
-0.036205757
-0.04563061
0.011297595
-0.02500354
0.002905185
0.07476711
0.02349574
0.0035524538
0.025463227
-0.033099335
0.019761452
-0.007847141
0.06852014
-0.020030957
-0.08492083
-0.017233916
-0.041741908
0.0065747467
0.012324601
-0.016477693
0.004389234
0.0011640734
-0.013169676
0.027109751
-0.034055486
-0.0030306939
-0.017217606
-0.052779917
0.10255241
-0.0024749474
0.042666707
0.0117714405
0.025604516
0.052243117
-0.0500501
0.0072957044
0.017372092
-0.032077685
-0.016964216
-0.0042733257
0.061790466
-0.0020247907
0.017887035
-0.0038657372
0.03552417
-0.021416457
-0.010979536
0.035704333
0.0146237295
-0.044396218
0.0058136717
0.007743584
0.015643997
-5.8406036e-05
-0.016075691
-0.035839804
0.015956836
-0.00085362286
-0.022518888
-0.022264158
0.01289162
0.016605694
-0.006151194
0.04720558
-0.06287635
-0.02727327
-0.011906271
0.004403649
0.04407779
-0.003961156
-0.030409405
-0.029082187
-0.003607442
0.05356059
-0.05258388
-0.009937445
-0.0042567593
-0.033174597
-0.014107678
-0.010683109
-0.00994575
-0.013948134
-0.021083487
0.005543121
-0.040787913
-0.00020344266
-0.032994024
-0.061616544
-0.08621477
-0.0076798336
-0.07131242
0.024869945
0.038251985
0.06333778
0.030102557
-0.007161178
0.00650085
0.03575745
-0.0005836133
0.025858602
-0.0015146188
-0.01584885
-0.0041784444
-0.014207821
-0.0057661785
-0.035950102
-0.0036839012
0.038871218
-0.039011974
-0.037944756
-0.009336559
0.013006371
-0.0017653147
0.017356627
0.03225692
0.015326623
0.010947339
-0.017052835
-0.0073280022
0.0014445772
-0.0020526904
-0.016929673
0.05958802
0.010209473
0.0403999
0.004143618
-0.005100821
0.009084278
0.048908006
-0.0007586032
-0.0017082111
0.07341336
-0.04404665
0.0060572494
0.015817609
-0.042808224
-0.027348684
-0.019275175
-0.018905124
-0.046601653
-0.024652524
-0.00208882
-0.009403331
-0.023589086
-0.047219932
0.047518633
0.031533245
-0.0012467736
-0.0034154488
0.011589279
-0.037911
-0.07145921
0.04198208
0.03221198
0.00662761
0.018619396
-0.019618003
-0.0013362148
0.006282527
-0.0023089137
-0.0006206982
0.010161857
0.0024060516
0.027310012
0.01572798
-0.048266925
-0.00707076
0.034070827
0.00093352125
-0.009239501
-0.0626978
0.0055275983
0.0014382267
-0.006295836
-0.01605178
0.041166034
-0.022029523
0.008131374
-0.043623596
-0.045002025
0.025148684
0.014041447
-0.04590279
0.012391414
0.028410718
-0.0048302887
-0.019790303
-0.026476672
0.026248654
-0.021893898
-0.03787769
0.023293497
-0.02676833
0.012639197
-0.034507222
0.00015527285
0.028713793
-0.02536774
-0.023520654
-0.04353269
0.014575635
0.023337413
-0.0035479467
-0.014155595
0.016088398
0.02342293
0.035118304
-0.026245242
0.015199543
0.03743161
0.031685926
-0.06268221
-0.020665927
0.014289859
-0.010826196
-0.018970797
-0.038632624
-0.024412882
0.025519952
-0.06844574
0.05709248
0.033413913
0.016089033
0.009465027
-0.038609184
-0.011023635
-0.010523232
0.02759559
0.039114755
0.007056527
0.016090376
0.0070259953
0.053926747
-0.004479884
-0.036570985
-0.0140320845
-0.015631236
-0.07069523
0.020570286
-0.014132534
-0.039761096
0.024292087
-0.0022656121
-0.024244122
0.024232727
-0.06074437
0.023819339
0.01212632
0.0012636675
-0.013811663
-0.00013164106
-0.02446405
-0.015329755
0.02106861
-0.057539713
-0.05748175
-0.058401786
0.027491398
-0.101239204
-0.036662817
-0.050565336
-0.009678809
-0.061066587
0.002443922
-0.03765071
-0.042928793
-0.020462373
0.040012717
-0.020461794
0.008592316
0.017605718
-0.02290198
0.061413124
-0.024654455
-0.0072915102
-0.00781009
-0.01612682
0.014945727
0.043827116
-0.02713049
-0.019441737
0.020052029
0.034267627
0.010008089
0.03471408
0.010162901
0.0055805454
-0.03593857
0.05116462
0.003369922
-0.024564778
-0.010351855
-0.056373574
0.007400717
-0.0018745483
0.041374132
0.016118465
-0.04185911
0.075890616
0.0017539439
0.017522985
0.014411147
-0.05452989
-0.035368845
0.011176245
-0.014768816
0.01743558
0.06731939
0.01449672
-0.016138192
-0.008532263
0.037014876
0.018726833
-0.025056498
0.06270573
0.011071868
0.036419515
-0.031924482
0.020715158
0.028255593
0.034725714
-0.041011926
-0.009666489
0.06528869
-0.07038148
-0.035353392
0.014555756
0.052580096
-0.03136026
0.0106712505
0.010019885
-0.040435355
-0.027633207
-0.025590934
0.0027661803
0.032017697
0.042884324
0.04150248
0.042469822
0.0009285411
0.019184498
0.007823869
0.0073552346
0.026082473
0.046602584
0.039035033
0.0027535716
-0.01692075
0.0090335235
0.07563133
0.03967604
0.0055264765
0.03848594
0.016452791
-0.008755143
0.0068561914
0.007697983
0.052608076
-0.031551436
-0.031184811
-0.0038733056
0.078949496
0.04173195
0.018049084
0.091472
-0.03216654
0.0036084673
-0.07167194
-0.030177964
-0.0355809
0.019266307
0.022284644
0.036955882
-0.00019615446
-0.052123073
-0.0155475885
0.014445783
0.014770476
-0.013057924
-0.026728908
-0.009779065
-0.017017214
-0.0048237396
0.0002402308
0.06814278
0.028201763
-0.01163403
0.011017727
-0.031454246
0.0196333
-0.05389013
0.022490261
0.038984533
-0.007862425
-0.0542118
0.0060917423
0.013028795
-0.018375402
-0.059342165
0.0112472745
0.03270195
0.012129362
0.0012764151
-0.05385834
0.0132499235
0.085665606
-0.048595972
0.023236679
-0.03396925
-0.020378286
0.011784348
0.022532294
-0.022140598
0.015934408
0.013664126
-0.0075528766
-0.01656773
-0.0147071425
0.03570319
0.018021654
0.038817924
0.007038893
0.046813723
0.030203985
-0.084947154
-0.026449187
-0.019752769
0.024024313
-0.042947523
0.09982422
0.019478377
0.018097319
-0.008952464
0.021940753
0.01532556
0.02178157
0.0277266
0.06678007
0.01918824
0.095669225
-0.0046238233
-0.04081697
0.08471716
0.0019115773
-0.07704757
-0.0070338845
-0.0594296
-0.017076097
0.004593835
0.029563025
0.018145898
-0.010863064
0.08313866
0.009910145
-0.02183165
0.030476293
-0.010068398
0.06758505
0.015938822
0.0037254784
0.014348248
0.052224454
0.054512467
0.07471016
0.03927489
0.026505869
-0.0043074638
-0.090720706
-0.094266996
-0.032231443
0.0036438964
0.042753004
-0.013837113
-0.009409212
0.021838529
0.020717135
-0.009123433
0.11421029
0.007877229
0.0017269838
0.054671496
-0.012639116
-0.02992492
-0.023138754
-0.016507054
-0.0299963
0.05801804
0.034345362
0.003848586
-0.010283761
-0.018079272
-0.010999995
-0.043535642
0.031618606
0.02836858
-0.0010162201
0.0003866891
-0.01433205
0.008827799
-0.012579893
0.0047702854
-0.0432926
-0.012192145
-0.034605406
0.006953081
-0.002575407
0.04830516
0.046121422
-0.028155318
0.01718101
0.009650565
0.012429275
-0.0049261157
0.041491818
-0.04913869
-0.0016333426
0.0016299678
0.02650704
0.025580812
-0.006875037
0.0016919281
-0.038104583
-0.027806606
-0.03798518
0.0060733436
0.03874749
0.020373583
-0.029380236
-0.01169713
0.004874272
0.026752215
-0.02694382
-0.009358932
0.007929548
-0.019279625
0.009644766
-0.02134543
-0.007664884
0.016012598
-0.01903924
0.020997243
0.07662059
0.028503872
0.04457393
-0.027212717
-0.01954309
-0.037936993
0.0026179994
-0.018393578
0.049191803
-0.0033069456
-0.00213108
0.041066337
0.024031784
-0.015213552
0.013312027
0.0042226794
-0.036023308
0.014587247
0.019674024
-0.018252732
-0.036039397
0.012203259
0.019853672
0.019975428
-0.047254916
-0.025086723
0.0010066165
-0.06257802
-0.00598932
0.06337085
0.01040631
0.015726265
0.021292916
0.0092789335
-0.07689024
-0.034291077
0.013233397
0.031246465
0.03162896
-0.0077356976
0.037041515
-0.029891638
0.009936933
-0.02341245
0.01607959
0.029117579
-0.030662607
0.011614087
-0.0047999746
-0.050724514
0.047085997
0.042805735
-0.040775344
0.031899825
-0.0035957368
-0.014657435
0.019282509
0.070828974
0.0042572753
0.022031829
0.0036883645
-0.031909853
-0.01014581
0.002594241
0.012350409
0.023660429
-0.038135864
-0.029478867
0.008779368
-0.020303618
-0.053319834
0.011236011
0.06395034
0.039496385
-0.009040815
-0.004132076
0.0067465333
0.004406728
-0.022187306
0.012910163
-0.01560019
-0.01794065
-0.0076497104
0.08581569
-0.012539141
0.0015658435
-0.03065048
-0.026679521
0.085952125
0.021323577
-0.045662176
0.028042214
-0.021304563
0.04172868
-0.068517625
-0.022072615
0.0062218844
0.016689334
0.01386328
-0.028002985
-0.039258078
-0.07155545
0.000111721965
0.0013660522
-0.02521458
-0.06063395
-0.04085183
-0.06571196
0.0045089554
-0.07001746
-0.013834004
-0.023990588
0.009781008
-0.008962438
-0.0562687
-0.037187684
-0.056185804
0.016387198
0.10104761
0.015672544
0.06832391
0.07514194
0.07136039
0.013081827
-0.0023755752
0.06975927
-0.038280517
-0.012962549
-0.03815126
-0.010447361
-0.08204917
-0.07227076
-0.1231665
0.055184796
-0.00083386677
0.008188029
0.08162073
-0.038959272
-0.043094262
0.043639965
-0.004784851
0.08933353
0.08430978
0.045123357
-0.06319208
0.031164574
-0.02137358
-0.053222556
-0.07951552
-0.026245631
-0.068447985
-0.0193335
-0.0750982
-0.013763055
-0.024394339
-0.034701657
-0.038522873
-0.02041646
-0.009466573
-0.0047588744
0.013429617
-0.03706402
0.06747406
0.055391163
0.048508976
0.011052609
0.06527857
0.046989486
0.09879078
-0.102978796
-0.06681266
0.0528179
0.042971436
-0.044917006
-0.031845525
-0.04473433
-0.013916858
0.042901073
-0.0056300596
-0.009707908
0.01952697
0.04948767
0.037425958
0.0066860914
0.03363204
0.010342136
0.013505098
0.0071969586
-0.036839105
0.019247446
0.008533014
-0.027980989
0.046029553
0.032890532
0.089263506
0.014034434
0.024649195
0.043003783
-0.025265852
0.051885813
0.005001761
0.013609195
-0.024463415
0.020228518
0.09198438
-0.006999363
-0.00057740876
0.04115668
-0.062349506
-0.03994344
0.035961434
-0.005733497
-0.035944667
0.01338753
-0.048024394
-0.025312893
0.04456387
-0.021027928
-0.048580494
-0.055742748
-0.03907858
0.0770901
-0.01235382
0.062408544
0.0022564814
-0.009344131
-0.030358171
0.054884885
0.042827766
0.023641506
0.013821683
-0.044722993
0.0071132225
-0.04080882
-0.026652245
-0.013332844
0.022132015
0.023015076
0.026732339
-0.040641934
-0.0603138
-0.1050068
-0.0044742227
-0.018946908
-0.003138761
-0.03362358
0.03035387
-0.07606108
0.048116263
-0.0038715894
0.03177862
-0.042338282
0.0074655176
-0.0016641397
0.04770004
0.015483227
-0.01063967
-0.022407321
0.01642607
0.020835454
0.014412926
0.061097562
-0.010427828
0.013579772
0.056598708
0.02120796
-0.07179633
-0.06647785
0.025696328
-0.015509798
0.016380565
-0.015592381
0.06660163
-0.0022689495
-0.068390466
-0.013085005
0.053030558
0.123193376
-0.0067826216
0.0010536709
0.020634333
0.034264844
0.027538368
-0.0018969616
0.012927944
0.020090548
-0.10303435
0.004975776
-0.027426707
-0.001572876
-0.037965577
0.03477321
-0.062122907
-0.022204503
-0.060587876
-0.047693383
-0.02881489
-0.082472235
-0.021105073
-0.07749185
0.044619743
-0.023058802
-0.005290008
-0.051988613
-0.029541643
-0.024875805
0.04525907
-0.003561195
0.026609363
0.00073128514
-0.016933702
0.008883119
-0.09012169
0.02036978
0.012213804
-0.006721455
-0.11071069
0.035178855
-0.06815959
0.08383852
-0.015912909
-0.07018734
-0.060953695
-0.028637784
-0.020469265
0.044136744
-0.03749622
0.019839203
-0.018101182
-0.048882116
-0.0165948
-0.00039250113
-0.034933973
-0.04248241
0.0069674896
0.012099946
-0.036197487
-0.016868176
0.012115191
0.023312401
0.022460708
0.045274723
0.039656863
0.12572095
0.0076342598
0.017018748
-0.059713613
-0.020206569
-0.0045672455
-0.035003595
0.06378746
0.026520882
-0.0077901236
-0.025802374
-0.04100288
-0.023660956
0.010200776
0.01217501
0.07404999
0.0125377225
-0.005333701
-0.06920198
0.0034185604
-0.00330703
-0.006338641
0.051941548
-0.028878558
-0.05582778
-0.047922585
-0.02123131
0.05986353
-0.020244572
0.0008826873
0.07522863
-0.00079044566
0.07052129
-0.0020492875
-0.0071316566
-0.020271579
0.0103266705
0.010933335
0.05309612
-0.017994843
0.042277504
-0.018023962
-0.044393614
0.03230521
0.03731922
-0.06717181
-0.011038025
-0.011156837
-0.041602977
0.0035703948
-0.012508567
-0.051504295
0.089313716
-0.039733075
-0.027398905
-0.0013127571
0.046979103
-0.12351015
-0.051960636
-0.058227777
0.08008943
0.04199002
-0.04177255
0.072458334
-0.03625708
0.003982448
-0.10420832
0.04756634
0.031850014
0.04609705
-0.044515282
-0.00539501
0.016008396
-0.0066425884
0.08086477
-0.041322995
-0.07645658
-0.01030278
-0.07718482
-0.003796831
0.011219147
0.0766944
-0.008043355
-0.036732923
-0.027839214
0.0096857045
-0.013965406
0.026960164
-0.0065350914
0.021672549
0.0045491997
-0.0020601891
-0.041831892
-0.015312257
0.019970573
0.04732899
0.012620114
-0.09270269
-0.04417604
0.022639353
-0.0001344178
0.029157322
-0.07263377
-0.04709065
0.020947719
-0.019502837
-0.043385684
0.012779529
-0.0014492677
-0.04139493
0.018343875
-0.013305077
-0.022246996
0.05129724
-0.01582817
0.052016094
-0.0017034534
-0.064979784
-0.014067059
0.01763814
-0.0040443065
0.03276214
-0.079392105
0.038451023
0.020485684
0.070895925
-0.0018878331
0.03951766
-0.019680388
0.048121717
0.05450565
0.049360722
-0.00674615
-0.04918187
-0.06562263
0.059247743
0.11491363
-0.0050176564
0.047623944
0.052203923
0.025065562
-0.006427789
-0.026055576
0.026046718
-0.0035028008
-0.018942323
0.047329277
-0.022467697
0.049569175
-0.07075543
-0.0009869571
-0.018644296
-0.076065734
0.03304451
0.017928815
0.044635028
0.071926914
-0.03025869
0.009488602
0.015125798
-0.037158426
0.034335077
-0.024672244
-0.03310958
0.02086565
0.01085296
-0.03256219
0.012105488
0.041115798
0.004599493
0.027825477
-0.009964078
-0.013446022
-0.046301387
-0.04410677
-0.033951525
-0.014991174
-0.02440722
-0.026046064
0.016412234
-0.014753149
-0.016151983
0.007465875
-0.017648228
0.031660367
-0.011764394
0.0066306205
-0.005374829
0.0152004985
0.04109773
-0.020242253
-0.006461739
0.018013036
0.018229961
-0.016767912
-0.011083444
-0.012526747
-0.03036787
-0.0074055544
0.013145125
0.04714406
-0.057918835
-0.019668581
0.080943115
-0.022245437
0.0097397445
-0.015407123
-0.049063563
-0.071881846
-0.017121958
0.016958695
0.04164268
0.019317186
-0.05560212
-0.017978963
-0.011033609
-0.025812231
0.020749154
0.029088583
-0.08407252
-0.01099115
0.019156687
-0.025010597
0.052404135
-0.0004435351
0.03062858
0.034117397
0.064406835
0.007207511
0.02661302
-0.00423035
0.05732201
-0.02080721
0.021987839
0.018851336
-0.004544481
-0.012089442
-0.056728315
-0.019583605
8.28001e-05
-0.007412854
-0.04549023
0.0091163535
-0.084894404
0.0964033
-0.022622185
-0.012092989
-0.024064811
-0.032091003
0.0074893823
-0.026878012
-0.013040998
0.010010621
0.0049220994
0.012686482
-0.0149502745
-0.03036308
0.040463213
-0.03391753
0.054190632
0.03543703
-0.048907932
-0.015156193
0.013801159
0.044441577
-0.014733272
8.545062e-05
-0.014521833
0.0022360636
0.0048191934
0.0130465
0.014228362
-0.06829737
0.016006276
-0.040166568
-0.004576311
-0.01787964
-0.03391973
-0.014578767
0.021204608
0.03427315
-0.0060067857
-0.020830562
0.0038288112
0.07275458
0.06517054
0.0039679715
0.03821863
-0.020043857
-0.010741689
-0.009911925
0.05369308
0.010846752
-0.024457065
0.04567096
0.016517855
0.005504665
-0.043250635
0.010544218
-0.005836741
0.010807601
-0.032785755
-0.07746826
-0.0046036467
-0.037126347
0.0039175954
-0.004106046
-0.006452908
-0.0664976
0.015478243
-0.056330297
0.084736206
0.11414843
0.021580039
0.050535124
-0.003573484
0.0063998443
-0.02000633
-0.028917184
0.044369582
0.044902857
-0.054924324
0.012906891
-0.019298771
0.008359942
0.01936852
-0.010777286
0.0527352
0.013347576
0.043918733
0.015050663
-0.046166882
0.023177184
-0.004334865
-0.012657824
-0.028988497
0.0061878683
0.042069416
0.029367024
0.022131521
0.0314295
-0.040840324
0.03885017
-0.0030624147
0.0064507034
0.0046850955
-0.014418129
-0.057180766
-0.028099744
0.066154085
-0.060870472
-0.03273553
-0.0019794356
-0.050011855
-0.012837812
-0.014180027
-0.02967329
0.0757798
-0.034461364
-0.007006896
0.005737369
0.01802603
-0.003833042
-0.0034659342
-0.008115857
-0.011719931
-0.044856567
-0.042564668
-0.00566914
-0.04836309
0.016701523
-0.00353666
-0.012600786
4.9545273e-05
-0.001814062
-0.046812575
0.009398294
-0.014973698
-0.061022915
-0.029802136
0.0012982427
-0.029586695
-0.06871463
-0.031946775
-0.0033323935
-5.7441088e-05
0.009219465
0.07821426
-0.052871183
-0.0031767762
-0.0054211733
-0.038877036
0.018886136
0.0007294726
-0.019871814
0.014718044
0.012714107
-0.009655643
0.05105328
-0.03541396
-0.011105392
-0.029200926
-0.039185915
0.040137134
0.004676352
-0.024345051
-0.0017152318
-0.004553423
0.057889976
-0.039824076
-0.008825936
0.005595774
-0.051159125
0.008886211
-0.01342501
0.05293504
0.03407371
-0.005020508
-0.02225831
-0.010265802
6.2889114e-05
-0.0072002052
-0.043994807
-0.01771554
0.023314236
-0.019607902
0.040974334
0.06690437
-0.021600282
0.03189314
-0.017663093
0.025270391
0.028971389
-0.005603947
-0.0347116
-0.010449516
-0.0008566373
-0.049811468
0.057087105
-0.04788784
-0.06576939
-0.041672453
-0.0053719785
0.0064793793
-0.047063973
0.009365061
0.0133446185
-0.072877094
-0.017624157
0.037007216
0.014529855
-0.018746031
0.023155382
0.04369555
0.013944168
0.040980093
0.03800993
0.0070975437
-0.014016286
0.063672826
-0.05442693
0.00060759456
-0.04566677
0.012768008
-0.038144756
0.07806065
0.0074078925
0.0172493
-0.006660241
0.01741689
-0.00651932
-0.049775496
0.0056677614
-0.0011228384
0.036956955
-0.044111643
-0.04376628
0.0105326595
-0.032355934
0.035526477
0.028513346
-0.008974725
-0.054281246
-0.0062735295
0.021517402
-0.03800468
-0.034929696
-0.012645326
-0.022369739
0.030455474
-0.0008485515
-0.035646226
0.003616433
0.050221656
0.046467096
0.021874098
-0.031345185
0.006526222
-0.110836565
-0.058099203
0.05976355
0.04477064
0.012180903
0.022807093
-0.038374662
0.058706053
-0.006355733
0.0051838923
-0.05023933
-0.025580581
0.017744659
0.009207001
-0.008461946
0.023533674
0.023862423
0.098011695
-0.020122662
0.016845122
0.0098988
-0.028381897
0.02623917
0.013482639
-0.05173414
-0.04462028
0.0038831132
0.050418645
-0.0011715278
0.02034824
-0.015682967
0.014065754
0.034403853
0.008949413
0.0052332305
-0.057468005
-0.022467729
-0.005373937
-0.023552408
-0.049485378
0.020275299
0.07240688
-0.10539533
0.02124227
-0.03377054
-0.002455436
0.032446586
0.023282258
0.060491342
-0.009822147
-0.066210546
0.01298421
-0.056824856
0.023636397
-0.0017358487
0.058740955
0.041163914
-0.00960158
-0.09645787
0.04085831
-9.063802e-05
-0.046204258
-0.044159085
-0.014006809
0.007842342
-0.019876279
-0.041259043
-0.04554127
0.013091916
0.0641271
0.06358087
-0.035075843
-0.030792912
0.011340591
-0.018619627
0.019236516
-0.00024576706
0.07067457
0.03243409
-0.018802244
-0.034746487
-0.07115133
0.01686684
0.07146644
0.018380472
0.01853308
0.029289417
-0.11343056
0.0020373438
-0.051762868
-0.0020760312
-0.06095534
0.019395318
-0.023763364
0.022702362
-0.09267108
0.01585348
0.005773813
-0.015526886
0.03180402
-0.003829169
0.03509048
0.0007590002
-0.017553076
-0.017320873
0.006924259
0.018169258
0.0376664
-0.027993135
-0.043486405
0.018975995
-0.0063357223
-0.06563869
-0.07046273
0.0024469297
-0.019440716
0.09414285
-0.030068237
-0.014051401
-0.09181914
-0.0015564254
-0.022982951
-0.018337592
0.0037313318
-0.010542694
-0.053546533
-0.03496807
0.012384875
-0.016144779
0.0391851
-0.011048393
0.04437929
0.058389127
0.0062158015
-0.024425937
-0.06592001
-0.027458698
-1.2754226e-06
-0.010503543
-0.0021578844
0.012287047
-0.01158316
0.010042953
0.07063998
0.0118954
-0.021376735
0.07176355
-0.074476846
-0.054045785
-0.023688093
0.053196687
0.016936809
-0.022604741
-0.009858548
0.031682413
0.030617392
-0.035715297
0.01705549
0.063699074
0.05123078
0.024716027
-0.016009679
0.017393649
0.018098535
-0.06502699
-0.047935374
-0.09942934
-0.054743707
0.0073257065
-1.7546467e-05
0.059053484
0.073326975
-0.008835852
-0.0057781213
-0.018472308
0.0028220534
0.012316292
-0.02292743
0.027294565
0.029177777
0.013328502
0.0151732145
0.023429604
-0.03128798
-0.015591035
-0.07723405
-0.0893746
0.017712763
-0.032702845
0.054710764
-0.09638084
0.034094036
-0.046461772
-0.027552992
0.020859605
0.027561544
-0.013726725
0.054508593
-0.0083748335
-0.063620955
0.041688163
0.009189864
-0.031405073
-0.040762533
-0.039372474
-0.017033717
-0.005702187
-0.0103966305
0.0103241615
0.07870529
0.0024902257
0.017385893
-0.034848273
-0.05131542
-0.08545696
0.016697394
0.093470156
-0.0043228143
-0.013469473
-0.029656732
-0.044209294
0.021832565
0.01992775
-0.025827847
0.009709196
0.00086033903
0.02116242
-0.003503643
-0.014930504
-0.030830717
0.0085561145
-0.055904027
0.059182696
-0.046755172
0.015807439
0.03044237
0.01253367
-0.018283954
-0.020643758
0.0024030602
0.05772251
0.0058141793
0.06099845
0.012563731
-0.012281793
-0.000987049
-0.06165019
0.00081337977
0.018674182
-0.019135218
-0.022796638
-0.024469346
0.04427994
0.052600242
-0.016592827
-0.027407555
-0.007374586
-0.0067227883
0.013252294
-0.040353242
0.015571544
-0.0062995497
0.0034116586
-0.06132785
-0.053808436
-0.09388786
0.044916306
0.005023882
0.027852036
-0.06498335
0.09483894
-0.014285362
0.03585943
0.0015956891
0.04469377
0.03645166
0.010057724
-0.07612352
0.036985327
-0.020608064
0.003363889
0.020645782
0.004208111
-0.09308739
0.086762734
0.017075999
-0.05304879
0.004258437
0.017614886
-0.054036412
-0.019837301
-0.013906214
0.025683131
0.017744934
-0.018516032
-0.013620029
-0.012782932
0.030906472
0.044339918
0.06208507
0.07278342
-0.006778268
0.017549727
0.022193676
-0.06998841
-0.010960154
-0.06327859
-0.08131779
0.09550949
-0.0013873673
-0.016905926
-0.04935219
-0.035333574
0.0073268097
-0.012347642
0.053049594
-0.015975976
0.087027825
-0.036283202
-0.035474624
-0.008193445
-0.011088182
0.10549463
-0.023819217
0.013195445
-0.07060258
0.09786451
0.10130929
-0.011624203
0.014974951
0.018650867
-0.050997913
0.065144554
0.004414964
0.07625073
-0.00026447608
-0.06145207
-0.0013640155
-0.0782217
0.052452315
-0.01330428
0.06338072
-0.015070087
0.0031915256
-0.0033248377
0.028152907
0.030996025
-0.015717298
-0.0002251928
0.0019818875
-0.0026937963
-0.04365874
-0.054287057
-0.0073061506
-0.023715843
-0.028014913
0.059301037
0.022289548
0.023895146
-0.009861018
-0.005700242
0.028480902
0.08900291
-0.057277806
-0.046238564
-0.03965607
0.036795262
0.043950498
-0.07761525
0.090317234
0.0011969183
0.022897081
-0.057739034
0.040313058
0.017251365
-0.00907912
-0.05841335
-0.00087100675
-0.028023908
-0.041335
0.07389384
-0.066750646
0.06549239
0.02842728
-0.025247952
-0.07452884
0.015027167
-0.0197877
-0.05803534
-0.038906705
0.07162151
0.0133719845
0.04266056
-0.020654226
-0.035176523
0.10139499
-0.019494368
-0.048556518
-0.0021072004
-0.06420809
-0.038751073
0.010060151
0.04989418
0.03866566
0.040341534
-0.022490392
-0.023822399
0.035164542
0.035293657
0.0107435575
-0.033509247
-0.036908105
0.003857868
-0.026172783
0.0028606222
0.06915198
0.06402857
-0.057666592
-0.014180979
0.12431861
0.021131678
0.0071162134
-0.010256617
-0.008988632
-0.009142538
0.02918532
0.018801738
0.01679527
0.08287976
0.027350562
0.05124883
0.027117735
0.066784754
-0.04081523
0.04087149
0.025027348
0.0037927858
-0.028758425
-0.021987552
-0.042227693
-0.026845885
-0.0045332774
0.058067508
-0.0018890821
-0.016581228
-0.020102657
-0.011762443
-0.0009250684
-0.0075176507
-0.02806271
0.01820139
0.009643105
-0.011952491
-0.026525177
0.0043586516
0.07986116
0.026366886
0.017598946
0.056661867
0.036614407
-0.020553323
-0.00020552959
-0.057550624
0.024863053
-0.014765587
-0.02097577
0.070404805
0.021725018
0.0061115837
0.054322537
0.017377276
-0.027034596
-0.0022688385
-0.04229345
-0.041207105
0.008632806
-0.0055457843
0.02242292
-0.024190467
-0.016428279
0.040873922
0.0040686964
-0.044426966
0.053455316
0.049606264
0.014700453
-0.017206457
0.06009318
0.02315271
-0.0059529105
-0.0015722443
-0.032221086
-0.0366198
0.035559665
-0.02612902
0.07462301
0.00839098
-0.019599793
0.009975016
-0.037474886
-0.09127665
0.04797052
0.025551634
0.0033746366
-0.0013095349
0.0016850388
0.037143495
0.033944793
0.013190922
0.02032392
0.0003168982
-0.0020686998
-0.010781456
0.047090102
-0.021763597
-0.024319325
0.033177532
-0.038592182
-0.02835968
-0.004731954
-0.022468645
-0.012435415
-0.011234466
-0.012477246
-0.054546356
0.03339279
0.02167401
-0.071806476
-0.0034929551
-0.030932717
0.0058222357
-0.0080468105
-0.058320362
0.0330488
-0.014442652
0.012908636
-0.02353763
0.015099831
-0.009557794
-0.03238362
0.04670365
-0.04766911
-8.409408e-05
0.07344004
-0.018980252
-0.015688898
0.022420127
0.020568598
0.011588923
0.005487888
0.015286041
0.01202102
0.018006919
0.03588907
0.010963591
-0.00093357067
-0.0016683823
-0.015428662
-0.037858307
-0.011893706
0.02629549
0.023371374
-0.046153568
-0.009087914
0.003162469
-0.07663416
0.0080013005
0.012787403
0.04681439
-0.033773243
-0.036291946
0.0045871665
-0.009929031
-0.008210328
0.050840378
0.018288119
-0.004570218
-0.0012982723
0.01785022
0.006009547
-0.012665629
-0.0060567367
0.033217717
-0.02611335
-0.04055955
-0.014827472
0.0031622497
0.02121098
-0.028737677
0.020198736
-0.05553028
0.089031965
0.004268346
-0.0035942877
0.030498141
-0.01966173
0.067315035
-0.012069376
0.023016566
-0.0037272836
0.07616299
-0.0162708
0.02568479
-0.010590506
0.006247025
-0.0074239476
0.0033923453
0.008662293
0.009547045
-0.00065559073
0.031658057
-0.021434363
-0.037013378
-0.014482589
-0.04715508
-0.00036368464
0.037253052
-0.018222935
0.0069198324
0.027199848
-0.0701912
-0.02877995
0.024043316
-0.04595423
0.026384827
-0.020593828
-0.048051305
0.0033601115
-0.02728168
0.0013859787
-0.0061037955
-0.0426818
0.02313599
-0.0061905696
0.04623872
-0.004789186
-0.0013548586
-0.00078057044
0.010657688
-0.015502624
-0.033968795
-0.07145091
-0.015646096
0.03392698
-0.033302765
0.045823127
0.072450556
-0.012688488
0.037958644
-0.042204536
-0.037163645
0.02364258
0.04567484
0.0023451622
0.017398028
0.029753096
0.012488563
0.02312595
-0.013858294
-0.029014999
0.0007735557
-0.010900269
0.034245092
0.038044374
-0.0011262391
0.007174635
0.0012193798
0.052303303
-0.011709277
0.010777289
0.03600712
0.0063506914
0.004780082
-0.007730624
0.024582302
0.02052232
-0.020273298
-0.01464797
-0.03411653
0.03662519
0.030975806
0.035059586
-0.02218347
0.08972043
-0.030060904
0.02078289
-0.07044336
-0.009483389
0.022015592
0.09808922
-0.03795595
-0.049867764
-0.014258662
0.018352848
-0.009181558
-0.010632699
0.0062566875
0.04505118
0.016436396
0.031512134
-0.0071571134
-0.00328206
0.018645838
-0.00082260947
0.021911765
-0.04637649
0.011183327
0.007409899
-0.02190428
0.01791362
0.06719167
0.02239786
0.036158796
0.019603834
-0.050284844
-0.006651572
0.021225825
0.013875205
0.015899546
-0.055544466
-0.008432139
-0.0065516154
-0.010884204
-0.036137868
-0.019753613
-0.019416712
0.009747425
-0.014292729
0.09890945
-0.024785226
0.008632396
0.019084329
0.033629254
-0.0043836655
-0.03203131
-0.031100439
-0.00230355
-0.020744255
-0.051887132
-0.02596015
-0.012448297
0.0065298593
0.015620389
-0.002394811
-0.0009782477
0.022554567
-0.044625357
-0.027617417
-0.0045921877
0.01976227
0.049467467
0.013207041
0.0066801985
-0.033555295
-0.057388425
-0.02250688
0.06079043
0.020767512
0.009194381
0.019448064
-0.023587465
-0.01739919
-0.074088
-0.02721864
-0.013652993
0.0032381224
0.020017272
0.06267468
-0.033984635
-0.033037074
0.056298245
-0.005670312
-0.008253874
0.008199579
-0.02041859
-0.01596599
0.007777662
-0.0041802744
-0.012350861
0.0820538
-0.021946928
-0.036095317
-0.020436991
0.031312857
0.008342264
-0.001535482
-0.040529083
-0.029824115
-0.01738105
-0.0510029
-0.03953401
-0.026735336
-0.024436813
0.05367192
0.032596473
0.027154353
0.036283806
-0.016488237
0.008546237
-0.0460784
-0.05640099
-0.008831622
-0.007363786
-0.0074898885
-0.030214665
0.021310043
-0.0143136075
-0.010511387
-0.060789313
-0.014107487
-0.05397731
0.058094103
0.023357062
-0.0003310995
-0.02021312
-0.018645193
-0.033447877
0.031718157
-0.031027965
-0.011616838
-0.015728336
0.0077996985
0.03615326
0.025514398
-0.033038076
0.033987556
0.02661157
-0.0028840692
-0.0062230523
-0.02117474
-0.011115184
0.06254961
0.038810384
-0.028456045
0.02065303
0.0074603157
-0.0005690357
-0.047141667
-0.044382792
-0.031232959
0.015551091
-0.007019551
-0.0023401156
0.008128605
-0.027120143
0.02682268
-0.021416761
0.05486925
-0.007381818
0.0052481447
0.04285923
-0.021168657
0.017553197
-0.019117014
0.026968298
-0.0003105175
0.013855826
-0.030162461
-0.0005184366
-0.019948527
0.0062679527
0.03860095
-0.034647465
0.047684293
-0.038759127
-0.011529479
-0.052186515
0.030856723
0.07491011
-0.023857718
0.03751152
0.02884964
-0.0036402142
0.010319074
0.041504707
-0.022391248
-0.00020600732
0.031003332
0.04934435
0.041192252
-0.041314077
-0.018230079
-0.015594373
-0.0076014264
0.050759196
-0.008398504
0.043639094
0.09002664
-0.041752834
-0.013699507
0.033004846
0.043224182
-0.0055332687
0.05260253
-0.009772416
0.014443892
-0.017494095
-0.022237146
-0.033234313
0.015406621
0.057070564
0.02260618
-0.034794398
-0.045781847
-0.033076197
-0.049140316
-0.004443925
-0.017016718
0.049121562
-0.011477454
-0.026459042
-0.041058213
-0.030262785
0.00799466
-0.07130632
0.06741751
0.015548559
0.0029104322
0.00013712869
0.016323652
-0.076575704
-0.02980355
-0.028194921
-0.03282371
0.009236398
0.052456703
0.0031892334
-0.05770975
-0.017958317
0.017547714
0.03770632
0.00037725252
-0.031689037
-0.023056624
-0.021170074
0.045823533
0.04508064
-0.026904175
-0.023623036
-0.026707292
0.0071061966
0.028013283
-0.034907017
0.012640128
-0.023605885
0.037129667
-0.021810016
-0.018933177
0.023905348
0.022259055
0.03547366
-0.010298943
-0.050082397
-0.023646267
-0.015810022
-0.026262382
-0.012214988
-0.01067606
0.028360354
0.053057123
-0.030284746
-0.005221059
-0.033831324
-0.02030892
-0.022956466
-0.011559029
-0.042111564
-0.0053931815
-0.0381355
0.023155486
-0.07745096
0.017815769
0.006293389
0.012936671
-0.020949317
0.080953665
-0.0004965174
0.03271079
0.0042757886
-0.032175843
0.024863096
-0.0008366934
0.017167682
-0.043019306
0.033025756
-0.04716393
-0.036308788
0.01042173
-0.012278301
0.0323053
-0.09172833
0.020104064
0.038733236
0.053136118
0.010047572
0.028253794
-0.046781488
0.028397476
0.009519699
-0.042599287
-0.039123766
0.021232206
-0.018391298
0.0081117
-0.028333707
0.03489169
0.011734349
-0.04748954
-0.026037293
0.038965028
-0.020939218
0.00085354305
-0.041510772
-0.049883567
0.045088775
0.04155853
0.01589359
-0.015415299
0.020335438
1.0864003e-05
0.036042944
-0.052178685
0.010764427
0.071441755
0.028864678
-0.013489593
0.03762801
-0.0008659245
-0.06266934
0.03664553
-0.00527009
0.010082448
-0.020766158
-0.011527519
0.006950394
-0.02553715
0.05601206
-0.02234723
0.029683009
0.025003139
-0.009847568
0.035430513
-0.037458546
0.05259163
0.0091585005
-0.0007702474
-0.0036201535
-0.0025548914
-0.0058547594
0.009796488
0.024540579
-0.00681739
-0.0047933008
-0.0024403587
-0.02277496
-0.010984907
-0.026026204
0.006192947
0.035338208
0.0483259
-0.04440525
-0.002759756
0.00776096
0.017570375
0.011131269
0.06672798
0.0030200975
-0.04297955
0.056818545
0.016827814
0.010967369
0.016126737
0.008475283
-0.033019286
0.03140923
-0.010932594
-0.010395446
-0.04602987
-0.040756073
0.015992636
0.028757207
0.034340337
0.025794212
-0.025602158
-0.008017935
0.021273838
0.021734973
-0.00092622737
-0.002847794
0.011889349
-0.029987168
-0.0640295
-0.055779986
0.023019664
-0.035987485
-0.01279824
0.008214745
0.019115195
-0.011440665
0.036381647
-0.010320972
-0.0308717
0.06276474
-0.0022141535
0.003026535
-0.03681958
-0.035047594
0.0070426962
-0.0076378155
-0.015671523
-0.035100352
-0.054862265
-0.010054461
0.045765486
-0.0047282223
-0.005974707
0.0017347612
-0.012909407
0.012679417
-0.036406778
-0.01600353
0.0053340667
0.007918958
0.00053259963
0.019827813
0.01823397
-0.024478938
0.014445177
-0.0028589023
0.021757545
0.058941126
8.161274e-05
0.021078315
0.044210963
0.012007183
0.0009947363
-0.036460206
-0.01582144
-0.06419876
0.044288915
-0.02216586
0.048948333
-0.01630286
-0.03341587
0.042742368
0.007276051
0.06507065
0.024612779
-0.022796659
-0.0036717833
-0.035324384
0.02172011
-0.014642431
-0.011699615
-0.07352005
0.025876759
0.03109621
0.009135229
0.07680373
0.061903458
0.014094983
0.021651857
0.010628978
0.040874995
-0.028768074
-0.062162995
-0.004026685
-0.0032372742
-0.055470828
0.03909496
-0.050085768
0.012167969
-0.052201632
-0.023691153
-0.0054332353
-0.015713952
-0.00078871514
-0.012738175
-0.012195128
-0.07490082
-0.0048040166
-0.031261016
-0.013821266
-0.010752282
0.051465366
0.0057269456
-0.06496567
-0.04311486
-0.024781646
-0.00040327574
-0.025946926
0.018867582
0.007176398
0.0019517752
0.027571721
0.0141150495
0.027588302
-0.028235853
0.046282783
-0.024450956
-0.028040696
-0.042554524
0.044343874
0.029267231
-0.0036138077
-0.005389167
-0.017185008
-0.02253554
-0.02114641
-0.012826636
0.057094
-0.007430031
0.014235858
0.011682893
0.0069323503
0.017879827
0.016452812
0.043065168
0.020657578
0.04108917
-0.013220193
0.029201
0.020512078
0.013940729
0.009547453
-0.0017520202
0.0064875185
-0.033510957
0.03683905
-0.0045564105
0.008862041
0.026660921
0.10281208
0.071143486
0.0111792395
0.059916724
-0.0020272331
-0.035600528
-0.020344486
-0.045365337
-0.04735909
-0.012334824
0.021665044
-0.008052721
-0.010740571
0.030150637
-0.01225278
-0.03776984
-0.07958686
0.03379315
0.028607942
0.024485825
-0.007747714
0.01685415
0.04812546
0.022705248
-0.005089087
0.08027355
0.010596462
-0.003148881
-0.010821515
0.034241877
-0.03614797
0.0039113155
-0.021428429
0.021740543
-0.053721435
-0.004873247
0.025298217
0.012084628
0.03285576
-2.992702e-05
0.0068829316
-0.08708799
-0.001577831
-0.02173022
0.012888553
-0.0568839
0.040179912
-0.023238992
0.013605577
0.0054113995
0.02251686
0.021284916
0.012568518
0.023382615
0.037000112
-0.027047096
0.06611158
0.0021152212
0.024687989
-0.05121255
0.0027532035
0.012271501
-0.011420177
0.12086545
0.012627995
0.014658888
0.023345562
-0.015610537
0.0009845722
0.11496628
0.018229092
0.03600718
0.02621225
-0.039163962
0.03770237
0.020481393
0.028270775
0.0034861658
0.050130047
0.011618613
-0.01480792
0.0016102456
-0.09668889
-0.009802461
-0.031018052
-0.021723151
-0.0008785127
0.012639486
0.01786337
0.038861744
-0.023410302
0.032428447
0.006308193
0.0014306037
0.022369292
0.09464681
0.025742026
6.904698e-05
0.015716413
-0.019081324
-0.023468906
-0.069371246
0.040051892
-0.053598348
0.000977596
0.089436665
0.012066561
-0.006351135
0.0035251975
0.0066217473
-0.04288065
0.0032843123
0.006464943
-0.058876403
-0.026083158
0.006349915
-0.0017564126
0.011117553
0.002530753
0.024788138
-0.014356032
-0.05400447
-0.030223632
0.0006312084
-0.068865605
0.04650174
-0.026509937
-0.02393513
0.0020379606
0.0062684827
0.031580634
-0.07524537
0.028736252
-0.009550443
-0.05009431
-0.049361303
0.043903623
0.035794668
-0.02517206
0.008351151
0.05883782
0.016220985
-0.023445496
0.063610256
-0.00017511686
-0.031200163
-0.058746703
0.072133504
-0.035264224
0.03135994
0.014504335
0.0638261
-0.0031713834
-0.09771095
0.025966378
0.009054798
-0.029794423
0.034331433
0.02323652
0.039337203
0.034370434
0.03970101
0.014931841
0.00310938
-0.0050443523
-0.031044234
0.0038507432
0.0013894612
0.036463995
0.020746253
0.0031132593
0.022037834
0.017036442
0.064866625
0.07428343
-0.0035188177
0.024727425
0.03269277
0.036071286
-0.0027478707
-0.053290922
-0.012170158
-0.024756854
0.020820819
-0.010779828
-0.0067234524
0.01180549
0.015794639
0.0098249875
-0.088871025
0.1035036
0.04506629
-0.032436673
-0.018712
-0.0057303896
-0.035780817
-0.019985601
0.038037024
0.025011381
0.034375705
-0.017522037
-0.010585669
0.0058160117
0.007488058
0.023550032
-0.03903689
-0.026037173
-0.015741007
-0.011213058
0.015413563
0.028010959
0.043873183
0.02648585
0.04412752
0.0100923255
-0.046921033
0.026146669
-0.03262984
0.027777724
0.016608158
-0.040432435
-0.04482278
0.00071311975
0.055805378
0.044180833
0.022115575
-0.0032631245
0.07282268
-0.04139992
-0.006128169
0.02039554
3.6069574e-05
0.005393991
-0.03332241
0.014131184
0.03429228
-0.003895562
-0.063874386
-0.036276072
0.0008742981
0.02696994
0.0057010036
0.03810661
0.007430591
-0.012574396
-0.01527971
-0.040571555
-0.07719135
-0.015452354
0.013417794
0.062008392
-0.04084696
-0.0093174325
-0.064562
0.020340482
0.006274976
-0.00072842976
-0.026648834
0.038082447
0.03951445
-0.044408277
-0.019898359
-0.036377273
-0.03737458
-0.018215783
-0.018530851
0.014791325
0.04142452
-0.025026515
0.03394
0.034256756
0.011582198
-0.008972098
-0.07422208
-0.09344285
-0.0026530088
-0.016585534
-0.047324322
0.028501002
-0.022804856
0.01574324
0.044666544
-0.056964345
-0.014738802
-0.032571424
-0.009464221
0.019995157
0.008349592
-0.095939256
0.00035724102
0.014611191
-0.059680294
-0.026164653
0.0536815
-0.04216658
-0.02186872
-0.0549045
-0.020531991
0.002585612
-0.0492529
-0.00085511844
-0.021813458
0.021907851
-0.012040983
0.0072065205
0.024281347
-0.045282155
-0.004788826
-0.02426216
0.00863239
-0.04371348
-0.030405354
-0.03559827
0.040758822
0.028691154
0.0208936
-0.026895488
0.09569194
-0.018497547
-0.0037746716
0.032167956
-0.045048572
-0.007364847
-0.0025616745
0.058655094
0.081354804
0.004322297
-0.012499133
-0.042615637
0.037606414
-0.004684343
0.035373043
-0.0077902335
0.015492035
-0.0095656775
-0.046716865
-0.012584232
0.010583579
-0.019357694
0.035823137
0.021084739
0.004384387
-0.00016883005
0.035511468
-0.009893852
0.069432065
0.020364163
-0.0055248127
0.025083393
0.029300466
0.034058973
-0.05690279
0.0021409446
-0.0071203965
0.035112444
0.030846793
-0.05331037
-0.018461607
0.0099909445
0.01586792
-0.051241033
0.03043693
-0.0037494944
0.01428481
0.0465301
-0.025573848
0.0072710416
0.010380928
0.021103261
0.021084992
-0.026081454
-0.016960634
-0.00270636
0.040983718
-0.06586652
-0.0009556871
-0.00834147
0.021069836
0.076930285
-0.010288076
0.007711412
0.0037034578
-0.07121872
0.013258173
0.019079113
-0.0019279527
-0.0014207677
0.0079220915
0.009046061
-0.03692861
-0.020502368
0.011879989
-0.060229417
-0.031524874
0.009049256
-0.023671344
-0.016405601
-0.03767804
-0.011942348
0.01710821
0.05015192
-0.027252601
0.0060310937
-0.002646301
0.00059395685
0.0014305676
0.028769113
0.06349947
0.079878956
-0.06835418
-0.004934846
-0.026089681
-0.09355523
0.13057238
0.004309819
-0.015772875
-0.0007523983
-0.0042097634
0.045547575
-0.32969713
-0.07543913
-0.09976037
-0.0011205778
0.019713772
0.009580593
0.0070225983
-0.04397745
0.030612957
-0.18033268
0.055582155
-0.018349318
-0.02628029
-0.0019425813
0.06907476
0.0912397
0.039194558
-0.084356904
0.032228585
0.0076855537
0.003995285
-0.0044609504
0.009883984
0.060228493
0.057647098
0.04869256
0.09366481
0.11249245
-0.03515358
-0.06865104
-0.17753592
0.0318878
0.0018662834
0.081082076
-0.3722848
0.031341694
0.062154993
-0.08959214
-0.106800325
0.0076311845
0.066288486
-0.05441873
-0.016512683
-0.2640754
0.09597097
0.103621714
0.020728994
0.07387514
0.024348618
0.0327158
-0.052941266
0.006745281
-0.06289597
-0.017802991
0.08898897
-0.03456223
-0.00826952
-0.054409515
-0.16374448
0.064528465
-0.20590834
0.10934077
-0.15144265
0.00054898264
0.052038696
0.06463028
-0.017669784
0.049959853
-0.013980407
0.08651601
-0.008731709
0.17519535
-0.15448684
-0.0024454887
0.16651107
-0.12411212
0.013856483
0.06845251
-0.0077647604
0.010550046
-0.09134441
-0.010857472
0.026006509
-0.078717455
-0.038259216
-0.19783185
0.02540823
0.056104906
0.08191172
0.06229299
0.043334704
-0.0012647187
-0.004299189
0.05045598
-0.10891011
-0.025082372
0.042509362
-0.00015168074
-0.05891815
-0.008421536
-0.09477167
-0.00025166263
0.0103505375
0.02824478
-0.12738894
0.021101471
0.0077747866
-0.010581042
-0.23959938
0.17306
-0.0041813953
-0.06600997
0.008605379
0.013768093
0.013105315
0.08809084
0.073202424
-0.059837848
-0.08358082
0.030464232
0.010532394
0.013011729
-0.17788635
-0.014478998
-0.021929024
-0.16219175
-0.17230363
-0.023071222
-0.036771357
0.11725576
-0.012807076
-0.03164668
0.1444878
-0.025480628
-0.020975064
0.0029271317
0.060351774
-0.047571987
0.035511594
0.06910465
0.034226835
0.15456106
0.017265191
0.017930487
-0.004540049
0.08127633
-0.030830842
-0.023251764
-0.064984
-0.046641383
-0.012417076
-0.076986976
-0.0146618085
0.009700965
-0.031800915
0.00039457905
0.05105703
0.0060943235
-0.010768345
-0.027183125
-0.20105796
0.044456456
-0.012401085
0.07507217
-0.19854958
0.08122053
-0.14983787
0.005570178
0.02441525
-0.0290235
0.00811138
0.030476896
-0.0037079763
-0.035759754
0.024229418
-9.322857e-05
0.034663394
-0.13630238
0.03029202
0.014374774
0.085804306
-0.015535766
-0.058587585
-0.001703731
0.06090414
-0.046370346
0.0481113
0.0017781156
-0.055827256
0.020044364
0.036961384
-0.019634504
0.022039533
-0.04864344
0.077663206
0.055033475
-0.01972288
-0.04797695
-0.0017137122
0.09285677
0.018281467
0.05862214
0.037041273
-0.10838489
-0.03628312
-0.22812639
-0.00574167
-0.012072408
-0.022758797
0.05066158
0.07892408
-0.008049717
-0.09775951
0.021619538
0.03855175
-0.22490485
0.055721696
-0.04396003
-0.020328557
0.014075401
0.06877003
0.03019526
0.051816273
-0.025736345
-0.0651027
-0.12910499
0.028753772
0.078430906
0.014545729
0.011848426
-0.0034742623
-0.028341569
-0.019504864
0.10774302
0.032002106
-0.02057738
-0.050881688
-0.13777578
0.028429125
-0.005275867
0.021609837
-0.0026964303
0.01782334
-0.1822936
-0.06736767
0.061373666
-0.08899548
0.09534088
-0.091952644
0.021629266
-0.110358626
0.052082587
-0.1868788
0.03537857
0.058717273
-0.041619405
0.013257185
0.080233485
0.01142832
-0.06581137
-0.0158724
0.1413928
0.111536555
-0.02511369
-0.08887044
-0.034308534
-0.0067225937
0.080640346
-0.101734035
0.09323996
0.04911892
0.0071606142
0.10197806
0.01963627
-0.051141355
0.026230276
0.06507644
0.0104156695
0.029269742
-0.08975215
-0.1693497
-0.016885126
-0.011472773
-0.031117797
-0.05136114
-0.09722282
-0.2639814
-0.013783407
-0.009700351
0.10029943
0.13805598
-0.01599401
-0.04073738
-0.01610661
0.0058101565
0.02418292
0.08125578
0.027752265
0.044316646
-0.11363734
-0.19976875
0.10246092
0.02095997
0.041338705
0.051727757
-0.0026089137
0.016288128
0.020738835
-0.06930516
0.011428752
0.041840084
0.020855745
-0.2078988
0.10794498
-0.013029234
-0.18056159
0.0578785
0.05655894
-0.007509622
0.1218162
0.1990216
-0.024984987
0.054763544
-0.2936802
0.1441958
0.09958006
-0.027682725
-0.09739881
0.023435034
0.07809241
0.010375586
-0.06141925
-0.017012846
0.0021255158
-0.13848443
0.03656467
-0.089952126
0.033308968
-0.014778555
0.036641095
0.00091561535
0.0014892602
0.062140673
0.010923982
0.13149406
-0.04682358
0.054144684
0.073756695
0.049973976
-0.007512632
-0.015411704
0.068170436
-0.030690081
-0.070597455
0.108489215
-0.039467137
-0.16913676
0.06702362
0.06734171
0.025509302
0.0800426
0.045752104
-0.15892276
0.09700665
-0.005010618
0.05010809
-0.0015233967
-0.08158357
0.012124015
0.023094526
0.061838396
-0.23889206
0.064142525
0.07378128
-0.101536185
0.042195745
0.16328655
-0.021731658
0.04282638
-0.22310884
0.116661094
0.04718877
0.02890317
-0.009742152
-0.012475052
0.075151935
0.017633436
0.013800193
0.011749517
-0.044464387
-0.013630014
-0.06414533
0.009243361
0.06336475
0.0068570273
-0.0033762178
-0.048585765
-0.01329296
-0.07348803
0.023853833
-0.063875854
-0.003672187
-0.04293146
-0.008137866
0.01088538
-0.017604012
-0.027384179
-0.04281494
0.047051273
0.0030974478
0.03140961
0.0005366915
0.014963611
0.029264428
0.008850966
-0.017469993
0.05015608
-0.037450764
-0.00793484
0.052702803
0.116559796
0.030167717
0.059966404
-0.052864753
0.011776608
-0.021655973
-7.2456925e-05
-0.012034992
0.016023153
-0.026509961
0.001995437
0.0435627
0.044749625
0.022340816
-0.020376977
-0.0046028057
-0.048828322
0.020797182
0.0070137214
-0.0010191519
-0.0018266427
0.022124266
-0.040015854
-0.00847027
0.044855494
-0.051781222
0.0560021
0.016249647
0.05724182
-0.06357092
-0.050494134
0.026132856
-0.031664148
-0.0153690055
0.07810996
0.0059573567
-0.035117235
-0.02682813
-0.025300944
-0.02923352
-0.01704039
0.0050358176
0.031941142
-0.03933903
-0.036593083
0.055368524
-0.03183538
0.031372488
0.018946236
0.033728078
0.06800177
-0.004462245
-0.017559303
0.015305871
-0.016503997
-0.023230731
-0.024039565
0.072775155
0.029458873
0.006918902
-0.0056034504
-0.003633093
-0.0070874407
-0.011479917
-0.030316528
0.0059945136
0.07665833
-0.01757053
-0.026899029
0.072421364
0.03095671
0.0056347405
0.0038560636
0.020993058
-0.08819906
0.08399542
0.031131038
-0.05900596
-0.042119082
0.007834891
0.03558422
0.010428883
0.0021130478
0.021685153
-0.007133545
-0.00051659864
-0.015305903
0.054307472
-0.0407144
-0.038758658
0.008080251
0.007843205
-0.0010332469
0.019349737
0.009287357
0.035564344
0.06403126
0.03409227
-0.014438686
0.06536342
-0.017667022
0.071412176
-0.015913045
-0.01714858
-0.019977719
0.0045920215
-0.0029750124
0.0395163
-0.010823351
0.01709483
0.06557037
0.010977375
0.0046228054
-0.014416962
0.017388197
-0.023814077
0.011656692
-0.010189046
0.059263274
-0.009155547
0.012762083
0.008073174
0.02814815
0.0029410375
-0.038279414
0.07093796
-0.0033661723
0.029019598
-0.02262954
0.033748217
0.011998586
0.021054974
-0.013600911
-0.043413095
-9.18544e-05
0.020137604
0.005442995
-0.016668933
0.05749532
0.0011121299
0.0039640535
-0.0018280227
-0.0029731598
-0.03961527
-0.009459899
0.053769384
-0.007721203
-0.024070311
0.07634147
0.027168395
0.00013924332
-0.025000196
0.023537412
0.00046920998
0.003935037
0.00080555765
0.019160079
-0.01750867
-0.043146834
-0.043336693
-0.029098647
-0.013046718
-0.018307565
-0.021744292
0.03209645
0.016759017
0.03984512
-0.00705337
-0.0031406046
0.03830317
0.042953406
-0.013238604
0.038693108
-0.025000978
0.0042703724
0.018166509
0.046605714
0.01264601
0.011808369
-0.00019102138
0.01867761
-0.048867993
0.01225351
-0.03595546
0.03411829
0.01950143
0.012875587
-0.024312163
0.009820355
-0.0007066525
0.041305095
-0.04669983
-0.012585926
-0.010091437
-0.019867662
0.012588118
-0.023347886
-0.0027394847
-0.04410705
0.026297022
-0.03477457
0.046797767
0.026272083
0.019486936
-0.043643434
0.006542166
-0.025480876
0.08341779
-0.06746112
0.04050145
-0.04561236
0.03348414
-0.06717245
0.03239139
-0.0045857215
0.04730988
0.038649082
0.029874025
-0.02667204
-0.0060392884
0.068026744
0.014767933
-0.023846751
0.008494455
0.011597686
0.004056703
0.01700505
-0.010200949
-0.043455448
0.0057624294
-0.025160331
0.06545931
-0.03346755
-0.07750262
-0.05205447
-0.008921183
-0.04201855
-0.002415106
-0.03719591
0.031392667
0.022941478
0.00045844508
-0.049894724
-0.022814246
-0.003033939
0.027809618
-0.009511421
0.0022721214
0.01631004
-0.06453581
-0.0032779535
-0.03336078
0.027010618
0.06277211
-0.03507621
-0.022475298
0.005799577
-0.039678175
-0.015775384
0.04534435
0.00093148614
0.03560985
-0.05218628
-0.024293689
-0.033857517
-0.031541172
-0.011181054
0.01786039
-0.002350221
0.0033972624
0.011866062
0.07542582
-0.008922613
0.018606318
-0.03129754
-0.006788196
0.0365084
-0.021237897
-0.0084371595
-0.028869636
0.01725939
0.060819175
0.007919802
-0.06461681
0.032611344
0.07288759
0.048527263
-0.0038774111
0.023571422
-0.038141508
0.027433649
-0.070448086
0.0067002755
0.029565364
0.031412095
-0.004343941
0.033130784
0.10974574
-0.0064874524
0.06107435
-0.030919937
-0.0071792398
0.020991066
0.004298703
-0.0031785923
-0.01568368
0.0014071151
0.006234527
0.04718382
-0.038817354
0.0056531355
0.021202156
0.009444901
0.061406765
-0.0011980183
-0.043118026
-0.041090705
0.083856836
-0.021137409
-0.040304624
0.04475656
0.028970711
-0.028059961
0.035772003
0.041456968
0.023163049
0.010310947
-0.011003366
0.053189006
-0.09747088
-0.06196274
-0.04744168
0.029477948
0.013197761
0.02052306
-0.0065090708
-0.019196162
-0.035664245
0.041371386
0.00037516182
-0.044831324
0.03534876
-0.025313053
-0.020025257
0.016105244
0.011058238
0.028121283
-0.052882623
0.03858696
-0.023752837
0.026687618
0.021125712
0.0053686104
0.027564783
0.000667359
0.022603326
-0.006031619
0.04940323
-0.0073627923
0.023056861
0.040937368
0.05760483
0.017677268
-0.04449955
-0.08519841
0.062604286
0.00708117
0.029402174
-0.006381253
0.013709823
-0.06552461
0.063778676
0.04023169
-0.03404098
-0.047197208
0.030685196
-0.0515943
-0.0023503695
0.017294638
-0.03478406
-0.032776378
-0.06627478
0.052969042
0.04028995
-0.00851088
0.07961403
0.048967898
-0.059673544
0.00011987354
0.022325316
0.011749655
-0.08769123
-0.045755688
0.013016725
-0.015176279
0.020780006
-0.06035086
0.052425265
-0.054096997
-0.0030566903
0.017862795
-0.041355114
-0.016616154
-0.028988875
-0.08654795
0.024491059
0.025885984
-0.041042108
-0.057472873
0.02455967
-0.018060196
-0.034932777
-0.040747732
-2.941237e-05
0.012642882
-0.03067386
-0.022672242
-0.0691712
-0.03210328
0.087410584
-0.02182895
-0.020877121
-0.031246519
0.01239435
0.017283557
-0.049106978
0.07770949
0.019058825
0.014970852
-0.015574298
0.004772735
0.01883791
0.047965333
-0.056533046
-0.0127565125
0.029167846
-0.108552426
0.02012389
-0.02996553
0.015772287
0.047507957
0.008357804
-0.077855885
-0.027810954
-0.0220629
0.034656066
0.0077576106
-0.061893087
0.0024791013
-0.0083906865
0.028983006
0.016650314
0.01589803
0.0010040768
0.06704092
0.041296747
-0.026175896
-0.0030274289
0.030201027
-0.018990207
-0.011011974
0.03795826
-0.035804287
-0.0020947962
-0.059085466
0.025196174
-0.020943198
0.078805536
-0.02961918
-0.024235303
0.013386562
-0.0222943
0.02974984
-0.010555088
0.011887242
-0.077659555
0.015219309
0.091312386
0.02794863
0.026155364
-0.004255548
-0.011317358
-0.02463389
-0.027223544
0.00580689
-0.046476614
-0.07246411
0.05382766
0.063642055
-0.037904598
0.0006031599
0.037181053
0.08444513
-0.054935332
-0.024363155
0.008363597
-0.030491285
0.019877838
-0.00651042
0.047433462
