-0.44070166
-1.1047173
-3.0629203
-0.72159314
-1.8508995
-0.89100486
-0.40359744
-0.4405939
-0.19230732
-0.38219136
-1.060872
-0.12673692
-0.53658515
-1.2112534
-2.5653253
-1.0689234
-0.46841228
-0.5965065
-0.53255117
-1.234215
-2.6998606
-0.7263609
-1.935311
-0.76072675
-0.5261423
-0.26895982
-0.34376368
-0.31749928
-0.85297936
0.13819432
-0.5432975
-1.1737771
-2.4610555
-1.4402981
-0.50034916
-0.77902377
-1.3350914
-0.44330874
-1.6225278
-0.13183665
-0.8045702
-0.264857
-0.1098084
-0.04522457
-0.2949179
-0.053106535
-4.0229816
0.07947449
-0.650453
-5.80309
-1.1757032
-0.45562753
-1.4808474
-0.032663014
-3.4926882
-1.0215412
-2.3061323
0.63894415
-5.2799044
-0.13404252
0.2264655
-0.05614121
-0.95980865
0.011450945
-3.5032902
0.18233201
-0.44778448
0.055472184
-0.7576103
-1.3922261
0.19048081
-0.11681846
-2.2159548
-0.76906234
-2.2167993
0.41263828
-2.7718937
0.13744414
0.2407188
-0.20946288
-0.6520793
-0.42327905
-3.9413877
0.045015812
-0.7083883
-10.34137
-0.34756556
-1.8287714
-0.41409212
0.1398403
-4.738166
-0.36973658
-1.4339039
0.33039945
-1.5085244
-0.2554156
0.40200025
-0.44208476
-0.78917885
-0.07913044
-3.48998
-0.22404632
-0.77113813
-1.7995259
-0.24130249
-0.44744548
-0.78328276
0.2034835
-5.7919
-0.18753335
-1.2035913
0.037454944
-1.5079877
0.052867964
0.9793033
-0.0869774
-0.716267
-0.11912415
-3.1608894
-0.22773151
-1.3945048
-3.5380669
-0.2903864
0.14498119
-2.5806494
-0.1398417
-0.9542936
0.043894716
-0.7510695
-0.6617574
-0.9960713
0.16769907
0.46642804
-0.025765454
-0.566293
-0.18397745
-2.0131202
-0.04163055
-2.6662295
-3.758966
-0.33420318
0.3853885
-0.3520377
-0.13221337
-0.53869003
-0.1386016
-0.54132515
-1.6209694
-0.8948677
0.22298367
-4.6370564
-0.13387224
-0.44753045
-0.038945418
-1.0328381
0.11318179
-3.1518807
-2.59462
-0.50071156
0.20452075
-0.14672837
0.17935528
-2.1388574
-0.13247049
-0.5595931
-2.9371738
-1.2469544
-0.014151051
-1.0595974
0.014181291
-0.27712628
-0.03793084
-0.5312263
0.21602927
-3.3711817
-1.48559
-0.6205769
0.26778588
-0.8820067
0.109267145
-3.8596735
-0.050111633
-0.87948537
-2.2252388
-1.0399295
-0.24835405
-0.8059895
-0.11509162
-0.47841406
0.18341444
-0.3145432
-0.012417867
-3.332621
-0.6570331
-1.0853753
0.28770563
-0.96704125
-0.41275793
-5.4989715
-0.41268012
-1.1991779
-0.08371691
-0.17990987
-0.12850104
0.15750825
-0.27435547
-0.69601965
0.023597814
-0.7093164
0.00028558704
-0.30941185
0.6214208
-1.2210559
-0.42405063
-0.049806315
-0.3399766
-0.5767708
-1.0191847
-2.959875
-0.712257
-2.0600507
-0.983796
-0.5908663
-0.25965974
-0.21188512
-0.36394748
-1.0834613
-0.22250918
-0.5351124
-1.0270166
-2.5521698
-1.2458122
-0.4938573
-0.3984364
-0.6080847
-1.3314222
-3.1006165
-0.8099723
-1.8849006
-0.6784966
-0.3108155
-0.61313194
-0.15873726
-0.5958039
-1.0963907
0.05527534
-0.30067474
-1.0941266
-2.4159427
-1.0405233
-0.3769794
-0.5678981
-0.23971592
-0.84311986
-3.0923936
-0.73384005
-1.9879541
-0.8762612
-0.3983335
-0.24105187
-0.19670266
-0.62005675
-0.9442206
0.11419048
-0.41064027
-0.63598317
-2.31219
-1.449088
-0.596084
-0.61993587
-1.0384692
-0.45033184
-1.4765749
-1.0159006
-0.25495228
-0.28640053
-3.311117
-0.24278359
-0.39613637
0.017491767
-1.0871118
-0.14989044
-1.3516775
-0.050950486
-1.0360804
-0.0018213934
-0.8804483
0.012138023
-0.64885634
-0.23819068
-1.5774847
0.29092798
-0.5510787
0.016224928
0.074713804
-0.30690086
-1.584983
-0.06558683
-1.7999607
0.051308364
-0.795699
0.21842358
-0.6678707
-0.56308675
0.57831985
-0.0096246675
-0.44779482
-0.49862173
-1.3165073
0.2563667
-3.4828603
0.13303246
-0.13017733
-0.05075091
-0.6817519
-0.3573977
-3.620236
-0.1380303
-0.7288091
0.25652048
0.07858892
-0.43053165
1.1279718
-0.22999266
-1.5102208
-0.28680882
-0.91684264
0.20038514
-5.5524383
-0.020249441
0.13572834
-0.09861429
-1.6456075
-0.20158161
-3.4114323
0.21523157
-1.3214701
-3.0948405
0.30833033
-0.19646654
0.6154792
0.07928556
-2.2497408
-0.26652077
-0.4680826
0.0032535887
-3.615047
0.21059057
0.40801656
0.05409448
-1.9890018
-0.20182572
-2.2503948
-0.13551039
-1.6062708
-6.3306627
0.34928668
-0.091525964
-0.5152158
-0.026509563
-0.021300165
0.08012031
-0.2392347
-1.3360536
-2.5406516
0.34983337
1.3188252
-0.12440022
1.7332859
0.01673594
-1.3783047
-0.20223036
-1.7097539
-7.0859785
0.77791053
0.14899153
0.21199672
-0.03511498
0.09307287
-0.046465844
-0.04155369
-3.0729566
-2.033907
0.34990478
1.1812927
-0.043773692
1.7858583
0.30602354
-1.1846074
-0.099081874
-1.7842315
-5.5388775
1.0561354
0.23744015
-0.24973959
0.42007947
-0.23097034
-0.17783214
0.2538121
-3.477206
-1.7212662
0.22603272
1.0064561
-0.043329332
1.4547411
-0.061805498
-0.7134241
-0.15247253
-1.6660597
-3.846377
1.1854649
0.25991222
0.3036814
0.054179735
-0.22002794
-0.18117714
-0.040556192
-2.9417527
-1.1890497
0.08033231
1.7227119
-0.16760541
0.95910263
-0.00237811
-0.30514073
-0.07531844
-1.8769125
-3.1899133
0.7339377
0.6268137
0.2937918
-0.3229056
0.08347253
-0.2885518
-0.006726324
-1.6147761
-0.7051918
0.06589364
2.8783937
-0.13426973
-0.55535036
-0.010876856
-0.25763753
0.0036233645
-1.8003949
-2.002334
-0.2476989
0.6212316
-0.6152005
-0.8871049
-0.24745777
-0.025128188
-0.5839646
-1.2382526
-0.5806053
0.026859304
1.7730521
-0.060802124
-0.13610283
0.11323219
-0.2575045
0.027291657
-1.4902699
-0.9050296
-0.8930682
0.4564273
-0.79255116
-0.56795317
-0.524023
-0.40682632
-0.85690135
-0.56815606
-0.54446447
-0.08801258
0.6541078
0.16706865
-0.503873
0.14549273
-0.4307125
-0.2245796
-1.0451802
-0.10824534
-1.3862883
0.19281518
-0.43000042
-0.52760607
-0.07974929
-0.37358072
-1.5932112
-6.3048034
-1.1595978
-0.42556933
-3.2550056
-0.3196999
-1.9970946
-0.31099704
-0.102093704
0.1320697
-0.6475973
0.34531686
-2.269511
-0.13608094
-0.0008218816
-2.1669173
-0.39328852
-0.516141
-1.4861674
-0.38479787
-8.379998
-0.22710124
-5.0383143
-0.15040758
-0.26807368
-0.29631394
-0.35066095
-0.08132237
0.062758476
-8.479377
-1.6285841
-0.76970214
-4.591573
-0.38295624
-0.16389424
-0.27751663
-1.2566564
0.4958711
-0.7146915
-0.28121144
-0.40520337
-0.13440818
-0.279539
-0.32870576
-0.5955531
0.005613932
-0.34608638
0.54291016
-0.57982314
-0.5119005
0.49892008
-0.36735192
-0.81454283
-0.293786
-0.5402417
0.06203021
-1.8332323
-0.029803103
-0.9248559
-0.2501611
-0.17336336
0.059364226
-0.982833
0.012794575
-0.06660581
2.3737407
-0.022774335
-2.1213264
1.2525679
-0.108288154
-0.9218708
-0.024845958
-0.2530638
-0.12903117
-1.850419
-0.0026959751
-1.266361
-0.02778288
0.79165274
-0.18204863
-0.8517409
0.16933022
-0.0033961104
1.4706006
0.2909054
-2.1666222
2.2606537
0.19597702
-0.8559279
-0.03695637
-0.15977882
-0.57803905
-1.734573
0.32948303
-1.2911016
0.19209367
1.3123302
-0.1372833
-0.3391474
0.08838284
-0.08369811
0.5654167
0.61464673
-1.8980746
1.1790161
0.19882981
-0.73478097
0.18892108
0.21517943
-1.5885739
-1.0128341
0.23318987
-0.90797216
0.28619534
1.6498008
0.12433567
-0.13694192
0.065442674
-0.27269894
-0.50229734
0.86076117
-1.7373216
0.05211889
0.5960033
-0.6587257
0.21152952
0.30839238
-3.2540503
-0.8366206
0.5182663
-0.6955146
0.30948842
1.4942467
0.30377784
-0.3408933
-0.2219963
0.31269866
-1.1930503
1.5395774
-1.5479851
-0.5716543
0.50845796
-0.88127744
0.31955403
0.2986275
-2.8020737
-1.1183579
0.03055793
-1.1544776
0.39289472
1.0601614
-0.036314387
0.14626607
0.04866997
0.8919265
-0.58181626
1.9085279
-0.9023027
-0.1643494
-0.39758593
-0.890096
-0.13725351
-0.47387046
-1.4206179
-1.0139554
-0.6115392
-1.2731032
0.25569722
0.42585003
-0.44069368
0.2998248
-0.0803678
1.7781316
-0.8857696
1.7132056
0.6367183
-0.44967827
-0.95204794
-0.39427164
-0.42930955
-0.57489085
-0.59431976
-0.5865559
-0.9058508
-0.9463626
-0.30848983
-0.670166
-0.7981692
0.2173463
-0.092562266
1.8468802
-1.0991694
1.2579607
1.3645002
-0.78461945
-0.5678932
0.10874361
-0.7009402
-0.2825168
-0.1170581
-0.0013340042
-1.0227331
-0.4488497
-0.28041378
-2.3837183
-0.9812887
0.5549642
0.12456619
1.0111185
-0.70493716
0.63204354
1.2013984
-0.911924
-0.27688622
0.3654845
-0.67750525
-0.50781506
0.3741347
0.5296331
-0.6149476
-0.2790958
-0.39223033
-4.4291153
-0.3354708
0.5257045
0.05669743
0.40367612
-0.22169729
-0.37249592
0.77270746
-0.8177506
-0.24836701
0.018838372
0.025675377
-0.2516974
0.90884835
0.51927567
-0.40565443
-0.3468533
-0.2050295
-6.8706613
-0.29069084
0.14911102
-0.03566087
0.020670395
-0.011121038
-1.3815867
0.22492263
-0.6390415
-0.37386084
-0.31027627
-0.51013744
-0.89157885
0.35355666
-0.120590426
-0.3681611
-0.50021464
0.06445656
-3.7723298
-0.13575664
-0.047145095
0.12617142
0.12312216
0.3161082
-1.7515082
-0.02192039
-0.11218974
-0.27936223
-0.5351096
-0.47833627
-1.3792503
0.13597813
-6.723744
-0.6074251
0.3372573
-0.38060677
0.4881879
-0.348877
-0.47640368
-0.15147015
0.03925669
-5.9122725
-1.5257272
0.06501318
-0.5453472
-0.024720028
-0.40076527
-0.21803933
-0.8068114
0.24603365
-1.7715852
-0.078281775
0.07087791
-0.074038506
1.341782
-0.042999815
-0.8197126
-0.22091979
-0.28851202
1.832655
-0.5801556
-1.4783956
-0.30379486
-0.031855844
-0.033316877
0.27141097
-0.31279585
0.14034002
-0.8835969
0.34202427
-0.57883215
-0.14586659
1.8491014
0.11970799
-0.825996
0.07090294
-0.27704632
2.5144413
-0.22337335
-3.2535303
-1.4349581
-0.057630867
0.053109646
0.07852665
0.22152798
-0.1468979
-0.89905477
0.46915454
-0.71095896
-0.005634885
1.7719979
0.03238393
-0.51167744
-0.028467217
-0.45296016
1.6234384
0.12698248
-3.162993
-1.4045848
0.09958693
-0.23004402
0.26440328
-0.14715523
-0.24586521
0.008154289
0.5251963
-1.0581686
0.21975608
1.4571756
0.24219805
-0.19798389
0.025015924
-0.20891325
0.2985488
0.054326456
-2.1199265
-0.6654679
0.48492262
-0.7055061
0.24942543
0.30193502
-0.85417026
1.0428047
0.22901037
-0.71793723
0.35197577
1.0282269
0.26493633
0.22760011
-0.055353284
0.03956937
-0.90261513
0.27783287
-1.2188542
-0.5028181
0.4649472
-1.0301758
0.114711225
-0.005985086
-2.252924
1.0320686
0.34554985
-0.3980282
0.5519708
0.78603846
0.38818285
0.27186283
0.19983007
0.4748286
-0.5447196
0.52675796
-0.73510444
-0.18791068
0.7732824
-1.0491163
-0.06669472
-0.37663087
-1.6430907
0.36926097
0.39901087
-0.9572752
0.32795122
0.72269547
0.062346272
0.33162594
-0.23139685
1.3011242
0.596726
0.70412654
-0.36634284
0.011800108
-0.09644651
-0.5285152
-0.4229769
-0.33993518
0.22706293
0.81948245
0.079276234
-1.8379954
0.12082245
0.38957137
-0.33800095
0.36852947
-0.092959456
1.6228952
0.40662014
0.19293645
0.29407242
-0.46842813
-0.5350987
0.45896608
-0.5502168
-0.5021591
0.37812564
1.1797653
-0.40928203
-1.4222716
-0.34306636
-0.9062047
-0.117978655
0.119140945
-0.102779925
1.2165308
0.049705077
-0.12401063
0.72500646
-0.9870201
0.24859488
0.8826992
-0.35231432
-0.7410259
0.8351978
1.3960288
-0.3189769
-0.98550445
-0.2622438
-2.4730287
-0.38138184
0.1831353
0.1270758
0.7772664
0.23021944
-0.5539121
0.85374576
-1.3285687
-0.008205873
0.36494908
-0.61747783
-0.4174141
0.9332182
1.9336035
-0.26983422
-0.6702432
-0.325824
-4.7443013
-0.16459158
0.4679563
-0.16200852
0.46265563
0.5599091
-1.1046697
0.40504277
-0.7828946
-0.15058836
-0.08431373
-0.22428602
-0.49736106
1.2196697
1.5996274
-0.35866103
-0.79065984
-0.028551267
-6.612645
-0.028332897
0.29041448
0.1330566
0.28938717
0.8474396
-1.8905638
0.17609629
-0.5615506
-0.0479385
-0.45159945
-0.14119475
-0.6669357
0.69691825
0.284747
-0.14738221
-0.18879241
-0.3181313
-5.360618
-0.05488638
-0.14359999
0.08776472
0.29502237
0.81512076
-2.2431984
-0.08022824
-0.31991872
-0.099711016
-0.65736604
-0.73900473
-2.001177
0.6951383
-1.9208499
-0.6408355
0.7108219
-0.4882358
0.68826663
-0.57078224
-0.77240986
-0.042165224
0.18780825
0.7832074
-1.2044262
0.3612766
0.19126469
-0.09323418
-0.37810522
0.13076362
-0.48245686
0.589967
-0.37191257
-0.03494359
0.117612146
-0.13941278
1.5496187
-0.1612897
-0.80792
0.069616504
-0.113133706
2.3115208
-0.612569
-2.2150424
-3.0729957
-0.3738021
0.18452728
0.21358065
0.027519483
0.214949
-0.08418215
0.006822617
-0.2701264
0.070741974
1.6732647
-0.0027625363
-0.79488856
0.17945887
-0.40276074
2.0231886
-0.19680367
-3.4887354
-2.5822725
0.14509653
0.44026503
0.18104422
-0.30861998
0.15731685
0.3127567
0.42891252
-0.3163929
0.06933697
1.0503904
-0.0135252895
-0.43945748
-0.15571734
-0.50698674
1.3789797
-0.15070336
-2.2522078
-1.5688261
0.40666226
0.13379249
0.38527822
-0.275569
0.60089296
1.6608547
0.50232816
-0.22516224
-0.003970996
0.35480577
-0.12426304
0.05334398
-0.22639865
-0.3529251
-0.45998177
-0.48198354
-0.8510824
-0.9205517
0.3280111
0.43968594
0.14181712
-0.041939847
-0.43729237
1.9707745
0.67169493
0.43081188
-0.0023711575
-0.35630295
0.09451145
0.0009892468
-0.20098077
-0.44036838
-0.708789
-0.69200593
-0.1211239
-1.2895968
0.89654773
0.24160638
-0.26488793
-0.56539553
-1.695023
1.413982
0.96763784
0.5362116
0.3605271
-0.22488424
0.22985204
-0.44141877
-0.17210345
0.14161278
-0.09435003
-0.47126254
0.22441639
-0.5706003
0.8947461
-0.3390552
-0.40839586
-0.07291893
0.01653625
0.8178678
0.31808472
-0.3073709
0.35266474
0.57602507
0.3336647
-0.5281008
-0.0015338081
0.7961408
0.8024055
-0.41141084
-0.0711789
0.189704
-0.67375743
0.18596177
-0.06929601
0.23939781
1.919434
0.6952759
-0.30257624
-1.1745876
-0.22173652
0.33333778
0.072985016
-0.011193532
-0.17589541
0.5102507
1.0052617
-0.75531507
0.10272062
-0.42801428
-0.4143487
1.1329279
-0.18415679
-0.30643165
1.3558002
1.6087872
0.15306778
-0.85138714
0.009610693
-0.95650214
-0.115992986
-0.13060407
0.10593155
-0.15404867
0.21878013
-1.2432356
0.41736946
-0.91021955
0.7932365
1.631172
-0.5885847
-0.86538047
1.3001636
2.4056907
0.30410662
-0.7734201
0.1374328
-2.226644
-0.031754512
-0.37797016
0.16058989
-0.09852985
0.47058752
-1.5573635
0.7619097
-1.4693146
0.6782364
0.9836453
-0.89560515
-0.9065042
1.2997966
2.2337108
0.2255394
-0.6813024
-0.03138365
-3.5265486
0.07813846
0.2572478
-0.14904323
0.011039368
1.3605614
-1.515646
0.36552715
-0.9951825
0.041508317
0.23523164
-0.82813066
-0.3602544
1.199999
2.0490348
0.070159286
-0.69830364
-0.45439097
-5.937355
-0.12756714
0.62232167
0.04757927
-0.09253942
1.5180639
-1.6316432
-0.2547241
-0.1777887
0.109064326
-0.10634655
-0.44175085
-0.57039505
0.89078665
0.15330935
-0.30897978
0.1183544
0.02293951
-5.26594
-0.097855225
-0.2261895
-0.20442203
-0.07956815
0.77425104
-2.3199334
-0.0013109474
-0.30908588
-0.21775584
-0.750645
-1.0286015
-2.3070478
0.74527985
-8.451207
-0.5992272
0.95447
-0.43222138
0.6906893
-0.6874888
-0.72907066
0.11965898
0.13932374
0.43259588
-1.2159365
0.012990496
0.17923765
-0.17421207
-0.032685023
-0.048726838
-0.967895
0.91828144
-0.099855825
-0.382803
0.41584626
-0.26478392
0.7490614
-0.10445072
-0.8036949
-0.08477667
-0.21048489
1.1263745
-0.94317746
-0.8097457
-2.92625
-0.10822874
0.7548956
-0.24245825
-0.84320325
0.6179776
0.4212394
0.025863113
0.067221045
-0.08040624
0.44306323
0.012615101
-0.9746092
0.1780957
-0.036638226
1.4198247
-0.27741155
-1.6235155
-2.5201707
-0.22341548
0.97071594
-0.1608845
-0.60106343
0.8943194
1.1803507
0.30901027
0.05873115
-0.17464757
-0.37422743
-0.23193781
-0.5692572
0.033387974
-0.32393238
0.83635694
-0.50909203
-0.7593897
-1.5095829
0.37595922
0.63274896
0.37205946
-0.26910737
0.7783281
2.3411353
0.39629072
0.6904755
-0.01124664
-1.0407234
0.21142118
-0.1632596
-0.14736131
-0.7069986
-0.25227177
-0.99960834
-0.21773043
-1.1222942
0.36515564
0.39086726
0.17481875
0.08583992
-0.85150504
1.6093693
0.47644117
0.5696088
0.24110329
-0.870931
0.20133698
-0.6572109
-0.2227652
0.01995054
0.3039193
-0.6315067
-0.011682423
-0.9709088
0.5974503
-0.72785676
-0.43079084
-0.34855482
-1.2751098
0.6440611
0.59302264
-0.12124111
0.5864238
0.39141986
0.2505872
-0.006267769
0.09299458
0.41440865
0.80173916
-0.3735353
0.0049041566
0.34092548
0.26874024
-0.82720935
-0.13631389
0.24394298
0.7063546
-0.5150127
-0.3558596
-1.2484444
-0.15833586
1.2800547
-0.3043704
0.3055489
-0.14300586
0.9092612
1.3632319
0.11318403
-0.08542039
0.3456309
-0.51679814
0.33114454
0.025995083
0.114930555
1.4200057
-0.119358376
-0.30647498
-1.0560162
0.0057070935
0.22131412
-0.24556719
-0.013615833
-0.13772655
0.18858704
0.4112603
-0.58249605
0.2120727
-0.34290248
0.29521674
1.6833972
-0.13639526
-0.33838785
1.0443541
0.92660505
0.48908558
0.0858279
-0.037097596
-1.4390047
0.20055066
-0.46980175
0.06719618
-0.8374423
-0.6496407
-1.3226198
0.48443142
-1.1027248
0.9436438
2.1397166
-0.8033512
-0.6213032
1.0610464
2.0721018
0.585298
0.004622997
0.22117671
-2.210127
0.02733508
-1.0021905
0.1285867
-0.63208354
-0.4893931
-1.4988039
0.89178115
-1.6370494
0.7971922
1.7832869
-0.96676517
-1.0581683
1.1371734
1.4760331
0.37615722
-0.32889333
-0.25209123
-2.8118253
-0.1813799
-0.41971463
0.011557846
-0.10550757
1.0881976
-0.956253
0.5260576
-1.3862786
0.09937077
0.63242024
-0.7445375
-1.2183576
0.7013773
1.0788299
-0.16718811
-0.29589647
-0.2803395
-4.5167503
-0.18419439
0.39515987
0.19729084
-0.11322425
1.1682857
-0.66854626
0.07451036
-0.243422
-0.06575288
-0.10656619
-0.57503116
-0.9801678
0.71520877
-0.5895701
-0.16373757
0.0101853805
-0.17747456
-1.4896747
-0.1485894
0.0016862217
0.099362485
-0.27239665
0.39443123
-1.4881268
-0.055998746
0.24120657
-0.26264292
-0.76463133
-0.8585276
-2.4630425
0.6727584
-0.6658087
-0.5837276
0.82695013
-0.20060426
0.52511036
-0.30400681
-0.5392183
0.15286797
-0.022473875
0.59289575
-1.1220647
-0.6628283
-0.27664015
-0.17121024
0.07276153
-0.33492208
-1.3611715
0.87461174
-0.4942556
-0.43979675
0.8439796
-0.40515956
0.095795885
-0.1529033
-1.1939662
0.050237022
-0.06584502
1.154507
-0.84142816
-0.076149814
-0.6361655
-0.12859473
1.0735862
-0.16393201
-1.292813
0.8763202
0.7345788
-0.043060232
0.65180546
-0.11198343
-0.97501135
-0.4806241
-0.7359495
-0.121509925
-0.22066629
0.72493935
-0.22523324
-0.3654978
-1.4082174
-0.35513565
1.2506303
0.018002842
-0.9258695
1.4164975
1.6469198
0.1587882
0.5514797
-0.20285502
-1.8127476
-0.1756696
-0.68502825
-0.19738552
-0.36380115
0.46356502
-0.78774184
0.11890366
-1.1820624
0.06238995
0.5879207
0.6892742
0.018959614
0.17195635
1.6805801
0.3485494
0.95243376
0.33536005
-1.4765203
0.14644729
-0.8930675
-0.006676454
-0.2633273
0.7380172
-0.6355867
-0.32814807
-0.89621234
-0.06154067
-0.6401826
0.5727273
0.29304525
-0.8021904
0.70310247
0.63746274
0.037853174
0.18354672
-0.078913555
0.13420433
-0.23815806
0.15380658
0.15790415
1.1807095
-0.4786656
-0.5289306
-0.0009647476
0.29311797
-1.1234374
-0.06619024
0.19846062
-0.92995644
-0.7941329
-0.0059075537
-1.0475752
0.1764326
0.6694972
-0.02989283
0.40451297
0.14663748
0.7600735
1.4751593
0.22151487
-0.39791527
0.60543585
0.35680598
-0.91914266
0.41169956
0.6747651
0.2622046
-1.0958675
-0.6851782
-1.2633516
0.29756838
1.046163
-0.26109722
0.4317134
-0.22809228
0.64949816
0.7867929
0.47301278
-0.51504374
0.7202749
-0.31739232
0.54570866
0.055203833
0.46141753
0.47536892
-0.5984987
0.22800857
-0.06940236
0.005033524
-0.38477948
0.3476902
-0.07468761
-0.17833953
-0.5574971
-0.63350797
-0.66748303
-0.10542663
-0.22815558
0.50420475
1.6970781
0.3782913
-0.05889978
0.7780575
0.46210086
0.5219782
0.7559913
0.24449702
-1.4717485
0.35176453
-1.4226985
-0.2041817
-0.760524
-1.4296275
-1.1579055
0.5905737
-1.3776277
0.4399412
2.2682228
-0.117713846
-0.5830202
0.63318884
1.1826512
0.35115838
0.65773433
0.39775687
-2.0006273
0.07203993
-1.8776854
0.21550661
-0.5538468
-0.70725924
-0.9084383
0.8918355
-1.9301519
0.31178322
2.1526728
-0.41185257
-1.2966671
0.77861214
0.8176357
0.14888798
0.37006596
-0.32414353
-2.1845915
-0.14640902
-0.9452916
-0.047713183
-0.47328714
0.72018796
-0.33660132
0.45521954
-1.4554142
-0.026266905
1.3910416
-0.7456906
-1.5758181
0.540799
0.06404606
-0.25074995
0.43760484
-0.10064008
-1.8174853
-0.14927293
-0.68795794
0.15628535
-0.41536716
0.60240966
-0.02332583
0.27368623
-0.4793285
-0.39008835
-0.13423792
-0.40015236
-1.2652545
0.33513486
-0.9614684
-0.21494842
0.53192806
-0.03345819
-0.51956016
-0.16214225
-0.5423507
-0.048381183
-0.54853296
0.25518647
-0.70877135
-0.36494786
0.6728345
-0.29922962
-1.0526114
-0.7403247
-1.8922122
-0.057794727
-8.801669
-0.048711978
0.28416657
-0.17600851
-0.026791006
-0.23566177
-0.30442923
-0.22236466
-0.09662728
-8.726993
-1.1213224
-0.23123224
-2.2010596
-0.11069127
-0.24162497
-0.18751948
-1.796725
0.71279395
-0.58037233
-0.4364249
0.9467147
-0.1792123
-0.34545782
-0.42539257
-1.2386324
0.017980913
0.08230606
-0.3110848
-0.6476126
0.83823484
-0.27434987
-0.14340945
1.1251267
-0.23149525
-1.5857348
0.6967648
0.8358732
-0.070965864
1.0232213
-0.2954149
-2.1577039
-0.37491432
-0.58424944
0.021757131
-0.24922591
0.008000265
-0.22864218
0.5257157
-0.7581452
-0.243166
1.5775211
-0.3484218
-0.83667165
0.9181452
1.4063132
0.22662695
1.2958786
-0.16371316
-2.8966296
-0.06182765
-1.0265527
-0.06835303
-0.53554654
-0.039273966
-0.6507506
0.6129298
-1.3283948
0.01842387
0.8029141
0.4107241
-0.010849343
-0.068159014
0.6949772
0.27515402
1.5553826
0.20763329
-1.876251
0.34950045
-1.2129287
0.22697331
-0.4525795
0.060256366
-0.41317192
0.0915964
-0.8427401
-0.1764388
-0.236757
0.57526886
0.21466081
-0.51422894
-0.525425
0.2881631
0.77311593
0.13075109
-0.78816223
0.13907158
-0.13665755
0.117072426
-0.20396978
0.08131088
-0.033478785
-0.099636376
0.10141586
-0.05084379
-0.5152257
0.28280938
0.5095043
-0.4614922
-1.3427793
-0.38994184
0.14881663
0.2994695
-0.38613814
0.21531522
0.06282652
-0.047560863
0.16693623
0.042739954
0.37849706
-0.28639698
0.80262905
-0.16195436
-0.17097805
0.44588608
0.7305342
-0.7473917
-1.3752027
-0.08882828
0.65731764
0.51593184
-0.5298484
0.38159603
-0.48489714
-0.013078476
-0.17460273
-0.45458272
0.23613213
-0.60006684
1.2245944
-0.18252075
0.1952941
0.4640949
0.7235836
0.24124171
-0.5986324
0.29534316
0.7759241
0.19142483
-0.483693
0.37761348
-0.38547823
0.074348025
-0.55452937
-0.9217935
-0.71082807
-0.04883711
-0.31361806
0.07382622
0.37252498
0.69574
0.104258455
0.34318426
0.14558674
0.20445688
0.7349674
0.29643565
-0.6202419
0.28161946
-0.91836166
0.2116288
-0.36461076
-0.41515473
-0.7965367
0.34557265
-1.5480268
0.1084481
1.086969
0.13606809
-0.31252208
0.05609265
0.3487523
0.2683267
0.4745327
0.12711845
-0.81129706
0.2025946
-1.6177386
0.107136644
-0.1577015
0.70019
-0.3735124
0.3176014
-2.0481532
0.17331657
1.4679093
0.044568807
-0.96417606
0.3800719
0.5561031
0.04521756
0.5409252
-0.14905682
-1.1586671
-0.1389676
-0.9381343
-0.03270199
-0.73486537
0.5009874
-0.017409876
0.021066045
-0.8896021
0.11623111
1.2059389
-0.2696602
-1.1717763
0.13230306
-0.2801766
-0.004497945
0.85484344
-0.30278277
-1.0397393
-0.27414957
-1.0783324
0.21018319
-0.6468408
0.21166526
0.3042227
-0.22392677
-0.047390144
-0.3033016
-0.03530329
-0.22852154
-1.0837269
0.04669953
-2.1296568
-0.1558005
0.22733307
-0.46327868
-0.65804166
-0.045478538
-1.6695757
-0.16352412
-0.46576017
-1.4883718
-0.24022426
-0.6697817
0.5641402
-0.011532298
-0.1519189
-0.5978708
-1.3628274
-0.13592958
-0.7615639
-0.49279237
0.029883835
-0.30255497
0.479829
-0.47319186
-0.29527134
0.005390526
-0.19740552
-1.0017036
-1.208605
0.11415557
0.049864966
-0.45974267
-0.34019235
-0.47750586
-0.77065635
0.34043917
-0.16803999
-0.35001773
1.150512
-0.16426165
-1.0525231
-0.092012465
-0.7870903
-0.2025142
-0.37600958
-1.0535204
-0.74297607
0.8047749
-0.9807671
-0.21199408
0.7032198
-0.41779172
-1.0385879
0.57794905
0.570953
-0.19070922
0.91945094
-0.353397
-2.4089036
-0.48382598
-0.058184266
-0.19268851
-0.42873213
-0.3087999
-0.0839762
0.875808
-0.93536407
-0.19679092
1.6369839
-0.41552186
-0.7951711
0.77388954
0.8243447
0.08224487
1.1475204
0.19285944
-3.2155578
-0.30801818
-0.94110376
-0.07474642
-0.62353987
-0.31361848
-0.35718983
1.03375
-1.4866359
-0.16684988
1.4695351
0.02815351
-0.41775668
-0.08476868
-0.469005
0.22779019
1.6156007
0.12893136
-2.4587247
-0.08581707
-1.0837128
-0.0007556087
-0.73743343
-1.3338531
0.057765555
1.000306
-1.1095122
0.024020404
0.62816954
0.15339226
-0.23490228
-0.49882182
-1.7769445
-0.13278796
1.3533044
0.051918056
-1.7178674
0.060751963
-0.3888316
-0.21913332
-0.3508119
-1.5477917
0.5966701
0.6903467
-0.08752139
-0.2624099
0.55841994
0.1720229
0.2728162
-0.86101913
-2.3013992
-0.25775775
1.440989
0.105547324
-1.731193
-0.0235391
-0.6440914
-0.17047773
-0.16676292
-1.1137261
0.91482353
0.091650486
0.8412507
-0.47702032
0.9070438
0.41597587
0.67125547
-1.195677
-0.8682235
0.99455774
1.9701695
0.90017074
-1.3800379
0.7677357
-1.9018941
0.04822094
-0.78108585
-0.3827337
-0.3717683
-1.0128095
1.2124466
-0.5408913
0.08943604
0.32592055
0.07545057
0.27674887
-0.033242207
0.55274147
0.87595147
0.4062388
-0.0566657
0.38183385
-0.64275426
0.048556935
-0.166941
-0.27211416
-0.9110987
0.27716967
-0.8267146
-0.19209571
-0.79474
0.31824797
-0.22101554
0.06574099
-0.25762042
0.27337018
0.19843948
0.09600908
0.29593024
0.14979874
-0.21050951
0.027602617
0.37553686
0.7176238
-0.34291035
0.5253611
-2.173038
-0.15907896
-0.14671908
-0.044911463
-0.30000094
-0.63528186
-0.22822751
0.4334236
0.006622364
0.0723999
0.51751584
-0.03865005
-1.0750688
0.04285677
0.13671108
1.2896973
0.21020342
-0.10327758
-1.82972
0.32407585
0.8026554
0.02200931
-0.6185065
-0.06351004
0.0065481397
0.19318058
0.25320315
0.1289587
-0.009235757
0.040153902
-0.9973543
-0.16498324
-0.86173797
0.84672856
0.20839432
-0.65498024
-0.3286416
0.18487069
0.7173815
0.0070606717
-0.9814205
-0.040066496
-0.6634617
0.12158409
0.43644676
-0.11161768
-0.01802776
-0.26646224
-1.2040977
-0.0059429025
-0.9582614
0.1351792
0.25684476
-0.72017175
0.60707426
0.12688144
-0.7021478
-0.06537997
-0.7372296
0.051581882
-3.0605257
-0.053402334
0.2770314
0.009803352
0.06442486
-0.222111
-1.7057093
-0.18731223
-0.852822
-3.312282
-0.28628486
-0.7163885
0.6804792
0.056553863
-0.1646278
-0.2496547
-1.3218868
0.00042527576
-1.5540607
-0.5542681
-0.36140358
-0.26382637
0.52095556
-0.13348888
-0.37019548
-0.08477029
-0.114936724
-0.949674
-1.3274708
-0.2845215
0.10867441
-0.25729102
0.13110508
-0.2578327
-0.73622113
0.26014832
0.46167788
-0.04242129
-0.84497297
-0.022115275
-0.35639498
-0.062237866
-0.31096268
-0.03077001
-0.27888945
-0.9537011
-0.9782102
0.5898148
-1.4368787
0.12021944
0.27938923
-0.81794024
-1.3386025
0.67410254
-0.02266989
-0.4860382
-1.1652287
-0.07273768
-1.2700142
-0.2456767
-0.35673845
0.14385028
0.70097715
0.21749978
-0.05062828
1.1936595
-0.95265365
-0.14512718
0.91433287
-0.7546891
-1.1892685
0.41802448
0.19971935
-0.07575662
-1.0156718
-0.03159235
-2.6535623
-0.28796753
-0.63670903
0.17567025
0.48978072
0.43111405
-0.039432924
1.1525836
-1.013829
0.3228088
1.1535128
-0.28296918
-0.5095288
-0.5034555
-0.7208962
-0.041518442
0.15567702
0.037946112
-2.3585165
0.13920301
-0.6581907
-0.008482727
-0.505473
-0.9372831
0.34721312
0.6976765
-0.34874588
0.5152452
1.028897
-0.016951673
0.06479143
-1.1201116
-1.9755862
-0.17996004
0.8365884
-0.038226426
-1.8916066
0.037759136
-0.7038588
-0.02584543
-0.49156156
-1.1079216
1.0094441
0.2862318
0.37794718
0.10031987
1.4821744
0.21274994
0.56243336
-1.0254065
-1.5751839
0.21354164
1.4017434
0.3318149
-1.638788
0.7179486
-1.4468343
0.16990224
-0.904662
0.08441047
0.38150582
-0.6665065
0.6906875
-0.42391655
1.6400447
0.13724616
0.22369513
-1.0374746
-0.17555182
1.3565848
1.419485
0.7409036
-0.7131424
0.949156
-2.0676963
0.08895075
-0.9537642
0.3690345
-0.8455527
-0.72992414
-0.0025917767
-0.17443667
-0.09124468
0.058803648
-0.2645165
-0.7843995
-0.61660725
0.18782686
0.5351009
0.006812518
0.43686765
-0.10480522
-0.4365234
-0.024087206
0.55398697
-0.07232647
0.16515507
1.0071623
-1.803576
0.20986724
-1.6133201
-0.079865254
-0.56849235
-0.77658373
-0.3345006
-0.0070807915
-0.4900872
0.34143072
1.4927095
-0.02229041
-0.15008083
-0.21662058
0.9075304
0.45514733
0.32062483
0.74751776
-2.4000483
0.32999507
-1.3302819
0.095414534
-0.40325472
-0.79353094
-0.63687
0.23284149
-0.5650394
0.074935414
2.3410141
-0.07985657
-0.3420344
0.09674652
-0.21558762
1.0729337
0.68134785
-0.7000677
-0.8921945
0.50542086
-0.053163033
0.21383883
-0.49808937
-0.65762025
-0.88954204
0.101277985
-0.48037282
0.23971774
1.0858712
-0.060079236
-1.5760814
0.11441276
-0.5832628
1.1054357
0.6841868
-1.4110509
0.98986405
0.34447613
0.37326917
-0.091885835
-0.63457537
-0.4616547
-1.4592292
0.016319571
-0.29350075
0.07789823
0.5249319
0.06585904
-2.0191722
-0.060634676
-0.7667292
-0.012823058
0.43013045
-1.3388042
1.3080109
0.19826056
0.20917267
-0.094393015
-0.9201898
0.053086348
-4.562861
-0.08991043
-0.5201588
-0.2846875
0.65214413
-0.04769915
-1.5889418
-0.1705126
-0.9921251
-5.132693
-0.2111282
-0.86536336
0.86861223
0.15019129
-0.41002998
-0.26491615
-1.1404886
-0.14134528
-0.76187164
-0.48468176
-0.78296614
-0.0012124034
0.38292152
-0.28061455
-0.4779065
0.0028527235
-0.1497017
-0.5856528
-1.1708618
-0.2753086
-0.44612828
-0.17028867
0.24839386
-0.096595384
-0.8036899
0.09085856
0.5600051
-0.07061241
-4.3208146
0.111152105
-0.02568571
0.051661916
-0.22427331
-0.20641035
0.24604242
-0.55047005
-0.97715497
0.29411805
-1.7549261
-0.08632769
0.5294992
-0.7743995
-0.6647218
0.82392
-0.13781063
-0.2976177
-4.896479
-0.09609843
-1.9980736
-0.6618755
-0.23560274
-0.18330811
1.0541239
1.1855171
-0.1880062
0.7359852
-1.3525544
-0.08736675
1.0762933
-0.59017926
-0.94441146
0.40834183
-0.030090446
-0.05410804
-4.412202
-0.18342514
-3.824384
-0.62567633
-0.790251
-0.061417203
1.5165603
2.0763648
-0.048127748
0.6103757
-1.1659359
0.48130575
0.9463806
-0.27931258
-0.4402882
-0.46716812
-0.19685064
0.123765185
-2.7700844
-0.17911239
-2.4655552
-0.22853363
-0.6510652
0.034762073
1.0517807
1.5205342
0.4744938
0.042105347
-0.28491867
0.3433082
1.0595509
0.42702034
0.39027983
-0.8065444
-0.65660596
0.14469977
-0.7739981
0.13033833
-1.0401124
0.23377088
-0.6909999
0.09036133
-0.3849562
0.71214795
0.4246038
-0.5369492
0.15579392
0.12836644
1.1142749
0.20456761
0.45139357
-0.24132285
0.179585
0.86040205
-0.10348805
0.6557476
-0.09517466
0.9423259
-1.1820182
0.13413037
-0.5908772
0.49450934
-0.4904116
-0.79256713
-0.17606847
-1.0136292
0.79860103
-0.124702066
-0.12953126
-0.73982894
0.00736372
1.0040174
-0.27757648
0.16605535
0.8457761
0.21803878
-0.33040255
0.062174637
-0.28834546
0.89672214
-0.36150977
-0.01583328
-1.406825
0.32606217
-1.5456372
-0.33054158
-0.5577701
-1.1441395
0.061853427
-0.16950704
-0.82052547
-0.027869456
1.5482175
-0.122355096
0.84017324
-0.18028714
1.2818443
-0.3549573
0.71982795
0.736949
-1.1664902
0.46770215
-2.9293406
0.06983829
-0.5306025
-1.0705681
0.23969053
0.36482525
-0.71797484
0.030765744
2.6538732
-0.13027745
0.79562324
0.15896899
0.80778503
-0.14153747
0.7556948
-0.5857441
0.035796158
0.023799237
-2.453359
0.018475553
-0.4323409
-0.4515481
-0.5921091
0.5509987
-0.55394894
-0.0749917
2.4271939
0.17880484
0.112702094
0.007536194
-0.32944033
0.53569525
0.48548108
-1.2650332
-0.05567934
0.036333844
-0.57376355
0.16546017
-0.3000969
-0.38633394
-1.321524
0.099619605
-0.57603043
-0.03543091
0.7243017
0.114509076
-1.3195614
-0.15290509
-0.5290231
0.68364334
0.56762415
-1.719084
1.2868437
-0.026646063
-0.01290214
0.3768406
-0.25100297
-0.19073775
-2.133803
-0.030531563
-0.6059159
-0.14935298
0.3077405
0.08071256
-2.0851312
-0.22451402
-0.8311251
-0.28448635
0.25716618
-1.6147778
1.6428397
0.15728864
0.41874534
-0.31594408
-1.2484183
0.21439275
-2.0011742
-0.15165652
-1.0625261
-0.046867743
0.63971055
-0.26780015
-1.5974327
-0.005339809
-0.58145505
-0.2588951
-0.37509957
-0.5974211
0.880788
0.053784523
-0.13368773
-0.54686445
-1.7573146
-0.28885293
-8.783029
-0.5901714
-1.0395776
-0.45760137
0.46801192
-0.08394458
-0.26556435
-0.07374718
-0.057086162
-10.629514
-1.499557
-0.33322716
0.2642886
-0.6846315
0.106194094
-0.29643577
-0.52448183
-0.1817678
0.5642473
-0.2933886
-4.8444276
-0.0046829237
-1.3851657
0.1780271
0.34322715
-0.0922601
0.28781524
-0.19437145
-0.91445196
-0.30579808
-1.8486649
-0.019266928
0.55107355
-0.45903638
-0.72681975
0.66770107
-0.034635007
-0.71737635
-5.157312
-0.12089919
-4.014872
-0.6185312
0.017462246
0.039582327
1.2783443
1.3320557
-0.15485671
0.45120433
-1.2329202
0.011964165
0.9820343
-0.6882235
-0.4197637
0.4267439
-0.06868004
-0.49753585
-4.5648346
-0.29432148
-3.9110448
-0.30392691
-0.16995099
0.21975538
1.750312
2.3942938
0.008786806
0.0990451
-1.2279782
0.037370794
1.0023313
-0.056378245
-0.2114401
0.016269378
1.0324125
-0.031399403
-4.6691527
-0.032943007
-2.2923553
-0.18852413
-0.23663628
-0.21218657
1.8732865
2.6893294
-0.21347547
-0.58393764
-0.9675576
0.14241353
0.31048396
0.11343608
0.011476011
0.50922805
2.1739812
0.57017815
-4.4687963
0.31113824
0.3073716
0.24358116
0.6826285
-0.13131988
1.3065509
2.6231894
-0.8955062
-1.1838468
-0.93904287
-0.42999718
-0.32467943
0.38053393
0.3099662
0.44135413
1.9577428
0.61242884
-2.8345907
-0.0006863736
1.0691439
0.4074714
1.183921
-0.20784564
0.7056732
2.347604
-0.75618196
-1.4165906
-0.8977617
-0.5501946
-1.5702019
-0.040601496
0.1809368
0.07056756
1.7051381
0.28113973
-1.9225494
-0.092808634
2.1526802
-0.1918441
1.7755238
0.1847842
0.7731429
0.8795958
-0.24077277
-0.6809006
-0.8755673
-0.018045457
-2.7928612
0.37002832
-0.10734935
-0.8147891
1.3164555
-0.030549621
-0.65604335
0.098917134
1.9145925
-0.5040202
1.4883937
0.17730246
1.1570647
-0.5955463
0.659863
-0.7585285
-0.082069874
-0.2842816
-3.3629575
0.3984721
0.016267564
-0.69346577
0.8096806
0.11656251
0.14744514
-0.2029092
2.2187397
0.016151102
0.868294
-0.16175927
0.26636696
-0.78546035
0.44633985
-1.4533422
1.6142977
-0.16938871
-2.852791
0.20872873
-0.27439597
-0.23555623
-0.143228
0.2401196
0.14598794
-0.016028289
1.0576873
-0.09446116
-0.45778924
-0.23251559
-0.13228911
-0.5302315
0.15441191
-1.3696887
1.7997997
-0.061133068
-0.15185873
0.16994652
-0.32919908
0.06983452
-1.1541243
0.2136597
0.005468444
-0.04290582
-0.47246984
-0.19888091
-1.6117333
-0.050287683
-0.40110818
-0.33593997
0.01740787
-1.280083
1.6151688
-0.044304952
0.7648438
0.012831349
-0.82656795
0.075752765
-2.4192886
-0.02090863
-0.3493593
-0.25488114
0.062304925
0.060633045
-1.9589993
-0.08765963
-0.6356476
-0.07326076
-0.039526638
-1.2078812
1.3348746
0.11970975
0.14927924
-0.4861315
-1.1325973
0.006507273
0.2890899
-0.5633956
-0.5398834
-0.12771574
0.22100341
-0.27995875
-0.5488832
-0.1574611
-0.37600067
-0.7287955
-0.6712348
-0.46269745
0.38103104
-0.19981636
-0.39590377
-0.8817658
-2.9902904
-0.807436
-1.9581599
-0.91176915
-0.3239456
-0.20420082
-0.1188228
-0.58830285
-1.1563008
-0.0058052507
-0.19447069
-0.7634851
-2.3776414
-1.5467732
-0.44459236
-0.42211086
0.052051734
-0.3914382
-0.8730314
0.1375607
-11.096673
-0.30562943
-2.199359
0.12277774
-5.204729
0.035702582
0.030547058
-0.18118872
0.026197212
-0.93180174
-1.3142707
-0.66542494
-0.3808197
0.06973174
0.3206423
-0.49899524
-0.751266
1.0429729
0.88060355
-0.39828768
-2.364434
-0.20933346
-5.3929253
-0.36646804
0.23730075
-0.026464203
0.6376222
0.7054984
-1.0720817
-0.32717285
-0.15367706
-0.19051649
0.46743736
-0.6234989
-0.43699336
0.7221713
1.7913481
-0.48260567
-2.5352595
-0.09193913
-3.9972115
-0.36497614
0.48963353
-0.18381847
1.0548773
1.8456159
-0.9468931
-0.6698911
-0.35388127
-0.110545315
0.602454
-0.13284327
-0.15670505
0.5221344
2.2437766
0.08101156
-2.7605271
-0.07660079
-2.0469525
-0.29002306
0.42997435
-0.06685041
1.0337847
2.6125178
-1.0756115
-1.4058133
-0.3773108
-0.110644676
0.54311234
0.36937222
0.31399632
1.0279378
2.4546185
0.08323163
-2.4763026
-0.18703318
-0.7778822
0.0795225
0.65605056
0.23357986
0.5866221
3.1573956
-1.2252634
-2.058387
-0.57020235
-0.4309387
0.14568497
0.35544944
0.56178874
1.5101542
2.050659
-0.34006637
-1.8474063
0.014649541
0.21948959
-0.0026710657
0.9587824
-0.12656786
0.21631153
3.024338
-1.0374525
-1.9480772
-0.8452632
-0.5642633
-0.8561475
0.5985398
0.17594911
0.64002216
1.6865103
-0.36464763
-0.776816
-0.33334044
0.96583784
-0.052177966
0.8100414
0.1351976
0.45229867
1.4622818
-0.47739407
-1.6706673
-0.78001714
-0.24563591
-2.304596
0.44996393
0.34169263
-0.26914495
1.5354865
-0.33508202
0.60138893
-0.32380423
1.2875141
-0.22968489
0.64388525
-0.096653596
0.6265023
0.50224227
0.16070917
-2.0806096
-0.04243714
-0.62081397
-2.9702075
0.35211712
-0.18677329
0.30826825
1.4494115
-0.38349703
0.79489136
-0.03204895
1.366641
-0.16543794
-0.07718106
0.07796785
0.21667768
0.7143253
-0.3675946
-2.2792892
2.5431426
-0.27759618
-1.8397398
0.13984267
-0.83627933
0.63722235
0.06320628
-0.36357057
0.6337063
-0.18789063
-0.17469959
-0.3831729
-1.0877304
0.112725936
0.24290395
0.719275
-0.36430538
-1.3120795
2.2391624
-0.07302507
0.3870379
-0.32874447
-1.2927327
0.63973415
-1.4295741
-0.45831326
0.60787785
-0.36442372
-1.6655236
-0.18556325
-1.4471915
0.0931479
-0.024632325
0.06211651
-0.09842911
-0.6291011
1.2845639
-0.32908294
0.2847661
-0.8147197
-1.775235
0.5446173
-1.183054
-0.25835037
0.12147698
-0.19796315
-0.040484905
-0.27068067
-1.1719425
0.14528531
-0.18257982
1.4478731
-0.39455763
-1.2070866
0.9247087
-0.16007647
-0.32718801
-0.50229985
-1.6854206
0.23282318
-8.118015
-0.2634648
-0.115746275
-0.19577971
-0.18903364
0.010822783
-0.6109734
-0.11579802
-0.25933275
-3.439055
-1.5608962
-2.6509037
-0.16427782
-0.26250598
-0.5028294
-0.8495014
-2.8234944
-0.48116907
-2.1664925
-1.0306079
-0.42915338
-0.31966302
-0.21254157
-0.69556403
-0.9763137
-0.13814425
-0.38046777
-0.98034656
-2.5548272
-1.3115305
-0.63400996
-0.5266049
-0.09404027
-0.7450412
-1.5767324
-4.3550386
-8.918615
-0.16601747
-4.4580765
-0.11089018
-2.2703314
-0.050114565
-0.082423605
0.113192245
-0.30506155
-0.15254456
-9.05496
-0.24036011
0.0050662127
-2.4171531
0.2236104
-0.29551998
-0.79067117
0.36499208
-0.584255
-0.55358887
0.37396136
0.023110343
-6.7529025
-0.024419118
-0.196272
-0.15486595
-0.03634735
-0.105637014
-3.7978196
-0.28374612
-0.13286261
-0.05453903
-0.01246817
0.070378184
-0.3123486
0.3210463
0.1119652
-0.28082258
0.7579532
-0.16245869
-6.2787895
-0.2529181
-0.054026574
0.067719616
0.3580931
1.0550803
-4.812435
-0.96411026
-0.5131171
-0.1341812
0.26141092
-0.026576418
0.3145662
0.10924405
0.66250074
-0.052183315
0.18835078
0.082720675
-3.7245922
0.018072397
0.17780511
-0.18379496
0.12820263
2.2533147
-5.1861596
-2.4451015
-1.0825338
-0.06333708
-0.03522825
0.090555675
0.6814034
-0.07886006
-0.47819066
0.21804644
-0.2764211
0.22212277
-1.6432798
0.14679769
0.15395269
0.024725813
0.08721818
2.0139537
-5.390682
-4.8000784
-1.5593888
0.33342496
-0.15910663
0.23343734
0.23944442
0.57449657
-0.53545654
0.20847447
0.18458523
-0.010480056
-0.29859132
0.24838766
-0.3227635
0.030086303
-0.070223525
0.9994954
-3.8350842
-6.5074368
-1.2487795
0.10321575
-0.24394831
0.015377923
-0.31295472
0.9998411
0.22679569
-0.41943708
1.0035903
0.078099385
0.09851502
-0.232958
-0.8575548
-0.13109864
0.094056964
0.9070549
-2.1213312
-2.5779822
-0.8138105
-0.4333513
-1.1734551
-0.012553978
-1.3466982
1.2713192
-0.06603095
-0.58223426
1.4782807
-0.3786991
0.52938914
-0.56629837
-1.1933099
-0.114238024
0.5537267
1.1605009
-1.5191327
-1.8464166
0.7958847
-0.4044869
-1.9678882
-0.72771484
-2.2314024
0.8635419
-1.0048273
-0.71479183
1.4201881
-0.17070165
0.3214238
-0.5925963
-0.7154091
-0.16654581
0.5219427
0.79028344
-1.1536694
-1.6000218
1.9921646
-0.06433647
-2.3650756
-0.7596775
-2.2346451
1.127041
-3.283906
-0.7744476
1.3059944
-0.10726764
-0.3794896
-0.7580524
-1.0595945
0.17236008
0.27284253
-0.43077216
-0.93787026
-2.1742613
1.0581218
-0.12837015
0.01543305
-1.0866004
-2.2663264
0.62937117
-10.966682
-0.43257633
0.9399171
-0.083565764
-0.8366892
-0.34002838
-1.2753664
-0.15718094
-0.13864471
-3.1273084
-0.62676626
-1.055153
0.645916
-0.2838913
-0.045054182
-0.66680187
-1.9178368
0.08846122
-5.094441
-0.32777917
-0.18988906
-0.110923134
-2.1855898
-0.41060358
-0.41933998
0.049593102
-0.071949154
-4.988667
-1.6833912
-0.663309
-0.1233081
-0.09605158
-0.59706104
-2.0499463
-2.814516
-0.9176107
-2.0243053
-0.90790004
-0.76346904
-0.6393487
-0.46967655
-0.7121554
-0.71428156
-0.20682588
-0.68134296
-1.4016442
-2.1116486
-0.7765446
-0.49822512
-0.6930976
