0.40750358
-1.250571
1.1777132
0.3660887
-0.92149913
0.39773282
0.76044095
0.6752582
-0.2008781
0.018484835
-0.6714365
-0.49686196
0.9882363
0.69472307
-0.21460965
-0.9783364
0.28210878
0.26405275
0.07899935
-0.9091772
1.0229261
0.11133896
0.6935906
0.17169875
0.13071288
-0.7930536
-0.58701056
-0.6132068
0.11789196
-1.0264726
-0.61980224
0.030762997
-1.077563
-0.6146256
0.62742466
-0.9234608
0.000625912
0.00046168768
0.44316292
0.4209871
0.5348131
-0.4881744
0.8079636
-0.87005967
-0.57547957
0.021537436
0.9665091
0.6373717
0.8624331
-0.57531345
0.008802068
-0.04933225
0.76703274
0.9787119
-0.30668113
0.6792613
1.0241076
0.6798154
0.56020766
0.52173305
0.049471688
1.204949
0.6401389
0.39930168
-0.9609068
-0.42617813
0.029233415
0.009805299
0.7736004
-0.7336465
-0.99978286
0.74064404
0.3654813
0.33111513
-0.17985557
0.4851354
-0.900174
0.84531754
-0.6648774
1.0413007
0.38676366
0.1899775
0.41857043
0.8990615
-0.9814024
0.65970457
-0.0006041258
-0.0014086155
-0.3124436
-0.79053456
-0.12374502
1.1682369
0.89970064
-0.9620702
1.1334803
-0.50046915
-0.19483806
-0.43254474
-0.16952631
0.9580517
-0.72594327
0.7128234
-0.36648765
0.44243333
-0.9960328
-0.47400686
-0.78700244
0.7544684
-0.7704833
0.38380897
-0.004200222
0.049731888
-0.6505314
-0.64408654
0.41770867
-0.43799275
-0.22223943
0.57183987
-0.7586337
-0.34432563
0.1971592
0.9467784
0.32981902
-0.4285338
0.9221416
0.29010314
0.6173331
0.33685052
-0.93766016
-0.08189742
0.6213189
-0.20842838
0.81795096
0.64025944
-1.1913371
-0.25381678
-0.70575917
-0.49898165
0.51654893
1.0592788
-0.5202243
-0.9442837
0.7325055
-0.28423718
-0.7746841
-0.32504526
-0.18623899
0.45448855
0.7274767
-0.22304153
0.0061911163
-0.0033087544
-0.09115463
1.0519333
-0.47165415
0.5061735
0.18212922
0.7895587
0.84628403
-0.28528413
0.17923856
-0.22090352
0.9991773
1.0142703
0.57748324
-0.6058851
0.5242564
-0.37508678
1.295152
0.65434843
-1.0182389
0.29467276
0.00012753319
-6.742334e-05
0.48890993
-0.7352771
0.00010474976
-0.0020103415
-1.0589274
0.12898569
0.04194267
0.004830769
-0.09523036
-0.69882727
0.6267468
-0.8605447
1.0225862
-1.0598443
-0.5856467
0.7519793
1.0693123
0.3162468
-0.5728956
0.5323913
-0.74155265
-0.6905788
0.009892813
-0.85541046
-0.6144466
-0.5985193
0.7115864
-0.8418326
0.5575441
0.65788597
-0.8294864
-0.74835837
-0.9137318
-0.6363053
0.33825764
0.38792133
-0.5784964
-0.5104589
0.93515545
0.6347504
1.1639568
0.36370346
0.60350215
0.6441503
-0.7265158
0.6730778
0.26923114
-0.3238766
-0.68876094
-0.86095303
-0.7363487
-0.16609474
0.7323652
0.40444115
0.73455673
-0.42178643
-0.3282312
0.25576958
0.70778817
-0.554735
0.84796447
-0.86745673
-0.18020113
-0.34084693
-1.0686332
0.19896597
-0.92660314
-0.86501783
0.6986498
0.2536148
-0.73737013
0.11375725
0.013063572
-0.88485855
0.8576003
-1.0034382
-0.7629768
0.79114985
-0.384186
0.53153574
0.5293894
0.44904605
0.93888646
0.38287118
-0.037057925
0.8706967
0.7277385
-0.2521615
-0.4908419
-0.7385162
1.2094047
-0.11681547
0.009121799
0.012501625
0.93849665
0.5049639
0.23231108
0.3916859
0.5515601
-1.0485979
-0.3621475
-0.21978644
-0.30956358
0.81250465
0.17884088
-1.0691844
0.7852162
-0.37694225
-0.0019978122
0.0038525024
-0.3677825
-0.0028122012
0.3786253
-0.4625588
-0.15870364
0.8291064
-1.1478075
-0.59620064
0.077007495
0.20005435
0.39191502
-0.40734908
0.9725359
0.617522
0.109508485
0.50798
-0.556289
0.61004037
0.17151755
0.6744257
0.26069275
-1.1819242
0.18799624
1.2124714
-0.9708209
-0.32308155
0.5368116
-0.49384022
0.20041777
1.1790853
0.15874271
0.004198634
-0.5639031
0.15272427
-0.54082334
-0.3375699
0.32942817
1.0427911
0.9148873
0.5776891
0.945687
0.532996
-0.8221763
0.23168606
-0.60610926
0.7955697
0.2709737
0.29965392
-0.55329424
0.34954202
0.9598766
-0.94162065
-0.75305665
-0.18335696
-1.1564227
0.39596456
0.8975519
0.3071821
0.26093546
-0.25195915
0.0001575657
0.0021072917
0.71401864
-0.7188454
-0.0014970071
0.0015487003
0.6004963
-0.7491945
1.2200042
0.42085105
0.22072747
-1.1366702
-1.0170184
-0.6689283
0.0029399428
-0.0025175726
0.76779115
1.1951959
0.83788925
-0.27853703
-0.9061186
-0.5235105
-1.1902732
0.66071236
-1.026239
0.9257359
-0.30383107
0.7914267
0.15122506
-0.3557965
0.5908516
-0.05811293
-0.07606932
-0.6857386
0.12354875
0.09015936
-0.93741024
-0.5903821
0.00081406493
-0.0029131628
-0.692113
0.6784357
-0.75809854
-0.752743
0.7769147
0.54348224
0.00031701368
0.00023351028
0.22650042
0.59326875
0.9343284
0.23540731
-0.18296981
-0.20319016
-0.008962391
0.018105133
