0.035432477
-0.014205284
-0.4208249
-0.13378915
-0.01702909
0.021847414
-0.04418533
0.052713238
0.01412556
-0.101569116
-0.14738236
0.0077284575
0.034801908
0.03472987
0.06596647
-0.011776428
0.104857236
0.06320621
-0.04086456
0.065419815
-0.0020248892
0.112703286
0.05169452
-0.27686146
0.028766643
0.049819633
-0.093550585
-0.03584675
-0.05664754
-0.20002398
-0.058591086
-0.011616955
-0.027611822
-0.010514896
-0.0031813434
0.04324228
-0.010008137
-0.039224315
0.0031798
-0.11206773
0.062203817
-0.15293385
0.02196108
0.10382829
0.016455919
-0.11857971
-0.030321509
0.033740584
0.072079524
-0.17016438
-0.28287035
-0.017134434
-0.046937715
0.05172092
-0.38701215
0.075010516
-0.023103148
0.0387945
0.24830458
-0.04000553
0.010877125
-0.01693632
0.0065150126
0.02728039
0.015117367
0.022847706
-0.014481925
0.13423468
-0.015044506
-0.15226784
0.059963472
-0.08549276
0.088508345
-0.039133847
0.049945246
0.0014979851
0.052459527
-0.089957
-0.40368754
0.012533149
-0.039012782
0.068689264
0.019142805
-0.035164345
0.039634425
0.069564246
-0.015250529
0.116359055
-0.053945113
-0.007449708
-0.16558401
-0.015980288
0.01918247
-0.059203256
-0.30267978
-0.03154913
-0.02031664
0.018155783
0.13023092
-0.04683079
-0.09514788
-0.005141132
0.005162951
0.017893879
-0.11071319
0.070550896
-0.058396343
-0.13912633
-0.027479647
-0.38872507
-0.028946664
0.03437357
0.0319778
-0.022487976
0.04729647
0.032930803
0.045468148
0.053354274
0.0054453155
-0.042633325
-0.02006307
-0.07517711
-0.061886497
0.078526355
0.124050274
-0.067235775
0.11364069
0.03254592
0.023605812
0.11750087
0.013215729
-0.05237014
0.0727086
-0.15454693
-0.026055112
0.024833718
0.11398134
-0.049018495
-0.050811898
-0.06424136
0.04846773
-0.0121731
-0.108107105
0.045530327
0.049088605
-0.025379986
-0.020486277
0.036029533
0.025459314
-0.0127966795
0.07486769
0.03640646
-0.23196337
-0.16187897
-0.015494713
0.05594619
-0.05709706
-0.04766317
-0.029926404
-0.28250688
0.012007712
0.0064574797
0.14145647
-0.011465199
0.0016986491
-0.1438877
-0.08348579
3.5657522e-05
-0.035381004
0.054773804
-0.015825689
0.09240363
-0.15733139
-0.051755413
-0.075119294
0.08791185
-0.24086064
-0.0020495683
-0.037835337
0.014274678
0.033983737
0.14356373
0.015118943
0.0028590204
-0.037129615
0.07246187
-0.24474528
0.11347684
-0.1229893
0.031517882
0.026086155
0.16221416
-0.03322419
0.10800844
-0.0030340215
0.0923715
0.010366187
-0.06368746
0.07992994
0.001989953
-0.009707087
0.07622402
0.05193595
0.04874627
0.016355732
-0.06935808
-0.041673195
-0.022453325
-0.0018481287
0.048552647
0.012065476
-0.0234946
0.074779265
-0.062203266
0.12124286
0.05841342
0.03616299
-0.019130161
-0.006493949
0.1457945
0.06416751
0.12480945
0.026296258
0.0049618003
-0.0080447
0.028524455
0.05489383
0.08992248
-0.008191513
0.039737288
0.044740032
0.113960825
0.035848238
-0.028976932
0.052672323
-0.006522792
-0.24422486
-0.20815994
-0.09063775
-0.016383454
-0.18420906
0.044069644
0.056098185
-0.19362861
-0.003943033
-0.025133077
0.018676966
-0.08996953
0.04728316
-0.02679941
0.10110952
-0.004678572
0.002066192
-0.089459844
0.107328005
0.040813543
0.0005834863
0.028147295
-0.057185683
-0.051801953
0.010703227
0.057475533
-0.0028523451
-0.024753956
-0.034704175
-0.010301934
-0.061461434
-0.031287074
-0.0375874
0.04645203
-0.0543338
0.026115077
0.0039787777
0.08057522
-0.054516394
0.016216867
0.038170516
0.02673102
-0.041417204
-0.079366215
-0.015648626
-0.036895853
0.016572172
-0.040151462
-0.37718043
0.008584095
0.005453042
-0.01741911
-0.039153703
0.06367167
0.08050487
0.06240235
-0.13868952
0.0029577008
-0.021404084
-0.04332126
0.11618706
0.022900552
-0.052532345
0.020031659
-0.071408436
-0.023543421
-0.020223552
0.047375962
-0.42469266
0.031956274
0.1378359
-0.018436704
-0.003963428
0.06294791
-0.0032050132
-0.008736086
0.15595444
0.10605584
0.0075919316
-0.047628418
-0.0019628156
-0.07587229
0.10516513
-0.056962013
-0.049388107
-0.085631676
0.0301226
0.0025697695
-0.015463801
-0.3189826
0.012246366
0.11913257
0.116624884
-0.064279765
-0.017924268
0.025399756
-0.5018302
0.05481034
-0.001862412
-0.052186478
-0.15420169
0.017599706
0.0015763391
0.0268562
0.11158121
0.08987678
0.02366959
-0.05701576
0.017260715
-0.0055714855
0.054688983
0.015365289
-0.18222131
0.22715652
-0.064273275
0.044514388
-0.0027631875
-0.03125449
0.030503172
-0.2959088
-0.043354865
-0.06887463
0.036758747
0.015285363
-0.063134626
0.020463295
0.017995879
-0.012994812
-0.08385655
-0.03469461
-0.03573313
-0.05807077
0.06813534
0.0038878382
-0.070235975
0.0083021885
-0.013065275
0.07832065
0.03647864
-0.03736043
-0.07770368
0.020918379
0.011134707
-0.12291482
-0.02364707
0.11033844
0.019480856
0.048109222
0.073932655
0.07789199
-0.034347806
-0.13586074
-0.081087455
-7.586375e-05
0.042516675
0.030283686
0.0048094587
-0.023896635
0.03813213
-0.019329159
0.09073547
0.034550108
0.08774879
0.07661748
