-0.31534597
-0.12182557
-0.74686897
-0.72031754
0.09328339
-0.40093896
-0.35215336
0.00405551
0.08761695
0.0391333
0.15922369
0.34105983
0.23376146
0.014400599
0.021667771
0.32413372
-0.3860188
-0.48118362
-0.004283033
0.14104103
0.0058636405
0.025616974
0.26605842
0.0722292
-0.9247724
0.050995234
-0.08677797
0.019876119
-0.7027139
0.30808926
-0.22393893
0.24946442
0.14634822
0.035045277
0.16024937
-0.2647395
0.12605095
0.11345674
-0.23357505
-0.5553453
0.44607663
-0.3989263
-0.51925546
-0.004530947
0.071743555
-0.35717702
0.017938407
-0.36903232
0.17573838
0.081287034
-0.23725896
0.3316795
0.12802681
0.047669455
0.21815614
0.031132756
-0.7895564
0.1095149
0.13598917
0.12118135
-0.12764688
0.2888063
-0.08556276
-0.039115623
-0.22820887
-0.62162006
0.38564283
-0.59442955
0.32488036
-0.14399418
-0.7290983
-0.7890397
-0.90027434
0.309672
0.11808341
-0.008049436
-0.016893035
0.2615077
0.027019693
-0.80124027
0.08488836
-0.7021645
-0.547566
0.11756436
-0.69731855
-0.5271149
-0.0018250416
0.18377194
-0.009123941
-0.56723505
0.050735723
0.22758743
-0.563168
0.008842609
-0.1263113
-0.112831905
-0.42568028
-0.35610187
0.10118093
-0.454392
0.13791879
-0.5462355
-0.19115984
-0.3786916
0.11628277
-0.1912721
0.11295424
-0.55820096
-0.7808643
0.05322779
0.22073804
-0.21593854
0.10018498
-0.47217363
0.14550635
0.32406434
0.2761995
-0.010951617
0.023680648
-0.21614948
-0.32024685
0.31642672
0.22841814
0.101691745
-0.02186047
0.004940367
0.3515956
0.27547392
0.09948129
-0.076626025
-0.72533584
0.016484499
-0.3489669
-0.0023065873
-0.2088235
0.07793978
-0.06188969
0.2202511
0.021755097
-0.009533538
-0.9254806
-0.006566021
0.20889366
0.2638388
0.08330692
-0.37727556
0.1402694
0.07102892
0.004065783
0.1529748
0.007989506
0.19481327
-0.047029868
-0.29472235
0.08331348
0.10532927
-0.3415305
0.18134905
0.2048401
0.22040819
-0.11437514
0.32715458
-0.034911305
-0.8204207
-0.21874933
0.099228755
0.09323054
-0.5302822
-0.8635605
-0.28663704
0.13141353
0.02924221
-0.0055929846
0.29070383
-0.0060448805
0.3419168
-0.12313033
-0.037788868
-0.40374777
-0.0066632964
-0.18524843
-0.77888703
-0.35715124
-0.40502352
-0.59542316
0.18682747
0.29004368
0.09648148
0.20800509
0.150067
-0.59853363
-0.0029854935
-0.12219885
-0.26713777
0.36716932
-0.00062315963
0.15662721
-0.116806984
-0.42780802
0.013443141
