0.099829115
-0.0012574269
0.0015263868
0.001647631
0.031603906
-0.070254266
-0.07308696
-0.011652841
0.0024182445
-0.00032266826
0.0005022809
-0.0010759545
0.00016795918
-0.06436188
0.0036855326
0.005042087
0.00069326727
0.0013254826
-0.0015493036
0.0010689562
-0.002412974
-0.0009250898
-0.12666176
0.011898058
-0.002932279
0.09665692
0.0018161696
-0.0076916735
0.00079516746
0.0017993563
-0.0016952456
0.0061763823
0.0025784965
-0.010482315
0.0011016495
0.0001746767
-0.0028448377
0.012672757
-0.02121559
-0.06048358
-0.14557551
-0.05543155
-0.0021530897
0.20053796
0.026503418
-0.0004374374
-0.00042765832
0.00019136858
0.014310174
-0.013451189
0.08118785
-0.0037631597
-0.00411477
0.000524352
0.00085449155
0.0013237654
0.0021891473
0.0005643937
0.11046294
-0.023172064
0.0030545949
-0.00014814008
0.06793865
-7.8876816e-05
-0.00010436047
-0.0976141
-0.025347514
0.00045796728
0.0033206118
-0.00209288
-0.00619527
0.033695582
-0.0021987043
0.00044165045
0.07608311
-0.00086861243
-4.7061945e-05
0.02317405
-0.02660415
-0.003320902
0.0018138186
-0.002550371
0.0029026025
-1.2918722e-06
0.0018040335
0.00030219875
0.0018836498
-0.002357397
0.09338647
0.0978128
-0.0175534
-0.053327475
0.009962533
-0.002033113
0.0020340644
0.0015895542
-0.0020211253
-0.0043542087
-0.00049267034
0.094799
-0.035978775
0.00019770554
-0.00076794816
0.09889473
0.0015730506
-0.005448
0.0015678244
0.00022817713
0.020922922
0.00093941303
-0.0014199337
-0.00055563514
-0.0021228464
-0.00034810792
0.0012179635
0.04101011
0.020301035
-0.025385827
0.0013181651
0.0015743183
-0.00010105248
-0.047507647
0.0053986446
-0.029864125
0.00014884981
-4.852936e-05
-0.001881756
-0.055896115
-0.0005004819
-0.0012059803
5.8995203e-05
-0.0006575042
0.0018060119
-0.0011159752
0.0032848306
-0.043305133
-0.0011748954
-0.002288245
-0.007873086
-0.06649327
0.06085227
0.0006892794
0.07904166
0.04451294
-0.05495003
-0.019037616
0.02813809
0.042684935
0.001425608
-0.01240714
-0.0011062775
0.00070069375
0.12302643
0.008698001
-0.012397058
0.0013294321
0.059844926
-0.001029248
-0.00013705158
0.00142554
-0.20837376
-0.0016485729
0.06453394
0.04057414
-0.0012583289
0.0010541297
-0.15429096
0.0013742178
-0.10121136
-0.016065592
0.0014359492
-0.054173652
0.00051707984
-0.0004216867
7.6569755e-05
-0.08973205
-0.00050049636
0.003185612
0.00037060084
-0.00065900764
0.058339782
0.0007741496
-0.0015104298
0.032049187
0.0033166118
0.004936461
0.07789837
-0.0012295175
-0.102855116
0.0009140518
-0.00032942856
-0.001162586
-0.0027745075
0.0015822673
-0.079142466
0.0024075992
0.0007280516
0.02900196
0.00071384624
0.14785725
0.025886225
-0.0009187422
0.00059476687
0.0015227175
-0.022496937
-0.048308995
0.08816426
0.010431646
-0.0010772414
-0.0010375362
0.00026710992
0.00038302437
0.00097590376
-0.084764056
-0.00018733757
-0.0004098625
-0.0013260345
0.00045567137
0.0011926377
0.0021516595
-0.002185038
-0.0006982246
-0.078999445
0.036966722
-0.00088317617
-0.14958972
0.00090904825
0.055743746
-0.0023575716
0.00037004577
0.0017908685
-0.0011367652
-0.0015291166
-0.039717235
0.0016808708
-0.0011622955
-0.00025636374
0.04314649
0.009185614
0.05776412
-0.073794715
0.010230914
-0.00060257135
0.0807325
-0.01319097
0.0005826354
0.0009516388
-0.0014358911
-0.1472399
-0.08686518
-0.06275489
-0.0008570581
0.0049953037
-0.00264149
-0.0012200901
-0.09639991
0.0006790354
-0.0013161236
0.10115801
0.1039927
-0.0014724685
-0.00060887076
-0.15781902
0.00017005664
-0.0014262293
-0.041398242
0.105746835
-0.0007421746
-0.0009999409
-0.0005682519
0.0023166935
0.006777557
0.0012795876
0.00096934015
0.050808616
0.0016814912
-0.0009397562
0.003536447
0.09228227
-0.00087515585
-0.001290769
-0.0016129118
-0.0013926968
0.029894557
0.00051646895
5.4722746e-05
-0.0012210971
-0.0014651081
-0.01599978
0.06533142
-0.00467596
-0.053456247
-0.03471272
-0.0013566948
-0.0003269843
-0.0014420759
-9.241976e-05
-0.002514534
0.00019322988
0.07344506
0.055379577
-0.00028544618
0.00047794566
0.067171626
-0.0016732336
0.0016659088
-0.0012583622
-0.002093892
-0.05542344
-0.0014263969
0.00064218394
0.001121349
-0.00027424342
0.0022975951
0.0011488326
-0.113713495
-0.11242619
0.021720257
1.0999778e-05
0.0011959692
-0.00089168415
-0.020829394
-0.00026757026
-0.058637213
0.0006561338
0.00071718567
0.00039710704
-0.007753791
-0.0016752518
1.6225154e-05
1.8967057e-05
0.0018092074
-0.00085908297
0.0010140184
0.14320596
0.039885633
0.00084376865
-0.00039236265
0.015134763
0.09901341
0.0902404
-0.0015574339
-0.037301116
-0.024054179
-0.022445183
0.074620865
-0.0821629
0.022041986
0.00013320307
-0.02794967
-0.0014079255
0.0019325906
0.07670488
0.031379934
0.00662418
0.002743239
-0.016723137
0.0017024418
0.00043573676
-0.00038519065
-0.044350877
-0.0014961619
-0.061249625
0.008455867
-0.0013561522
0.00026320477
-0.12149582
1.8408855e-05
-0.033476513
0.029135419
0.0013843833
-0.013366117
-0.0008860895
0.0005483775
-0.00049906265
0.0878405
0.029957548
-0.001988444
-0.0014073264
-0.0006329188
-0.13832249
-0.0014352022
0.001559322
-0.061417233
0.00043159822
-0.0012113696
-0.009753
-0.00019947837
-0.0628318
-0.00049951277
-0.0001841572
0.00042640697
0.0014621208
-0.00038997823
-0.036843516
-0.0005272285
-0.0005104354
-0.03365033
-0.0014036038
0.06738287
