0.009259253
-0.00080263463
-0.057046805
-0.02637735
-0.09574391
-0.11478293
-0.049419478
-0.0056148604
-0.12357188
-0.10697522
-0.034528237
0.044393376
-0.06918653
-0.058446385
-0.010454672
0.003457718
-0.09134877
-0.16953568
-0.073267445
-0.048685797
-0.041971195
0.027754005
-0.020312652
-0.0008428479
-0.07002672
-0.008859831
-0.019657219
-0.14364244
0.053127903
-0.073056996
-0.031114867
-0.057872437
-0.010434403
-0.02308929
-0.15827636
0.008810449
0.0035940486
-0.10885403
0.05770219
0.039823376
0.060974274
-0.030234763
-0.064219624
-0.030823547
-0.0020526266
0.046835817
-0.028700484
-0.042022396
-0.018991448
0.0081236195
0.012040893
-0.025413783
-0.1200022
0.004746758
0.049053807
0.0008246366
0.04756715
-0.090485655
-0.11757552
0.016292347
-0.023725856
-0.037486043
-0.06661692
-0.025166959
0.034359496
-0.06521854
0.032481022
0.01957663
-0.012990204
0.0061148717
0.007927576
-0.041041307
0.04423155
0.055693176
-0.037604008
-0.099573135
-0.064326964
-0.015359686
-0.078975335
-0.05794762
0.08122536
0.04829405
0.060244076
-0.053253856
-0.05287163
-0.14264236
-0.020012869
0.052706037
0.058064144
-0.015352086
-0.06301823
-0.02302292
-0.11711822
-0.012253047
-0.024097769
-0.024723483
-0.07007161
0.051534865
-0.008227213
-0.065363504
-0.06855123
-0.07828786
0.026964048
-0.030918622
-0.007964157
0.04255889
-3.7826285e-05
-0.0583587
-0.07505769
-0.019440979
0.011574892
0.05088313
-0.0023895884
0.03944861
0.03711061
-0.069207296
-0.039955463
-0.035037704
0.021822711
-0.035407946
0.031774107
-0.1519863
-0.13482651
-0.07391334
-0.05352857
0.07083573
-0.027783401
-0.034703236
-0.025413267
-0.00057545735
-0.09654137
-0.15934674
-0.0027764565
-0.025842931
0.06804943
-0.037966974
0.04238189
-0.08056043
0.050538555
-0.080738455
-0.06469587
-0.052324645
-0.08585331
-0.04474618
0.008484565
-0.03083795
0.04147655
-0.049330104
0.030109733
0.017738795
-0.05971651
0.011328153
0.010046087
-0.059073187
-0.027080363
-0.053116754
-0.043611772
-0.026543962
-0.054636277
-0.01732951
-0.07489416
-0.027199544
-0.027313525
-0.07038162
-0.11998691
-0.032873306
0.0192567
-0.07530941
-0.06868216
-0.07155986
0.0035972942
-0.02720995
0.06333609
-0.03424779
-0.058501545
-0.043781657
-0.059727397
0.00895344
0.020170584
-0.0073506567
0.050582785
0.050380558
0.03855123
-0.0026744881
0.027064892
-0.07857769
0.016923869
-0.00828445
0.020096745
-0.056438986
-0.014912239
-0.017477294
0.013826621
-0.071553595
-0.054241378
-0.020030914
-0.0035421036
-0.03282485
-0.007911118
-0.09159059
-0.0033265206
0.031165939
-2.5253937
0.025653271
-0.014096121
-0.038463596
0.09952308
0.15248415
-0.03800135
-0.07406566
0.030528814
0.027863905
0.022457192
0.027186515
0.0056960057
-0.007216055
0.12120326
-0.035123195
-0.09010477
0.11308496
-0.011649227
-0.07106467
0.059328955
0.010312994
-0.444755
-0.117889255
0.16046318
-0.06647388
-0.03604255
-0.5267382
0.06735079
0.0027674274
0.05594932
0.056607384
0.05632406
-0.008792271
-0.048147503
-2.121255
-0.029642025
-0.020004654
0.07010178
0.13404192
-0.05085677
0.071002476
-0.059046477
0.033584412
-0.14675108
0.0010253455
0.020655004
-0.106881924
-1.0109277
0.086429074
-0.060441013
-0.019916357
0.050743025
0.053566262
0.17606583
-0.042429887
-0.0038211178
-0.019764036
-0.058364343
0.03850191
-0.7832361
-0.2011891
-0.56141007
-0.14074539
-0.07833529
0.03434765
-0.12190128
-0.009480511
-0.5341172
-0.046475474
-0.022436393
-0.6346341
0.07211595
-0.03978091
-0.0028223833
-3.1375713
-0.070560895
-0.009130064
0.05465125
0.0031021708
-0.020388069
-0.010637593
0.10243428
-1.4596345
-0.097666346
-0.092303984
-0.00089405733
0.28487018
-0.05739086
-0.04989676
0.027951073
0.029342616
0.0127094705
-0.12507643
-0.019268295
0.120033026
-0.017271822
-0.106314205
-0.02793431
-0.024219587
0.029375302
0.12730595
-0.18953228
0.06513691
-0.85279644
-0.03488998
-0.028774394
-0.18011263
0.028331652
0.10467184
0.12639464
0.055339735
-0.119912714
0.023837179
0.006233789
0.025057515
-0.1571128
-0.9129303
-0.2248234
-0.18827736
0.07380917
-0.030432956
-0.3166885
-0.21104707
-0.06321562
0.034444083
0.031576782
0.016421812
-0.07280085
-0.044036403
-0.03554515
-0.66961956
-0.01762526
-0.03749609
-0.09304941
-0.02850456
-0.16567926
-0.21459357
-0.0095411455
-0.18810558
0.010433933
-0.76286167
0.018139591
-0.113920555
-0.13749294
-0.030643772
-0.03448547
-0.08960323
-0.05018395
0.015305027
0.011803013
0.015675863
-0.07306832
-0.03435689
0.023288261
-0.26085606
-2.431034
-0.35312966
-0.036945768
-0.032617476
0.039416775
0.06114145
0.005673162
-0.07940092
-0.38577214
-0.017937962
0.05046067
0.0034106872
0.019789742
0.0816453
-0.008692571
0.10279838
-0.34997058
0.028043155
-0.060440194
-0.022753568
-0.08762634
0.018788815
0.07991326
-0.060817804
-0.03323573
-0.042187095
-0.004571739
0.033895023
-0.0073518823
-0.031061282
0.0030808242
0.042682085
-0.8972776
-1.1878871
-0.06895766
-0.17931122
-2.0280933
-0.0115327025
0.0029474515
-0.20277546
0.029917622
0.041944906
-0.07851118
0.03836603
-0.0737771
-0.016172715
-0.004751937
0.0026588708
0.03143622
0.026587745
-0.092067495
-0.06354417
-0.00039470062
-0.054839
-0.112526044
-0.01963515
0.05456615
-0.01815921
-0.09986868
-0.123869926
-0.06761688
-0.03791555
-0.09085705
-0.11560008
-0.059668582
-0.013352202
-0.009348917
0.021524927
-0.05734624
-0.02478393
0.0027004762
-0.06565723
0.0033548523
-0.12677406
-0.08923832
0.039306078
-0.054927323
-0.041730966
-0.006347579
-0.038901087
0.03636381
-0.0692847
-0.022219472
-0.08110637
-0.128818
-0.040971383
0.034763113
-0.08242668
0.059930272
-0.121977955
-0.038883757
-0.11149052
0.020120502
0.054303054
-0.02890787
-0.042244907
-0.11072746
-0.0278705
-0.021778218
-0.06369426
-0.10945606
0.062216345
-0.034000024
-0.07918274
-0.11324093
0.052289266
-0.012906739
-0.013776245
0.005781534
-0.041460503
-0.026807481
0.039680973
0.060700152
-0.003425639
-0.042953473
-0.0037345134
0.012824956
-0.087625764
-0.04794688
0.025990177
0.066793576
-0.13949771
-0.100640446
-0.03754125
0.03366023
-0.018852398
-0.064131245
0.012744939
0.038719885
-0.056753468
-0.035988778
-0.10624218
0.07212208
0.0151309315
0.032871176
-0.07597098
0.013893953
0.005919722
-0.032558557
-0.06843232
0.013344268
-0.0306163
0.014633165
-0.024917446
-0.17227097
-0.02481431
-0.019971026
-0.071498565
0.00030062758
-0.11146052
-0.14314356
0.014195379
-0.021560714
-0.059618514
-0.08319821
0.011182104
-0.022575969
0.061833438
-0.05628781
-0.0670694
-0.12683539
-0.07912539
-0.015471145
-0.111361966
-0.017193396
-0.019593727
0.03361322
-0.025028467
-0.039828405
-0.053868175
-0.072517075
-0.0671432
-0.018380743
-0.06900903
0.06248734
0.020889128
0.011072438
-0.09494058
-0.024627205
0.0326464
0.054973338
-0.09823561
-0.12322279
-0.04048676
-0.14228413
-0.029993529
-0.03800626
-0.049428582
-0.038685497
-0.044059824
-0.10284315
-0.09870054
0.047359537
0.019655155
-0.06335477
0.020217063
-0.0967903
-0.015888559
-0.101465896
-0.041299015
-0.052860532
-0.12977546
-0.027494343
-0.087844476
-0.0050109755
0.029804254
-0.027013432
-0.03245738
-0.04917379
-0.03600258
-0.07505811
-0.03905791
0.02967646
0.020892836
-0.00033982308
-0.1118124
-0.1273115
-0.15873079
0.00029951148
0.062471583
-0.092951134
-0.03435041
-0.11487374
-0.038439587
-0.052613024
-0.03228619
-0.05543308
0.009080644
-0.062461626
-0.113609895
-0.056278683
-0.038500827
-0.17621416
-0.005758514
0.044770103
0.031276006
-0.014547897
-0.006251888
0.041299567
-0.03643329
-0.022403967
-0.10023955
-0.038523544
-0.013164416
-0.07637462
0.026374374
0.041567966
0.04468179
-0.075022854
0.011228155
-0.08003442
0.012172309
0.07873634
0.013174165
-0.04449612
-0.056005765
0.03868376
0.0025369788
-0.022706851
-0.012964376
0.0069204164
-0.010232845
-0.08093557
-0.02938173
-0.05727106
-0.0510553
-0.006461635
-0.06665567
-0.07416194
-0.036813177
-0.031962264
-0.014820465
-0.1019943
0.027837014
0.0062091826
-0.038109
0.002494929
0.046987005
-0.09138106
0.048508905
0.02577997
0.0006703066
0.049662046
0.0076048835
-0.018818919
-0.03889753
0.0020097261
-0.11802509
-0.036235817
-0.07071643
0.0047119725
0.0006369541
-0.021470534
0.048912656
0.024609052
0.018075027
-0.06367392
0.028862257
-0.022349067
-0.038969833
-0.034379203
-0.059073042
-0.07614393
-0.10869425
0.074500464
0.009837856
-0.045124542
0.02712421
0.05186519
0.010291851
0.038425893
0.043622218
-0.058847245
0.008919994
-0.03930731
0.047762807
-0.06830971
-0.036774393
-0.056510475
0.012004175
-0.04019227
-0.18087052
0.0069343476
-0.0062031704
-0.031258237
0.0336394
-0.036822513
-0.029473219
0.054306377
0.033864006
-0.027591724
-0.044943962
-0.09547833
0.035772376
0.052973736
0.0019608422
0.0026632457
-0.03621425
-0.029475043
0.052526414
0.040347066
-0.062923804
-0.10078277
-0.027307369
-0.06761349
-0.08924427
-0.059994057
0.048540153
-0.039947443
-0.087301426
-0.04066566
-0.044095572
-0.024518492
0.039457016
-0.04314042
-0.03602227
0.007813359
0.06614493
-0.02018093
-0.09417403
0.021740032
0.047716018
-0.01768078
-0.071540676
-0.024388563
0.060827095
0.05196271
-0.009710973
0.021463143
-0.03705829
-0.025200538
0.060879182
0.032335736
-0.084012754
-0.03570126
-0.046389487
-0.03585399
-0.035707626
-0.015309806
0.011554954
0.049760103
0.018373134
-0.02843827
0.060611233
-0.0073842052
-0.01161745
-0.050765306
-0.0057005375
-0.04262521
-0.046989366
0.05041389
-0.05079098
0.029235296
-0.011400654
-0.03635359
0.022797337
-0.061981466
-0.06615332
-0.0869819
-0.02940243
-0.031941663
0.01875968
-0.015787944
-0.039067205
0.019728927
0.051439933
-0.08942214
0.016924484
-0.01577951
-0.040341683
-0.0101873055
-0.010087443
0.019363107
0.06464972
-0.048774354
-0.06983268
0.020317502
-0.029791543
-0.03589149
0.01958816
-0.03278676
-0.034891147
-0.008167383
0.0022204358
0.030495452
-0.018000666
-0.03651307
-0.04929534
-0.058924526
-0.020559443
-0.05963927
-0.064325124
0.007850931
-0.032534707
-0.024422612
0.028234504
-0.08026954
-0.01551806
0.01294063
-0.0067320275
-0.08304459
-0.079893865
0.07061951
0.2008228
0.027241616
-0.08906166
-0.09070539
0.06874363
0.06796255
0.09976584
-0.024138857
-0.10311914
0.012993445
0.044727314
0.088480756
-0.056305457
0.12508523
0.020928996
0.20153551
-0.061114907
-0.038003225
0.08199401
-0.07098108
0.04865271
-0.0023393275
0.011755081
-0.07858663
-0.105119824
0.046659674
-0.0026089328
-0.049841218
-0.14147139
0.026277859
0.15717988
-0.07605664
-0.046644825
0.17166242
-0.038867556
-0.12616651
-0.004244642
-0.028615754
0.07256974
0.014359086
-0.1649371
-0.121001564
0.039681062
0.06279104
-0.0020037852
0.016108388
0.009887027
0.05709577
-0.04495534
-0.058547232
-0.02452867
0.06273953
-0.025833407
0.014014562
0.031813666
0.25961456
-0.020247499
0.1758244
-0.024089115
-0.04925519
0.048624042
-0.115053795
-0.09228273
-0.13378143
0.07694636
0.010941496
-0.06392404
0.10670265
0.040043112
0.007683951
0.0072461115
0.07431434
-0.043318264
0.045027927
0.02666463
0.017338222
-0.03639702
-0.02902906
-0.046362907
0.038781382
-0.032170672
0.020848755
-0.069386326
-0.0054928707
0.012097898
0.15334918
0.10717368
-0.045236126
0.12108103
-0.0711224
-0.08678469
0.053963214
-0.046490517
-0.07873838
-0.072233595
-0.1233892
0.089826405
0.005615648
0.0007939086
-0.05552285
0.060025826
0.10224549
0.22403505
0.05827862
-0.01723773
-0.067615114
-0.07350765
-0.016173491
-0.04184312
-0.052894566
-0.065084405
0.17100406
-0.06411296
-0.058806125
-0.045210563
0.030701863
0.059112564
-0.022238405
-0.09127269
-0.06852057
-0.05536784
0.11027476
-0.025503948
-0.0019489741
-0.104398325
0.012796516
-0.066587485
0.09502964
0.05584389
-0.11419045
-0.019165723
0.03747801
-0.017181002
-0.06878329
-0.017693246
0.01355086
-0.18421756
-0.01457115
-0.026337057
0.0058359653
0.042816807
0.14291973
-0.03996597
-0.03643186
-0.27285424
-0.118562326
-0.073712476
0.035968293
-0.06123825
-0.033509728
-0.056409333
0.08376005
0.049184363
-0.12320393
0.09360011
0.033073027
-0.024950385
0.035858784
0.06721951
-0.037583712
-0.029038362
0.1077672
0.029846827
0.010991161
-0.21329786
-0.105344936
-0.01556849
0.11512948
0.028826606
-0.021260012
-0.012395097
-0.025818475
0.109688826
-0.0066131977
0.0073099784
-0.18824664
-0.018451935
-0.011706896
-0.061550576
-0.10979703
0.024597164
-0.0030159827
0.10049422
-0.055196576
-0.033472598
-0.44170076
0.10615234
-0.17043678
0.06927408
0.09146098
0.032139
-0.11770199
-0.8634346
-0.004479161
0.10473987
0.067404695
0.047045603
0.026828477
0.20814486
-0.10720639
0.011005343
-0.08726305
0.010069901
-0.008760141
-0.017314428
-0.011736826
0.016450003
-0.10719462
0.032048233
-0.016958807
-0.015165809
-0.032192323
-0.02463231
0.024022333
-0.119679324
-0.024636315
-0.06778473
-0.0457567
-0.0821248
-0.029574838
-0.07339232
0.036073
-0.039487265
-0.05998816
-0.019749245
-0.024675863
-0.03812621
-0.022825517
-0.04286399
0.0077759554
-0.047270183
-0.07008947
-0.03227663
-0.14588888
0.03797491
-0.017020896
0.008296564
-0.055131197
-0.0324065
-0.017395318
0.015999625
-0.030180857
0.041162614
-0.0060987375
-0.10230995
0.0030398392
-0.020534372
-0.035821687
0.042863876
0.034595124
-0.021802075
-0.06624841
0.0035898462
-0.022671083
0.011659802
-0.048018318
-0.028755043
0.042655412
0.012094444
-0.08383847
-0.042198468
-0.063793376
-0.060813453
-0.0106133865
-0.018278155
-0.0136999525
0.02199133
-0.015291867
0.009763547
-0.020980686
-0.016348386
-0.02865757
0.03492503
-0.06438035
-0.05569106
-5.214971e-05
-0.010559762
0.047210064
-0.1493711
-0.06311301
-0.039726675
0.019442314
-0.06452586
0.04592538
-0.03685091
-0.0047426587
0.043835245
0.018364234
-0.053309046
-0.047164913
-0.028302759
0.025460763
-0.06673449
-0.07363768
0.05102504
-0.04780715
-0.013305513
0.032164812
-0.041456115
-0.12644054
-0.018809985
-0.09092874
-0.068734415
0.033307694
-0.019100603
-0.032453775
-0.13527767
-0.008918197
-0.0027117413
-0.022511328
-0.037011746
0.040270608
-0.0032912027
0.024690786
-0.010562851
-0.082530774
-0.1169342
-0.08913096
-0.03910563
-0.03542205
-0.00965941
-0.053096652
-0.023007194
-0.029611068
-0.06257509
-0.0811273
-0.123100534
0.06155597
-0.048588045
0.045648184
-0.07059847
-0.07335604
-0.088452585
0.066695854
-0.036443427
-0.03593656
0.03409125
0.035355005
-0.06833174
-0.02537412
0.0027986665
-0.020761218
0.04960898
-0.035657592
-0.022705616
0.012793349
0.06446202
-0.025114387
0.037908006
-0.024968058
0.0012097149
0.010414942
-0.06447857
-0.0362838
0.02600074
0.02983167
-0.0020611251
-0.05995731
0.050725024
-0.0744496
-0.015053704
-0.10680141
0.012912684
0.0113575
0.041581288
0.02907537
-0.0503687
-0.047652267
-0.0723135
-0.03532864
-0.059351128
0.035146065
-0.021444501
-0.0051314076
-0.0783591
-0.036814686
-0.040757645
0.019061778
-0.016048804
0.0025896966
0.048024796
0.03794954
-0.021806855
-0.027360689
-0.031186024
-0.043708693
-0.06636158
0.041085724
-0.056648396
0.014932998
0.033402875
0.01023816
-0.02791096
0.0021202303
-0.041598633
-0.025910025
0.015902175
-0.06621624
-0.04927434
-0.013689811
-0.055699572
-0.038363263
0.03237069
-0.009815758
0.0242599
0.024194585
-0.008614371
-0.047874685
0.049627736
-0.027342314
-0.032905627
-0.043078072
-0.028812923
0.03724777
-0.0744126
-0.11267041
0.008910891
-0.11839044
-0.0048482534
-0.024968024
0.0077377097
-0.030084189
-0.045229763
-0.053353477
-0.114946365
-0.07344466
-0.13887316
0.05133281
-0.09106596
0.013255126
-0.09970436
-0.00861833
0.031786118
0.007302894
0.057020754
0.0028457765
-0.101830296
0.045398213
-0.00051311345
-0.027768588
-0.035448793
-0.061867528
0.0048595
-0.02431137
-0.027286839
0.015897026
-0.03623745
0.003302779
-0.024049263
-0.025103591
-0.05674816
-0.09497955
-0.03542254
-0.06345828
-0.08413596
0.0013384833
0.0033275825
-0.07674698
0.051587347
-0.09281257
-0.1160642
-0.13331646
0.051737722
-0.036189564
0.037141565
-0.032335177
-0.10739106
0.026599176
-0.10787774
-0.017573439
0.02485868
-0.06792707
-0.027305854
-0.039258186
-0.018424978
0.092977315
-0.021252625
0.036172435
-0.0268251
-0.047528144
0.05031689
-0.048254628
0.0082944725
-0.0029736897
-0.044175096
-0.03493999
-0.09307599
-0.10620007
0.02738481
-0.06644819
-0.02872757
-0.053048983
-0.06678959
0.041360848
-0.016137054
-0.11549503
0.03850181
0.0421719
-0.040106513
-0.09594007
-0.051194847
-0.056910563
0.04381168
-0.100507855
-0.014778368
0.02450636
-0.034466974
-0.07708902
-0.080635294
-0.09364216
0.02374282
-0.12758563
0.06523932
-0.14287335
-0.02737127
-0.07318055
-0.01657253
0.0027685128
-0.032922555
-0.06034313
-0.12921375
-0.029886829
-0.027406612
-0.006230591
-0.020706458
0.061452184
-0.12970571
-0.035933696
0.04619483
-0.08737922
-0.08227604
0.016063372
-0.11142171
-0.05896674
-0.13762689
-0.13604102
-0.086073354
0.015469513
-0.029739184
-0.072394095
-0.010569473
-0.15393771
0.009091683
-0.013714309
-0.0023153257
-0.070535645
0.016138582
0.002508214
-0.09039841
-0.020680826
-0.013976339
0.006254135
-0.12023251
0.018231725
0.0127149485
0.01754391
-0.0019817015
0.035344835
-0.091496006
-0.030141277
-0.040707245
-0.13751614
0.046528347
-0.10778989
-0.12244435
-0.011808884
-0.10359151
0.02246777
-0.11486486
-0.06385928
-0.009331357
0.04799867
-0.007487231
0.022334078
0.022406677
0.06336683
-0.06628542
-0.052418754
-0.059207726
0.03946014
-0.09014459
-0.16966748
-0.12911339
-0.08419204
-0.053135116
0.013232012
-0.17000978
-0.086676374
-0.057698864
-0.0071874345
0.0137706855
-0.039442103
-0.06946811
-0.021020332
-0.14920904
-0.011098072
-0.07274335
-0.05646418
-0.06867726
-0.001726109
-0.08659358
-0.058111683
-0.6346239
-0.27887368
-0.10784951
-0.45639452
-0.25444528
0.11977887
-0.12823756
-0.01190427
-0.056380067
-0.039458103
0.004216916
-0.023746595
-0.20437244
0.043441974
-0.03465138
0.016374448
-0.097372234
0.069994144
0.037497155
0.027333852
0.012172939
-0.09207975
-0.16003925
0.1682453
-0.1872267
-0.01538632
-0.18696955
-0.05272966
-0.6254775
0.07102319
0.014804152
-0.15137698
0.021237083
-0.17156427
0.262817
0.006004342
0.0375351
-0.03816852
0.21941659
-0.009142713
0.062694594
-0.035456203
-0.8356384
0.061717134
-0.5643318
0.032790624
-0.03404629
-0.2473577
0.026204526
0.0060343235
-0.018778883
-0.024228266
0.074118376
0.15983221
-0.20752616
-0.051184203
-0.057612807
-0.43995374
-0.009536902
0.107442215
-0.05603417
-0.17311455
-0.2656624
-0.043895442
-0.0992834
-0.1877303
-0.24564674
-0.36729157
0.14327708
0.049385544
-0.18951698
-0.049084507
-0.17593582
-0.046959866
-0.73511386
0.022239335
-0.011334009
0.1824306
0.055078015
0.022073094
-0.15188739
-0.14542918
-0.77267754
0.13420139
-0.0078737745
-0.01507633
-0.27556625
-0.13762376
-0.031224983
-0.110988654
0.034602974
-0.038075317
-0.09957018
-0.023873437
0.14075308
0.055852875
-0.07064943
0.08767133
-0.09165811
0.011213917
-0.098503835
0.14625955
0.02104576
-0.23655036
-0.005592741
-0.15571412
-0.2948195
-0.14847708
0.02025916
0.00017392925
0.063278705
-0.015122067
0.013928899
-0.1535015
-0.12679124
-0.18421562
-0.0052544023
-0.30111504
-0.25653458
-0.013158773
-0.21508792
-0.48997405
-0.5290168
-0.088049635
0.028462162
0.26750365
0.042910572
-0.090069234
-0.11954993
-0.09107206
-0.02755562
0.03785538
-0.48404324
-0.23597312
-0.14055063
0.045229163
-0.22540317
-0.14897935
-0.11379747
0.06759013
0.27363896
0.04241407
0.070066206
-0.021326264
-0.15700857
0.044815406
-0.32910654
0.16901202
-0.075639814
-0.14143041
-2.0464215
-0.02205367
0.10045514
-0.087225184
-0.5428931
-0.7340594
-0.03789608
-0.029352795
-0.123870715
0.017445505
-0.046263408
-0.19435811
0.17510433
-0.09265875
-0.013839734
-0.18710066
-0.15260199
0.02271732
-0.22529413
-0.05339434
0.070456974
-0.2103051
-0.007851393
-0.2626347
-0.025744714
-0.26641813
0.033512328
0.079843745
0.15605259
0.046682525
0.09369194
-0.056585796
-0.038075417
-0.20779829
-0.06678813
-0.4732686
0.00066432194
-0.30705506
-0.22167662
-0.21146867
-0.20759444
-0.34067205
0.10379453
0.018229535
-0.21370254
-0.68344903
0.062287044
-0.062082794
-0.023993254
-0.086832374
0.019539211
-0.06160893
-0.040063027
-0.05311851
-0.015835837
-0.04583132
-0.026597947
0.06114832
-0.05927647
-0.0004794288
0.011860703
0.04681737
0.0023170772
-0.018593624
-0.0558779
-0.066061094
0.04017256
-0.038067106
-0.017471869
0.013039774
-0.03685788
-0.094630204
0.00046255288
-0.016551986
-0.051195636
-0.047936596
0.039965615
-0.057851292
-0.09287154
-0.042827442
0.06503393
-0.08391877
0.049980305
0.01452784
-0.0082867425
-0.04356206
0.037906803
0.0059163137
0.025369287
-0.040531162
-0.06644968
-0.06836503
-0.04125197
0.052220084
0.009756843
0.021068905
-0.014835295
0.020922996
-0.05909861
-0.056768976
-0.027448423
0.021787006
-0.036644842
0.0070848237
-0.040781844
-0.06400459
0.02413965
0.055236425
-0.0050666896
-0.0867759
-0.03213049
-0.09416743
-0.058940202
0.02943
-0.03759002
-0.062467154
0.0033727263
-0.031617753
0.0504877
0.044007745
0.0034753247
0.03474362
-0.082162485
-0.047921874
-0.0922198
0.04844336
-0.054971784
-0.079590976
-0.07662525
-0.017714621
0.04759345
0.010876326
-0.09332084
-0.0695499
0.013712107
0.08353819
-0.029412435
-0.0055309213
-0.07522324
0.05018717
-0.025443874
0.022336561
-0.01649846
-0.04343014
-0.06659828
-0.077933036
-0.01299151
-0.017854474
-0.13125989
0.0033167682
-0.058566988
-0.09055517
-0.01654981
-0.028215045
-0.08267983
-0.060251012
-0.05634266
-0.052146528
-0.076942645
-0.03466476
-0.003981484
-0.044285126
0.065412015
0.023159165
-0.020601945
-0.01299439
0.0038675515
-0.07326632
-0.035129163
-0.053849403
0.010448946
0.029081248
-0.029928278
-0.038475383
-0.062383942
0.00014709492
0.02036524
0.014656995
-0.027668195
-0.03992319
0.031017914
-0.034125216
-0.08494437
0.041143507
0.0042817937
-0.06393847
-0.04024583
-0.031604446
0.029798094
-0.041100543
0.012865762
0.016588511
0.011376852
-0.0023733603
0.008006777
0.038758386
-0.034211867
-0.012804097
-0.036557492
-0.031698752
0.009105103
-0.05002668
-0.033661358
-0.02597676
-0.012146719
-0.12673953
-0.06823308
0.04926129
-0.08920502
-0.050361555
-0.03728732
-0.036933348
-0.037017908
0.03445773
-0.085523754
-0.10469127
0.017610589
-0.07849918
0.052540094
-0.054026682
-0.096797094
-0.09945846
-0.10701048
0.038408764
0.048285194
-0.05977693
0.067196384
-0.052160222
-0.090213805
-0.014547288
-0.071270496
-0.063371986
0.01441161
-0.049585737
-0.009594217
-0.040545896
-0.04223339
0.0008378989
-0.022417454
0.03342937
-0.017651582
-0.0043467837
0.008104347
-0.06501544
-0.0044056466
-0.035517506
-0.02529213
0.33489588
-0.11813192
-0.008439469
-0.008818245
-0.12988256
0.09766884
0.015403343
0.016402967
-0.10920158
0.0074871457
-0.025540927
-0.07011133
-0.08792175
-0.062397223
-0.074941
-0.044669252
0.21375245
-0.14316407
-0.09167359
-0.23294494
0.09801212
-0.029745245
0.029802889
-0.06946114
0.045148693
-0.15149179
0.13747981
-0.16443856
-0.0019440994
-0.23091294
0.046872184
-0.06534228
-0.1634444
-0.042006094
0.27000803
-0.030414373
-0.10057513
-0.32261893
0.01873309
-0.028704718
-0.002798684
-0.026081277
0.00023859859
0.06670941
0.07456668
-0.04617862
-0.20349422
0.07011155
0.050501067
-0.2927271
-0.5498041
-0.035232697
-0.046596065
0.06455041
0.01968483
-0.037326496
0.069580235
0.011151754
-0.060031444
-0.0053558317
-0.13649489
-0.011793495
-0.3408786
-0.21628197
-0.13462989
-0.18391803
-0.19394074
0.13955614
0.033395506
0.116053686
-0.23295079
-0.036794715
0.0073670144
0.023261094
-0.050745953
-0.04386492
-0.3018635
-0.05288319
0.023937019
-0.08194184
-0.042842858
-0.023635844
0.05551883
-0.09353894
-0.048115037
-0.014995917
-0.1461593
0.018254424
0.041562777
-0.37204948
-0.016900107
0.06638759
0.010819843
-0.07789252
-0.19949497
-1.7780889e-05
-0.14060722
-0.11265268
0.046208117
-0.0124777835
-0.06316768
-0.08566992
0.14344306
-0.12081372
-0.20383781
0.040203996
-0.40039206
-0.0031621556
-0.12197698
-0.050812032
-0.07451985
-0.017008187
0.03793417
-0.018466396
-0.24001119
-0.024303902
0.07131893
0.033209935
-0.02100763
-0.07118908
0.0031355587
-0.009458765
0.15637065
-0.3134289
-0.16942997
-0.11712032
-0.014655698
-0.10770436
0.30940488
0.031199953
-0.23957787
-0.07856216
0.24688765
-0.2541711
-0.045852963
-0.11010334
-0.05294875
-0.14843266
-0.01597731
-0.21618155
0.01887078
-0.12751018
0.116340935
-0.14017995
-0.0003525272
0.00031909184
-0.35071722
-0.010908701
-0.102880046
-0.21595277
-0.014345114
0.068499275
-0.017270342
-0.022619676
-0.039547198
-0.028363831
0.06718065
0.0046839137
-0.066322275
0.08814138
-0.06778973
-0.1434447
-0.040880073
-0.02601701
0.13256349
-0.0065048104
0.14293545
-0.03173805
-0.05460247
-0.009126967
-0.00830676
-0.08427089
0.05209781
0.18652295
0.072190434
-0.04700659
0.106016785
0.06679318
-0.011348766
0.0026607611
0.04149932
-0.13295266
-0.16506921
-0.16437279
0.016751332
-0.0053289738
-0.084345214
0.1850023
-0.0314632
-0.06650792
-0.28412804
-0.035314
-0.37454537
-0.8629547
0.06795925
0.15880278
-0.025331717
-0.23175645
0.004300548
0.1731504
0.050790247
0.02759837
-0.111896716
-0.18771696
-0.70403606
0.09638408
-0.0186382
0.04655954
0.11382819
0.06851304
0.038849972
-0.060006797
-0.1084692
-0.073392965
0.11811043
-0.00034082422
0.14431795
-0.0066595953
0.07186931
0.10878956
0.016091222
0.09362476
-0.07713893
-0.1754835
0.024109453
-0.005373896
-0.051305413
-0.23739806
0.009930546
-0.07756654
0.05597848
0.023125399
-0.1048841
-0.029668232
0.13628168
-0.037376028
-0.06309681
-0.38110074
0.07214581
-0.31329924
-0.07366261
-0.08693781
0.08015442
-0.021651883
-0.14569181
-0.09826248
-0.10120298
-0.033328626
0.054748088
0.06643606
-1.2501069
-0.053869262
-0.20092222
-0.044192944
-0.010750572
-0.07168439
-0.082488865
-0.23112437
0.07469898
0.014354363
-0.115685314
0.027642535
-0.23695466
-0.17597412
0.14728342
-0.08304941
-0.11652793
0.05713397
-0.046882454
0.080328904
-0.28904632
0.2992972
-0.039274126
0.062226117
0.18282795
0.091919534
-0.0044781114
0.019884704
0.05302136
-0.016108442
0.17104128
0.04841095
0.041267995
0.024138939
0.07253283
-0.025507675
-0.1082593
-0.195469
-0.11858497
-0.0710124
0.077305965
0.13525212
0.1299561
0.10820589
-0.17802678
-0.031657938
-2.4075062
-0.009491596
-0.055042125
0.0007719395
0.06582196
-0.014429319
0.025577208
-0.0031155497
-0.11023022
0.02154541
-0.93087983
-0.032346126
-0.026625404
-0.059554745
0.18886302
-0.04002223
-0.06808279
-0.08125807
-0.1507702
0.040398777
0.049787417
0.09851603
0.017312035
-0.7699657
0.02337038
-0.061049417
-0.07318219
-0.13055769
-0.158304
-0.06009672
-0.08333603
-0.04471228
-0.33223405
0.04490831
0.08038207
0.08045851
0.08925598
-0.6517755
0.0047736275
-0.03633661
-0.10125958
0.16455533
0.049451005
-0.08111584
-0.012529307
-0.3112562
0.037435863
-0.9854602
-0.08867152
0.012391723
-0.010833216
-0.05459412
-0.069563255
0.047209714
-0.0634611
0.046114862
0.082591295
0.04967386
0.062168803
0.07265625
-0.04153098
-0.061541505
0.002266223
-0.03743605
-0.05559775
-0.69186455
-0.03389837
-0.017002415
0.1213436
-0.03430543
0.0679692
-0.10204712
0.011366961
-0.008413732
-0.005770561
0.15649986
-0.009054547
0.043040413
-0.0007226748
-0.0066889105
0.073882125
-0.051659115
-0.603734
0.025421297
-0.17034236
-0.16426113
-0.0012675077
0.10767514
-0.08330114
-0.016911354
0.33010426
-0.0029489545
0.031402
-0.028604483
-0.1558335
-0.023714758
-0.35389405
-0.5416633
0.01658243
0.108343735
-0.034477625
-0.05266944
-0.043557998
0.0967282
0.018566027
0.22832812
0.061853375
-0.0065481625
0.104819
0.12687571
0.10750783
-0.04493332
-0.05944263
0.07741334
-0.033568833
0.020921277
-0.009741394
-0.0716855
0.32668057
0.051551454
-0.08872756
-0.07445773
0.07360399
0.16990805
0.06910726
0.06364021
-0.061767954
-0.04150621
-0.087082006
-0.12268979
-0.1983858
-0.040323902
0.0039545116
-0.094437845
-0.008857953
0.09145219
0.08256013
0.06576485
-0.005918504
-0.023092318
0.1474731
-0.0054850737
-0.05471883
-0.075858794
-0.016626785
-0.05343437
-0.1598864
-0.012861924
0.11837168
-0.11348536
0.13220607
0.019607872
0.07534202
0.08858124
0.058043025
-0.04607472
0.15804742
0.047603182
-0.11057957
-0.10442112
0.37433496
-0.0077917716
0.10079076
-0.059665535
0.06928155
-0.0839189
0.059239253
0.15697001
0.15186436
0.1749399
0.060110234
-0.058453154
0.11972945
-0.09163358
0.045094475
0.044670608
0.12094035
0.021993728
-0.010916143
-0.14734086
0.0029131575
0.006808406
-0.05427376
-0.098314464
0.06428302
0.07074691
0.08237505
-0.014530352
0.038168807
0.071907826
0.39066735
0.23225279
-0.04406581
0.16344725
0.055248592
-0.12848882
-0.053005572
-0.033564802
-0.050994907
0.0982547
0.030722287
0.0078035253
0.017058525
0.11625728
-0.0051938468
0.10181262
-0.11348628
-0.009213967
0.07519875
0.033380993
0.07945711
-0.08078651
0.00017205793
0.037036877
-0.24384828
-0.00058647606
0.011014997
0.028989542
0.044309407
0.049090996
-0.13085984
-0.029989738
0.13373874
0.054628786
-0.024095096
0.12100199
-0.19054475
0.0087989215
0.25399843
0.095184036
-0.088909276
-0.26539764
0.4126422
-0.020360645
-0.07022708
-0.14515926
-0.07493758
0.09975484
-0.014855107
-0.09156484
0.0008957709
0.14916927
-0.23296668
0.17223327
0.0782198
0.17173532
0.07240544
0.3308933
0.033095405
-0.01027412
-0.0006440514
-0.005583928
0.05238963
-0.083928674
-0.058479182
-0.036301482
0.018961815
-0.042108912
0.002267512
0.10105408
-0.022701627
-0.024133092
0.015740922
0.010668334
0.035353288
-0.013665007
0.068843186
-0.0063619637
0.13754983
-0.1506775
0.025210734
0.07765292
-0.09308606
-0.023738272
0.01572619
0.015532596
-0.013748077
-0.11038856
-0.030073537
0.1165394
0.007641139
-0.0036849545
0.1014213
0.010018279
-0.10437861
0.19959128
0.07856963
0.08775901
0.0025894959
0.106257975
0.18330295
0.010604934
-0.12692513
0.09941042
-0.05390876
-0.008303361
0.039230503
-0.06766449
-0.04651205
0.067597814
-0.03857994
0.13687536
-0.041836914
-0.09150359
0.06453932
-0.09270391
-0.11540808
-0.09800193
-0.035760343
-0.10070321
-0.08292018
-0.1725354
-0.11826763
0.08986246
0.01181891
0.032639254
0.11538941
0.017678479
-0.715463
-0.10489892
-0.06651673
-0.21874468
0.08187775
-0.20770648
0.030214995
0.1468913
0.12093476
-0.017713103
-0.036989193
-0.49076933
-0.020603955
-0.07187316
-0.0368375
0.38909882
-0.02361401
-0.016569866
-0.028456666
-0.0115349125
-0.05291346
0.020943198
-0.13549775
-0.010449192
0.0041251304
0.059951328
-0.033848528
-0.11946865
-0.07426448
-0.07277158
0.099673964
-0.09106698
-0.6454505
-0.07209401
0.00040513952
-0.21383958
0.14160874
0.026478201
0.06177803
0.056672186
-0.007686939
-0.1380576
-0.57407844
-0.20049672
-0.079707794
0.00019174308
0.032409806
-0.103304215
0.15345967
-0.02996195
0.002237148
-0.04023859
-0.3275307
-0.077559546
-0.5326423
-0.21972203
0.05544127
0.01558202
0.079181015
0.045153067
0.0029937807
-0.22593786
-0.027616356
-0.04522707
0.033393133
-0.04434264
-0.0029923376
-0.02899173
-0.049665276
-0.005837481
-0.040885318
0.004472141
0.14770369
0.0063484376
-0.2174812
0.19600779
0.068213046
-0.03950394
-0.11231276
-0.08569038
0.024875939
0.05352188
-0.018247737
-0.31684425
0.09431783
0.041835833
0.123230234
0.17457497
-0.27829188
0.020827197
0.027952287
-0.053561963
0.026892154
-0.024891367
0.20899557
-0.0647853
-0.061165363
-0.00063220464
-0.033146467
0.03723458
0.07280515
0.0618685
-0.13884826
0.058050465
0.017968914
0.16509856
-0.045129776
0.0669152
-0.088792
0.09454461
0.003589473
0.04111225
0.02200466
-0.25624818
-0.1634107
0.07205002
0.09244331
-0.05848397
0.053824395
-0.098469414
0.043296304
-0.11641534
-0.016866213
0.15674974
0.030407349
-0.09607917
-0.08849016
-0.046637677
-0.12684946
0.116500005
0.011589288
-0.19219294
0.14731057
0.008090253
0.017010665
-0.26128554
0.071586706
0.09336551
-0.019131733
0.054444373
0.08231858
-0.21806636
-0.076963104
-0.036872108
-0.040687922
0.066654705
0.0509434
-0.07386198
-0.019925863
0.06970369
-0.14702265
-0.062677465
0.12175702
0.022622343
0.02975018
-0.009723047
-0.037425544
-0.14343475
-0.047626797
-0.13508601
0.09831927
0.12501633
-0.0021152413
-0.027536655
-0.57614136
0.042090762
-0.0137252435
0.19929302
0.3316645
0.08498988
0.12085761
0.013774868
0.13329636
-0.16417186
-0.17090508
-0.030363293
-0.07090619
0.06717418
0.17270535
0.025882844
0.0007878392
-0.11608373
-0.0045579514
-0.009893181
-0.0601818
-0.26310936
-0.10597436
-0.041485056
-1.2491478
0.08726246
0.2126906
-0.08848155
0.081832394
0.17684333
-0.018745685
-0.050486498
-0.07107029
-0.5564257
0.06104435
0.06489854
-0.023218917
-0.15539426
0.07337095
0.071124494
-0.0048667733
0.18335988
-0.34428266
-0.0046699527
-0.2010008
-0.048138313
-1.6561234
-0.047025774
0.03878599
-0.19075774
-0.028784046
0.2590431
0.05064013
-0.07010073
0.008579224
-0.027377874
0.06189424
-0.055799887
0.07390464
-0.043100636
0.00532361
-0.10752719
0.052377358
0.114863805
0.11093612
0.17364769
-0.24464512
0.09209701
-0.11168532
0.06960608
-0.03136426
0.052283734
0.182796
0.003225339
-0.041466113
0.0012352332
-0.033834178
0.19407208
0.007993411
-0.028138326
-0.0130402455
-0.08607678
0.0045723245
0.09088247
0.041013215
0.16407003
-0.10194003
0.12470812
0.16393036
0.015744854
-0.09652843
0.043713294
0.2505753
0.017799703
-0.027135951
-2.4498806
0.19731899
-0.020415012
0.013901635
-4.9563785
0.032214116
0.015876357
-0.025312265
0.06258984
-0.15501599
-0.057612687
0.07008934
-2.028013
0.10870558
0.038865115
-0.16605191
-0.31610233
-0.17103393
0.12267884
0.26481605
0.10204519
0.28228414
-0.66579777
0.24731512
0.17827003
0.01737701
-0.53673047
0.0045779026
-0.039236844
0.022711461
0.06437913
-0.29302844
0.022440882
0.14229387
0.007738625
-0.4884498
-1.2147465
0.30037874
-0.074932575
0.07395624
0.122942835
-0.0045815622
-0.023723794
0.14125954
0.07113432
-0.78772014
0.12043501
-1.376656
-0.08532559
0.0412539
0.10057979
0.34839743
-1.1082133
-0.010024619
0.061444722
0.003687659
0.07093305
-0.038007062
0.08714325
-0.014733647
0.14807689
-0.0407458
-0.04685009
-0.53354055
-0.0847172
-0.013382085
0.029751755
-0.0069598346
0.30942178
-0.022848684
0.10462372
0.12933815
-0.09324185
-0.07331601
0.16486737
-0.38682157
0.11096148
0.18565993
0.3719637
0.05798023
0.16103715
0.08645634
0.099284984
0.09321767
-1.4240031
-4.3564034
-0.6802503
-0.056490142
0.06603082
-0.054079633
0.014421927
-0.2483906
0.24823944
-0.018083131
-0.0896972
-0.17853712
0.009480425
-0.1726534
0.046423756
0.05534311
0.1753084
-1.2885349
0.024711512
-0.04106721
-0.023971144
-0.023809234
0.051403478
0.10615012
-0.31698054
0.07721397
0.04455081
0.028132653
-0.08181267
0.22768912
-0.008780607
0.0026762902
-0.05462335
-0.2812763
-0.4158083
0.17299931
-0.07670743
-3.9435854
-0.24317369
0.022915293
0.08923934
0.2074796
0.078152426
0.0017717795
0.12755734
-2.550943
0.032141425
-1.0939877
-0.10243497
0.045406032
0.006881589
-0.07595068
-0.075426616
0.021103008
-0.048418403
0.14110185
0.021790108
0.07549357
-0.05024629
0.042380456
-0.020161385
0.01860532
0.06571571
-0.029248795
0.07118683
0.01678726
0.0024350204
-0.517231
-0.051177826
-0.0010414781
-0.026583835
-0.048754517
-0.21405874
-0.018855136
0.016989715
0.031116664
0.023582872
0.03553206
0.02372133
-0.044467077
-1.9862145
-0.0499133
-0.00728618
0.03718661
-0.014774067
-0.032236535
0.004513782
-0.058483075
0.053499874
-0.23300214
-0.020195656
0.025863986
0.12560019
-1.7612714
-0.07404563
-0.09444948
0.035437733
0.06676568
0.043369055
0.03300131
-0.032877993
-0.072940275
0.024552241
-0.0180786
0.08182006
-0.6010145
-0.041298006
-0.7333805
0.13953397
-0.40571746
-0.15473948
0.08432606
0.013882639
-0.07253653
-0.04922613
0.012847986
-0.30549014
0.094172925
-0.027226048
-0.050057616
-1.4053153
0.0162353
-0.06456467
0.053433236
0.038863488
-0.15053035
-0.0051360596
0.01113178
-0.3311256
0.15646024
-0.37981197
-0.11220847
0.08795711
-0.042275514
0.067908466
0.1475347
0.024458507
-0.16804694
-0.074280314
-2.5079854
0.14921439
0.029743383
-0.08622759
-0.011848047
0.0014495974
-0.04634207
0.039883975
-0.0130283935
0.21322542
-1.8269962
-0.041809104
-0.050750945
-0.12658015
-0.12086249
0.058326844
0.14818567
-0.027934141
-0.053389166
0.053700108
-0.07327638
0.010002972
-0.08047745
-1.0807152
-0.08709246
-0.04897326
-0.07005094
-0.348142
-0.33329576
-0.07192977
-0.018465675
0.008554645
-0.23881154
0.05510937
-0.06926501
0.07273935
-0.06060715
-1.4453295
0.020142093
0.011028194
-0.08825924
-0.07068336
0.10294396
-0.009892101
0.015871922
-0.22800723
0.089142025
-1.2776175
0.011344342
-0.11297801
-0.015213451
0.06948838
0.044490337
0.04588991
0.037158705
0.1253941
0.14377128
-0.0035870278
0.049695425
-0.027593661
0.008610044
0.015073965
-1.0079036
-0.27169314
-0.066597536
-1.076284
0.115732916
-0.06273999
0.039027505
0.21365859
-0.28252897
0.00013327548
0.08949621
-0.00024736824
0.028960498
-0.008115708
0.0824024
-0.0013327721
-0.08415942
0.00066560967
-0.017174492
0.040286925
-0.77251464
-0.04062201
-0.009807517
0.07889621
-0.033645183
0.054166466
0.094000116
0.02902265
-0.008621069
0.096054316
-0.08790162
-0.041918058
-1.002924
-1.0536238
-0.59886837
-0.0145603735
-1.0851375
-0.059995852
-0.016547337
0.019011222
0.08770488
-0.07807932
0.3643977
-0.2928317
0.041979603
-0.2507813
-0.062486935
-0.04861572
-0.3873015
0.39493233
0.16049899
0.053632073
0.069340736
-0.042985924
-0.26940235
-0.029235074
0.30198133
-0.272741
0.08459516
-0.00794405
0.00235398
0.038607407
-0.068811044
-0.033860892
-0.086765304
-0.0021218676
0.016912494
-0.5172325
-0.02296015
-0.2073141
-0.034270313
-0.020340754
-0.28582978
0.1146262
-0.15351678
0.0057065394
0.01974949
0.00030239273
0.06188415
-0.13683632
0.05445256
0.26082948
0.07227482
-0.21232054
0.03767734
0.21166536
-0.12060556
-0.11679538
-0.17723954
-0.57481956
-0.13561355
0.11437103
-0.28550032
0.04611372
-0.1426329
0.019121345
-0.14375108
0.013776339
-0.22228205
-0.19059739
-0.28858835
3.807461e-05
-0.9406201
-0.04438208
-0.010634822
-0.08330204
0.07103176
-0.08774211
-0.29297093
-0.04084758
-0.072699875
-0.034167398
-0.25939578
0.036892902
-0.11097108
-0.28048304
0.10703639
0.0838144
-0.42285433
-0.50799954
-0.027717175
-0.106636055
-0.01178695
-0.05972802
0.025161024
-0.37835866
-0.045491345
-0.21421552
-0.006644604
0.087611355
-0.11095775
-0.28398976
0.06391865
-0.003959971
0.07536858
-0.39529243
0.057709556
-0.0039532194
0.022272116
0.35332268
0.12950964
0.014124152
-0.016120967
-0.32424837
0.08510851
-0.28109196
-0.08960601
-0.22205664
-0.13816369
-0.19186871
-0.020393198
0.015353983
0.070578374
0.06348056
-0.119754836
-0.034548447
0.14309001
-0.002511229
0.005995951
0.011039354
0.029900737
-0.107910775
-0.032719158
-0.48731202
-0.09017288
0.013896094
-0.017485607
-0.07457322
-0.51135683
0.06747483
-0.084591456
-0.057320554
-0.21142125
-0.45235145
0.15624934
-0.37550026
0.02221873
-0.85729283
-0.1503273
-0.029058104
-0.20081949
0.034169737
-0.4684284
0.087754436
-0.06334394
-0.18084225
-0.11538277
0.0003543698
-0.2492257
-0.01174124
-0.24930775
0.09996734
0.23305538
0.21316433
0.09141273
0.16390608
-0.119254425
0.049042538
-0.10729098
-0.1605022
-0.5100387
-0.15856667
0.024750551
-0.16368932
0.096015334
-0.0055900044
0.09174132
-0.08585726
0.26470956
-0.5342245
-0.18734564
-0.29379857
0.011134934
-0.03315777
0.020813838
0.012274988
-0.17369735
-0.071026295
-0.104243666
0.04852942
-0.2447529
0.035914816
0.34121597
-0.14462082
-0.09068373
-0.17774795
0.06311245
-0.0060461555
-0.033370975
-0.01904124
0.008792292
0.012045667
-0.0972468
-0.16623574
-0.23081307
-0.028982121
-0.07764384
-0.04901088
-0.031619944
-0.08476947
-0.13885981
0.07765549
-0.08141565
0.039151076
-0.12507595
-0.05592356
-0.06633786
-0.07484507
-0.06335829
0.050066423
0.06670335
0.003647552
0.067104824
0.018955711
-0.024841644
0.0075060097
0.019461215
-0.037635628
-0.05607616
-0.082422055
0.03080289
0.010447407
0.027997363
0.04252541
-0.037303552
-0.08048762
0.017999493
-0.047443062
-0.021898119
-0.09121849
-0.035520863
-0.000103403414
-0.07278147
0.048388198
-0.08782468
-0.0061864983
-0.09247457
-0.014980652
0.013493985
-0.03452094
0.017743519
-0.06634138
-0.0006529582
0.02348407
-0.09495039
-0.029708754
-0.016724452
0.02141059
-0.054285757
-0.061067842
-0.019241955
-0.05955738
0.0073995297
-0.028702302
-0.0222819
-0.0066984883
-0.038526755
0.03458391
0.025793537
0.010640405
0.012272407
0.025613349
-0.04970879
-0.101249866
-0.031700186
-0.0029734992
-0.05173085
-0.010508801
-0.049446486
0.028272819
-0.017187519
0.019145044
-0.092976466
0.06727253
-0.05234083
-0.024454398
0.0029288253
-0.10333017
-0.024586333
-0.06347029
0.04953501
-0.0562714
-0.025571661
-0.040673636
0.0351841
0.011924704
-0.026807724
-0.13385418
0.008856415
-0.012995383
0.005260441
-0.0122465035
-0.027409542
0.037686713
0.0030932308
-0.06520594
-0.07691981
-0.044324357
-0.14250879
0.016345568
0.079209045
0.012812051
-0.008282186
-0.04062488
-0.023820294
0.031529725
0.014910341
-0.083242215
-0.023295242
-0.09807106
0.05197054
-0.007624832
-0.05414508
0.0459849
-0.01638277
8.372643e-05
-0.048221383
0.0366147
-0.07893583
-0.048195537
-0.06354248
-0.019771243
-0.03455799
-0.015955666
0.004126343
-0.038584106
0.06370214
-0.014503041
-0.052257072
-0.027693583
-0.043824855
-0.05141559
-0.09386674
-0.043189287
0.012113248
-0.1890422
0.080293804
-0.1260296
0.00020819376
-0.09810887
-0.061856184
-0.012561508
0.029479036
-0.08851623
-0.02792213
0.0045820735
0.040537793
-0.05023146
-0.038123753
-0.0613972
-0.0020724288
-0.04982032
0.006029421
0.016627755
0.043244738
0.0051211617
-0.045913488
0.013457361
-0.0012342359
0.04446466
-0.031967446
0.026202494
-0.032433443
-0.09816924
0.011036611
-0.005976515
-0.024148133
0.0074597145
0.0119894035
-0.10777615
-0.061782308
-0.0749051
0.024987608
-0.21170089
-0.045957047
-0.08051408
-0.04548164
-0.0110252425
-0.0044350387
0.0518026
-0.0895996
0.017706726
-0.024023723
0.04113536
0.07403788
0.02816876
-0.11625892
0.0569525
-0.09352257
-0.070622325
-0.045442108
-0.03735827
-0.0851698
-0.0039229686
0.044026103
0.032165963
0.025826786
-0.018617062
-0.01959845
-0.057280138
-0.019966861
-0.055372685
-0.14980394
0.04352205
0.07482531
-0.07967869
0.015718548
-0.103383966
0.07921341
-0.056474995
0.04517124
0.08693096
0.03770011
0.0340955
0.060800318
-0.06793456
0.1531465
0.010611551
-0.048070345
-0.46553493
-0.13626124
0.06267964
0.2033827
0.005767451
0.16144706
-0.118389204
-0.16687174
-0.28923607
-0.09084933
-0.09994363
0.0013500067
0.0005169182
0.0060382485
-0.31977206
0.14193308
0.077647075
-0.07304296
-0.046136577
-0.06708058
-0.10027442
-0.06708494
0.058304325
-0.04521482
0.09282627
-0.16414082
-0.061258703
0.016761906
0.0950779
-0.17879045
0.041362662
0.23826711
-0.058487423
-0.77817124
0.064968094
-0.05875432
-0.030274404
0.082226805
0.01736526
0.049126804
-0.025347197
0.24776672
0.023907822
-0.56736296
-0.064313054
0.03620588
-0.07407439
0.10695072
-0.15510567
-0.022701822
-0.019503064
0.07830637
0.10177283
-0.37412915
0.07809685
-0.025001593
-0.01642232
-0.19373222
-0.32395402
-0.09951222
-0.005711607
-0.023501765
-0.045637403
0.20542985
0.06665035
0.102505125
0.04198119
0.0036019592
-0.010917435
0.045693893
-0.051625658
-0.001093005
-0.21652862
0.16046144
0.08940445
-0.0026934363
-0.16191024
-0.09285633
0.1621443
0.026150417
-0.20028146
0.034085628
0.03740734
-0.28645736
-0.12935857
0.014271677
0.20587926
-0.038934156
0.06583221
-0.91206723
-0.5578363
-0.60384375
-0.1933892
-0.06107581
0.07505776
0.10548954
0.15581708
-0.5765709
-0.044080716
-0.078043
0.075043775
-0.13668872
-0.54920316
0.00995751
0.10470737
-0.009543217
-0.09267268
-0.2676716
0.0026807107
0.06632818
-0.024089796
-0.5084192
-0.048939053
-0.23347265
-0.4146917
0.0054428778
-0.30145413
-0.09550079
0.082863465
0.07798149
-0.017435895
0.014303512
0.16421059
-0.06634396
-0.41986203
0.043483492
-0.9098526
-0.054300494
-0.16456449
-0.123778634
-0.18050165
0.07565031
-0.071908645
0.08418736
-0.042789042
-0.122004285
-0.17880668
0.019084854
-0.3576492
-0.032331806
0.15065622
-0.034539755
0.029294953
-0.003040712
-0.5002345
0.11882133
-0.0019336178
0.03327397
-0.030610975
0.26202416
-0.027214147
0.01104452
-0.04403727
-0.008035984
-0.46265167
0.0033304172
-0.06572226
-0.029437138
0.064547375
0.010138065
-0.03889624
-0.14553574
-0.021991456
-0.0075632883
-0.4568552
0.23706569
-0.114064746
-0.35582894
0.011687028
0.005416757
0.037913475
-0.06702775
-0.029587146
-0.17649214
-0.10500611
-0.055068642
-0.054163113
-0.064991236
0.11957384
0.014762476
-0.082167946
0.029158354
0.02923851
-0.047755115
-0.09655931
-0.012268115
-0.018220605
-0.036093183
-0.08421788
-0.08832948
-0.0832298
-0.05019685
-0.053645723
-0.0703553
-0.0454809
-0.08488113
-0.056924075
0.018770862
0.00947732
-0.050971903
-0.09810348
-0.020538729
0.03759887
-0.08431199
-0.0340799
-0.0062758517
-0.022664718
-0.059332713
-0.028611152
-0.031789392
-0.108939715
-0.048360378
-0.06093221
-0.02697486
0.043160673
-0.006577002
-0.040267397
0.018576827
-0.028067004
-0.031283095
-0.06024334
0.053677138
-0.021606922
0.022707885
-0.03282055
-0.052831344
-0.0324764
-0.08174539
-0.07862081
0.03047417
-0.1010874
-0.02688982
-0.057265013
-0.077015124
0.06751805
-0.027398024
-0.04576307
-0.009006622
0.016116811
0.00040833966
-0.0007006382
-0.080193296
0.016182361
-0.044520464
-0.024523012
-0.06532875
0.005045605
-0.0050073126
0.001381063
-0.036400303
-0.047910735
-0.066280775
-0.021911645
0.058188796
-0.04368861
-0.05229551
-0.0009845896
0.03786828
-0.048507985
-0.05499759
-0.073708706
-0.013846182
-0.04238034
-0.012027162
0.050625734
-0.07221989
-0.035924606
0.027252054
-0.024543244
-0.02384973
-0.00087419513
-0.008768968
0.0035956728
-0.0611777
-0.015711892
0.03346048
-0.053406395
-0.0027523187
0.017115448
0.02438202
0.061083313
-0.04655842
-0.05738402
-0.06898736
-0.023127472
-0.06708105
-0.04007546
0.016441535
-0.06654894
-0.034409765
-0.082946375
-0.004586769
0.020868279
0.025430294
-0.002001385
-0.054225393
-0.05580209
0.020082181
-0.0011555274
-0.02081177
0.0058721276
-0.04642937
0.00077277975
-0.10090227
-0.025396775
-0.020749765
-0.032620773
0.06206143
-0.08841332
0.019427516
-0.03171911
-0.019118493
0.01342703
-0.090299994
-0.015621277
0.036886975
0.007314011
-0.038084995
-0.017139422
-0.030451363
-0.06345554
-0.014773695
-0.09810289
0.023597237
-0.056278124
-0.0154101625
0.057940815
-0.03667457
-0.020855205
-0.0027138977
-0.0065083336
0.014820492
-0.019758187
-0.037144337
-0.030356308
-0.050411228
-0.04089532
0.0016041162
0.0031898492
0.021280164
0.0009840033
-0.08431003
-0.020388203
0.04503119
-0.030957447
0.027960282
-0.048117235
-0.061419044
0.023653686
-0.01668873
-0.091340736
-0.07754827
-0.04718678
-0.08664991
-0.009066078
0.054297913
-0.072442636
-0.04414858
-0.09822763
-0.014314337
0.0055932384
0.03428912
0.0006376648
-0.034284562
-0.021670653
-0.06598275
-0.0044520525
-0.06901953
-0.047167428
-0.022866767
-0.057593886
-0.004813007
0.062299736
-0.06717475
0.02674015
0.05606167
-0.052094553
-0.04861901
-0.021638243
0.02900337
-0.05510543
-0.013272533
-0.09018521
-0.005558076
0.119732104
-1.6320199
0.028945612
-0.14434561
0.06529363
0.02686913
0.08060672
-0.15134677
0.05752861
-0.046998356
0.053966388
0.10389484
0.10778577
0.007996037
0.019511199
0.032234382
-0.06396017
-0.096740864
-0.082587436
0.008246557
0.07211542
0.06296356
0.00027924308
-0.34140113
-0.11836733
0.07518725
0.024422282
0.06455464
-0.18560626
0.01000971
0.055463035
-0.09837198
-0.04708752
0.08568554
0.018666508
-0.049228664
-0.7358074
-0.05850556
-0.13244344
0.028884893
-0.080526784
-0.050835628
-0.06928908
-0.07123852
-0.006063863
-0.23310368
-0.0023799737
0.014020065
-0.14484704
-0.39049968
-0.07324738
0.045987345
0.026278466
-0.030946149
-0.18725541
-0.15574808
-0.007055005
0.05475147
-0.002956906
-0.07081628
-0.014159349
-0.15347555
-0.08865431
-0.42158115
-0.0882094
-0.17622817
0.07561583
-0.028393492
0.06444676
-0.3672604
-0.056329817
0.06559997
-0.46001637
-0.10456803
-0.04818068
-0.111041665
-2.995781
-0.029986061
-0.055305574
0.05893857
-0.013749603
-0.09709529
-0.044600174
0.020504972
-1.4069252
0.024972878
-0.24718767
-0.038383503
0.079290636
-0.006773276
-0.10736099
-0.04202433
-0.04229136
-0.19835189
-0.005480762
-0.04427148
-0.044661537
-0.0623896
0.06108732
-0.058449708
0.0052459473
0.002096787
0.03536646
-0.1849655
-0.039055675
-0.49260655
-0.041459035
-0.006045795
-0.09152044
-0.05047315
-0.0045756306
0.0383255
0.015397987
-0.102125295
-0.04383074
-0.007062802
0.014972564
-0.07233004
-0.20983946
-0.14930677
-0.21786499
0.08647968
-0.143542
-0.39103973
-0.16908357
-0.074708596
-0.09311374
-0.26524013
-0.041337457
-0.28932276
-0.05531173
0.08507019
-0.43847856
-0.020415947
-0.041709233
-0.013334628
-0.18013312
0.0075991913
-0.08122855
0.017460914
-0.20687002
0.032072462
-0.2730764
0.016060267
-0.021987572
-0.114254735
-0.065686546
0.10460312
-0.13156703
-0.018013347
-0.15716533
-0.06947959
-0.035537764
-0.005311004
-0.07549791
0.0016867027
-0.18783286
-2.353118
-0.08331645
0.05522046
-0.08508025
0.0023063577
-0.051976904
0.027676469
-0.26288563
-0.19627647
0.019599952
-0.11721828
0.02757996
-0.003792256
-0.00691573
-0.027169311
0.08230699
-0.2252169
0.041233003
-0.013925104
-0.021188898
-0.056210283
-0.01151527
-0.004698783
-0.009676915
0.1576564
-0.34900436
0.009834832
0.0221256
-0.007878513
0.019625189
-0.034503993
0.032394577
-0.47725224
-0.76715237
-0.15456887
-0.35858202
-1.9047533
0.04397479
-0.0037193105
-0.055352785
-0.0014149429
0.060081687
-0.014963246
-0.11792277
-0.33589983
-0.6472844
-0.12006907
0.06269279
-0.61375797
0.15264328
-0.034590174
-0.042793393
0.025141468
0.034147352
-0.019837897
-0.05862894
-0.07129044
-0.12282024
-0.073016256
0.0019100982
-0.0025965567
-0.15890704
0.108843796
0.085386924
-0.12136461
-0.071510606
-0.0037697752
-0.22826046
0.033085242
-0.1697446
-0.01536121
-0.12273276
-0.55328923
-0.2591623
0.12663215
-0.0048174984
0.028456327
-0.054984894
0.06610934
-0.10228859
0.014500821
-0.08635211
-0.034263898
-0.061536387
-0.056641486
-0.039337583
-0.14654993
-1.0649154
-0.13765554
0.004263396
0.051092423
-0.050962593
-0.056915406
0.06973714
0.05373114
0.019926224
0.06550848
0.12351784
-0.11429756
-0.023232391
-0.12618491
-0.039975613
-0.34195524
0.02318094
-0.004974299
-0.15240712
-0.22285709
0.18221301
-0.028148543
-0.061658002
-0.026381787
-0.8260325
-0.098111175
0.059235148
0.030394765
-0.075255476
-0.13662551
-0.053077225
-0.24242459
-0.38884932
0.023913136
-0.018609637
0.10256074
0.04679543
0.04790925
-0.40208703
-0.36833772
-0.76469845
0.115855716
-0.088871785
-0.1910245
-0.2084504
-0.066952825
-0.069277175
0.013340694
-0.33102933
-0.230277
-0.17633766
-0.30426258
-0.09570155
-0.023647115
-0.1119004
-0.04981548
-0.07322871
0.0873815
-0.3838234
-0.11818589
-0.050585013
0.22686966
-0.022334844
-0.08275476
-0.18417981
-0.14883776
0.06651925
-0.08044329
-0.012754782
0.055339318
-0.04164709
-0.038276155
-0.66249806
0.0041378234
0.18225287
-0.07410987
-0.26100013
0.089547336
-0.0022248023
-0.0826588
-0.18794695
-0.44262323
-0.07289837
0.0028100268
0.058808308
-0.3263226
-0.20094866
-0.0705307
-0.024248997
-0.0035842315
-0.5563016
-0.1661588
0.22116636
-0.044298634
0.114907525
-0.13096638
-0.023677476
0.0193436
0.041075405
-0.15513292
0.090368904
-0.055449676
0.104512565
-0.08898525
0.14710069
0.16919371
-0.03886259
0.039421216
-1.5318414
-0.02813609
0.094991
-1.9559933
-0.13851847
-0.21837185
-0.03917003
-0.018569091
-0.2876796
0.0697483
0.023065094
-0.0035610364
0.15214044
-0.14994326
-0.056425747
-0.11675325
0.015529316
0.036246166
-0.17210285
0.022021081
-0.009252885
-0.07180149
-0.00093573716
-0.30172303
0.0061581777
-0.21097708
0.08754861
0.00675433
0.08534859
-0.17777312
0.1275817
-0.21565756
0.037175555
-0.08693524
0.14855793
-0.36157182
-0.0014215693
-0.27838868
-0.36810973
-0.07920563
-0.19621977
-0.18798059
0.0074783233
-0.053647608
-0.21706796
-0.66084796
-0.009348555
0.046564437
-0.03021489
-0.0021715204
-0.010132379
-0.0538911
-0.027180042
0.07768446
-0.043524396
-0.021732684
-0.070459545
-0.06369682
0.018752227
-0.1586606
-0.033448175
-0.053163506
-0.010427049
-0.07743425
-0.043913234
0.0657269
0.0066303206
-0.033897985
0.01915484
0.04987795
-0.06737198
-0.006279912
-0.092227235
0.05270562
-0.09997318
-0.045008335
-0.0411594
-0.103411734
-0.023198105
0.05906878
0.01310374
-0.2075414
-0.052726958
0.013144303
-0.05806697
-0.06474735
-0.037428014
0.030177006
-0.03859637
-0.038367357
-0.03333938
-0.0014316685
-0.08892274
-0.026566934
-0.06411904
-0.08973209
-0.034716282
-0.018534737
-0.029931674
-0.044466447
0.057559043
-0.11749615
-0.062051658
0.0356593
-0.116288655
0.07452911
-0.050337087
-0.11060395
-0.09537772
-0.033121713
-0.038653154
-0.031443637
0.067994356
-0.028436081
0.08532659
0.035010796
0.009838508
-0.06881881
-0.01364938
0.0039735846
-0.070529506
-0.03748932
-0.0037714737
-0.12800023
-0.04552465
0.051101822
-0.12576179
0.008644089
0.04005475
0.048693612
0.03737938
-0.009513403
-0.08274425
0.02240874
0.042741824
-0.021801833
0.031658243
-0.020814044
-0.015615829
-0.0001748952
0.00970014
-0.07909072
0.026393289
-0.008180834
-0.006257278
-0.050134137
0.018351091
-0.0014667222
-0.13020925
-0.015733799
-0.06811835
0.03604268
0.05285921
-0.099565014
-0.13554315
0.0037422779
-0.048846688
0.035964746
-0.0015496822
-0.12435776
-0.09739538
-0.13064925
-0.03274568
-0.0016600165
-0.064620964
-0.007416627
0.0037310412
0.030702462
-0.07162817
-0.11794223
-0.047667377
-0.07974531
-0.080080144
0.008192106
-0.10042524
0.0034151378
-0.040805995
0.05363038
-0.04326034
-0.06482061
-0.04625595
0.030468397
-0.09107689
-0.07958173
-0.024862409
0.0051329425
-0.099782236
-0.012097482
0.052760642
-0.094600834
-0.01063058
-0.055030737
-0.03595171
0.0421542
-0.023678154
0.013742635
-0.118942104
-0.117454804
-0.02759695
-0.037712436
0.033850256
0.02857836
-0.13878693
-0.074266404
-0.1076834
0.023783676
-0.024156868
0.028020333
-0.07938333
0.028179502
0.020541301
-0.06838268
-0.007567946
-0.056645602
-0.053265475
0.048167877
-0.03241338
0.058112867
0.023185678
-0.07259819
-0.1354176
-0.0577112
0.05973661
-0.012865026
-0.0010726991
-0.073554814
-0.0017148078
0.000350456
-0.00024508574
-0.047783896
-0.07605991
-0.101764075
-0.043599468
0.047515377
0.069935836
-0.00025898655
0.029944291
-0.04845158
-0.111452326
0.01098935
-0.049373653
-0.062288705
-0.012251018
0.027678382
0.01869184
-0.07011557
-0.060214855
-0.0033292873
-0.018385394
0.061073657
0.027136875
-0.021188928
0.012508697
-0.02958577
-0.033713035
0.0676115
-0.05588905
0.05498309
-0.042509746
0.0151801715
-0.012139533
-0.026687656
-0.049843337
-0.14605229
-0.0026944207
-0.026593577
-0.017040158
0.06665386
0.0354242
-0.08794196
0.007622575
0.012546495
0.03754034
-0.020692183
-0.08505725
-0.007860608
-0.036423616
-0.07305631
0.010212344
0.015356213
-0.010360482
-0.06427377
0.0062963003
-0.048588373
-0.05574177
-0.033833764
-0.10933825
-0.0034733687
-0.018424748
0.0002607229
-0.043685835
-0.040386263
-0.017095026
0.058055174
-0.042063486
-0.0053003626
0.03324206
-0.04320054
0.02871469
-0.052371204
-0.018395182
-0.056781214
-0.0017340241
-0.058437996
-0.048229538
-0.07929871
0.02088146
-0.033421863
-0.015898619
0.10263484
-0.0030817394
0.07542534
0.0025210339
0.044993836
-0.06901756
0.04791507
-0.025940988
0.021348014
-0.049580537
0.04178673
-0.042032003
-0.01548421
-0.06909546
-0.08809968
-0.033049326
-0.0019061691
-0.0155641185
-0.086490095
-0.039856415
-0.048844673
-0.11786428
-0.0936715
-0.09271608
-0.011959629
0.055915084
-0.021560375
-0.08213528
0.000642884
-0.08443131
0.05898207
-0.09872021
-0.006731781
-0.054048464
0.018181453
0.054678388
0.05610199
-0.019095846
-0.083787896
0.033908784
-0.106439486
0.024192704
-0.03663584
0.03913214
-0.075711586
-0.0016560652
-0.00809581
0.012170205
-0.033228986
-0.029723614
-0.09659854
-0.04658363
-0.05362405
0.018538484
-0.062053397
-0.13668998
-0.12252196
0.056836065
-0.062225863
0.011026203
-0.07293863
0.06363797
-0.00798209
-0.038517922
-0.011316506
0.021375794
0.03288848
-0.068764806
0.012231396
-0.015595028
-0.06185724
-0.08719085
-0.010872118
-0.098801725
0.009403388
-0.012424881
0.0486291
-0.13198468
-0.024390126
0.07581741
-0.0060400236
-0.020057164
-0.018995734
0.066357635
-0.08256348
-0.045753017
0.013361428
-0.018051734
-0.10337192
0.039590694
-0.039039597
0.0321839
-0.041584004
-0.01825983
-0.049677953
0.0093832165
-0.1354317
-0.082629584
0.06859847
-0.018647112
0.0033547874
-0.02550114
0.008830518
-0.044380095
-0.07548667
0.03707498
-0.08157315
-0.0121630225
-0.059087057
-0.061335184
-0.016584849
-0.096393086
-0.08438346
0.027076056
-0.011913187
0.017149687
-0.025325224
-0.10291309
-0.030835418
0.070491254
0.069789976
0.016038755
-0.03987634
0.061083768
-0.07205191
-0.0503949
0.024089912
0.06412677
0.023857715
-0.09961995
-0.020412968
-0.07226251
-0.067363955
-0.016342618
-0.051485803
-0.08164716
-0.07130898
-0.034759216
-0.068617254
-0.013481735
-0.030809542
0.042858794
-0.060304906
-0.08123015
-0.010534616
-0.0693055
0.01820596
-0.040539082
-0.016840309
-0.010066621
0.039156042
-0.054604974
0.04630761
0.021306643
-0.12472782
-0.10355434
-0.061897602
0.042073645
-0.015029475
-0.04021174
-0.03378483
-0.018838052
0.04269556
-0.06452679
-0.094921656
0.030888582
-0.045247428
0.0601494
-0.014441199
-0.07610569
0.033378113
-0.00928213
-0.019758454
-0.02672974
-0.046842627
-0.0036873904
0.0015714228
0.044232704
-0.004429873
-0.020018611
-0.055423234
0.01079136
0.05343129
-0.038806334
-0.04261556
-0.027319014
0.022094648
-0.07238353
0.0027848666
-0.02497679
0.056021515
0.0644399
-0.029923888
0.024390003
0.011475173
0.010785203
-0.0017741455
0.016079763
-0.046646994
-0.022484776
0.026811566
-0.004739147
0.024143418
0.0062771076
-0.06373035
-0.00947166
0.041712504
-0.0509845
-0.023819424
-0.06361191
0.03064684
0.04355365
0.037797876
-0.07637898
-0.017203845
0.00573659
-0.017676394
-0.10917258
0.044759072
-0.031868752
0.0013014671
-0.0394
-0.018929517
-0.032180373
0.029753152
0.03203454
0.0240233
-0.0060127187
-0.068211995
-0.00931613
0.033985328
0.020360366
0.03187622
0.0633356
-0.0027588059
0.021951348
-0.034371886
-0.056065444
-0.0040014237
-0.06688994
-0.011160965
0.0054943
-0.026396487
-0.05489419
0.0020765604
-0.11946287
-0.019346477
-0.05774391
-0.06210736
0.027866831
-0.0848886
-0.055702783
-0.10628857
0.0010084128
-0.08314024
7.9292935e-05
-0.09887597
-0.052399196
0.03568058
-0.087037385
-0.035622273
-0.08394641
-0.06427189
-0.010571094
-0.016086183
-0.017861582
-0.014177281
0.012503414
-0.008106637
0.018683583
0.0629675
0.017767947
-0.0044107023
-0.028136523
-0.025708297
0.021554219
-0.0076891435
-0.0010277467
0.02114241
0.021009874
0.04518263
0.023186991
-0.010293744
-0.045612153
-0.051085383
-0.01208806
0.042002514
-0.03159038
-0.08859639
-0.058668748
-0.0130018545
-0.013144183
-0.09084892
-0.00039932292
-0.045306418
-0.04566874
0.026901627
-0.0422768
0.059845105
-0.054539066
-0.040273562
0.016169876
0.051602397
-0.0073395744
-0.002787947
-0.024720306
0.023746014
-0.10678106
-0.03329559
0.03936746
0.0011987439
-0.030119592
-0.05292509
-0.09725319
-0.02091644
0.07111087
-0.05935256
-0.04078589
-0.08888108
0.015061105
0.058689043
0.030075446
-0.03524687
0.017098418
0.06304449
-0.014631448
-0.07920811
-0.042670913
0.007356481
-0.07400997
0.016058074
-0.029098812
-0.078194365
-0.12796721
0.017352391
-0.020338435
-0.06967707
-0.058969613
0.011168127
0.063252814
-0.047987744
-0.04862699
-0.19180703
0.07647555
0.0023816964
-0.02915215
-0.0034692402
0.08639413
-0.034639806
0.072511315
-0.26523957
-0.069938734
0.093559094
0.053164512
0.12165622
0.04265498
-0.0443242
0.096086115
0.09485808
0.016760219
-0.091664575
-0.024778368
-0.020922245
-0.009518882
0.14935999
-0.09608977
-0.025902309
-0.30053538
0.054425787
0.03397035
0.016182303
-0.054899417
0.2037715
0.015492829
-0.12655617
-0.9638882
0.07227208
-0.10802575
0.015076309
0.121052675
0.00063014874
0.010832314
0.09045419
0.0014503052
-0.39369473
0.002608136
0.11703982
0.0004302067
-1.6463696
0.028031753
0.028042382
-0.040205896
0.061135966
-0.024655059
0.0987922
0.074072346
0.08719234
-0.046849582
-0.08206596
0.0021320519
-0.2570961
-0.090095006
-0.1171448
-0.07770373
-0.23835444
-0.052273244
-0.1251208
0.04343831
-0.41289848
-0.045342676
-0.023339882
0.04518653
-0.009512739
0.13701218
0.022186635
0.14183056
-0.04632787
-0.012340403
0.041504744
-0.079430446
0.12477898
-0.0020535665
0.08150608
0.020171432
0.022975203
-0.28065366
0.009277089
-0.21526459
-0.0565039
-0.0060832473
0.013364991
-0.00402189
-0.07512869
0.0680783
-0.041363653
0.034273684
0.037747983
0.03698526
-0.040892534
-0.12803358
0.10430864
0.12388009
-0.31739753
0.0373981
-0.9348046
0.08490173
0.03962015
0.07360971
-0.089480184
0.032999218
-0.007043848
0.07431148
-0.14391121
-0.014412461
0.045490053
0.039410304
0.023164533
-1.0850837
0.13334882
-0.03213231
0.19246495
-0.08722992
-0.27242282
0.016141754
-0.012831778
-0.0946375
-0.39454097
0.042848155
0.034476407
0.103854254
-0.120979875
-0.878593
-0.069344155
-0.037329104
0.03545974
-0.010697878
0.21702608
-0.30480677
0.016265327
-0.58640075
-0.056862548
-1.4527729
-0.0077377264
0.052204344
-0.058728077
-0.029590577
0.0029662694
-0.04480303
0.02834589
-0.018048372
-0.13210374
0.016232036
0.044507463
-0.026477134
0.01842283
0.09522197
0.06221735
0.056778688
0.014365375
-0.027563881
-0.0031941244
0.0013348492
0.22592875
-0.003281846
-0.1590114
0.010378147
-0.054739486
0.006039575
0.043604366
-0.11088775
0.051474646
0.17657383
0.118481494
0.18264243
0.0840313
0.12843394
-0.18542153
-0.01805411
0.09239597
-0.09771914
0.0101415645
-0.06513415
-0.063871406
-0.10754659
0.08135191
0.11216849
0.043928437
0.045083594
-0.23181158
-0.110119626
-0.14707045
-0.019833082
0.05966093
0.07211337
-0.10644841
-0.13094358
-0.023620082
0.14417619
0.056432754
0.033163987
-0.07576799
-0.3523138
0.09465507
0.1657769
-0.07990757
0.17340346
0.25574684
-0.35832486
-0.040193465
0.086502716
-0.0113016
0.05137505
0.32046026
-0.07387568
0.2151479
-0.011309243
-0.05606672
0.05776112
-0.0013867081
-0.22964706
-0.11995337
-0.107991815
0.11637862
-0.14102075
0.16653897
-0.20265698
-0.06643184
0.10961365
0.0075908075
0.028922176
0.37984827
0.005781332
-0.19298126
-0.03659071
-0.4573669
-0.15336365
-0.011453313
0.17474729
0.029225212
-0.10616055
-0.008704383
0.047009286
0.0067460216
-0.15279117
0.100662485
0.035765167
0.019163111
-0.17104672
0.00045232347
0.06585894
0.048138455
-0.010196081
0.14810605
0.0011302083
0.31700593
-0.26075977
-0.062244445
0.009884253
-0.035170097
0.09372154
-0.19967948
0.15699326
-0.46564373
0.1252377
-0.068735376
0.13398148
0.103473455
0.1057354
0.00476554
0.05860928
0.026052644
-0.059873104
-0.06987795
-0.040802184
-0.21481632
-0.03457002
0.02497619
-0.26272112
0.1550609
-0.016676843
0.070150815
-0.23121458
0.089827076
-0.45186543
0.06904231
0.0053310785
0.056506842
-0.098219745
-0.20354933
-0.05415
-0.13747004
-0.111825936
-0.09837451
0.09197624
-0.06566018
0.20684995
0.059166707
-0.016802447
0.0125086475
-0.061582364
0.038202193
0.08972436
-0.33103606
-0.114098445
-0.15895517
-0.19022799
-0.03855853
-0.41225004
0.1230695
-0.02517501
0.021172637
-0.010579918
-0.023995606
-0.04647357
0.0017071717
0.03594237
-0.072640136
-0.17007324
-0.083280295
-0.3807135
0.13997069
0.18283102
-0.11822859
-0.21888806
-0.20155197
-0.1453495
0.15032762
-0.04344833
-0.14747466
-0.2267861
-0.11476645
0.020467138
-0.0475579
-0.0010165755
-0.12121139
0.2279516
0.100165494
-0.3586957
0.10155031
0.031246925
0.040602475
-0.15658683
0.010178207
-0.04952116
0.026959514
-0.17301702
-0.014160006
0.06144989
0.05944827
0.016790789
0.017060105
0.0048750346
-0.09277923
-0.09719668
-0.01996837
-0.08021369
-0.0012727148
0.032893594
-0.00917345
0.022238353
0.05800877
0.010474041
0.02901817
0.112932086
-0.08521398
-0.25112283
-0.027331874
0.04287663
0.0055012587
-0.85032827
-0.027949119
0.012418016
-0.0043270607
-0.01351531
0.040915344
-0.024384292
0.053221405
0.021642648
0.14150995
-0.030565046
-0.10130123
-0.121542595
-0.06814457
-0.035313826
-0.13560952
0.024061525
0.17328091
0.02712193
-0.19745903
-0.23452182
-0.2909203
-0.28844452
0.024875626
-0.018404976
-0.022973843
-0.12071467
-0.06922779
0.03034853
0.042845406
-0.076954775
-0.082445234
-0.1657333
-0.37615165
-0.17179264
-0.4074118
0.11435626
-0.13520975
-0.2126254
-0.06310898
0.040700626
-0.029810669
0.031854484
0.020781644
0.02514421
0.08215663
0.01750423
-0.06581453
-0.29983598
-0.013601151
-0.02507808
-0.0419178
-0.12875716
-0.10124331
-0.21208018
-0.027457412
-0.10718188
0.05951807
-0.34544563
-0.040080898
0.08622857
0.061271362
0.04940392
-0.25654078
0.007960637
-0.15269552
0.0038743396
0.05276977
0.013693448
0.04284576
-0.1328574
-0.012697379
0.108816855
0.092868686
-0.058080595
0.031494346
-0.5337383
-0.048318185
0.23665681
0.08850315
-0.01878206
-0.014954406
0.043738533
0.022322351
-0.12268633
-0.22477598
-0.27843946
-0.060395226
0.07718575
-0.16113141
0.0002486091
0.07414877
-0.5375458
-0.03751564
-0.4615696
-0.123503946
-0.1078949
-0.19334982
-0.35950908
-0.20987439
0.191924
0.0045959805
0.033086613
-0.06752909
-0.104066074
-0.18799506
0.019505858
-0.028316554
-0.034517765
0.13552256
-0.053438734
0.037128672
-0.19711944
0.03816166
0.00057417795
-0.14504823
-0.022982506
-0.27163252
-0.079622224
0.06471594
-0.0044763624
-0.28443226
-0.28225833
-0.13443902
-0.13886334
-1.3403978
-0.038948033
0.0026458176
0.03731398
-0.091458574
-0.12193486
-0.08288029
-0.06757751
0.32586053
-0.05870396
0.053853594
-0.19360352
-0.00097032153
-0.04106966
0.08847843
-0.024951655
-0.11169498
0.0061137737
-0.00024278084
0.07419642
-0.14686424
0.010881989
-0.021837428
0.03325529
-0.06222565
-0.109352484
0.03166505
-0.2619784
-0.04335853
0.0070998543
-0.01948584
-0.016911002
0.41171396
0.0010396161
0.020237882
-0.12937269
-0.073095284
-0.31850243
0.016812243
-0.21795788
0.017509775
0.13783522
0.10756646
0.09261256
-0.15068148
-0.11051479
0.03256605
0.05158384
0.13442376
-0.19538076
-0.014482895
-0.069131374
0.058385182
-0.007534377
-0.009737552
-0.11473316
-0.3339731
-0.57966244
-0.11001418
0.17227617
-0.00893924
0.050852492
-0.018433644
0.022546161
0.0011942459
-0.28250068
-0.011962039
0.054621063
-0.28244567
0.108650945
-0.051965185
-0.0088266
-0.1581443
-0.06353707
-0.06586768
-0.20548813
-0.04382315
-0.052051816
0.04449031
-0.09326541
0.1178069
0.050798446
-0.22077347
-0.009360222
0.0009494422
0.08042111
-0.15623583
-0.19462982
-0.06709186
0.08884407
-0.08654705
0.054166757
-0.21179567
-0.017243017
-0.077221274
0.012233792
0.0076761823
-0.27597734
-0.0020119578
0.0052236514
-0.050609954
-0.07608482
-0.22053488
-0.013051978
0.13725674
0.18546025
-0.021999048
-0.015916564
-0.10706052
0.040984306
0.101116225
0.06982485
0.018207897
-0.09748409
-0.057028662
0.024386715
-0.026646767
0.0026479207
0.23882034
0.06748733
0.120251246
-0.043826684
0.070221126
0.16405988
-0.02617585
0.003578709
-0.08850483
-0.044400368
0.09112486
-0.026059829
0.074161164
0.09160033
0.0401909
-0.20238832
0.059450135
0.037473295
-0.090822086
0.052698277
0.1440599
-0.040908385
-0.023484966
-0.069541045
-0.0104335435
0.0043451283
0.026319038
0.00035482636
0.04819057
0.121075734
-0.028922437
0.07408718
-0.028345516
-0.031053439
0.110506035
-0.06959836
-0.09655381
-0.04477516
0.06398987
-0.024134634
-0.093052134
0.042779855
0.16066815
-0.0662223
0.11792736
-0.06422744
-0.06244305
0.051666763
-0.08969118
0.02334679
-0.035911985
0.035621457
0.027203152
0.018969914
0.094051436
0.10302896
-0.07247177
0.00867769
0.054470524
0.021970423
0.10650857
-0.11101779
-0.046591476
0.010553461
-0.031187415
0.0077050766
-0.044042125
0.028624069
0.044626284
0.041041687
0.05635355
0.03719661
0.08232515
0.05646833
-0.038213566
0.03641254
0.002732649
-0.0771456
-0.058161497
-0.08448632
0.060687713
-0.08155483
-0.07931337
0.06401043
0.005064405
-0.05224656
-0.04076644
0.08866539
-0.14803857
0.22037248
0.054956995
-0.08898148
-0.07863535
-0.0058106394
-0.030516317
-0.106655344
-0.004711515
-0.0023745077
0.21450067
0.051196508
0.013764218
0.035987254
-0.067557335
0.059971392
0.033009488
0.01982702
-0.066483565
0.1484113
-0.054743096
-0.011777952
0.08632625
0.0322946
0.09464342
-0.06891161
0.15715882
-0.053894807
0.107208
-0.028576639
0.081903696
-0.021576714
-0.05961111
0.00963027
-0.015859447
-0.10360657
-0.0947365
-0.026484169
0.048599273
0.0002007038
0.2353223
0.055308558
-0.02758115
-0.076313846
-0.11831639
-0.042002626
0.0696604
-0.031707767
-0.10992992
-0.033387084
0.18590061
-0.032813642
-0.11859498
0.057936575
0.037492286
-0.047454823
0.017155048
0.100776784
0.010245841
0.010679924
0.07602641
0.011713759
-0.04042613
-0.068020776
-0.12970693
0.032840837
0.080409706
0.025591424
-0.07160109
0.095696315
-0.04288883
0.09122222
-0.019321373
0.078671165
-0.065584674
-0.017304907
0.0067068445
-0.047810763
0.0065408144
-0.005375811
-0.008387019
0.12018572
0.04680344
0.034170415
-0.23598024
0.1333982
0.05282883
0.0292375
0.0021995995
0.009126711
0.003614526
-0.17974767
-0.078010015
0.0012559531
0.016954372
0.06579788
0.056090243
0.053466056
-0.05626044
-0.0106719155
0.018560817
-0.07931699
0.016783852
0.034235667
0.029469855
0.020521782
0.04038083
0.043095637
-0.026689103
-0.023530465
-0.05678138
-0.028307434
-0.019921973
0.0026622298
-0.09310811
-0.075556055
-0.0029833396
-0.05605731
-0.027766723
-0.04370904
-0.044256415
-0.07645132
0.009417104
-0.017662328
-0.03407551
0.032825995
0.050932266
0.024854863
-0.035494834
-0.08814884
0.051009953
0.007854379
-0.07396415
-0.0015954935
0.00010895371
-0.056489285
0.045036767
-0.00096342806
-0.0220088
-0.015937978
-0.11399493
0.009256769
-0.067870826
-0.018179655
0.050503198
-0.019574212
0.01005949
-0.020900434
-0.055019822
-0.0145116765
0.01849837
0.01606399
0.017411854
0.045836017
-0.060507834
-0.04784456
-0.043797877
-0.053068914
-0.028875915
-0.05322279
0.031898104
0.020002618
-0.0068717967
-0.0074906964
0.039091103
-0.04049245
0.01226068
-0.055337127
-0.06691727
-0.078237124
0.050166205
-0.050274335
-0.07983223
-0.016545419
-0.046170067
0.021428967
0.010422234
-0.07573915
-0.09793814
0.0354803
-0.005992713
0.00074039376
-0.05622622
-0.020827338
0.026374787
0.052391853
0.03240991
0.017516475
-0.020312833
0.052931555
-0.053873543
0.0153187355
0.042175833
0.003032905
-0.07555797
-0.083244875
-0.008783551
0.012929709
-0.06169638
0.005747271
-0.014240035
-0.038827132
-0.02519035
-0.05309015
-0.10509614
-0.01976003
0.04683856
-0.09219271
0.018686667
0.018734323
0.0032012835
-0.016399298
-0.05967878
0.03939363
-0.043810233
-0.06269054
-0.050607685
-0.031283725
-0.10355444
-0.049950175
-0.00042731487
-0.01771804
-0.002914007
-0.06539816
-0.005981297
-0.08383915
-0.055087138
0.03946348
-0.03425984
-0.07580654
-0.07884687
0.022768779
0.013786126
0.025413992
-0.043029204
-0.07306351
0.025794338
-0.047654305
-0.079067044
0.05772332
-0.07396134
-0.045109816
-0.079720974
0.03011357
-0.018359018
-0.035523392
-0.09633719
-0.073527604
-0.060479127
-0.08542022
-0.09712342
-0.029328512
0.028753594
0.025101783
-0.1147712
0.045801517
-0.058562603
0.047562838
-0.044846464
-0.0002877134
-0.037023928
0.03167215
-0.0008607041
-0.019256722
-0.018216316
-0.07265111
0.054679405
-0.08225927
-0.029501406
0.002967636
0.05526869
0.014142056
-0.08322154
-0.0040631113
-0.060428087
0.01821512
-0.02850227
0.0016294619
0.026201835
-0.012894434
0.021751955
-0.013280653
-0.07524183
-0.04820853
0.05457236
-0.0039245966
-0.027643597
0.00646198
-0.052103493
0.025212543
0.0458051
0.055211812
-0.025788328
-0.092080764
0.05669718
0.04295375
0.028438624
-0.035699107
-0.070926905
0.062319256
0.00072483905
-0.012713094
-0.62522626
-0.001256293
0.035815123
-0.2416602
-0.080370545
0.0859914
0.044391703
0.16098726
-0.027782137
-0.013488235
0.1538075
0.10011857
0.11919769
-0.64522
-0.04423027
0.0548552
0.2982465
-0.02137069
0.07620211
-0.06371683
0.24520819
-0.15525958
0.10650719
-0.13717128
0.02691677
-0.43218645
-0.019284569
-0.0114690475
0.016911145
-0.027394429
-0.019202493
0.056696214
-0.3311062
-0.36962953
0.0072466973
-0.29798943
0.061985902
-0.1031418
-0.060575526
-0.075020164
-0.032342203
-0.0019303636
-0.015323193
-0.031913728
0.285616
-0.008586498
-0.15666367
-0.035654645
0.048828572
0.0042519523
0.144881
0.019507766
0.25310898
-0.10605116
0.0421313
-0.0058109104
-0.2686131
-0.035239607
-0.50723475
-0.21067938
-0.02262931
-0.2667357
-0.2090261
0.0019334203
0.04503536
0.04492088
-0.25800982
-0.054855533
0.09310165
0.48974395
-0.24680148
-0.2673972
-0.4078926
0.36017776
-0.026229177
0.07651285
0.07566656
0.057270795
0.18216255
-0.0876564
-0.051398464
0.14592846
-0.05753496
0.13820198
0.17849286
-0.046638455
0.07841736
-0.18218988
-0.28320244
0.0025118233
0.013487315
0.3695366
-0.5927172
-0.14549081
-0.04202593
0.33816114
0.08838759
0.049592067
-0.02991901
0.04045625
-0.16878797
-0.12262052
-0.46112287
0.017759124
0.17868833
0.0759563
-0.06426943
-0.029236933
0.0106767295
0.083912805
-0.15476923
-0.0064631193
-0.0516989
-0.030498961
0.26923576
-0.028036369
0.26195833
-0.12117483
0.085314564
-0.23581903
-0.29846537
0.20414181
-0.05288485
-0.24224147
-0.051743086
0.031706
0.0077612917
-0.06813323
-0.039913688
-0.874113
0.028071478
-0.11763003
0.22924066
0.08533564
0.11158327
-0.30023137
-0.076910466
-0.07701198
0.061661407
0.16474786
0.053358603
0.099531926
0.08520436
-0.124906436
0.055827364
-0.12871176
-0.08012927
-0.19700894
-0.04390582
0.0029286444
-0.09086983
-0.52758425
-0.017718814
0.42386413
0.28136158
0.2637209
-0.00021868972
-0.53918123
-0.033011194
-0.06602192
0.15396917
-0.044328902
-0.016270239
-0.07003887
-0.2081219
-0.038710512
0.14994414
0.022045255
-0.0016244982
-0.10931209
0.40317082
0.011599901
-0.119624265
-0.027460918
-0.16616331
-0.022095231
0.22975808
-0.17274027
-0.031453826
-0.08305807
-0.22777782
-0.0352322
-0.14772715
0.061311286
0.06504803
0.04757762
-0.09121158
-0.17785713
-0.06566188
-0.13815552
0.37081048
0.24023943
-0.00031942053
-0.4527011
-0.0130968755
0.03382719
0.23470065
0.24540217
-0.033445366
-0.002613103
0.1510603
0.098082006
-0.0047295676
0.20160787
0.040609844
-0.030542156
0.011371547
0.0027807788
0.048230927
0.00864792
0.0045817685
-0.048509076
0.11312745
-0.08107926
-0.43714032
0.041308243
0.12084709
-0.0134467725
-0.035776004
-0.14930762
0.1531608
-0.5729937
0.15719245
-0.28453192
-0.05587059
-0.23900086
-0.0020520766
0.009572026
0.17373839
-0.03318029
0.19817702
-0.005208124
0.19299081
-0.111541696
0.090995975
-0.09180428
0.0053842245
0.07112468
-0.13713418
-0.019003427
0.031736672
0.11392341
-0.20470053
-0.7642086
0.05514773
0.015861372
-0.34533727
0.024473032
-0.002616311
0.06432549
-0.13404076
-0.18811293
-0.007084614
0.056745563
0.020546785
0.04728926
-1.0588733
0.117945395
-0.21270585
-0.09607239
-0.21813822
-0.1068543
-0.11442077
0.17867531
-0.13074355
0.046093825
-0.26345408
-0.06395074
0.04457085
0.084043615
0.10112928
-0.1331123
-1.1062354
-0.08604715
0.061664764
-0.08757576
0.10903085
0.014310142
0.06631812
-0.7796796
0.00024853533
0.011726538
-0.111444496
-0.041789223
-0.16208181
-0.07274474
0.11481687
0.14441024
0.15373008
-0.027577644
0.06562623
0.083435036
0.005678184
-0.1812035
-0.022427708
-0.004199917
-0.10888635
0.07538055
-0.10219725
0.15199684
-0.13662632
0.10147978
-0.11324044
-0.09675872
-0.107800394
-0.31336722
-0.25908172
-0.007669941
-0.030275678
-0.0010060208
0.019847907
0.003196907
-0.12488169
0.0070957695
0.024392541
-0.3758957
-0.13602099
-0.37371597
0.05825685
-0.18840893
-0.07312177
-0.21227422
-0.48906156
-0.1885906
-0.021046156
-0.037422948
-0.55938923
-0.16055861
0.38388693
-0.25967535
-0.023964541
-0.8178165
0.015166528
-0.06533852
0.27385604
-0.2797885
-0.3110359
-0.26830006
0.0650647
-0.4426608
-0.11358674
-0.044995375
-0.21738796
0.11873112
0.024272062
-0.21862997
0.09960048
0.10062888
0.15851624
0.15687141
-0.0005433944
0.0066500036
0.03527616
0.02328542
0.047687985
0.025277052
-0.011756379
-0.7607962
0.022261953
-0.05316192
0.14547068
-0.10649741
0.10155092
-0.08506853
-0.14756982
0.059972253
-0.061789483
0.39613193
-0.013152947
0.14570244
0.022768117
0.11129916
0.067878306
0.060323145
0.032097425
0.02058749
-0.12651551
0.09454229
-0.07690946
0.038379915
-0.10370261
0.0108405035
0.14827657
0.09673316
0.24110246
-0.052305084
-0.29534918
0.06786824
-0.12774701
-0.45472196
-0.0674736
0.06930874
-0.026720854
-0.23046806
0.18157738
-0.05262899
0.12844475
-0.05192937
-0.9326046
-0.059234153
0.04267966
0.11594159
-0.105332375
0.05058817
0.20027491
-0.02230757
-0.058871858
-0.01347147
-0.14748602
-0.2493518
-0.016217452
0.028225513
0.013996334
-0.009057
-0.13661335
0.022662517
0.0895142
0.048276532
-0.18024708
-0.08315536
-0.39646488
-0.2590843
-0.0380733
-0.18712114
0.053465907
-0.091476105
-0.07141447
0.061077468
0.054295853
0.0036639955
0.0414322
0.0626114
0.25685734
-0.73596835
0.03447125
0.12484194
-0.02491522
-0.086830065
-0.03848305
0.16523145
-0.26105323
-0.05164359
-0.08834377
-0.80883366
0.039523847
0.2840445
-0.14884399
0.062205944
-0.016240181
0.06191389
-0.17869961
0.172894
-0.042426687
0.103728585
0.21217045
0.0112609435
-1.5411423
-0.043053787
-0.17420481
-0.17641996
-0.18646903
-0.017347934
-0.06216056
0.019225819
-0.12769863
0.029372698
-0.10541892
0.080417015
0.030633284
-0.3562439
-0.05561631
-0.027495813
-0.93537664
-2.2794595
-0.07823425
-0.08985066
0.08031733
0.017203363
-0.08036463
-0.65721303
0.023986
-0.8424817
-0.120010085
0.08860041
-0.012747306
-0.09466109
0.13649811
-0.012973871
0.11226466
-0.32903013
0.13491616
0.03898514
-0.025102777
-0.12849876
0.2818846
0.008543674
-0.041182928
-0.03164035
0.06818494
-0.03558594
0.072268456
0.053123668
-0.26204228
-0.074528
-0.0438776
-0.00989718
0.18671924
0.0032844052
-0.062464193
-0.103989676
0.070156455
-0.00056162936
-0.04622198
-0.005944123
0.010109211
-0.2618632
-0.09036831
-0.32985848
0.030205378
-0.33060062
-0.13208278
-0.0011464488
-0.472594
-0.14512557
-0.17452201
0.017697487
-0.44621962
-0.17772046
0.16470164
-0.019978916
-0.0025293147
-0.64024836
0.041795824
0.037276972
0.33145088
0.03643475
-0.11217573
-0.14933898
0.034669474
-0.35660997
0.04845246
0.20269395
-0.073431656
0.12124109
0.06306999
-0.14471759
0.21988434
0.027572386
0.063365355
0.15836842
0.051511742
0.01204573
-0.04036799
0.033437278
-2.0705934
-0.25171223
0.021288164
-0.49213654
0.08517081
0.00012979368
-0.037378423
0.027735675
0.33183923
-0.6596856
-0.27076843
-0.04976035
0.08371446
-0.0996315
-0.017091544
0.011714996
-0.16128226
0.010745227
0.069008015
-0.02108265
0.07117841
-0.119129404
0.057034906
0.016781509
0.108443476
0.13407098
-0.053233128
-0.01345566
-0.27959132
0.03940183
0.13367115
-0.02922247
-0.05234005
-0.41763678
0.064908475
-0.28330356
-1.6427445
0.07796531
-0.024488218
-0.15588203
-0.015317564
-0.032409593
0.12222957
0.25232244
-0.04443931
-0.10314725
0.0028047964
0.08687076
0.1652645
0.17587025
-0.13115795
0.02842686
0.034932602
-0.056517426
0.027944306
0.044620004
0.1335772
-0.028644089
-0.08511501
-0.055824235
0.013069957
0.12933381
0.0635137
0.020542635
0.19287518
0.0035465583
-0.07108915
0.11291973
0.25126955
-0.17503308
-0.02451238
0.05416026
-0.014062903
-0.06488011
-0.19204633
0.06592071
0.08222989
-0.026197556
-0.34691316
-0.17724675
-0.0029181205
-0.12235095
-0.011122275
-0.32767153
0.090424344
-0.018331693
-0.10947052
-0.13028347
0.085452825
-0.07019733
0.034893833
-0.05651304
-0.09982736
-0.050524823
0.005755034
-0.018003246
-0.15344775
-0.026614036
0.19633484
-0.10479085
0.050065164
-0.030688554
-0.1184861
-0.02754703
-0.04253652
0.0059252437
-0.053679403
0.1546473
-0.062969275
0.06667374
-0.110790625
0.06756172
-0.08167377
0.21244521
0.0492077
0.008524449
-0.077843696
-0.1529249
-0.015673216
0.006232192
0.014878899
-0.16885397
-0.023879252
-0.042419706
0.016448248
0.04356663
-0.11870976
-0.089705646
0.25400242
0.087479
-0.12581916
0.02226816
0.106217094
-0.09416291
-0.1505422
-0.22292714
-0.33557084
0.0024285163
-0.18974212
0.06049923
-0.108963124
-0.013548161
-0.038378544
-0.28368092
-0.13377032
-0.24028333
0.04361407
-0.12690696
0.03180212
-0.2585467
-0.09474227
-0.09174356
-0.40401548
-0.00020523286
0.18088736
-0.009450859
-0.15125781
0.04748483
0.12477713
0.10817594
-0.02870137
-0.11246618
-0.047761012
0.038581353
-0.0064429836
-0.21078278
-0.053440053
-0.051755268
0.047687527
-0.12631644
0.11504016
-0.008951016
-0.08296795
-0.041030373
0.08705259
-0.051684376
-0.054798253
0.06799046
0.0809988
0.009153046
-0.08223151
-0.21575238
-0.0057393364
-0.10106501
0.1310195
0.007711603
-0.011925217
-0.042403627
0.031162858
-0.07467061
-0.07745189
-0.08995089
0.09822914
-0.012347211
0.11927896
0.094044074
-0.22753082
0.055608246
-0.100411974
-0.003777535
0.077077754
0.06851799
0.0031547868
-0.024801502
0.14888886
-0.027124956
-0.08891145
-0.30607322
-0.07841452
-0.17879601
-0.033108573
0.008252717
-0.026268251
-0.17221166
-0.01873292
0.009607402
-0.07947943
0.29547012
-0.11813456
-0.03508734
-0.082106195
0.046382986
-0.06636495
-0.10255529
0.028757537
-0.057694323
0.25284734
0.019610276
0.13178235
0.08927665
0.08618369
-0.0026925725
-0.16160803
-0.1643063
-0.35681784
0.015033512
0.040610712
0.09838287
-0.025317365
-0.1612472
-0.14675774
-0.045841746
-0.053287484
0.039477568
-0.045711964
-0.06450609
0.03359648
0.004638773
-0.03702693
-0.06404261
-0.05283131
-0.034538765
0.011567404
-0.030159714
-0.06816747
-0.0905226
-0.058706734
-0.037590466
-0.09663715
-0.002332026
-0.08339621
-0.048215076
0.013878018
0.011007567
-0.020488357
-0.07619752
-0.023544032
-0.039064806
0.055380434
0.004076395
0.050377533
-0.034666587
0.0046682935
-0.016305955
-0.04221413
0.0057469467
-0.12723933
-0.031503756
-0.025860596
-0.04007163
0.059009254
0.0016113644
0.030544389
-0.1578108
-0.13318363
-0.014371003
-0.040828
-0.06481135
-0.012474069
-0.10109952
0.016829642
0.050217796
0.034778126
-0.05223145
-0.10566773
-0.0023005651
-0.0029606794
0.045684006
0.018723002
-0.008552157
-0.053365503
0.017080836
0.005815256
-0.13140537
0.033526074
0.03197239
0.0074706194
-0.0787238
-0.044065997
-0.049415823
-0.04728283
-0.022722784
-0.019705527
0.064077035
-0.026380336
-0.046741463
0.017133445
-0.026269501
-0.060016554
0.024529519
-0.027417427
-0.0514988
0.041164715
-0.0361506
-0.04645951
-0.0038693408
0.029619906
-0.04100886
-0.014820075
0.031586915
-0.07633994
0.013524007
-0.08786998
-0.0689612
0.04439998
-0.11286137
-0.07816082
0.012800392
0.04603835
-0.044929486
-0.09921015
-0.067952774
-0.10373155
-0.03913405
0.004952494
0.0112476265
-0.013407349
-0.04019969
-0.013911254
-0.074743964
0.045141216
-0.0015220781
-0.046207152
0.05940465
-0.076632515
-0.012668295
0.008668143
0.0083934525
-0.010340922
-0.041945104
-0.08036471
-0.0051251105
-0.010276884
-0.06908113
0.01865691
-0.06719112
0.0063219033
-0.011916835
-0.054512907
0.008759897
-0.03941416
0.05212209
-0.017223552
-0.028388869
-0.046154723
0.00069788186
0.054872908
-0.009410975
-0.08359755
0.01711313
0.0031299763
-0.017704187
-0.096839786
0.011642938
-0.009395856
0.014368868
-0.03621082
0.0015002997
-0.0050163083
0.044516884
-0.019196725
-0.08174615
-0.024651712
-0.076780304
-0.07425823
0.008391984
-0.074980535
0.014000643
-0.10997434
-0.05291663
-0.03368662
0.024788085
-0.046558324
0.0027486081
0.005429999
-0.035807796
-0.03478078
0.06440373
-0.070948936
-0.06312407
-0.020641554
0.0018751607
-0.016290303
0.027596498
0.0026838512
0.0011517653
0.03187111
-0.059319906
0.0029009476
0.016805852
0.026821725
-0.057856806
-0.035089582
0.018503614
-0.024982557
-0.064599484
0.05567873
0.043034904
0.055145763
-0.032792844
-0.010791125
0.048055936
-0.035210133
-0.004676429
0.023913927
-0.03102239
0.022812352
-0.013660703
-0.018661665
-0.0046841456
-0.048064753
-0.082659155
-0.021239333
0.09654973
-0.10229793
-0.08581468
0.027755853
-0.04404686
-0.04213073
0.15100881
-0.15750429
0.26342368
0.07082915
-0.05015015
0.046274226
-0.019519078
0.13135017
0.02885711
0.025014374
-0.114371695
0.06963122
0.2368074
0.1852566
0.21736082
-0.12984294
-0.12334401
0.32425824
0.1520239
0.054681994
-0.16899526
-0.055732645
0.31890613
-0.016123181
-0.008405901
-0.053112153
0.02731393
-0.0324677
0.0120244175
0.036342297
-0.044862755
-0.048744492
-0.05272401
0.072148435
-0.33249947
0.08181577
0.04151147
0.21599427
-0.08571945
0.12069859
-0.044720303
0.0012396082
0.027740436
0.12839057
0.058589995
0.026220804
0.039620437
-0.048295215
0.2085376
0.12337712
-0.072690934
0.19619824
0.03327138
0.0036634458
0.0769103
0.08593164
0.06808038
0.21166278
0.06300662
0.032481477
0.1267806
-0.008874787
-0.02933393
0.0085913185
-0.016596884
0.034588672
-0.051859178
0.30946192
0.072085954
0.03421597
-0.0443051
-0.029831657
-0.092870496
-0.07142454
0.052241866
-0.076791875
0.0380182
-0.0044314875
0.044898856
0.22539696
0.16017081
-0.04268276
-0.13649362
0.07502276
-0.010255062
-0.01887085
0.16059162
-0.004781808
0.11632492
-0.0032397166
0.043801125
0.15659149
-0.006671578
-0.005432249
0.047325216
0.038924497
0.091948055
0.04774915
0.056621887
-0.02715004
-0.1422648
-0.24723595
0.026606794
0.1159584
-0.021550888
0.110574074
-0.07603465
-0.039799254
0.024582472
-0.020439569
0.07770045
0.14881097
0.030255267
-0.12578653
0.06176197
-0.10762799
0.037871365
0.16380157
-0.005409269
0.04749223
0.06671241
0.070987426
-0.042344388
0.049479205
0.021354992
-0.09625382
-0.034382507
0.058915466
-0.05940089
0.08163924
-0.0035115161
0.033349607
0.08646322
0.009603094
0.106816314
0.197551
0.15913774
0.0041711144
0.19388998
0.1599756
0.09606836
-0.07942688
0.00057361857
-0.033855375
0.061235663
0.111677535
-0.068026066
0.034226052
0.02442811
0.0059651937
-0.11415051
0.036729787
-0.035511628
-0.008690539
0.0912255
0.11992617
-0.051602025
-0.11446367
0.14607783
0.15618542
-0.13452704
-0.09186169
-0.005430871
-0.0084107295
-0.14051798
0.008585318
-0.21854785
-0.011434162
0.31145045
-0.101486966
0.045406938
-0.06641114
-0.04700771
-0.06540156
-0.11685906
0.014064986
0.04718243
0.09615061
0.038329978
0.39981714
0.08333748
0.16268009
-0.038996637
0.003056707
-0.0895868
0.116655506
0.01070194
0.025931856
0.06903705
-0.044618562
0.01427848
0.079256825
-0.11766905
0.0639081
-0.1110633
-0.064371705
-0.111303784
-0.43722898
-0.3182896
-0.93338954
0.3231952
-0.13664755
-0.13298292
0.030672275
-0.01773232
-0.084760465
0.0064375857
-0.03946177
-0.3231686
0.06924626
0.053945508
0.18753177
0.06022469
-0.035807546
-0.26579726
-0.13962483
-0.041520122
-0.1734821
0.0014758932
-0.09430163
-0.2945259
0.070321985
-0.17080577
0.037007455
0.32327205
0.13226253
0.054445338
0.094509885
-0.047815967
-0.029040389
-0.29982027
0.051530525
-0.062790416
-0.01681702
0.009756771
-0.017807832
0.0439272
0.14616847
-0.22051515
-0.042696185
-0.24523422
0.023044674
0.014883305
0.09788985
-0.000987669
0.008807183
0.030020077
0.034107655
0.24308378
-0.07567666
-0.0878312
0.020681636
0.045785144
-0.0038028636
-0.07185693
-0.21323638
-0.1560092
-0.15248552
0.07110624
-0.0808272
-0.2503732
0.053421047
-0.5506364
0.1835408
0.11728649
-0.04837998
-0.23286559
-0.04799745
-0.28572294
-0.31417167
-0.6251526
0.016109744
0.025665373
0.10821989
0.025166234
0.0041873143
0.049325664
-0.13168877
-0.06190583
0.05427652
0.0003890149
-0.02687182
-0.07888164
-0.09392863
0.021562774
0.030205643
-0.3072209
0.08364663
-0.11666716
-0.8266637
0.19684757
0.06786775
-0.13032763
-0.3864822
0.019668935
-0.006725713
-0.2949435
0.0042720134
0.045332883
0.028371813
-0.2554613
0.104590274
-0.20820056
0.00025640728
0.0540708
0.11341763
0.037243195
-0.13274445
-0.048567206
-0.2944008
0.013003285
-0.30437383
0.05426728
-0.34458753
-0.031534154
-0.18219511
0.0010196704
-0.13237488
-0.35072035
-0.0050818473
-0.00828523
-0.08713607
0.05038887
0.09525887
0.03950073
0.054273184
-0.18020655
0.040903535
0.02471809
-0.08989503
0.06969638
-0.09668149
-0.13671838
-0.07362615
-0.015917413
-0.011594077
0.0418287
-0.0127914995
0.010711997
-0.12751225
0.16472954
0.15486215
0.3808654
0.19213137
-0.11780984
0.18067771
-0.59245414
0.14745505
0.05032577
-0.109490395
0.24438338
-0.46124807
-0.021711744
-0.011203653
-0.3920414
0.22696956
-0.021095827
-0.16304581
0.08134448
-0.14256044
-0.14606023
-0.15368623
-0.03257587
-0.024733093
-0.0108396355
0.02317203
0.12546335
-0.2556282
-0.01307195
-0.061687
-0.043681625
-0.33114663
-0.04497686
-0.042397548
-0.25027302
-0.067800574
0.09537384
0.041189704
0.020968167
-0.1789761
-0.36232045
0.05501534
-0.028444842
-0.49934176
0.14383413
-0.3380327
-0.006827922
-0.58903825
-0.42675936
0.05448652
-0.14422871
-0.5847909
-0.49647617
-0.08060794
-0.03323287
-0.035169367
-0.1317068
0.1547596
-0.10155183
-0.05957398
0.033508964
-0.17763399
-0.0063035223
-0.0015508733
-0.037514742
-0.113617174
-0.003208233
0.017694933
-0.07315665
-0.22855234
-0.28214097
-0.28445292
0.05660377
-0.0049254415
0.043633737
-0.023845421
-0.09397523
0.017880676
-0.05743769
0.0250298
-0.11975434
0.037215196
0.29611066
-0.230139
-0.14955431
0.14911588
0.016147567
-0.42808396
0.026855018
0.097347066
-0.20863718
-0.08167273
-0.15021066
0.041026965
-0.14099723
-0.2532605
-0.049513903
-0.029410599
0.039698184
-0.055464268
-0.07215481
-0.012180695
-0.012824429
0.0016925271
-0.044027608
-0.059010837
-0.0061945147
0.16446202
0.03649843
-0.028597502
-0.2866727
-0.07591669
-0.101006486
-0.008181485
-0.034754388
-0.22349347
0.15551037
-0.13993792
-0.12711239
-0.07290955
-0.061396167
-0.0154858455
-0.06135891
-0.18535864
-0.0105414055
-0.0386211
-0.05751403
0.10191443
-0.0085844295
-0.048029114
-0.008141029
-0.056132697
0.052196555
-0.06452852
-0.042920053
0.05320322
0.21696445
-0.06696912
0.030631948
0.108799726
-0.048957504
-0.019075578
-0.13031854
-0.06800811
0.010491958
-0.06478457
0.022678116
-0.049249686
-0.033821784
-0.04327835
-0.14245039
-0.007268538
0.12900996
-0.1210103
-0.28380975
0.06589211
-0.10732063
0.026755473
0.024911817
-0.45053038
-0.5662351
-0.06355069
-0.018461553
-0.069003105
0.02780119
-0.07485442
0.04500403
-0.020964824
0.039905373
-0.04110275
-0.21541297
-0.03479307
-0.04652885
-0.015889619
-0.035115212
0.10341376
0.03393691
0.090648405
-0.115562044
0.06307318
-0.048916154
-0.101234004
0.055240933
-0.10466068
-0.18049952
-0.0026315644
-0.07878229
0.022219019
-0.13721868
-0.02240809
-0.1083411
-0.043755185
-0.22298078
0.12741002
-0.016683098
0.1050833
0.00054500904
0.05609382
-0.12381145
-0.04563507
-0.23247115
0.12121689
0.3451563
-0.061548546
-0.041219313
0.030478025
-0.13310461
-0.10532761
-0.0337939
-0.06765295
-0.16432405
-0.027229434
0.05296374
0.07473044
-0.15084228
-0.02226811
-0.0015578145
-0.110873796
0.028693097
-0.07159803
0.036739334
-0.2853395
-0.08148078
0.009569425
-0.20383726
0.0032621003
-0.49548885
-0.005838818
-0.007295497
-0.2028864
0.06816081
-0.20734367
0.048486747
0.09544981
0.05850743
-0.07860673
-0.10900903
-0.10936429
0.038768418
0.22746617
0.16096348
0.014703124
-0.0019028798
-0.106200874
-0.28853655
-0.023729632
-0.28000918
-0.14599812
-0.1038969
-0.021976383
-0.022687437
-0.18732092
-0.007367325
0.07597691
-0.008908711
-0.31648085
-0.64236206
0.04931211
-0.13165733
-0.035798892
0.11458047
0.09041782
-0.13684039
0.08399356
-0.022499392
-0.1800921
-0.10395892
-0.15817825
-0.49235365
-0.06746109
0.021294959
-0.2567312
-0.18278728
-0.068981186
-0.14272761
-0.0009937696
-0.8284285
-0.3805755
-0.55395764
0.106882505
0.023087429
-0.0019028629
-0.03157746
-1.6597002
-0.0828536
-0.039277054
0.033050995
-0.013652415
-0.06718556
-0.09217314
-0.037529424
0.012014074
0.20916343
-0.0019836845
-0.032858066
-0.021607
0.17717725
-0.19083056
-1.2673589
-0.08904874
-0.6723259
0.056497764
0.00924923
-0.14315483
-0.005856156
-0.021720584
0.021478802
0.03741636
0.17262599
-0.14658926
0.016519345
-0.21732467
0.050813276
-0.8917218
-0.024579981
0.059003063
-0.15590411
-0.05059405
-0.18754548
0.06727924
-0.031402476
-0.06605938
-0.02967013
0.118438594
-0.162302
-0.049154654
-0.40907246
-0.18424235
-0.07378684
-0.5018429
-1.3628591
0.008687957
0.037416745
-0.0023322832
0.019124424
-0.112384565
-1.0239
-0.58323836
-0.2242722
0.018854005
-0.007067853
-0.01817342
-0.22543655
-0.23357315
0.11173996
-0.066564366
-0.031329382
-0.14997159
-0.017386768
0.09313897
0.027363878
0.053103924
-0.024043344
-0.072151445
-0.056450192
-0.13313615
-0.061442982
0.009980619
-0.100303665
-0.21822716
-0.031978782
-0.022571495
-0.14502822
0.057057153
-0.020486211
-0.33352014
-0.24987009
0.04738842
-0.050820854
0.055851415
0.0058820695
-0.03139328
-0.070124924
-0.16734903
-0.0059478455
0.055683304
-0.15146433
-0.20755564
-0.10065864
-0.80182403
0.06268666
-0.07928526
-0.06452129
0.013800028
-0.0028049666
-0.17939264
-0.035780463
-0.013289942
-0.7283721
-0.009208559
-0.1213771
0.14282383
0.063179776
-0.91576236
-0.08394748
-0.019640004
-0.13107687
0.041925315
-0.11514255
-0.09651758
-0.084792934
-0.07322892
0.17214525
-0.0034703354
-0.033636916
-0.06621994
0.016983788
-0.21508308
-0.04694914
-2.215492
-0.22744043
-1.1139776
-0.058222197
0.03218647
-0.25459203
-0.013208144
-0.004418871
0.049474873
0.18633378
-0.004838819
-0.7901048
-0.31883243
-0.89063865
0.06361519
0.06223132
0.13592549
0.10411076
-0.37338713
-0.23048739
-0.039885726
-0.15493472
0.05398784
0.012181149
-0.18390416
-0.051757693
-0.20255665
-0.22784552
-0.23585619
0.095236935
-0.07619049
0.094799966
-0.022145284
-0.04063167
-0.16261162
-0.6180945
-0.037547678
-0.049242247
-0.8588243
-0.011376211
0.0026232766
0.08360952
-0.0714783
0.014807883
-0.006768645
-0.027723901
-0.03925487
-0.025357913
-0.052134436
-0.068974234
0.028014703
0.05352834
-0.016366808
-0.02810592
0.062187407
-0.07821262
0.039159562
0.034599498
-0.057190593
-0.021981714
-0.081997015
-0.09301562
-0.02993189
-0.048228625
-0.023844037
0.032585695
-0.04556022
0.005033538
-0.115916274
0.010205388
-0.040084433
0.04343697
-0.0070460564
-0.041605078
-0.040797938
-0.08639698
-0.010289375
-0.025345344
-0.008433282
0.0605652
0.04062882
-0.06254884
0.033694178
0.047304276
0.029680917
0.00020818356
-0.009803775
-0.012460601
-0.02319565
-0.10041082
0.059035067
0.005576495
-0.16091587
-0.033488277
-0.012292252
-0.0376982
-0.13298292
-0.053654138
-0.03373428
-0.0011134411
-0.016300073
-0.060048066
-0.12232673
0.058667563
0.009956032
-0.043492712
0.022413041
-0.041898303
0.010293481
-0.083729856
0.011248154
0.025653748
-0.017079853
-0.016143817
0.038033225
0.0806127
-0.0003478304
-0.035657346
0.008243813
-0.028014475
0.034636565
-0.1313589
-0.03292731
-0.12117348
0.037455473
0.032396052
0.022362046
0.008881392
-0.063083716
-0.1549269
-0.023132393
-0.011533529
-0.00038710373
-0.04334304
-0.119716875
-0.08288706
-0.054186493
-0.10464689
-0.026524495
0.03868768
-0.042517412
-0.01591263
-0.02580565
-0.13736756
-0.03471577
-0.104240134
-0.14109166
-0.025382126
-0.0004948482
-0.063766524
0.014155133
-0.030263092
-0.027200656
-0.16359173
0.005776259
0.004142491
-0.0034519706
-0.089588694
-0.032861587
0.056502208
-0.09527091
-0.10826563
0.018106408
-0.002870298
-0.06925391
0.013322272
-0.05108354
0.067689635
-0.052434027
-0.12401376
0.0048242486
-0.084869705
-0.030068183
0.060359377
0.0065655415
-0.1015817
-0.06282015
-0.052159097
-0.0037353213
-0.06608748
-0.03225704
-0.073478475
-0.010683767
0.01997348
-0.0961042
-0.041223478
-0.008431971
-0.033472497
0.03726989
-0.056172572
-0.08280077
-0.09262327
-0.067719124
-0.026273519
-0.10644338
0.054190934
-0.055976465
-0.070898436
-0.06757997
-0.07319296
-0.12487573
-0.058635436
0.007631111
-0.060562655
-0.030675229
0.027014153
-0.02353287
-0.03832914
0.008474149
0.06500549
-0.08094525
0.06629361
-0.018611532
-0.07255698
0.0048485612
-0.041075196
0.014804721
-0.014553546
-0.075994454
0.07322565
0.04307714
0.05749065
-0.06766638
-0.024710083
0.032042116
0.042277426
0.018142134
-0.0364117
-0.020697178
-0.0313909
0.05919888
-0.1415967
-0.043851793
-0.057009704
-0.068711124
-0.08396772
-0.026607586
-0.05036083
-0.07586793
-0.035888266
0.016641494
-0.07081579
-0.028741898
-0.026993625
-0.056688793
0.050171502
-0.36840692
-0.021879083
-0.0095934225
0.031233357
0.014239254
-0.05024971
-0.09840204
0.0061761485
-0.04339361
-0.12862886
-0.19742039
0.032253996
0.021022381
-0.020991525
0.047982045
0.013026685
-0.054574147
0.0122604845
-0.1272142
0.047427084
-0.04519867
-0.025114596
-0.5570439
-0.034736745
-0.03821831
-0.017482365
-0.012730234
-0.10535288
-0.0030025968
-0.009548682
-0.06717577
-0.032389104
0.09978849
-0.037299745
0.0051985565
-0.006668566
0.006366774
0.022757247
-0.03192302
0.0005978044
0.06841094
-0.021856833
-0.11920557
0.039577294
-0.03057352
0.048914306
0.0931565
0.03549446
-0.008582919
-0.05045615
-0.0019869704
-0.09196039
0.042226795
0.10673309
0.021024393
-0.002885379
-0.016439818
-0.010260292
0.024982093
0.08769826
0.016190598
-0.018772183
-0.1420864
-0.028894702
0.08123412
-0.101810485
0.016658008
0.03511222
0.1545808
0.011725
-0.0056868093
-0.6519302
-0.04441926
0.07586654
-0.053124994
-3.141045
0.009961099
-0.022406094
-0.07346269
-0.027775258
-0.0550191
0.0007381574
0.06329978
-0.983962
-0.041814666
0.12344137
-0.074962445
-0.18077415
0.0062814285
0.075599164
0.1254887
-0.0017454427
0.085602656
-0.15391304
0.06792589
0.0626792
-0.040251713
-0.1304817
-0.02576837
-0.0066758706
-0.0499873
0.0075829197
0.07317753
0.06119076
-0.012410783
0.042181
-0.09057144
-0.3013386
0.05320414
-0.0046222857
0.003528002
0.057722114
0.033805892
0.05159265
0.04884023
0.023952229
-0.16681705
0.0383611
-0.25338864
-0.060546286
0.05621369
0.0001900837
0.0645272
-0.21428163
0.019026661
-0.024516137
-0.093312256
0.034014285
-0.02928872
0.06689574
-0.07351349
0.05473887
-0.041809134
0.017681256
-0.14767908
-0.074752614
0.056348447
-0.04361564
0.03517041
0.054580994
0.074994735
-0.0011841097
0.03185595
-0.029523443
-0.0016286375
0.07543132
-0.16650893
0.014340207
0.09789957
0.07589279
-0.03533928
0.07371925
0.12014342
0.017561402
0.017109457
-0.288161
-2.6455753
-0.11506015
0.050511945
-0.015835924
-0.079937674
0.06564494
0.022638602
0.16016382
-0.028177146
-0.026181273
-0.020835215
-0.0051437207
0.04864165
0.026105322
0.053372085
0.055910416
-0.36344025
-0.095335305
-0.12891296
-0.014046262
-0.0076637315
0.038181152
0.04060422
-0.18037382
-0.026555382
-0.015167006
-0.033532746
-0.03338472
-0.121613905
0.036611315
-0.034808632
-0.0041646864
-0.0023953035
-0.038426314
0.070888236
-0.08035084
-2.2149045
-0.05047676
0.0358171
-0.011325578
0.07883396
0.07761303
0.037453804
-0.055073023
0.059819013
0.02080913
-0.06838348
-0.039978452
-0.04250484
-0.07958842
-0.07688791
-0.039176278
0.04362851
-0.030820873
0.049239762
0.07708722
0.006619795
-0.022519082
-0.019294487
-0.012830947
-0.04698577
0.048036575
0.05561069
-0.011828244
-0.039939653
-0.05783605
0.03218718
-0.004351324
0.05133932
-0.1590417
0.050450496
-0.018384127
-0.019898105
0.0026393973
-0.055300597
0.0066629024
-0.15467924
0.030870529
0.040013444
-0.04152044
0.035105173
-0.023812372
0.05532455
0.02781653
-0.08815427
0.058242187
-0.06410877
-0.0588635
-0.026377805
-0.09655108
-0.026986664
-0.028219718
-0.027733408
-0.07320822
-0.08356742
-0.064431995
-0.03985908
-0.033927005
-0.07229403
-0.113220915
-0.076623514
-0.058522176
0.01726854
-0.06614714
-0.034436394
0.0020199625
0.027371235
-0.0056960885
0.03435904
-0.020082511
-0.025628725
-0.05259419
0.045061268
0.062376764
0.008770025
0.02114169
0.0440558
0.02364805
-0.07826044
0.031780038
0.03328671
-0.03664832
-0.10207404
0.022215124
-0.004050886
-0.047665745
-0.040037375
-0.09009544
0.015186225
0.0097721275
-0.09147469
0.044276185
-0.09541945
0.006263642
0.0075961757
0.0070450166
-0.0583475
-0.05660504
-0.03917842
-0.04546325
0.05784087
0.04924514
-0.030580413
-0.036236532
-0.057769503
-0.033728138
0.016204154
-0.034083232
0.058153726
-0.12453876
0.0024129022
-0.0765797
-0.06325515
0.009478681
-0.089333035
-0.044890508
0.0020571474
0.03185741
-0.032724578
-0.0669654
-0.05753294
0.021955939
0.009328084
-0.16856244
-0.098033965
-0.07161294
0.045126382
0.019028606
-0.13402963
-0.04784282
0.006052578
0.028342383
-0.05511407
0.030531969
0.05461357
0.040111776
-0.01167864
-0.036631484
0.03983804
0.014705552
0.023337055
-0.069143236
-0.119628936
-0.0014763358
-0.078641586
-0.09613775
-0.11538126
-0.0039567268
0.0047882576
0.0047811144
0.05010636
0.026735254
0.0020499018
-0.047720883
-0.016976701
0.012816352
0.022345113
0.04130849
-0.07120765
-0.009069844
-0.094116114
-0.047182176
-0.05974138
0.0115899015
0.018907644
0.048206903
-0.053637426
0.00020298662
0.017275702
0.016355095
-0.066399984
-0.024809105
-0.02435736
-0.0803852
0.0577688
-0.13086024
-0.030711778
-0.05987192
-0.025606401
-0.06832236
0.028571047
-0.0051344507
-0.062254995
-0.04401546
0.0017943705
0.041183352
-0.07813996
-0.023596909
-0.046151046
-0.06174307
-0.08626187
-0.001424896
-0.056816578
-0.063391924
0.0030831052
-0.0062657516
-0.04415623
-0.08062825
0.008241476
-0.078619845
-0.050384372
-0.12900493
0.05310475
-0.06827142
-0.01020611
0.056534242
-0.08010908
-0.008940666
-0.040594287
-0.026998118
0.0216512
-0.045677025
-0.053020515
0.057962097
0.022666406
-0.052416638
-0.040989242
-0.03273986
-0.008099036
-0.04099337
0.0057975682
-0.068614386
0.017091537
0.0051229475
-0.06525798
-0.053829476
0.009011723
-0.032262985
0.03943429
0.035618275
-0.061478097
0.008790111
0.0012073631
-0.08065713
-0.045761492
0.005284269
-0.0216418
-0.0076367864
0.0032401741
-0.066860266
-0.009967745
-0.039152704
-0.047015317
-0.094419226
-0.055296853
-0.025921902
0.053295474
-0.05371896
0.03271018
0.053048443
-0.03159422
0.0003994161
-0.0745037
-0.009760213
-0.02213206
-0.007828224
0.017624613
-0.032658074
