-0.06242852
0.16831224
-0.05442758
-0.07399464
0.23015423
-0.0471768
-0.14249663
0.124809735
-0.11368213
0.015612734
0.24398689
0.2514943
0.115958646
-0.09645957
0.15811902
0.083491676
-0.02798953
-0.07500587
-0.060080905
0.14036992
0.18292072
0.0014396572
-0.1322681
-0.08124974
0.1479795
0.014072381
0.2875532
0.16209395
-0.10937236
-0.18439257
-0.14676173
0.23406726
0.06875801
-0.030154403
0.05901084
0.084209956
-0.10853344
0.12167148
-0.08963787
0.1480236
-0.096632816
-0.14283724
0.16230632
0.22876777
-0.069396086
-0.04844984
-0.1049322
-0.0044423016
0.38075864
-0.14758535
0.18823576
0.16884816
0.22775808
-0.06982444
-0.03881049
-0.21669999
0.13616647
0.29270485
0.17060886
-0.03707545
-0.10314577
-0.08892804
0.2900268
-0.07774034
-0.17289004
0.24493565
0.33285418
-0.21082284
0.25713125
0.022724863
-0.065273955
-0.11543518
-0.08044033
0.19603139
0.16293968
-0.13282296
-0.19401507
-0.076913215
0.272501
0.21421555
0.06741357
-0.056419954
0.18184659
-0.111507036
-0.03377357
0.099702045
0.17409559
-0.08996118
-0.06724524
0.2193929
-0.07955287
0.23290502
-0.08617702
0.18254389
0.16826311
0.23458739
-0.050346073
0.075067654
0.16632728
-0.102367155
