0.039979603
-0.017763376
-0.038078733
-0.019936198
0.046012208
-0.107577495
-0.026998367
-0.068043575
-0.11548399
0.053678554
-0.12575038
0.2213227
0.039002232
0.04814442
-0.05054877
0.23579349
-0.23666707
0.15771867
0.010855356
0.18555321
-0.13572404
-0.32856467
-0.3801025
-0.12661816
-0.13187039
-0.2472872
-0.36020392
-0.1477126
0.20791796
-0.6221588
-0.13891082
-0.1477567
-0.05939865
0.05021417
-0.2984726
-0.15991695
0.0041396297
-0.061377566
-0.06609758
0.00911432
-0.19327323
-0.039427124
-0.31242868
0.17270914
0.04111711
-0.11930805
-0.29950026
-0.058191556
-0.0045821625
0.04750476
0.034761097
0.049411684
-0.029606698
-0.013542216
-0.051391233
-0.008183674
0.23519982
-0.05890632
0.20802492
-0.28213534
-0.15268628
0.015560643
0.11125183
-0.009840447
-0.06945637
-0.089501336
-0.0052095745
-0.19559036
-0.17005356
-0.1458107
-0.08533406
0.015546528
0.019972285
-0.048063446
0.11035661
0.05370027
0.011753862
-0.059145495
-0.02670858
0.037131872
0.0043157847
0.1242479
-0.2093032
0.06601262
-0.37336418
-0.21451727
-0.22907148
-0.07827426
0.03603989
-0.0570355
-0.08937692
-0.118817255
-0.0797314
-0.071392454
0.0028825677
0.1624234
0.038870845
-0.08433786
0.060955945
0.07363772
-0.10458557
0.07932313
-0.09247961
-0.039861836
-0.119211085
-0.08345938
-0.07514831
0.0014528305
0.08697651
-0.12961043
-0.06487172
-0.1345193
-0.038265545
-0.10356892
-0.08180607
-0.010081131
-0.022819633
-0.06842162
-0.04416371
-0.065011084
-0.16262278
0.1411164
-0.029816482
0.012552573
0.19575498
-0.3321543
-0.2221276
0.009574234
0.07510156
0.122369125
0.14914572
0.16313994
0.1940092
0.13307041
5.7194895e-05
0.020037897
-0.071336925
-0.1550137
-0.0037010135
-0.07679087
-0.25742182
-0.118759535
-0.046355177
-0.006727766
0.083849914
0.10894549
0.10761573
0.042028304
-0.19634008
-0.025813827
0.073388554
-0.07713457
-0.19890271
-0.1316521
0.0477501
-0.11085083
-0.040585387
-0.17113888
-0.20289633
-0.28708887
-0.012100791
-0.0026887676
0.11641953
0.098240286
0.066599384
-0.0048024813
-0.25330043
-0.3232653
0.024537684
0.17459631
-0.25821394
-0.15784074
0.04882056
0.023835583
-0.10456121
0.1360233
0.14920162
-0.014706445
0.19366834
-0.14199059
0.08498884
-0.06478185
-0.02199901
0.085747495
0.022067426
-0.07333551
-0.25101924
-0.29831412
-0.24390364
-0.32530776
-0.32876226
-0.23958741
0.080842756
0.09687393
-0.34840813
0.06474725
0.059553854
0.02927678
0.011865764
0.2017954
0.16285513
-0.026322883
0.10068233
0.31017542
0.11166051
-0.0020065499
0.2727021
0.10631932
0.06958651
0.052353624
-0.023939023
-0.17851724
-0.41326272
0.022105502
0.19545606
-0.07986058
-0.3064795
0.0847695
0.058079343
0.008796274
-0.11539246
-0.08462572
-0.0894796
-0.21731389
-0.27809063
-0.3813753
0.080984086
0.05570515
0.23154496
-0.011312626
-0.09833285
0.035734765
0.016635638
-0.024049336
0.14112161
-0.06573868
0.102359876
0.123199016
0.009592078
0.024695285
0.09979615
0.10833858
-0.12346753
-0.09423531
0.05291497
-0.0613666
-0.037451793
-0.053025257
0.022863824
0.025380334
0.17676629
0.08329099
-0.028508311
0.10001245
0.16145353
-0.055952955
-0.0011835231
0.06761352
-0.07507969
-0.05907741
-0.02823755
0.09351261
0.00899602
-0.049832493
0.18297036
0.0058694556
-0.13222153
-0.092125125
0.26797828
-0.09153823
-0.10082646
-0.1626952
-0.025391664
-0.07117012
-0.088511005
-0.013518482
0.0015266484
0.08183458
0.21850461
0.09577647
-0.20544234
0.098233566
0.004009763
-0.04648383
0.19387178
0.00872881
0.09036452
0.07140315
-0.027855027
0.027228374
0.0047801808
-0.025607504
0.034324657
-0.01207922
-0.012281995
0.045172974
0.04333305
0.09960622
0.06103854
-0.007334731
0.03434733
0.0481112
-0.04963579
-0.13102423
-0.040461313
-0.04301607
0.06969352
-0.0016088344
-0.14999601
-0.049894597
0.04582819
-0.061252747
-0.049928237
-0.13969769
-0.10553132
0.1542597
0.0064613977
-0.027553976
0.06383971
0.07220212
0.13496065
-0.24743758
0.020310938
0.016099691
-0.066629596
-0.04360255
0.07625736
-0.003737396
0.09055984
0.021803634
0.15248047
0.07440825
-0.15021832
-0.040150516
-0.00022738684
-0.091528
0.08678384
-0.12757583
0.027565002
0.025563039
0.021833025
0.017556887
0.016894564
0.0028651443
0.041687798
-0.03977052
0.08410379
0.011748206
-0.07351694
-0.1197497
0.10219345
0.21334948
0.13011993
0.17156218
-0.010075817
-0.09200964
0.1305717
0.076521
-0.018914992
-0.0638173
-0.16582485
-0.0018636177
-0.027950045
0.13294041
0.020974305
0.084792845
0.17515759
0.058819074
0.11335591
0.024501326
0.011134118
0.07225023
0.064676605
-0.014861895
0.03497309
-0.0010347607
-0.09046163
0.13160768
0.05650656
-0.10035975
0.0021190997
0.08897032
0.15861076
0.048862994
0.11453727
0.18127131
0.08185672
-0.015250059
0.19105603
-0.05120576
-0.06943654
0.007937534
0.018427271
-0.037440326
0.24014632
-0.2523967
-0.38678983
0.0154423015
0.076021865
-0.19161332
-0.078806534
-0.22394422
-0.11996369
0.017679386
0.054539334
-0.061219208
-0.042192828
0.029128158
-0.030420518
-0.0027010369
-0.17655207
-0.0043110796
-0.07126647
-0.16229163
-0.367041
-0.13265145
-0.24869429
-0.3183601
-0.11916447
-0.20400168
0.02800154
0.07890851
-0.15422286
-0.08605344
0.1909583
0.018622987
0.009406047
0.21449596
0.014418217
-0.005769383
-0.1547355
-0.26771832
0.03388657
-0.18789428
0.10545527
0.0013047808
-0.034599435
0.1669546
0.06310887
-0.063964136
0.05533099
-0.060006157
-0.10698597
-0.13540055
-0.088958055
-0.39514017
0.16082242
0.035547465
-0.4815702
-0.20394787
0.07552058
-0.06947669
-0.11522659
0.025431272
-0.094638266
0.042928953
-0.013390766
0.17793736
0.02012628
-0.34411705
-0.044881083
0.0032300148
-0.13445602
-0.05696774
-0.061401974
0.16457722
0.098841466
-0.08733544
-0.19684899
-0.14295645
0.12407111
0.047219448
-0.05988876
-0.08625873
0.057964645
-0.05119293
0.18762402
-0.0065145087
0.24570629
-0.11070704
-0.20046112
-0.34590155
-0.31846386
-0.22289367
0.03264735
-0.08933272
-0.05619254
-0.18107282
0.4638794
-0.02777868
0.32708827
0.08264875
-0.22397083
-0.059777025
-0.08548158
-0.14193359
-0.08816201
0.007200742
-0.04459298
0.0407274
-0.2269936
0.039007653
0.16548228
0.49974677
-0.22325736
-0.21335678
0.17141776
0.14917907
0.12361742
0.08268173
0.15868285
0.12206905
-0.0767362
-0.09062957
-0.009181988
0.088278934
-0.059449457
0.44486594
-0.2178233
-0.19335914
-0.0006083269
0.048173603
0.26448599
0.10653312
0.15347539
0.060532752
-0.008786168
0.07863717
-0.02018114
0.098463476
-0.17280659
-0.10826561
-0.30950075
0.018616112
0.04059902
0.1473909
0.119128525
0.066209204
0.10401671
0.013377269
0.07169794
0.10418287
0.12784223
0.0035006886
-0.47084385
-0.101277255
0.04441208
-0.054107886
0.053907875
0.13087493
0.14625134
-0.09098036
-0.19109006
-0.24051198
0.109696165
0.22847924
0.19975725
-0.027893424
-0.1256519
-0.040661745
-0.05112608
-0.05484375
-0.32889608
-0.1350912
-0.38323206
-0.29642925
-0.14590591
-0.2668902
-0.32715598
-0.013392613
0.2666201
0.39869553
0.17985286
0.105439514
-0.06144259
-0.080358036
-0.19195339
-0.25875527
-0.033251923
0.06060227
0.20621149
0.21344614
0.023225103
0.05965804
-0.18410344
-0.31796238
-0.061549492
0.036865115
-0.04140786
-0.005008459
-0.00069508934
-0.015774721
-0.1217937
-0.13295875
-0.28067726
-0.07551199
-0.12922548
-0.06836645
-0.11354453
0.2872973
-0.0071810316
0.031174397
-0.018034868
0.18675786
-0.120435186
0.04842783
-0.13645375
-0.26827654
-0.10345828
-0.16350745
-0.1334163
0.06747052
0.11250177
0.17799367
0.16783446
0.21887018
0.13950899
0.062724985
0.01973733
-0.11037511
0.00085459783
0.115471646
-0.041935895
0.065604515
-0.11826082
-0.061807685
-0.010554647
-0.07532709
0.046081495
0.07209491
-0.19595304
-0.020332424
-0.21810116
-0.2098456
0.0065800315
0.022419542
0.025803788
0.009009207
0.016150897
0.08382845
0.11033384
0.10831979
0.06788066
-0.3267124
-0.19275442
-0.020340351
-0.106706336
-0.038252216
0.095771074
-0.105087444
-0.017672794
-0.012666372
-0.0059267986
-0.011130504
-0.008547074
0.07909479
-0.07137694
-0.31905735
-0.18152364
0.084107734
0.091308326
0.11093607
-0.06774831
0.03301705
0.003512722
-0.090791285
-0.01687409
0.02393327
-0.2485442
0.00081298716
-0.063548684
0.066459216
0.08584799
-0.23533
0.03967435
0.04717238
-0.15160407
0.029499847
0.04515382
-0.02954595
-0.07628598
-0.09453376
0.0052505513
0.11255848
0.08983826
-0.16185544
-0.11529617
-0.22341724
-0.08534971
0.023648603
-0.04162235
0.04723726
-0.025889032
-0.13656542
-0.061941095
0.052693956
0.1604666
0.11870574
-0.011773864
-0.3500345
-0.13704234
0.044249874
0.013717865
-0.16068347
-0.06663776
0.20805776
0.03850109
-0.028001782
-0.16097985
-0.024930647
0.09857532
-0.06719311
-0.08715373
-0.38536012
-0.15265624
-0.040046282
-0.13137639
-0.0867451
-0.05109903
0.123269424
-0.094873495
-0.01866782
-0.087958045
0.072872
-0.06656165
-0.29373667
0.036605176
-0.0373167
-0.013644912
-0.092401475
-0.131471
0.1503649
-0.042511825
0.090762794
-0.06384364
-0.014207603
-0.11453597
-0.0076462757
-0.107009456
-0.079007514
0.28723177
0.038168542
-0.14850403
-0.20582761
0.13524929
0.2633613
0.0047740466
-0.12763587
-0.05037581
-0.10219344
-0.006142152
0.13332583
0.0046586045
-0.0792278
0.10247347
-0.025876826
0.012696317
-0.07981164
0.01647238
0.21084858
0.048468556
-0.13917771
-0.100093044
0.22705053
0.06893969
-0.091469765
-0.22653998
-0.12451147
-0.26670325
-0.06374741
-0.027642515
0.08641012
0.00019892878
-0.26809356
0.07722283
0.10321806
0.079188414
0.14952584
-0.2408604
-0.15526439
-0.28534338
-0.14129856
-0.24944805
-0.035520963
0.03998667
0.048287775
0.19787863
0.16743179
0.04894067
0.18170689
0.12082187
0.2556912
-0.19770436
-0.23421839
0.017222732
0.032476883
-0.020979771
-0.03284766
0.02001403
0.16385007
-0.051992435
0.02676408
-0.20134962
0.082795754
-0.095017664
-0.32822096
-0.24222264
-0.048187505
0.07523094
-0.09173589
-0.028537191
0.41103148
0.15952945
-0.07868657
-0.09790537
0.024340086
0.054285467
-0.10528387
-0.09577117
-0.0889032
-0.1571378
-0.16732134
-0.09393945
-0.19993907
-0.12271349
-0.0027312522
0.28771278
-0.08681115
0.13558145
-0.20095408
0.12094274
-0.030554116
0.054514192
0.13223283
0.13423528
0.1446329
0.03679557
-0.04254884
-0.15442748
-0.005886998
0.05947564
-0.043773398
-0.24188964
-0.034004103
0.064316094
-0.008443114
-0.029238291
0.00039599623
-0.08185451
0.073694564
0.029281065
-0.17362383
-0.043532733
-0.17665693
0.056703445
0.04663809
0.09465978
-0.077994876
0.10289877
0.08941372
-0.00012391614
-0.047313545
-0.058315586
0.07993653
-0.2143752
-0.20308132
0.0381936
-0.065288536
-0.44374317
-0.18824354
-0.21232972
-0.21893959
-0.013369689
-0.013006764
-0.0159418
0.06492247
-0.012639016
0.09058299
-0.056237344
-0.22683926
-0.07691627
0.036605056
0.23570423
0.17662153
-0.17378259
-0.17034337
-0.009726439
0.10770628
-0.045926794
-0.0075699957
-0.02087954
0.10451435
0.04724988
-0.059611615
0.3010205
-0.06025723
0.00080243486
0.11617492
0.18710986
0.050483342
-0.12986992
0.06437483
0.055906925
-0.035389796
0.069933616
0.16299327
-0.086228654
0.14184515
0.072781265
-0.29640254
0.3784561
-0.044037957
0.040285822
0.17211652
-0.021907404
-0.0942703
0.06377953
-0.06377211
0.092301264
0.15655868
-0.029515533
0.07764637
-0.059439942
0.07905797
0.047007356
-0.121767946
0.15610887
0.17862636
-0.14436606
0.041043747
-0.12878254
-0.11769941
0.051211428
-0.043402586
0.16877754
0.13373147
-0.00080479594
-0.48619372
0.11279273
-0.06424226
-0.0588563
0.094000846
-0.061002515
0.1648139
-0.10438967
-0.43534783
-0.16249563
-0.14350735
0.106026396
0.26181316
-0.16091071
-0.19100659
0.0061865454
0.11570976
0.039269995
0.043122664
0.005625833
-0.039576996
-0.013073856
-0.07131663
-0.09761912
-0.27879605
0.27429003
-0.20294183
-0.21795538
-0.027293941
-0.03784708
-0.22139809
0.10285785
-0.18015926
-0.10743992
0.093144245
-0.057236835
-0.0057033235
0.029443258
-0.44212976
-0.079548635
0.11943888
0.099558935
0.0045309495
0.058823776
0.01116911
0.1775923
0.17292765
0.15571772
-0.04974648
-0.0007756322
0.11454937
0.19360813
-0.21812713
-0.12901157
0.18915391
0.014094558
0.011774762
-0.015709078
0.057325915
-0.04898063
0.1984513
-0.13675936
0.044885978
0.077697076
-0.01479481
-0.03981758
-0.22165935
-0.07919732
-0.19828878
-0.21481098
0.014076778
0.14717829
-0.1299253
0.23760664
-0.155469
-0.24528405
-0.18659103
0.021913575
-0.08014067
-0.016019141
-0.16225155
0.0417189
0.0099899685
0.18011117
-0.020893158
-0.23181039
-0.13639015
0.16626304
-0.0022743898
-0.04863263
0.06726437
-0.12769127
0.014233443
-0.06040504
-0.035131633
0.025506271
0.15581398
-0.08407366
-0.030342665
0.07843025
-0.054925863
0.2873672
0.09126418
0.020177128
-0.10411934
-0.04465349
0.0346829
-0.02784124
0.004715214
-0.18690266
-0.009047162
0.0026069637
-0.14831702
0.05165773
-0.046897713
-0.0018485298
0.006629371
-0.072360106
0.026409594
0.051887434
0.015015168
-0.019603673
0.05585663
-0.11875549
-0.03269111
-0.11826856
-0.08164651
0.037786577
0.09302443
0.09847767
-0.035506424
-0.09486791
0.036879826
-0.0016038995
0.0811625
0.059706684
0.09855199
-0.12471619
-0.0827579
-0.12198047
0.22317058
-0.018827172
0.035957593
0.12966782
-0.07387403
0.1410918
0.026147448
-0.085331075
-0.020518977
0.10563415
0.1376946
-0.053483672
0.094293125
0.12589416
-0.091227636
-0.29166794
-0.19682552
0.0007802834
-0.18344344
0.124992184
-0.036665756
-0.011779179
-0.061356384
-0.07453261
0.14345375
-0.14342412
0.1272437
-0.037776046
-0.18410616
-0.20002699
-0.14197291
-0.08645436
-0.10049541
0.06781424
-0.008071069
-0.2270788
-0.0844585
-0.034831654
-0.039361253
-0.031553652
-0.038397636
0.12718646
0.15935715
-0.2664541
0.011006426
0.24637903
0.048906974
0.09612623
-0.076265715
-0.09290745
-0.054160673
-0.00034351583
0.059318613
-0.07313521
0.00091404695
0.15155128
0.15558009
-0.07685139
-0.2532703
-0.04461627
0.031473465
-0.056496173
0.10132949
0.07601228
0.038297694
-0.06729407
-0.17254288
-0.2279416
0.08144207
0.14383756
0.048502337
-0.021379191
0.10386182
0.048908852
-0.018077295
0.115906864
0.015761103
0.0063438625
-0.22875574
-0.11580328
0.082505964
0.10131332
-0.043247055
-0.04855856
-0.09300839
-0.03552196
-0.27876523
-0.03328369
0.08969743
0.03893812
-0.22420992
-0.31481382
-0.18755941
0.05162152
0.06285999
-0.07424785
-0.14254948
-0.2626162
-0.008846786
-0.055139493
-0.04327064
0.054502465
0.32008085
0.14186811
0.020809202
0.05604062
0.10952053
0.124610595
0.04380393
0.04414733
0.011820845
-0.04150354
-0.044684462
0.0054137283
-0.036458325
-0.1322962
0.0172482
0.12326541
0.18682303
0.2880455
0.14508532
-0.0034042697
0.12807284
0.026978627
-0.17280273
0.04218681
-0.14496659
-0.13135837
-0.16576487
-0.11173116
0.03733677
-0.1444954
0.17726648
0.21515211
0.086307794
0.024365567
0.14637992
0.17060556
0.14110588
0.154525
-0.012233881
0.018019725
-0.1909827
-0.16709936
-0.08992225
0.118348226
-0.022190323
0.035745915
0.1495052
0.08906992
0.0030106155
0.025915297
0.2043688
0.14218274
-0.21105443
0.052262843
-0.08203933
-0.079843566
-0.13028134
0.08009024
-0.09527869
-0.07140055
-0.041879408
0.02013065
-0.13727549
-0.043043766
0.04127072
-0.021322662
0.33308482
-0.1563454
-0.0068329936
0.04365679
0.04447258
-0.02245473
0.10171306
0.17065439
0.2613646
0.02270041
-0.004176817
-0.23515466
-0.23073186
-0.041740436
0.361807
-0.2650909
-0.27303037
-0.103858136
0.05355554
-0.03030672
0.06460169
0.037831932
0.087852925
0.03840922
0.058225784
-0.07441623
-0.16060556
-0.18944131
0.2587919
-0.24903822
0.2402323
0.09592291
-0.2746379
-0.0009975014
-0.17973751
-0.35491613
-0.18361954
-0.079670064
-0.17620562
-0.12396531
0.03211891
-0.18938647
-0.014373303
0.027715493
0.020092104
-0.11868125
-0.018118678
-0.33845198
-0.09142022
-0.1662085
-0.1003241
0.00011582071
0.028830612
-0.16883218
0.02916509
-0.1017348
0.07796478
-0.028308773
-0.14957945
0.04500534
-0.017845014
-0.063266054
-0.0029065153
-0.14523178
0.01164366
-0.027675368
0.048907105
-0.016565247
-0.16726911
0.08827498
-0.45646402
0.03602923
-0.2688664
-0.009194776
-0.015563801
0.094249204
0.1541854
0.017962283
-0.08233472
-0.026627438
0.14499027
-0.010156318
0.12516366
-0.020672886
-0.16070826
-0.0063343043
0.03796714
0.111529
-0.042419083
-0.14046535
0.024515618
0.04501176
0.030645926
-0.12181696
-0.0032848427
-0.2163512
0.02269613
-0.031259943
0.07228978
0.022318799
0.18936197
0.21734954
0.20225582
-0.011245123
-0.0645148
0.124264434
-0.04341883
0.10050836
0.08218678
0.19449684
0.06451741
-0.06349858
0.06240873
-0.033855796
0.3124597
0.24116947
0.20642011
0.099570006
0.07090258
0.036193587
-0.37326726
-0.21583672
-0.37387848
-0.0031641286
0.10097851
0.27579543
-0.050226573
-0.04296991
-0.029774642
0.06010431
-0.081855714
-0.2293147
-0.32958686
0.045803104
-0.09092174
-0.23137759
-0.23395813
-0.21521603
0.13006563
-0.038526613
0.058518566
0.051100947
0.04613097
0.03292968
-0.33068812
0.065048486
-0.03739222
-0.17918839
-0.033928927
0.09611665
0.21203913
0.061062593
0.03421557
-0.037505142
-0.5788003
0.11475391
0.062155917
-0.015660284
0.09913592
0.13463366
0.047628015
-0.14755246
-0.17571248
-0.21844195
-0.10834189
-0.1566186
-0.071756706
-0.093793534
-0.15943897
-0.20495334
0.14355695
-0.011150913
-0.061010715
0.025714861
-0.021158991
-0.053847738
0.127109
0.044004533
0.08165812
0.13485152
0.019515656
-0.0703176
-0.26065838
-0.27233675
-0.056186777
0.18745102
0.14297183
0.07840342
-0.0066186343
0.0075468407
-0.10814369
-0.1396823
0.0724044
0.0475339
0.20642142
-0.07530185
-0.15282354
0.15725084
-0.29647556
-0.03346311
0.17780674
-0.14094575
-0.1442859
-0.0009749711
0.081491336
0.017170226
0.0061805183
-0.041600645
0.014649238
-0.07451442
-0.0056729573
0.06269736
-0.23493567
-0.076271385
0.04593582
-0.10633522
0.022120874
-0.067635216
0.18793412
0.08411609
-0.057657547
-0.049735498
0.08585259
-0.044024356
-0.074717015
0.24424696
0.05879611
-0.14013264
0.0053988667
-0.05767946
-0.04571625
-0.09168094
0.015255052
0.13254443
-0.10239964
-0.029230742
-0.06963698
-0.035370454
-0.08079084
-0.19099294
-0.09536391
-0.025476865
0.06817368
-0.095894076
-0.11724112
-0.035231456
-0.13005549
0.010827733
-0.11499631
0.072801955
0.13315132
-0.28166085
-0.06802101
0.030439937
-0.19272104
0.05751717
-0.003906787
0.024558838
0.032428652
0.04695233
-0.06604821
0.026347362
-0.014888796
0.08784177
-0.17825702
-0.255289
0.17275316
0.009826785
0.05193213
0.13747151
0.009424428
0.0792321
-0.0291717
0.093188114
-0.03274923
-0.0028989671
-0.20148422
-0.08723604
-0.24070896
-0.07560839
0.09926638
-0.022971237
-0.15958078
-0.2868953
-0.17051095
-0.1115197
-0.017980445
0.10303231
-0.014334412
0.11236407
0.10976816
0.13255547
-0.04940837
0.15308772
-0.07963284
-0.06484925
-0.068243615
-0.25670838
-0.11658456
-0.10637891
-0.09424141
-0.07887313
-0.103316605
-0.06327228
0.011872391
-0.007919992
-0.1314443
-0.24964707
0.045714714
-0.025420003
-0.07765347
0.024925433
-0.11783681
-0.26152685
-0.15776104
-0.11091546
-0.266878
0.15453033
0.1593804
0.14320612
0.111123994
-0.07810129
-0.042299177
0.045209017
0.013882987
0.06987976
0.061316386
-0.13584559
0.09446964
0.024286458
-0.11790211
-0.004922364
0.14742789
-0.13273592
0.041525614
-0.005112546
-0.0024199658
0.027993552
0.011465138
-0.14925808
-0.2301658
-0.056203965
-0.45469
0.061682247
0.1572004
-0.13857725
-0.059090834
-0.102542326
-0.1504177
-0.10483491
-0.28374907
-0.1576456
-0.021619195
-0.37833554
-0.115583755
-0.15103126
-0.14475998
-0.0024261726
0.11021533
-0.027096562
0.07025517
-0.13030437
-0.3097043
0.0042063445
0.13457459
-0.06185336
-0.27411136
-0.09508446
0.13020913
0.07512273
-0.06818018
0.0055044508
-0.09603076
0.053277507
0.13620803
0.025469182
-0.040768325
0.0843368
0.1099991
-0.09485525
-0.10611667
0.046145655
0.07155803
-0.03883061
0.07539755
0.032562375
-0.037526216
-0.047134526
0.037865896
0.030908968
0.006960445
0.2511548
0.028953772
-0.022976952
0.044552475
-0.3204086
0.22394845
-0.025244473
0.0033780334
-0.0006003426
-0.06067644
0.023302736
-0.085054725
-0.10406371
0.09542025
0.18627924
-0.09631202
-0.09409836
-0.0029450976
-0.061811857
0.13785481
-0.19894624
-0.25151318
-0.32033455
-0.08129715
0.01835274
-0.13488495
-0.025485141
0.06176564
0.12583019
-0.055683725
0.019893054
-0.32461658
-0.06793335
-0.13243741
-0.21702763
-0.047414195
0.028716585
-0.03576281
-0.009005222
0.049972635
0.14574355
0.058920152
-0.16598561
-0.1803342
-0.30439466
-0.12242228
0.12391932
-0.1256449
-0.06440033
0.0138101755
0.2097947
0.10062532
-0.030089397
0.24512465
0.10853015
-0.004619953
-0.06556849
-0.27173755
-0.4312318
0.09715396
-0.08126142
-0.066142395
0.12166876
0.08572926
-0.032798544
-0.0016229707
-0.088161156
0.034886584
-0.1298607
-0.1755905
-0.26073176
-0.14842609
-0.06843887
0.19801617
-0.13283622
0.12250207
0.184906
0.020102384
0.06952143
0.12968916
0.077979505
0.06450588
-0.23971598
-0.19872423
0.01811655
-0.09830413
-0.18930082
0.098793425
0.02642465
-0.21935025
-0.102375254
0.044553846
0.013275741
-0.17057306
-0.04679988
-0.07498605
-0.18247947
0.047117934
0.020767812
0.14689171
-0.023443129
-0.34861374
0.15162683
0.016497014
-0.11230662
-0.25622353
0.020920036
0.25618812
-0.079650156
-0.14843583
0.39401048
-0.06871819
0.023149814
-0.073361285
0.06986044
0.35206482
0.16576476
0.14395596
-0.4335477
-0.11751544
-0.2101887
-0.124850094
-0.18561126
-0.3766859
-0.06441026
-0.06412072
0.007885266
-0.06425186
0.05659062
-0.047934152
-0.17158036
-0.13756949
-0.08042585
-0.33693752
-0.23034966
-0.29179737
-0.051172473
-0.029301286
0.05386558
0.18451564
0.018307311
0.0033676797
-0.06897429
-0.08137522
-0.16159922
0.0316296
-0.0004895944
0.13848543
-0.121407904
-0.27164733
0.016312426
-0.03452024
-0.14431842
-0.05415053
-0.021148363
0.22684018
-0.1919031
-0.04491967
-0.009582223
0.042603396
-0.08421487
-0.01647621
0.023440486
-0.010096161
-0.05757241
0.08587326
0.013784098
-0.1195996
0.012691502
-0.07476025
0.1061339
0.09018217
0.10346027
0.082300626
0.0023998779
-0.0038554394
-0.006675798
-0.010827575
-0.028997235
-0.0036875643
-0.04139323
0.053216867
-0.21251401
0.14377593
-0.0041293367
-0.104845636
0.16440193
0.19250658
-0.108421296
-0.027502077
-0.040248867
-0.17768638
-0.013444513
0.059591193
0.012634214
0.101708755
0.071840085
0.09710681
0.1304997
0.10864063
0.042314056
-0.055899464
-0.075558454
-0.018736085
-0.10089707
-0.09792712
-0.038981214
0.017269745
-0.111595556
-0.0716064
-0.13152914
-0.062330652
0.05790867
0.009712458
0.20649125
-0.06790912
-0.118991576
-0.031690154
-0.10568779
0.011399522
0.07067081
0.0739183
0.07505662
0.118358865
-0.021613695
0.23776263
0.18390746
0.1484388
-0.031076623
-0.08827112
0.020629274
0.019014625
-0.07429208
0.12123835
0.016614236
-0.050042026
0.07758762
0.0032381725
-0.07971637
0.13833958
-0.21050493
0.030730592
-0.08775907
0.06475395
-0.008689548
-0.047333464
0.05311347
-0.0366413
-0.05314733
0.006581487
0.06505733
0.15134999
0.14569655
0.06852016
-0.15811382
-0.20513105
-0.18764159
-0.047611315
-0.014360472
0.028449573
-0.13473463
-0.052236073
0.04496535
-0.06626121
0.011584348
-0.079020895
-0.013830134
0.05526597
-0.2993689
-0.061996277
0.017998327
0.05939518
0.09003344
0.002699754
0.06124572
-0.11154068
0.04829382
-0.100148216
-0.027731499
-0.13017067
0.112873435
-0.16471447
-0.23557349
-0.087657966
0.18413189
-0.15140294
-0.026101125
-0.027853983
-0.0013889655
-0.027452864
-0.037368882
-0.17799008
-0.023648709
0.056229457
-0.19338967
0.121582985
0.059028823
-0.2504498
-0.1457295
-0.18812959
0.04712606
-0.0145910485
-0.038626038
0.0029054089
-0.18175958
-0.2053072
-0.04126005
-0.065372236
-0.16530213
-0.08395729
0.00562868
0.14178455
-0.05661196
0.029511813
-0.08222647
-0.06181032
-0.13555859
-0.09199415
0.2351891
-0.04904283
0.28738222
0.51304996
-0.042386834
-0.0076067536
-0.0045486265
0.005629114
-0.077083476
-0.29912373
-0.10039274
-0.23302148
0.002189293
0.12174057
-0.16049594
0.08440384
0.11481378
0.059219714
0.025999648
-0.041868307
-0.0030639598
-0.09704709
0.085682385
0.119207405
-0.15356666
-0.005629058
0.0043516783
0.09393687
0.012645843
-0.21534471
-0.10203142
-0.13879357
-0.20579596
0.39827666
0.045233954
0.0051223994
0.13332967
-0.09982759
0.10042701
0.032071285
-0.074921176
-0.083088204
-0.14238064
-0.009408612
0.15337966
-0.13772084
0.0026037751
0.13704048
0.32177398
-0.13172433
0.16642001
-0.2702327
-0.07779092
0.1452661
0.098179676
0.039950803
0.04556877
0.036093682
-0.1393457
-0.11857082
-0.08509307
0.19645631
-0.012482775
-0.02346316
0.0695091
-0.0022712336
-0.042583857
-0.06792916
0.074076295
-0.009789819
0.015102862
-0.0025766767
-0.05715717
-0.028900007
-0.0075874757
-0.21430251
0.32889512
0.21465369
-0.14840458
0.024646292
-0.029846577
-0.03229134
-0.06021714
0.048572294
-0.036197502
-0.056208923
-0.03324245
0.19258042
-0.048778232
-0.26359478
-0.28557077
-0.07886311
-0.18717618
0.02064058
-0.07812941
-0.004140044
0.05941804
-0.006576131
0.01856621
-0.036263812
-0.0071706004
-0.10789211
-0.13007751
-0.44234768
0.35604626
0.12215112
-0.010463477
0.03636863
0.0183567
0.047482066
-0.002318495
0.03678691
0.09055565
0.00027124744
0.10594199
-0.050540246
-0.15525578
-0.096895434
0.08414761
-0.29159674
0.061182905
-0.047310185
-0.0389876
-0.017319828
-0.06897279
0.00425182
0.018307474
0.03768714
-0.041425593
0.0731254
-0.028166326
-0.2829692
0.014708011
-0.120841034
0.064072795
0.014390242
0.035595488
-0.07702785
0.06652996
0.122641325
-0.1814671
-0.008605933
-0.08261368
0.29623765
-0.012941028
-0.123604484
0.22327806
0.013235325
0.01536521
-0.11810946
0.053932574
0.0911359
-0.058744416
-0.03383541
-0.062507436
-0.07639774
-0.12486601
-0.023607135
-0.21353379
-0.26339513
-0.018692097
-0.119091436
-0.16884334
0.20648122
0.007760942
0.102179766
-0.035812747
-0.1865545
0.14840688
0.15163355
-0.23297478
-0.057372157
-0.014491847
-0.1973825
-0.051129684
-0.40208423
-0.020890146
0.086158745
0.015638232
-0.1567789
0.15224947
0.0025640614
-0.10516737
-0.15798117
-0.12309252
-0.052016698
-0.1309989
-0.010031433
-0.03765773
-0.30843014
-0.14990659
-0.19515489
-0.22522686
-0.1838381
-0.018225184
-0.07541089
-0.2827942
-0.058584854
-0.07577778
0.0507238
-0.109234646
0.03212079
-0.05993325
0.030844912
-0.04606581
0.26085806
-0.06878564
-0.16762042
-0.1478215
-0.19573288
-0.10162828
-0.12886062
-0.031594288
0.17921788
0.043580458
0.01910988
-0.01375866
0.35613185
-0.17091611
0.24822503
-0.042930424
0.02330659
-0.004930129
-0.12401467
-0.10278634
0.09557126
-0.10597663
-0.072815455
-0.15533358
0.21444681
0.07975849
-0.21289034
-0.2778247
-0.100823075
0.08002606
0.07589544
0.09166993
-0.088443205
-0.15255216
-0.09529144
-0.022688825
0.011615716
-0.036567368
-0.07922704
-0.15750162
-0.066071905
-0.28250554
0.0973595
0.22803281
0.06751791
-0.0075282105
-0.012894185
0.04305413
-0.0026377672
-0.040807765
-0.1618335
0.09131329
0.015227876
0.79436404
-0.25417736
-0.22993265
0.011295121
0.14256077
-0.09231774
0.073423244
0.09947911
-0.011589834
0.079542644
0.06911657
-0.23473717
-0.25829813
0.1962071
0.00053806015
0.2026054
-0.1845318
-0.109102935
0.026333079
0.009778458
0.002757684
-0.01484777
-0.036111817
0.066968374
-0.06661424
0.10273085
-0.08263618
0.28896806
-0.4225505
-0.2822721
-0.29400742
-0.07833053
0.013626585
0.01871807
0.004093339
-0.16379426
0.06674367
-0.12106331
0.051030114
0.10075944
-0.048851147
0.25945434
0.13448457
-0.12777776
0.03129249
0.1519947
-0.12405359
0.014131545
-0.07266878
-0.020282155
-0.032511618
0.027846852
0.07852651
-0.021809533
-0.2540589
0.13761255
-0.17945555
-0.15055436
0.13790956
-0.02196169
-0.24227056
-0.045218587
-0.04561755
-0.069718555
0.08986078
-0.03493359
0.19645862
-0.0963387
-0.27397516
-0.111588925
-0.07646463
0.16493912
0.014773999
0.0290411
-0.07989481
-0.057296623
0.061691444
0.11907679
-0.017683072
0.054828726
0.04215955
-0.09889078
-0.022915335
-0.13886397
0.1529132
0.1803851
0.07405077
-0.042797264
0.05811934
0.042288132
0.010716903
0.020057235
-0.12807836
-0.12919682
-0.10167847
0.1219144
0.04910317
0.004121661
-0.14771995
0.21217515
-0.14717017
-0.1251393
-0.059219256
-0.08931894
-0.14612126
0.062404778
0.045038115
0.14643171
-0.27631003
0.008169948
-0.16372453
-0.102950074
0.014555174
0.06822
-0.10093988
0.018435154
-0.037809536
-0.13116606
-0.18865964
-0.2602003
-0.15453966
-0.034531977
-0.09971064
-0.3187457
0.04847829
-0.46556452
0.026087413
0.077372685
-0.13702156
-0.058786407
-0.07752762
0.042878363
-0.13587007
-0.074553445
-0.38557324
-0.3118066
0.22753255
-0.030498324
-0.31017518
-0.024116032
-0.0632064
-0.0045799613
0.00041171376
0.09326819
0.0020881784
-0.08209207
-0.098943524
-0.01074067
0.08873515
-0.05342078
0.015930729
0.061223872
-0.014931841
0.015795283
0.022300432
0.23343049
0.14288022
-0.13262625
-0.11589434
-0.33692116
-0.11043376
-0.1449558
-0.19144376
-0.21295501
-0.22486663
-0.23203912
-0.14445779
-0.29820603
-0.10285087
0.3127571
-0.15366048
0.04292353
-0.27486646
-0.20755124
-0.025721544
-0.13754655
-0.15383713
-0.1976555
-0.07948639
0.13091753
0.045993004
-0.120679945
0.016411413
-0.30488455
-0.0008465278
-0.012863567
-0.068155214
-0.118152365
0.012980488
-0.063131556
-0.027638847
0.076559946
0.08461724
0.30632508
0.2379841
-0.16828142
0.090808764
-0.0005927749
-0.07058781
0.03328457
0.07722623
0.05525245
0.06055244
0.2187866
0.094611414
0.044580635
-0.06483267
-0.013876343
0.11068506
-0.18172774
-0.00025164412
0.06516319
0.11348238
-0.098732464
0.03752919
-0.06801369
-0.31802756
-0.09157561
0.005234849
0.01716107
-0.16108054
-0.19460902
-0.28885946
-0.037049487
-0.18429938
0.054575052
0.005803974
0.11878777
0.113764726
0.044507228
0.03282144
0.013324794
-0.103281476
-0.25869453
-0.08062666
-0.19467714
-0.4219643
0.2795696
-0.345769
-0.120009236
-0.20058064
0.012244823
0.08996622
0.121261
0.15231739
0.037558705
-0.0043726144
0.14741565
-0.009880815
0.06765723
-0.10767151
-0.24045514
0.060427558
-0.1885197
-0.10676351
-0.037546307
-0.19981867
-0.074275
0.13042493
0.051421043
-0.041301463
0.13772513
-0.00086319563
-0.040006615
0.19099593
-0.55817467
-0.28287837
0.008194688
-0.14141357
-0.12649536
-0.06622943
-0.13016419
-0.07140107
-0.1263311
0.051561873
0.14775647
0.09970767
0.26082554
0.2232733
-0.16512014
-0.4015438
-0.08047824
-0.13069516
0.063448735
0.068497926
-0.002726273
-0.0053194445
0.08866565
-0.0053210733
0.052363385
0.111753486
0.1426231
0.036279444
0.24439764
-0.12175012
0.19488773
-0.09114127
-0.0028125185
-0.0302459
-0.08014867
-0.07413927
0.043065768
0.14013787
0.030942349
0.2628571
0.0067780907
-0.30190438
0.12525854
-0.0016221745
0.049202666
0.0036618072
-0.045801047
-0.11069598
0.054758567
-0.023440415
0.09072057
-0.16830708
-0.36842838
-0.3150426
-0.14167757
-0.39819074
0.12935293
0.020818677
0.07291935
0.44086146
0.32242393
-0.057284296
-0.48581976
-0.16044885
-0.049242012
0.03305747
0.26251283
-0.16626947
0.01881963
0.107331574
-0.025620665
0.031551182
0.007294851
0.06949742
0.062260922
-0.04052919
-0.24107037
-0.2629047
0.030956224
0.053487256
0.139291
-0.044527203
-0.017902281
-0.04316508
0.062671036
0.061169192
0.37138683
0.0014312492
-0.033637885
0.056600846
0.13404562
-0.12805118
-0.20868894
-0.05234317
0.1811747
-0.35172796
-0.0046783956
0.04232302
-0.16926396
0.005025309
-0.07283429
0.08287537
-0.075105466
0.061023075
0.037605997
0.008089433
-0.033593953
-0.028381728
-0.15629606
-0.027013157
0.0007373759
0.0025133337
0.25035736
-0.018303785
-0.22247174
0.06783269
-0.1097765
-0.1317442
-0.007277406
0.032972805
-0.0025759009
0.035373952
-0.05270678
0.06419458
0.14686745
-0.32225314
-0.012646085
0.6295184
-0.18079036
0.0860548
0.047924556
-0.09760383
0.009657758
0.036616776
0.14319898
0.034786418
-0.119189665
-0.0019856447
-0.09235706
-0.43549377
0.25902852
-0.40502375
-0.17228697
-0.19220366
0.072354294
-0.026453728
0.19106756
0.0135314185
-0.02138287
0.09122478
-0.10296539
0.01394309
-0.04750638
-0.39279
0.14753729
-0.30976358
-0.062122818
0.06119393
0.010704319
-0.0712442
-0.029168842
-0.19164628
0.008981869
-0.19079642
0.04951083
0.054814693
0.060456164
0.14214368
0.26931095
0.10806006
-0.2583648
-0.040925466
0.007622851
-0.15627177
-0.014731159
-0.086101845
-0.010865666
0.07833393
0.09079921
0.16731207
0.13358349
0.105802216
0.04833857
-0.40147445
-0.19771937
0.005544242
-0.14726524
-0.021217002
0.14457859
0.14819188
0.112927295
0.03114549
0.092787534
-0.052708235
-0.10410788
-0.17700557
-0.50400907
-0.068978734
-0.1710919
0.093129866
0.02794532
-0.07319324
0.07336148
-0.04607607
0.006852331
-0.044379562
-0.05487393
-0.27491885
-0.27916375
0.0017214967
-0.1311588
0.09476677
0.1735187
0.23886093
0.10316512
-0.11895148
-0.19987413
-0.06913289
-0.15302715
-0.16150491
-0.0031104013
-0.07197184
-0.05954286
0.064245746
-0.07494124
0.08602868
-0.10302559
0.061400287
-0.093386054
-0.016957734
-0.011823513
0.032083705
-0.0733397
0.08346176
0.013461003
-0.13234055
-0.12402136
-0.028914299
0.24058531
0.021069417
0.10792255
-0.3823086
-0.3155474
-0.22478065
-0.16305861
-0.2112689
-0.13103224
-0.33389193
-0.13185735
-0.32587826
-0.22796053
0.012155385
-0.1180446
0.06654684
0.052802168
-0.087592624
-0.23945987
-0.19031295
-0.2842605
-0.040454384
-0.1767149
-0.17935553
0.02987258
0.019741556
-0.22224727
-0.050155286
-0.04354226
0.010834864
0.06760776
0.051754087
-0.01619434
0.08377625
0.10871705
0.0018773536
0.00042759586
-0.15206613
-0.1873244
-0.33351526
0.02131432
0.020032203
0.06696187
0.059998106
-0.20752153
0.0820942
-0.121545054
-0.06639687
0.09406018
-0.0719234
-0.31296897
-0.09781447
-0.1035535
-0.16165523
-0.07848299
-0.013317552
0.070432365
-0.13217162
-0.04710524
0.045673307
-0.023000909
-0.05949802
-0.071370475
-0.04855082
0.09716777
0.0018278507
-0.009355273
-0.12756301
0.11029498
0.027062489
0.061412193
-0.13436712
-0.11257507
-0.06394342
-0.067911774
-0.016841492
0.05562473
0.100537345
0.053256296
-0.070949815
-0.01688703
-0.040944207
0.049705114
-0.27569187
-0.09042642
-0.12740122
-0.0056552584
0.037399713
0.00067720463
-0.064361945
-0.06680406
0.079179995
0.012478977
0.017484164
-0.15544765
0.02506354
-0.008115148
-0.26081112
0.16291727
0.31233197
1.7389284e-05
-0.05836022
-0.13850148
-0.045506097
0.12235239
-0.027762871
0.08187462
0.004253446
-0.0046444987
0.07098724
0.02215358
-0.5367076
0.3720806
0.20043541
0.37821123
-0.11465354
-0.07681065
0.071084626
0.058358748
0.04640457
-0.05478858
0.06175298
-0.110618725
-0.096060924
-0.07945637
0.07632936
0.11318851
0.028304674
-0.09313408
0.33530104
0.019330477
0.0356236
-0.024748905
0.06694441
0.08468726
0.051364142
0.0060907668
0.0128770545
0.02979583
0.01478948
-0.20478688
-0.3138903
-0.073038645
0.018532012
0.051453143
0.05676772
0.09160557
-0.03904079
-0.024066499
-0.00430903
0.0065917294
-0.05025815
-0.10294418
-0.2847115
-0.059979808
-0.14538586
-0.17347147
0.10082766
0.15842381
0.04698112
-0.035118382
0.041287947
-0.14210236
-0.06492633
-0.08546108
-0.15757702
0.1203198
-0.39807257
0.14381586
0.022065455
-0.05213729
-0.19733216
-0.030738309
-0.04734213
-0.057362355
-0.004207202
-0.034920458
-0.02861777
0.07175463
0.02686469
0.030582609
-0.19955651
-0.0975456
-0.08259621
0.058246087
-0.034777474
0.039859265
-0.03692605
-0.0014590559
-0.15237953
-0.055341028
0.01389756
-0.0059177326
-0.1803857
-0.23453343
-0.011370744
-0.2221466
-0.007026494
0.1565213
0.19636793
0.0010698854
-0.10932022
0.018378606
-0.03318346
-0.068861686
-0.2589325
-0.11629503
0.0019990916
-0.03264869
-0.1638253
-0.045381695
0.053234477
-0.30855897
-0.10168338
0.14588857
0.032949377
-0.14361712
0.021195112
-0.17469338
-0.17199606
-0.09301596
-0.059726015
0.060898025
-0.20341772
0.013830067
-0.0032176718
-0.0025885277
-0.1706362
0.15145703
0.24965364
0.034250468
-0.13650091
-0.14879152
-0.100528136
0.026559876
0.20747164
0.22098772
-0.053934645
0.0030620696
-0.0066257208
0.1731288
0.02807972
-0.085676424
0.043960895
-0.060120087
-0.10452556
0.024583379
0.11971698
-0.011717905
-0.04873742
0.004259855
-0.08656162
-0.36020333
-0.12354295
-0.030938005
-0.053870104
-0.02550586
-0.20858227
0.054502755
0.0076810503
-0.026185038
-0.07534912
-0.0824179
-0.1723813
0.0021822285
0.021473499
-0.4300426
-0.29232353
-0.015505419
-0.139074
-0.13018794
-0.035137523
-0.0033560058
-0.015255063
-0.010415412
-0.06914647
0.04943282
0.045174006
0.03646682
-0.024055332
-0.26895347
0.13910867
-0.17251086
0.0876945
0.2086434
-0.13222831
-0.07624354
0.094341286
-0.098285355
-0.038776856
-0.052033402
-0.13277759
0.04144093
0.06393083
0.13422526
0.021100683
-0.25302663
-0.23979986
-0.06871242
0.09955526
0.056026813
0.0014086567
-0.0865701
0.06294958
0.080322705
-0.19318618
0.14899361
0.1065978
-0.19904539
-0.029371897
-0.04340434
0.0067409067
-0.11578522
0.117211826
-0.15330443
0.0878065
0.058974296
-0.02020903
-0.15998861
0.029181648
0.06735225
0.008814776
-0.0036854285
-0.32917038
0.066373326
-0.18817607
-0.061243307
0.07328339
-0.19831586
0.027348958
0.026171535
-0.10738214
-0.011609884
0.16781145
-0.09328538
-0.07566507
0.15548152
0.05529661
0.039165437
-0.06659276
0.053748764
-0.050234467
-0.1975468
0.02257905
0.0835345
0.028537383
0.17003053
-0.028927645
-0.16345517
0.115489416
0.02875307
-0.12962277
-0.031204935
0.0049102195
0.085105896
-0.041709125
0.14631265
0.0422858
0.020628214
0.006240229
0.031371035
0.13760482
0.068230785
-0.037032854
-0.4784709
0.30571422
0.011545101
0.07575932
0.1414242
0.02863478
-0.12228795
-0.105253875
0.05879116
-0.17035083
-0.13982025
-0.032019366
-0.042370502
0.015267366
-0.12181663
-0.09728974
-0.14068654
-0.077663675
-0.0027926574
0.11568745
0.0054121856
-0.029661953
0.09934647
0.009676028
-0.02964017
0.108869106
-0.10320795
-0.04801558
-0.14689606
0.033516552
0.16111602
-0.07701742
0.059719604
0.07225881
0.008878216
-0.005247545
0.08510807
0.08518962
0.1946621
-0.17861384
0.046348855
0.031645898
0.18731113
0.030724987
0.11408106
-0.10946544
-0.1350555
-0.051860265
-0.23925945
0.085392356
0.13973416
-0.0064151203
-0.21878698
-0.007345744
-0.07363193
0.016219413
-0.012495595
0.031537738
-0.0018650976
0.12203898
0.22625783
0.20415935
-0.061525315
0.15083508
-0.012770628
0.112644024
0.124079354
0.02839843
0.14504224
-0.046958007
-0.03205023
0.019026315
0.32420412
0.24852462
-0.14065525
-0.19202973
-0.09970098
0.038481537
0.06238503
0.017042806
0.012231538
0.13180499
0.12829757
-0.031412546
-0.06379396
-0.13494755
0.06713958
-0.16701782
0.009111426
-0.053877424
0.1193643
-0.05756458
-0.0038632022
-0.07066493
0.0017872122
-0.0012605239
-0.11725878
0.06695507
-0.38327518
-0.1612539
0.13763699
-0.09834412
-0.06975056
-0.1341808
0.021262456
-0.015487197
0.085456155
0.070666574
-0.050650284
-0.035105117
-0.049501054
0.10513161
-0.071669385
0.19406064
-0.044757683
-0.04182051
0.035210803
0.14028566
0.085414484
-0.070635505
-0.031825837
0.09823135
0.04832264
0.068693474
0.15787208
0.14527266
-0.0037305874
-0.22701256
-0.121518284
-0.023311026
-0.15465501
0.04060608
-0.059768822
0.08260955
-0.022393
-0.04865549
-0.015199439
0.07581163
-0.21133907
-0.09381037
-0.12287826
-0.2609064
-0.07012033
0.033761155
0.083946675
-0.061912436
0.044769835
0.0057310453
0.030557696
-0.012544889
-0.045360412
-0.01621668
0.048172195
-0.16713741
-0.15069158
-0.23967291
0.16811103
0.09090313
-0.07017199
0.026080236
-0.054397594
-0.07582814
0.05455236
-0.0041576494
-0.06111074
0.030527057
0.05117374
-0.08166094
0.026900021
-0.34096774
-0.019088317
0.030545745
-0.061387815
-0.060868658
0.05242728
-0.025909659
-0.2115613
0.06960021
0.041155804
-0.00643628
0.046102893
-0.24716657
0.013456583
-0.44365156
0.0008850916
-0.11695619
0.052774563
-0.028850093
-0.098924644
-0.008181241
-0.061259855
0.019185614
-0.15268087
-0.05428105
-0.054814123
-0.20629275
0.027903657
-0.26987147
0.020306224
0.08893937
-0.009730286
-0.10320731
-0.03422832
0.061490618
-0.100770615
0.052850723
-0.10549196
0.058346763
0.16517837
0.1767191
0.14978908
-0.15290773
-0.13715205
-0.0337468
-0.16824517
0.034078006
-0.08115958
-0.057256788
0.10576761
-0.13115747
-0.03562978
0.03476785
-0.095346555
-0.15204059
0.24711597
0.00260411
0.10559525
-0.29182932
-0.13995269
0.038504954
0.042178344
0.05864567
-0.21922015
-0.0801424
0.013483404
0.10021504
0.010031058
-0.13200419
0.080315426
0.037069082
-0.08358336
0.09509237
0.009403208
-0.17537732
-0.08488752
-0.16236505
-0.00091967854
0.15742531
0.0032834061
0.024920149
-0.05487025
-0.15587804
-0.00070818834
-0.008497562
-0.023493445
-0.027249556
-0.24288376
-0.11101369
-0.14525473
0.18138206
0.24169427
-0.09387768
-0.070227444
-0.17064075
-0.082609855
-0.032530658
0.04026558
0.017938504
-0.19842282
-0.023309499
-0.45672753
0.046555284
-0.06421364
-0.048003312
-0.17504975
-0.25064725
-0.015788121
0.25641513
0.2743852
0.14980607
-0.20755409
-0.08335528
-0.19109583
0.066820376
-0.17796768
-0.044098303
-0.1611537
-0.16837929
-0.111536
-0.13435358
-0.023453323
0.165455
0.23108011
-0.009812441
-0.1989078
-0.02078422
0.040320452
0.08452416
-0.040697955
-0.020657727
-0.18207295
-0.20320255
-0.029776543
0.009123877
0.14937252
-0.09381474
0.0844545
0.11903531
0.11365517
-0.109097935
-0.17622773
-0.08114824
0.0073210075
-0.03836638
0.023163
-0.07683143
0.22461931
-0.0028972523
-0.072206214
0.06666972
0.060471762
-0.19959384
0.051488314
0.11862838
-0.14720316
-0.02849932
-0.05404728
-0.04536955
0.01792042
0.029416362
-0.0031401555
-0.009968533
-0.07395482
-0.1741405
-0.19057415
-0.0563845
-0.0054960344
-0.33682218
0.16275266
-0.13040088
-0.24970281
0.011151467
0.14320335
0.07840672
0.009171207
0.08837066
0.01864798
-0.109227896
-0.10961138
-0.069329016
0.014418588
0.16482376
0.0029853166
-0.085296705
-0.12873153
0.1527632
0.09980808
0.07436987
0.026442036
0.070218205
-0.07346794
-0.12974474
-0.096165374
0.22512324
0.16584203
0.14752926
-0.05094712
0.09479201
-0.050527263
0.014554632
-0.064609736
-0.048442394
0.049228437
-0.005509697
-0.07054893
-0.008680458
-0.072506525
0.2075044
0.17941001
0.06069433
-0.29879522
-0.0092684
0.005627067
0.11500981
-0.09155703
-0.02085047
0.012177628
-0.06186399
-0.032833073
0.1052726
0.22402677
-0.104210734
0.3575155
0.02172719
0.18101513
-0.007316701
-0.035092607
0.0045009633
-0.008207446
0.056902375
0.012946977
0.08030656
0.08686531
0.2577596
0.086806245
-0.33820263
-0.22711146
-0.056673687
0.1392685
-0.030159088
-0.38020536
-0.1683718
-0.01011183
-0.040549036
0.006762876
0.04257843
-0.09314028
-0.27363956
-0.18842696
-0.19855912
-0.1363309
-0.00071455754
-0.008980705
-0.024166973
0.021162456
0.12299364
0.14519642
-0.18040982
-0.1923189
-0.06988073
-0.18252757
0.04202921
0.056524184
-0.18457976
0.1513629
-0.04424928
-0.21727738
-0.18172668
0.08994718
-0.1983772
0.0056403778
0.048637006
0.060159404
-0.23839253
0.00449014
-0.16704158
0.17128332
-0.019289637
-0.066887416
0.07062494
-0.024702372
-0.024664506
0.05933304
0.08985414
0.20060635
-0.06483371
0.30497327
0.094779246
0.038960297
0.06405858
-0.020079365
-0.004249513
-0.060360305
0.035593607
-0.035870258
0.044680495
0.08218422
0.11587534
0.023624334
0.02764956
-0.25094822
-0.04825703
-0.120438024
-0.06452353
-0.019138765
0.021014048
0.17131454
0.030209286
-0.007908446
-0.26968676
0.13881773
0.02708775
-0.05982212
-0.029349316
0.07625782
0.0075356457
-0.06340836
-0.053580485
-0.090078965
-0.22393557
-0.031429917
-0.25946653
0.16960377
-0.24229221
0.07056466
0.05552811
0.02781504
0.00080081983
0.0046004467
0.09407544
0.026879475
0.0155709395
0.08559114
-0.046089377
-0.07807252
0.19339652
-0.25702623
-0.01001808
0.003272122
0.009535568
0.046884473
0.036225677
-0.048182208
0.106072366
-0.058817983
-0.1334843
0.0407036
-0.14710729
-0.0902581
0.115475476
-0.23907447
0.220448
-0.019700455
0.036277983
-0.060663197
-0.008251119
-0.03816394
-0.11602963
-0.08010156
0.031269103
0.032550387
0.028983494
-0.2542507
-0.0064742053
0.1482045
-0.11397408
0.0446536
0.10598889
0.042971186
-0.17185016
-0.09189191
-0.18052126
0.014787261
0.0496769
-0.030132737
0.10243321
0.21322146
-0.095823735
0.0019064206
-0.113085344
-0.10918027
-0.043599114
0.097555436
0.0141621865
-0.036835216
0.03906523
0.0923596
-0.020335462
-0.26295835
0.15008649
0.13429466
0.008726927
0.023734659
-0.058458164
0.010249665
-0.2045483
-0.006218992
-0.005971177
-0.05101107
-0.00017449012
-0.010957612
-0.029845161
0.09651038
0.14999121
0.34647393
0.0033353313
0.0362637
-0.14580442
0.016264375
-0.029233221
0.07913314
0.094382316
0.03340089
-0.08515612
0.009717739
-0.065766364
-0.13423406
-0.1802354
0.11906084
-0.108781554
-0.17875807
-0.06802401
0.07470507
0.14767554
0.007434832
0.046841618
-0.047129873
0.055296965
-0.09438088
-0.20321263
-0.17634454
0.00013126519
-0.07140844
-0.19683152
-0.003512378
0.28321862
-0.073214665
0.04320658
-0.14188495
0.0028863398
-0.064850576
0.0048987395
0.07272452
-0.042216834
0.037299044
0.052708797
0.08653855
0.021026118
-0.02610015
0.23345254
-0.15214564
-0.0382307
0.060716737
-0.004705422
-0.013211941
-0.032356754
-0.10517351
0.14529414
-0.071913354
0.055385213
0.022865722
-0.023312962
0.3242665
0.0866234
-0.19103251
-0.1513932
-0.11453243
0.064632155
-0.080054395
-0.06258749
-0.074470505
-0.08822929
0.18934584
-0.0146231735
0.03869634
0.020950336
-0.07141207
0.052241385
-0.15428126
0.0315003
-0.1354613
0.08320208
0.036288317
-0.23864491
0.2298282
0.055234578
0.074722104
-0.0409961
0.06899263
0.030417869
0.058854286
0.46087477
0.067128934
-0.095022306
0.118828945
-0.05162184
-0.13564931
0.0028291051
0.067111075
0.06655599
0.16395147
-0.06626742
-0.053751502
0.063735016
0.050020076
-0.07903494
-0.02518266
-0.03780346
-0.12907292
0.11721908
-0.041041955
0.06004265
0.028086016
-0.06662396
-0.026800012
0.13418008
-0.021758394
0.1839539
-0.07442091
0.09717659
-0.051673744
-0.018681493
-0.05525987
-0.11370935
-0.032399263
0.019749735
-0.0036724226
-0.052338276
-0.027346032
0.090750284
0.13978639
-0.15117104
-0.12969582
0.18312085
0.08913959
-0.0027097487
0.01975171
-0.021295883
-0.0347345
0.047239553
-0.0036889208
-0.05277567
0.12597197
-0.15176634
-0.24185006
0.024365274
0.041645043
-0.16265008
-0.116318345
-0.10029826
0.027429039
0.084556945
-0.04548487
0.07679172
-0.119575344
0.05561435
-0.018410003
-0.117856205
0.11705235
0.13322695
-0.42450407
0.018606948
0.06175181
0.020589096
0.01190352
-0.093149245
0.047677603
-0.048606675
0.07822284
0.106673844
-0.08882249
-0.21674636
0.013608694
0.15289849
0.2437029
-0.031474426
-0.049353447
0.021959953
-0.0015909337
-0.070771046
0.0716612
0.058790267
0.0019519371
0.012505119
0.005589453
-0.095709994
0.15736009
0.5158524
0.06989737
-0.052055646
0.06308721
-0.11520903
-0.012910475
0.04045613
-0.015226082
0.044969786
-0.13558148
-0.0066743586
0.18514514
-0.054936778
0.10336725
0.009304038
-0.015584419
-0.07595766
-0.030881755
0.08543512
-0.1094132
-0.002157757
-0.03694889
0.030027384
0.027920486
0.002588685
0.00355999
0.019605799
0.18933643
-0.14472899
0.15416478
-0.111565866
0.014716112
0.026077013
0.023785545
-0.05115171
-0.11443985
0.044159934
-0.111036666
-0.044506725
-0.09481005
0.06832289
0.1813776
0.026757667
-0.076020844
0.0115317525
0.110523656
-0.08959201
-0.07955728
0.0070604575
0.07317661
-0.08012148
0.039347816
0.045941133
-0.007574986
-0.056200694
-0.19190429
-0.016169379
-0.49411523
-0.074924424
0.09565163
-0.101615824
0.033283688
-0.045704022
0.010167197
-0.10564677
0.07264339
-0.2937619
0.0065341773
0.2025714
0.074814074
-0.07073161
0.017122101
-0.21660106
-0.1654336
-0.025833838
0.04799256
-0.2035835
-0.15093827
0.08270584
-0.4140018
-0.10561531
-0.029326746
-0.23640957
-0.06418332
0.065880775
0.06797886
0.15403453
0.04851045
-0.20689823
-0.033914037
0.042644773
0.062701724
0.08064551
0.11810149
-0.08334726
0.18738076
0.070122585
-0.04337948
0.05047043
0.05029908
0.13027976
-0.11967042
0.13500786
-0.12083465
0.1021713
-0.044599522
0.008051246
0.023108514
0.018035037
-0.11788227
-0.024728583
0.27208894
0.018605046
0.16245691
0.095836416
-0.070579454
-0.004228646
-0.027704604
0.02142986
0.0155828465
0.016421132
-0.031155175
0.02911811
-0.016384263
-0.03345686
0.07242011
-0.05383028
-0.03169968
0.026237091
0.018828943
0.04126428
-0.025129505
-0.015257516
-0.022247905
0.01015441
0.043872166
-0.024235884
-0.0071234265
0.020561026
-0.15432903
-0.009754002
0.013012187
0.022815423
-0.03758959
-0.012679511
-0.0018797537
0.040015962
-0.007179373
-0.0033284104
-0.022511674
0.07351493
0.015175629
0.08714079
-0.2101934
0.18178101
0.13809702
-0.01269947
0.0049895872
0.04632269
-0.042306483
0.041878182
-0.00051313173
0.00089499657
0.022097275
-0.02301247
-0.015060785
-0.04728288
-0.05184533
0.13935839
-0.041776743
-0.09805312
0.006349144
-0.012657377
-0.007555107
0.06884119
-0.06225471
0.038994014
-0.0015951934
-0.0039755465
0.07097709
-0.05460533
0.10178751
-0.15779603
0.17552023
0.044106927
0.005929517
-0.0015400632
0.016282842
0.014376703
0.05620584
-0.03717509
0.004008355
0.057659548
-0.03682837
0.035747766
0.22726521
-0.035028353
-0.10312161
0.0051344885
-0.035490476
0.020388927
0.024234891
0.019960497
-0.043922123
-0.017212335
0.013603223
-0.06386489
0.05249878
-0.030259639
0.3897889
0.20331948
0.17559816
-0.11509443
0.060671017
-0.0033973886
-0.08862974
0.049258627
-0.02710691
0.031800244
-0.08260402
0.029422881
-0.009892089
-0.08834555
0.22986825
0.08386238
-0.07902706
0.05721491
-0.0034834284
-0.06325871
0.035937384
0.05057353
-0.065023504
0.05510049
0.007186441
-0.007935711
-0.057086434
0.07041564
0.071519315
-0.07712542
-0.14161254
-0.018092476
0.014825444
-0.031089518
0.059283465
-0.04711184
0.018251726
0.049831707
-0.029020611
-0.04253951
0.05345103
0.025057565
-0.16229156
0.057908878
0.16124354
0.15795651
-0.062270433
0.015515865
-0.029277323
0.042518236
0.00092710205
-0.086862534
0.0037964447
-0.03917782
0.0928118
-0.036356352
-0.13265644
-0.023203868
0.060496066
-0.035670333
-0.05484326
0.118791305
0.023668038
-0.11093105
0.07142638
0.015213079
-0.091352694
0.18404348
-0.1107909
-0.027640734
-0.014685852
-0.008286247
0.01614449
0.019356461
-0.23322432
0.08237687
-0.15111974
-0.028924277
-0.16898763
-0.00051122584
0.15622143
0.013299774
-0.11529941
-0.017055137
-0.032523047
0.02624804
-0.185316
-0.16755427
0.16601135
0.08342195
0.14739117
0.00804729
0.15898308
0.19485228
-0.0035592595
0.14142986
0.50777805
0.14292178
-0.0028471558
0.008215111
0.1180357
0.16096066
-0.0811404
0.039683048
-0.09771539
-0.014582313
-0.13163312
0.022976471
0.008871217
0.010071792
0.034587268
0.24209197
0.27093142
0.06124786
-0.04177212
-0.13033251
-0.009705295
0.051977746
0.01948084
0.04617124
-0.05223131
0.12502012
-0.03756763
0.040471766
0.02877558
-0.048470467
-0.013409874
-0.46451446
-0.19051541
0.022226444
-0.03167232
-0.0214643
0.032270484
-0.038687773
0.09020471
0.0020816973
-0.03274272
0.021190703
-0.22855902
-0.058661122
-0.069815286
-0.12064034
-0.21656454
0.11187586
-0.074794196
0.14101647
-0.14914703
0.00056809053
0.017950973
0.10642192
0.02599989
0.11737697
0.075949825
-0.03851849
0.00032236887
-0.18466716
-0.1689932
-0.07712395
0.01896668
-0.0066943993
0.13407025
-0.2117308
-0.047926646
-0.08917033
0.011382937
-0.026906952
0.14764792
0.09006621
0.15350257
0.022457048
-0.10196816
-0.07455003
0.03603093
-0.023708973
-0.14754683
-0.070621274
-0.03688015
0.03551998
0.009135947
0.034243356
0.02066695
-0.039538674
0.038400643
0.19378984
0.2865781
-0.24045445
-0.009407056
-0.0139603205
-0.100843914
-0.081718765
-0.099549256
-0.052692134
0.0012590832
-0.04043925
0.0449458
-0.10325162
0.1322681
0.2619386
0.14983764
-0.06330202
-0.013066761
-0.081774056
-0.07401504
0.113406144
-0.04433189
0.0607211
-0.10256143
0.11390705
-0.19314799
0.12079954
0.09869187
0.066490844
0.09760626
-0.087817974
-0.15547948
0.006393182
-0.011918257
0.06372058
-0.0101596145
-0.018373499
-0.08474205
-0.10904775
0.052880406
0.25348368
-0.12846251
0.02832962
-0.10517612
-0.13128237
0.23642057
-0.063691996
-0.11441424
0.055775277
0.006017776
0.014979927
-0.1321606
-0.06619672
0.059945863
0.02570846
0.050483074
0.05716048
-0.6808522
0.14492773
0.04017964
-0.074430965
-0.017597008
0.04216159
0.081523284
0.08294068
-0.16747613
-0.24613272
-0.2223296
-0.24144347
-0.039246157
-0.018302629
-0.14194518
-0.060166094
-0.018849581
0.013912185
-0.03088952
0.025063185
0.04116374
-0.07647422
-0.16921471
0.039524615
0.26903564
-0.028556041
0.07018053
0.053097513
0.06914632
-0.17889374
-0.13424496
-0.069270685
-0.12734449
-0.03869711
-0.13809283
-0.082965225
0.1411895
-0.005847767
0.124242865
0.00448066
0.018723173
-0.0009991017
0.082607366
0.21843657
-0.13378833
-0.18502165
-0.18103728
-0.07741324
-0.13548635
0.012683351
0.13749778
0.08783863
-0.19473322
-0.10277988
0.17747003
0.05568727
0.13906752
-0.013113662
0.03935543
0.20847279
0.024723658
-0.05412033
-0.19605088
-0.031251933
0.10676508
0.12016834
-0.1139365
-0.076436505
-0.08614623
0.14793916
-0.11632159
-0.025244275
0.015866483
0.03994307
0.0070829634
0.09625909
0.0325219
-0.08059934
-0.021704199
-0.010954594
0.010655667
-0.07276302
0.14204448
-0.0983012
-0.22849734
0.056828856
0.071583405
0.052136626
-0.08590625
-0.00028993946
-0.026738286
-0.07493658
-0.063275784
0.12756167
-0.016574375
-0.04111118
-0.035019748
0.04783993
0.048124995
0.016443605
-0.035362095
0.038699992
0.0059441472
-0.0040572644
-0.032428466
-0.06800424
-0.052282747
0.005041766
0.0017800393
-0.06688166
0.033634193
-0.06566758
-0.16605464
0.06912239
-0.23956297
-0.08865797
0.023311222
-0.022092305
-0.028302854
-0.0492772
-0.004109679
-0.019119622
0.057398345
-0.36866152
0.053202193
0.27067396
-0.14347498
-0.08187589
0.010626799
0.035353824
0.029666673
-0.12896642
0.007963762
0.055338234
-0.0053183273
-0.16777974
0.0847494
-0.3232003
0.082718186
-0.094095595
-0.16580871
0.10937526
0.009919527
-0.056938298
-0.09963397
-0.08657916
-0.015801083
0.030238612
0.062753275
-0.020007739
0.047207985
0.15501635
0.20039953
-0.17317003
-0.071710385
0.05171612
0.20511785
-0.071444675
-0.00841818
0.054392677
-0.048143927
0.041863084
-0.08297606
-0.084108725
-0.067763016
-0.13004778
-0.026794108
-0.2913859
0.21445122
-0.3414895
-0.097004324
0.091568634
0.073773794
0.056730058
-0.0052222027
0.18166627
-0.14012516
0.03344812
-0.012646741
-0.12566388
0.048072733
-0.011153848
0.27165717
-0.14367849
0.0553325
-0.08298168
0.060983434
-0.069967635
-0.11908298
0.15957785
-0.05248501
-0.17094356
-0.13440779
0.08459718
-0.075386025
0.009900894
-0.29748347
0.09761772
-0.06862793
-0.059804812
0.017710246
0.08333512
0.12642483
0.09572807
-0.10916115
-0.35515758
-0.32853055
-0.057970863
-0.017520025
-0.004527135
-0.17889151
-0.24893656
-0.08602555
-0.14781462
-0.30577806
-0.12794487
-0.48789668
0.026409624
-0.010210649
0.04282745
0.010921971
0.025483785
-0.039814994
0.01229385
-0.022986643
-0.07008309
-0.04533895
0.00330089
-0.08701994
-0.12310739
-0.116523266
-0.2843388
-0.24006946
-0.11291412
-0.020523846
0.06419472
0.025245156
-0.054997534
-0.0692091
-0.12866057
-0.005630751
-0.13466525
-0.043018717
-0.04413119
-0.22782716
-0.129803
-0.21200341
-0.46711132
-0.31324792
0.19987789
0.034277655
-0.1541058
-0.07863734
-0.08945908
-0.015310208
-0.024159996
-0.060505595
-0.0019371524
-0.060309418
-0.035252772
-0.17922641
0.042182606
0.052294724
0.005743717
0.08870685
0.06264102
-0.12691307
-0.22481646
-0.09494558
-0.11173166
-0.10520442
-0.06619404
-0.08275418
-0.038046382
-0.14221418
-0.006434442
0.038026292
0.14110507
0.09556476
-0.036994606
-0.4599295
0.008436624
0.0135136
-0.0067731757
0.05396264
-0.05823134
0.18421675
-0.009813711
-0.17548773
0.07716222
0.34895596
0.1963404
0.08221931
0.33437255
-0.086787015
-0.17744902
0.038452573
0.08058438
-0.01770664
-0.157789
0.07658083
-0.043388847
-0.029385056
0.07097619
0.108044356
0.20323636
0.07355711
-0.18208489
0.0693596
0.08240454
0.07333994
-0.05165364
0.114092134
0.0037573436
-0.03225039
-0.08582716
-0.12689109
-0.13761966
-0.22514208
-0.29143563
-0.11692244
-0.28123653
-0.0014417254
0.2841289
0.11378239
0.09852819
0.17214368
0.11593556
0.10856734
0.116449334
-0.052700695
-0.37544346
-0.4381573
-0.28803062
-0.075622745
0.42037463
-0.15742058
0.084664464
-0.02100773
0.071374126
0.10251961
0.11515869
0.101744235
-0.071982205
0.009053662
-0.18917963
-0.015632233
-0.43383133
-0.14920859
0.09059392
-0.095700786
-0.14014104
0.042021662
0.016016668
0.11281606
-0.20525368
-0.07214729
-0.04319949
0.075070746
-0.015115998
-0.16721663
-0.06372607
0.1355798
-0.02611296
-0.07483851
-0.18729922
-0.048363462
-0.10409096
-0.012887488
0.028985577
-0.060740493
0.03106564
-0.02839035
0.042414658
-0.23276371
0.036628593
-0.07664365
-0.109445885
-0.17491184
-0.093941264
-0.13250636
0.042991232
-0.006729566
0.047179047
0.13973293
0.12075313
0.12142208
0.003459342
-0.6451722
-0.033403743
0.1091325
-0.05316756
0.24766429
0.36321974
0.06127543
0.12010542
-0.11595281
0.0404245
0.03819682
0.20221
0.16312274
-0.23445049
-0.12733921
-0.010903955
0.06898647
-0.029561078
-0.02700151
0.02961732
-0.03778993
-0.20739405
-0.53110176
-0.0035583752
-0.19316128
-0.20659906
-0.09849435
-0.2036919
0.0026751095
0.013520765
-0.061097343
-0.04840462
0.020169914
-0.06552643
-0.15468228
-0.108767
-0.22140934
-0.20434566
-0.25247306
-0.0022731817
-0.02774686
0.08038277
0.07521137
0.064704716
0.03446306
-0.03565424
-0.0656146
0.09558782
0.01606149
-0.2269429
0.17670448
0.09500912
0.17227508
0.008810921
0.13005254
0.06378862
-0.043844055
0.19362433
-0.019862711
0.15543614
0.11495203
0.10124653
0.120633386
-0.021042256
-0.034760267
-0.056676224
-0.06555806
-0.11503404
0.007814568
-0.0057626315
-0.14889184
0.0147046335
-0.24561085
0.09398422
0.011759837
0.071283355
0.01757771
0.11135606
-0.11855464
-0.04264199
-0.13043512
-0.010461871
0.0014136606
-0.03622795
-0.19893807
-0.059747826
-0.096086614
-0.22998892
0.15974687
-0.115853935
-0.027096154
0.05748635
0.031252395
0.04811739
-0.06125526
-0.058514293
-0.056276005
-0.09703334
0.02700302
-0.031878594
0.12289495
0.00215936
-0.056170717
0.08091501
0.0288526
0.020805487
-0.013795484
0.14415449
-0.13606814
-0.0034704271
0.055079475
-0.16895576
-0.00470539
-0.10559954
-0.107562214
-0.1902068
-0.12298324
-0.02328246
0.021426337
0.11205264
0.03019347
-0.084175244
-0.016292173
0.1469779
0.042420514
-0.19000663
-0.055531316
-0.26616818
-0.115477875
0.03384172
0.16621271
-0.22551675
-0.14474992
-0.21340397
-0.26276758
0.022567526
0.07832771
0.018163357
-0.08626974
0.019841025
-0.04681118
0.30793923
0.074815795
-0.13087001
-0.14192581
-0.18470073
-0.07026666
-0.044797607
-0.0114094885
-0.030002305
0.037436835
0.056460377
-0.055181228
0.08897979
0.16937397
0.064984694
0.17450623
0.5519879
-0.15871811
0.090686046
-0.13165157
0.048883155
-0.13262735
-0.118069045
0.033452597
0.030551823
0.015267688
-0.13673013
0.099560164
-0.14755017
0.07753573
-0.038315926
-0.20931046
-0.0007956172
0.1113246
-0.05259147
-0.00054088584
-0.14142267
0.09370585
0.018035641
0.013650328
-0.2218345
0.037977178
0.041068472
0.09095461
0.011987029
0.089727886
-0.1304275
0.0827981
0.100242004
-0.10235255
-0.027807662
-0.08790479
0.055997435
0.033721432
-0.0018355973
-0.1058743
-0.042910226
-0.20748992
0.016586542
-0.44876134
-0.06397939
0.020123502
-0.094763294
-0.30093664
-0.0245965
-0.0069399155
0.11966654
0.16443494
0.3055756
-0.24299127
-0.037825447
0.2759877
0.018359005
-0.009559488
-0.06914042
-0.12067249
0.10672187
-0.06854743
-0.112544455
-0.117531665
-0.0634709
-0.019641265
7.796679e-05
0.12174307
0.053262558
-0.04648489
0.018703036
-0.024269242
-0.080579296
-0.058784205
0.071338095
0.069957085
-0.09348478
0.06976976
0.103347436
0.1627087
-0.047173604
0.025442852
-0.05869932
0.044683322
-0.025602844
-0.37251762
-0.07006599
-0.038952027
-0.0036582875
0.110528216
-0.02029525
0.02410656
-0.08849082
-0.087446004
0.015529023
0.28418872
-0.13361898
0.06638872
0.019306803
0.16390662
-0.13708028
0.033921164
-0.39505798
0.03223696
0.0006671034
0.10439984
0.10680311
-0.10257324
-0.0764394
-0.007699032
0.3442914
-0.3712306
-0.07620185
-0.08122503
0.02527409
-0.07306757
-0.02725747
-0.11711851
-0.096428625
-0.06607831
0.15006101
-0.015835468
-0.1279951
-0.05195044
0.1346848
-0.30101985
-0.21805498
0.036003593
-0.11757606
-0.10252964
0.029517708
0.08626648
-0.0058554383
0.051240046
-0.11172473
-0.030308712
0.122884326
-0.015444168
0.07250849
-0.21197641
-0.11077923
-0.07883574
-0.01268767
-0.07640505
0.1539653
0.002020933
-0.08265537
-0.016399615
0.10601554
-0.03473234
0.038429763
0.016596472
0.04981177
-0.13857237
-0.013171103
-0.0139003815
-0.1234871
-0.012095316
0.00039009922
-0.016433412
0.107565396
-0.06825143
0.025035806
-0.079641216
0.060552128
0.056838788
0.31301793
0.021847397
-0.03545267
-0.19045657
0.026545782
-0.059055664
-0.11108047
-0.06934913
-0.069826394
-0.01718514
-0.029747078
-0.19187911
-0.12931573
-0.047701236
0.10739202
-0.11299006
0.17554982
-0.017843733
0.02470058
-0.09321742
0.033817735
0.17732786
-0.022564089
0.02838882
-0.099417925
0.018397577
-0.061950378
0.03465849
-0.31111267
-0.09558671
0.004340403
-0.059342537
0.046744436
-0.077856824
-0.022875478
0.085407056
-0.1291543
0.033898644
0.07878593
-0.008896903
0.18126464
-0.024322918
-0.12635837
0.07435173
-0.3370876
-0.15578663
-0.104549274
0.10941175
-0.15356013
-0.009945396
-0.05181874
0.065052286
-0.00915575
-0.033484574
0.2014779
-0.06793648
-0.053323697
0.13996258
-0.10097468
0.058117956
-0.022077205
0.06325383
-0.06505652
-0.017914942
-0.104614094
-0.043684423
-0.025381155
0.024385625
0.06932695
-0.1468247
-0.16138539
0.089238204
0.060682785
0.1718756
-0.091449484
-0.16057721
0.022836326
0.09328342
-0.10726814
-0.06816634
0.022529377
0.2112087
0.13091022
-0.18355192
0.08269861
0.20779996
-0.02224374
0.049634606
0.38956943
0.19229656
0.23012386
0.1333613
-0.029403204
-0.076684624
-0.0892235
-0.13774586
-0.20773982
0.33442378
0.09313598
-0.032398533
0.006344012
0.035913903
-0.12762189
-0.020303417
0.054470006
-0.08063682
-0.13403578
0.009740303
0.032153536
-0.08028924
-0.22327845
0.1432026
0.06130172
0.001904062
0.048263185
0.40174392
0.23971878
-0.1367116
-0.13357913
-0.048999187
0.11828666
0.101172306
-0.3174529
-0.3282489
-0.11823305
0.2655335
-0.2004114
-0.008710352
-0.019649602
-0.09691366
-0.121841595
-0.09838232
0.011199091
-0.063506536
-0.14842437
-0.04259872
0.14065339
-0.08035407
-0.07660587
0.014495329
0.03848048
-0.045331866
-0.1157724
-0.068465754
-0.025445905
-0.039462637
-0.0024469944
0.08279664
-0.033309698
0.151924
-0.00348793
-0.008078132
-0.090063415
-0.015979731
0.09407136
0.14079529
0.10271445
-0.054935805
0.11751198
-0.06549701
-0.12996869
-0.16629179
-0.031400822
0.023200247
0.041607328
0.005123005
-0.09530319
-0.043681856
-0.14705825
0.054868244
0.0017404244
-0.24146745
0.100023486
-0.07426665
-0.022237724
-0.023248114
-0.10015122
0.11633504
-0.15150924
0.014261668
-0.093150064
0.18330552
-0.020204894
0.025746448
-0.009963296
-0.16518404
-0.25340438
-0.089902975
0.036153924
0.12147073
0.052996695
-0.055858057
0.021035235
-0.015618606
-0.18050009
0.18323828
-0.30556196
-0.09799165
-0.23591335
-0.25188854
-0.010186882
-0.052243635
0.06924727
-0.053949587
-0.12502742
-0.08418614
0.05028906
-0.03363968
-0.3152308
0.15025528
-0.057557255
-0.085999854
0.17953382
-0.04809046
0.14456692
0.09015303
-0.011781179
-0.0475133
-0.14704464
0.014963375
0.04797478
0.04792583
-0.12688874
0.0873892
-0.019720558
-0.19477712
-0.24204919
0.08030654
0.0057282653
0.014818201
0.015519844
-0.005155867
0.030247483
-0.06602554
0.16482629
-0.077744804
0.026576867
0.121373594
-0.24352653
-0.15876535
-0.11874364
0.19923277
-0.07817578
-0.18328077
0.08046033
-0.004396638
0.08842423
-0.058483236
-0.0633213
0.03746771
0.2331864
-0.049245324
-0.1974766
0.00016795704
0.12922977
0.12283868
-0.1087775
0.024347775
0.023885174
0.033968102
-0.03536934
-0.1152752
0.054477498
-0.16961984
0.016513864
-0.16881604
0.0045763114
-0.1496132
-0.014800157
-0.24109805
-0.21402206
0.10045131
-0.049749292
0.12710388
0.12188212
-0.013431707
0.1515044
-0.048505917
-0.07304793
0.17871705
-0.118282884
-0.30422157
-0.02639636
0.1012929
0.19298832
-0.10948449
-0.23046105
-0.053229704
0.13876782
-0.1528531
-0.13221806
0.22036605
-0.22852983
-0.34755233
-0.0043723853
0.028187813
0.041516043
-0.043835904
-0.088574685
-0.08917831
-0.1706546
-0.305619
-0.07573921
-0.04074767
-0.2845027
-0.085316524
-0.19384255
0.42158687
-0.06589552
-0.015933719
0.04677646
0.13529076
0.2024857
-0.022240724
-0.63217986
0.15139633
-0.1349667
-0.18588106
0.05911938
-0.1874522
-0.05044839
-0.101286374
-0.22746357
0.03859712
-0.024702642
-0.11733086
-0.06567426
0.040210627
0.083259106
0.016563939
-0.008034037
-0.15677132
-0.028670318
-0.092623316
-0.2386006
-0.24093457
-0.05279935
0.063394636
-0.125647
0.0048182392
-0.20405592
-0.13759333
-0.11329479
0.111593075
0.10242097
0.14649194
0.080974996
0.19900884
-0.10948951
-0.09212823
-0.26060396
0.06017451
-0.070017435
-0.22974448
-0.34936377
-0.008085568
-0.10063919
0.02081032
-0.06679735
0.121040836
0.10336729
0.039506376
-0.1228374
-0.060177192
-0.103452705
-0.18871906
-0.26835552
-0.26534462
-0.079293154
-0.05193189
0.1053475
-0.0003052747
-0.1665147
-0.14699829
0.0058843275
-0.0924966
-0.15255016
-0.25687057
-0.07024141
0.03109195
-0.16971621
-0.2608036
-0.11061814
0.16758941
0.13809924
0.016391316
-0.009555552
-0.047038916
0.05756245
-0.12536778
-0.062484507
-0.092517175
0.11998797
0.147315
0.013141051
-0.08455707
-0.23339866
0.047248814
0.19289887
0.141306
0.026786475
0.042265385
0.126808
-0.09232073
-0.00915974
-0.13703212
-0.09303578
-0.22512926
0.05020872
-0.11681231
-0.015159623
-0.025122195
0.058752656
0.058789145
0.10716239
0.066987514
0.03900688
-0.049003456
-0.19909169
-0.030170025
-0.28177002
-0.25202134
0.018332267
-0.25736699
-0.103497714
0.0021047983
0.17356817
0.14121056
0.034436148
0.032019332
0.09179433
-0.017066479
-0.1474213
-0.16974863
-0.1259003
-0.19390231
0.028637564
-0.2063719
-0.03837757
0.2849688
-0.067894086
-0.22179583
-0.22469749
-0.059216168
0.09219323
-0.019402193
-0.37808892
-0.43942305
0.023287695
-0.5109375
0.13160641
-0.053626638
0.09218076
0.008489218
-0.08206096
-0.29524174
-0.25433296
-0.17656076
-0.15545824
0.06702969
0.23823848
-0.32036284
-0.06419054
-0.38482434
0.0043917643
-0.14761785
-0.24954417
-0.18124433
-0.06485114
-0.22543892
-0.06334191
-0.031974833
0.07137551
0.20531173
0.023444625
-0.09006684
0.09568397
-0.036132764
0.0071509313
0.2553441
-0.107474424
0.13400672
0.10868511
-0.13735642
-0.017494053
-0.1841364
-0.18381505
-0.050724775
-0.021762796
-0.19090615
-0.037326355
-0.022115896
0.04728211
-0.03789797
-0.0013603033
0.13952525
0.20610519
0.032934885
0.11466188
-0.031234074
-0.21628986
0.20632014
0.14892592
0.01799097
-0.011062069
-0.04360428
-0.03157399
0.2571169
-0.007744856
-0.004438775
0.098105796
-0.20726414
-0.21099977
-0.003985887
-0.07606623
0.08408026
-0.25639358
-0.009229681
0.03461388
0.02217662
-0.01736892
-0.04472414
0.04733004
0.048968665
0.04876907
-0.0012927278
-0.040575664
-0.024859989
-0.118786685
0.009458948
-0.024409972
0.050798796
0.112211466
-0.19430499
-0.4181582
-0.20074536
0.004871841
-0.128474
0.028838014
-0.10219866
-0.042759955
-0.23657872
-0.122150674
-0.07202687
-0.08494071
-0.14767134
0.22639078
-0.021075614
0.1439851
-0.26076585
0.12539649
0.2231147
0.12413569
-0.016538814
-0.12807548
-0.15554716
-0.057098825
-0.12498124
-0.02253492
-0.1838901
-0.0077538737
0.07676271
-0.06361882
-0.15557438
0.13957925
-0.0735213
-0.07485189
-0.14223766
-0.03941589
-0.0547401
0.16161945
0.1057554
0.038121898
0.041703317
0.2109973
0.14149074
-0.26958525
0.3816722
-0.18044099
-0.3650718
-0.016934525
0.02332448
0.033237066
0.11737276
0.0015087201
0.030746294
-0.042650785
0.09581866
-0.08626898
0.11844103
-0.053567473
0.26735282
-0.0729567
0.074382454
-0.028801914
-0.004324666
0.09530976
0.008398098
0.12321085
-0.16614184
-0.046435867
0.28439325
-0.11959632
-0.19156261
-0.33044794
0.12032333
0.05902986
0.11294365
0.16396517
-0.055994097
0.11500721
-0.020880217
-0.052861806
0.033010308
-0.16596806
-0.085264444
0.07042386
-0.14967553
0.070602454
0.068114504
-0.14211494
-0.04399211
-0.06937995
0.0913589
-0.05305407
-0.014053075
-0.10024881
0.003284185
0.09852127
-0.03550971
0.06825826
-0.11826574
-0.025523577
-0.037515968
0.042784523
0.026296023
0.018352374
-0.007532417
-0.06815957
0.0108230775
-0.09992466
0.03733676
-0.14953522
-0.02021363
0.13477921
0.030769084
-0.06273668
-0.09798146
0.27386943
0.094006374
0.1201182
0.022696173
-0.06511038
-0.038369153
0.15817013
0.0087271305
-0.19168958
-0.032443605
0.1077514
-0.12509541
0.04174798
-0.14546464
-0.10211847
-0.047988255
0.042677533
0.0003807833
-0.008309
-0.072245635
0.02156454
0.12039369
-0.2317257
0.24002045
0.3322085
-0.28433096
0.052177574
0.09999503
-0.10287865
-0.08752545
-0.09528489
0.017802164
0.17795555
-0.09000265
-0.15360366
-0.08502593
0.02571615
-0.13850741
-0.15946344
-0.046106238
0.058154866
-0.0013321383
0.05425308
-0.036881965
-0.12944718
-0.14295389
-0.104610756
0.1767544
0.19404346
-0.07892554
-0.29586932
0.13189577
-0.06934746
0.010937649
0.028575012
0.3125168
-0.1341997
-0.14997041
0.11895335
-0.014625367
-0.06564407
-0.12698312
0.0023435454
-0.080103934
-0.01812917
0.045656115
-0.24513432
0.04130365
-0.12750271
0.06342917
0.08560495
-0.081097774
-0.046214677
0.11439287
-0.06583317
0.18560104
-0.03464074
0.024881285
-0.039206464
-0.08810305
0.05100122
0.24084894
-0.0856541
-0.0076791267
-0.15789525
0.017267535
0.0004247593
0.053273622
0.06593513
-0.055106785
0.033127725
0.098498166
0.012010331
0.04791761
-0.1223341
0.038685314
0.1893351
0.14723203
0.118676685
-0.124516495
0.055780206
0.0063253376
0.09562986
0.049469016
0.06487524
0.050844062
-0.037428208
0.05950566
-0.039942395
-0.12312705
-0.19888762
-0.030314008
-0.11273396
0.03672412
-0.0029517808
0.009766414
0.086266994
-0.101636395
-0.053387772
0.017949365
-0.056949
0.13415684
-0.08977704
0.12012648
-0.1004383
0.017419606
-0.045260068
-0.035974402
-0.0903806
-0.048450448
0.019415231
-0.021520345
-0.01247111
-0.054741673
-0.024256485
-0.0660322
0.09602409
-0.18459977
-0.06059147
-0.23502111
0.022785647
0.040441863
0.016892146
0.014626675
0.016766852
-0.049795613
0.012385986
0.080908395
0.015579694
0.026703158
0.052790675
-0.12858231
-0.13462733
-0.066149555
0.0076110326
-0.1464533
-0.07410397
-0.009333079
0.049442492
0.062166557
-0.02736575
0.067266285
0.06961712
0.13791437
-0.07077748
-0.35129568
-0.10215805
0.06733018
0.06312292
0.06006893
0.11029588
-0.027108634
-0.07616195
-0.16513729
-2.9482911e-05
-0.1228259
-0.22865659
-0.0065423236
0.01386898
-0.07853393
-0.09686284
0.011918739
-0.07142518
-0.03575656
-0.05598422
-0.106732786
-0.024116011
0.0417157
0.06878508
0.08798055
0.059997465
-0.11157152
0.21809779
-0.17749359
-0.0664596
-0.18248877
-0.06510956
-0.053617645
0.0138497995
-0.019381853
-0.09654929
0.026223315
-0.1407285
-0.066112354
-0.12686239
0.051470004
0.13572541
-0.0161743
-0.040728945
0.25703263
0.06375024
0.06013868
-0.061425913
-0.08341529
-0.027068285
0.037176277
0.07657105
-0.14602798
-0.08571937
-0.013959282
-0.24419655
-0.22212563
-0.065615445
0.04073307
-0.09776138
0.031184874
4.6778467e-05
0.05197217
-0.16037169
-0.04520945
-0.15984027
-0.01730876
-0.108597785
0.113072984
-0.19812459
0.0064345347
-0.03477011
-0.06603899
0.20996483
0.01518666
0.10238579
0.101351984
0.14303362
0.15369819
-0.037483845
0.12353216
-0.052254297
0.06694524
-0.0009849413
-0.012855139
0.013557384
-0.33991662
0.28920838
0.19229762
0.3984984
-0.19413613
-0.42376617
-0.006258932
-0.097216696
-0.73317426
0.021526428
0.0249109
0.13555378
0.14160052
0.1788025
-0.106821366
0.019300595
0.06738568
-0.17897326
0.030972585
-0.01815378
0.05359445
0.16045466
-0.18403119
-0.05820084
-0.055021543
-0.14291713
-0.40249866
-0.08141129
0.15975305
-0.06586236
-0.059840497
-0.21383281
0.00925086
0.08564346
0.01497574
0.0025943755
-0.08003213
-0.012601605
-0.30041608
-0.16369641
0.085694626
0.061878584
0.15958852
-0.041011553
-0.14274877
-0.13834278
0.082966074
-0.015519907
-0.048407044
-0.099062905
0.10354472
0.051944263
-0.055216372
-0.38210806
-0.065371335
0.33456728
-0.08361312
0.03483714
-0.35463223
-0.05045509
0.18715581
0.14497897
0.01448226
0.017061135
-0.053868648
0.11877041
-0.021719817
-0.32386848
-0.16718486
0.105579
-0.14066198
0.009171424
-0.025728298
-0.12044635
0.07528961
0.13636462
0.04471583
0.009771965
-0.16169637
-0.0016516153
0.20512846
-0.15636644
-0.31037694
-0.03355211
-0.0067131375
0.13461472
-0.104599975
-0.2589057
0.022047553
0.048128664
0.05871442
-0.1964773
-0.20400812
-0.015950138
0.032891423
-0.19342595
-0.23198451
0.26600483
0.03209541
0.09277171
-0.06265436
-0.23503833
0.098942004
-0.08509828
0.17870466
0.047705792
-0.33330858
0.103556104
0.12084329
-0.07907909
0.10199205
0.07873983
0.06306068
0.1521882
-0.3117162
-0.0027860617
0.092107095
0.045581486
0.08149433
0.1356473
-0.1644859
-0.030746434
0.0746738
-0.1539571
0.09699182
-0.02459486
0.038466264
0.069587
-0.4296841
0.0792206
-0.008141359
-0.0126241
0.012096226
-0.12906517
-0.17060332
-0.28959623
-0.022908265
0.076973796
0.20526095
0.12666243
0.15104012
-0.043481767
-0.25760105
-0.23567055
0.048145995
0.102468155
-0.040803775
0.1744924
0.12433795
-0.057053152
0.18102434
0.21003217
-0.29137182
0.06419504
0.5416523
-0.25570425
-0.11473166
0.023891872
0.07086026
0.2031305
-0.10947
-0.16434455
-0.015243198
0.086308755
0.41700575
-0.15529916
0.11355087
0.045972306
-0.14460982
-0.29213995
-0.47694543
0.07158427
-0.09633188
-0.11188646
-0.3139314
0.12507267
0.1295858
0.15543455
0.19152938
-0.1581668
0.06347945
-0.009636675
-0.02335546
-0.05590826
-0.04709483
-0.12705137
0.027879797
-0.22193216
-0.10436538
-0.032652557
-0.09068959
-0.27642363
-0.11236205
-0.010586918
-0.051316265
-0.024216551
0.23048787
0.053015675
0.15097623
0.15877447
0.158605
0.20769475
-0.041733805
-0.21074235
0.119936354
0.021553298
-0.17076798
-0.06667285
0.051649857
0.24229038
-0.05721528
0.12355395
-0.10976639
0.013787533
-0.18874091
0.03142912
0.06198046
-0.111039795
-0.09491282
0.0826916
-0.24033228
-0.17394847
0.119115
-0.22298458
-0.09794662
-0.10750489
-0.044808842
-0.010965113
-0.19415049
-0.0006042391
0.07687963
-0.09138543
0.052901007
-0.121939294
-0.10998378
0.04001477
0.1726197
0.18889426
-0.07958154
-0.15650022
0.0046506766
0.109317645
-0.09452809
-0.096323006
0.007949158
-0.07532527
-0.0026876463
0.033948738
-0.124973506
-0.11409806
0.102048784
-0.17492442
-0.24102448
-0.0031832207
-0.13314854
0.19593246
-0.07384835
0.07331759
-0.020654764
-0.105441354
-0.005262655
-0.07673268
-0.09487435
0.07073606
0.063753225
-0.13582507
-0.14495173
0.018451
-0.21906666
0.085600324
0.0643667
-0.023752954
0.03896015
-0.096293055
-0.037004888
-0.08954744
-0.026215332
0.08353839
-0.22070003
-0.16577789
0.015431119
0.0356483
0.05867591
-0.0054646228
-0.10010856
-0.0993475
0.016285772
0.012228809
0.10621577
0.19020975
0.17679626
0.065136
-0.085544415
0.035121895
0.2557801
0.23689091
-0.014156487
-0.024633624
0.019104756
0.16823064
-0.0662525
-0.06970609
-0.07486216
-0.16284479
-0.20860039
-0.26273978
-0.34362194
-0.088343255
0.0067648385
-0.06091749
-0.04290863
-0.15323816
0.030803971
0.021231513
-0.0934346
-0.123913445
0.031043887
0.15572782
-0.2189709
0.040796712
0.11371335
-0.08365587
0.09466057
0.008351071
-0.19406421
0.007590194
-0.012523073
-0.046540186
0.030147344
-0.266635
0.038569644
0.21883315
0.086478435
0.120170504
-0.0072326763
0.113591254
0.14227374
0.1962286
0.17486815
0.11801518
-0.21679701
-0.0072601014
0.15087463
-0.120803565
-0.0022256027
-0.32633972
-0.07435743
0.0075579234
-0.11553869
0.027737083
-0.08209101
-0.43168527
-0.07736571
-0.09843264
-0.031042555
-0.067053646
-0.003956317
0.009403606
-0.068043984
-0.25579756
-0.22166961
0.07769926
0.35734993
-0.053928036
0.07314861
-0.15755238
0.038039856
0.004249053
-0.0030918028
0.109086744
0.21634145
0.35335904
-0.12721477
-0.045190897
-0.07178181
-0.17225742
-0.022299785
0.029905405
0.02961658
0.1028872
-0.1763586
-0.28540307
-0.08317061
-0.13546029
-0.055534188
-0.109179124
-0.1043486
-0.23068725
0.01979126
-0.05245514
-0.0016884634
-0.00071597955
0.14596091
-0.26070136
-0.15629849
-0.110208824
0.0011411093
-0.23321117
-0.024994794
0.1428516
-0.0388254
0.25982472
-0.20791212
0.20517215
-0.09941836
0.05373374
0.14870496
0.2620823
-0.0028159153
-0.17349225
-0.0876935
-0.0912217
0.010846617
-0.061012812
-0.10289165
0.033035137
-0.0067627393
0.10756639
0.22842087
0.18765031
-0.07706258
-0.12017801
0.120432794
0.04837962
-0.24837135
-0.018953245
-0.0282903
-0.06676995
-0.09796239
-0.025259765
0.027064364
-0.07246374
-0.1502766
-0.12971094
0.13148499
0.018487195
0.059662092
0.08122277
-0.01366031
-0.03343073
0.010031013
0.06027241
0.067598864
0.10686331
0.23514825
0.12993985
-0.18365443
-0.093392715
-0.13811204
-0.13153914
-0.03851482
-0.013257019
0.08418988
-0.11159896
0.046174243
-0.08208762
-0.07154415
-0.006645769
0.027908113
-0.3192912
-0.093508184
-0.08842444
-0.3062855
-0.33613342
-0.11143792
-0.055439606
-0.12830345
0.037039056
0.124298595
-0.011150287
-0.08642789
-0.036578555
-0.028013961
0.015103841
0.24718457
-0.28285724
-0.25357857
0.20326939
-0.13251491
-0.062201332
0.037528183
0.06518394
0.014833972
-0.006294822
0.06111835
0.01564773
-0.10915664
-0.06632634
0.11027519
0.23585698
0.112138435
0.13849561
-0.047809772
-0.028262876
0.027899006
-0.029454175
-0.035907928
0.057780236
0.08903591
0.046528105
0.08851333
-0.14190134
0.16837676
0.12055171
-0.04619518
0.053486172
0.015250824
0.064729646
0.028800689
-0.032332588
0.1925944
0.08759782
0.09001268
0.1286164
0.17225382
0.066557124
0.2928686
0.13384709
-0.26870123
0.04054239
0.06817129
-0.035454437
-0.069695935
-0.12217533
-0.089132994
-0.17342007
-0.003322678
0.24266686
0.19038868
0.1468301
0.2826787
-0.009602072
-0.24775954
0.1474958
-0.035245724
-0.061697003
-0.05003908
-0.0077992096
-0.084326886
0.09994084
0.050033167
-0.017210228
0.10357979
0.21753253
-0.3063501
0.04922797
-0.101979844
-0.12477564
-0.074515745
-0.16905506
-0.049158473
0.04387915
-0.1338369
0.054794196
0.15995485
0.27369484
0.10969713
0.256249
-0.38519
-0.035510518
0.014726912
-0.20409012
-0.030713107
-0.13039953
-0.03887189
-0.28195405
-0.10224702
0.42845646
0.19552156
-0.033295825
-0.19580247
-0.29028443
0.016927456
-0.04773928
0.017326927
-0.10397252
-0.055174652
-0.028978143
-0.10554425
0.11957132
0.022165759
-0.021920342
0.13848373
-0.15403762
0.040606983
-0.02102404
0.015145932
-0.038189754
-0.2235821
-0.070495315
0.33109742
0.3066075
0.09938003
-0.06382528
0.087528095
0.24160329
0.042168815
0.15224622
-0.040771637
-0.024450311
-0.052001253
0.08251639
0.22927475
0.10095423
-0.10448048
-0.021529289
-0.067738935
-0.13373163
-0.10227477
-0.14308114
-0.04069992
-0.0086541
-0.015547537
0.14293037
0.27385134
0.045698766
0.038397253
-0.0023617207
0.022506451
0.055496138
0.15712558
0.09624583
0.016057985
0.0879832
0.14332706
0.075418904
-0.12217442
0.2783027
0.13835534
-0.048602317
-0.031444676
0.041215613
-0.031921428
-0.0181926
-0.019907419
-0.0027809546
0.05785421
0.013558393
-0.005131372
0.09903555
0.0008056041
-0.022784011
-0.021665804
0.020004649
-0.010895634
0.07541663
-0.053214747
0.08414068
-0.19808337
-0.029144693
-0.020417375
0.04006532
-0.0047015445
-0.22547852
0.11239537
0.29651073
0.05143272
-0.1311904
-0.09277068
-0.17965387
-0.099365905
0.01859649
-0.12703305
-0.34938303
-0.070937514
0.14973503
0.23176187
-0.09854876
-0.011361554
0.21629748
0.050557945
0.03814529
0.018260185
-0.12969236
0.008929491
-0.13144773
-0.18094295
-0.12807944
0.057188842
0.12154208
-0.08211217
-0.16986409
0.058918983
0.2060667
0.19774288
0.042478032
-0.11238193
0.046098355
0.034124747
-0.22070706
-0.19533238
-0.105331704
-0.006644589
-0.02619599
-0.14516345
-0.17920066
0.12938881
0.072202444
0.22421297
0.3368742
-0.17255886
-0.037035596
-0.11684327
-0.12752974
-0.14869714
-0.15860572
-0.005297314
-0.12637404
-0.03747195
-0.005447832
-0.16071355
-0.09156178
-0.00512293
-0.009190326
0.0583819
-0.06441458
-0.11559059
0.17988993
0.054025352
0.04461725
0.034100026
0.07484763
-0.2589568
-0.48139668
0.012627193
0.13671726
-0.047293134
0.108387664
-0.012182734
-0.3731648
0.1482153
0.025148511
-0.16376765
0.0419004
0.03646268
0.049466074
0.07926673
-0.41309452
-0.33643898
0.14280973
-0.10984306
0.0020520773
-0.3995788
-0.23639491
0.20742561
-0.18443891
0.013257391
0.014870187
-0.007606453
0.1467323
0.10159183
-0.23549066
-0.3210058
-0.030619653
0.3813424
-0.021770658
-0.2371525
-0.18658681
-0.3768842
-0.22765675
-0.08525874
0.091750555
0.01285203
0.21804939
0.093274206
0.28421015
0.15479408
-0.14679985
0.06950638
0.030384533
0.030710187
0.05729359
0.07628859
-0.10962689
0.20747936
0.09066611
0.04834512
-0.07606099
-0.0005016376
0.06237237
0.019901227
-0.005830637
0.0611226
-0.06888198
0.022326617
0.13750751
-0.100153066
-0.17537722
-0.14379717
-0.16148299
-0.07375691
-0.068515114
0.093426496
0.18031448
0.11941447
-0.06641827
-0.22359298
-0.004062781
-0.18904775
-0.19582283
0.020757906
0.0057182084
-0.08995561
0.14198035
0.02502213
-0.04026685
0.14768247
0.0066821217
-0.13813445
0.22315125
0.15196946
-0.19921142
0.16089581
-0.075974785
0.05674304
0.016152967
0.0852944
-0.07698384
-0.0144269485
-0.0675533
-0.06499327
-0.086266965
-0.07461428
0.0072935033
-0.12236707
0.10747676
0.001688493
0.0697948
0.0382501
-0.00384076
-0.035313517
0.040636513
0.059967633
-0.069730245
0.019615652
0.00016159833
-0.13108893
-0.12788673
0.18217221
0.07321023
0.17244297
-0.11452711
-0.09712791
0.06538174
0.009151186
-0.16190457
-0.020606807
-0.07220963
-0.02345326
0.03058573
0.16211653
-0.11428313
-0.098045826
-0.13327892
0.37225062
-0.12669998
-0.07678071
0.11499783
0.01197739
-0.058878932
0.054412786
-0.0054631587
-0.0025374189
-0.02370609
0.020036763
0.014773848
0.07139245
0.0533483
-0.06565896
0.017932093
0.025033869
0.058703832
-0.046223428
-0.084976085
0.00071485975
0.073216654
-0.11893218
-0.11406597
-0.08328154
0.26807445
-0.2898959
0.117375195
0.033772144
0.06570835
-0.06426526
-0.029129166
0.034267284
0.083430395
-0.03968841
0.014907496
0.080287725
-0.04355503
0.12356686
-0.026265085
-0.23063134
0.028424403
-0.086954854
0.07969497
-0.01896831
-0.098930806
-0.056202427
-0.028962258
0.044928737
-0.008138436
0.0037698704
-0.043002553
0.014791953
0.029647969
-0.121586606
0.20568259
0.008400515
-0.038784422
0.19027841
0.025822425
0.06534747
-0.04053923
0.06522465
0.008844102
0.0034012322
-0.04908642
-0.10992801
0.078281276
-0.077840656
0.08656815
-0.041627962
-0.039064035
-0.015451738
-0.08914717
0.17275362
0.011488199
-0.053271122
-0.0167625
0.13245958
-0.25054944
0.13532333
-0.116203375
-0.14136618
0.054484583
0.1966436
-0.007097953
-0.06994295
-0.013027456
-0.026888682
-0.12069456
0.0011560539
-0.08182621
0.014665472
0.14817017
0.010842011
-0.0017016402
0.04400118
-0.013068677
0.012833374
-0.15812667
0.24376713
-0.037630487
-0.07410061
0.05502218
0.08508383
-0.17302394
-0.19325353
0.043235976
-0.11497712
-0.056081932
-0.026980009
0.020331886
-0.016910162
-0.039415225
-0.04711208
0.015967473
-0.04542493
0.22377159
0.206899
-0.45640293
-0.023880811
0.01955986
0.2115345
-0.025313072
0.05613026
-0.057108015
-0.02551655
0.20517877
0.21791284
0.23485379
-0.019480256
-0.33533207
0.035096627
0.317231
-0.01472697
-0.088426255
0.3143577
-0.117370754
0.31584576
-0.066224635
0.14323522
0.2223102
-0.32791057
-0.2086192
-0.030346634
-0.004747619
-0.09468956
0.089328066
-0.02612714
-0.06314231
-0.002049669
-0.23632436
-0.09626581
-0.13176218
-0.06414696
0.10874084
0.25349015
0.057161625
0.021771228
-0.011674514
-0.11231326
-0.028560314
0.00053995376
-0.010276716
0.0026298356
0.017198386
-0.12495528
-0.21589483
-0.12360431
-0.44051602
0.06916422
-0.012232155
-0.1155416
-0.033879906
-0.08349449
0.08068904
-0.03816308
-0.025034556
0.12437688
-0.034231447
-0.12859696
-0.024448324
-0.00068175286
-0.099265784
-0.11742281
0.08273805
-0.11254434
-0.13441357
0.03956331
0.026022376
-0.20948717
0.12215427
0.018144066
-0.20686133
-0.07475356
-0.09136716
-0.048114922
0.072744764
-0.08123758
-0.06405925
0.024610175
-0.1431865
0.1455652
-0.016666807
-0.058339164
0.043083083
-0.016333364
0.18523793
0.10696401
-0.13678128
-0.0921313
-0.03495519
0.070837565
0.04692915
0.022493452
-0.11058474
0.09715001
-0.010572401
-0.070591696
-0.024420332
0.061016597
0.1184178
0.06895891
0.033654127
-0.13493657
0.025088934
0.102203555
-0.058870167
0.008458429
-0.19909362
0.0789558
-0.14755274
-0.053736266
-0.1186806
-0.11623532
-0.050474938
0.30005044
-0.12195038
-0.16804336
-0.009942986
-0.21708469
-0.08601483
0.028402053
0.022057166
-0.000980353
-0.0134706255
0.071548134
-0.017220808
-0.0649138
-0.1411974
0.12976554
-0.0142953545
0.036441136
0.23277014
-0.19283594
0.023175914
0.17532675
-0.0889585
0.072581165
-0.07273486
-0.22707957
-0.07820251
0.04601923
-0.027059363
0.09729408
0.024441313
-0.034084138
0.044819076
-0.1825324
0.060577463
0.030529719
-0.15093918
0.039644532
0.032701552
0.049933065
-0.05122435
0.05526282
-0.08243989
-0.06697376
0.037203323
-0.14003779
-0.11464306
-0.12935057
-0.030468224
-0.012909268
-0.14406186
0.14285183
-0.023337215
-0.025548121
-0.3488613
-0.2847154
0.09533901
-0.24913952
-0.0088252425
0.09887059
-0.058821578
0.033417936
0.033419073
0.064955145
-0.23275778
0.08716311
0.16794102
-0.16015075
0.15870422
0.025325786
0.014218233
0.0215734
-0.019638455
-0.045491554
0.060528003
0.2687304
-0.06331303
0.030593691
0.096763745
0.09336468
-0.25517988
0.21018285
0.043859098
0.18845552
-0.061133616
0.048427593
0.038344428
-0.06277262
0.08290607
-0.14870094
-0.16275248
0.14081456
-0.04630342
-0.13599621
-0.20620227
-0.23676036
0.05777461
0.28115484
0.041757334
0.030333376
0.12549327
-0.24141935
-0.23264892
-0.11954778
-0.1310651
-0.089454174
-0.0049487464
-0.16034819
0.16315645
-0.014723877
-0.09495022
-0.032252353
0.076132946
-0.12093355
-0.28209025
-0.15158445
0.11435817
0.020586714
-0.10566303
-0.039580505
0.080589645
0.04754275
-0.06901022
0.007604277
-0.113521956
-0.018250402
0.013959936
-0.10806074
0.3506911
0.3080133
-0.07165087
-0.105130374
-0.078707255
0.05550266
0.04631325
-0.084730424
0.035918295
-0.1093509
0.08996173
-0.19572632
0.000857842
0.26557773
0.15686771
0.046284873
-0.02808387
-0.023305753
0.005561928
0.1341785
-0.0034933272
0.08221564
0.057120845
-0.0934973
0.008998066
-0.11634312
-0.25031075
-0.14935899
-0.15217206
-0.15988858
-0.03203754
0.0041221147
0.09700535
0.171588
0.10395603
-0.08315945
0.06492926
-0.06357769
-0.050735496
-0.020754816
0.046272572
-0.15290394
0.04342228
-0.24036375
-0.0027431536
-0.22489981
-0.10252743
-0.04006706
-0.18120551
0.0061256727
-0.117579274
-0.17581534
-0.09588506
0.081140324
0.13687946
-0.39996222
0.16889013
-0.2560649
0.11100672
-0.0037445384
0.022713803
-0.01846891
-0.064229764
-0.019079369
0.040746596
-0.0585743
0.12686257
0.099168934
-0.11928749
0.16586609
-0.08985991
-0.053467646
0.1317142
-0.0007994388
0.014540712
-0.09118165
0.011429223
0.009519552
-0.08341519
0.051588833
0.057706673
0.11302447
-0.00049739075
-0.018639462
-0.1860837
0.09056224
0.105728194
0.0012368594
0.08368221
-0.022422727
0.0437642
0.06841764
-0.03250238
0.05753887
-0.013511441
-0.16797811
-0.17712831
0.1341068
0.031204222
0.21258879
-0.09686536
-0.25782758
-0.07646447
0.028850226
-0.048463523
-0.023754852
-0.106995545
0.07943371
-0.12187782
0.1678632
0.06213734
-0.21356587
-0.010725448
0.10495997
-0.103286
-0.024198215
0.20258595
0.019909149
0.09717383
-0.1858421
-0.0351317
0.011347455
-0.05798559
0.0706434
-0.2100451
0.060318347
-0.039865963
-0.02698324
-0.14402969
-0.11199395
-0.01648469
-0.124619514
-0.15429375
-0.3248973
0.15998396
-0.15574202
-0.11130673
-0.11395615
-0.16068861
-0.018860562
-0.024681143
-0.046572518
-0.0020481448
0.065507084
-0.04161064
0.11924596
0.014638674
-0.030090494
-0.00012759278
0.18884653
0.31733027
0.0388456
0.039016537
0.052050702
-0.023850443
0.0934997
0.0150180645
-0.40483695
-0.37675595
-0.26029047
-0.26527116
-0.15040499
-0.05568462
-0.0979687
0.07472085
-0.01738385
0.15926453
0.13361914
-0.15246908
0.019090986
0.107342936
-0.10638978
-0.035574883
-0.12620118
-0.18942256
-0.12832092
-0.114290185
-0.04641186
-0.020295983
-0.25584185
0.06399399
0.35107037
0.11044791
-0.01410999
-0.04441986
-0.01732166
-0.023202507
0.059813626
0.03350558
-0.020604402
0.11166387
-0.0032715895
-0.15956062
-0.280882
-0.13885504
-0.17947792
-0.08991746
-0.2950599
-0.044758156
0.13055354
-0.044732176
0.20679767
0.14529124
0.12690222
0.099049754
-0.1710872
0.061099216
0.02471662
0.11715317
0.34504855
0.04909391
-0.03851288
-0.08589061
0.09141163
-0.09079876
0.058913462
0.12048733
-0.00077337644
-0.039137598
-0.03414382
-0.054673698
-0.29093894
0.04300137
-0.040093157
0.021680137
-0.14301246
0.1887844
-0.103930734
-0.10545672
0.029932352
-0.07584049
-0.025036119
-0.027038753
0.040349595
-0.007743814
-0.0016860331
0.06570086
0.1341083
-0.09176211
-0.13672961
0.0023770544
-0.04747769
-0.26062799
-0.29363894
-0.20678599
0.0666751
-0.11669872
-0.047102176
-0.04333889
0.105603814
-0.13861063
-0.07580752
-0.204991
-0.4822089
0.012352417
-0.16068715
-0.04152871
0.2323763
0.06275707
-0.004945931
-0.0058649397
0.18981461
0.08854879
0.167731
0.24057373
-0.28785014
-0.2910234
-0.19489487
-0.034699336
0.085281655
0.1705724
0.12660736
-0.04965042
-0.044349905
0.043494448
0.23239315
0.08271806
0.12742344
-0.19636464
-0.104313314
-0.22341226
-0.043631382
-0.08441127
0.18550839
-0.048337612
-0.03758049
-0.021766638
0.029815989
-0.13793987
0.098589376
-0.03781205
0.16577409
-0.07833364
-0.19935146
-0.14872745
0.096349396
0.093954496
0.17990866
-0.042190984
-0.027108148
-0.015268207
-0.027446693
-0.18609694
-0.16786316
-0.07011665
-0.22339004
-0.07289435
0.0056634666
-0.038028702
-0.13139534
0.14908792
-0.087531134
-0.16277656
-0.00037404784
-0.045901813
0.05418275
-0.18636659
-0.36553437
-0.13075022
-0.33392632
-0.17952842
0.49102882
0.0694041
0.11440286
0.21199213
0.05182909
0.03978271
-0.001333438
-0.42922607
-0.2520911
-0.12638372
-0.34192914
-0.051271062
-0.06405719
0.33929455
0.028925803
0.07074546
0.057699043
-0.09362595
-0.17200574
-0.10330816
-0.089977056
-0.119350664
0.20473361
0.026108557
0.047752105
-0.20271412
-0.18526761
0.03224292
-0.0010529843
-0.020864582
-0.38932535
-0.10350321
-0.16201532
-0.40328726
-0.3049342
-0.092702284
-0.03503457
-0.033865653
-0.10023477
-0.19256082
0.111591004
0.028037472
0.07860146
0.00044026994
-0.14655697
-0.20847651
-0.2652565
0.006279241
0.11498847
-0.039046302
-0.2943832
-0.14530978
-0.001789507
-0.0071521606
0.101071015
-0.21589476
0.15768623
0.20206283
0.132097
0.21481797
0.10246003
0.10477438
-0.10122093
-0.1322195
-0.0372874
-0.13849017
0.14776331
0.03256606
0.057790164
-0.0031825772
0.045658477
-0.2344524
0.049678143
-0.0041447976
0.124359444
-0.07388924
0.023798637
0.114866875
-0.118022524
-0.066854276
0.16440046
0.06477538
-0.005287785
-0.02247454
-0.10370676
-0.03830369
-0.0961529
0.04117896
0.12002363
0.07411923
0.22329886
0.0033928812
-0.055331573
0.0053234287
0.11521481
0.13263723
0.012450254
0.0059400736
-0.17871621
0.044404197
0.13525113
-0.0784794
0.018624486
-0.011408318
0.005006773
-0.10472326
-0.14217979
-0.14287071
0.09760747
0.17059848
0.042590518
-0.24264278
0.26662213
-0.018663073
-0.0369389
0.057043735
0.18238719
0.040598538
-0.09678167
-0.0073566306
-0.16660945
0.059896905
0.1563031
0.091923304
-0.019945594
-0.1252008
0.047317673
0.16604437
-0.05077166
-0.066896595
0.02033252
0.069922954
-0.07556574
-0.001614148
0.16524647
0.04103651
0.1471876
0.0054114545
-0.00031230616
-0.11065199
-0.4137727
0.15796956
-0.09889652
-0.06973761
0.04420423
-0.09038702
0.1571737
-0.018246625
-0.050975602
-0.11269375
-0.11647415
-0.06875042
-0.40653384
-0.117378294
0.31688973
0.28057104
0.022901176
-0.23144266
-0.53420705
-0.12925792
-0.13406281
-0.06457311
-0.0631478
-0.007797637
0.03939172
0.050406244
-0.27437082
0.04938562
-0.41287917
-0.045725312
-0.08676813
-0.2716099
-0.19157116
0.009383666
0.13011862
-0.011904828
0.08507414
0.02777062
-0.21180883
0.15721402
-0.08084951
-0.0074749277
-0.30977476
-0.034091413
-0.67109036
0.2095422
0.15653314
0.33187887
-0.071296416
-0.14548519
0.04188098
0.11824818
-0.2180898
0.11105748
-0.053634755
-0.34141743
-0.11550736
0.056300752
-0.0025269995
-0.002056503
0.13005547
-0.13511175
-0.07679709
-0.0637934
0.13730396
0.18089171
-0.09201579
-0.027926674
-0.018894361
0.029171666
0.055814177
-0.04752008
-0.06915472
-0.050047275
-0.08615076
-0.08692022
-0.036015045
-0.05811591
-0.0701302
-0.007003985
0.00882234
-0.01898151
-0.13534112
0.030649485
-0.037364185
0.012928964
0.015841372
-0.085488565
-0.14845173
0.10184889
-0.03439676
0.20734392
-0.017775187
-0.098174356
-0.050264265
-0.19531468
0.009291361
-0.0048620254
0.115496315
0.10416798
0.2824492
-0.0013777538
0.056027286
-0.034103025
0.047908954
0.0054342407
-0.048628874
0.12714182
0.22006816
0.112042
0.017622605
0.18101826
7.1856346e-05
-0.081770785
-0.107793614
-0.010596914
-0.14614032
-0.010733001
0.017028218
0.04556719
-0.007542212
-0.080711335
0.015532897
0.02287113
-0.017430222
-0.006205691
0.2095464
-0.15123798
-0.11744749
-0.16247462
-0.065979354
-0.0117334565
0.08003316
0.0632475
0.029058753
-0.07121282
0.022073038
0.12324238
-0.026690599
0.011358154
0.053407393
-0.07314811
0.09154289
-0.036136605
-0.03475293
-0.08328164
-0.049101878
-0.00026156826
0.028324714
-0.065213785
0.03127156
0.0659131
-0.0468609
0.2077695
0.035909604
-0.11145681
-0.03911438
-0.028379116
-0.0030795145
-0.06856161
-0.04472472
-0.038458817
-0.0048672967
-0.07185758
-0.03941332
0.015749441
0.021546451
-0.02663372
-0.19747056
-0.034839578
-0.14768596
0.05711953
-0.08847316
0.017457658
-0.07213372
-0.026476495
0.1274336
0.03313655
-0.023401812
0.023538066
0.002986719
-0.049236383
0.016413502
0.0068747634
0.091887064
0.028812867
-0.09226465
0.12017824
-0.053081498
-0.07951787
0.019618647
-0.007299008
-0.09650136
0.10648961
-0.031235976
-0.012080856
-0.06268902
0.08792758
-0.1310238
-0.12147973
-0.03372656
-0.049914297
-0.022232963
-0.11967828
0.07080394
0.02438821
-0.009135212
0.033338677
0.12947421
-0.14354208
0.07995388
-0.08638999
-0.030518802
-0.004070135
0.017027251
-0.07077763
0.026857272
-0.07568583
0.031041356
0.009101123
-0.03746013
-0.05858372
0.14484043
-0.2609174
-0.014348381
0.12136457
-0.008002796
-0.07227983
0.034745578
-0.1076704
0.012815976
-0.1881395
0.073024236
-0.049497575
0.0805656
-0.013144665
0.03514381
-0.14190714
0.02389686
0.040010326
-0.007115484
-0.13616528
-0.067462176
-0.07622375
0.10182136
-0.09995091
0.053231686
0.06326202
0.09985156
-0.18341345
0.017329097
-0.007874044
-0.020999739
0.05086079
0.10690533
0.059211053
0.04627784
0.078134194
0.07390135
-0.163578
-0.033128288
-0.060499378
-0.08242189
0.38605714
0.23834315
-0.09086304
0.014224257
0.02803261
-0.010341227
0.12629122
-0.009917637
0.10773906
-0.053534713
0.029391158
0.25227126
0.11969068
0.07649384
0.19459458
0.17911611
0.03633448
0.06493601
0.035824206
0.09064623
0.10105515
-0.16534224
-0.0068390984
0.0867106
0.102724865
-0.03329346
-0.040782135
-0.0899799
0.09767057
0.035601452
0.3879725
-0.05101596
-0.13817036
-0.57428664
-0.004442119
-0.06725051
0.1138675
-0.104390785
0.049165003
0.034899298
0.042054117
-0.036634672
-0.091260515
-0.060063247
0.10610727
0.41500613
-0.256967
-0.033191163
-0.07003056
0.010552773
0.04057141
0.026612388
-0.034915395
-0.019976635
-0.111462735
-0.027183909
-0.032252446
-0.012418531
-0.0028840594
-0.010822491
-0.07957533
-0.18878244
-0.040220372
-0.042292815
0.01076259
0.013039568
0.010901164
0.10880527
-0.0043076947
0.0373428
0.03636505
0.051214837
-0.059160583
0.08024819
-0.03830279
-0.10406531
-0.19248019
0.06799206
-0.050691508
-0.047081668
-0.022864636
0.040486455
-0.0009796162
-0.0014254699
-0.0013478529
-0.09986859
-0.18027909
-0.1005366
0.096405864
0.21636933
0.09917478
-0.0967444
-0.04003984
0.024553755
-0.08014152
0.053864393
-0.027994907
-0.015333727
-0.0135136815
-0.06173966
-0.08782282
-0.18580955
0.41066498
-0.16935176
-0.0062007485
0.07806432
-0.058186293
0.083784394
0.044254415
-0.116217285
0.123466365
-0.029301258
0.10184715
0.119685024
0.13057226
0.17808339
-0.18154721
-0.092861205
-0.00645582
-0.008292921
-0.036544397
-0.0078085596
-0.005682541
0.09169175
0.042065658
-0.00743503
-0.04949993
-0.058894534
0.018466068
-0.015771762
-0.1006877
-0.23249266
0.10174708
0.021341478
0.0073861154
0.00023094936
-0.07836741
0.030583112
-0.04967586
0.022591764
0.03278535
-0.011387374
-0.15240721
-0.08355014
-0.034948763
0.13485363
0.028961945
-0.017618189
-0.054205842
0.08575422
-0.008526811
0.025761928
0.044934463
-0.08330391
-0.018066116
-0.1008928
-0.009337707
-0.06459264
-0.1312436
-0.113203056
0.020576471
0.03885703
0.050992265
-0.042847954
0.04522829
0.012796391
-0.036386758
0.10901662
0.045720648
0.019847628
-0.08487214
0.082475826
-0.006859439
0.11497783
-0.105593204
0.035823613
-0.02421045
0.094541326
-0.033931207
0.017744716
0.007762079
0.1702586
-0.24516256
-0.056227863
0.047902454
0.0069346013
0.027044494
-0.017120901
-0.09505454
-0.16796738
-0.10948212
-0.064442396
0.15205362
-0.05912237
-0.033657257
-0.049264695
-0.0086756125
0.031160485
-0.062002186
-0.05077587
-0.03621574
-0.045236453
0.0090991575
0.35258433
-0.18256316
-0.034933057
0.16209075
-0.22599098
0.094756894
0.027836487
-0.07222561
0.056624644
-0.042716853
-0.032262873
-0.03736894
0.015037091
0.32488924
-0.22071703
0.0018972788
0.457816
-0.030470282
0.06836912
0.21940044
0.15826027
-0.115670726
-0.030066747
0.1361111
0.13781206
0.08879078
0.1904197
-0.025820075
-0.08307679
0.067905925
-0.15657224
0.007282473
-0.059425943
-0.05802692
0.12728389
0.11555141
0.11912731
-0.06646271
0.08973144
0.065898724
-0.22565381
-0.23225014
-0.007610069
-0.055610098
0.21521191
0.12654176
-0.03792986
-0.06567756
-0.010429145
0.06024658
-0.03527082
-0.062053032
0.10265523
-0.13179716
-0.23054707
-0.009422941
0.16832723
0.058800384
0.17112161
-0.013672881
0.1273363
0.11056207
-0.053304836
-0.034201037
0.18435371
0.121886455
-0.21485347
0.08059232
-0.036017835
0.036860522
0.010788249
0.08909637
-0.331565
-0.052259933
-0.0019446886
-0.009586499
0.08445622
-0.21905974
0.095990315
0.15253653
-0.08278556
-0.07657299
-0.28247383
-0.2650518
0.08912295
0.062152907
-0.078168906
-0.05094193
-0.13568188
-0.034041397
-0.02859727
-0.18477808
0.0054291417
0.12300124
0.08874183
-0.41225192
-0.36391824
0.0036596812
0.0638035
-0.02052361
-0.01591762
-0.0379157
-0.0148611115
0.06720852
0.028452493
0.028115109
-0.13150595
-0.061315335
-0.12048365
-0.07971959
-0.033887126
-0.16514185
-0.048611753
-0.060743857
0.01750247
0.118118614
-0.17125998
0.03079365
0.19039911
-0.023763023
-0.059599087
-0.022410175
-0.08270393
-0.12732875
-0.056610428
-0.0052057724
-0.053017344
0.031690095
-0.05998791
-0.07743709
-0.09042438
-0.14177637
-0.002248422
0.041516136
-0.11778288
-0.007864582
-0.14432429
-0.3214317
-0.03452642
0.019967476
-0.061009027
0.22719432
-0.016561503
-0.016312294
-0.11866987
-0.02080129
-0.084374346
-0.18199308
-0.020784907
-0.14564025
-0.20573702
-0.00014065763
-0.0057676523
0.014690281
-0.12310991
-0.04792354
0.08642546
-0.04676569
-0.009482445
0.095921054
-0.10175853
0.01865543
0.11556725
0.13323087
-0.35270423
0.009279924
-0.108682804
0.2552162
0.043685444
-0.20343964
0.022688363
-0.094304256
-0.21459146
-0.089732096
-0.10788868
-0.2691193
-0.030918373
0.16082613
0.2423364
-0.04440341
0.16122015
-0.009478974
-0.052097946
-0.17950283
-0.27559343
0.073205665
0.025784161
-0.00022368894
-0.103084154
0.12374608
-0.2687974
-0.2702268
-0.046529915
0.0050025242
0.043693308
0.07549917
-0.03947601
-0.14219838
-0.089851566
0.008420643
0.009325036
-0.1992033
-0.04566903
-0.04943064
-0.23433267
-0.0062142867
-0.039870836
-0.019461377
-0.28953293
-0.028967561
-0.034288146
-0.3167389
-0.025121285
0.1316657
0.08635484
-0.020141467
0.13020442
0.038254086
0.1377651
-0.10212209
0.05929004
0.012988048
0.52031356
0.16619784
0.15015607
0.051234074
0.09748311
0.07434988
-0.092153504
-0.033387512
0.045843363
0.1230639
-0.0012012129
-0.35757166
-0.25032037
0.33720595
-0.13644686
-0.22426921
-0.10483983
0.13220665
-0.07833761
0.056071214
0.08428513
0.1272256
-0.08324782
-0.062449366
0.07899122
-0.21496631
-0.05467917
-0.07648361
-0.19824597
-0.0835072
0.086209826
0.083204344
0.07820035
-0.05835784
0.04763275
0.0747275
0.0029830437
0.057863537
0.012200988
0.13913438
0.0057692933
0.17326386
-0.11611138
-0.0111555
0.00752188
0.18995452
-0.022295121
-0.024471363
-0.057291497
0.009507882
-0.049294453
0.05193052
-0.05429287
-0.00075217057
0.096287906
0.1964824
3.9125716e-05
0.0056812996
0.119106285
-0.110130474
0.03821686
-0.06517337
-0.17479052
-0.019179272
-0.090996884
-0.083386384
0.1858939
0.09096946
-0.103395656
0.08202024
-0.108696066
0.18082285
-0.011525972
-0.117044546
0.090415195
-0.10369683
-0.0636624
-0.036647372
-0.118691824
-0.11061388
0.070798196
0.05889015
0.07292647
-0.07075539
0.10951795
0.1005314
0.049070157
0.014195558
-0.1323933
0.030569745
-0.22741605
-0.13472082
-0.11377901
0.030648138
0.023010897
-0.04648626
-0.037234128
0.5027919
-0.022599014
0.13461299
-0.07384098
0.057380386
-0.009841106
-0.0034689642
-0.017123709
-0.09390279
-0.10297359
0.01704971
-0.18958266
-0.0360025
-0.026307471
0.053978495
-0.10912224
0.06815348
-0.03510526
-0.045502912
0.0005841927
-0.081653535
0.12225784
-0.021258436
-0.15503074
0.05438941
0.08246981
0.16734523
-0.020262165
-0.044631638
-0.098592445
-0.13317856
