0.10212541
-0.36384732
0.038286343
0.26750365
-0.10455426
0.16245641
-0.12895316
0.10036376
0.0749248
0.31852803
-0.17330678
-0.0029172332
-0.32316127
-0.01002904
-0.101818025
0.049433935
0.13770224
-0.1271899
0.08261899
0.091901146
-0.18892607
0.0005517812
0.15923765
0.06006404
0.38913065
0.0063739093
0.1842592
-0.11045068
0.19256999
-0.080882266
-0.13818894
0.3120134
-0.08819381
-0.08542867
-0.12893668
0.30546343
0.08537461
-0.023202656
-0.23959486
0.0737792
-0.32197848
0.2234753
0.21859612
0.26544794
0.096119724
-0.2403139
0.0005843478
0.12269148
-0.16488127
-0.19004428
-0.1507057
0.045358315
0.123391695
0.30629942
-0.18861513
-0.06651334
0.3516957
0.01629263
0.40287814
0.23976664
-0.16324508
-0.3257948
0.0431178
-0.25046146
-0.3169234
-0.059962887
0.5042068
0.053227726
-0.03428091
0.021178689
-0.040340498
0.43744814
-0.19696979
0.08769758
-0.1014374
-0.40150782
-0.10755923
0.11710791
0.061617088
-0.36222035
0.05692903
-0.20802142
0.1952099
0.21958701
-0.07675504
-0.17955127
0.07669535
0.06369089
-0.38363668
-0.26089337
-0.27665687
0.008980238
0.29314074
0.046387523
-0.20928538
-0.36320084
0.18208517
-0.12555672
0.28112483
0.21928746
-0.090867296
0.09086122
0.2987052
-0.094756216
-0.33818623
0.17395459
-0.14189216
0.01800905
-0.014412987
0.16685939
-0.2567847
-0.31663236
0.016776742
-0.07064007
0.3384493
0.2492462
-0.16521071
0.012870296
0.16852586
-0.14585702
0.1524038
0.21318957
-0.08859035
-0.088480555
-0.33272916
0.023869803
0.14221638
0.21237563
-0.070440404
-0.33268908
0.16987409
-0.09457083
0.039489634
-0.21671914
-0.1976664
0.06696808
-0.08670098
0.009754301
0.17611516
-0.29623228
0.48437187
0.01066235
0.13839915
-0.4362219
0.07020276
-0.13844074
0.19189496
-0.43651992
-0.04287687
-0.011451796
-0.1261624
0.00911119
0.045034315
-0.18034254
0.16558231
0.0685571
0.037602294
-0.54858595
-0.2342891
-0.20869863
-0.49162388
0.0053555323
-0.118760176
-0.3483243
-0.0540181
-0.104492575
-0.076431766
0.13858864
-0.10205777
0.42152008
0.10189393
0.21214896
0.06531039
-0.0072903414
0.2903503
0.05774361
0.32467148
-0.26043713
0.18376733
-0.028248545
0.19645438
-0.24357475
-0.28246906
-0.23265757
0.31665877
0.0076506725
0.051653124
-0.09899212
-0.25637302
0.07186253
-0.066393584
-0.16877636
-0.41681048
0.0008991782
0.1935737
0.084102556
0.0001977922
-0.15356983
-0.29928684
-0.526204
-0.15624359
0.07914079
-0.18180346
0.102797344
-0.17236027
0.014404476
0.16994503
-0.30066296
0.37808836
-0.10286179
-0.15960488
-0.12579495
-0.10834371
0.1005046
-0.4672765
-0.3723204
-0.3247002
-0.38587895
-0.43176642
-0.17933959
-0.0624626
0.16500194
-0.22397602
-0.2611124
0.22310427
0.17030667
-0.15227915
0.15565187
0.41216114
-0.055419575
0.37158695
0.059763324
0.21610145
-0.13614416
-0.16853341
-0.21080689
-0.21930031
0.006055751
0.12348432
-0.08190459
-0.1050928
0.13979611
0.044966236
-0.10573296
-0.2433175
-0.12883365
-0.0138834445
0.124352515
0.19586445
0.12428074
-0.062199313
-0.3784611
-0.24699867
0.08070088
0.020593034
-0.21557198
-0.102303416
-0.13852984
0.36075234
-0.13364537
-0.29841223
0.28283232
-0.3276846
-0.41737026
0.26629356
0.053273972
0.0686219
0.07824122
0.03211923
0.05176143
-0.19505772
0.03444782
-0.24298713
0.25694126
-0.027657894
-0.47636902
-0.39453658
0.19499701
0.26445043
-0.06610965
0.1348841
0.104065984
-0.33281738
-0.4509239
0.017307628
-0.2835097
0.20198642
-0.3047655
0.31130582
-0.18868135
-0.01107369
-0.39208472
0.10112949
-0.35165346
-0.19353007
-0.2144319
-0.16828242
0.20539269
-0.08225025
-0.22070265
0.09210872
-0.28361002
-0.22253348
-0.06017521
0.2953148
-0.11078385
0.28184852
0.027093971
-0.287471
-0.1287737
0.2930519
0.009501451
0.32400653
-0.11864815
-0.31171983
0.2877265
-0.47623459
-0.31979293
-0.057578728
0.21647933
-0.1837898
-0.042728264
0.0613585
-0.17861395
0.2093386
-0.13067152
0.0998533
0.014301092
0.08497612
0.042862784
0.07497923
-0.23214278
-0.08920616
0.2572128
-0.26136577
0.22374678
0.1364854
-0.21550351
0.10171367
0.09299922
-0.3433309
-0.3037521
0.0032064724
0.15422986
0.12054832
0.022938011
-0.11127708
-0.05857247
-0.30461884
-0.18490954
0.077591866
0.08547904
-0.027963858
-0.18278684
0.13754398
0.096010484
-0.27840742
-0.4192429
0.179626
0.009973818
-0.010639372
0.101875074
0.08430695
0.10969315
-0.17140354
0.30224982
0.26637608
0.09303093
-0.13746154
0.35615256
0.03039607
1.3751521e-05
0.16047184
0.15943836
0.025864227
0.24849018
0.18300822
-0.23871817
0.16291307
0.37038946
-0.13516784
0.07182195
-0.20219722
0.3174494
-0.4246023
-0.021814752
0.17317455
-0.05408991
-0.065100774
-0.12860553
-0.11376025
0.13414425
-0.4454946
-0.3950751
-0.001271497
0.061223816
-0.18197235
0.16145971
0.1154384
-0.06194636
