0.2147772
-0.5931906
-0.5058761
0.04153242
-0.112988755
0.0640732
0.14021827
-0.02944943
-0.028629798
0.117525004
0.14022799
0.1684495
0.07627148
0.15458784
0.0324794
-0.0844193
-0.27461648
-0.041431356
0.0027875463
-0.27371338
0.03873771
0.119203
-0.62888426
-0.10526779
-0.22314985
0.036012083
-0.6560036
0.2548441
-0.012417638
-0.042895302
-0.17272136
-0.5945639
-0.43764395
0.09965968
-0.2850108
0.17102416
-0.54175615
0.28603572
0.007810958
0.1334094
-0.17101277
0.1625969
-0.09717418
-0.109534435
0.19434382
0.21735872
-0.71155405
0.1107486
0.32935372
0.094163366
0.06285854
0.24527183
0.09769834
0.19351289
-0.3486357
0.13028076
0.11500091
-0.16721576
0.048630733
-0.10458454
0.28681204
-0.042250652
-0.06658795
-0.22448792
0.14422636
0.07007002
0.26107672
0.16055681
0.16347678
-0.14720337
-0.08244022
0.2234708
-0.2979395
0.07642377
0.11306944
-0.02890442
0.17280471
-0.08091584
-0.119242586
-0.08419379
-0.22431743
0.04658086
0.15590335
-0.6480575
0.11870964
-0.08289442
0.00012892461
0.205966
0.21676038
0.34428838
0.15234442
0.026018485
0.060509216
0.14510356
-0.08755854
0.08075268
0.0651571
0.21090125
-0.0133285485
-0.060291313
0.20788181
0.18496421
0.10882745
0.18950868
0.12787761
0.12183939
0.056589212
0.07412348
0.10298762
-0.5224593
-0.054024827
-0.049593113
0.29670385
-0.13047129
0.1545235
0.20577589
0.28320584
0.2720835
-0.24874854
-0.6478924
0.16971298
0.16675699
0.12161394
-0.4933267
-0.5894012
0.23930064
-0.091620624
-0.6823999
0.09137503
-0.09395869
0.109441295
0.2308704
0.004460849
-0.06974951
0.17431995
-0.15798175
-0.1242914
0.092828974
-0.096248
-0.08199345
0.23801517
0.067657314
-0.01486292
-0.15708996
0.13108514
-0.3614442
-0.08382813
0.050977215
-0.05323996
-0.030778129
0.10117214
0.04769194
0.08234995
0.17149477
0.13158435
-0.1325299
-0.040933944
-0.3520229
0.17146777
0.14939664
-0.18432233
0.120125145
0.07584541
0.0047225263
-0.6741975
0.13120817
-0.05398272
-0.053847842
0.21669906
0.077350296
0.07962727
-0.10186956
0.18825524
-0.07045411
0.016548932
-0.5484427
0.18119448
0.105448544
-0.0075521995
0.019044196
0.11271236
-0.17759126
-0.016695486
-0.03677117
-0.011991649
-0.1682103
-0.093626544
0.22429346
0.11891277
-0.03473623
-0.0790952
0.021780707
-0.045807533
0.19727318
-0.07988956
0.16884413
-0.008345181
0.18082388
-0.03959014
0.028013863
