-0.007973644
-0.0076062055
-0.03565714
-0.085673556
-0.048575953
-0.12770873
-0.11281666
-0.12847094
-0.15949485
-0.061884657
0.02311338
-0.041781917
0.020291287
-0.016411897
-0.050244905
-0.13644847
-0.14374436
-0.13116862
-0.15896113
-0.18269995
-0.15095356
-0.14589892
-0.085509814
-0.051757213
-0.06112372
-0.077104725
-0.07786479
0.07796537
-0.101655565
-0.1616171
-0.1959945
-0.19597489
-0.14708796
-0.07208843
-0.11763427
-0.13948396
0.06084608
0.113995224
0.14893122
0.025069758
-0.12577698
-0.11293236
-0.08626606
-0.06746327
-0.109491386
-0.06449404
-0.043852873
-0.037285272
0.024645776
0.0693624
0.1256214
0.19655786
0.15343717
0.016357489
-0.110479794
-0.19817592
-0.00025099906
-0.07020986
-0.031770524
0.056787204
0.051264986
0.057678223
0.08700335
0.07206862
0.05764798
0.044621438
0.06211461
-0.053894784
-0.15734115
-0.115711436
-0.049345322
-0.09231712
0.026631529
0.040044393
0.03251833
-0.041232154
-0.033819128
-0.03371949
0.04337828
0.026196048
0.07412305
-0.0017715195
-0.17311774
-0.23101482
0.008934988
-0.0945023
0.04278628
0.13622095
0.041975606
0.043378636
0.03329298
0.013071511
0.04971163
0.16791986
0.13162914
0.0010683754
-0.10776112
-0.27502117
-0.04219228
-0.031089826
0.062066894
0.15632476
0.07068476
0.058951538
0.040144674
0.02816289
0.044821758
0.115759045
0.14206652
0.07187967
-0.057320453
-0.2560354
-0.0020042215
-0.037557714
0.037557226
0.22394492
0.09483551
-0.029355602
-0.05124225
0.04529036
0.029512044
0.15010144
0.118410416
0.10142971
-0.025896886
-0.22026727
-0.0313173
0.0017681812
0.12888171
0.1465439
0.0388108
-0.081072524
0.0079744365
0.04287794
0.1384813
0.15830433
0.053575024
-0.0052480423
-0.123318255
-0.2053087
-0.10157472
-0.06468765
0.021661578
0.12684184
0.117148094
0.1037282
0.03236031
0.06297865
0.18826897
0.013225303
-0.022907732
-0.063676365
-0.1202642
-0.2201676
-0.01684237
-0.063301735
-0.07354839
-0.049523834
-0.03179723
0.06514392
0.067074634
0.0711465
-0.007634042
-0.051189594
-0.0664386
-0.09660034
-0.16890654
-0.14659257
-0.035614405
-0.13999748
-0.15787938
-0.21846594
-0.07730905
-0.1287766
-0.09814209
-0.025232637
-0.013951423
-0.090794854
-0.08663852
-0.1718083
-0.08441942
0.025539182
0.013029995
-0.09377831
-0.22097035
-0.09089324
-0.08552443
-0.10964175
-0.106817
-0.003602486
-0.042742327
0.013466599
-0.06276154
-0.05967947
-0.041881032
-0.0378827
