-0.90800476
0.6841765
-0.35691038
1.2246107
-1.9020698
0.6448589
0.54710597
0.14560246
0.87617016
-1.2820934
-1.2368113
0.43654636
0.20782462
-0.12180136
-0.42905623
1.1413836
0.5176404
0.69064206
0.38785127
-0.8320877
0.58574104
0.40094727
0.8982221
-0.18038423
0.56531394
0.83764607
0.80744356
0.9749049
0.87805027
-0.40488634
1.0450926
1.1360228
-0.41504773
-1.5400636
1.0715339
0.8956318
0.37902758
1.3529723
-1.714652
-0.7968685
0.6964619
0.1003388
0.052146826
0.8046341
1.0094817
-0.21071124
-0.20129366
1.948806
0.5465534
-0.21747537
0.5428586
0.5979541
-0.83484274
0.4450671
-0.45284116
-1.1731249
0.42972898
1.0070823
-0.7138252
0.93824595
-0.98291546
0.79567146
0.6833049
0.73751795
0.78869635
-0.35071924
0.3988721
0.4640276
0.41838285
0.7537601
0.066711634
-0.6259819
-0.17430218
-1.2628604
-0.01853816
1.1950505
1.1559997
1.4017403
0.92778
-0.26521307
0.39444607
0.8583025
0.59524435
1.4702708
0.35891786
0.7739213
-0.7626893
0.6232841
-1.7353153
-0.8085106
-0.9222036
0.8243861
1.0316596
-0.8333126
0.7052138
1.1161758
1.473542
0.41104588
0.4544399
-0.29994127
