-1.223441
2.44645
0.18768205
0.84200424
0.1494667
0.013420938
-2.1290348
-0.15295023
-0.7141358
-2.72345
-0.3914658
0.5872123
-3.0146382
1.2740121
-2.4218917
0.53854406
1.2058886
-2.0911508
1.4404142
-2.7064342
-1.385851
-2.982589
-3.0367756
0.05484847
-1.6728932
1.6599406
-2.5320225
1.5666989
2.6284287
1.4989098
-2.79314
-2.6054156
-2.8694894
1.2312587
-0.53492296
0.5877719
1.1013131
-2.6460886
2.7716258
-1.6686414
-0.19119756
-0.049692996
-1.2988383
1.8887571
-0.6114803
0.7106223
2.449635
-2.3584664
-0.3720654
0.48949888
1.1723455
-1.9393228
-0.7844114
0.73216707
-0.84132856
-3.5311024
0.24202359
-0.42081594
-1.4935396
2.3428636
-0.83667135
0.94367284
-0.73201525
1.0868092
-2.9550285
0.95155275
-2.6166315
-2.3527424
1.4205952
0.97144616
0.35714063
1.0652714
-2.0353909
-3.6514423
-1.9876455
-2.6830277
0.80317724
-2.426529
-3.5320477
0.26062334
-4.3974075
-0.8612312
-1.4564698
1.4315248
-1.2953533
1.4756395
-0.31023106
0.059943654
2.2772768
-1.4821666
1.380983
-3.398619
-0.8003405
-4.0269217
-3.2278602
-0.7346224
-0.40137
0.37146103
0.06367318
-0.020479659
0.5924736
-2.7432692
-0.2668634
0.06305942
0.5744102
3.2645023
0.72859955
-2.3075972
-0.05537337
-0.07661934
-2.2109852
2.434053
1.1822578
1.8668197
1.6239736
0.5817892
0.50470877
-4.006682
-3.146773
-0.29912826
-3.4999907
0.5547307
-0.47354957
-0.15729804
-0.15400968
-0.22846948
-0.09703956
0.38072076
-0.19616362
-0.22525501
-2.028428
2.5238163
0.27467895
-3.550375
-0.32516414
0.2736039
-3.6902485
-3.2305706
-0.48312
0.58463496
2.9385455
-2.156672
2.5871081
0.080040544
-2.732649
1.3969135
-2.7576826
-1.9999238
2.0713966
2.266549
1.738367
0.55371773
-2.2023082
0.66673577
-1.8505412
-3.0800152
-0.19686307
-0.35127753
2.6709464
2.3553934
-1.1429195
1.7128563
-0.11930002
-0.1737323
1.3528349
0.807791
-0.036584735
-1.9372108
-1.08214
1.7006903
-0.73271644
0.65281403
2.3292155
0.85968715
-0.69626296
1.0629493
-0.20675565
2.797081
-3.2216165
-4.0665574
2.572495
1.0237217
1.0936546
-2.3091948
2.917513
-0.79048526
-3.2384183
-1.5922207
1.7831804
-1.5525383
2.250826
0.1660142
-0.8287179
-1.9257274
-2.2128625
-3.4248676
0.92932576
-3.0576336
-4.3424835
-0.5256087
