-0.05725835
0.07654448
-0.030495904
-0.0157227
-0.06552025
-0.04220823
-0.04506464
0.025796086
0.12006464
-0.014547727
0.27348214
-0.05196982
0.0375733
0.039381232
-0.046111733
-0.16410606
-0.021029001
0.12073547
-0.09526493
-0.041893907
-0.041359257
-1.4034832
0.016712494
-0.015851572
0.00829898
0.21105574
-0.014944572
-0.008584209
-0.021014685
-0.66254175
0.03254168
-0.0067955097
-0.0847453
-0.06999208
-0.10153336
0.083290264
-0.007763986
-0.8638704
-1.1494765
-0.018858476
0.08787083
-0.19652373
0.10818395
-0.27309492
0.03404171
-0.36587676
-0.013500996
-0.045126252
0.37924162
0.107210234
0.016860068
0.04337787
0.09819698
-0.024845162
0.07506824
-0.0017905788
0.08553009
0.062963665
0.063583784
-0.029116854
0.16571957
0.016950693
0.009893843
-0.056840777
-0.1382899
-0.07742521
-0.013357787
-0.03514608
0.16332202
0.10909724
-0.014110825
-0.03939276
-0.075220145
-0.76637405
-0.3494404
0.25023386
0.020752627
-0.080992006
-0.0007296925
-0.19420035
-0.047232598
0.05552626
0.0097514605
0.009134236
0.052322567
0.29192492
-1.6953769
-0.01726632
-0.21466279
0.036768317
0.05611174
-0.15490907
-0.028341074
-0.042164333
0.008866499
0.36346963
-0.099952966
0.053417917
0.08909093
-0.03432741
0.025266796
0.05274332
-0.06736431
-0.032502264
-0.00880221
0.1429818
0.055741113
0.044760477
-0.049887087
0.02230517
0.19168918
-0.062274408
0.112591
0.07528475
0.02927134
-0.034655146
0.03354286
0.030392537
-0.016685572
-1.0887167
-0.039583962
0.022645988
0.042604707
-0.01371557
-0.062316764
0.059570782
0.007519713
0.14641713
-0.18484564
0.03362513
-0.029707624
0.02734892
0.1435506
0.004746925
-0.0055066603
-0.06012661
-0.09344589
-0.039887708
-0.026528724
0.0279005
-0.046946183
0.15631087
0.1461085
-0.3737294
0.06416556
0.07192415
0.5103787
-0.04785521
-0.06607493
-0.050165527
-0.08085294
-0.34383306
-0.09804315
0.07058235
-0.23215637
0.023824088
-0.082028076
-0.071299896
0.09462972
-0.09001149
0.082523204
-0.10189697
0.22568387
0.08836247
-0.011023087
-0.10357577
-0.36306477
-0.05381653
-0.19620804
-0.0040269555
0.018846186
0.046598103
0.0004646641
0.21055606
0.07263259
-0.116946764
-0.49847472
-0.07588592
-0.13653876
0.03077174
-0.06283737
0.17442751
0.1356393
-0.04257572
-0.024699608
-0.07319971
-0.037351426
-0.004026204
0.08535697
0.059464797
0.17877367
0.010243347
0.061883777
0.005917753
0.16505057
-0.0057220026
0.07697689
0.065238535
0.054621994
-0.029539986
-0.054641925
0.011703135
-0.083650865
0.06976489
-0.09572776
-0.006516958
0.006729024
0.0045524593
0.013630876
0.059200015
-0.032049965
-0.03393005
-0.021087157
-0.00576181
-0.072445296
-0.042646434
0.03366077
-0.0146839535
-0.05378499
0.019082448
0.024877338
-0.013006933
-0.045785613
-0.001171384
-0.058374766
-0.06072059
0.035659637
-0.002675214
-0.010149357
0.041979127
0.0078062564
0.015213739
0.014645067
-0.011839294
-0.081956826
0.0068216715
-0.061845377
-0.040458813
-0.05105724
-0.046349354
-0.010247393
0.050863795
0.06923779
0.0025906703
-5.9876864e-05
0.018324709
0.04385209
-0.029722694
-0.054019827
-0.06748746
0.050722264
-0.07637203
-0.05343209
-0.06667573
-0.035354283
0.038400944
-0.03916747
0.048021324
-0.04813228
0.015512851
-0.061059598
-0.03757429
-0.009973967
-0.0035994041
-0.061925113
-0.079979144
0.064832434
0.032975677
-0.029781198
-0.04631368
-0.07459331
-0.10433502
-0.056539044
-0.022423744
-0.0740155
-0.016384847
0.015696317
-0.010056368
0.05327654
-0.04457259
0.021979125
-0.032404665
-0.049623203
-0.024169108
0.030505681
-0.07136987
-0.084817216
0.06367022
0.008183339
0.033978347
-0.01470438
-0.065897144
-0.067552306
0.054724067
-0.06998976
0.030863332
-0.0437133
-0.06757325
-0.0038888282
-0.047895055
0.007266739
0.0013853966
0.022394257
0.06905996
0.0018657043
0.017988836
-0.0050151995
-0.090764426
0.00091860746
-0.051180292
-0.025045298
-0.0125770625
0.03265775
-0.14178182
0.049378056
0.018205676
0.007417861
0.029526426
0.005831345
0.017855624
-0.10373622
0.024484897
-0.044103283
0.000871785
-0.009811083
-0.008008126
-0.025393229
-0.06405147
-0.07611324
-0.06799415
0.016305104
0.010171803
0.054450735
0.05821733
0.0356147
0.008872758
0.032249395
-0.06195308
0.024748571
-0.050486732
0.009759774
-0.029625023
0.033116125
-0.0034071098
0.058611482
0.004353075
0.069655396
-0.0146612935
-0.036660936
0.023383139
-0.007339961
-0.02945051
-0.004169139
-0.017694931
-0.043593094
0.06654205
0.020148803
0.059040032
0.019407993
0.008985044
0.049350664
0.04134891
0.040912412
0.020630363
-0.06333235
-0.06241258
0.010696422
0.011436992
0.013822221
0.036968622
-0.05724483
0.05062869
0.0019103677
-0.027050424
0.054023672
0.062845945
0.0019890263
-0.0560462
0.016183825
-0.042621944
-0.051239047
-0.049346138
0.06275256
-0.04660501
-0.055133443
0.015563566
0.07309857
-0.0254089
-0.0063477335
-0.049162813
0.045105767
-0.024084711
0.0028870667
-0.057635497
-0.024081906
-0.09917778
-0.012736205
0.026333774
-0.060358413
-0.048206706
-0.01914223
0.024850538
-0.005146416
-0.06875677
-0.038178913
-0.010519008
-0.015529793
0.019569261
-0.008110056
0.07879185
-0.04437514
0.014458856
-0.037275724
3.8197843e-05
0.011911538
-0.011133587
-0.023370603
-0.07540414
-0.022492496
0.014146902
-0.06394889
-2.6465971
-0.022498915
0.012621856
-0.011817159
-0.048854496
0.04509041
0.036960196
0.038225856
-0.6639609
-0.045341507
0.052198317
-0.018227091
0.010658324
0.037505712
-0.03239807
-0.08474526
-0.9932799
-0.0103026135
0.0041091302
-0.021103377
-0.12609166
0.07120376
-0.20401073
0.033491112
-0.33986658
0.018753164
0.015476029
-0.10363694
0.057783753
0.06575209
-0.011292974
0.0844102
0.15143117
0.006426568
-0.048058197
-0.064720355
0.04987497
-0.029643392
-0.0480435
0.09345388
0.007641799
-0.043590646
0.073170096
-0.024372412
0.041599598
-0.064210474
-0.027779443
0.0012998844
-0.06528043
0.0021438035
0.044949144
-0.008625638
-0.9824544
-0.27407667
-0.09574558
0.055554394
-0.0046065957
0.0015794488
-0.1462422
0.09791555
-0.04887091
0.12992084
0.020946532
-0.012707153
-0.057532534
-1.8388548
0.07197357
-0.19086732
-0.047721095
0.0029898826
-0.0073489905
0.039804555
0.07768091
0.033564713
-0.005682642
0.05695387
-0.07355729
0.08155529
0.0790668
0.05894622
-0.012399069
0.01985734
-0.03160654
0.014715112
-0.01028935
-0.00091927045
0.08746378
0.05612092
0.013344867
-0.056139257
-0.020605244
-0.0484019
-1.8865599e-06
-0.015917657
-0.047374677
-0.031270377
-0.08163093
-0.107343644
-1.3362122
0.008415668
-0.050642204
-0.007634997
-0.22243777
0.03989523
-0.05860341
0.0129575
-0.010582555
0.022540154
0.006432107
0.01644866
-0.14079845
-0.06315614
0.020971226
0.05704306
-0.006983522
-0.043612212
0.04198643
0.062335566
0.021863367
-0.024303315
-0.084680654
-0.069411024
-0.05891541
-0.02100474
-0.06756285
-0.05950905
-0.15994422
-0.001968128
0.03999111
-0.21800974
0.005868862
0.0073127504
-0.0610515
0.011042147
-0.17763805
-0.03498035
-0.014310411
-0.0015803906
-0.041304477
-0.0142031275
-0.096470304
0.027006289
-0.13918644
0.059924267
-0.025455695
-0.07658965
-0.01452068
-0.16651514
-0.08076123
0.066526346
-0.032045327
-0.06339888
-0.032473244
-0.020290704
-0.0028918376
-0.04170293
-0.001678438
-0.008568989
-0.052856065
-0.0014966927
0.10313802
-0.074568845
-0.044318188
-0.025264295
-0.09383699
0.065143004
-0.20751318
-0.044326924
-0.08681747
0.0895326
-0.046133865
0.0057405005
-0.02821889
0.056404434
0.010179206
0.060200844
0.092352614
-0.5747592
0.026812857
-0.012235199
0.054645035
-3.8997483
-0.0230852
0.053502824
-0.01668997
0.06456572
-2.2464213
-0.0940378
0.027584711
0.043598995
-0.023226876
0.04402096
-0.7909495
-0.15151024
-0.032290194
0.054025054
-0.10502305
0.018662158
-0.067411765
0.0061012614
-0.021469159
0.09204915
-0.035955116
0.10531789
-0.048778873
-0.42298192
-0.016066728
-0.0033602002
-0.008763556
0.02188044
-0.37835932
0.09674662
-0.1173225
-0.14721556
-0.012112984
-0.12726985
-0.18307401
-0.011968465
-0.39795315
0.01175917
-0.15299103
0.062129166
-0.001646646
-0.003765562
-0.14773625
-0.74625695
-0.94228166
-0.028566066
-0.005631444
-0.11735275
-0.03371549
-0.07560015
0.031759873
-0.06523733
0.020560246
-0.05379149
0.025302457
-0.00019466002
-0.020214831
-0.067803636
-0.07403824
-0.06067701
-0.01945276
0.031640645
-0.064637035
0.052762814
-0.014176811
-0.03733793
0.012073462
0.05347418
-0.008985596
-0.21271324
-0.03963024
0.014512136
-0.10021882
-0.08078067
0.036800887
-0.001037035
0.015750013
-0.27003393
0.008305457
-0.026034482
-0.17766294
-0.02455484
-0.21650223
-0.002680369
-0.061193403
-0.13846694
-0.21036062
-0.0538736
-0.02310958
0.01185117
-0.0089585055
-1.0983154
-0.04750092
-0.017470673
0.061784294
0.03529255
0.03232412
0.0328019
-0.038899124
0.046455596
-0.024008997
-0.3543234
-0.16766037
-0.2664843
-0.26178586
0.0009828319
-0.44306934
-0.040568657
0.17105079
0.037814345
0.071952835
0.030144537
0.011435457
-0.7600789
-0.14247519
0.09112585
-0.7826316
0.028502703
0.046463598
-0.024240637
-0.029146748
-0.070404686
-0.16844751
-0.098025
-0.07171063
-0.03263713
0.03287923
-0.01099887
0.00805221
-0.053514123
-0.038278695
-0.3270108
-0.08776311
-0.02436895
-0.07668103
-1.002525
-0.004700825
0.047080196
-0.31799185
-0.04770693
0.023210013
0.035940032
-0.10538933
-0.051277317
-0.00467231
-0.05979948
-0.01477251
0.006323118
0.020330636
-0.0048418483
-0.031315334
-0.037220806
-0.05827163
-0.1046427
0.04896149
-0.09213213
0.060205463
-0.044856843
-0.17202279
-0.020789806
-0.002974387
0.060661353
-0.049810655
-0.12464523
0.035713904
-0.07578477
0.07053301
-0.014030596
-0.067964114
-0.71967775
-0.08302937
-0.035295285
-0.031100739
0.018929504
-0.022800267
-0.07422454
-0.033181425
-0.13501272
-0.3603629
-0.13399352
-0.09551385
-0.21586977
-0.015361473
-0.0040755738
-0.006669512
-0.07650622
-0.044743806
-0.02951961
-0.03382723
0.008650962
0.024068888
0.01687571
-0.045529854
0.013420512
0.16386333
-0.861858
-0.079541765
-0.07126787
0.0297104
-0.014280951
0.009130634
-0.028023455
0.04841761
0.0296286
0.0094885705
0.033703517
0.062457398
-0.123035595
0.07598785
-0.047117926
-0.008250472
-0.033742297
-0.11988369
-0.010082984
-0.14589845
-0.04751214
-0.05284066
-0.0074551143
-3.1201415
-0.027142948
-0.009642092
0.021247601
-0.00029801685
0.020168103
0.034415822
-0.014284064
-0.51356167
0.007827383
0.08103844
-0.009603645
-0.02178028
0.026539782
0.0020106216
-0.16684641
-1.037265
-0.9595712
0.07130783
-0.040016077
0.041505635
0.048584335
-0.21791025
0.0029814031
-0.35261554
-0.047169022
0.008750735
0.044133924
0.06266057
-0.045133412
0.109249264
0.14343235
-0.061146233
0.0731078
-0.057882406
0.07454521
0.09163902
0.0088485
0.024599502
0.068047136
0.0011875066
0.040321898
-0.07156589
-0.12345099
-0.07939175
-0.01613584
0.027940825
0.057842355
0.020998012
-0.03389615
0.0649449
-0.16428758
-1.0792582
-0.2867348
-0.029374838
0.14719513
-0.02714398
0.014820361
-0.21014406
0.01968952
0.02662859
-0.037342686
-0.001828456
-0.013851189
-0.0016281885
-1.2144493
-0.036020987
-0.2513136
-0.042575736
-0.012965762
-0.15985233
-0.027847994
0.05828243
-0.0011377119
-0.0012284731
-0.07921665
-0.08047736
0.04003592
-0.009889833
-0.02059281
-0.026006903
-0.063127145
-0.019936636
-0.049297392
0.022672324
-0.015051703
0.036253035
0.15570642
0.039649367
-0.11486006
-0.04055724
-0.151914
0.052816316
0.020722354
0.05968497
0.06268783
-0.040276527
0.057016775
-1.8067288
-0.0004360741
-0.050091688
0.0015589406
-0.33274496
-0.059550554
-0.050965216
0.030202378
0.10180524
0.11264048
0.03851049
0.04752567
-0.1953806
0.08928427
-0.020624096
-0.052163094
-0.06717315
-0.038789038
-0.07929693
-0.04115614
-0.09469399
-0.025566557
-0.032628946
0.01121854
-0.22895443
-0.03016275
-0.06064148
-0.012368825
-0.109154195
-0.057018522
-0.03445975
-0.09120199
-0.14640328
0.019483162
0.013478362
-0.055766918
-0.14248051
-0.06635478
-0.0022730695
0.14373787
0.06608084
0.05230025
-0.0099343145
-0.026666315
0.0352774
0.032444343
0.0069517833
-0.117721744
0.21321954
-0.18327767
0.053638432
0.09184451
-0.032995857
-0.04822828
-0.05607407
0.047290906
0.0013343799
-0.31689116
-0.0020181425
-0.1436083
-0.060442355
-0.07629269
-0.076285124
-0.06967534
-0.024471994
0.1116998
-0.20184255
0.03550503
-0.28028587
-0.2536535
-0.040834364
-0.095538065
-0.05693587
0.09779802
-0.015905727
-0.10429384
0.017040974
-0.051126443
-0.045199316
-0.7400674
-0.21229488
-0.08696382
-0.0111412695
-0.0022643316
-0.0024048637
-0.059002988
0.071928196
-0.00048443052
-0.005047284
-0.09066967
-0.05468769
0.08141355
0.009654725
-0.048084557
0.06928321
-0.07778165
0.20459343
0.0071766544
0.035149395
-0.012575849
0.00076575764
-0.034549642
-0.0049598003
-0.09426118
0.06789636
-0.09132945
0.07298221
0.06593805
-0.0039110477
-0.2144333
0.027334644
-0.047656883
-0.030622952
-0.009434151
0.024966346
-0.8064254
-2.9140584
0.1479962
0.0152998045
0.0021965916
-0.03335258
-1.0167686
-0.02338517
-0.11460957
-1.3645514
0.005019418
-0.05701401
-0.012042128
0.08837168
-0.12519261
-0.03864711
-0.15581128
-0.102379456
0.11549615
0.043601785
-0.07337848
0.020526225
-0.14648378
-0.0113754915
-0.0022305315
-0.1622395
-0.25861517
0.032271206
0.031977106
0.08176705
0.04908264
0.051742386
-0.17064372
-0.010478158
0.03631942
-0.14110728
-0.033167746
-0.09535408
0.07490147
-0.018533932
-0.03474787
-0.21105953
0.054975096
-0.06162951
-0.14029048
0.054419342
0.008458892
-0.031950444
0.015240786
-0.31824103
-0.093586944
0.0030858547
0.0004126305
0.1519275
0.015191744
-0.18593425
-0.12214143
-0.003461948
0.02635191
-0.08020313
0.06323331
-0.15755728
0.029173924
0.03644272
0.07947779
0.108624674
0.059738256
-0.0054538385
-0.042874373
-0.07217531
-0.20755428
-0.04020389
-0.15056132
0.07853227
-0.23234837
-0.013295593
-0.016212566
-0.0790964
0.08758078
0.027566971
0.031257536
-0.08355161
-0.049863134
0.012559959
0.04745343
-0.015262702
0.022987045
0.049043123
0.13569333
-0.40068537
0.053697545
0.13537192
-0.1814121
-0.15697272
-0.021007705
-2.2047133
0.0013500511
-0.24918804
0.07443707
-0.0715381
0.09660153
0.13391557
-0.14291649
-0.9306011
-0.012244398
-1.0657512
-0.03568473
0.12020484
-0.267391
-0.03226462
0.023940453
-0.5650307
-0.06945239
0.044563733
-0.2802947
0.032949455
-0.013795302
0.010303245
-0.063880175
0.033853125
-0.042447243
-0.08145859
-0.0038702546
-0.18883589
0.023727689
-1.5956844
-0.05747349
-0.010883991
-0.3274775
-0.08507988
-0.007020048
0.024325969
-0.0499886
-0.053425413
0.1210317
-0.31279945
0.025892759
-0.008159412
0.027385676
-0.6682114
0.085910924
0.058189053
0.020914102
-0.06329578
0.08081723
-0.021449039
0.0021479619
-0.034880176
0.095062144
0.13406706
0.3380222
-0.4745588
0.0476142
-0.720081
0.0023612708
-1.5337427
0.059236426
0.03568982
-0.055542633
-0.035787277
-0.052513637
-0.03797977
0.10200607
-1.4564004
0.01935142
-0.013604465
-0.0017326155
-0.03367584
-0.012256827
-0.06674992
-0.07629843
-0.056202464
0.034278255
-0.0076591517
-0.011313529
-0.005779994
0.17186932
0.109089054
0.0864733
0.062918864
0.07299895
-0.09340486
-0.02022363
0.10664383
0.013752255
0.014776976
0.020391569
-1.5372491
-0.010908542
0.0107873315
0.012136143
0.11251228
-0.00176641
0.005773341
-0.041891508
-0.36819398
-0.021490604
0.054352246
-0.02261579
0.0031768424
-0.023241334
0.076628014
-0.030982502
-0.77281016
-0.0062273648
-0.08005147
0.15238777
-0.18591373
0.08438368
-0.26154503
0.056769803
-0.38895348
0.05392336
-0.023070712
0.5058823
0.14840667
-0.023147339
0.029973641
0.033429552
0.23176707
0.00065955054
-0.04748028
-0.16059226
0.057657238
0.05576818
-0.06619517
0.1680688
0.089765154
-0.05044743
0.04709659
0.008459433
0.0012536251
-0.11857142
-0.040830795
0.20451401
0.065551475
-0.07613538
0.016434714
-0.037185833
-0.76013273
-0.3728105
0.12939273
0.08070296
-0.013387389
-0.027983526
-0.17237149
-0.16901506
0.007309888
0.034008723
0.06389638
0.035827916
0.34939206
-2.085965
-0.027398711
-0.1574611
0.010772049
0.050712455
0.047748998
-0.045812994
-0.015256654
-0.08767975
0.42334223
-0.04443373
0.09647225
0.07482679
0.007963867
-0.021864576
-0.02639466
-0.02638174
0.029615583
0.09946385
0.027871514
-0.01065079
0.046324223
-0.13656074
0.018860802
0.2106683
-0.092493184
0.023146613
0.00047762177
-0.0050759003
0.036735654
-0.01435095
0.03453123
-0.057166614
-1.0284877
-0.048615728
0.077814415
-0.0029419633
2.708869e-05
-0.013410913
0.02816396
0.022436986
0.020093128
-0.12651642
-0.07600847
0.017119862
-0.11340652
-0.016854672
-0.05094746
-0.030994438
0.04302084
-0.08309569
0.04557061
-0.015511934
0.112096265
-0.031087061
0.13739204
0.11089627
0.0129277045
0.015364436
0.062939145
0.5209849
-0.10881242
0.064223796
0.051805846
-0.08682779
-0.09628609
-0.0020488617
0.11939636
-0.1492131
-0.06250217
0.037614666
0.040823564
-0.014595271
0.05567298
-0.015414303
-0.08518253
0.13131388
-0.003402615
0.020441417
-0.08409685
-0.5647157
-0.28613538
-0.15645078
0.13001889
0.022579102
0.05806773
-0.062115666
0.12375511
0.0005927774
0.03162748
-0.12458365
-0.10716545
-0.001464658
0.030689789
-0.007611668
0.017406395
0.04804793
0.00749724
-0.023686528
-0.075025804
-0.022291629
-0.084741384
-0.09992612
0.061694887
0.09934972
0.037154265
0.017792638
-0.030210339
-0.15336496
-0.008579283
-0.012100235
0.15621899
-0.27808195
0.082454756
-0.06604621
-0.008503523
-0.004089935
0.053645417
-0.117915235
0.12808372
-0.0055505643
0.012409222
0.0013327774
-0.02682245
-0.06602359
-0.056944907
-0.008882714
-0.035225917
-0.017509442
0.039449077
0.0018070926
-0.45060873
-0.047990553
0.031941183
-0.010750806
0.019555015
-0.12102308
0.017835049
0.040767137
-0.034434758
0.037742335
-0.014250529
-0.71479034
0.13925025
-0.021270119
0.06378663
-0.10082347
-1.6037409e-06
0.07896839
-0.0016149137
-0.0034572936
-0.0024440174
-0.05679418
-0.060287647
0.051091257
0.082223125
-0.13038091
0.09968946
-0.10305623
0.058722086
-0.006663042
0.03453872
0.24652919
-0.024663754
0.109255806
0.04090335
-0.040558573
0.060439702
0.10777387
-0.06678529
0.04917321
0.03797733
-0.12941037
-0.071505345
-0.2597821
0.105282135
-0.0012107647
0.052116357
-0.09266841
0.2816229
-0.14361025
0.040633995
-0.03858549
-0.26697877
-0.085603274
-0.13010053
-0.13481012
0.00879459
0.09695385
-0.047579147
-0.0048499666
-0.02434514
-0.085627966
0.07496441
0.14549719
-0.010602005
0.22270535
-0.35700068
-0.29021004
0.028347077
0.034735337
-0.08187946
0.007408295
-0.16884221
-0.14524506
-0.02830144
0.084370136
0.020626346
-0.0031566515
0.007363109
0.15938373
-0.106025636
0.14518367
-0.018930214
-0.003683294
0.16076179
-0.06029503
-0.0116254315
-0.04789793
-0.12936239
-0.33769518
-0.02010194
-0.35493413
0.0960908
-0.3722581
-0.04248335
0.050928596
0.014324568
0.014057809
-0.010580091
0.0037392252
0.10863938
0.10105918
0.008268562
0.052534018
-0.070964925
0.057057418
-0.009350824
0.003162511
-0.17775354
-0.13723344
0.0014309153
0.024190495
0.0041774963
0.033215985
-0.14914545
-0.02358234
-0.000854821
0.063406065
-0.033660255
-0.026173351
-0.10083867
0.06864084
0.014671102
-0.04015811
0.13227299
-0.5470291
-0.09366941
0.014321407
-0.49543956
0.19114576
-0.027327783
-0.29340044
0.047670476
0.08563727
0.059375513
-0.0025851869
-0.25297305
-0.09058177
-0.24741085
0.09933174
0.11531386
0.08021072
0.07496741
0.03328474
0.14244463
-0.007056556
-0.6039851
-0.07090343
0.04463603
-0.13004538
-0.05574917
0.17710967
0.08701946
0.13531187
-0.043134615
-0.049965665
0.022476813
0.11858776
0.06655669
-0.16522555
0.11214055
-0.02431609
-0.046639744
0.123062454
0.10173212
-0.07150805
-0.0026606612
0.10462434
-0.10061424
0.08041906
0.033944346
0.086832896
-0.017960776
0.08538145
0.022470454
0.057705592
-0.6680118
-0.107228145
0.017348073
0.104652636
0.009555779
-0.039600518
0.12765507
0.011710426
-0.028927892
-0.003623469
0.047980558
0.04761522
-0.030164668
-0.018250396
0.0020906676
0.045931417
0.017265484
-0.061886862
-0.10168639
0.06332925
-0.030065797
0.07950794
-0.1007624
-0.00046631534
0.037824698
-0.06526134
0.011536825
-0.086095735
-3.531702
-0.02178723
0.012640242
-0.018392406
0.057157397
-0.14538197
0.029247623
0.051530108
-1.4125535
0.045468275
-0.12374942
-0.02480462
0.0043888506
0.060900524
-0.14750536
-0.13673504
-1.510896
-0.0018146659
0.018605184
-0.073458716
-0.09846456
0.045604993
-0.29076904
-0.022410309
-0.6415552
-0.008718503
0.029260918
-0.061269183
-0.00037315956
0.10187603
-0.022577805
0.12488477
-0.0776395
-0.0032085367
0.07858538
0.15481053
0.05516413
-0.038293768
0.0091802655
0.20920284
-0.04241362
-0.063485384
-0.014783061
-0.06256666
0.054111827
-0.050285585
0.085281074
0.021457037
0.12646987
-0.008559655
0.03173413
-0.061661888
-1.3858113
-0.4944436
-0.09443226
0.092830464
-0.010920016
0.022127835
-0.21738067
0.0688792
-0.004479118
-0.017449815
0.12378334
-0.17216296
-0.1186258
-2.4326477
-0.0020174826
-0.40572286
0.088092364
0.047192622
0.03696072
0.0043273093
0.061861962
0.037031814
-0.061069418
-0.015893409
-0.09993126
-0.015356133
-0.028802793
0.009822217
0.0145471655
0.04911402
-0.0062852893
0.08383601
0.058646526
0.018693686
0.087370545
0.023896925
0.026806263
-0.12357738
-0.034346838
-0.015313088
0.023589265
0.0073305797
0.121464014
-0.055088438
-0.08318043
-0.009004081
-1.870143
0.033050023
0.06846561
0.045027286
-0.14493075
0.022526225
-0.05631551
0.10357905
0.0048277318
0.05680456
-0.03735777
-0.034389548
-0.241804
-0.027925953
0.05777279
0.06563916
-0.019017212
0.08047827
-0.003947852
0.011749924
-0.09696532
-0.00025493125
0.0083702635
-0.053735018
-0.01674152
0.05305964
-0.011256761
-0.022981899
-0.04823089
0.011697362
0.06970035
-0.018622328
-0.043318965
0.059376694
0.0022535247
-0.005835365
0.023457892
0.052672442
0.00406724
-0.0025511917
-0.018506521
-0.015978215
-0.00013781656
-0.027770914
-0.009430167
-0.012366166
-0.01765175
0.005791619
0.063730404
-0.27109677
-0.009014542
-0.020566212
0.057021752
-0.026369067
0.07169411
0.07513086
0.02948155
-0.026531322
-0.042407993
0.022824585
-0.0119884685
-0.04325386
0.10894214
0.0113225
-0.0023255844
0.03963723
-0.16924007
0.012885487
-0.21934864
-0.09920949
-0.12841071
0.060152363
-0.022198964
0.030820677
-0.020426717
-0.06014271
0.010029561
0.009983836
0.004321693
-0.9461271
-0.031084025
0.008847825
0.035169154
-0.006565931
-0.109737195
-0.037150916
-0.038727216
-0.04459326
-0.008649172
-0.016992817
0.04570346
-0.0736235
0.01494332
-0.0726035
-0.0024506794
0.03462542
-0.008240885
-0.041646216
-0.26619053
-0.04177932
-0.00782925
-0.03623356
-3.0713115
0.054143015
-0.056262948
-0.015536475
-0.011669578
0.11846707
-0.016730277
-0.25272492
-0.24232587
-0.047801293
-0.010467085
-0.000749709
0.018802065
0.043261785
-0.791126
-0.30847958
-1.4942682
-0.021382518
0.04701236
-0.31415302
-0.012774755
-0.1175183
-0.38012242
-0.04554091
-0.6038478
-0.022168895
0.043908205
-0.115278974
0.012457656
-0.17309523
0.024629695
-0.027064271
0.15571152
0.059999734
0.041946545
0.059298392
-0.04328211
-0.002394211
0.032460812
-0.31215745
0.006546223
-0.050805103
0.04072383
-0.013348483
0.09225121
-0.04057688
-0.026799474
-0.043861203
-0.030907206
0.01250213
0.013014493
0.054965883
-1.2059512
-0.3176586
-0.115436934
-0.21354719
-0.018510425
0.017556312
-0.28621358
0.0127860615
-0.001241229
0.016710117
-0.062108327
-0.11181265
-0.10272413
-1.1346979
-0.02100867
-0.14573988
-0.012753651
-0.056834828
0.0071514524
0.037851296
0.04565807
-0.0025816641
-0.18690827
0.030250363
-0.089798845
-0.015187996
-0.05948143
-0.032837994
-0.182664
-0.042233936
0.020415293
0.028005956
-0.11961616
-0.0433468
-0.07463331
-0.019457811
0.052937806
-0.11753694
-0.0053844447
0.06686662
-0.053696994
0.04430902
0.014082757
-0.029218378
-0.16045307
-0.0019225144
-1.900552
-0.03655671
0.0617154
-0.03704736
-0.1809464
-0.0067276587
-0.005209061
-0.21748352
-0.006681301
0.03837444
-0.089009665
0.05757105
-0.25182608
0.0056694574
0.118021615
-0.08745831
-0.011740173
-0.037121244
0.027737606
0.031568628
-0.14709486
-0.0634586
-0.05248138
-0.18390597
-0.025199406
0.0045731324
-0.07489423
0.06963189
-0.10033173
0.137246
0.05995125
-0.037434597
-0.024449212
0.030135268
-0.034496758
-0.008577037
-0.1573932
0.059518937
0.023951005
-0.050067887
0.07578004
0.043408476
-0.014075185
0.044698402
-0.08693391
0.05500155
-0.0797346
-0.104906574
-0.016095191
-0.20713148
0.07145779
0.036810406
-0.047627643
0.01371682
0.11134797
-0.056830704
0.09427861
-0.03897701
0.11878957
0.056615427
0.06389311
-0.09238959
0.037861712
-0.05543482
-0.08933562
0.026088456
-0.022679988
-0.011012272
-0.1693814
0.013907577
-0.4464937
-0.23073062
0.0037008866
0.016962588
-0.14662778
-0.022429164
0.0063366084
0.111554846
-0.050652698
-0.92530614
0.055474907
-0.13314325
-0.012566936
-0.016151844
-0.028221222
-0.018634783
-0.01941917
-0.03375306
0.0030691796
-0.01799684
-0.031263176
0.006380051
0.117753975
-0.004884349
0.072041124
-0.032550838
-0.18131642
0.036533203
-0.22515441
0.05367635
0.15718518
-0.054530885
-0.020453027
0.09395056
-0.039822835
-0.036186684
0.00919053
0.04191962
-0.070118144
-0.123547755
0.2785716
-0.01681569
0.03305519
0.099512964
-0.16394904
-0.26334658
-0.1281022
-0.41128746
0.08993667
0.05620053
-0.10372267
-0.026659206
-0.16425078
-0.08059724
-0.24609488
0.001485499
-0.06443664
-0.011439173
0.14700244
0.037693325
0.017379386
-0.21867044
-0.051386308
-0.24886993
0.21042949
-0.061702628
0.024845077
-0.113519505
-0.024584258
-0.24581659
-0.03626989
-0.01123238
-0.046904795
0.07119178
-0.056246024
-0.022682413
-0.026444154
0.069457226
0.01421697
0.090364814
0.068157405
0.0035147835
-0.055367872
0.12677601
-0.1885335
0.18906496
-0.047951076
-0.08505766
0.0010444302
0.05976895
0.08372528
0.03761276
-0.023468917
-0.06560493
-0.24322087
-0.09420411
-0.027305948
0.10796132
0.12653337
-0.031561084
-0.22292925
-0.11533686
-0.061311025
-0.0575085
-0.039178174
0.05671419
0.06726113
-0.00854916
-0.122490786
-0.05966431
-0.06308387
0.04421709
-0.009382995
-0.019638171
0.04806665
-0.11666931
-0.050252903
-0.13468924
-0.05402199
0.056997173
0.07967159
0.09789601
0.057066157
-0.03873324
0.010631724
0.058150735
-0.038225733
-0.09062359
-0.037454728
-0.1549818
0.015128603
-0.29948953
0.040874094
0.11981109
-0.007451684
0.045636445
-0.035432916
-0.015110485
0.010866251
0.12560533
-0.06775029
0.012613204
0.045378532
0.13598906
-0.054481164
0.089269966
-0.15232424
0.049500722
0.0026418495
-0.024577646
-0.119651236
0.047924615
-0.027514232
0.17468558
0.06102656
0.2692822
-0.15180838
-0.079623975
-0.2661034
-0.025647927
-0.17896892
0.040430214
-0.17582348
0.048549306
-0.13867143
0.050638042
-0.096462525
0.029241094
-0.049254157
0.15380272
-0.1505099
0.06056296
0.03004629
-0.19404525
-0.12673843
0.04576355
0.052785456
-0.013275543
0.049292535
0.13091376
-0.22303386
-0.02827644
-0.048879057
0.020655205
0.114934176
0.06527104
0.31168577
-0.21890388
-0.0068632886
0.20102009
0.034053653
-0.14236927
0.13448542
0.05382147
-0.040528767
-0.0008160336
0.043552622
0.046516664
-0.04997874
-0.029194608
0.009145701
0.15271673
-0.046062335
-0.1798689
0.09670481
0.060420457
-0.21426766
0.017586997
-0.21645235
-0.07926661
0.13408072
-0.035703175
0.08358095
0.02451849
-0.053204052
-0.12951894
-0.059839316
-0.018944824
-0.00055280165
-0.06798051
0.06911846
0.16418226
0.09282402
0.010050692
0.34024462
0.06741884
-0.1021471
-0.08084707
0.08732609
0.0164563
0.050811745
0.062145714
0.0050184373
0.023114266
-0.04950459
-0.10225843
0.06037042
0.16928999
0.1429499
0.041054964
0.27005312
-0.043786135
-0.024459634
0.022831013
-0.07892099
-0.08085653
0.009718889
-0.19926943
0.12711431
0.0014677722
0.11092613
-0.038311258
0.015407771
0.009146869
0.17610322
0.018147422
-0.043576133
0.03398737
0.17935699
0.01277291
-0.10094504
-0.19227272
0.032994803
-0.120502666
0.26923
0.07062842
0.011332086
-0.14999153
0.02164937
0.12233352
-0.08003804
0.004127089
0.071217306
-0.026604109
-0.049880497
-0.041651018
-0.048350796
0.005601801
0.058767945
-0.015355729
0.08864027
-0.09826334
0.012993468
0.29877526
0.0081697265
0.11592587
-0.008507596
-0.24440706
-0.020475797
-0.093326956
0.05419402
0.21399382
0.019640964
0.042223718
-0.07716699
0.047770973
0.09295776
0.16707158
0.07764744
0.04560698
-0.18828148
-0.16096924
0.09866757
0.09234715
0.013857988
0.09009058
0.17085852
0.30538362
0.11766781
-0.11993243
-0.00037669644
0.040607125
-0.033085514
-0.058771044
0.03925724
-0.07352306
0.024534587
-0.018156763
0.034146935
0.21650004
-0.075550504
0.13773592
-0.043422785
0.05796831
-0.019545468
-0.022082737
-0.009339426
0.010080374
-0.046623025
-0.04969279
0.0029062752
-0.16021395
0.06503222
0.07160602
-0.015940312
-0.07617024
0.32842624
0.039933734
0.032101262
0.14402235
-0.0803739
0.05913223
0.14455505
0.11243923
-0.023588398
0.021365736
0.17715134
-0.07614015
0.039535306
-0.09205501
-0.124187104
-0.014334495
0.098799996
0.102867104
-0.02123764
0.079533406
-0.006603632
-0.0762372
-0.0069732056
0.02005446
0.006809574
0.17769988
-0.013772987
0.033554543
-0.022556325
-0.08241164
0.08534752
0.022632968
0.07137953
-0.0029007895
0.07563502
-0.0070675127
0.053190783
-0.18599908
0.059808966
-0.038793996
0.04596903
-0.02273935
0.0032284232
0.038558863
-0.04234165
0.034907855
-0.061382346
0.09707892
0.12897438
0.07678026
0.23062283
-0.015453973
0.11485859
0.26198223
0.027056187
-0.1963559
0.27060965
-0.010755008
0.009473127
-0.14772062
0.04448927
-0.033103116
-0.0953181
0.05425243
0.06548235
0.14691286
-0.042097557
-0.03706528
-0.06552498
0.17029738
-0.18058212
0.04146781
0.024161642
0.055802688
0.18241383
0.002547101
-0.046662565
-0.009403152
-0.06349163
-0.078069486
0.02310321
-0.017162107
-0.06866674
0.018922433
-0.00568204
0.019668994
0.023758002
0.023865787
0.03242318
-0.037383374
-0.026863918
-0.049346514
-0.06321714
-0.07597991
-0.08894702
-0.033456516
0.0042240885
-0.023747224
-0.018617393
-0.054486606
-0.020133158
0.010651957
-0.007662495
-0.013745538
-0.0699997
0.034433186
-0.08531981
0.05544954
0.0103029115
0.019570744
-0.072024316
-0.06151814
0.0074766534
-0.0757253
-0.070616975
0.017828992
-0.008766402
0.007906763
0.025280623
-0.019214647
-0.041587148
-0.010695938
-0.030167181
-0.067864046
0.026588606
-0.07460016
-0.053794827
-0.07281715
-0.015161308
-0.0046698074
-0.005871667
0.013506246
-0.04841091
-0.09022298
-0.024285533
-0.050632596
0.038891744
-0.052626338
0.0012377399
-0.056226686
-0.06452585
0.028516885
0.039823692
-0.070758544
-0.06292374
-0.048733138
-0.0032751013
-0.04154906
0.03040369
-0.041030735
0.025451932
0.049420323
-0.045783337
0.029990045
0.03594352
0.062965296
-0.06965661
-0.07003473
-0.006154825
-0.06315913
-0.0014905396
-0.00050907425
0.030774053
-0.0786649
-0.04191534
-0.0076650223
-0.06670636
-0.021585802
0.030997578
-0.0123785
0.046967324
-0.037578378
-0.022189196
0.05521219
-0.025299173
0.025390135
-0.04556898
0.045257077
0.03011402
0.029800903
0.056393884
0.029684752
-0.079713866
0.12848286
-0.044748638
0.017774707
-0.039659347
0.01338366
-0.056293357
-0.11599738
-0.055785157
-0.098804735
-0.069943294
-0.003905689
-0.0650641
0.026469698
-0.004430886
-0.07500832
0.018847996
0.018162215
0.027286092
-0.040382195
-0.04803243
0.052418433
-0.040738214
0.007452528
-0.050545562
0.034206793
0.026425531
-0.026986407
-0.021765983
0.054488275
0.005049397
0.020271266
-0.02480504
0.049067795
0.027733576
0.032863926
-0.06669589
-0.063177094
0.01783132
0.0032975539
-0.055309888
-0.035421997
-0.07347137
0.043798856
-0.03323125
-0.03709069
-0.058019638
-0.06361458
0.04372745
0.006323744
-0.054541543
0.056179944
-0.056543417
-0.012856568
0.040950153
-0.023238236
0.05849743
0.012958727
0.06716115
-0.025597049
-0.03793931
-0.009688937
-0.063551374
0.011983906
-0.021556538
-0.059540145
0.0017940118
0.05727183
-0.05184762
-0.06325126
-0.05034784
-0.061485246
-0.013458791
-0.025613362
0.010593587
-0.010174289
0.002876562
0.034404505
-0.06461385
-0.07187092
-0.046927527
0.036204524
-0.059611075
0.017190922
0.034334328
-0.039630026
-0.009241857
-0.03800085
-0.0027083112
-0.06363111
-0.04733465
0.009202113
-0.07107126
-0.18370722
-0.00027637737
0.097807504
-0.04228458
-0.170908
-0.046314888
0.044666976
0.036581744
-0.05797732
-0.016025886
0.18276967
0.04925993
-0.04589296
0.27590778
0.027870491
0.09724749
-0.020052638
0.15368272
-0.04516256
0.024290327
0.007467225
0.09533432
0.060465693
0.040985025
-0.026619045
0.11083452
0.2517129
0.21731885
0.0027626574
0.008915654
0.0604071
0.17231923
-0.06898082
-0.016566146
-0.03019938
0.05666596
-0.2734155
0.054808
0.014158965
0.050073538
-0.02868774
0.0852252
-0.07935104
0.27049983
0.043760255
0.05579411
0.0897959
0.16434066
0.14603211
0.10197468
-0.08629051
0.08745856
0.020083124
0.012932828
0.2276926
-0.031738017
-0.09638397
0.00713141
0.273143
0.047690798
0.037261494
0.05122342
-0.039304823
-0.060440276
0.016491314
0.11228617
-0.10847203
-0.03866626
-0.1224415
0.13012901
0.09741747
0.09091489
0.33134452
0.12239211
0.054484256
0.07414467
0.007245008
-0.09355334
0.10555149
0.044511188
0.28984508
0.06348795
-0.07167735
0.045635384
0.15781906
0.11020874
-0.0017876715
0.07273167
-0.026346235
-0.055246186
0.020775514
0.06355362
0.0874725
-0.04884074
0.04069431
0.09985099
0.06361646
0.019748924
-0.12596591
0.07528384
0.002005967
-0.005301477
0.03962073
0.035609715
0.07153353
0.047643367
0.0048676515
0.063592285
0.31249642
0.051214237
0.044712346
-0.040126845
0.25612438
-0.27975315
0.088639416
0.07047356
0.14005294
0.005551204
-0.010770347
0.030067433
-0.17792043
-0.05106888
-0.047941312
0.1489719
-0.038463023
0.16227886
0.11840524
0.16450042
0.11600885
0.024960276
-0.010405847
0.17221306
0.06613549
-0.008067769
0.1363036
0.20505947
0.017632939
0.048431505
-0.08645691
-0.009386825
0.027006635
0.05357155
0.020856438
-0.06701654
0.058875248
0.092997156
-0.2076587
-0.03637987
0.065488644
0.043674894
0.28511044
-0.22243066
0.07204597
0.0039061701
-0.0076317503
0.03418648
0.020884732
0.047859702
0.11163463
0.022974167
-0.03640556
0.08312367
-0.08877738
-0.022547187
0.03759214
-0.06422346
-0.09066634
0.10552513
0.19617638
-0.12237859
-0.00038248685
0.07382564
0.022366494
0.12957685
0.012236945
0.26076478
0.085234955
0.0960134
0.3895248
0.0503713
-0.0066621616
0.33708453
0.09347351
-0.0394116
0.010468289
0.18621418
0.00363165
0.016213696
0.15628335
0.05007244
0.14118809
0.042968526
-0.014250658
-0.015018003
0.19172376
-0.09272031
0.027120711
-0.00058970624
0.06821602
0.34262276
0.0025783277
0.07351287
-0.09966993
-0.033084545
-0.04084628
-0.014310085
-0.064251624
-0.031707708
0.009924463
-0.043020166
-0.042671587
0.070051014
-0.04893959
-0.026484665
0.0026280684
-0.09755751
0.0031597093
0.018922197
-0.04338223
-0.032676864
-0.061567068
0.006765585
-0.019524375
-0.10475166
-0.06929549
0.016995935
-0.10754395
-0.03600859
-0.021010237
-0.048775934
0.055923667
0.04962623
-0.013867125
-0.048971172
-0.054403886
-0.039846558
-0.05734347
-0.07256906
-0.1120861
-0.033671558
-0.059003353
0.058293063
-0.02043089
0.034357626
-0.06025036
-0.03885873
-0.12432413
-0.09428959
-0.059906498
0.016310502
-0.053040035
-0.05290882
-0.008559488
0.010203779
-0.015669256
-0.063865565
-0.00796163
0.011332101
-0.022366917
-0.08547425
-0.015778147
-0.06245953
0.014698748
0.025132066
-0.12997983
-0.027784236
0.012715471
-0.020417534
-0.06177607
0.05177858
-0.06905486
-0.14517193
0.041797165
-0.0037312899
-0.045819264
-0.056991782
-0.06114763
-0.029484648
0.033848878
0.03003065
-0.017118791
0.03099956
-0.030485954
-0.031849883
-0.011621189
0.0009661312
-0.045789775
0.030845325
-0.050255623
0.015959257
-0.006122296
-0.0011748362
-0.09824226
0.061421767
-0.031650737
0.029208127
0.0043305764
0.029958518
-0.08917965
0.023265844
-0.01612716
-0.08592294
-0.052116703
-0.06586367
-0.018098285
0.034473907
-0.004610535
-0.066960394
0.019610154
-0.006482041
0.0007337522
-0.008650431
-0.009647373
-0.065218404
-0.10451621
-0.02181108
-0.051654816
0.054530196
-0.03805044
-0.09284964
-0.037729133
-0.03961957
-0.10330302
0.02843331
0.04743752
-0.046019677
0.026211733
-0.044606563
-0.08990275
-0.052606203
-0.049836803
-0.024548313
-0.041433908
-0.060761236
0.043166872
-0.054312497
-0.019582631
-0.06249654
0.006511662
-0.00031433397
-0.07614499
-0.013278007
-0.06513337
-0.032947183
-0.038030494
0.014557316
-0.07205454
-0.08106334
-0.050446667
-0.034047876
-0.013532057
-0.0029773312
0.009137423
-0.037622362
-0.0577535
-0.00065636873
-0.001098039
-0.019921288
-0.01903101
0.022145063
0.06918168
0.019270988
0.035136454
-0.075862154
0.05963867
0.048416127
-0.011438736
-0.06595273
-0.0722249
-0.01708729
0.049261086
0.013685825
0.0044809217
-0.005840814
-0.07153057
-0.0058115204
-0.07482582
-0.061654802
-0.094403565
0.047373474
-0.04571493
-0.050374858
-0.079672754
-0.024068978
0.0122893825
-0.0044432986
0.060415406
-0.041695047
0.040849045
-0.050808776
0.004949189
-0.07568801
-0.05170525
0.007513332
-0.073823884
-0.07527736
0.06282552
0.059271313
-0.047317103
0.012919393
0.04421599
0.059410844
-0.055376593
0.036067434
-0.073426746
0.0023043498
-0.04542074
-0.05702154
-0.002564225
-0.020498736
-0.100128815
-0.0032988477
-0.0155994855
0.034385495
0.0028223495
0.0306417
0.0051217317
-0.03261326
-0.058101952
0.016265754
0.019749662
0.007281284
-0.024543123
-0.054845106
-0.07127995
0.046889443
0.04724462
0.0068482705
-0.049194194
-0.027366733
0.056540255
-0.018520793
0.025295237
-0.022494435
-0.06519191
0.027455697
-0.07721805
-0.08449861
-0.10496348
0.023152826
-0.0700438
-0.07662324
-0.044535663
0.0064074
0.036399145
-0.006924931
-0.023601929
-0.02810492
-0.07092665
-0.06272874
-0.08036919
0.028065257
-0.059088167
-0.07351841
-0.009296425
-0.026288062
-0.09776817
-0.015083892
-0.06855702
-0.050105218
-0.02687374
-0.0018313631
-0.011946548
0.018665629
0.008285229
-0.10059549
0.025427869
0.019278698
0.009093705
-0.07953378
0.0047632144
-0.036025427
-0.024876
-0.078902334
-0.059703626
0.014759168
-0.031455524
-0.11431932
0.03476274
0.07333865
-0.09850916
0.0007314409
-0.011005391
-0.0029011546
-0.016935905
-0.04095635
0.014294851
-0.025043583
0.04289333
-0.065282166
0.008612683
-0.12078427
-0.09704739
-0.06599201
0.025575006
-0.067456365
-0.071999975
-0.07229982
-0.0051136944
-0.053174604
-0.0624539
-0.050594382
-0.04208439
-0.010236437
-0.01708728
-0.08177612
-0.010820404
-0.0883562
-0.052238803
-0.071713135
-0.06698351
-0.06196009
0.051945187
-0.052530874
-0.044917203
-0.030958872
-0.06618392
0.03579034
-0.038647063
-0.03129901
0.012637367
0.037197754
-0.050710652
-0.023314063
0.03894723
-0.05877126
-0.0870517
-0.038886
-0.06009137
-0.047200914
-0.0350232
-0.00026270372
0.013763378
-0.07197285
0.026243467
-0.03865812
-0.036578894
0.0034551832
-0.0921686
0.09268756
-0.030602336
-0.013373581
-0.022421537
0.0012282514
0.008478003
-0.05592543
0.0325985
-0.02221804
-0.054211654
0.011757436
-0.05558505
-0.050564744
0.042000536
0.008206811
0.04369036
0.032023787
0.039139915
0.045308907
-0.05150967
-0.011044394
-0.018179063
0.0016313852
-0.047105074
-0.051979937
0.009765814
-0.0102016525
0.023615077
0.04584557
0.03143669
-0.0038980108
-0.021154001
-0.07722373
0.02431632
0.006649007
-0.0762581
0.020454822
0.054784212
0.0021863594
0.0051350463
-0.01968121
-0.04817356
-0.084798485
0.009461672
-0.043118153
0.03183321
-0.06991014
-0.009820243
0.06628031
-0.018392159
-0.00039946527
0.048229188
-0.071876414
0.018375881
0.013883205
0.0652134
0.009504768
0.00015967568
0.04450696
0.03258323
0.017814405
0.012109795
-0.011829796
-0.064987466
0.082008846
-0.027821548
-0.040411554
0.0701039
0.02623949
0.020485003
0.026325572
-0.25316268
0.112047285
-0.04433296
0.02802984
-0.06499397
0.047938086
0.03691254
-0.045189306
-0.7871513
-0.0807403
-0.0808728
-0.004697126
0.1572763
-0.023782788
0.0048484076
0.06403901
-0.009493764
-0.06613849
-0.32389453
-0.15834191
0.054409903
-0.05639555
0.037654124
0.07109973
0.29180658
0.05824894
0.05975946
-0.0391607
-0.14955464
0.11811509
-0.1334368
0.3926553
-0.07503495
0.0039223135
-0.024349736
-0.027564468
0.1571323
0.15086731
0.32094285
0.021526461
0.1558965
0.025680613
0.2233637
0.10328952
0.08771838
-0.010547197
0.12181264
0.05343986
-0.08120029
0.19062443
-0.06395708
-0.057323378
0.044988114
0.04570527
-0.24663237
0.42826417
-0.32085574
-0.0076134093
0.04638848
0.39403853
0.030415658
0.040926117
-0.038947117
0.04803413
0.081880696
-0.09464638
0.039251987
0.0050330516
-0.058168042
0.2252762
-0.012191847
-0.00605817
0.1832298
-0.18355301
-0.27225277
0.08345063
-0.004009426
-0.034869242
0.012945297
-0.02578549
-0.12974496
0.22296345
0.15406676
0.006551122
-0.043303974
0.35272253
-0.13063572
0.13860527
0.060085982
0.02936812
0.07768168
0.26496404
-0.015575533
-0.009424628
0.065548606
-0.032333814
0.034439757
0.09061807
-0.089577734
0.3443736
-0.03933816
-0.2886362
-0.312914
0.04777743
0.026524441
0.067934334
-0.02807939
0.31698278
-0.018748375
-0.008445414
0.057312742
-0.031854037
0.08988916
0.055266917
-0.06781079
-0.06558682
-0.042347725
0.05723076
-0.18398766
0.0019546452
-0.054809038
0.099168636
0.040748626
-0.079066314
-0.0039248574
-0.2745979
-0.06172051
-0.06183816
0.114951484
0.13939396
0.08263924
0.045341816
-0.09951483
-0.20074965
0.15780872
-0.0605478
0.029608095
-0.13140601
-0.042976648
0.42436668
-0.15547124
-0.20433961
0.015241233
-0.14828166
-0.09535965
0.09248303
0.024315966
0.24008168
-0.00824235
0.22606616
0.018435288
-0.053280436
0.27833515
-0.55167437
-0.036902994
-0.0014667956
0.17198183
0.013778385
-0.0008415068
0.47309747
0.031806
0.067911066
-0.27173865
0.100733906
0.07444847
0.41912845
-0.25320932
0.19794065
-0.05891193
0.02388985
0.083371885
0.04562272
-0.08226315
-0.045563243
0.14393598
0.004317544
-0.020873617
0.13224198
0.41991615
-0.27752078
0.3295237
-0.058049887
0.029294187
-0.42819083
0.06211065
-0.13775681
0.06933503
0.020744422
-0.067463
0.08674491
-0.086843446
-0.009912593
-0.06147208
-0.09985851
0.0036713846
-0.0022512402
0.05642521
-0.05366984
-0.035216648
0.060204122
0.023064548
-0.0619337
-0.048211604
-0.009101834
-0.0736215
-0.06990643
-0.05049674
-0.05611784
-0.0072491504
-0.03070059
0.0032498508
0.010060579
-0.06935938
-0.032497052
-0.005217865
0.022007786
0.00644298
-0.078317404
0.031023057
-0.048945677
0.013034276
-0.104994975
-0.06307252
-0.07164176
-0.060446754
0.014340363
-0.026864309
-0.09191157
-0.11077874
-0.09015295
-0.00817923
0.02536196
0.032889135
-0.0071160644
0.034053907
-0.094564505
-0.011328056
-0.08601582
-0.062089924
-0.022122521
-0.014095406
-0.0072107445
0.06983415
-0.14294621
-0.07186128
-0.012125059
0.055191856
-0.07047837
-0.11476755
-0.027074393
-0.022422066
-0.0052605923
-0.051967945
-0.01607845
-0.09860565
-0.044835556
-0.016092503
0.039710812
0.02429496
0.030150818
-0.049547803
-0.08793156
-0.08031259
-0.0033338917
-0.0068522557
-0.06845149
-0.009423434
-0.029656487
0.02655817
0.025717784
-0.04769832
-0.044498485
0.0031805628
-0.02186185
-0.010855798
0.00043720833
-0.059643786
-0.031116366
-0.052039396
-0.0042249016
-0.03719975
0.021633254
-0.032628164
0.02249745
-0.042432386
-0.015654488
-0.13674101
0.0020863703
-0.03595514
0.03298063
-0.046626106
0.026199985
0.057752438
-0.025570402
-0.015786095
0.009203599
0.0041125044
-0.060831435
-0.07025448
-0.12990935
-0.00056372257
-0.024132174
-0.016685518
-0.026147794
-0.07563954
-0.024792997
0.024158075
-0.035737082
-0.021000462
-0.023704052
-0.026130527
0.05710474
-0.0729177
-0.0069608665
0.013918146
-0.06605317
-0.00013946393
0.014335874
-0.054588288
-0.052297052
-0.04205336
-0.052300584
-0.056371287
-0.023395816
-0.00392249
0.028133936
0.025106467
0.015606852
-0.0018367459
0.054624427
-0.0021344223
-0.018061437
-0.017167797
-0.08966965
-0.02627346
0.03789478
-0.0721104
-0.03676458
-0.037933808
-0.015295393
-0.05249219
0.030402897
0.027876832
-0.08019206
-0.04255479
-0.012240945
-0.08137435
0.043866318
-0.003992092
-0.039904572
0.052795768
0.0019173303
0.06389226
0.047802668
0.052081797
-0.05596219
-0.019066501
0.028763078
-0.0608409
-0.057948396
-0.031185023
0.018869331
-0.04131236
0.008190979
-0.068715446
-0.046344288
-0.07841055
-0.10549923
-0.07689672
0.0017750736
-0.0636744
-0.01867015
-0.037006605
0.042598296
-0.08736187
-0.07394985
-0.009235387
0.017136825
-0.05967107
-0.0060400614
0.042408414
-0.037118267
-0.09222125
-0.052823786
0.03448856
0.00058480055
0.0053828186
0.007089665
-0.02046801
-0.0517403
0.003492802
-0.05307217
0.0067595853
-0.12390456
0.08143658
0.06712618
0.046063006
-0.03764152
0.056644652
0.011150933
0.12896109
0.1316071
0.020850126
0.116200045
-0.13788015
0.17966355
0.04361303
-0.030430976
-0.10604792
0.017676461
0.019223943
-0.06427487
-0.11277618
0.22707099
-0.38932016
0.045046978
0.09117722
0.20805798
0.048980135
0.11510143
-0.03237081
-0.01233737
0.18023708
-0.0097260885
-3.107994e-05
0.015059507
-0.14017707
0.050755236
0.07734353
0.1450035
0.06560997
0.066439725
0.09336821
-0.074760586
-0.010049437
0.022512937
-0.0010369223
0.096033044
0.0744321
-0.022640876
-0.13233365
0.15252186
-0.2481712
0.16530724
0.08770955
0.014347549
0.01111198
0.0716172
0.058240622
-0.1849087
0.021714784
0.035332844
-0.0065664845
-0.033017494
0.12122935
-0.18968871
-0.22311358
-0.046960004
0.28293675
0.3589766
-0.17306024
-0.36210084
0.18722291
-0.03791233
0.3627628
-0.09449677
0.36020327
-0.026560668
-0.05859269
0.20243008
0.21773794
0.009171256
0.068200484
-0.117868885
0.03420323
0.059383422
0.13248584
0.44024807
0.03475925
-0.04230902
-0.21804668
-0.056893356
0.035163872
-0.058694743
0.072481446
0.17961262
0.44335064
0.051181965
-0.007859286
-0.014320039
0.057887193
-0.15140118
0.059769258
-0.04083935
0.11273613
0.09190867
0.060157288
0.023661895
0.13448279
-0.352427
0.15845308
0.011366312
-0.03806477
0.016152434
0.029242136
0.050915252
0.025219835
-0.104811005
-0.049485065
-0.011973109
-0.06199979
0.028744292
0.07767349
-0.10693957
0.021448005
0.13531926
0.020839494
-0.38337955
0.079728596
-0.12772644
0.006417329
-0.040123586
0.2173398
-0.045848474
0.055123776
-0.08324413
-0.08060226
0.14119701
-0.46523917
-0.031213017
-0.029251982
0.110070705
0.008592883
0.07947513
-0.025801055
0.04217603
0.17551407
0.04083235
-0.16110541
-0.23306637
0.030584345
-0.047360137
0.040525243
0.06811448
0.13081457
0.03027028
0.07886552
-0.09738739
0.0005917158
0.14297634
0.005564828
0.07494769
-0.01752172
0.017342221
-0.045227017
-0.0666315
0.055288468
0.206634
0.19984487
-0.07334836
0.015999226
-0.029785503
0.15595883
-0.07913334
0.3168115
-0.06543279
0.05514552
0.08060417
0.11916979
0.011523473
0.79014367
-0.0021733535
-0.131155
-0.05401989
-0.21454437
-0.007430906
0.05387654
0.005777889
0.052187596
0.033843122
0.00465443
-0.018834053
-0.07403222
-0.06050281
0.016575325
0.025363622
0.054150976
-0.060059626
0.00993036
-0.012102445
-0.029550727
-0.051262524
-0.016720723
0.024286116
-0.023033604
0.0046694838
0.02182199
-0.102908164
-0.043861892
-0.05238261
-0.07913435
-0.026535334
0.0546705
-0.11479693
0.03456469
0.0169981
-0.019312656
0.011401375
-0.016764233
-0.05427654
-0.05533137
0.046197724
-0.073305674
-0.023546943
-0.034127153
-0.044055782
-0.088746905
-0.014830517
0.0033726383
0.019829068
-0.0690436
-0.098433964
-0.06146681
-0.027375571
-0.10142331
-0.054000013
-0.059094235
-0.05166286
-0.061022222
-0.06588893
-0.016968478
-0.016579138
-0.014044426
-0.081379704
-0.03903007
-0.116240665
-0.065216385
-0.00034622342
-0.08523777
-0.014197874
-0.06190912
0.01034748
-0.045717668
-0.13766403
-0.07690185
0.046055514
-0.055555478
0.06682116
-0.024325583
-0.05130789
-0.0025929525
0.0038996118
-0.033261847
-0.03124411
-0.08502571
-0.011203737
-0.035563372
0.059266657
-0.028085472
0.06670942
-0.006506869
-0.0383849
-0.06317281
0.05399154
-0.021668836
0.008165198
-0.001311846
-0.055445846
-0.03683164
-0.04237638
-0.018094009
-0.07496833
-0.05380689
0.009080814
-0.08929484
-0.0730053
-0.0969862
0.04916049
0.03778913
-0.05945027
-0.01108185
-0.086625546
0.02304825
-0.057659075
-0.019375578
0.059030842
-0.023425315
-0.021480892
0.0068888515
-0.041368615
0.048848845
-0.023544123
-0.046813175
0.035570208
-0.01959833
-0.012675694
-0.016640985
-0.0046194973
-0.06460151
-0.14080477
-0.02801318
-0.053173102
-0.033548016
-0.06971192
-0.026559029
-0.004409777
0.04119967
0.024904253
-0.01423409
-0.07817705
-0.0036752424
-0.059348103
-0.0488921
-0.028494399
0.05537111
-0.09383942
-0.069214664
-0.034316916
0.005918203
0.023694038
-0.03233482
-0.015923182
-0.05973388
-0.03344758
0.08435038
-0.11111926
-0.021269858
-0.044829756
-0.070274584
-0.069781214
-0.00797633
0.044791184
-0.054331727
-0.012627476
0.011497952
0.039989993
-0.050293103
-0.08914225
0.03592471
-0.066571295
-0.083796464
-0.057553347
-0.033367805
-0.028329065
0.045190766
-0.082708225
-0.020548338
-0.043048978
0.0009961245
-0.11733047
-0.046683572
0.017499069
0.006380961
-0.014043106
0.028587973
-0.060809616
-0.109380074
-0.028592663
0.025074113
0.0008240948
-0.033246707
-0.061831545
0.021352878
0.0040004025
-0.08796358
-0.10366095
-0.037365608
0.00018514361
-0.032712985
0.045254774
-0.06464517
-0.04600132
-0.06728783
-0.031705424
0.0093729645
-0.022770563
-0.058001593
-0.051813275
0.0241167
-0.053352345
-0.024756726
0.04185357
-0.004263253
-0.05459922
0.06511671
0.035096467
-0.053247504
-0.014670915
-0.049317107
-0.00023998384
-0.30458868
0.0075537004
0.029899407
0.18048398
-0.29081035
0.032763757
-0.029974397
0.06589098
0.06034409
0.015854444
0.053955846
0.27570096
0.08900699
-0.09449962
0.07201434
0.047076765
-0.02354259
-0.057412203
-0.13200352
0.08374921
-0.0070021832
-0.044291914
-0.004994618
-0.2140188
-0.29601723
0.16422163
-0.105323404
0.032506242
0.09751153
0.031652085
-0.043753304
0.09193663
0.01777434
-0.31625772
0.057243977
-0.080883935
-0.34289443
-0.014784494
-0.14817342
0.057557274
-0.064703554
0.10155909
0.050468225
0.12650578
-0.052517835
-0.01360119
-0.142382
0.07869075
0.03707652
0.09639652
0.009610033
0.10745837
-0.031621356
-0.18077035
-0.06562201
0.038854677
0.15490255
0.031485356
0.022182958
-0.1849749
0.035522975
0.006406529
0.04844297
-0.014573451
0.006894559
0.10518264
0.005154983
0.044395056
-0.16139114
-0.016142016
0.03686657
-0.04106751
0.023236796
-0.08891823
-0.36790568
-0.15910223
0.07458436
-0.2129902
-0.019360038
-0.15269855
0.15628049
-0.04894325
-0.0430937
0.15360771
0.15477185
0.04041174
-0.12563102
-0.18503223
0.044981033
-0.024689201
-0.03678153
-0.23350215
-0.13229565
0.04387832
0.029269684
0.18199065
-0.37018934
0.0145405615
-0.02996642
-0.02316786
0.06912234
-0.02034194
0.0314962
-0.039287884
0.17095217
0.10394008
0.102745764
0.09633728
0.19726446
-0.031679418
-0.121469446
0.0042251633
-0.12262322
0.21833399
0.08744592
0.035991497
-0.16403416
-0.13620503
0.012864929
0.05051317
-0.07225589
-0.04070692
0.05906024
0.1104065
-0.0650689
-0.060337625
0.15186007
0.0715606
-0.13974743
0.042749632
0.023818383
0.1961141
0.10667226
3.848858e-05
-0.18525459
-0.087242134
0.13986921
-0.13819855
0.07081084
0.00491129
0.0023772093
-0.09574984
0.03682171
-0.07174196
0.021625508
0.07935541
-0.41379476
-0.14103295
0.087784134
-0.012287356
-0.022609206
-0.033130832
0.08887616
0.10890975
0.07947663
0.18986505
-0.004973277
-0.06872354
0.1368802
-0.014459546
-0.0021281317
-0.0525907
0.07367826
0.03035437
0.057534933
-0.03808844
-0.012206887
-0.019517783
0.25519562
0.0278743
0.07435528
0.042285465
-0.05281791
0.11813816
-0.06388946
-0.045101605
-0.101312384
0.023837667
-0.060486052
0.07766938
-0.07778146
0.04160866
-0.067067236
-0.09643304
0.074870564
-0.00059288484
-0.011294132
0.054813616
0.19248201
-0.095001966
0.1012115
-0.023245849
-0.060332086
-0.027161675
0.21652335
-0.13368429
0.11322564
-0.084026605
-0.017182479
0.079617664
-0.0972202
-0.061704475
-0.57701796
-0.17865367
0.14512299
0.04854877
0.0026604831
-0.118252285
-0.08113858
0.04677212
-0.018359795
-0.20565842
0.016495157
-0.22106196
0.2767269
-0.19709732
-0.062136643
-0.11743331
0.077224605
-0.13955738
-0.076960675
-0.17337771
-0.18588603
-0.09257612
0.1434172
-0.025304696
-0.19933535
-0.42078778
-0.10543681
0.038389463
-0.03293392
-0.1899855
0.0911523
-0.15365915
-0.14199553
-0.021054147
-0.03598434
0.098642655
-0.0076896334
0.21266876
-0.05514724
-0.029355409
-0.10921041
-0.07453394
-0.055949405
-0.2018358
-0.31022045
-0.29259157
-0.019229563
-0.15978345
-0.075789034
-0.080418356
-0.09645495
0.16739854
-0.33048576
0.043239467
-0.19246477
-0.066648014
-0.29748744
-0.25074255
0.005261003
-0.08282665
-0.024693878
-0.032076992
-0.016324583
0.10517402
-0.04127707
-0.06865201
-0.049013447
-0.06484875
-0.3994696
-0.17569306
-0.23734355
0.29269052
-0.22318797
-0.081139416
-0.07291497
0.034945726
-0.12765029
-0.1961126
-0.08085102
0.001620125
-0.19424595
0.010283573
-0.0593319
-0.25061136
-0.077901825
-0.08273667
-0.09987406
-0.25479245
-0.026077006
-0.08858099
0.20210922
-0.032612555
-0.27792823
-0.0071235844
-0.20198388
-0.0112821255
-0.17836776
-0.23730159
-0.09227422
0.05950163
0.037547145
-0.04983879
-0.18880899
-0.22642323
-0.09105791
-0.20455472
0.0021642323
0.022256069
-0.10508658
-0.11947252
-0.03679241
0.13514382
-0.15770146
0.051063597
-0.30396613
-0.14105602
-0.0029197421
-0.29973432
0.20622334
-0.014288448
-0.19513825
-0.010979758
0.04477021
-0.24430826
-0.046758123
-0.06746501
-0.1027265
-0.11618361
-0.010710085
-0.10391491
-0.03989244
-0.10520083
-0.12326855
0.0028670074
-0.06591544
-0.09082664
-0.07468839
-0.056055248
-0.04725822
0.004254568
-0.011861877
-0.3474752
0.20140333
-0.045821637
-0.13837896
0.026534831
-0.06479992
0.09779702
-0.19148333
-0.1668246
-0.084185846
0.07287245
0.011995474
-0.027742108
-0.14047544
-0.03436786
-0.17579085
-0.08967313
-0.029152583
-0.12449481
0.027837079
-0.073691055
0.03532845
0.04529397
-0.01347478
-0.10438265
-0.12589316
-0.11364928
-0.032319408
-0.00808453
-0.08089589
0.023932166
-0.1400508
0.08727293
-0.14286613
-0.054579508
-0.06543288
0.032938357
-0.081352584
-0.20765808
-0.23945735
-0.19690157
-0.0701981
-0.12208235
0.014347004
-0.078001395
-0.10684229
-0.085571595
-0.06649539
0.037544906
0.087162554
-0.08712555
-0.015867835
0.21884345
-0.038763855
-0.14488348
-0.23221049
-0.15372404
-0.55388635
0.060811277
-0.0057084383
0.016664527
0.17136808
0.002351479
0.03835677
0.019022118
0.03801279
0.02148954
0.17329802
0.10422208
0.06346193
0.035816554
-0.24360201
-0.016197274
-0.07881279
-0.15720111
-0.049842592
-0.2737686
-0.008778776
0.027029961
-0.12388518
-0.0809869
0.03342644
0.024342543
0.021766338
0.0021210327
0.01674111
-0.13895239
-0.041149486
0.15691604
0.009907553
-0.12988205
-0.44141743
-0.07616146
0.107746854
0.0398193
-0.047017347
-0.10795225
-0.09477486
0.16351911
0.015191163
-1.8771068
0.031546477
0.18680504
-0.03152651
0.12687407
0.015318447
0.075245865
-0.34357002
0.06403517
0.073450625
-0.0426057
0.033491507
-0.055831023
-0.008720313
-0.00843088
0.06601578
-0.21564613
-0.029955141
0.026712444
-0.051265646
-0.0334021
0.010574954
-0.04513056
0.16593899
-0.052652076
-0.072491765
-0.007870005
0.050293393
-0.055124454
-0.10449856
-0.04879863
-0.14161475
-0.12052459
-0.14409235
-0.023396695
-0.0072675464
0.1009636
-0.017856749
-0.016533675
-0.13913275
-0.12176055
0.10057331
-0.10173217
0.04579339
0.087538734
0.03869245
0.059591133
-0.08532779
-0.06339638
0.020240135
-0.033060838
0.01434153
0.22193082
0.12526631
0.02822715
0.016214281
-0.028675877
0.06744729
-0.042815845
-0.042699873
-0.034863535
-0.05669338
0.10207246
-0.04211636
0.19901401
-0.040128365
0.07851983
-0.017604671
0.13059004
-0.23634948
-0.05183423
0.06266496
0.068162195
0.031757426
-0.21967256
0.042226255
-0.018660357
-0.057944905
-0.013938043
-0.08912142
-0.1805094
-0.067590736
0.06082304
-0.026810046
-0.080633216
0.011077854
0.08074548
-0.03995145
-0.044087585
0.10189652
-0.047499336
-0.0023398856
0.0652141
-0.10025911
-0.0900509
-0.074266076
-0.6625297
0.058210056
-0.03457916
-0.018608008
-0.07266118
-0.033123765
-0.119555995
0.123630896
-0.06447801
0.057537038
-0.18343224
-0.061724875
-0.039720383
0.005809329
0.13635248
0.23047452
-0.23172912
0.05055981
-0.10621194
0.1856823
-1.4622205
0.038707275
0.075920075
-0.19577242
-0.1709782
0.03598523
-0.05485497
-0.16382828
-0.30636117
0.1671205
-0.086589836
0.044985875
-0.03370764
-0.38065225
0.03114664
-0.024672646
0.16631423
0.10745316
0.010697281
0.046701342
-0.05260931
-0.04299996
0.16255617
0.12624735
0.0126736555
0.018946618
-0.0030222589
0.007492075
-0.05613032
-0.30334145
-0.01763722
0.052261174
0.067984566
0.04260235
0.1624351
-0.19034141
0.048157036
0.028044805
-0.2057063
-0.014499938
0.16011266
0.12183496
-0.019033706
-0.016964864
-0.08380355
0.19230808
0.109714106
0.025459597
-0.027303267
0.028356101
0.033534475
0.0074287546
-0.049915347
-0.0238951
-0.027874155
-0.07376342
-0.0009127768
0.04237179
0.20419739
-0.120701544
-0.0028119849
-0.017642094
-0.025601668
0.10577359
0.0749938
-0.010753931
-0.12786657
-0.08256856
0.017197011
-0.019110138
-0.10243678
0.013158619
0.06860717
-0.06427362
0.018592898
0.023866285
-0.05686597
-0.23275818
-0.0044240723
0.019155046
0.08197824
0.061426204
0.22227065
-0.009727392
0.2971725
0.026977958
-0.08373312
0.0593515
0.039982297
-0.05419842
0.08736799
-0.00023904433
0.028909132
-0.09883593
-0.00715103
0.0041511743
-0.020436557
0.0012854672
-0.042875092
0.01789996
0.12345353
0.023217285
0.085677795
0.03432258
-0.029585108
-0.13759063
0.27269372
-0.059883963
0.004102548
0.01324221
-0.017973315
0.055727743
0.020311205
-0.1528244
0.06613654
0.063989
0.19688125
0.20861134
0.084210396
0.032141026
0.118812695
-0.023743486
0.012784778
0.11275895
0.14902782
-0.0680655
-0.03273002
-0.02330445
-0.04964186
0.048036173
0.0145084085
0.17591912
0.119843386
0.032649472
-0.035074413
-0.07794181
-0.14714082
-0.10408262
-0.21944398
0.04179544
0.0711613
0.057636537
0.09252334
-0.017804159
-0.004355748
0.06447134
0.06645627
-0.02976596
0.14327477
-0.23168238
0.16750093
-0.0502585
-0.0229139
0.24981369
0.09450131
0.11733114
0.003524822
-0.0024187053
0.081264995
0.16985193
0.08056214
0.15075336
-0.041877404
0.12531339
0.14224629
0.007935458
0.0942297
0.13056889
-0.07185101
0.1067515
-0.0836953
0.045812517
0.0384906
0.09614525
0.027325343
0.03719063
0.11347286
-0.14427048
-0.03787197
0.044206835
0.08622085
-0.056760702
-0.07201752
0.0797763
-0.18243371
0.14356776
-0.0072664563
-0.052212924
-0.06916833
0.20596954
0.36998922
-0.021193445
-0.04795094
0.101850644
-0.03997712
-0.04548093
-0.14751871
-0.037396405
-0.010036544
0.017494505
0.0472776
-0.04131031
0.0070756013
-0.008093144
0.13339108
-0.026374038
-0.0092922505
-0.36228508
-0.2051026
-0.019994278
-7.0414346e-05
0.01858713
-0.039449736
0.050018094
0.060872637
-0.033222184
0.24465914
-0.098569654
0.066058725
0.010980308
-0.06647784
-0.015317161
-0.024769278
-0.06949947
-0.019784978
0.07299533
-0.0042546173
-0.032974828
-0.08416032
-0.2555518
0.04331901
0.1386526
-0.06432222
0.22736126
0.015129318
0.02126843
-0.019691862
0.13926496
-0.014405487
-0.04998303
0.07409626
-0.016726818
-0.0044204164
-0.045527972
0.09155391
0.010671052
-0.018791558
-0.02218009
-0.0007755114
-0.0435224
-0.03711695
0.20786785
0.18110253
-0.035989158
0.061633583
-0.053593576
-0.069935076
-0.01923534
0.014544544
0.026985524
-0.08364167
-0.051011425
-0.09352515
-0.13384517
0.06785921
0.0017426728
-0.25008208
0.09553777
-0.03643778
-0.03647694
-1.4071046
0.0010671883
-0.13474587
-0.022946257
-0.39335707
-0.036258355
0.04334225
-0.025912216
0.07642701
-0.15794484
-0.11996129
0.0921447
-0.021876166
0.008987794
-0.10558818
0.041261904
-0.32230103
-0.05700024
-0.08548126
0.14822054
0.10059616
-0.26999804
0.08791615
0.028894618
0.027472025
-0.09466656
0.031740274
0.22790809
0.04731787
0.039413054
-0.03367216
-0.016390704
0.04951212
-0.03961422
0.022196695
-0.041995272
-0.15694633
0.18111655
0.0708352
0.019238224
-0.059272546
0.022252396
-0.08362473
0.12747611
0.058656376
-0.25240993
-0.09058609
-0.07490691
-0.014806355
0.020962419
-0.030673297
0.06802801
0.0028853843
-0.14419474
-0.11662184
0.053531315
-0.077532716
-2.180638
-0.34525156
-0.14480758
0.13666804
-0.04028281
0.10831882
-0.10924822
-0.030153159
-0.012905869
0.14497049
-0.039421204
-0.07310676
0.116645135
0.11826463
0.062466107
-0.11581622
0.0020609589
0.07047915
-0.09080939
0.054175273
-0.04516713
-0.012358408
0.18768041
-0.029373802
0.19322105
0.09483831
-0.071554
0.13672
-0.051308412
-0.007130856
0.01802002
-0.16311108
0.0029198914
-0.020028325
-0.07752146
-0.04079847
-0.08969781
-0.0041023865
0.040928904
0.06003009
-0.08974057
-0.6320641
-0.12703866
0.010717296
-0.043506265
0.045294963
0.13953714
0.016348833
-0.09061838
0.01376605
-0.131192
-0.027316201
0.026576132
-0.12918292
0.044637963
0.01820018
0.058854427
0.10518946
-0.08813502
0.004224766
0.109305315
-0.07556419
-0.047887914
-0.13459656
-0.037119325
-0.25537062
-0.103601985
0.008304611
-0.080081806
0.15201819
-0.054974556
0.0073923455
-0.08791078
-0.0654239
-0.04340922
-0.0349028
0.12560217
-0.01759801
-0.009509168
-0.0030136164
0.02759799
0.06926716
0.18910168
0.038642704
-0.053563505
0.058616612
0.049879503
0.066608064
0.0098010115
-0.14344957
-0.017160922
-0.07031135
0.32282212
-0.018777145
-0.02040371
0.1568743
-0.078307495
-0.041353162
-0.08115042
-0.017269965
0.017808031
0.07248439
0.08053488
0.019042144
0.108669944
-0.029373713
0.06651923
0.08238927
-0.044602986
-0.05888233
-0.036505822
0.026696116
-0.07883522
0.064393975
0.0849079
-0.014278411
-0.012282905
0.00957488
0.02365437
0.015351021
-0.04231518
-0.0009666523
-0.012387787
-0.00264916
0.07092162
-0.12682721
-0.016987145
0.025903957
-0.117514454
-0.04161074
0.0107972715
0.029681703
0.019534064
0.14181569
-0.02882274
0.03142321
-0.066856295
-0.0018744562
-0.4457404
-0.033494968
-0.055020228
0.07063838
-0.19583076
0.063371606
0.072068684
-0.5721636
0.03978704
-0.22280158
-0.36003262
-1.2016219
-0.11615951
-0.008137709
0.0074490584
-0.11223229
-1.2285209
0.015282332
0.0156546
-0.7501122
0.022731967
-0.02935657
-0.32083753
-0.107884094
0.030138016
0.11336085
-0.12211987
-0.17897187
-0.68485504
0.062589765
0.16305068
-0.01048801
0.05151341
0.010271822
-0.03447121
-0.05528566
-0.003795655
-0.022555862
0.020078659
-0.019328808
-0.08999871
0.090974994
-0.0036964498
-0.028399657
0.2955594
0.018772595
-0.11390064
-0.053530283
0.020675603
-0.049563475
0.017586222
-0.21398287
-0.44166335
-0.10555681
0.016199289
0.026628189
0.0782802
0.039789204
0.24718536
-0.055506468
0.23643467
0.36881724
-0.0061853575
0.17624165
-0.07305733
0.18451636
-0.087589584
0.11858919
-0.08848493
0.06746855
-0.029361265
0.0003118086
0.05338046
-0.23703963
0.07820159
0.07982563
-0.012120399
0.017504016
0.0068135634
0.021874668
-0.70886993
-0.208144
-0.35291752
-0.09738707
-0.23427516
-0.30941147
0.071209185
-0.17376156
-0.094218634
0.12048972
0.014256143
0.023675097
0.014830986
-0.18048525
-0.054455973
-0.020140074
0.055133823
0.009013121
0.05312852
-0.086174496
0.05132979
-0.014560206
-0.0014230112
-0.027435709
-0.040531706
-1.378306
-0.00014894958
-0.15774558
0.06287493
-0.14817794
0.0050027515
-0.24248454
0.041146122
-1.1245068
-0.30493233
-0.5208879
0.017312307
0.09806397
0.077199414
-0.035310157
0.08058358
-0.36795735
0.07355564
0.00828482
-0.18737762
-0.14056282
0.053309828
-0.012053384
-0.069384694
0.22017913
0.022874637
-0.015087968
0.04691704
0.027860684
0.2515712
-0.54833776
-0.06471924
-0.095674105
-0.18239915
-0.048665456
0.048914127
-0.058131017
0.06667047
0.2040067
0.23144981
0.06043528
0.049957965
0.061851975
-0.03339331
-0.19006892
0.31523502
-0.07187777
-0.020397065
0.19446176
-0.040420026
-0.0069539114
0.39490476
-0.10209853
0.14828692
0.023749769
-0.015862567
-0.38912624
-0.025258409
-0.32459825
-0.12551375
-1.2421547
0.20828576
-0.020397568
0.062199123
-0.05965224
-0.1142089
0.044938866
0.0026431575
-1.0949086
0.038216263
0.086580984
0.016872056
0.050696816
-0.018335478
-0.01773736
0.14279507
0.006610619
0.007879192
0.026312143
0.0039775753
-0.059399016
-0.12627432
0.04743205
-0.0014575567
0.019210586
-0.05062263
-0.018831946
-0.06373804
-0.18124141
-0.112286925
-0.09273009
0.004111796
-0.069859885
0.100973256
-0.038755007
0.0093116155
0.040783662
0.032976937
0.019464329
-0.5468561
-0.09677639
-0.0116669275
0.09824492
-0.07736311
-0.03652833
0.065179504
-0.1464867
-0.29182154
0.01133623
-0.0047327504
-0.032509785
-0.105044305
0.13594413
-0.09795182
0.3234548
0.07872936
0.026543226
0.054922298
0.06313461
0.13521855
-0.049056772
-0.12679471
-0.0022858987
-0.3899113
0.042247437
0.10966703
0.013853593
-0.06883278
0.029541578
0.064729564
0.024976354
0.04618208
-0.015622484
-0.0023602513
-0.021583136
-0.030607142
0.11538748
-0.08632448
0.04076309
0.010350705
0.06145968
0.008419192
0.028445795
-0.13783981
0.0038594713
-0.00018497003
-0.10960432
-0.28250203
0.010002127
0.0016346497
0.015333907
-0.12247624
0.041488104
0.03561443
-0.34360644
0.07525569
-0.0056884936
0.003908574
-0.04350834
-0.07465438
-0.01592035
-0.21299788
0.11931296
0.06065866
-0.068068296
-0.08286106
-0.1305308
-0.028551556
-0.05899835
-0.013196738
-0.00892996
-0.0070587406
0.045359954
-0.030270949
-0.017278947
-0.07939331
-0.22560203
-0.3617219
-0.11340645
-0.121181436
0.092027195
-0.18220466
0.009309657
0.035046745
0.18989661
0.10658279
-0.008169229
-0.08272738
0.11272745
0.09786738
-0.0125194285
0.15060133
-0.03479268
0.01745401
-0.049227893
0.040196534
0.0731535
-0.03194936
-0.048330482
0.049704466
-0.08382295
-0.028544754
0.01599179
0.05711657
0.04269046
0.016806435
0.022305893
-0.0141213
-0.04166368
0.034173373
0.003773338
0.030144034
0.049551196
-0.2468718
-0.1829175
0.15130712
-0.41812375
0.12252839
-0.0012711019
-0.29991332
0.1755367
-0.06927589
0.06804644
0.02584321
-0.00017017813
-0.112966366
-0.14685394
0.058592454
0.027214115
-0.00059120526
0.07197581
0.07314038
0.04473611
-0.009454206
-0.025877178
-0.0062416326
0.022082651
-0.006416003
-0.009296894
0.06258932
0.089080885
-0.032488916
0.042668372
-0.032482736
0.1086876
0.025801413
0.10474946
-0.044896413
0.037916332
-0.011678567
-0.05216578
-0.01878243
0.15996373
-0.15748893
-0.0016094719
0.052401192
0.080815
-0.008638611
-0.12860776
0.1413833
-0.16553338
0.12094667
-0.0047034486
0.13232563
-0.4412443
0.06586374
0.016196901
0.06324274
0.042511676
-0.026066879
0.19707139
0.08227855
-0.011893903
0.0062714037
0.040352035
0.040416427
0.011832732
-0.045119077
-0.0232669
-0.06870202
0.008740691
0.12217991
0.09363837
-0.019591246
0.07828924
-0.041210726
-0.071813636
0.092868455
0.021351533
-0.07065335
0.05694436
-0.060216617
-1.9606522
0.105731994
0.29611212
-0.26404214
0.06202088
0.09314532
0.06274785
-0.107287645
-2.013917
0.032581795
-0.27997762
-0.04560944
-0.30430183
0.091041826
-0.024486907
0.017578918
-0.86659646
-0.0001212431
0.03779231
0.02364388
-0.23614903
0.10656959
-0.23803753
0.014792583
-0.4456391
-0.06019232
-0.047518883
0.36778456
0.012139226
-0.113123894
0.08922817
-0.05671092
0.12244831
0.08369657
0.07751289
0.272838
-0.03818683
-0.00062154484
-0.017588397
0.014223806
0.06472957
-0.07841982
0.010396124
-0.04497897
0.060103208
-0.21048325
-0.02773136
0.15021202
-0.009074395
-0.102913
0.027055807
0.0014781439
-1.19378
-0.40831608
0.22348249
-0.067009926
-0.004029345
-0.01333014
-0.12223495
0.11668045
0.042387985
0.18357572
-0.08960374
0.03761255
0.3492356
-4.3191533
0.20480986
-0.059453003
-0.02476073
-0.125881
0.07588312
0.022018459
0.018319577
-0.02296532
0.4232626
0.03773718
0.023800423
0.03698704
-0.0065131295
-0.012657259
-0.0040031835
-0.06262352
0.034588173
0.08786849
-0.04111612
-0.12147386
-0.15135853
-0.12488548
-0.11246533
0.012619106
-0.041937433
0.20799585
0.091610976
0.014271988
-0.023983797
-0.04315394
-0.21339124
0.0044750473
-0.4763033
0.03300965
-0.021573367
0.103133775
0.1116189
-0.01094673
0.04740753
-0.003483302
0.058873024
-0.09282007
-0.026361814
0.038520604
0.1235367
0.17472674
0.10171276
-0.08967905
0.025493361
0.06313932
0.022045579
-0.20412943
0.15239112
-0.007898464
-0.07576568
-0.008898031
-0.02706148
0.14492035
-0.0024006758
-0.010469182
-0.05227453
-0.12013593
-0.11443501
0.04337902
-0.021885438
-0.040495053
0.0770477
-0.11074776
-0.023382476
-0.012379647
0.048565853
0.05136177
0.008944045
0.040163957
-0.059029404
0.22675249
-0.01835823
0.07974978
0.0072009773
-0.20148422
-5.113701e-05
-0.021267097
0.11256646
-0.0648126
0.0780718
-0.023461994
-0.056968935
0.10055029
0.044711243
-0.047250602
0.027389728
-0.08634274
0.036880426
0.13592233
0.015193746
0.04698982
-0.08646115
-0.14540632
0.003998439
0.014064678
0.073521964
-0.06423395
-0.01763308
-0.017879806
0.06352357
0.106333904
-0.03653485
0.29808307
0.039591417
0.062895834
0.10205867
-0.03756723
0.029609751
-0.3410161
-0.029486932
-0.02212472
0.03970429
-0.08366737
0.022020722
-0.019591006
0.014871375
0.012774584
-0.019369218
0.036327716
0.122239225
-0.044801194
-0.13071468
-0.025860192
-0.054954905
0.00010957737
-0.11189439
0.10893704
-0.2770164
-0.020470822
-0.0076488624
-0.056159325
-0.3246503
-0.1553903
0.18881422
-0.043008126
0.038242184
-0.06987919
-0.0913858
0.039525397
-0.12559278
-0.036666613
-0.50748444
-0.09348392
-0.10212849
-0.799592
-0.055030715
0.046592128
0.019303631
-0.17357142
0.11863041
0.015634315
0.19741729
-0.0562166
-0.047633167
-0.06349379
-0.006665782
0.022970162
0.032905973
0.0113175055
0.026647221
-0.14219819
0.07342615
-0.06249061
-0.056031466
0.14437969
0.050287858
0.037827536
-0.03829943
0.18499248
-0.030293465
-0.020993026
-0.043541268
-0.098779574
0.07048436
-0.17538926
-0.013185633
-0.11202988
0.18165857
-0.030253531
-0.17374958
0.023368679
-0.023995085
-0.04943146
-0.04694337
0.037679918
-0.17541765
0.022623474
-0.0075056166
0.026006725
-0.052872974
0.116812564
-0.095350936
0.046593238
-0.049665358
0.0141539825
-0.23856539
0.054750253
-0.24467976
-0.23632193
-0.04940471
-0.27464953
-0.0076662847
-0.115907766
0.1599318
-0.28042904
0.14734808
-0.0057510207
-0.0130360965
-0.0016867745
-0.16033195
0.019968953
-0.055833258
-0.24859641
0.013970788
0.0399417
-0.058804598
0.17860796
-0.12305454
-0.07170401
-0.09156648
0.05568242
-0.10715302
0.00046846992
-0.011261717
-0.07284213
0.055111397
0.051445477
-0.12944277
-0.09776116
-0.023991277
-0.03798627
0.025898695
0.010256217
0.025366109
-0.05766722
0.05103223
-0.0014552273
-0.1312566
0.07389766
0.23201698
0.11419779
0.08700436
-0.27750266
-0.3909906
-0.036304932
-0.07237362
0.013960976
-0.2566286
-0.038282778
-0.07383176
-0.08501681
-0.005420614
0.12174578
0.09955948
-0.22503223
-0.05198817
-0.08922412
0.11443426
-0.07246065
0.1840747
0.07585145
-0.05232508
-0.24542946
0.18748622
-0.06118662
0.1541181
0.113702856
0.14628904
0.021789117
0.06461898
-0.085889734
-0.07574994
-0.04434597
0.07442246
0.14061987
0.0960411
-0.010002938
0.09146766
0.043663863
-0.025696205
-0.06675813
0.08299021
-0.18258062
0.043656025
-0.04517945
0.09760965
0.15842393
-0.04233263
-0.19658028
0.1326131
-0.0058848793
-0.025555754
0.1592418
-0.011248496
-0.0070688585
0.115001306
0.19382587
-0.05298293
0.23786159
0.052784435
-0.04187365
-0.0973384
0.23907033
-0.94174767
0.058668528
-0.10042219
-0.048031133
0.039192766
-0.05009164
-0.05187226
-0.022336869
-0.103846446
-0.03943526
-0.06065231
-0.037853323
0.023993809
0.06270153
-0.026087923
-0.012673021
0.025833556
-0.045636047
-0.07807544
-0.07810203
0.023227522
-0.048359495
-0.010194515
-0.10587722
-0.07732621
-0.057353973
-0.050100736
-0.07891893
-0.07927688
-0.06717423
-0.025234183
-0.014563131
-0.006587096
-0.059029676
-0.018458
-0.07230438
-0.09568627
0.034236208
0.0105634695
-0.07095548
-0.0871211
0.021936165
-0.061660804
-0.11653877
-0.097393684
-0.01413144
-0.011016045
-0.07004582
-0.038611412
-0.04237725
0.04022731
-0.061106026
-0.005052645
-0.05845038
-0.039753646
-0.03691271
-0.06419728
-0.070423685
-0.036316153
0.019240478
-0.04408862
-0.013510114
-0.078229845
-0.075033955
0.031405684
0.012501161
-0.064357795
0.020189505
0.0036447
-0.069328666
-0.07488185
0.011689138
0.052964695
0.026899744
0.029316135
-0.10227335
-0.037104234
-0.05229388
-0.06472869
0.022798143
-0.07297329
-0.07815398
-0.028661665
-0.089128405
-0.04137336
-0.044174194
0.029636683
-0.018932417
-0.09608098
-0.044674527
0.08741635
-0.0545926
-0.045865495
-0.015750447
-0.049962185
0.0013040056
-0.068377815
-0.08807936
0.005134717
-0.042252973
-0.036498066
-0.043282654
-0.05375706
-0.024463937
0.044357955
0.028259717
0.02601673
0.05954468
-0.047097147
-0.044818223
-0.08008523
0.01651911
-0.00092167524
-0.15819052
-0.06558311
-0.008731739
-0.1182314
-0.062126268
-0.07808629
-0.09060443
-0.09744554
-0.017461218
0.04666154
0.04290253
-0.12087897
-0.038685843
-0.00089322764
0.066138074
0.03360938
-0.034833275
0.0060288915
-0.10527698
-0.07108186
0.043738235
0.07393433
-0.008528839
-0.0030862805
-0.012674293
-0.05194735
0.032186203
-0.06060107
-0.07460013
-0.04944017
-0.03558276
-0.07965729
-0.07422267
-0.008443235
-0.109323084
0.008652841
0.024422403
-0.013720852
0.004644135
0.024407573
-0.06018543
-0.030510025
-0.0397475
0.03430879
-0.08988601
-0.08391791
-0.041359536
-0.107525595
-0.01661315
-0.09340141
0.031083845
-0.014687902
-0.061362013
-0.013409853
-0.062536485
-0.00860543
-0.06597553
-0.03638039
-0.07418249
0.009498543
0.06703131
0.03616598
-0.03663227
-0.030648015
-0.036996424
0.032471966
-0.045860253
0.018074332
-0.0043710447
-0.036036976
-0.09628454
0.03310363
-0.019344239
-0.112324074
-0.11736701
-0.0054474566
-0.0284667
-0.058731172
0.04650935
0.031589765
-0.008979119
0.049475268
0.030666484
-0.055355843
-0.045159973
0.016490983
-0.08733483
-0.009453943
0.04128786
-0.06254167
0.005159443
-0.014808292
-0.2753753
-0.018927077
-0.01756243
-0.0068264147
-0.05924542
0.017165145
-0.036701284
-0.018541107
0.026909929
0.05955543
-0.19712439
-0.09984855
-0.04538899
0.0008781276
-0.014525581
0.02169643
-0.010506424
-0.32821837
-0.1680243
-0.25439873
-0.033097398
-2.418488
-0.053668648
-0.12398209
-0.00029636858
0.100584485
-0.0015943802
0.024366569
-0.2421817
0.06772014
-0.0059528667
0.028890362
0.02932051
0.020462004
-0.01626183
0.026501294
-0.18395047
-0.95657456
-0.16097745
-0.0011401058
0.049598765
-0.03154894
-0.088201076
-0.28043678
-0.07048466
-0.4535411
-0.02169185
-0.060829
-0.0035382803
-0.041227885
-0.069513544
-0.04411788
-0.1290034
-0.0507854
0.01586582
-0.016549775
0.006542787
0.013270443
0.04480956
0.009153303
-0.020127466
0.07556209
0.041232247
0.06667309
0.008750979
-0.120177336
0.035820015
0.04543859
-0.07418286
-0.05360602
-0.097178996
-0.020769978
-0.04266142
-0.8622521
-0.1672331
-0.083232634
-0.012500902
-0.03515998
-0.12465578
-0.047255192
0.046843443
0.014140532
0.017223896
-0.11214465
-0.124929555
-0.020524234
-0.5741607
-0.12762481
-0.2658313
-0.021103697
-0.04605883
-0.06651521
-0.024175862
0.04136995
-0.06394976
0.2253243
-0.05452864
-0.020827185
0.013408325
-0.06564917
-0.030692749
-0.12376972
0.011142434
-0.06682793
-0.001101399
-0.030813802
0.023626184
-0.08308508
-0.13916335
-0.029565362
-0.08446661
-0.04003188
-0.07518868
0.005079358
-0.011115735
0.097089425
0.03303038
-0.13986737
0.065882325
-1.5926867
-0.1599453
0.035078123
-0.10644539
-0.22182857
0.051031448
-0.122631
-0.09087792
0.051250033
0.08793385
-0.036078375
-0.06396937
-0.1800371
-0.11060366
0.055463225
-0.019428536
-0.14256045
0.03692905
-0.013157241
0.05171869
-0.021323172
-0.057806242
-0.19845542
-0.3530027
-0.10649796
-0.111189626
-0.13547865
-0.11653536
-0.04686175
-0.019007705
-0.012293609
-0.009154346
-0.12635773
0.02261186
-0.0068585887
0.064415686
-0.043722693
0.033535287
0.059786443
0.08956384
0.060347497
-0.0602415
-0.004986311
-0.045078073
-0.23383836
-0.028054664
-0.012070058
-0.060372487
0.01967343
-0.22691654
-0.07249941
0.07220151
0.049360942
0.012375824
0.04768772
-0.152746
0.052666854
-0.11268919
0.000863437
-0.11012911
-0.047197007
-0.13529903
-0.010570735
-0.014400165
0.019365303
-0.026746646
-0.11243005
-0.010518907
-0.083744295
-0.02871822
-0.17260335
-0.15481111
0.0017984707
0.04563292
-0.29602906
-0.117490016
-0.1649357
-0.013567938
-0.019195229
-0.3345061
-0.008322375
-0.7294991
0.033414185
0.0044249548
0.027381625
-0.069434695
0.0623516
-0.020020429
0.0026972978
-0.062385432
0.08507371
0.027288232
0.21930139
-0.048135594
-0.043368768
0.057216633
-0.058770116
0.040017962
0.081267625
-0.02060674
-0.85740787
-0.0428178
0.0008545103
0.07400314
-0.66626817
-0.079077296
0.027211793
-0.0036746988
-0.057115305
-0.6418379
-0.13447037
0.026310343
-0.15121545
0.14178017
-0.7905589
-0.013560184
-0.010802512
-0.26346785
-0.016670879
-0.17780238
0.06265669
0.02934894
-0.016198704
-0.0057448563
0.23806927
-0.058644686
-0.10143319
0.08062943
-0.015501349
-0.024501339
0.2495049
0.062351905
0.0816586
-0.5471843
0.14919826
0.17953107
0.022706082
0.020600341
0.04104811
0.03982931
-0.0082425475
0.0013415362
0.012805438
-0.009901655
0.013388537
0.017711068
0.028146902
-0.092331246
-0.046056587
-0.240176
-0.07007372
-0.09387353
-0.028148673
0.011719189
-0.11432029
-0.11650523
0.13308312
-0.2580801
-0.29625592
-0.04811589
-0.11464027
0.0059578405
0.017482206
0.13152973
-0.2576804
0.1961465
0.06376541
0.014512931
-0.43368167
-0.05991903
-0.29886997
-0.048811805
-0.04121439
-0.17118634
-0.046549417
-0.01879685
0.0005505899
-0.5791963
-0.20325844
-0.055512413
-0.090491325
0.04359915
-0.43457547
-0.011481671
-0.0514289
-0.004774903
0.06657417
-0.06529563
-0.060620934
0.17973463
-0.03896725
0.034925085
-0.06387921
0.08447841
0.1730708
0.010488436
0.044440296
-0.021958316
0.046445917
0.022158604
0.026258506
-0.468884
-0.014420245
-0.31782106
0.10458013
-0.009303193
-0.10051922
-0.08459575
0.050949294
0.085094966
-0.033085465
-0.042077478
0.1217316
-0.14016867
0.042287383
-0.21664666
-0.1307299
0.044964943
-0.032418814
-0.025943788
0.06901378
-0.018081984
-0.07986295
-0.07296336
-0.03859828
-0.08616512
-0.14481449
0.123754166
0.09924644
-0.068494394
0.092595704
-0.0139996065
0.14287764
0.079572245
0.042850543
-0.08225414
0.19213328
0.050234348
-0.06753136
-0.06534115
-0.061054982
0.02828318
0.0074259653
-0.08552312
-0.63380325
-0.03442786
0.015197649
-0.02375912
0.001549954
-0.20488518
0.005629247
0.048484627
0.030074317
-0.17518638
0.17065771
-0.31959212
0.010885737
0.06288012
0.0243578
0.04045181
-0.011403386
-0.4030525
-0.1415722
-0.020857153
-0.081946716
-0.09325915
0.14496797
-0.035471383
-0.007259699
0.35510838
0.101332255
-0.041412346
0.033737514
0.06290408
-0.5470009
0.09650646
-0.70083624
0.003785218
-0.013294441
-0.063415706
-0.06674662
-0.150589
-0.0071524177
0.00362514
0.06577569
-0.13077152
0.015328584
0.027665552
0.03869832
-0.05736039
-0.0061751683
-0.056355327
-0.04560263
0.032235064
0.1515979
-0.15925618
-0.05713802
-0.031519964
0.1000761
0.07060661
-0.26009706
-0.03399757
-0.06273738
-0.097698644
0.23702641
-0.2495557
0.0603871
0.18148327
0.07622016
-0.1666057
-0.2444302
-0.056853924
0.11561936
-0.043152466
-0.5166185
-0.1929179
-1.6567833
-0.055971663
-0.11581927
0.024281971
0.00078432175
-1.3266602
-0.03704664
0.010732656
-0.31244278
-0.034553647
0.055570778
0.061838944
-0.18199828
0.09373083
-0.02592925
0.20852628
0.049433354
0.019876417
-0.07459297
-0.020864999
-0.036263693
-0.044855867
-0.020003596
0.10084455
0.07003934
0.043987874
0.01635137
0.066966526
-0.0340803
-0.008696203
0.029635413
-0.006279501
0.039386567
-0.087079935
0.029998198
0.04984351
-0.04613553
0.07200504
0.024316328
0.02274142
-0.014495581
0.10154296
0.027085759
0.013501545
-0.004230865
0.11043601
-0.06138494
-0.23514715
0.0894661
0.16394435
0.07364682
-0.43632
-0.17851499
-0.04267414
-0.036031827
-0.0014289387
-0.046224616
-0.06730122
-0.049391646
-0.06532485
-0.047099225
-0.0635515
-0.011100052
-0.011094753
0.005308438
-0.062846124
0.09690211
-0.038044535
-0.03397931
-0.34383082
0.21392575
0.009457336
0.20651093
0.020911759
0.057063773
0.09301756
0.060563706
0.102147356
-0.18546613
-0.0032358791
-0.004036119
-0.0003914763
0.019339118
-0.0559364
-0.19772366
-0.0509831
-0.039036803
-0.2070422
-0.11715673
0.035810914
0.027249955
-0.020084804
0.11875555
0.028158981
-1.9140041
0.025774965
-0.085626885
0.09489644
-0.066457145
0.068886004
0.09491281
-0.30681312
-0.6142341
-0.09889265
-0.26429096
0.061705425
-0.00059953175
0.16694574
-0.0006937356
0.4270411
-0.19543682
-0.014327169
-0.06958834
0.016204
0.017443161
0.08730133
0.022252256
0.06919159
-0.040997595
-0.07244532
0.024403872
0.03708036
-0.18608858
0.006472776
-0.27653185
0.040797267
0.029827124
-0.012531882
-0.049856838
0.029539496
-0.01919847
-0.14785416
-0.18722038
0.16776083
-0.06055299
0.021148361
-0.0022022563
0.002861207
-0.05041327
-0.042951263
0.011842035
0.0053274822
-0.0030586587
-0.0113493195
0.06928366
-0.017647857
-0.18091168
-0.05952187
0.04152251
0.004832097
-0.22309095
-0.0005032103
-0.3394683
0.08066746
-1.2514085
-0.080416456
-0.021359907
-0.20939921
0.0030585772
0.11771541
-0.0858031
0.1280807
-1.0106195
-0.10180975
-0.20278548
0.105058536
-0.029497044
-0.0048288526
-0.051038563
-0.0017177893
-0.022917688
0.009961263
0.036955215
0.06268632
0.012800733
-0.05321143
-0.014759936
-0.014810507
0.06976589
0.021930283
0.004576437
0.01996236
0.12764893
-0.13830633
0.057417266
0.045938924
-0.005877806
-0.19080785
0.11974458
0.0016148916
0.049175028
-0.07676102
0.08156743
-0.0007265805
-0.09633398
-0.013121705
-0.046841513
0.03373469
0.021115286
-0.7892235
-2.6052418
0.049445912
-0.019505309
0.021681955
0.044077683
-0.98690116
0.08542435
0.050947838
-0.82519734
0.042496417
-0.08151348
0.09591071
0.084362574
-0.08310482
0.046172187
-0.03409429
0.043141674
-0.59075415
0.011626821
0.02897549
-0.02210824
-0.058332928
0.0107732825
-0.09134486
-0.014531032
0.015239846
0.057341076
-0.015313858
-0.0848895
-0.027426304
0.02651305
-0.03666747
0.06426251
0.1406703
0.059405427
-0.05624169
-0.044892613
0.07741709
0.0058658537
0.05194696
-0.15049604
0.07187846
-0.013127515
0.15981783
-0.109749444
0.03890849
0.045942243
-0.08444854
0.09627753
0.04919627
-0.113351256
-0.01378636
-0.11842627
0.03349786
0.18866736
0.068688974
0.08336998
0.036102947
0.05280898
0.04093168
-0.017613996
-0.047319442
-0.13335261
0.06468275
0.04348348
-0.00655136
0.13001457
0.045966674
0.036241695
-0.62764126
0.03527619
-0.17607783
0.0194009
-0.37945879
-0.06960229
-0.1673484
-0.07585324
-0.01788605
0.06555838
0.019868022
0.0052236193
0.034826588
-0.16706523
0.025586944
0.023619952
0.14112177
0.04331869
0.048751768
-0.38119224
-0.050046403
0.0661601
0.09894636
-0.050745875
0.003624774
-1.8898542
0.039532844
-0.16373733
0.030755341
-0.19368403
-0.04583434
0.10406315
-0.14606133
-0.950892
-0.0798437
-0.32893866
-0.03163939
-0.020769376
0.0062162727
0.021436065
0.110518456
-0.2095887
0.1157862
-0.080107495
0.07980483
0.01323768
0.028098105
-0.095619366
-0.035169456
-0.026471332
-0.1596224
0.17806914
0.07532415
-0.061320167
0.16869572
-1.0493871
0.030930066
-0.07556159
-0.0012647561
0.012611107
0.025409484
0.10391819
0.12701382
-0.051591728
0.06701133
0.0022804793
0.0109807355
0.015858626
-0.113965504
-0.40594566
0.013666141
0.00287054
-0.12597561
0.0022477773
0.04263372
-0.016586665
0.31390786
-0.032944504
0.065504424
-0.0062191375
0.02665439
-0.40227684
-0.07805637
-0.5377692
-0.061810896
-1.1928685
-0.067990676
0.06365252
0.06375273
-0.03251475
0.027972799
0.027884027
-0.054676123
-1.288078
0.012887181
-0.059880592
0.051787425
0.083895795
0.03191597
0.022233838
-0.0760758
-0.014123446
0.014519138
-0.007804151
-0.02055508
0.06334964
0.006973375
0.055172842
-0.026224265
0.023030056
0.014124918
-0.008325042
0.0072785076
0.021568596
-0.036570992
0.10214588
0.042559963
0.008103067
-0.04847331
0.1300082
-0.103002764
-0.043824434
0.07302914
0.07029498
-0.031949803
0.061475426
-0.020298991
-0.03252742
-0.00902413
0.023479793
-1.3068248
-2.7730267
-0.074384615
0.06663649
-0.017176291
0.04219834
-1.3326799
0.015523045
-0.013471601
-2.1148367
0.04822345
-0.0042152875
0.018075092
0.06375709
0.018517261
-0.0063561583
-0.3184905
-0.08419594
-0.30892894
-0.021129796
0.07611995
-0.07114919
-0.19312066
0.068786405
0.08508175
9.256077e-05
-0.08042555
-0.018513389
-0.016235085
0.00025046323
0.0102137
-0.022746636
-0.13303754
0.00069868733
0.037468012
-0.005931369
-0.02369765
0.024581764
0.03402882
-0.037324477
-0.009248483
-0.0021352863
-0.10178327
0.025983827
0.07769972
-0.0063133663
0.043598942
-0.0821274
0.02080133
0.016399212
0.088364854
0.03055592
0.048313584
0.09992405
-0.09321968
0.1571313
0.022441238
0.023744559
0.078680955
-0.079320095
0.019392258
0.04929044
0.11018074
-0.1027078
0.07203832
0.020879565
-0.06163315
0.01763307
0.0024031617
-0.028550709
-0.5525299
-0.09301817
-0.048034836
-0.056622982
-0.2538215
-0.006087862
0.111351915
0.036571566
-0.052048404
-0.07285397
0.069268726
0.0073988815
0.062229186
-0.06943407
-0.11074658
-0.010418776
-0.031944007
0.03103129
0.03601948
-0.24238741
0.050614562
-0.021852033
-0.038148228
-0.011486459
0.07772889
-2.4114554
0.052716132
-0.19049649
0.066151276
-0.011278897
0.06947231
0.048688795
-0.13639042
-1.009071
-0.061588403
-1.5860215
-0.051094033
0.06385492
-0.09426252
0.0199316
0.03735575
-0.25745156
-0.0020393222
-0.026764562
-0.23338968
0.051419117
0.04841085
-0.06550858
-0.009756532
0.039413977
-0.008943412
-0.009546092
0.00095979945
-0.10247384
-0.024436062
-2.2610629
-0.0012724146
0.043180745
-0.4093439
0.051257953
-0.07617612
-0.014526578
-0.11013949
0.09348105
0.21320654
-0.20131193
-0.052403692
0.07533393
0.020836389
-0.6070384
0.021226527
0.06064713
-0.0014811665
0.039274722
0.055517882
-0.003124825
0.0981758
0.07252978
-0.030751333
-0.014662034
-0.07435847
-0.36178344
-0.026829416
-0.6621365
0.119804196
-1.4093478
0.033682097
0.030820072
0.040837202
-0.034392048
0.016459355
0.047785506
-0.033161256
-1.5316513
0.01174378
0.016890394
-0.056005996
0.052955646
-0.1080401
0.024141401
-0.051498163
-0.021440446
0.040908173
0.0021392566
0.009239925
0.0026461245
-0.0055001215
-0.04896676
0.021146022
-0.065752186
-0.02149643
-0.053797986
-0.046654005
-0.005676424
-0.056690164
-0.06670249
0.06485999
-0.03552778
0.012552397
-0.0216177
-0.0089831175
-0.062710755
0.008554528
-0.017234782
-0.075648494
0.02524745
-0.03782608
-0.059697337
0.0045274626
-0.078590535
0.0044016833
-0.03689215
-0.01730127
-0.06241747
0.00540284
0.0044966065
0.05481029
-0.015110535
0.0015782573
-0.011480267
-0.015928445
-0.074677244
-0.0025542425
0.035162125
0.06881538
-0.0064436565
0.052898
-0.09106174
-0.048861086
-0.0023085421
-0.11989774
0.055678003
-0.005717124
-0.019183625
0.018922819
-0.09918267
-0.005205419
0.035901923
-0.000646947
-0.06347472
-0.107082896
-0.017093
-0.02491289
0.039473124
-0.06432841
7.45649e-05
-0.11357195
0.011094933
0.016347894
-0.01327307
-0.00939631
-0.039012678
-0.0065451926
-0.08128331
-0.06671633
-0.034915417
-0.03161933
0.029866263
-0.0773177
-0.0011384739
0.04499999
-0.030748932
0.009422546
0.019938916
-0.03623177
-0.01221924
-0.032898605
-0.019834956
-0.13808876
-0.0127301365
-0.0650246
0.042630862
-0.008486251
-0.046984505
-0.04666026
0.03387809
-0.024139503
0.009618035
0.020801062
0.047057416
0.0030263588
0.04641468
-0.040028874
-0.019366998
-0.043928456
-0.0146806175
0.017553667
-0.050157946
-0.05737227
-0.115923546
0.0063311746
-0.051977344
0.03816999
-0.020134376
-0.039354626
-0.051128693
-0.009108179
-0.023298196
0.0029466779
0.045349818
-0.05445558
-0.0015124204
0.027354518
-0.032997698
0.024377516
-0.050858874
-0.0016648694
-0.06748652
-0.027205085
-0.021448836
-0.021811409
-0.03350303
0.06562874
-0.07861195
-0.05521859
0.008737272
0.038301915
-0.04822495
0.01676403
-0.06981221
0.05267085
0.0037884468
-0.028126791
-0.061285753
-0.07647203
-0.06707295
0.06032783
-0.06399266
0.044313803
-0.05688392
0.009744433
-0.00023663082
-0.014031329
-0.023096457
0.05365239
0.020975038
-0.07491989
0.01577873
-0.02003043
-0.0039234953
0.005753922
-0.054983962
-0.010733949
-0.011114279
0.027369857
-0.06296382
-0.06475471
-0.028606212
-0.03085861
0.044437833
-0.07146248
-0.03547993
-0.013252118
-0.062386792
-0.07269654
0.021859266
0.01489259
-0.0040807896
0.049090177
-0.08940822
-0.0046399026
-0.018507786
-0.0023353996
-0.026060428
-0.06238181
-0.07272797
0.017040709
0.007453807
-0.052864622
-0.09568162
0.023138601
-0.089799784
0.002660165
0.04752419
-0.0016001099
0.019059993
-0.016744392
0.0012187398
-0.0037762625
0.065550536
0.011009176
-0.060000166
0.0016440493
-0.0040757474
-0.062110934
0.049027383
0.05423901
0.021718426
0.040955614
0.118567586
0.019638075
-0.01590856
-0.029064061
0.03737827
-0.044204384
0.02738113
0.055144817
0.016916765
0.0043622055
0.017141832
-0.037272554
-0.03570325
0.021586582
0.022312144
-0.022948205
0.011231955
0.009477321
0.057494164
-0.07484503
0.0039276183
-1.3152648
-2.257456
-0.18525492
-0.017559038
0.040896006
0.068493806
-1.2924287
0.056776486
0.055550467
-2.1755593
0.061301604
-0.002424335
-0.060276795
0.009928004
0.07977349
-0.0076942756
-0.35107842
0.057475638
-0.46011657
-0.007826434
0.069835715
-0.025826082
-0.14289258
-0.062435746
0.05681264
0.038196582
-0.100138396
-0.031027501
-0.0065603303
0.04599202
0.0068389433
0.05231547
-0.053193033
-0.065120965
-0.0026403314
-0.045291312
-0.046213347
-0.015773166
0.08385687
0.03152113
0.04116189
-0.22028488
-0.12252433
-0.03888811
-0.04174728
0.091032885
0.060251422
-0.04603671
0.027124291
-0.015069093
0.07705446
0.029924551
0.0017379355
-0.016731393
-0.1058175
0.09655569
0.0052780868
0.0023541842
-0.021159647
0.018602645
-0.027633712
0.061589863
0.058327317
-0.26805902
0.047085214
0.028882986
-0.037468813
-0.014735607
0.016850842
-0.040304832
-0.6714937
-0.11282377
-0.06710948
-0.08663476
-0.28468958
0.036721982
0.16573775
-0.09984936
-0.06857032
-0.06719264
-0.016392533
0.047478348
0.013459295
-0.033455223
-0.044020545
0.03815136
-0.05702284
-0.01437921
0.020503419
-0.13796335
0.028190305
0.07186257
0.0030918268
-0.07426587
-0.007174954
-1.9881811
0.014350972
-0.16423675
0.05376155
-0.019546974
-0.052264933
0.06242334
-0.03421252
-1.0837222
-0.027802723
-1.4114527
-0.046521056
0.01301604
-0.0070260214
-0.029706618
-0.17479528
-0.396887
-0.00024687682
0.02720699
-0.07278977
0.00537463
0.08486173
-0.009650806
0.004019211
0.030112106
0.057086155
0.101273865
0.069367655
-0.027373727
-0.0031560725
-2.2410538
0.013047347
0.023181312
-0.3757656
0.022930624
-0.027670002
0.017044436
0.09937207
0.10123873
0.2185626
-0.11510785
0.032863203
0.053943153
0.017706186
-0.45387787
-0.010307517
0.048616156
0.038124956
0.07320912
0.09160359
-0.052495915
0.15538913
0.1433609
-0.00988581
0.08459805
-0.28626302
-0.20980851
-0.009045843
-0.42318362
0.14117351
-1.1859806
0.045524243
-0.009354793
-0.018536048
-0.007225758
0.005906379
0.00806856
0.054307323
-1.3261704
-0.0020905512
0.19247499
-0.17353986
0.02520932
-0.23029068
-0.06794019
-0.039573923
0.06477143
-0.08056476
-0.03992197
-0.037924685
0.04924272
0.09392776
0.013575292
0.027531955
-0.002799632
-0.15409729
-0.1365288
0.030426797
-0.023035849
-0.07788413
0.021840697
-0.06287773
0.08793456
-0.06389319
-0.19645233
-0.20019107
-0.04613557
-0.09923476
-0.32119897
0.022690311
-0.18461572
0.0446912
0.021412909
-0.11081516
-0.109365046
-0.06744903
-0.027536811
-0.00350915
-0.16292052
-0.051881243
-0.12892716
-0.04839326
0.025706552
-0.007587429
-0.013500824
0.008462429
-0.25541893
-0.08538104
-0.1967923
0.017196285
-0.022299383
0.076788574
-0.065770425
-0.10396613
0.099463835
0.023994993
0.012548657
-0.0033955867
0.014308353
-0.13936445
-0.22576995
-0.07048511
-0.05536021
0.038989816
-0.008179215
-0.24685772
0.10111871
-0.05643218
0.05183099
-0.08779739
-0.01309844
-0.097000405
-0.19849032
-0.09541239
-0.24773367
0.0353644
0.017713625
-0.006986438
-0.07436642
-0.062132545
-0.055403814
-0.03958932
-0.036036532
0.09839161
0.044449415
-0.014458805
-0.1385904
-0.33934745
0.031176371
-0.1037341
-0.05898876
-0.05759076
-0.26910222
0.13407627
0.04215
-0.0613967
0.018250877
-0.20955414
-0.03535704
-0.030035168
-0.04871096
0.0176485
-0.033810157
0.028165087
-0.01780687
-0.021273768
-0.0421023
-0.10093245
-0.07325996
0.04743988
-0.17400372
-0.046190586
-0.1956103
-0.050296463
0.02938803
-0.16893491
-0.044138424
-0.11990072
-0.13942954
-0.18083027
-0.011441856
0.07292118
0.046231113
0.06511928
0.013175173
0.06186084
-0.07588975
0.009898304
0.01476161
0.0057208883
-0.114671156
0.01638116
0.024072828
0.0461422
-0.06354509
-0.08425395
0.050680056
-0.049724374
0.0117595
-0.1816289
0.024288602
-0.03300058
-0.069420524
0.004672922
-0.16210945
0.057358354
-0.068942524
-0.09613335
0.038709555
-0.0173602
-0.040064547
0.05415212
0.09332785
-0.103686444
-0.2221354
-0.2085763
0.010074456
-0.0123668555
-0.094261386
0.036344167
0.0028827349
-0.07002509
-0.04156002
-0.03593175
-0.6002883
-0.010960979
-0.059811547
0.0013519535
-0.021805946
-0.030063944
-0.018368626
-0.020230532
0.018457113
-0.12945926
-0.054454133
-0.024119405
-0.05952981
-0.123773485
0.096798465
-0.121524386
0.03747156
-0.17399187
-0.15664874
-0.0840841
-0.03590322
-0.110246785
-0.017973386
0.06388456
-0.031872522
-0.005173813
-0.06455999
-0.01156569
-0.05587567
0.074905664
-0.32734683
0.016541496
0.19905804
0.038074043
-0.039634272
-0.14939764
-0.026320558
-0.01664828
-0.053262148
-0.08417894
0.03671239
-0.0266283
0.044978183
0.0006918428
-0.062335383
-0.06345596
-0.038757823
0.00148058
0.03165778
-0.010862599
-0.017263532
-0.06587328
0.048304502
0.027706373
-0.06819843
0.0063104033
-0.036121868
-0.0429074
-0.074246086
-0.029319135
0.007032732
-0.043157067
-0.074539065
0.017394962
0.012166243
-0.044917997
-0.035062753
0.053145636
-0.014967082
0.012741075
-0.09734603
-0.00016552776
0.029985607
0.014112989
-0.058354966
-0.07863029
-0.0055587925
0.0487326
-0.008403713
0.0101254145
0.06077334
-0.069897644
0.03728211
-0.011580516
-0.01964962
-0.03534658
-0.022148935
-0.044370644
0.03762493
-0.019908162
0.0022204719
-0.079877555
0.037170976
-0.023786742
-0.04823825
-0.056055255
-0.04845529
-0.045179024
-0.0028047513
0.036417652
0.024787597
-0.001762239
-0.02767528
0.048484124
-0.015409635
-0.02212079
-0.01915507
-0.11062172
-0.067425996
-0.010956958
0.040088724
-0.06637164
-0.0720178
-0.06603811
-0.08087508
0.030731184
0.04658232
0.046465542
-0.033486694
0.04376243
-0.054258395
0.001658616
-0.09995505
-0.0028069972
0.0014001881
0.015282971
0.0305416
-0.05351534
0.00019017572
-0.08302957
-0.035418224
-0.08731834
-0.06778315
-0.0023567264
0.024331762
-0.0869005
-0.044127505
-0.073210485
-0.05473541
0.013132869
-0.032272894
-0.040890843
-0.049402427
-0.040797703
0.0066360147
0.013793452
-0.07572721
0.061933156
-0.028246302
0.036147494
-0.028973242
-0.004348262
-0.07531374
-0.04585343
-0.07308212
-0.05240514
-0.09978333
-0.018525684
-0.0065581515
-0.08402285
0.037537027
-0.05047884
0.015840217
-0.017718734
0.009488314
-0.07503859
-0.071763195
-0.052330486
-0.02790667
-0.009537599
0.050530836
0.030433428
-0.029544776
-0.039850984
-0.0027594354
-0.010857785
-0.022088617
-0.025610061
0.011429478
0.034728438
-0.038225695
0.0075846487
0.024426864
0.001361446
-0.11885863
-0.03277472
-0.013738803
-0.04636202
0.0011360057
-0.043531317
-0.10245896
-0.03632958
0.04237903
-0.028859673
0.008247326
-0.019279687
-0.0053804093
0.0052264216
-0.06541992
-0.039984893
-0.022353088
-0.053807598
0.047658924
0.0027477632
-0.05623966
-0.028899662
0.00032529913
-0.02555319
-0.006806712
-0.04929101
0.007837726
-0.04678981
0.021143354
-0.046673715
-0.049828343
0.00082631974
-0.05594689
-0.03984907
0.007941597
0.011713536
-0.008589432
-0.007959517
0.021111552
0.04035344
-0.0019458059
-0.037189916
0.028250312
-0.056877438
-0.06490916
-0.048345834
-0.1032874
-0.045196887
-0.1321902
-0.008137742
-0.0036728673
0.005028726
-0.031077519
-0.081738286
-0.0071182237
-0.062048312
-0.06551578
0.02401654
-0.018641287
0.011276702
-0.0017645175
-0.049856585
0.036392417
0.017272126
0.029111456
0.055449035
-0.04889734
-0.074616805
-0.08606305
-0.04864623
-0.033847813
0.011650833
-0.046132028
0.0057438016
-0.013887254
-0.035362404
-0.0205174
-0.07735731
-0.083096735
0.0322157
-0.044377387
-0.056223888
0.0035819863
-0.06816924
-0.06019416
-0.059467744
0.010619853
-0.022458343
-0.0439624
0.01528602
-0.047526896
-0.07326684
-0.05214426
-0.001333005
-0.075514734
-0.037302047
0.029637383
0.021402063
0.04450249
-0.04014966
-0.040491946
-0.081258
-0.057266213
0.04079968
0.01677941
-0.04010064
0.0042045573
-0.13853915
-0.010183541
0.035044733
0.018788243
-0.023322057
0.008595368
-0.030018644
0.002279758
-0.056456223
0.0019876831
-0.0670267
-0.019778188
0.04755748
-0.016236369
-0.06563996
-0.018192666
-0.035544578
-0.0042302916
-0.042194337
0.00076672155
0.04048723
-0.044224516
0.0015643797
-0.12355855
-0.014958713
-0.06027889
-0.030507373
0.0124880215
-0.04064238
-0.024126224
-0.051595755
0.013434106
-0.060113806
-0.0806965
-0.008447145
0.044770185
-0.062335674
0.0037821408
-0.058774732
0.02338944
0.05132575
-0.053562623
-0.02806596
0.057337537
-0.00016816829
-0.04336094
0.0060439142
0.0015337216
0.03055781
-0.054634202
-0.0065047015
-0.070041254
0.05049783
-0.009777173
-0.008612146
-0.018372444
0.0022896458
-0.06274092
-0.035026122
-0.0546446
-0.010331123
-0.0019446795
-0.060558822
0.0056253667
-0.015436241
-0.05695655
-0.014606659
-0.04119896
0.005074061
-0.032861527
-0.060780007
-0.06775135
-0.024689233
0.04312358
-0.08112765
0.0045792935
0.039489485
-0.062185626
0.04857462
-0.0037108213
0.028800283
0.03620755
0.04259278
-0.06216734
-0.059059765
-0.034349654
0.043655556
0.009818771
-0.03301365
0.024686996
0.0018117552
0.018685032
0.040133014
0.021145917
-0.04988479
-0.025021462
0.012154958
-0.039189003
-0.07105839
-0.08237701
0.006792867
0.009212226
0.013392153
-0.079458326
-0.022865979
0.027453896
-0.04023114
-0.046047937
0.04316772
-0.08382421
-0.0036515938
0.05459285
-0.060208328
0.044683937
-0.016930507
-0.024896141
-0.0060613356
0.0076382463
-0.09215954
-0.07218674
0.0397196
0.013935442
-0.09314144
-0.033997267
-0.07083173
-0.05989101
-0.032353345
-0.03756544
0.0030990487
-0.006064484
0.009028668
-0.010906425
0.039475877
0.024334729
-0.003018076
-0.038437705
0.044359576
-0.049449425
-0.03527371
-0.084202364
0.047377463
-0.12378332
-0.06751421
-0.06322535
-0.044170253
0.024935845
0.033429615
0.010620444
-0.08327311
-0.017289056
-0.00044764706
-0.040633943
-0.02822166
-0.075004585
-0.059842084
0.0147982165
-0.00081756845
0.01890833
0.037094463
-0.06944269
0.007305811
-0.17500506
0.034060728
-0.08561095
-0.0041852053
0.056836247
-0.07010878
0.07789052
-0.1563464
-0.14085369
-0.03741256
-0.048448738
-0.23561674
-0.06583822
0.08200714
0.0836163
-0.054514877
0.037947565
-0.08254058
-0.019113764
-0.027423957
-0.117323466
0.059579823
0.045171026
-0.12400382
-0.10450875
-0.07391161
-0.04718092
-0.10474117
0.07843339
-0.011771285
0.04033379
-0.105928674
-0.036298275
0.0050688647
-0.115469046
0.057060704
0.058736943
-0.0048892694
0.074794374
-0.0009268191
-0.04470088
-0.055524487
-0.060362116
-0.11522962
-0.0256694
0.009119106
-0.10829973
0.07016607
-0.059364405
-0.12638418
-0.027473811
-0.018633211
0.040405266
0.04151353
-0.052091293
-0.013260677
-0.02841624
-0.09123966
-0.10039376
0.08878841
-0.12659402
-0.07443252
-0.02763597
-0.2038269
0.12499179
-0.071654506
-0.054450024
-0.0723548
-0.048852965
0.07030365
-0.203143
-0.024489386
-0.123333946
-0.04406869
-0.07268637
-0.010397163
-0.108632945
-0.051365204
0.0042455113
-0.015446313
-0.05308054
-0.0841368
0.038471233
0.003145299
-0.09242775
-0.043272424
0.032250475
-0.031855516
-0.022632495
-0.1492947
-0.032920144
-0.100930534
-0.06900837
-0.074548624
-0.04544452
-0.061833337
-0.14799188
-0.06234035
-0.07774197
-0.054855704
0.084175654
-0.12536038
-0.035543058
0.054884925
0.039316308
-0.022588016
-0.027834432
-0.023873677
-0.18575521
0.06782614
-0.10848753
-0.025420155
-0.008790696
-0.097894534
-0.094448574
-0.010059334
-0.04180786
-0.0996633
-0.032281432
0.015316215
-0.02185259
0.015978945
0.024004405
-0.014388874
-0.004067232
0.043792427
-0.05808263
-0.06120019
0.012514403
-0.0688997
-0.12303548
-0.12508547
0.020905392
-0.0845959
-0.11205905
-0.105447784
0.12656163
-0.13371065
0.02426018
-0.06382283
-0.037577886
-0.022896998
-0.119860046
-0.05763382
-0.04818973
0.019226523
0.11288797
-0.028558591
-0.024714014
0.014279926
0.04243918
-0.056693956
-0.08707347
-0.054498456
0.0047358875
-0.036493804
-0.07149675
-0.105183415
0.01652307
-0.051188227
-0.011960145
0.0015071084
-0.012858799
-0.08232682
0.009311443
0.054125145
-0.042896867
-0.06284679
-0.11294022
-0.120594315
-0.1222123
-0.05769661
-0.09714705
-0.08766139
0.042004526
0.035352036
0.033518445
-0.06504266
0.07596244
-0.04038636
-0.008876093
0.051614977
-0.054617763
-0.05973085
0.049084768
0.01938267
0.08337493
-0.010550373
0.1540015
0.030520087
-0.00086697546
0.0102450745
-0.010388256
-0.100075215
-0.016469661
-0.34353533
-0.05898475
0.04197228
0.05205875
0.051870063
-0.09261704
-0.035498403
0.012897823
-0.028690461
-0.027053548
0.030533237
-2.9489987
-0.00485805
0.013843478
-0.0085321795
-0.0543095
0.053347025
0.051534194
-0.037221413
-0.5504064
0.034103874
-0.081651196
-0.112515695
0.0632673
-0.022023974
-1.4750813
-0.28064084
-1.1430535
-0.066396
-0.0038488072
-0.8079493
-0.1618027
-0.028870491
-0.08559346
0.032473065
-0.5069619
0.028183974
0.022282323
-0.0018851565
-0.022693159
-0.08965333
0.078501485
0.07514316
-0.056981135
-0.021686899
-0.010274722
0.09191369
-0.008982197
-0.0033508583
0.06753293
-0.1985349
0.046829432
-0.034478173
0.036511943
-0.074637465
0.0860916
-0.014564641
0.06817989
