-0.01759347
0.006246908
-0.03925821
0.08393594
-0.0627271
0.09379315
0.07600154
-0.086601116
0.15113865
-0.044941876
-0.0825831
0.006232676
-0.07494847
0.038652454
0.2670253
0.06731167
0.012438258
-0.13544689
-0.1603364
0.18884541
-0.23019472
-0.069921024
0.05894813
-0.07199169
0.27072474
-0.07135344
0.0872869
0.085483186
0.11451667
0.018185047
0.033371452
-0.006407874
0.046092313
-0.01709797
0.10470809
0.024648713
0.020433359
0.27174824
0.030427186
0.02783917
0.033758175
0.19590367
-0.0040199845
-0.07632815
0.04977565
-0.0052460064
0.032228913
-0.016324366
-0.01860679
-0.032049824
-0.029900024
0.015932636
-0.04342134
-0.018918058
-0.019591436
0.029123956
0.03993836
-0.06676786
0.068273686
0.04970482
-0.0073201577
-0.06513436
0.16136374
-0.09630724
0.10619787
0.032797404
0.0066085677
-0.04867614
0.17665875
-0.044249505
0.051896144
0.014022568
-0.005777965
0.12437242
-0.21031687
-0.033268165
-0.06734731
0.2249055
0.057749107
0.15323348
0.07980859
-0.0546766
0.052483454
0.060505155
0.081422314
-0.19409424
0.19680007
-0.042325765
0.083006606
-0.005137291
-0.012405485
-0.07475039
0.0027118074
-0.015366472
-0.06489486
0.19630235
0.091306955
-0.022829099
-0.06381926
0.10986637
-0.05506489
0.04268603
-0.039202183
0.10809701
-0.030475844
-0.0386051
-0.05190212
-0.070347324
0.20730032
-0.015611566
-0.028977972
-0.04465004
0.05113888
-0.049273368
0.21324472
-0.04082851
0.011334483
0.16312607
0.03818059
0.04872183
0.12485269
-0.032356255
0.08109702
-0.03343761
0.11792419
-0.074549034
0.10469164
-0.32556775
0.17356065
0.03452617
0.022614999
-0.036045454
0.036299992
0.13376623
0.16938323
0.025732461
0.058452766
-0.011590689
-0.11937564
-0.020384872
0.042365868
-0.07484393
-0.044269577
0.040500097
-0.06512275
-0.14421941
-0.21581073
-0.02105734
0.16029884
-0.05717158
-0.053229842
0.06241695
-0.06728744
0.11147271
-0.0028784992
0.02619661
0.059984453
-0.01773583
0.04010272
-0.39688408
0.07763639
0.018592235
-0.09421017
0.22549221
0.025793552
-0.1165727
-0.06516683
-0.103738
0.17549086
0.06463891
-0.13010754
0.27010673
0.058961265
-0.17691176
0.045405343
-0.09921532
-0.12939693
0.035906542
-0.048945207
-0.0057960055
-0.29860443
-0.0069317715
0.043529335
-0.020896608
-0.027044594
-0.048081502
0.012699278
0.046008952
0.2733288
0.28368083
0.061100032
0.065804414
-0.03196507
0.029299233
-0.14128473
0.0007943557
0.04813155
-0.22353715
-0.2562643
-0.08121328
-0.008464363
0.045690138
0.13647373
0.07123067
-0.0356044
0.07422133
-0.067763135
0.04043808
-0.07330185
-0.00838915
-0.08701734
-0.11951923
0.21308102
0.27019358
-0.23536055
0.009526054
0.0050881407
0.055520028
-0.09287048
-0.06138677
0.041380685
-0.079830796
-0.31795382
-0.1561992
-0.04038057
0.1963363
-0.16662154
-0.015328066
-0.07461377
0.20029719
0.28970316
-0.0088394955
0.08514407
-0.10287013
0.013647232
0.07685552
0.14534
0.0093018655
-0.16550595
0.0146023575
-0.13251045
0.05391383
-0.013450771
-0.02015793
0.013357202
0.13051248
-0.07321189
-0.14666669
-0.07018998
-0.07580682
-0.013160183
-0.0047481763
-0.091008455
-0.03442064
0.0021977653
0.10685943
-0.1129871
0.12766622
0.018506588
0.14982384
0.06804564
0.16672014
0.073341206
-0.05182523
0.39771748
-0.19528133
0.0332701
-0.00477778
-0.050364785
0.20540917
0.11628763
-0.092681244
-0.2749389
-0.25860226
-0.0017199225
-0.1358308
-0.09963289
-0.051974732
-0.10966471
0.10211645
-0.06275322
-0.105285496
-0.0131032495
0.08651683
-0.006261976
-0.08170049
0.008059627
0.3993426
0.24045564
-0.054648302
-0.07411128
0.035091836
-0.008696718
0.021833792
-0.05271435
-0.2560033
-0.009679559
-0.12534596
-0.1045333
-0.037247095
0.060002178
0.19777983
0.10735789
0.11544369
0.03185878
-0.110670835
-0.054733023
-0.338836
-0.16340615
-0.16050945
-0.10615687
-0.11092121
0.0020381475
0.17712528
-0.17921051
-0.26786256
-0.13371827
-0.06306816
0.121312864
-0.036855746
0.07933122
0.06510101
0.0727763
-0.087097414
0.01665331
0.04131117
0.059327006
0.07915592
0.15526822
0.044676453
-0.053258274
0.109980404
-0.009172355
-0.050162036
0.28227317
-0.053799514
-0.010500494
-0.015571802
-0.14026898
-0.14792958
-0.03153986
-0.14286378
0.009950952
0.25146323
0.013280759
-0.05917813
-0.08085725
-0.016765388
0.1600451
0.047383156
-0.08599777
-0.09638765
-0.0044466574
0.11461594
0.1022983
-0.03424668
-0.17009105
0.26892787
0.59160966
-0.013965409
-0.005858098
0.05017286
0.064653665
0.01969863
0.07005562
0.08210039
0.42054132
0.18850294
0.006700945
0.029630003
-0.062381014
-0.13251016
0.061647035
-0.09283555
0.17475249
0.043372292
0.10834771
0.17522167
-0.055226956
-0.031896092
-0.019567356
-0.0073346496
-0.070585534
0.10610459
0.033962008
-0.017082896
-0.033427954
-0.08103902
0.052157056
-0.08687053
0.13436729
-0.043060195
8.329721e-05
-0.07730121
-0.114509314
0.070316814
-0.03466596
0.22639914
-0.016630683
-0.13808152
