0.29777694
-0.14933914
0.0017187605
-0.07840796
-0.060051553
-0.117160134
-0.11247829
-0.07356094
-0.20909147
0.21147397
0.1595267
-0.10907149
-0.142814
-0.09830388
0.18290834
0.08104655
-0.17318246
0.12271147
0.12404704
0.041554287
-0.053182032
-0.112486355
0.0009077099
0.2564585
-0.0811251
-0.10589001
-0.01718503
-0.0068013724
0.21937366
-0.07122422
0.15409483
-0.061209418
-0.3524943
-0.07192887
-0.066592306
-0.076070234
0.07315775
-0.020494102
-0.0981685
-0.14335613
-0.08472085
-0.08666632
-0.23548694
-0.10247412
-0.09377526
-0.07068907
-0.032189503
-0.20218067
-0.09330166
-0.5016571
-0.04097632
0.13393673
0.09972318
0.28618503
-0.07061536
-0.039387267
0.07480562
-0.04699899
0.026842404
0.07840038
-0.0854639
-0.12550627
-0.07070626
0.033632345
0.029201468
0.14656945
-0.12804914
0.28565213
0.18613233
-0.1330541
0.2694129
0.30723405
0.1674904
0.24288544
-0.29769468
0.14788426
0.018193463
0.31618166
0.14496595
-0.08065491
-0.1658568
-0.07049373
0.11970807
-0.13285258
0.041551784
-0.2801232
-0.036349554
-0.09528687
0.3575474
-0.07588177
-0.11945721
-0.020746326
0.20704627
-0.050949555
-0.08100415
-0.10698796
-0.08706655
0.022138007
-0.09074775
0.00116697
0.20165782
-0.11106429
-0.045602024
0.063544385
-0.10891806
0.21271552
0.21745552
-0.070021965
0.14249536
-0.07702815
0.16003424
0.14477693
-0.07306296
-0.16642143
-0.1440022
-0.18099073
0.21832272
-0.14258374
-0.14066902
-0.05419075
-0.09469861
-0.100373544
-0.026075553
0.115229584
0.27720422
0.122242264
-0.08009225
-0.29602554
-0.14204986
0.1780142
-0.09616094
-0.09959875
-0.055779174
-0.17589003
0.17848219
-0.11338449
-0.05129634
-0.12544653
-0.088091426
-0.003174792
-0.08197638
-0.058819156
-0.06633274
-0.10780124
-0.064257406
0.021319764
0.26162395
-0.12289758
-0.079668574
-0.024121769
-0.19906698
-0.11950841
-0.052411124
0.13402197
-0.12475084
0.013404235
-0.08457624
0.29947078
-0.11627696
-0.2712864
-0.10421349
-0.03422959
-0.093485974
0.2602673
-0.047471188
0.13603635
0.101808496
-0.036822803
-0.149372
-0.08355816
0.26001975
-0.07675348
0.117637694
-0.13114268
0.36696213
-0.23610733
0.018524148
0.024366455
0.08263734
-0.055202242
-0.32017863
-0.0846905
-0.022839498
-0.10161196
-0.3733838
0.19735089
-0.08115267
-0.16981733
-0.1017577
0.0026627444
-0.2013839
-0.06956067
0.11310044
-0.10390135
0.36419958
-0.085919745
-0.10831404
-0.36723036
-0.12811974
-0.059714306
