-0.00054218626
0.00019497357
-0.0013847944
0.0005259969
-0.0015330059
0.00051237823
0.0025211002
0.000857199
-0.0030396194
0.00077713426
7.9352074e-05
0.0030499662
-0.00026758912
-0.0013227635
-0.002770011
-0.0074480176
-0.0038239826
0.0030683428
-0.0011861946
-0.0011953436
0.0015567545
-0.0024819637
2.961818e-05
0.0011427798
0.00072703057
0.001205212
-0.0040415055
-0.002675555
-0.0024859402
-0.0006206745
0.0028920707
-0.00523283
-0.0025592432
-0.0015307318
-0.0018795246
0.002242329
0.0022987083
0.00043269017
0.002232427
-0.00066006224
-0.0006394551
0.0015443398
0.0013424663
0.0026541385
-0.003417494
0.0028621128
-0.0025821584
-0.003727838
0.0007865453
0.0010986805
-0.0032695234
-0.001585309
-0.00093566853
0.0006217593
-0.0047385083
0.00023515675
0.0016949335
-0.0015079891
0.00083663
-0.0006953817
0.0009264482
-0.0010663607
-5.475243e-05
-0.0002077646
-0.00040938088
0.00072029704
-0.0010713598
-0.002492582
-0.0017700172
0.003509291
0.004248361
0.0002724779
0.0024230585
0.0006794365
0.0002757792
-0.0014334661
0.00028150436
0.00018822865
-0.001754537
0.00074853655
-0.0021891743
-0.0027302434
0.0016756383
-0.00038197567
0.007088938
-0.0030460807
-0.001426187
0.0010729535
0.0036307424
-0.0006175022
0.0011552605
-0.002336929
0.0044068196
0.0027856734
-0.00020225512
0.002171891
-0.008219227
-0.0019918736
-0.0006450857
-0.0030107424
0.00044473843
-0.0021037152
-0.00077657256
0.00036860385
-0.0012560934
0.0046035075
-0.0008142441
-0.0018296309
-0.0003740019
0.00074081693
-0.0009140942
0.0021982533
0.00082849717
0.00055198447
-0.0015300969
0.0011784891
-0.00053443824
0.0019537865
0.0013063747
-0.0033713835
-0.00047574856
0.0018386664
-0.0022171268
-0.0036772876
0.0019455366
-0.00051509764
0.003051956
0.00045258258
-0.0012522488
-0.0014523704
0.0011327371
0.00060157635
-0.0056871967
0.004909068
-0.0015421846
0.003948549
-0.0019024623
0.0028570935
0.0022227154
-0.0003446195
-0.0012472117
0.0037822104
0.0010224861
-0.0026835254
-0.0026213876
0.00012743358
0.00069131213
-0.0010085133
0.00088273274
0.002937762
-0.00097271265
0.0018835914
0.00037426598
0.00085228076
0.0031020145
0.0002781784
-0.0011799507
-0.0024180312
-0.00061493355
-0.0017142561
-0.002573958
0.00044257828
-0.0013123021
-0.0005702703
-0.0028587964
-0.0021659702
0.00063018984
-0.00023826575
-0.00030863777
-0.00036119367
-0.0010944468
0.0021946449
0.0007403647
-0.003723094
0.0005351243
0.00023842868
0.0007552636
-0.00012589886
-0.001512354
0.00086267426
0.0002511519
0.0046149045
-0.0015040298
-0.00018592844
0.004479987
-0.0013657276
0.0021912786
-0.0035766528
0.00010799022
0.00021678809
-0.0016553022
-0.0011431666
0.0020210147
0.002879742
0.00012369057
0.002223851
0.008716171
0.0004955387
-0.0027895607
-0.001827109
0.0009902421
-0.0010683424
0.0029494397
0.0005987323
0.0015297154
-0.0003986278
0.00015015643
0.0014563142
-0.0030640601
0.0016027907
0.0011383317
-0.0006605054
0.0022072515
-0.0011366124
-0.00086849293
-0.0048169293
0.0005656948
-0.00011542943
0.0007132208
0.0009811261
-0.0014600597
0.0013219672
-0.00023797559
-0.0023049507
0.0022613935
-0.00016092217
0.0007905536
-0.0032541652
6.3520965e-05
0.00192562
0.0033421563
-0.00384784
0.0012085396
0.0016890183
0.0019871432
0.003415713
-0.0025511086
-0.0011959149
0.0021550963
5.236205e-06
-0.00039719194
-0.0027162384
-0.0005427399
0.0017117908
0.0006870944
0.0016439395
0.0011738883
-0.00049134693
-0.0008687242
-0.00051236857
-0.0012902322
-1.0826254e-06
-0.00080634194
-0.00060632324
-0.0021944747
-0.00022093326
0.0008607452
-0.001637762
0.0028237477
-0.0007236749
0.003980452
0.0013552187
0.0013799747
0.00040684236
0.001957663
0.0005400751
0.0008791677
0.006170029
0.0022371146
0.00020151898
-0.0032148655
-0.0035025761
-0.0020519225
0.00092142756
-0.0026833564
-0.0011928864
0.00082850514
0.00018367234
0.0022098313
0.0018778344
0.0015701808
0.00015359568
0.0023804228
0.002740951
-0.0015369809
-0.00030065732
0.0033002724
0.0027828333
-0.00066489057
0.002877649
0.00073558907
-0.0023422486
0.004609785
-0.0009211329
-0.001017237
0.0018606657
-0.0015679407
-0.0025674177
-0.0011724863
-0.00048235527
-0.0014783369
0.0030747815
-0.00057480636
0.0007583674
-0.0002496034
0.002394524
-0.0019934801
-0.0007876101
-0.004382811
0.0024857009
-0.0014298337
-0.0014579893
0.0027803965
0.0031417012
0.0021246548
-0.0001718874
-0.0012439386
0.0007099302
-0.0010746907
0.0014234121
0.0031230864
-0.0001351674
0.00293037
-0.0040445426
0.0012967252
-0.0015654039
0.00023101558
-0.0031032679
-0.0018972007
-0.0016126496
-0.00053210295
0.0007584158
0.0048721577
-0.0025183791
0.0014942002
-0.0016073467
-0.0013812411
-0.00085618446
0.0028680721
-0.002999353
0.0010110269
0.0026110709
0.0008562097
0.0010555168
-0.001553776
-0.00036060918
-0.0045522037
-0.0013458064
-0.0015144055
-9.9709716e-05
4.763202e-05
0.0022074243
0.003819376
0.0009944465
0.0027888904
0.0016057692
-0.0011073995
0.003601829
0.0005625612
0.00107152
-0.0011738335
0.0043947315
-0.0019047672
0.0019419345
0.0040607424
-0.00195901
-0.003086849
-0.0032841847
-0.0023064709
-0.001053831
0.0016646865
6.81649e-05
-0.0010917424
-0.00041242826
-0.0010923027
7.905861e-05
0.004276666
-0.0025791416
0.0010768884
0.0023630357
-0.0009681725
0.00031925572
0.0004716357
0.0012669624
-0.0018745558
-0.00021446605
-0.0010425997
0.0009917769
-0.003038909
0.0015939544
-0.0022513126
-0.0004314537
0.0016543147
0.004898587
0.001790569
0.0024381198
0.0015836575
0.001722969
0.00028571664
0.0007999153
