-0.4403649
-0.4459723
-0.14919108
-0.004197684
-0.14732271
-0.13731918
-0.16591704
0.18369377
0.037480664
0.308487
0.002705467
0.13689744
-0.40047747
-0.25235265
-0.26805827
-0.19775008
0.027531153
0.11153299
-0.22028793
-0.028395621
0.3586782
0.430114
0.26173437
0.20921312
0.19048852
-0.14232776
0.036545
-0.09078977
0.061088897
-0.3381016
-0.3894498
-0.18676254
0.04545428
0.16645306
0.42854828
0.15259041
0.050903164
-0.29905042
-0.09125644
-0.22803256
-0.25837177
0.0074770264
-0.15261708
-0.3415958
-0.26279455
-0.22403857
-0.39800456
0.29462355
0.42149824
0.5960931
-0.073703825
-0.15721992
-0.20793527
-0.36880267
-0.43414304
-0.059135497
-0.41491753
-0.06852848
-0.32809913
-0.17781371
0.026978936
0.46883717
0.848998
0.033516664
-0.022335913
0.27231136
-0.052704886
-0.44238496
-0.46599877
-0.26212934
-0.41216284
-0.09063365
-0.45416945
-0.49595428
-0.20257814
0.43608934
0.6072878
-0.49116606
-0.044364687
0.44264624
0.15681604
-0.6091173
-0.5722363
-0.081694216
-0.66855496
-0.473728
-0.6680088
-0.70044017
-0.43558893
0.43138212
0.42301324
0.03256885
0.74782676
0.49146864
0.043363973
-0.7231537
-0.56983876
-0.013204071
-0.16780207
-0.08305726
-0.5510121
-0.47993037
-0.046233214
0.2429631
-0.11052907
0.2698023
0.5038125
0.1640598
-0.24427
-0.3528045
-0.060264036
-0.2574296
-0.1937353
-0.12175667
-0.7325155
-0.11591123
0.1620066
0.40687004
-0.1762876
0.84861416
0.4475192
0.38583583
-0.24635094
-0.32353115
-0.17689994
-0.022560472
0.021108663
-0.37633637
-0.3376323
0.015294963
0.382766
0.50989896
0.256428
0.94633
0.680883
0.29647493
-0.25975522
-0.17915392
0.11624149
-0.08540863
-0.17045875
-0.08440194
-0.3458694
0.2621766
0.14239731
0.16940561
0.5687181
0.8907712
0.47379565
-0.2471442
-0.22364686
-0.26758355
-0.17110422
-0.12338385
-0.15095519
-0.28287244
-0.21977583
-0.018484155
0.17651446
0.13361415
0.19195709
0.26556632
-0.27871126
-0.7844822
-0.2827309
-0.09208499
-0.111238785
-0.009853531
-0.32175934
-0.21967518
-0.053060923
-0.13014609
-0.28768486
0.04743522
-0.049780454
-0.20121948
-0.5017758
-0.75187945
-0.41726032
-0.38030988
-0.30502516
-0.1602483
-0.35271263
-0.13513294
-0.23747508
0.049596652
-0.3185056
0.035060924
0.085546
0.25503305
-0.14971408
-0.49454603
-0.36966014
-0.0400281
-0.053881437
-0.11208754
