-0.5083594
-1.7195576
-0.36532524
-0.34148508
-0.81622916
-1.7818234
-1.3827305
-4.3570647
-1.9927157
-0.6673124
-0.49354357
-0.7342127
-0.3499974
-3.3035712
-0.44900966
-0.38039947
-0.14966375
-0.47121367
-0.35905206
-0.6780687
-0.5809248
-2.164959
-0.42555323
-0.476782
-0.79338723
-1.8732175
-1.651399
-4.618533
-2.0753286
-0.40908504
-0.22443837
-0.38695621
-0.41981357
-3.2779133
-0.50110734
-0.64153576
-0.12327846
-0.44801536
-0.09105512
-0.7021045
0.024297645
-0.85753435
-0.21711369
-0.09870027
-0.92608565
-0.67353505
-1.1902083
-2.061579
-0.93014085
-0.25140834
0.088404745
-0.030202268
-0.29640943
-4.2458234
-0.16073571
-0.60933244
-0.41142294
-0.51163435
-0.4266124
-0.10040951
0.008651879
-0.5055943
-0.030572148
0.35089564
-3.6390545
-0.5156906
-5.753345
-0.78052473
-0.59919846
0.04283456
0.29678506
0.033474747
0.021910388
-3.5830107
0.12019291
-0.60813636
-1.3408173
-0.17691597
-4.919635
-0.19021876
-0.03613308
-0.16794589
-0.0404025
0.29254055
-1.6702994
-0.28382894
-5.2996097
-0.19927657
-0.544667
0.37637585
0.25344327
-0.025985766
-0.024279974
-4.3226185
0.28036958
-0.4363415
-2.2720006
0.06241343
-3.949995
-0.2661151
0.078596525
-0.035181735
-0.08628014
0.46261138
-1.8995107
0.116128035
-6.190618
-0.2957678
-0.40299463
0.6625943
0.3077026
-0.25128227
-0.44248196
-4.4556623
0.28995028
-1.140042
-9.24281
0.37582695
-0.54040265
-0.19601437
-0.22099599
0.09836925
0.2217202
0.23929223
-1.6116242
0.33892372
-6.848037
-0.9071373
-0.24745914
0.18591055
0.39356622
0.10793361
-0.7633036
-3.9074354
-0.013602483
-1.568927
-6.4491415
-0.32649243
-0.47637907
-0.32115033
0.0695799
-0.19843982
0.2327383
-1.5187064
-1.863811
0.24130204
-4.9656053
-1.4660974
-0.39106065
-0.6470288
-0.6633697
-0.014690005
-0.46890342
-3.027403
-0.7424436
-1.7432387
-0.3861682
-2.0947924
-0.38971865
0.11716169
0.03638169
-0.5049341
0.2560319
-7.0243983
-3.5991435
0.17884794
-4.0852275
-1.9283973
-0.41109547
-2.3845766
-6.207121
0.07820651
-0.0614675
-1.8632044
-1.1051173
-1.9800524
-0.37238076
-1.6149402
-0.075502194
0.0973182
0.080804765
-1.5280141
0.36329773
-5.49937
-5.695689
0.084697075
-4.185283
-3.7039056
-0.14558986
-5.0815325
-6.734951
-0.07688788
0.038280126
-2.0188434
-0.73443186
-1.0963856
-0.4011649
-0.7049323
-0.21113057
0.021710046
0.02753324
-2.13178
0.007441468
-6.4937944
-7.012993
0.43368146
-2.4953651
-7.045165
-0.46956453
-2.300987
-8.537841
-0.09289621
0.06050444
-1.8149035
-0.64145005
-1.015679
-0.5932116
-0.27549386
-0.30934986
-0.048726823
0.12658457
-1.4308391
-0.057074398
-0.74497086
-6.4017916
-0.23207144
-1.584386
-6.9723625
-0.63545823
-0.091905855
-0.56235456
-0.25705424
-0.12901165
-2.0430648
-0.19486739
-1.3166766
-5.9345064
-0.27765292
-0.056856044
-0.102533735
-0.60392714
-2.0550466
-0.32198834
-0.120433666
-0.78317016
-1.9426936
-1.5373495
-4.5104337
-2.2258725
-0.24266404
-0.38912663
-0.48004517
-0.23169447
-3.3915427
-0.42096087
-0.6297611
-0.30263618
-0.44445488
-0.27714694
-0.55134463
-0.43024978
-1.9319878
-0.23162454
-0.11017197
-0.7840083
-2.4265814
-1.7524124
-4.5777755
-1.7077333
-0.46503916
-0.40527722
-0.72790354
-0.20246845
-3.3583734
-0.20176874
-0.83355486
-0.105789654
-0.32815388
-0.37155738
-0.48186353
-0.46585852
-2.1391811
-0.511979
-0.4707321
-0.6538157
-1.8724028
-1.7103215
-4.670279
-2.2591727
-0.4299042
-0.30395254
-0.6421442
-0.27243975
-3.224745
-0.39635065
-0.5307313
-0.030540552
-0.33134368
-0.23039831
-0.6670301
-0.18569466
-0.69268864
-0.17639284
0.006769936
-0.12624553
0.019755818
-0.5829448
-2.1273756
-1.2166789
-0.4677619
-0.5996512
-0.058976434
-0.20041627
-1.9256825
-0.4820322
-0.39223585
-0.14989462
-0.6231373
-0.107541196
-0.0069166007
-0.116781875
-0.3460164
-0.08171626
-0.0056183827
-6.131569
-0.16979639
-0.5357817
0.0662725
-0.76936674
-0.24703087
-0.16023931
-0.19600782
-0.18606682
-2.7899783
0.37778357
-0.2087982
-1.3382562
-0.08248163
-1.5689499
-0.52429956
-0.21138553
-0.15719965
-0.013397358
0.45478147
-1.9623959
0.32132205
-3.7622793
0.29617006
-0.6983588
0.5635678
0.5493987
-0.25600868
-0.3643283
-3.5589602
0.6682066
-0.30628675
-3.6706522
0.40625215
-6.156249
-0.53796273
0.03743757
-0.1625386
-0.102529205
0.48350957
-1.0552026
0.32357034
-4.8324056
0.2997234
-0.17967159
1.1336727
0.67593205
-0.104895644
-1.2652985
-2.862703
0.74216306
-0.7377191
-4.195116
0.8005139
-1.7666186
-0.42625457
0.17669694
-0.22155942
0.3641681
0.050165214
0.7314819
0.30288678
-4.282874
-0.14576249
-0.15077849
1.0809256
0.52478147
0.17850158
-2.4308884
-1.7922505
1.0435989
-0.78296566
-1.4352038
0.48572588
0.48015592
-0.21611974
0.24883497
-0.9322839
0.6352655
-0.6378937
0.8260573
0.44779578
-3.6216722
-0.9255543
0.10338365
1.3532407
1.3242842
0.46080983
-3.5410867
-0.9049997
-0.15531638
-1.1466752
1.0954243
-0.3941866
1.2986926
0.15017168
0.43969518
-1.740899
0.3392919
-1.025061
0.9237797
0.40906462
-2.6018665
-1.4485778
0.632484
1.2153025
2.2775533
0.64604133
-2.5601804
-0.35432082
-1.5437222
-1.5373037
2.2043672
-2.5441225
1.8214816
0.17810816
0.30359027
-2.4841044
0.0958663
-1.1202699
1.5736907
0.9266791
-1.397621
-1.9582512
0.639602
-0.53979975
2.513428
0.2652491
-0.76048994
0.034328166
-2.3317633
-1.478767
2.1835697
-3.226441
1.0608228
0.20124756
-0.009368254
-2.6778636
0.08644341
-0.829982
0.9010758
0.9497875
-0.33234924
-2.7837949
0.495792
-3.5313487
2.1728573
0.18394464
-0.41394442
0.055661302
-1.3362272
-0.93057156
1.717786
-1.7889172
0.72619337
0.1209924
-0.10514558
-2.1533835
0.19168591
0.16214569
0.10494912
0.67079055
0.1882471
-3.60884
0.07207235
-3.8822613
1.0896322
-0.014989414
-0.20423533
-0.4259495
-0.43111396
0.07124572
0.9569913
-0.86084986
0.11623467
0.07446954
0.05720358
-1.2425171
0.08847462
0.23084384
-1.1436563
0.5260229
0.2709087
-4.031231
-0.7317102
-2.4356751
-0.50258046
-0.13066722
-0.1368488
-0.5676686
-0.22843388
0.42956564
-3.740971
-0.22962943
-0.46431223
0.03433717
-0.16565675
-1.1528118
0.04652142
0.0871418
-2.258609
-0.02848223
-0.36279738
-4.880426
-0.8048111
-1.6094602
-1.0585154
-0.018572744
-0.08084011
-0.86544204
-0.1453817
0.64392245
-7.481219
-0.29115292
-0.098807044
-0.07293304
-0.18345605
-7.6508946
-0.83572567
-0.2402764
0.08802464
-1.4090371
-1.6877995
-3.622482
-1.9795278
-0.83767277
-5.7913218
0.1276529
-0.28966278
-1.4886189
0.09336828
0.11838038
-2.7378454
0.13363
-0.10241872
-0.09711178
0.034672994
-9.390443
-3.9251666
-0.24132201
-5.910443
-0.69410115
-1.8439838
-1.9865409
-0.9562884
-0.6760995
-0.31497383
-0.2709128
-4.4048767
-1.35703
-2.1384895
0.00706133
-0.46639544
-1.9793639
-0.3521202
-0.07927146
-0.6038145
0.08104806
-0.3084457
0.21271303
0.34416667
0.32821646
-0.14634562
-0.36793295
-1.0992376
-0.26166055
0.026985962
-0.6094279
0.43450275
-1.4589874
-0.058979597
0.33041435
0.05168662
0.2696859
-0.2996315
-0.7956721
-0.43851972
-0.32705185
-0.45745954
0.5353922
0.7014632
0.22258708
-2.0694952
0.7803466
-0.89452714
0.29218444
-0.045549143
-0.16518344
0.4062465
-2.3677812
0.22406836
0.11772496
-0.8774377
0.49233902
-1.7620208
-0.3770896
-0.12735485
-0.6459624
-0.32480574
0.54955876
1.9510491
0.29498693
-2.8303094
1.0919124
-0.43035954
0.66222924
0.1096071
-0.19828981
-0.08023426
-2.1416032
0.39379635
-0.1377696
-1.3421247
0.5821713
-1.3034676
-0.6445439
0.032391652
-0.5464262
-0.13726898
0.3734038
1.601545
0.057501007
-2.511835
1.2385603
-0.04079775
1.0742066
0.14774382
-0.2096539
-0.7289906
-1.5320846
0.03482124
-0.42571384
-0.94404685
0.65941626
-0.6335331
-0.37626708
-0.017228283
-0.082675755
0.054192815
0.4424345
0.86070675
0.06821976
-1.983644
0.87950534
-0.27448413
1.0692527
0.19969858
0.10809371
-1.1920305
-0.9463185
-0.29390648
-0.38885912
-0.2708723
0.3066705
0.29759386
0.16109252
0.25262406
-0.13203835
0.16481909
0.5101217
0.7558894
0.35700145
-1.122866
0.506271
-1.1006361
1.0054951
0.57668614
0.56931233
-1.3488562
-0.49160686
-0.7620352
-0.6179435
0.20090252
-0.5308439
0.80592185
0.5976955
0.24194014
-0.5854644
-0.5477526
-0.072677895
0.5964581
0.64637303
0.2201602
-0.3035451
-0.6592245
1.0604284
1.3500221
0.69781727
-0.57565886
-0.099881716
-1.7715281
-0.22612089
0.7667585
-1.1765387
0.75110066
0.52385294
-0.06593756
-0.540913
-0.63116086
-0.09213397
-0.09142958
0.85365903
0.83159596
-1.2883967
0.17167404
-0.044914573
1.8581312
0.054970883
0.049887083
0.19161831
-1.5950547
0.7402926
1.3184414
-1.0854782
-0.46588475
-0.06516914
-0.18467492
-0.3352091
-0.22904876
1.0428436
-0.41288435
0.8248096
0.8587726
-1.2470239
0.24876314
-1.8030944
0.9725555
-0.50369567
0.46183404
0.6640683
-0.7497363
0.55189824
1.1789886
-0.51557124
-1.8476577
-0.44827527
-0.77565324
-0.06450649
-0.028643144
0.7386194
-0.7849577
0.4111638
1.0218251
-1.096958
0.32795286
-1.6749978
0.56947494
-0.51409304
0.6396366
0.663281
-0.10632958
0.50413245
-0.9997458
0.06796241
-3.2780552
-0.6413454
-0.71510726
0.14467502
-0.028465927
-0.048629787
-1.1750433
0.20039864
1.3769652
-1.0006766
-0.2966425
-0.535015
0.42464423
-0.4674531
0.41533223
0.41390038
0.16372947
0.5063017
-4.563111
0.4473035
-2.3351524
-0.47662497
-0.17342076
-0.043699645
-0.53964084
-0.1639463
-1.8927875
-0.28738412
1.7295406
-0.8535178
-0.90739185
0.35830966
0.06504074
-0.18750724
0.122365355
0.006230013
0.4002886
0.39612454
-7.635347
0.44082007
-2.9034028
-0.44353145
-0.40004453
-5.2379975
-0.77397424
-6.070474
-1.2319504
-0.48422858
-6.5218587
-1.2429283
-1.369227
0.50623
0.37705252
-0.10028196
-0.24871074
-0.72356135
0.1428864
0.36037323
-3.6331801
0.29750362
-2.464899
-0.0937457
-0.18791306
-3.8500233
-0.20176157
0.6568976
-0.942326
-0.6566689
-0.29620963
-1.2689464
-1.1936022
-0.06759102
0.22438733
-0.2797198
-0.15658435
-1.4809595
-0.17255363
0.3818638
0.47223383
-0.11871532
0.4493399
-0.22861405
-0.38521504
-0.30731097
-0.26171514
0.26785
-0.23009099
-0.4303457
-0.36237633
0.83122426
-0.7691578
0.4652192
0.28237477
-0.36520487
0.21800159
-1.6756479
0.2852095
0.0030908487
0.31250173
0.35553882
-1.1493821
-0.7495998
-0.31491467
-0.095391355
-0.39787906
-0.17752975
0.8767554
-0.30349463
-1.7800922
1.784023
-0.6756387
0.37051827
0.007970065
-0.2664245
0.60579616
-1.8422396
0.40607
-0.5871484
-0.34117037
0.88973665
-1.928671
-0.544741
-0.3720135
0.17256413
-0.0057489257
-0.51838285
1.4502459
-0.43360972
-2.7412791
2.1917415
-0.20707986
0.6842796
0.13421468
-0.40491977
0.41624767
-1.861061
0.7745165
-0.45831233
-0.82698184
0.8705497
-2.0193756
-0.61853284
-0.18054098
0.64862484
0.16572249
-0.27644932
1.1467801
-0.5338673
-2.0434968
2.2799597
-0.42624283
0.66558665
-0.08611967
-0.093380034
0.24522226
-1.5107212
0.48168766
-0.36419708
-0.68828124
0.69375503
-1.650767
-0.18123287
0.24654625
1.0199591
0.47997922
-0.12901114
0.27164337
-0.76025885
-0.86738026
1.6224365
-0.66425997
0.48276567
0.29115418
0.27908337
-0.2517103
-0.7057903
-0.021041755
-0.25959328
-0.2823029
0.11339158
-0.5680423
-0.09365335
0.82362413
0.589052
0.2026201
0.077691056
-0.0071241492
-0.55813354
0.9109383
0.97940135
-1.5926105
0.6832036
0.6550558
0.95500696
-0.09816312
-0.22449903
-0.905271
-0.43566597
0.13982661
-0.9805866
0.2381364
0.2615484
0.37995514
0.07097192
-0.6283153
-0.6013752
-0.6840832
0.081181034
2.198587
-0.18387969
-0.98932064
0.1929742
1.0196478
0.55781215
0.62534195
-0.3583708
-1.0510455
0.69429874
1.2549354
-0.9210076
0.19375744
0.2853155
0.19667079
0.53965473
-0.4683286
-0.60296184
-0.7318723
-0.3004797
1.6477563
-0.45863834
0.18587129
-0.46087766
0.47797137
-0.040054023
0.37946188
-0.25652722
-0.49398232
1.300511
1.9929601
-0.06978162
-1.4603266
0.02656879
-0.14254831
1.1144757
-0.31083438
0.3964747
-0.58573264
-0.6091232
1.461493
-0.3427551
0.25534365
-0.8857626
-0.029461844
0.052484397
0.25981343
0.24100338
-0.01393997
0.69769275
0.82592094
0.21584995
-2.6496375
-0.07296894
-0.39665982
1.4903655
-0.23481548
0.26853588
-1.4771696
-0.52715176
1.815321
-0.6600848
-0.015415563
-0.5880694
-0.61549264
-0.13499427
0.6257647
0.53019124
0.34650785
0.7336959
-1.0311655
0.56441057
-3.1158218
-0.4943672
-0.44538355
1.4161278
-0.35228744
0.038167752
-2.2679012
-0.5367784
2.303079
-0.6903981
-0.27129477
-0.08727389
-1.1450787
-0.44466636
0.94414705
0.54460484
0.5883506
0.768829
-3.5276597
0.88386726
-2.9247656
-0.75672346
-0.58182263
0.93214244
-0.53244406
0.054867815
-3.030053
-0.6396641
2.781357
-0.5532371
-1.1052543
0.9306745
-1.761235
-0.20818417
0.46713543
0.44416937
0.7578887
0.35846633
-6.3027573
0.9540971
-2.399383
-0.20187959
-0.17034192
-0.7376618
-0.6112625
-3.3213353
-2.2372844
-0.99050707
-0.76295984
-0.9922296
-0.98430943
0.769134
0.13016276
-0.36802772
0.33785248
-0.37964478
0.14473297
0.57489896
-5.1936903
0.57650584
-3.0853944
-0.3123326
-0.19411011
-3.3483565
0.19479384
0.57484525
0.093518406
-0.8532888
0.48474276
-1.827488
-0.5665128
0.008319147
0.28645444
-0.3357803
0.09263199
-2.002116
-0.3084881
0.6791419
0.2617116
-0.068203285
0.08832551
-0.22504887
-0.31088483
-0.33283776
-0.17907433
0.06583333
-0.8690254
-1.1841867
1.6867303
1.3170729
-0.5360073
0.44292882
0.36681432
-0.23036958
-0.0016435512
-1.2019306
0.44620848
-0.57567495
0.24066786
0.4487594
-2.0905304
-0.51386493
-0.084465094
0.09667438
-0.39157456
-0.15177889
0.6571866
-1.0651511
-0.30921257
2.2078972
-0.38334382
0.6525663
0.055547886
-0.27127087
0.38856143
-1.6815248
0.6094036
-0.8630033
-0.58145314
0.813127
-2.5516684
-0.25017133
-0.34224072
0.72200364
0.12289991
-0.31756085
1.0129566
-0.9979753
-0.8319314
2.3335073
-0.17740594
0.6658758
0.025677994
-0.29515415
0.558923
-1.5140661
0.7478902
-0.5998585
-0.7992632
0.6866061
-2.724124
-0.47127616
0.0792565
1.2635692
0.38033834
0.19404979
0.18651563
-1.3004196
-0.1354786
1.8567148
-0.14862783
0.7049488
0.27238646
0.10641881
-0.3507052
-0.49824458
0.19196677
-0.66610074
-0.6543931
0.6589854
-2.5013742
-0.25581086
0.8426571
0.8196033
0.4045586
-0.51400393
-0.43642336
-1.8564543
1.4710405
1.1468874
-0.22862105
1.2697417
0.9233398
0.6692131
-1.2386178
0.11681866
-0.33982518
-0.9301394
-0.052242674
-0.34574062
-1.1949781
0.5854056
1.0319574
0.33135244
-0.5867273
-0.48173553
-0.8449242
-0.7561964
2.8718188
-0.021329144
-1.3831307
0.3853712
0.68854153
1.2021912
0.21415758
-0.18610291
-0.5976305
-0.2854016
0.3533946
-0.9861311
0.2936059
0.28533432
0.19922262
0.027523413
-1.0737256
-0.6182349
-1.1123432
0.24257176
2.1070986
-0.7291894
-0.24288881
-0.7829714
-0.24702856
0.22147298
1.0563923
-0.38301426
0.102378815
0.9599037
1.4705603
0.14497593
0.13438946
-0.32624426
0.0009129827
0.5530409
-0.33984458
-0.27221578
-0.4787434
-0.7174411
0.49811244
-0.059975315
1.0142682
-0.8765626
-0.7115688
-0.31699392
0.12560813
-0.38098645
0.7627391
0.9356765
1.8025174
0.8548333
-1.9550354
-0.34319443
0.025205908
1.5235281
-0.079992674
0.21496773
-0.12189893
-1.5573978
0.5789088
0.568345
0.37587819
-0.28881443
-0.72855186
0.27116606
-0.014198182
-0.19391266
0.56474376
0.10199468
0.5467442
0.45118546
-3.7809598
0.20754863
-0.13437906
2.3559332
-0.29820195
0.12009309
-1.4062978
-1.3111311
2.0199592
0.06788682
-0.28242233
-0.041380983
-1.2053154
0.17558922
0.5856855
0.17460433
0.6446921
0.29254204
-1.3610706
0.67998016
-3.7278857
-0.028800149
-0.28082058
1.9444264
-0.32500392
-0.06208562
-2.3085277
-0.7820434
2.7759578
-0.2734728
-0.5127668
0.74935627
-2.4807565
-0.54853505
1.0649134
0.50295603
0.7172675
0.44592115
-2.5146532
0.9934187
-3.820422
-0.51013124
-0.413518
1.2689226
-0.42799404
-0.26018038
-2.7633777
-0.5756961
2.4587178
-0.24391618
-0.8865718
1.2858362
-3.723226
-0.5261018
0.5450722
0.46112427
1.1063408
0.03814735
-4.585683
1.439949
-0.8847176
-0.49395567
0.0312341
-1.3194276
-0.048066378
-3.106791
-1.814194
-1.1155777
-2.7158277
-1.6777904
-0.7775284
0.7291447
-0.42507726
-0.33987227
-0.064168155
-0.34068698
0.030622384
0.27265036
-5.1204925
0.44382834
-0.18515474
-0.007454092
-0.2348703
-1.2125741
0.006412063
0.67277354
0.11139409
-0.91361433
0.73784846
-1.8775542
-0.6438495
0.10166662
0.1619342
-0.18990043
-0.024225561
-2.3295078
-0.23786646
0.47695222
0.3338068
0.20380472
-0.009909074
-0.30696133
-0.26955986
-0.30545455
-0.3482284
0.31626138
-1.336067
-1.0788732
2.3755429
0.85003954
-0.5632143
0.54634476
0.3150409
-0.40291435
0.02580087
-0.935149
0.3669744
-0.5122259
0.06651519
0.44528127
-2.5928717
-0.28388828
-0.28501835
0.004722225
-0.2833524
0.019036269
0.28564757
-0.6468767
0.7447977
1.8576087
-0.41004962
0.7649107
0.1428555
-0.28550708
0.4199981
-1.1093456
0.4647274
-1.0225337
-0.98008204
0.91156584
-3.174732
-0.6259981
-0.20315355
0.9748738
0.2344486
0.25417635
-0.052843895
-1.1143434
0.5036568
1.955732
0.024644447
0.631006
-0.039726675
-0.43222004
0.2444346
-0.6371229
0.61469465
-0.8215138
-1.1557935
0.78102046
-3.4038239
-0.35497317
0.44843107
1.0977091
0.38147572
0.10269732
-1.0829005
-1.5796031
1.1979141
1.357807
0.26531214
0.80398184
0.6794488
0.041879524
-0.83425707
0.38979244
0.292966
-0.96936417
-0.8912198
0.23661716
-2.2678528
-0.010291722
0.7343063
-0.12286665
-0.19538307
-0.8283856
-1.1700273
-1.0815114
2.5827746
0.20854111
-0.2542176
0.82605505
0.9677955
0.8368831
-0.71926683
0.2876808
-0.31790677
-0.5073972
-0.21571374
-0.48609012
0.02427046
0.24911392
0.45302245
-0.76410913
-1.1395556
0.09443827
-1.0866303
0.5641688
2.7358093
-0.71832824
-1.1458443
-0.094925195
-0.16015585
0.52911377
0.74966395
0.0038399757
-0.26435602
0.1544889
0.204564
-0.63017637
0.98813415
0.1555963
-0.42864573
-0.5892108
-0.5657311
0.09426989
-0.61416453
0.97198486
0.64070094
-0.7263734
0.09760434
-0.5064962
-0.76675135
-0.43756256
0.56228244
0.034347218
0.40937263
0.8635758
0.7230436
0.44227612
0.93691397
-0.3184811
-0.0490679
0.5997045
0.23207091
0.1382282
0.54043967
-1.0929018
-1.0113362
0.3802132
0.72476625
-0.11637029
-0.5387199
0.11249625
-0.4253774
-0.5723953
0.5116976
0.47691724
0.9332188
0.43958542
-1.7217484
0.11080235
0.39333442
1.6428313
0.19472645
0.17002359
0.2760869
-1.8028629
-0.60043854
0.7283102
0.124225676
0.006541546
-0.07868161
0.51826257
-0.20076615
-0.50320643
0.26595682
-0.13351446
-0.0178094
0.14590643
-3.8275037
0.36814925
0.21312858
2.3405223
-0.10445803
-0.025067257
-0.98913294
-1.3740022
1.2302715
0.14964934
-0.27150223
0.36288458
-0.357776
0.23060656
0.2182238
-0.15223406
0.31615636
0.13314752
-1.1057146
0.31407276
-4.2898793
-0.023924032
-0.39746398
1.9295747
-0.27943966
0.020855274
-1.4103261
-0.8165709
2.1030357
0.10933823
-0.13275342
0.65298444
-1.9048004
-0.26161322
0.6901785
0.18573548
0.5930118
0.03474906
-1.9662637
0.9717369
-4.210094
-0.5803146
-0.56188864
1.1236135
-0.3436696
0.1346659
-1.4860122
-0.2509685
1.6208626
0.049849473
-0.49139982
1.1331376
-3.28913
-0.7021613
0.52058864
0.18179007
0.94623876
-0.42623574
-3.904831
1.2784873
-0.6483199
-0.4782774
-0.31048006
-0.9176062
0.057141073
-1.7825661
-0.74781513
-0.3188639
-2.2860715
-1.1327122
-1.0332652
0.60311556
-0.44059512
-0.024691183
0.1257641
-0.9737608
0.19293109
0.11771181
-1.7583432
0.07865678
0.6592616
-0.3518883
-0.16989407
-1.3722128
0.23303193
0.4176364
-0.21589813
-0.7107602
0.14037776
-3.123869
-0.49908704
0.0059492723
0.3542232
-0.44651517
0.13276121
-2.8860476
-0.1247532
-0.107076414
0.43176016
-0.20110387
0.12017279
-0.47374362
-0.21894604
-0.23071548
-0.23826367
0.32999268
-0.84427696
-1.0426165
1.8199236
0.19044393
-0.322482
0.5809342
0.3104349
-0.14906612
-0.17398953
-1.2524564
0.36000767
-0.17004186
-0.22543822
0.31763622
-2.8050377
-0.27417845
-0.5684906
0.33920187
-0.10665225
0.23445347
-0.8983132
-0.62832373
1.2687831
1.6030375
-0.19238132
0.761788
-0.29733378
-0.5235217
0.762746
-0.75465834
0.6588875
-1.0174757
-1.5226502
0.59373397
-4.0802054
-0.4378822
-0.12858732
1.1783277
0.18763445
0.15450995
-1.9814934
-1.0201353
1.3149008
1.4406383
-0.07587307
0.8142906
-0.00054389046
-0.13407734
0.280811
-0.12317133
0.6622649
-0.72735584
-1.5339192
0.46603373
-3.3518312
-0.49940825
0.22543275
0.6464595
0.42645812
-0.6671326
-2.038958
-0.7061307
1.2439444
0.5360179
-0.10066674
0.5430353
0.5898857
0.19356105
-0.22807251
0.53300315
0.26714653
-0.39564645
-0.514624
-0.12654114
-0.5359941
-0.31886372
0.45385736
-0.45355967
-0.26523277
-0.7071526
-1.6785239
-0.08921893
1.8549569
-0.3408152
-0.75181973
0.0584901
0.25188032
0.5635709
0.11571419
0.03849964
-0.24940324
0.35986713
0.3750078
-0.41063577
0.82928425
0.06780614
-0.050226767
-0.4597426
-0.59563357
0.6166963
-0.70855415
0.86852014
0.9260875
-0.70072967
-1.198386
-0.54382193
-0.5150626
0.34564176
0.67862266
-0.10117023
-0.34169102
0.7923986
0.39736184
-0.08994741
0.9356475
-0.10936751
-0.26327154
-0.12657599
0.099997185
0.1754754
0.2897683
0.6294049
-1.269443
-0.31484058
-0.29135647
-0.064643025
-0.45699573
-0.36829254
0.03696189
-0.1905209
0.20818083
0.7668762
0.136519
0.24500893
1.1787897
0.04038992
0.45146406
0.7878807
0.33478293
-0.07998911
0.8019366
-1.2514402
-2.342214
0.63994765
0.062497836
-0.50197005
0.27390113
0.42134553
-0.14534678
-0.8003423
-0.06792795
0.111098066
0.5840798
0.01437926
-1.7152352
0.41934195
0.41040432
0.80597526
0.059373464
-0.38773042
-0.19690739
-1.2084719
-0.8492797
0.28189912
0.3348269
-0.2199746
0.9789493
0.41163048
0.06034074
-0.5868349
-0.10568518
0.1355564
0.5013999
-0.29752767
-3.9985216
0.25155458
-0.028146965
1.4771947
-0.03837183
-0.34655163
-1.0834695
-0.5829622
0.61726874
-0.2060358
-0.06265894
0.19059719
0.61313814
0.099174954
0.15126334
-0.18784694
-0.022541458
0.22621107
-0.41079497
-0.019218886
-4.1772437
-0.07876097
-0.33223242
1.7162045
-0.30879655
0.028432699
-0.85602045
-0.39883345
0.9329763
0.27961072
0.021907706
0.39298585
-0.86491156
-0.30002552
0.5229972
-0.1607209
0.5489123
-0.43192378
-1.9111621
0.5835804
-2.3976471
-0.4772951
-0.45109943
0.65137774
-0.44930327
-0.35593653
0.06422978
-0.01583575
0.7101664
0.43175715
-0.37973186
1.0759953
-1.6162263
-0.22551477
0.34073317
-0.9385161
0.69426095
-0.8977239
-3.3809803
1.1323751
-0.47627753
-0.56973386
-0.21047746
-1.1256319
0.117068134
-0.9964846
-0.22594905
-0.18130374
-4.680061
-0.70375764
-0.61490136
0.3715548
-0.6004949
-0.053250458
0.12195168
-1.862972
0.40979755
-0.7118725
-1.3935151
0.022881182
0.08435351
-0.19976069
-0.030456891
-2.4937196
-0.16626786
0.4465267
-1.8720659
-0.6990315
-0.20672907
-1.1305654
-0.72359586
0.034602355
-0.14694466
-0.08551153
-0.12625381
-2.060371
-0.20032297
0.081248
0.15822414
-0.12037531
-0.38046968
-0.3195874
-0.28083298
-0.3503857
-0.10397287
0.7143526
0.034378037
-0.40517074
1.2130547
-0.68242663
-0.56452405
0.3920284
0.19278151
-0.08383893
-0.03527979
-1.4898695
0.12355483
0.077091865
-0.68469
0.06973092
-3.8020766
-0.39595467
-0.57151663
0.486017
-0.02439585
0.14774612
-3.5090425
-0.19229065
1.4266323
0.8898812
-0.14476055
0.7954128
-0.6264759
-0.6984368
1.0078238
-0.22559106
0.40589228
-0.87667507
-1.9777801
0.58714485
-4.7456713
-0.6905093
-0.112213925
1.0489479
0.4400301
-0.1779403
-3.3660207
-0.5564002
1.1056077
0.82884246
0.04288779
0.60607123
-0.03314245
-0.52082074
0.52693903
0.26993185
0.49383798
-0.6675271
-1.5223322
0.15971392
-2.8329477
-0.4620451
-0.2332642
0.32836905
0.9187708
-0.69249326
-1.9942877
-0.04923466
-0.06770826
-0.048030138
-0.08422545
0.08796482
0.24104048
0.014425786
0.018411476
0.52209055
0.27608216
-0.110962205
-0.079054676
-0.23407638
-0.30166182
-0.44495818
0.021255916
-0.2162389
0.47761267
-0.014064738
-0.9978066
-0.013531158
-0.61460054
-0.31618154
-0.08186553
-0.9251467
-0.13201047
0.18006761
0.33103162
0.13578674
0.18165702
0.35206282
0.34013948
-0.3361844
0.2915574
-0.25362918
-0.287679
0.47234577
0.6464394
0.56086683
0.18536332
0.30310857
-2.5303257
-0.3487373
-0.26206854
-0.38182512
-0.5616313
-0.29254234
0.32620648
0.09827453
0.09805916
0.59209704
-0.6306277
-0.022649437
0.87741256
0.13406414
0.015054667
0.4712058
1.1101484
-0.21616098
1.1433855
0.31804925
-3.6638813
-0.19051364
-0.67062974
-0.0664041
-0.26101953
-0.05475351
0.20425692
-0.23283334
-0.12506379
0.4954612
-0.51911455
0.0016782027
0.8684282
-0.071566276
0.3432578
-0.03611868
0.9708482
-0.80331224
-0.042794988
-0.72877544
-2.02804
0.5954527
-0.44547266
-0.85232794
0.5428794
0.49251762
0.38556683
-0.3838669
-0.25369164
-0.13081193
0.9520251
-0.4824601
-1.4334983
0.3625508
0.16606246
-1.1003307
0.20169602
-1.2465146
-1.3218191
-0.30419683
0.5721325
0.13024761
0.33915913
-0.20745479
1.5312042
0.32182205
0.47168595
-0.3493609
-0.55715895
0.25127748
1.413045
-0.7347666
-3.762393
-0.031979788
0.043619543
-0.66901106
0.24919416
-0.88005984
-1.5293013
0.37271267
1.3688588
0.1975023
-0.19114175
0.22699377
0.9460391
0.13785964
0.18392937
-0.027297696
-0.2851203
-0.26952186
0.0034037314
-0.25316703
-2.8554676
-0.64217496
-0.37832415
0.73602724
-0.0365127
-0.4824925
-0.8474449
0.10737013
0.34957886
0.9284411
-0.033438407
0.5795875
-0.63250285
-0.44285148
0.7343445
-0.32872784
0.2654508
-1.0313199
-1.658894
0.5109196
-0.92862624
-0.73086715
-0.47512218
0.247011
-0.4301945
-1.4743673
0.14573264
0.02819124
-0.39283156
0.99032396
-0.14533149
1.0477118
-0.8066637
-0.26863495
0.16716361
-1.8629822
1.0744324
-1.6729708
-3.054035
1.3962386
-1.516631
-0.43710583
-0.20707175
-0.4688662
0.07563088
-0.44448498
0.5601466
0.029782075
-6.370705
-0.28553265
-0.6309357
0.7567601
-0.29124647
-0.13639107
-0.12272376
-2.7464144
0.44912037
-0.61381674
-5.4415083
0.52191305
-3.4065313
-0.14142302
-0.4116413
-9.585391
-0.38854563
0.42592865
0.039434996
-0.2457041
-9.527067
-1.5117708
-1.1902827
-0.031355232
0.09255561
-0.2177284
-0.36821404
-1.3336288
-0.101134405
0.12449382
0.49161008
-0.22210935
0.42977414
-0.26710728
-0.42583397
-0.17819956
-0.051528513
0.92217886
-1.5088038
-0.086739205
0.72962403
-0.98527557
-0.5481129
0.08246542
-0.65361345
-0.08596877
0.1042894
-1.0172833
-0.32434505
0.49302003
-1.39667
0.43391934
-3.6846254
-0.35654944
-0.37713793
0.538687
-0.2157824
0.5560864
-3.8913562
0.0478443
1.1725366
0.14946896
0.09414278
0.24098133
-1.9821454
-0.62539256
1.1465389
0.01715001
0.09161102
-0.43481117
-1.624457
0.8669688
-3.7174177
-0.7100333
-0.21203734
1.401719
0.04269481
0.45630586
-3.2934554
0.07255087
0.49340042
-0.32090893
-0.17448887
0.15701312
-1.0388384
-0.21761106
0.63977695
0.19706996
0.31312257
-0.09005962
-1.3337309
0.42160425
-2.0615427
-0.6295454
-0.0065906434
0.53005266
0.8522484
0.6956135
-0.5175535
0.0031297207
-1.521893
-0.22202098
0.07352067
-0.60632074
0.0022583848
-0.055354033
-0.23652236
0.33974263
0.3657368
-0.40002754
-1.0005736
-0.35994896
-0.4058639
-0.11259592
-0.12522726
0.22656588
0.9669933
0.8215288
0.7144016
-0.0355923
-3.1894188
-0.22478522
0.19900027
-0.39784434
0.0076070074
0.037207115
-0.33889323
0.120123625
0.014397346
-0.21799983
-1.1268302
-0.24491236
0.04476705
0.018262291
-0.40174064
0.64629173
1.4444604
0.28716773
1.6365514
0.5465068
-5.0132565
-0.522382
0.029044582
0.19095053
-0.47564152
-0.5662401
-0.030534925
0.06164022
-0.033583146
0.31862375
-1.3918242
0.12459033
0.45652977
0.0027513544
0.4922934
1.2922187
1.0316403
-1.37669
1.4349083
-0.30773267
-3.1706564
0.17968252
-1.985306
0.5603178
0.20511946
0.7092454
0.6595731
-0.9830267
-0.9219177
-0.08640651
-1.067104
-0.23087831
1.0232224
0.69300103
0.38674906
0.8194236
1.2651496
-1.1992166
-0.9087649
-1.2491361
-1.2740229
0.1447294
-0.448756
0.1914566
0.74751985
0.5150752
0.31338245
0.009907921
-1.1514951
0.08573882
1.0521052
-0.77294993
-0.38441765
0.3281491
0.20439744
-1.9376717
1.010473
-0.7979464
-1.8785104
-0.019679572
1.4657143
0.05022162
0.17707665
0.21198831
1.3146894
0.12820473
-0.115493715
0.20350558
-1.1395545
0.07890316
1.5654246
-0.83697045
-3.0080767
-0.33961958
-0.28999612
-1.5209624
0.9802906
-0.5333595
-2.334401
0.5806117
1.1280124
0.68706274
0.11230906
0.3713114
0.45893857
-0.33437908
-0.11337193
0.15221931
-0.10044757
-0.58575
-0.36524028
-0.45232174
-2.012312
-0.50433797
-0.56004584
0.07090244
0.24928722
-1.240653
-0.8590676
0.21545687
-0.3567188
1.355469
0.16956218
0.7106805
-0.6721649
-0.4709327
0.7715125
-0.9984091
0.3989422
-0.87977666
-1.6201587
0.6295822
-1.4092811
-0.85134
-0.46145055
0.16118385
-0.3537401
-2.3823488
0.7381339
0.13785183
-1.6749318
1.2704948
-0.36984175
1.2144973
-0.5251711
-0.13491932
0.24673949
-2.817964
1.4830505
-1.4097427
-3.4876359
1.2047942
-3.9894638
-0.20099583
-0.31181398
-0.781447
0.24382079
-0.72806394
0.15683383
0.021231586
-6.7955484
0.18640824
-0.35755676
0.53360516
-0.20476557
-0.2682191
-0.13301347
-3.0447533
0.70230013
-0.65808994
-4.003961
0.48523787
-1.1377183
-0.18607654
-0.28557187
-13.177191
-0.45169783
-0.17568563
0.027258517
-0.41289455
-6.926884
-1.0399703
-1.1508443
0.2810713
0.5189291
-0.4792909
-0.4273242
-1.139663
-0.32948107
0.06276282
0.552571
-0.06360263
0.057969995
-0.40456855
-0.44558564
0.25718808
-0.1595704
1.0397345
-2.4993274
0.03352235
0.3661675
-1.1620672
-0.53827536
0.2104722
-2.371079
-0.19778962
0.44537434
-0.6833603
-0.40559354
0.7977935
-1.2701309
0.32245132
-1.3864955
-0.116919786
-0.27036557
1.2542431
-0.52705514
1.8176913
-2.617468
-0.048571
1.0014
-0.6619966
-0.16946714
-0.3006694
-4.1189947
-0.20607054
1.1081225
-0.15856019
-0.28189752
0.5408206
-1.0387503
1.12848
0.2704813
-0.62738556
-0.22860411
1.5051482
-0.3707255
1.8104074
-1.7835504
0.12468211
0.5869627
-0.8880428
0.025501834
-0.77931213
-3.5534747
-0.14102004
0.47943705
-0.10799468
0.82461697
0.7168484
-0.7408238
0.96560645
-0.09075082
-0.5498935
-0.12522866
0.8919274
-0.041080397
2.004305
0.2674661
0.19928613
-1.5238146
-0.38241076
-0.026404656
-0.738959
-1.6665142
0.19898842
-0.20550509
0.026505858
0.38531435
-0.2497102
-1.3747597
0.095188156
0.470021
0.1282478
0.00082060386
0.17075163
0.39704773
0.6578675
1.9040833
0.1310513
-2.7667704
-0.27408358
0.3594379
-0.2271987
-0.76740295
0.016633967
-0.25973916
-0.39496887
-0.27381375
-0.16164432
-1.0623304
0.07104792
-0.11126873
0.26017517
0.0059271525
0.32169506
0.8126901
-2.2619452
1.5861385
0.5928642
-2.8751013
-0.73691565
-0.40789548
0.45622417
-0.02480336
0.013141344
0.24886546
-0.8263396
-0.36771318
0.5660371
-0.29122043
0.22820564
0.80273044
0.03247162
0.9790224
1.8026304
0.23046272
-1.5218536
0.38143957
-0.7929602
-1.5080801
-0.20654535
-1.8357737
0.32861367
0.1173988
1.1599189
0.34741855
-0.6428169
-0.95711356
-0.48401618
0.5001181
-0.66067207
0.64026207
0.9854187
0.74515224
1.1679374
1.1296293
0.25033683
-1.4032837
-1.3560469
-0.803825
-0.48504415
-0.39196628
-0.0068235025
1.308912
0.96279526
-0.9196057
0.5999914
-1.6092197
-0.16645034
1.5869478
-1.2780261
0.0014291984
0.48834455
0.06171896
-1.4744736
1.4452857
0.67057085
-1.8184407
0.22383136
0.95930094
-0.103658624
0.11361491
0.28682256
1.4572176
0.045728374
-1.3749827
0.61050916
-0.9616387
-0.10934675
1.0914426
-0.99018455
-2.0530078
-0.09305517
-0.04087214
-1.308137
1.0641165
0.08074366
-2.0846708
0.5088539
-0.03175062
1.2549772
0.10549812
0.04936356
0.19607002
-0.3439462
-0.35358542
-0.48075795
-0.21479034
-0.5466397
-0.5906577
0.116568685
-1.5971816
-0.89772826
-0.4470231
-0.15378572
0.051138185
-1.5143906
0.70807445
0.36646956
-1.3905956
1.5587066
0.030501226
0.49542817
-0.6114906
-0.57762045
1.0668287
-2.3166847
0.32524094
-0.40511954
-1.4250823
0.77491206
-0.88267565
-0.6621154
0.0066172853
-0.0048354263
-0.56597006
-2.4606335
0.91306216
0.16151649
-2.860067
0.95340335
-0.25189775
1.0707202
-0.44171163
-0.12401069
0.09769074
-3.8695774
1.4262136
-0.47203928
-3.1467438
1.4420524
-1.9901304
-0.6103975
-0.2003823
-0.46279797
0.14101107
-0.7836755
1.0463089
0.19045773
-6.133115
0.17187433
-0.65312386
0.25198412
0.09313662
-0.31975842
-0.64813846
-2.746063
0.5226144
-0.5220177
0.2596376
0.4158689
0.47205535
-0.25436452
-0.27630207
-2.045477
-0.130826
-0.14925788
-0.78769714
0.0353384
-2.2213438
-1.1314601
-1.5171407
0.068370484
0.11377597
-0.35088387
-0.1698454
-1.4408263
-0.50283676
0.38085684
0.65666366
-0.41558263
0.4928692
-0.12687142
-0.26045123
0.14257115
-0.18305984
1.1271443
-2.3116844
-0.1386653
0.8531392
-1.0197015
-0.71034807
-0.41648686
-3.564186
-0.11122255
0.6189866
-0.53231347
-0.69594973
0.68061996
-0.1486989
0.24069247
0.3689102
-0.17278916
-0.39218456
1.2857598
-0.67249495
1.2459288
-1.7914884
0.15095177
0.8130216
-1.2227349
-0.05467497
-0.7959964
-5.31349
-0.3649377
0.9592558
-0.22214398
-0.3781925
1.209005
0.41286087
1.1237699
1.4430671
-0.5414781
-0.4368597
1.646426
-1.0114901
1.1731353
-1.6685644
0.374436
1.1822416
-1.4713713
-0.2463447
-0.87641054
-5.436469
-0.03838113
0.2827656
-0.3252611
0.8200592
1.488285
-2.0164907
1.7825601
1.1883062
-0.3646675
-0.15331867
1.0152457
-1.2423737
0.030418927
-0.3083952
0.65345365
0.8590273
-1.1215545
0.06524368
-1.0848525
-2.631086
-0.06397086
0.48935986
-0.15830983
0.48366892
0.9716673
-1.1768284
0.9720028
0.6950359
-0.22167753
0.011960952
0.071808025
-0.8619762
-2.429874
0.64267623
0.56315863
-0.24106835
-0.8267856
0.47816902
-0.3798595
-0.095233366
0.13625921
0.42001387
-0.2868746
-0.46763635
0.5656485
0.3117857
0.1635896
-1.2463775
0.015909754
0.3978104
0.08066176
-1.2326359
-3.0634162
-0.24376638
0.55900264
0.2386917
-0.9076422
-0.267863
0.25972983
1.3544713
0.5783999
0.18552162
-0.19538909
-0.50026757
0.11603653
1.0885532
-0.53204036
0.18710336
0.47018266
1.1141604
0.159874
-1.0495461
-0.21859975
-0.8342244
-0.39234933
1.2595882
-0.22640556
-0.68640184
0.53546417
1.3300555
1.1097403
-0.9656963
0.612104
-0.8333371
-1.1138161
1.1609013
-1.2300373
-0.009171631
0.88278687
0.63568956
0.22821073
-0.20410334
1.8322551
-1.6684183
-0.6976982
1.2336403
-0.05385401
-0.032579705
0.56160885
1.3894396
0.7425022
-1.6784073
0.9767201
-1.0635744
-0.60804147
0.7293127
-1.0112052
0.12367918
0.55656666
-0.27816036
-1.7741836
0.34563977
1.5095177
-0.17386429
0.50649756
1.0051388
1.0067308
0.3971487
0.2258251
0.71284974
-0.04393416
-0.77348465
-0.09833733
-0.43082255
-0.34351054
0.13946214
-0.26446307
-0.77646863
-0.46174324
-0.5096538
-1.0782288
-0.0662338
0.17666157
-0.22632754
0.3736878
-0.37551796
1.7507455
0.30267337
-0.18495376
-0.0033027178
-0.31692094
0.9536991
-1.6886492
-0.31890664
-0.31646815
-0.32105577
0.23483707
-1.700185
-0.65514624
-0.3890001
-0.21050072
-0.31444916
-0.879683
1.3092328
0.33421972
-2.1697688
1.4211035
-0.36654624
0.08234655
-0.55193335
-0.23285063
1.2594377
-3.3055604
0.35550585
0.10777416
-1.0314251
0.7426893
-1.7942758
-0.46222454
-0.020417778
-0.32007232
-0.446588
-1.322935
1.855713
0.24519433
-4.103725
0.8587587
-0.42374015
0.56407624
-0.31465098
-0.1593153
0.31270105
-3.9203162
0.9358998
-0.19341104
-1.6576761
0.97460544
-2.0120919
-0.44744998
-0.29649848
-0.084412254
0.06344307
-0.81308115
0.9593765
0.018501524
-3.7733548
0.025430908
-0.9558764
0.026379116
0.22770497
-0.18214531
-0.32731956
-2.2077901
0.2570413
-0.34164125
0.12812017
0.2220789
0.083320595
-0.3003819
-0.3066985
-6.3624663
-5.4297295
-2.2463865
-0.117389284
-0.58663285
-1.5195384
-1.7537994
-1.761351
0.04743074
0.4092573
-0.4838689
-0.18632807
-1.2096819
-0.07465791
0.034106705
0.16571058
-0.30529433
0.23307657
-0.40363854
-0.10799367
0.041661788
-0.13179138
0.0854771
-1.541137
-0.21964532
1.3579983
-0.8455551
-1.1046336
-1.9561114
-2.2907293
-0.15635833
0.27243572
-0.6826223
-0.4006211
0.63129413
-0.16048574
0.31756443
-0.35609016
-0.06265653
-0.38477087
0.8806226
-0.47947994
-1.0345554
-1.0204897
0.19197723
1.12631
-1.0584096
-0.6049057
-2.0355432
-2.1676774
-0.39167953
0.8565793
-0.39484504
-0.3506093
1.0977627
-1.6910332
0.97649086
0.8835062
-0.3697881
-0.20944037
1.2076578
-0.90532863
-2.928654
-1.0823568
0.30331624
1.6068255
-1.4012598
-0.4109873
-1.3464023
-0.22286686
-0.29312047
0.4546823
-0.5087539
0.46551025
1.6915781
-2.9921448
0.84851736
-0.34385407
-0.3108895
-0.39692146
0.91357416
-1.2281601
-3.8112805
-0.9397706
-0.046514634
2.4387026
-1.0955052
0.19295387
-0.5821497
0.30962095
0.009785157
-0.04658402
-0.21931314
1.0894349
1.4268544
-1.3217043
0.33931285
-1.3905042
-0.122445
0.10161216
0.5457773
-1.6243328
-4.6837983
-0.9667885
-0.39839247
3.520194
-0.35238817
0.06823834
0.6121446
1.6051987
0.22887279
-0.13371707
0.2077433
0.027019933
0.68178266
0.22674976
-0.021159284
-1.7484007
0.21945387
0.35182115
-0.8956857
-1.5833001
-2.7199695
-1.0548831
-0.3139487
4.7480345
0.86520934
-0.37089935
1.3086375
1.6147727
0.43756306
-0.19893973
0.7877877
-0.54730535
-0.7404011
0.90378404
-0.56336015
-0.81168586
0.36467057
0.02797044
-1.2201636
-1.0006456
0.8810513
-1.0748576
-0.34405953
3.9183228
1.8906964
-0.23628794
0.76130694
0.61642015
0.10210624
-0.108998574
1.5869644
-0.45459887
-2.0142946
0.10244212
-0.98292625
-0.11231622
0.21215217
-0.1140462
-0.48179647
-0.06700107
1.7924007
-1.3028022
-0.122170374
1.8222251
1.5289885
-0.25979716
0.31757385
0.10947464
-0.4488335
0.052937385
0.57780594
-0.0864195
-0.52336246
-0.39188114
-0.16517186
0.25158516
-0.41997206
-0.38737231
-1.4622979
0.0100845685
1.8094054
0.7788189
0.36739978
0.72247034
1.6067818
0.23991162
0.2926921
0.08500344
-0.6730271
0.5286586
-0.77459574
-0.47839698
-0.28528762
-0.10464368
-0.026560793
-1.3396688
-0.63692987
-0.38353893
-1.0333725
-0.09601138
0.65258145
1.4482961
0.2549618
-1.1667686
1.5308398
0.18644379
0.33076975
-0.042773247
-0.570666
0.9204593
-1.9300617
0.14581653
-0.21589023
-0.6893974
0.07090005
-2.136006
-0.88885194
-0.15702178
-0.33530036
-0.23932089
0.22418648
1.9103541
0.0013748065
-2.6863742
1.1499239
-0.30187133
0.61917937
-0.264536
-0.34254858
0.61541563
-2.9802103
0.48422724
-0.014218469
-1.4700875
0.4066305
-3.002224
-0.50528073
-0.33641174
0.01692849
-0.2863688
0.04639249
1.7994957
0.15219532
-3.92242
0.6699058
-0.7707701
0.31128195
0.017517457
-0.14469378
0.19265081
-2.881553
0.7090696
-0.38239524
-1.1545305
0.5120052
-2.4936142
-0.42000228
-0.5184143
0.26344872
-0.3566064
-0.048161037
0.4377514
0.12053879
-0.9543155
-0.9600276
-1.3287597
-0.016006049
0.17144176
-0.5147433
-0.4443785
-1.3157556
0.0654115
-0.08596248
0.4770637
-0.14236796
0.062179033
-0.11953713
-0.6306276
-1.6941087
-0.5327138
-0.306305
-1.0223417
-2.172331
-1.5453553
-4.478978
-1.959402
-0.37887356
-0.16811582
-0.43562067
-0.3263715
-3.1306934
-0.26526532
-0.73575747
-0.19619723
-0.52224636
-0.3494895
-0.6108168
-0.55118906
-0.6794073
-1.5165248
0.121249735
-0.486269
-0.1985178
-1.7442394
-0.5882804
-1.7312502
-0.02797818
0.012469947
-0.22623672
0.24184208
-0.9910885
0.12704222
0.461635
-1.4744041
0.0743381
-5.348186
-0.37421367
-0.5403151
1.2110977
-0.43841845
-0.70839846
-0.8838149
-0.4266507
2.284404
-0.41717166
-1.6402739
0.42776433
-0.050825607
-0.4470214
0.16352242
-0.43222943
0.6537051
0.53612703
-4.1578164
0.78296
-0.4396858
-0.26933536
-0.56427187
1.2638239
-0.6254506
-3.6588912
-1.0066483
-0.6824091
3.1499329
-0.10800428
-1.2829044
0.898617
0.055612
-0.34239748
0.38281745
-0.036435742
0.6982105
0.40753102
-3.4359725
0.75911206
-3.235706
-0.36679363
-0.44862354
1.1186328
-0.61918026
-5.9356775
-0.97047424
-0.8981272
3.4796693
0.19532883
-1.0670639
0.87559915
0.75242317
-0.072227694
0.36608756
0.05674701
0.5067693
0.36759368
-1.6246289
0.6693841
-4.223448
-0.3661325
-0.009514786
1.2259918
-0.014484437
-4.7556777
-1.1004925
-1.5178536
3.3970351
0.95596594
-1.1412143
1.0299584
1.0409548
-0.16182597
0.28237692
0.15107441
0.32606196
0.0014325998
0.041445613
0.36484462
-2.698601
-0.44022208
-0.25324377
0.38278607
0.73846805
-2.0935526
-0.7151241
-1.5883855
3.0819716
2.1329787
-1.0573539
0.8566462
0.33052015
-0.4008328
0.2998457
0.64900255
0.105254404
-1.1122773
0.18425152
0.0907763
-1.2674226
-0.26835263
-0.57540935
0.2901557
0.55765665
0.49125552
-0.8197723
-1.5294977
2.1912699
2.4958134
-0.49975172
0.31699598
-0.013983066
-0.67783827
0.24012066
0.82572895
0.38667762
-1.5436814
-0.41303432
0.20672406
-1.2349464
-0.30610013
-0.7363182
0.4715933
0.43298557
1.403008
-1.1019443
-1.0305794
1.1546504
1.7372776
-0.39252105
0.35577077
-0.023080148
-0.70912755
0.55335134
0.028835168
-0.028762866
-0.5648813
-0.28346688
0.2964386
-1.0227909
-0.53017026
-0.513296
-1.2503327
0.39642197
1.5942336
0.5484978
-0.16336967
-0.002615785
1.8947209
-0.33856636
0.59849656
0.09899673
-0.71161264
0.41762063
-1.3295135
0.075951904
-0.67167133
-0.25635254
0.22229093
-1.851576
-0.84885865
-0.22456075
-1.392582
0.04960882
1.1303751
1.4986035
-0.108342245
-1.8391329
1.3227249
-0.1261498
0.56755924
0.3749688
-0.5944781
0.38423958
-2.508558
0.09762248
-0.2138409
-0.79858136
0.38040102
-2.9916599
-0.8352979
-0.03705019
-0.8991314
-0.08546503
0.5984548
0.848948
-0.22528724
-1.503001
0.577554
-0.3006816
0.45251408
0.053256508
-0.48404405
0.3044149
-2.6262836
0.47560352
0.119462
-1.2878858
0.29102972
-3.206461
-0.52798516
-0.18470328
-0.6196298
-0.12581846
0.22837043
0.20802169
-0.30114278
-1.1441847
-0.086995885
-0.6206447
0.48277676
0.32930318
-0.21477002
-0.09918278
-2.350716
0.24575552
0.07600439
-0.6356169
0.24170746
-2.182185
-0.55304307
-0.22163448
-2.559459
0.009357745
-0.009901095
-0.11676187
-0.77747035
-2.807159
-10.964531
-0.93746424
-0.1198092
0.17727147
-0.24659012
0.17074524
-2.269942
-0.21881618
-1.050959
-0.12807028
-0.13173808
0.039701957
-0.46309426
-0.63933194
-1.7490047
-0.4523566
-0.44160053
-0.8401108
-1.8776901
-1.454214
-4.8756456
-1.9480766
-0.37512103
-0.32040632
-0.4661403
-0.5655263
-3.1787672
-0.44604173
-0.5503173
-0.30414566
-0.47090873
-0.21431845
-0.71693456
0.07087823
-1.7204826
-4.3952827
-0.8973591
-0.15186147
-6.7295814
-1.7033657
-11.236071
-4.7428155
-0.3747139
-0.0136254
-0.12275556
-0.040964093
-1.6453972
-0.14311746
-0.052625254
-0.3440243
0.22134274
-1.2740892
0.106952384
-0.07269879
-3.5220351
-0.20134981
-4.3974333
-0.21040978
-2.3300865
-2.082582
-15.535711
-1.0377297
0.18575273
0.14109154
-0.21452858
0.20902137
-0.8247958
-0.0026919574
-0.015353828
-2.4521441
0.33527857
-7.3614154
-0.004576624
0.084377356
-1.450822
-0.06522411
-9.568044
-0.7024109
-3.9423363
-0.85357064
-8.185931
-0.6179696
0.67057097
0.41413218
-0.0397447
0.16881682
-0.5531841
0.3172284
-0.48654968
-1.8497399
0.19469243
-9.671088
-0.030456146
-0.04925403
-1.3298728
0.012645426
-7.594284
-0.7553467
-4.169782
-0.5895321
-4.951097
-0.4857732
0.68052703
0.5522421
0.11406864
0.31481096
-0.29588047
0.1468234
-1.3925556
-0.021110844
0.30936554
-7.7297916
-0.03736603
0.036338255
-0.7454871
0.030575875
-3.8966596
-0.24242114
-4.314066
0.046265353
-2.220189
-0.7085958
0.5812709
0.7936017
0.007043268
0.26298222
-0.28570426
0.19460264
-2.6156874
0.54301065
0.38668707
-5.245398
-0.18885413
-0.07638467
1.8918302
-0.1941777
-0.86456853
0.34156722
-3.7798145
3.163584
-1.9611269
-0.6933254
0.09552587
0.2279443
0.20122215
0.18760324
0.03616795
-0.037880037
-4.4313774
0.26444134
0.24802125
-3.555003
0.27683863
-0.047067173
1.9364227
0.19037548
0.29317167
-0.80002385
-3.2216852
3.4543364
-1.0681571
-0.5275692
0.28109574
0.08517843
-0.1032636
-0.12463993
-0.034556825
0.16198584
-5.804622
-0.006910452
0.40248546
-2.0952013
-0.13991915
0.009090014
0.9488081
0.1844582
0.5767998
-2.668515
-2.3817065
3.039765
-1.4436649
-0.3915479
0.4392805
0.097233
-0.4291611
0.04460503
-0.67281204
0.05331041
-2.9711423
0.31099126
0.13913672
-1.0209107
-0.14913861
-0.086406596
-0.8069056
0.34111145
1.0035121
-0.9500114
-1.2932601
0.8687661
-1.9626073
-0.01631245
0.51350236
0.19288857
-0.43253198
-0.20866835
-2.5366275
-0.10210645
-1.1592654
0.43245256
0.18338831
-0.25186858
-0.6688426
-0.057665735
-2.015711
0.17325975
0.775183
0.60005873
-0.7045333
-0.8222669
-2.1996372
-0.29216242
0.07386438
0.23658194
-0.1217371
0.17298292
-4.664986
-0.22570479
-0.34512287
0.11922019
0.16464323
-1.3145602
-0.3255905
0.006092613
-1.7288207
0.12107261
0.52870923
0.37179866
-0.6991614
0.2780249
-2.9467356
-0.51101106
0.11524925
0.18267909
-0.105231784
-0.13030705
-2.8517423
0.15469599
-0.4118351
-0.44105402
-0.16016325
-1.3144705
-0.37399673
0.019111294
-1.1640073
-0.11460494
0.17253794
-0.13428785
-1.139538
-0.6355495
-13.646066
-1.2140326
-0.1275625
0.15716155
-0.3900026
-0.20954934
-2.008908
0.00072432804
0.046366144
-0.5137554
0.16446194
-4.4965
-0.3589566
-0.65026456
-1.9217385
-0.44840327
-0.098459035
-0.8082465
-2.2866652
-1.7194402
-4.3909373
-1.8520081
-0.5562869
-0.11073126
-0.48863074
-0.31058672
-3.4067047
-0.23510376
-0.51124984
-0.32353222
-0.21098502
-0.34487364
-0.50531197
