-0.15975931
0.02834141
0.025713352
0.24912968
0.1093439
-0.5099299
0.24426852
-0.0069031217
-0.47137436
0.40253437
0.15198252
0.11055266
0.13504764
0.05523744
0.3820271
0.053073674
-0.55514556
0.053028677
-0.41185528
0.26166132
-0.17741579
0.19889177
-0.15271088
0.015930489
0.08759974
-0.0034005458
0.13709976
0.018377664
-0.11763892
0.18340091
0.08235672
0.12679616
-0.13937362
0.24696349
-0.44727698
0.16102664
-0.06417205
-0.036681928
-0.4202921
0.037137385
0.27544424
-0.03041782
-0.30007458
0.06371297
0.17569748
-0.41346303
0.02877902
-0.2854627
-0.08986456
-0.38679564
-0.26222473
0.06036837
-0.5473276
-0.33153364
-0.7312202
0.0857378
0.20353413
0.09607059
-0.0945347
0.1582616
-0.002653423
-0.054998443
-0.10471464
-0.50346375
0.010936214
-0.037350204
0.22585271
-0.37383088
0.21314628
0.075124234
-0.30936757
-0.04275239
0.30758643
-0.039146543
0.22859198
0.07479787
0.13499765
-0.12336871
0.051896814
0.26747876
-0.5235259
-0.28265604
-0.0067350357
-0.6660632
-0.06462794
0.4404328
-0.0028693634
-0.15681754
0.15901567
-0.003912953
-0.33737814
0.009415858
0.07764726
0.1907795
0.16723296
-0.24740143
0.10989267
0.15548183
-0.53397053
-0.4963238
0.24279575
-0.084242046
-0.2505459
-0.41718918
0.18930164
-0.005550223
0.00476923
0.12380159
0.24061117
0.25300458
0.09467012
0.021586355
-0.50846016
-0.45563906
0.003978173
0.24526751
-0.567767
0.23105083
-0.2410818
0.25759125
-0.0023257514
-0.538746
-0.32401198
-0.5822767
-0.35356644
0.16047361
-0.0025732317
0.17134874
-0.57173264
-0.0023121308
0.20947811
-0.5729955
-0.20316035
0.26698717
0.12103367
-0.11886592
-0.26725984
-0.005535662
-0.014334227
-0.37776038
0.1435257
-0.044874813
0.22546698
-0.3635088
-0.4630075
0.2977255
0.44779822
-0.19022639
-0.6866228
-0.0014558539
-0.26605272
0.09214688
-0.16467205
0.009371551
0.14164522
-0.059964746
0.08847579
-0.10224886
-0.39792606
-0.7103594
-0.20182602
0.11668475
0.06413845
0.19483598
-0.2689305
0.103411
0.1115981
0.3041667
0.11337375
0.1764342
-0.08969268
0.17491505
0.24602404
-0.5784261
-0.058854353
-0.13408707
-0.21068777
0.17052768
-0.001790606
-0.083119206
0.0050385804
0.1538171
-0.00013563658
0.069849275
0.38312072
0.04843085
-0.30321342
0.33275405
0.03684358
-0.20566447
-0.3120548
0.17667317
0.083268136
0.30478165
-0.13193542
-0.0028073038
-0.48068416
-0.17284888
0.078637026
0.23857582
