0.026067095
-0.18103527
0.049464725
0.045211326
0.11819551
-0.071303755
-0.0029777407
0.044540673
0.022855306
0.023642076
-0.022698877
0.09094556
-0.04113738
-0.076983206
0.008994706
-0.056337677
0.018630238
-0.30600566
0.14101043
-0.25354168
0.03631065
0.010605777
0.018868491
-0.1674509
-0.036133263
-0.09584887
0.14270863
0.0076091844
-0.1641234
-0.24907967
-0.019992663
-0.023309298
-0.07991795
0.042989172
-0.012294109
0.056997415
-0.0048395926
0.07589594
-0.09233264
0.0223997
0.0006690653
-0.0011453064
0.1143654
0.15582703
0.051151518
-0.04691538
-0.2882659
-0.06774133
0.072682835
0.019067343
-0.012168951
0.054319814
-0.0611578
-0.220003
-0.07997006
0.058261696
0.099540144
-0.040940125
0.05824552
-0.009675904
0.07223632
-0.03980077
-0.009305462
0.07621987
0.020947339
0.01582021
-0.0043360586
-0.011114969
0.10947475
0.096799925
0.048119545
-0.0005981216
-0.057133652
-0.031272467
0.12887272
-0.13720609
0.00044829678
0.04706381
0.033186648
0.027406884
-0.01510692
-0.25255278
0.039902233
0.1035749
0.03134362
-0.28276923
-0.092366934
-0.06017922
-0.019186763
-0.016739842
-0.019533416
0.07727782
-0.024299672
0.050218407
-0.24411657
0.03874762
-0.25451326
0.107066706
-0.0336091
0.0022526006
-0.0043073813
0.057517104
-0.05116958
0.08021983
8.831566e-05
0.09867804
-0.05501372
-0.11073306
0.0602439
-0.2612959
-0.18496057
-0.06951352
0.0945372
-0.27553055
0.06450655
-0.14627711
0.07013879
-0.3470289
0.056791555
0.09604666
-0.08673775
-0.15842375
0.061622832
0.0010471836
0.03817942
0.117536455
0.020507341
-0.023791129
0.08000391
-0.055132054
-0.08711122
-0.036965802
0.05631376
-0.0362547
-0.33745345
-0.0023692038
-0.005743346
0.021239765
-0.044402
-0.0618879
0.09641171
-0.008162597
0.03899453
0.05835676
-0.3188123
-0.04298864
-0.07498569
0.06783738
0.036020644
0.07638257
-0.05914914
0.25448558
0.010043812
-0.06225786
-0.013040588
0.05014185
0.10660829
0.02863083
-0.05615645
-0.04574966
-0.00849336
-0.12694754
0.06040973
0.027928324
-0.08163072
-0.1240221
-0.3453429
0.0018432211
-0.033259343
0.00075449183
0.05907201
0.040372122
0.054971185
0.0029687514
0.041998427
-0.014127177
-0.025511246
0.12537158
0.025276052
-0.068251655
-0.036490057
-0.09120805
-0.035230696
-0.45520717
-0.2079063
0.10123918
0.07578219
-0.05970246
0.0125478525
-0.013398078
-0.121792614
-0.056038
0.09142181
-0.07362941
-0.0048995945
0.099424385
-0.006225915
-0.03907893
0.039032355
-0.12599649
0.06716455
0.07110007
-0.03537318
0.02149333
0.11328299
0.026331617
0.012580486
0.007682522
-0.016244302
-0.03509475
-0.020366073
-0.2732761
0.013715001
-0.18523617
0.05128497
-0.0035040579
-0.17766574
0.00040284925
0.01634606
0.039814293
0.021733517
0.02870038
0.04494961
-0.048661474
-0.026032431
0.02479858
0.055538356
0.008851277
-0.14926298
0.03677966
-0.0724072
0.039782435
-0.016843192
-0.041242905
0.083647184
0.062232014
-0.048125025
0.09806882
-0.15674785
-0.0056149657
0.051464736
-0.02933055
-0.118358746
-0.015020201
0.07825828
0.013624085
0.01915385
-0.03080773
0.01059856
-0.041756928
0.023266234
0.008826794
0.030682126
0.041011382
0.065514326
-0.037984993
-0.10324113
0.076217525
0.050955053
0.022179816
0.00046933576
-0.01624122
0.04120411
0.009622127
-0.01728656
0.0566209
-0.14952491
-0.0035738011
-0.123209655
0.047940847
0.15864608
-0.059775244
-0.018333143
0.016773738
-0.0014091469
0.067555085
0.062086355
0.03529937
-0.08323863
0.0017876878
-0.014407392
-0.052210096
0.025815256
0.028123254
-0.16039023
0.006848941
-0.017393833
0.056723773
-0.10651488
0.00213159
-0.019358663
0.029143272
0.05811772
0.06572239
0.0029708883
0.009455875
-0.06443228
-0.22415064
-0.056413308
-0.020188397
-0.056860115
0.00495679
-0.027112791
0.014165302
0.0138758235
-0.036398858
0.08904596
-0.13652517
-0.051099878
0.200718
0.08377145
-0.08387351
0.06743465
-0.033824053
-0.0017290658
-0.10714065
0.043038927
0.026490578
0.1662555
0.013589375
0.11348543
0.13705869
0.042730156
0.020956025
0.060687274
0.026293535
-0.29151154
-0.025027366
-0.0148041425
-0.007610219
-0.032600556
-0.017893385
-0.034252908
0.003673044
0.013926581
-0.0007458459
-0.1698618
0.06310806
-0.010071805
0.0057900557
0.05530621
-0.089479074
0.039611075
0.07469728
0.0004023717
0.018213348
-0.072355576
-0.036282364
-0.017154783
-0.08465684
-0.12548295
0.038341623
-0.12525806
-0.11997446
-0.18086855
0.06913404
-0.02807757
0.14216344
-0.061764598
-0.1427475
0.04366839
-0.0023812868
-0.14402236
-0.06310806
0.039560456
0.09632486
0.06687908
-0.032424595
-0.07567851
-0.06334969
0.09248597
0.024068192
0.039309107
0.16010648
-0.104158334
0.06940949
0.025542742
0.063887864
-0.013308152
-0.09702621
0.043609083
-0.046089623
0.07255078
-0.111017846
-0.011861371
0.050917014
-0.029232047
-0.36957127
0.088925175
0.019232096
-0.028921647
-0.05649673
0.04865991
0.0522958
-0.09371289
0.04776797
-0.03849306
0.07748677
0.07172088
-0.011702895
