0.31397322
-1.4361087
1.190225
-0.6843085
-0.029203454
0.047718056
0.47109878
0.32277
-0.847234
0.36729398
-1.1154003
0.6405997
0.76405096
0.18250477
0.008703718
0.009141539
1.35819
0.42576513
-0.5462646
0.7779794
0.054248728
-1.0706395
0.21944022
-0.4805702
-0.9912303
-0.019983377
1.13128
1.2815582
-0.13775817
1.0129043
-0.081482865
0.09392957
0.05886029
1.1075548
0.36933017
1.544124
-0.39246023
-1.2398556
-0.6309914
0.43146178
1.3040127
-0.37211224
1.094566
0.6798461
-0.9492819
-0.071405016
0.10353272
-0.0575272
-1.0447581
0.31165284
-0.0019050407
0.00032920463
0.39344394
-0.50368214
-1.3035353
0.92025423
0.27830115
-1.0427624
-1.2065465
-0.36310062
0.19611199
1.9568828
-0.05774051
-0.24003258
0.09587802
1.1757283
0.5764814
-0.880878
1.3301305
1.0869436
-0.19792804
-0.9074116
-0.47424418
-1.390236
-0.8429197
-1.1868954
0.055521093
-0.47065917
-0.046086907
0.07525844
-0.054951154
0.80531466
-0.3963188
-0.8415952
1.3577665
0.024747482
-0.029335547
-0.12004732
0.52911353
0.0055557094
0.9784055
1.3821805
-0.06927598
0.029976046
-0.62554216
1.2283574
0.9217744
-1.1733346
-1.3390383
-0.5829814
-0.53945774
1.206694
-0.75136364
-0.54699296
-1.1255121
-1.127493
-0.9396467
1.3875858
-0.89622205
-1.1544044
0.766649
1.0816432
-0.2670674
0.40352437
0.16012849
-0.4284724
-0.027750038
-0.08813538
-0.6564294
-0.3438813
-0.00085608
0.0005191004
-0.82106346
-0.9595066
0.44654328
-1.0190539
0.9731755
-0.73215353
1.3060958
-0.6575456
-1.1662694
-0.32811278
0.6589042
-0.70881534
1.3410435
0.31421533
0.47674686
-0.74229914
-0.25681368
-0.063624114
1.1634426
0.7078845
-0.6167699
-1.1961404
1.1495777
0.23711234
0.009551312
-0.027702631
-0.023909036
0.7168216
0.79588526
0.26288998
-0.92825204
0.036693487
0.112090535
1.3912913
0.12244427
0.056893315
-0.710763
0.5551253
0.9365185
0.5912961
0.90473074
0.365003
0.012854101
0.0036462366
-1.1513451
0.94885033
0.08177235
-1.343616
0.4094495
0.66275907
0.0009393456
0.0005191228
-0.63326037
0.7745541
-0.47317556
-0.2637534
-0.0012760619
0.0023892142
-0.110775
-1.2147803
1.0517526
1.2013623
-0.92689335
0.39377007
-0.8304423
0.3402508
-0.96695936
1.4388963
-1.0561863
1.164322
-0.109931014
-0.10448796
0.06853642
0.23601171
-0.5003752
0.8906869
0.7360615
1.2860056
-0.7817833
-0.54467475
0.47466934
-0.9062087
-0.8022142
1.1322023
-0.39416593
-1.2927083
1.108944
0.6173001
-0.0057427045
0.0015207505
0.8731726
0.58570343
-0.70221627
-0.025024703
0.4975807
-0.9837861
-0.1184961
-0.48192924
0.3081555
-0.39522192
-1.2920464
0.74607044
-1.30495
0.9633854
0.27942896
-1.1857572
-0.122699484
1.3059986
0.094675235
0.36710826
0.60216916
1.0451583
1.0979693
0.2059495
0.4950476
1.5143427
0.5422417
-1.0542773
-0.0011194339
-0.0011556116
-0.1992014
1.1845722
0.056065235
-0.94380826
-0.844734
0.48804063
-0.23174518
0.829422
-0.9727096
-0.0036386142
-0.0035763958
0.0026025476
0.42031947
-0.598794
-0.3221511
-0.7969608
0.00044101677
-0.0014506268
0.6389712
0.372731
0.23063698
-0.95306635
-0.11328267
-0.17664702
0.13055524
0.69861066
0.14134608
-0.64484155
0.79594874
-1.2070547
-1.0909599
-0.31690934
0.0050640716
-0.0075655915
-0.46468335
-0.79518384
0.8226134
1.2515363
-1.1568037
0.8095371
-0.9445437
-0.32681808
0.10594815
0.592177
-1.637494
-0.4353669
-1.1074159
-0.8795246
1.1302397
0.073292434
-0.20905924
0.79776424
-1.3139284
0.0019777315
-0.9034594
0.5115093
0.000108852335
-0.00021733218
0.09544008
1.5228337
0.18626766
-0.40117756
0.10457826
-0.19745749
0.009692446
0.025196478
0.80387825
0.458624
-0.87776434
-1.1176153
0.18818375
-0.33661926
0.11678054
-0.081446074
1.2156906
0.97539175
0.4753851
-1.2021141
-0.46582878
1.1438768
-0.08657235
1.717237
-0.5513612
-0.4976638
0.34118366
-0.87999296
1.3321165
-1.025891
-0.5284413
0.15988843
-1.1017569
-0.18659277
0.03922713
1.0878866
0.07821092
-0.2681114
0.51582426
-0.6394294
0.4732171
-0.9396714
-0.54812646
-0.40397236
0.089080684
0.6912355
0.31633782
0.97110444
1.43003
0.18431425
1.3507268
-0.34972385
-0.39436603
0.79426533
-0.24225539
1.7765396
0.0006103967
0.0012545887
-1.4535762
-0.20495397
-0.007102493
-0.029397063
-0.53018034
1.5568306
1.1439104
0.5594771
0.31439218
1.3652394
0.10022858
0.9128522
0.055683985
0.084783666
-0.33518746
-0.29745016
0.20896578
0.48565215
0.07688149
0.04160104
-0.45754582
1.1463559
-0.68325317
1.3446355
-0.3314418
0.33617598
-0.23435262
0.18534021
0.42138723
0.47111452
0.28867137
-1.2998961
-0.002971009
-0.0013631544
-1.3415123
0.7027657
1.2267319
1.0901352
0.5661314
1.4311856
-0.15211727
1.1411842
