-0.08159914
-0.04094001
0.007502551
-0.025863452
0.032208696
0.039652012
-0.1280806
0.076172076
-0.47045097
-0.16503763
0.065711476
0.11084758
0.013849142
0.17498758
-0.0671285
-0.12922375
-0.021822436
0.34607637
-0.021790499
-0.14138001
0.1813876
0.16872354
-0.1875804
0.11019026
0.09582974
-0.046240635
0.028770952
-0.4318235
-0.14543286
-0.13505699
0.33673483
0.058132414
-0.062332574
0.07731507
-0.4823899
0.13053635
0.19322284
0.14579727
-0.19370814
-0.0026238908
0.065404065
0.15801893
-0.5286537
0.017429586
0.026030235
-0.29789376
-0.08163458
-0.06979079
-0.27741098
-0.4616599
-0.057350196
-0.024623116
-0.47515723
-0.0078105256
-0.5622809
0.1947428
-0.16974497
0.1465743
-0.09322589
-0.016063761
0.049621683
0.1265872
-0.21346006
-0.65834594
-0.07547426
0.09235199
0.09575708
-0.5913874
0.12220964
0.05544643
-0.5384459
0.12692177
-0.18571223
-0.084112175
0.02184556
0.16554256
-0.018831404
-0.1800951
0.021380045
-0.1953962
0.07068849
-0.4779782
0.034346677
0.0352316
0.09226324
-0.13581516
-0.013260494
0.17768206
-0.041026074
-0.029374987
0.010835225
0.075041704
-0.009658883
-0.22423612
-0.60040426
0.07919479
0.016335182
-0.07533973
0.0043137753
-0.03344525
0.012263215
-0.23775388
0.023511093
0.05057361
0.26632887
0.08812696
0.10819762
-0.116869144
0.030834844
0.04396556
0.06441198
-0.28552952
0.03309323
0.24973954
0.20877525
-0.11826624
-0.046041857
-0.086182564
-0.21202596
0.018292533
0.05611322
0.07329532
0.1138483
-0.037091028
0.08261391
-0.10006366
-0.038096625
0.05861661
-0.4839301
0.06080546
-0.15833575
-0.69819057
0.03368244
-0.08517835
0.06743579
-0.2504596
-0.3383324
0.028006168
0.1574347
-0.29720348
-0.17018034
0.09561254
-0.06909593
-0.43681386
-0.59136236
-0.07791642
-0.1969747
-0.2655249
-0.07987808
0.093495585
-0.073272906
0.10488621
-0.19081725
0.0027053508
0.18272234
0.17406368
0.08433901
-0.021392163
-0.4590778
-0.65831137
-0.068288736
-0.12795407
-0.0038547614
-0.0070024137
0.04015722
-0.06178296
0.016369693
-0.09920681
0.019167153
0.004306368
-0.23364587
0.004856102
-0.03185674
-0.034228273
0.15276279
0.20083521
0.044663593
-0.34396973
-0.0562802
0.35106555
0.083647385
-0.52230126
0.06905271
0.25710687
-0.11921943
-0.14820388
-0.14082894
-0.20751286
-0.048789456
-0.013221124
0.057695504
-0.06812892
-0.0938804
-0.17101151
-0.104116775
-0.026152868
0.08090805
-0.12373399
0.25813565
-0.35121638
0.4415501
0.17742155
-0.38222995
-0.21059652
-0.099902965
-0.033778783
-0.009967945
-0.123341314
0.14380608
-0.8223943
0.05102233
0.015739556
-0.13979779
-0.09771003
-0.46004903
-0.40116632
0.052854285
0.04446898
-0.023508973
-0.436218
0.1595865
0.13952637
-0.012343823
-0.0406149
-0.021616116
-0.1672367
-0.0249168
0.032155827
0.23506421
0.1360641
0.08222314
-0.11016005
0.009189649
0.08712467
0.19662558
0.087521836
0.31380537
0.065857336
0.1450469
-0.47663444
-0.09919056
0.07853155
0.24263784
-0.14335592
0.0056626545
0.14893419
-0.19229905
-0.06425722
0.19559567
-0.03948371
-0.09132731
0.062198203
0.10814971
0.014021435
0.018762715
0.014538592
-0.7764216
0.021568539
0.09553239
0.006731969
-0.06752698
0.14846396
0.433951
-0.02280092
0.18278041
-0.050058585
-0.044034697
0.22277915
-0.065072104
-0.11888045
0.048639424
0.18321487
-0.055311922
-0.019863987
0.2544796
0.13333234
-0.14881311
0.12326926
-0.106325105
-0.45150706
0.12482123
0.062455956
-0.09058924
0.0035328611
0.23995385
-0.32197356
-0.04797005
0.08966995
-0.10398626
0.08412255
0.5622461
-0.1069442
-0.16539855
-0.36456966
0.16140574
0.15250044
-0.11322489
-0.34339
0.09974978
0.12650964
-0.13415886
0.40224534
0.029569807
0.1446428
0.1302264
-0.15674
0.2843489
-0.05831471
0.071764864
-0.11183742
0.053130742
0.025970692
0.025792591
0.16560401
0.019038787
-0.4109426
0.065287806
0.03963942
0.0639588
0.04439918
-0.032511014
0.12573622
0.33457088
0.23340224
0.049439725
-0.104480214
0.0065058814
-0.054385692
0.08161733
0.0019142175
-0.28170967
-0.825198
0.2319282
-0.44966027
0.1039752
0.4040762
0.1006873
-0.10573341
0.10980267
0.16961432
-0.20448695
-0.0631668
-0.42100373
-0.008346064
-0.05878644
-0.025783239
-0.7489263
-0.076381
0.2352652
-0.11201479
0.03980922
0.14857076
-0.053124376
-0.20279154
0.0315904
0.22453249
-0.03919517
0.06365008
0.08697952
-0.8621902
0.004517849
0.1510212
0.0030086695
0.1350859
0.24695107
-0.16931856
-0.036647916
0.24618936
-0.04826743
0.032440383
0.32953694
-0.09048608
-0.4189479
0.07598127
-0.007836627
0.14041999
0.09326016
0.011216198
0.07246513
-0.049658254
-0.13524476
-0.020878183
0.10568011
0.109648235
-0.64965504
-0.13789326
0.30274335
-0.33338705
-0.059743967
0.0030990443
0.004371648
-0.5237441
-0.49137574
-0.29063845
0.2875513
-0.18901896
0.047027152
0.09183859
0.08923992
0.29545084
-0.054407638
-0.046929207
0.08779028
0.084875554
0.052377455
-0.4664022
0.048178263
0.07626076
-0.1927692
-0.03978851
0.15764086
0.0787052
-0.028220253
-0.032309577
-0.10695166
0.056612726
-0.10260831
0.07808015
-0.47045362
-0.086816944
0.036966916
-0.059300706
0.018266885
0.03593516
-0.14624678
0.012944777
0.0070137824
0.25169078
-0.090790674
0.07101012
-0.06880161
0.08994552
0.16963564
-0.010768854
-0.15812154
0.0442455
-0.13080306
-0.12746133
-0.028698076
-0.023119066
-0.07239018
0.05566556
-0.06417421
-0.019307656
-0.076978184
0.0071490626
-0.049027693
0.30598953
0.15907404
-0.10522443
0.26368752
-0.014872902
-0.17738257
-0.021578036
-0.015410469
0.0008842758
0.049877115
0.09228776
-0.0057277577
0.05744357
0.04868797
-0.057881374
-0.07776754
-0.40771502
-0.05985836
0.021954948
-0.0859784
-0.11177896
0.015265553
-0.027281
0.08581778
0.009193233
0.058071446
-0.02179075
-0.1795887
-0.0635084
-0.02060235
0.04259523
0.0021150345
-0.12180034
-0.23683561
-0.19499321
0.07823589
-0.426621
-0.24391541
0.019433387
0.01185947
-0.1823377
-0.038912456
-0.017090008
-1.2499503
-0.096121274
-0.008582383
0.070726
0.11959003
-0.37284097
-0.024895065
0.029218638
-0.29191545
-0.070857175
-0.016621731
-0.018187506
-0.18710597
-0.7888489
-0.16635135
-0.055048704
-0.043332793
-0.038852677
0.0041436525
0.061524577
-0.09874656
0.11976566
-0.4106379
-0.7541461
-0.2767383
-0.051734563
0.15210475
0.08533615
0.10059485
0.13174936
-0.036090113
-0.14061731
-0.88701797
-0.009060376
-0.14424083
-0.05557198
0.027762044
-0.03975793
-0.19394547
0.06576267
0.082225755
-0.050037134
-0.026253361
0.079178974
0.12738524
0.10998034
0.030393964
0.05092432
-0.0716353
-0.02962927
0.12331084
0.0510568
0.006104244
-0.06951891
-0.044368293
-0.07823427
-0.029802963
0.091616884
0.0043463656
0.07653658
0.17512138
0.19200851
0.0109000495
0.05865007
-0.09409371
-0.08678585
-0.0047980407
-0.04236834
-0.11420168
-0.06607838
0.16184875
-0.07267011
0.11271884
0.11906159
0.122042716
0.041217983
-0.05624783
-0.31851822
0.0025874542
-0.10103075
-0.089977995
0.08648118
-0.03719936
-0.030184299
-0.07034012
-0.12808658
0.31751475
-0.12581033
-0.054235343
-0.16234913
0.0544075
-0.17157228
-0.072322085
0.043432735
0.0360123
-0.0027825723
-0.0043207905
-0.01879072
0.0014486938
0.3043155
0.19803956
-0.039956346
-0.08169257
0.020877678
-0.13441737
-0.02924708
-0.47975752
0.10822867
-0.064531304
-0.2221487
-0.8839576
-0.34084797
0.041658424
-0.08691153
0.03036986
-0.1452911
-0.019002816
0.05008165
0.011294364
0.07315967
0.21726504
0.23252311
-0.00559532
-0.1646156
0.02414276
-0.012043689
0.29220322
-0.19633365
0.28077048
0.008005868
-0.06186699
0.11607553
0.052799534
0.096573986
-0.09567904
0.04342713
0.09049986
-0.23937505
-0.91861004
0.09577043
-0.46067503
0.12239025
0.44105735
0.21548748
0.11783631
0.12564926
-0.24197651
-0.025874985
-0.1074743
0.006838069
-0.025307018
0.03520902
0.056164104
0.1485147
-0.089567676
0.19030938
-0.024920724
0.34193325
-0.29171237
0.28344852
0.44616485
0.07613639
0.4007959
0.05776206
-0.40218824
-0.02723074
0.07142076
0.11206197
-0.07963561
0.10280804
0.020572228
-0.077436805
-0.70494777
-0.10249967
-0.35836625
-0.0641948
0.09265427
0.029279117
0.14040178
0.11338046
0.15876529
0.07614683
0.07433897
-0.041503914
0.0103909
0.09872142
0.031889822
0.34907824
0.056485675
0.047735386
0.070968136
0.050809257
0.008549109
0.04957399
-0.48277444
-0.047379162
-0.040687174
-0.37134534
0.117394015
0.029848259
0.09587302
-0.06371432
-0.055537514
0.033670373
0.12991117
-0.37058815
0.030663302
-0.03405533
0.22462806
0.2293675
0.039053004
-0.65875584
-0.20801151
0.27516803
0.07027752
0.049711306
-0.1351831
0.09481499
0.18307889
0.123126514
-0.08917682
-0.19484116
-0.11697087
0.111472294
-0.31308827
-0.0012860028
0.3313077
0.09687176
0.3687458
0.158014
0.0044586626
0.2998759
-0.0484097
0.11238286
0.28346494
0.0823155
-0.0075818915
0.14714128
-0.3002842
0.08204333
0.17218246
-0.0076195705
0.048378367
-0.03384238
0.2717383
-0.23960295
0.08807146
0.0051063653
0.15055522
0.2355509
-0.042414896
0.07295682
0.023647273
0.22343212
0.38496128
0.15346327
0.057746634
-0.024746075
0.0629692
-0.044836592
0.3989367
0.2232958
-0.01157709
0.056667857
0.1284866
-0.17843126
0.2006922
-0.016536832
0.14615308
-0.028657
0.35023183
-0.5476956
0.0879887
0.18991037
0.11844445
0.029117746
-0.006324228
0.03242145
0.11552237
-0.023196915
-0.7174632
0.1693684
0.010225576
0.29091072
-0.23758556
-0.21633856
0.40501025
-0.62557614
0.05777163
-0.15169524
0.13645281
-0.6975473
-0.0857345
-0.22926265
-0.04149624
-0.08795361
-0.19618006
0.024795404
0.051943768
0.44231844
0.46547157
0.053854845
0.0028209465
-0.10888792
-0.95827234
0.034130376
-0.36856228
0.1498752
-0.22035985
0.13121624
-0.6085711
0.042273775
0.13367943
0.029302439
0.106764525
-0.2477359
0.06657943
0.0077091316
0.0032955615
0.044287704
-0.32613274
-0.0826593
0.27937803
0.21037944
0.09134653
0.008839748
0.13817398
-0.20406711
0.01984928
0.11861738
0.029863266
0.22223018
-0.09350744
-0.008302739
0.19698489
-0.025384268
-0.057386473
0.014056316
-0.5887216
0.012019056
-0.24585196
-0.035803754
-0.31952935
-0.02093343
-0.2322194
-0.15840568
-0.668743
-0.13093737
-0.09505939
0.124184266
0.15469542
-0.17685403
0.056708157
0.058051005
0.012982021
0.03251823
-0.03292754
-0.0959595
-0.1400907
-0.042746503
-0.102663904
0.10607058
0.16756374
-0.052708965
-0.09484217
0.10499839
0.076697156
-0.15198375
-0.045107245
-0.048945535
0.088377945
-0.14303489
-0.32396254
-0.12947448
0.0046826373
0.08188955
-0.113317184
-0.052449312
0.056263186
0.00982721
-0.046601314
-0.23115954
0.03331504
0.019322852
0.14895584
0.04373152
0.16888435
-0.18679884
0.045984294
0.14509596
-0.1777014
-0.05684176
0.11365744
-0.222117
-0.9522906
0.11827548
0.074013874
-0.2823248
-0.019980634
0.06861941
0.24515457
0.067205586
0.14957039
-0.019017795
0.16248754
-0.22013012
0.055333022
0.12801814
-0.12664449
-0.2470404
-0.15161946
-0.047082443
-0.18628415
0.06245675
0.21173187
-0.03107439
0.095780745
0.16780324
-0.11651191
-0.04800782
-0.12526277
0.069528654
-0.30685028
-0.11589313
-0.46990892
0.09354507
-0.018794691
0.13833074
0.0030302424
-0.084574364
-0.03849659
0.12494801
-0.072532035
-0.06256544
-0.043924794
0.28358352
-0.007271712
0.03639475
-0.06143326
-0.06690274
0.1682495
0.0139961615
-0.0740838
0.09836087
-0.26323336
0.19173364
-0.019576013
0.009991916
-0.07201508
-0.039013542
0.02594354
0.045409888
0.06829571
0.032526575
0.15380262
0.03515506
0.058608755
-0.0532968
0.017643234
0.054078586
-0.2758781
-0.21749927
-0.07373162
0.034017462
0.1795792
-0.12852995
-0.032493096
0.040377416
-0.20872805
0.018105103
-0.19699985
-0.21447697
0.05909805
-0.23272635
-0.029882986
-0.013737236
0.1529238
0.14743228
-0.027346823
-0.10495149
-0.19946891
-0.1753701
0.060540825
0.12135582
0.09048778
0.08726635
0.019770086
-0.19246723
-0.032924496
-0.07780376
-0.024118505
-0.3677334
0.06273255
-0.124567
0.09958211
0.085331745
-0.10111604
0.041090783
0.049538363
-0.18515028
-0.13806777
0.055556465
0.0817109
0.15093413
-0.9296038
0.02376369
-0.3339579
0.21429962
-0.05392059
0.16842933
0.15945508
-0.10034111
-0.010162058
-0.107320964
0.065485135
0.093744144
-0.10827818
-0.08319184
-0.24284211
0.056459457
0.059217963
0.056002345
-0.09230547
0.037668113
0.07436422
-0.07432539
0.16391136
0.034142017
0.20421518
0.044079803
0.08108722
0.055926207
0.08521537
-0.22952104
-0.017048277
0.03571843
-0.09923274
0.20417777
0.06871873
-0.17545775
0.108749084
-0.24155334
0.18984647
-0.11415516
-0.07250277
-0.14244713
0.15212049
0.015465243
0.17246352
-0.026744891
0.10867428
-0.11588812
-0.1478132
-0.14851575
-0.18550932
-0.12042131
0.044100434
0.2875838
0.08993982
0.16614315
0.31569186
-0.1245638
0.015019156
0.29445568
0.22384734
0.023626719
0.041846227
-0.14209272
0.14604092
-0.18245459
-0.12123338
0.05307803
0.019453073
0.21064423
-0.11737751
-0.07134375
-0.27447996
-0.33251694
-0.22330564
-0.004582834
-0.290166
-0.009972382
-0.15748222
0.15431924
0.06599926
-0.13625586
-0.0930205
0.16977212
-0.09487186
0.03504062
0.21127607
-0.3403586
-0.11678758
-0.22297151
0.22475861
0.009283277
0.03753531
0.4635016
-0.09404462
0.19728117
0.09763714
0.146471
0.17093611
0.05956704
0.031052066
0.26696232
-0.19819382
0.018252963
-0.1846948
-0.046768583
-0.14726508
-0.059431132
0.3689603
0.13930532
-0.0062978584
0.016278898
-0.09447962
-0.18764792
-0.038052134
-0.17073527
0.02933823
0.19864208
-0.32123634
0.3426283
0.2551128
-0.079208836
0.2101734
-0.1720603
0.10472871
-0.08415817
-0.18618906
0.10263634
0.1620648
-0.1002047
0.022447444
-0.06384749
0.07495102
-0.25665098
0.03832384
-0.13980563
-0.05289793
-0.008425857
0.14029917
-0.0023190498
0.08775078
0.11298766
0.23331864
-0.040098846
-0.06513393
-0.019023981
0.09878229
-0.14647566
0.09621653
0.08969707
0.043259043
-0.17819965
-0.066533536
0.12816967
-0.09498537
-0.03807596
0.20909506
0.08308326
0.17888631
-0.060420495
-0.062970646
0.06421468
-0.16621758
0.16492422
-0.050780423
-0.022394279
0.2930167
0.10404883
-0.11254347
0.15250945
0.17138694
0.13360867
-0.22472292
0.02001096
-0.16041696
-0.20047103
-0.06096555
-0.19565178
0.053003956
0.16771132
-0.17543966
-0.16707534
-0.039657727
0.121613055
-0.18201824
0.05954033
-0.09404879
0.124160886
0.026475145
0.09980079
0.03891946
-0.068362094
0.17527716
0.027351214
-0.17863515
0.28768596
0.342277
0.0699745
0.009474659
-0.09569147
0.12121106
0.0051988796
-0.14118662
0.019757269
0.046158884
-0.0055628326
-0.09327978
-0.054076765
0.042028297
-0.0021465141
0.11532626
0.09468675
0.102494225
-0.03543473
-0.39149082
0.0013271807
0.1055445
0.08077021
-0.2525168
0.008953439
-0.10615078
-0.034404315
0.09246687
-0.09011639
-0.2594792
0.055735353
-0.39541408
0.06082066
-0.9395196
0.1254267
-0.22310935
0.08532349
0.060536534
-0.35088807
-0.002182128
0.053588916
0.05561098
0.049790073
0.15829211
0.14940731
0.07326128
0.12266786
0.17720075
0.08657513
-0.24829982
-0.02087298
-0.015997842
0.094191656
-0.43496582
0.059837803
0.028131427
0.06964251
0.036634374
0.20104338
-0.032999452
-0.91318095
0.15640862
-0.0065288045
-0.5915912
0.19990782
-0.34529755
0.009729281
-0.006165822
0.083677985
-0.018891787
-0.11090187
0.023933744
0.07298741
-0.10150184
0.0011004627
-0.1673498
-0.20662782
0.0155876065
-0.39996898
0.1137875
-0.05810852
-0.30911475
0.051908128
-0.0056223497
-0.08514495
-0.00997614
0.08778143
-0.28652745
0.020309847
0.089905195
-0.0018229147
-0.18218558
-0.5481198
-0.015920227
0.020301504
0.10332465
-0.03159957
-0.019568533
0.26441756
-0.039061323
-0.02216168
-0.07906181
-0.13418454
-0.28561795
0.105251685
-0.1871197
0.19507295
0.07948948
-0.11043789
0.100570664
0.06928652
0.050025363
0.088656954
0.23094383
-0.15126994
0.0874249
0.087928295
0.120876335
-0.21602307
0.16948202
0.13014245
0.12967758
-0.57924145
0.067224234
-0.04506456
0.02586606
-0.037838235
0.027324961
-0.2149252
0.038255446
0.14738765
0.087913215
0.15730025
-0.1187589
-0.00038380528
0.23185755
-0.16982028
0.0061799353
0.17202085
-0.22285311
0.040419515
-0.36640877
-0.018839654
-0.058047816
-0.04104895
0.08368367
-0.18125384
-0.678908
-0.03594263
0.05655339
0.06964719
-0.1108258
-0.069675274
-0.14967442
-0.8070745
-0.68757665
0.028460328
-0.09085722
-0.8312851
-0.033571746
0.010752134
0.19715759
0.12680978
-0.14660878
0.05970172
-0.010691518
0.18163875
0.13444026
-0.10665282
-0.00841087
0.13527054
0.17575212
-0.09024389
-0.011093573
0.14711931
0.08053985
0.03424351
-0.10459365
-0.05683752
0.03383414
0.050257828
0.019501174
0.11273421
-0.1164297
0.10174363
-0.5904275
-0.414066
0.23835243
-0.053742398
0.104671165
-0.056127664
-0.00046614095
-0.042284723
0.035421327
0.09743795
-0.15697545
-0.013000711
0.10095422
-0.09779428
0.051289793
0.27460247
0.15846995
-0.021971302
-0.035611615
-0.14272168
0.070065536
0.023255425
0.020827025
-0.16084988
0.14189723
-0.031494513
-0.571278
-0.17461091
0.07768617
0.1637567
0.13811654
-0.008211033
0.07612827
0.03583442
-0.16431554
-0.037310492
0.14779603
0.08057535
-0.15782522
-0.28205693
0.11465017
0.0069332123
-0.10731822
-0.22777462
0.18231975
-0.12281456
-0.12197576
0.15148136
0.18312226
0.16050264
0.10560892
0.00020943217
0.06681477
-0.25196737
-0.54025805
-0.07545409
-0.4372279
0.04275492
0.13740265
0.05887258
-0.21896586
0.12027323
-0.10900776
-0.017969422
-0.14658459
-0.011833233
0.20761064
0.049032476
-0.66122705
0.13451381
0.08740595
-0.15533437
0.06017094
-0.25771517
-0.34699512
0.058257986
-0.28909782
0.08302606
-0.011886955
-0.29369405
-0.29576218
-0.04099142
0.048015255
0.14507255
-0.104220174
0.040181786
0.0785652
-0.16023117
-0.38833192
-0.7220735
-0.2011725
-0.059788145
0.040480744
-0.33687097
0.0655833
0.084368244
-0.37491137
0.0054016593
0.16816764
-0.104428805
0.09556396
0.08042597
-0.20479779
-0.076256454
0.124157
-0.1327727
-0.0025803375
-0.30083707
0.13738582
-0.030608477
-0.41302794
0.013758357
0.02689786
-0.18114893
0.033311367
-0.03335745
0.051516708
-0.20905726
0.12640785
-0.11622885
0.18451756
-0.0513467
0.08343667
0.11551354
-0.018074784
-0.029134985
0.03675491
-0.45136568
-0.25622886
0.21980901
0.1452434
-0.028543316
-0.089896165
-0.13546696
0.115317106
0.03872588
0.072523706
-0.026535012
0.08297437
0.31696838
-0.7628756
0.13302669
-0.0752086
0.03884675
-0.025805341
0.026537556
0.12740828
-0.008594865
0.27702636
-0.09227575
-0.06932834
-0.098808974
0.02566625
0.09260292
-0.05482871
0.0805983
0.09907017
-0.16773558
-0.025201613
0.009232297
0.11642655
-0.13366415
0.03629793
0.047193646
-0.023627903
-0.043509312
0.10839681
0.013157653
-0.019986132
0.13978516
-0.09220457
0.07742878
0.03420321
0.13055691
-0.033571117
0.11404461
0.31873882
-0.07265053
-0.06244582
0.022480283
0.18605593
-0.12999825
0.034690686
-0.15354075
-0.2058107
-0.48263317
-0.41314232
-0.63395184
0.03432527
0.11780179
0.07703278
-0.0464588
-0.036351137
0.05825729
0.042071607
0.08514789
-0.43494236
0.1413174
0.12193849
-0.04740259
0.012457497
0.08633319
-0.04113932
-0.8420599
0.07877579
0.10242781
0.08404936
-0.5137256
-0.027240984
-0.011015458
0.06782091
0.15037334
-0.08126393
0.11174501
0.060204964
-0.28343564
-0.24297127
-0.17349796
-0.17741215
0.017620107
-0.343824
0.10202325
0.23978545
-0.15324154
-0.022494446
-0.14730807
-0.14109729
-0.12118702
-0.07943339
-0.19040759
0.074911475
0.13262154
-0.18123826
-0.028988564
0.08659819
-0.2992661
0.0610517
-0.017355304
0.15883194
0.09031828
-0.021748839
-0.044847388
0.13720691
0.14900714
-0.31403878
0.18125531
0.20544519
0.13604058
-0.09043181
-0.00216762
0.093718894
0.0072124475
0.03790933
-0.04664007
-0.14528824
0.2002088
0.11151513
0.12628126
0.06158333
-0.023924166
0.09225702
0.11147678
0.17230614
0.14875893
0.15271425
-0.20304468
-0.1449977
0.15881161
0.10685403
0.07934501
0.0006086305
0.10196023
0.08363134
0.031835504
-0.10083568
-0.07141889
-0.05422653
0.113713734
-0.3700911
0.11940846
-0.26213825
0.14228867
-0.4140671
0.07113007
0.032005336
0.15717103
-0.03589471
0.13747539
-0.21718621
0.47605157
-0.14688961
0.13093732
-0.010424265
0.09574723
0.042956
0.11712157
0.07923187
0.12337095
-0.112786025
0.076552875
-0.08688453
0.09894905
0.06701898
0.045417536
-0.0722042
0.0669701
0.16606176
0.19658086
-0.09582144
-0.052757975
0.17975202
-0.3873789
-0.03097712
0.1855102
0.046615124
0.039748296
-0.107831925
0.13952272
-0.033694137
0.1716317
-0.21873093
0.15326278
0.10997456
-0.44713345
0.024566041
0.08346332
0.08468718
-0.24107519
0.12377948
-0.22878924
0.094073236
0.09749082
0.13278264
0.067628026
0.038545173
0.11612685
-0.019709487
-0.08588265
-0.029921563
0.061412413
-0.0045771254
-0.4911096
0.36861742
-0.21763198
0.012748752
0.09950902
-0.03499977
0.10754483
0.12743966
-0.14603092
0.10756709
0.1455562
-0.021752784
0.054825906
-1.084338
0.07142405
-0.18773465
-1.5127647
-0.060135487
-0.21195005
0.054277256
-0.09404235
-0.06333074
-0.06484124
0.18113418
0.089715086
-0.06293219
0.11309913
-0.14245203
0.0089296
-0.26489875
-0.13855207
-0.5187088
-0.083309926
-0.07430538
-0.06860298
0.1013605
0.08474434
0.12116597
-0.0049804444
0.097778104
0.19588716
0.07332482
0.046023168
0.1954045
-0.97917026
0.02282854
-0.06599605
0.14539532
0.101714425
-0.17149538
0.16482934
0.19429977
-0.31225672
-0.019718139
-0.04688049
-0.21924405
0.1271331
-0.18341121
0.47161046
0.08514949
0.05340098
-0.027806345
-0.16148661
-0.081592
0.20180914
0.07613045
-0.19592549
0.124494396
0.1389997
-0.20321143
-0.17665567
-0.35953084
-0.45187595
-0.09175902
0.056564726
0.023177166
0.036470283
0.044331763
-0.27829617
0.022373136
-0.14247622
0.17847404
0.067630626
0.12334878
-0.37315616
-0.052409608
-0.212267
-0.13008161
-0.012678131
-0.24149342
0.104364224
0.043987077
0.020612799
0.032766193
-0.90035266
0.038540225
0.04265356
-0.036673084
0.09959894
0.19776788
-0.26367417
0.1412388
0.18786766
0.12057967
-0.23257582
0.12611519
0.14430986
-0.08916468
0.032487422
-0.15309152
-0.07443744
0.052113034
-0.19385865
-0.090840064
0.06333592
-0.05174686
-0.067111075
-0.26432365
-0.0010066446
-0.020051971
-0.09735975
0.09454988
0.07506123
0.00013130321
-0.53127676
0.2628378
0.04442234
0.18500352
0.072518684
-0.092291854
-0.12094476
-0.021567073
0.19313885
0.058585126
0.007983547
0.2114374
0.100774825
0.11539209
0.12265806
0.20781483
0.16895522
-0.7626644
0.009852248
0.069979936
0.07236521
-0.0574755
0.10917194
-0.07813255
-0.41266185
-0.2364314
0.10346681
-0.022692405
0.14240392
-0.020226683
-0.014742676
0.07764969
0.038442224
0.043597616
-0.0016222725
0.18651365
0.1018965
-0.00049395737
-0.41842702
-0.06663923
-0.44667274
-0.23289278
0.03070659
0.034563847
0.022801144
-0.04981724
-0.14163327
-0.13470595
0.19845346
-0.05406202
-0.014450083
0.21996447
0.041747056
-0.40203077
0.066480696
0.23404336
0.15733373
-0.056097634
-0.1868699
-0.03328821
-0.31785616
0.018106207
-0.048482012
0.1851793
0.18268105
0.12999049
-0.015746126
0.087634265
-0.032203063
-0.015715782
0.056034844
-0.0069973595
-0.28599006
0.07572294
0.4769895
-0.45763296
-0.21790265
0.09364904
0.010584756
-0.48356333
-0.007660883
-0.056718536
0.14987208
0.41805637
0.01360667
0.10117691
0.06920285
-0.08456383
0.038403615
-0.69549114
0.021857964
-0.041369002
-1.5322822
-0.00070201035
0.20903285
0.05273817
0.14499259
0.08379561
0.024753716
0.0377362
-0.23242818
-0.39191958
0.114918746
0.13615648
0.03126271
0.04585767
-0.058149546
-0.506545
-0.23958343
0.05081037
-0.0021303354
-0.14856951
0.049205616
-0.029444398
-0.0020108789
0.08817449
0.037058868
0.07939625
0.12877709
0.070615314
-1.7935653
0.24755506
-0.26159582
0.078912325
0.09020546
-0.11278803
0.081290565
0.00549581
0.12868586
-0.08601095
-0.05954028
0.012398004
-0.09278545
0.12642741
0.28591216
0.055269554
-0.12992932
0.20933913
-0.2669851
0.040240675
0.06286689
-0.007225291
-0.21447995
0.05359746
0.20209098
0.14103366
-0.13178207
-0.28480136
-0.16432956
-0.1213099
0.26410618
0.16531518
-0.6805569
-0.54809535
0.017191876
-0.21715124
-0.13229415
0.20626
0.0132838935
0.19784456
0.061204858
-0.014613032
-0.015472056
-0.0027565174
0.041777946
0.007533499
0.11619524
-0.07994381
0.06362888
0.010845893
0.07025709
0.11008566
-0.11430337
0.06391686
0.024231842
-0.10234951
0.093894474
-0.022144785
-0.056937
0.16583727
0.036742643
-0.017501391
-0.09898675
-0.036276065
0.05504453
-0.01524456
-0.08672494
0.068836905
-0.110219665
-0.06943734
0.047618985
0.09791008
-0.07521508
0.15370928
-0.013682701
-0.044826627
0.100220114
-0.06984978
0.027822912
-0.17347573
0.062326245
0.003603744
0.026464613
-0.09838779
-0.023875818
-0.07039317
0.06688763
0.0058451286
-0.10530279
0.16093408
-0.0076140235
-0.13599536
-0.1026416
0.081383
-0.06106273
0.08932859
-0.103787094
-0.030825691
-0.053508
-0.011524384
0.0266438
-0.018427545
-0.10363948
-0.018474683
-0.07684551
0.07110086
-0.0072709615
0.06490556
0.07942302
0.037263315
-0.06749533
0.114452444
0.033818077
0.092871316
-0.040223647
0.03459985
0.01048022
-0.016882982
0.066214666
0.073166706
0.04740279
-0.19809614
0.15476218
0.026336096
0.23670973
-0.0074851583
0.081466354
-0.06766527
-0.09916532
-0.029645326
-0.059496026
0.015687086
-0.027232163
0.03676735
-0.0067074806
0.11047688
-0.02675268
-0.054650187
-0.03129328
0.15858553
0.059436753
-0.03363071
0.029997427
0.017602399
0.07895855
-0.115364805
-0.010690247
0.026851512
0.021102486
-0.13324018
-0.067931645
0.027085636
-0.09196237
0.29118827
-0.22207944
-0.02204308
0.048198007
-0.42667967
0.06767669
0.14386736
-0.11274232
-0.0104630245
0.04378303
-0.16681041
0.045649733
0.04472546
0.067486934
-0.21181957
-0.0408183
-0.04089719
0.0077028535
-0.057069726
0.07163316
-0.067130744
-0.07172649
-0.015167842
0.13883388
-0.013921075
0.011082989
-0.03344347
0.06537269
-0.049753144
-0.052620806
-0.029719526
0.0051701716
0.085988246
0.021427438
0.078279994
0.005683702
0.0013959471
-0.026710724
0.12310261
-0.00052948814
-0.114542656
0.05461422
-0.04168532
-0.045839205
-0.04634118
0.03468916
0.033107802
-0.030006764
-0.036953166
-0.04592446
-0.03505712
-0.06168574
-0.08100498
-0.009828251
-0.035756804
0.00101847
-0.0134578515
-0.033096086
0.12146708
0.0055677937
-0.0066820243
-0.1996275
-0.029913586
0.11363608
-0.20940062
0.007908857
0.023470135
-0.120676436
-0.03329667
-0.039161313
-0.038340554
0.010275275
-0.06931916
0.089696504
0.09210091
0.059032854
0.044477604
-0.06581932
-0.2038833
-0.054468334
-0.0013787178
0.10068515
-0.02579646
0.012088585
0.0630528
-0.019274615
-0.09912733
-0.009136265
-0.1120461
-0.30899307
0.046463285
0.039834924
0.014553659
0.10557941
0.11238083
0.040972833
-0.034030028
0.055312283
0.089925535
-0.023966402
0.21494105
0.17060477
0.117674306
0.031525068
0.041098718
0.029903743
-0.3091168
0.052965593
-0.23844099
-0.38805085
-0.5407614
0.017701011
-0.023338592
0.14225492
-0.11366742
-0.38655692
-0.07877725
0.18291357
-0.24817277
0.11380447
0.01486855
-0.12909293
-0.11043676
0.16682594
0.06151044
0.3276654
-0.14830105
-0.0075589553
-0.038530458
0.1881808
0.11402738
0.077647015
0.058647294
-0.00052636676
0.10334641
-0.35280886
-0.28507644
-0.52302814
-0.36949918
0.20078057
-0.3245997
-0.24437696
-0.16289552
-0.3706482
0.056839295
0.10924401
-0.049968973
0.085503384
0.020176057
0.21285723
-0.21823736
-0.37698346
-0.34068942
0.13830161
0.044315323
0.004672618
0.023728918
0.13918233
-0.0066368342
0.24741365
-0.43035832
-0.04492691
-0.062049143
-0.58192956
0.18248531
0.1480775
0.04777069
0.004804324
0.0077801393
-0.052308016
0.06584408
-0.031342573
0.035994828
0.11303659
-0.031174056
0.05541602
0.15615611
-0.034241665
-0.2633558
0.3059035
0.027240666
0.016652819
-0.2714939
0.025963277
0.04699034
0.08863882
-0.007045138
-0.07293102
0.06376942
-0.24831827
-0.041760087
-0.42398593
-0.56426734
0.12462426
0.31192517
0.1085826
-0.056882266
0.09671487
-0.15430585
-0.29090086
0.0681995
-0.019054923
-0.24906453
0.1942206
-0.002384119
-0.63388383
-0.03350789
-0.13302357
0.0071723787
0.067435175
-0.18954857
-0.092751265
-0.022025969
0.10197144
0.05394911
-0.023560835
0.41513819
0.08063821
-0.21919748
0.06200042
0.0006898882
-0.20274317
0.11930472
-0.36611986
-0.35055977
0.0088819945
0.22359817
-0.1079569
0.14438944
0.21299185
-0.15167665
-0.5862177
-0.1900081
-0.22427163
0.14701065
-0.4473539
-0.20467076
-0.008249445
0.021811824
-0.106413916
-0.24610095
0.07178912
-0.46295887
0.30039757
-0.16659224
-0.10414948
-0.11520196
-0.21880296
-0.3664507
-0.36307272
0.14634578
-0.045135632
-0.0057763373
0.057084672
0.26060554
-0.17991108
0.093334526
-0.011782466
-0.122524396
0.07586371
-0.23659788
0.036808264
0.34282202
-0.3730828
-0.18115956
-0.3044941
0.06689767
-0.06037098
0.08438012
-0.11079221
0.29587704
-0.41702867
-0.16307904
0.081968725
0.25609583
0.14290443
0.07982945
-0.330487
-0.29986867
-0.05484135
-0.038173046
0.025651181
-0.050670817
0.058035392
0.2658342
0.10308207
-0.26288235
-0.16063787
0.0575919
-0.578213
-0.21071064
-0.5210702
-0.10606031
-0.30841523
-0.5778105
-0.14436832
0.072585694
-0.26952356
0.096789315
-0.034307227
0.05812289
-0.06738673
-0.23447719
-0.13392279
-0.028036555
0.013849587
0.5397499
-0.05670429
-0.07032206
-0.037435144
0.34406623
-0.025533866
0.04545877
-0.010548297
-0.2668158
-0.41006538
0.085624576
0.06695325
-0.0076378803
-0.028587652
0.019603236
-0.19580062
0.008340158
0.114441805
0.23144634
0.17109929
-0.19383577
-0.15246229
-0.36613068
0.20342009
0.05251145
-0.024757642
-0.5735324
0.031026565
0.005129607
-0.11970351
-0.3173744
0.6392137
0.03781262
0.120969914
0.6635726
-0.23284379
-0.06552426
-0.06495901
-0.2592512
0.0717546
0.07852844
0.119423755
-0.081830494
0.24567738
0.008689684
-0.2638878
-0.6878535
0.20588407
-0.1248675
0.11442792
0.0034389023
-0.0007843443
-0.004067308
0.15087622
-0.29511276
0.16380501
-0.48089263
0.098964125
0.087383665
-0.020913575
-0.14438707
-0.119738445
0.015876241
0.04185638
-0.09939023
-0.17428365
0.13636766
-0.35203874
-0.024629597
-0.47664455
0.07181097
0.15344624
-0.022496488
-0.04494877
-0.07770225
-0.031994347
-0.169666
-0.37245092
0.02323843
-0.1925692
0.016338177
0.012939069
-0.0336842
-0.07960519
-0.3615925
0.570675
-0.0023802917
-0.06503541
0.040641986
0.07909182
-0.095420144
-0.07570594
-0.3664277
-0.37000042
-0.036992956
-0.13809885
-0.002076181
-0.15797032
-0.008033812
-0.029106347
0.04103682
-0.14214003
-0.07653598
-0.113070264
-0.24600072
-0.09512674
-0.12150858
0.12155224
-0.10715767
-0.11932494
-0.30401233
0.026893977
0.20096311
-0.26549193
0.10806909
-0.24082866
-0.009427416
-0.24462073
0.031413432
-0.074402496
0.11113629
0.07485413
-0.17206588
0.2054611
-0.23588084
0.58026755
0.5794919
-0.6478498
-0.17650808
0.0013921434
-0.18039091
-0.0385243
-0.0235716
-0.03711264
-0.041112285
-0.101239085
0.061357275
0.2808713
-0.12472539
0.13810104
0.010579249
-0.4457196
0.003908554
-0.040087335
0.026128097
0.005251193
-0.4939676
0.011382805
0.14682104
-0.30597457
0.009245968
-0.27559087
-0.060688417
0.061806977
-0.30541927
-0.017596757
0.12730521
-0.17408425
0.0059844074
-0.13017322
-0.13689964
0.32404363
-0.065114826
-0.2153584
-0.0017180957
0.030117257
-0.30939448
-0.45489904
-0.40557915
-0.24162382
-0.3896365
0.07976027
-0.13300335
-0.2921348
-0.21481787
-0.51737994
-0.07225886
-0.20157427
-0.35234973
0.033327695
0.073358335
-0.12599763
-0.06057481
0.34779188
-0.02814326
-0.13179472
0.23193868
-0.37644404
-0.25850198
-0.12710744
0.30119085
0.061624844
0.1665206
0.272182
0.18039063
-0.11170816
-0.004207144
-0.08121072
1.1113951
0.078600086
0.024265347
-0.017710594
0.3727037
-0.03871444
-0.28726974
-0.34651798
0.3612565
0.052315738
0.06401373
0.3066741
-0.100552976
-0.2770491
0.11140433
-0.15302582
0.42226818
0.14354566
-0.09843496
0.106501795
0.2959154
-0.15003088
0.10870457
0.020098573
0.0025865328
-0.011685918
0.3016505
-0.08458652
-0.54075885
0.03922744
0.020348698
0.5446555
-0.11393529
-0.24310066
0.36441588
-0.2806595
0.1255327
0.516206
0.12622255
0.026680257
0.017179929
0.28539908
0.21819092
-0.438114
-0.10459446
-0.10893877
0.0068050125
-0.015063764
0.29311585
-0.3450695
-0.3132429
0.3904668
0.08570908
0.06296089
-0.43709275
-0.064631306
-0.64097315
0.2144651
0.0362221
-0.53023916
0.21571983
0.24956514
-0.23989843
0.068016805
0.30902913
0.13920578
-0.1636542
-0.26302245
0.09225487
0.024223039
0.038556777
0.4396916
-0.014201463
0.020109573
0.057904206
-0.10931092
0.29428515
-0.0050100535
0.035803337
0.46534508
-0.24731725
-0.06796885
0.43527615
0.25898772
-0.042673323
-0.031314034
0.53777796
0.032833043
-0.06557444
0.045810644
-0.36013523
0.05700234
0.10440059
-0.06327511
0.12899669
0.38288617
0.098325744
0.23288478
0.18441692
-0.023747142
0.69366974
-0.618882
0.27943063
0.24024397
-0.20198521
1.1285383
0.19711612
0.123135634
0.94289464
0.20594104
-0.052109934
-0.0005639532
0.26968634
-0.02765569
-0.05539141
0.0467643
0.21053095
0.027861385
0.11411757
-0.035096727
-0.16095193
-0.06274928
-0.15666106
0.046835814
0.1283473
-0.32860357
-0.05799638
-0.30887923
0.10100021
-0.5940896
0.030147417
-0.3419479
0.117020555
-0.13999121
0.43262243
0.026200047
0.11423749
-0.06788985
-0.2314644
-0.12616727
0.08098593
0.19365595
-0.10581532
0.038184628
0.20642215
0.15533312
-0.24816127
0.10962408
0.078926235
0.024521615
-0.501037
0.05103495
-0.12636174
-0.013707881
-0.097006224
-0.1697823
-0.008431947
0.93213826
-0.48131338
0.46545342
0.83030796
0.16183126
-0.29043594
-0.43548256
-0.10901856
0.113510735
-0.37599015
0.13524166
-0.005093323
-0.10198699
0.1841092
0.014271647
-0.13972177
0.24618578
0.5726328
-0.0035220715
0.075947486
-0.06004511
-0.068561316
-0.06847234
-0.072354235
-0.045449056
-0.022741633
0.023727091
-0.19536987
-0.09515127
-0.060971882
0.033543278
0.02652003
0.12518209
0.013067485
-0.07334918
-0.23033659
-0.05403678
-0.010410997
-0.022512233
0.09816898
0.14267176
0.004664629
-0.059341125
0.06592874
0.30084363
-0.560959
0.03573092
0.29809794
-0.02602199
-0.2822545
0.029935064
0.009343929
-0.039277848
0.07979456
-0.33974156
-0.18359877
-0.025745975
0.28684047
0.0046589775
-0.24509622
0.072203614
-0.20824929
-0.0047736666
0.36188528
0.10841435
0.11111652
0.0017402672
-0.13669822
0.21634465
0.08347136
0.053392097
-0.041059792
-0.24924356
0.027273124
-0.03582859
-0.7447565
-0.21127212
-0.027676964
0.12051856
-0.5027113
0.094398454
0.033305712
0.11371046
-0.032323424
0.07813837
-0.061470985
0.005664506
0.07054273
0.20322174
-0.59484565
0.114928626
-0.15421489
0.15604258
0.12448883
-0.22989278
0.044091325
-0.002063909
-0.33699873
0.18174651
-0.08276151
0.053619146
-0.19372901
0.053235207
0.101067
-0.30253613
-0.029187618
0.029016746
-0.006695566
-0.23254739
-0.065318376
0.013266025
0.26470602
-0.012260686
-0.094884194
0.13514073
-0.049420137
0.054445993
-0.3366085
0.23483133
0.053655576
-0.11975363
-0.6820523
0.21709134
0.06777586
0.014938958
-0.009355129
-0.056049086
-0.023306746
-0.6723919
0.15688749
-0.4841639
-0.02517365
-0.038463227
0.15420793
0.011655241
0.07067879
0.056555714
0.11641293
-0.18860911
0.17042533
0.26814416
0.026984923
-0.056647092
0.052269407
-0.1361066
-0.370351
0.046488047
0.05436333
0.112490825
-0.16037804
-0.14157358
0.061806522
0.12415899
-0.07223525
0.094855696
0.087183826
-0.03611871
-0.08928785
0.08008614
-0.013535484
-0.10042035
-0.033796668
-0.9547012
-0.13120794
-0.032160543
0.043089684
-0.27209336
-0.075029746
0.15702663
-0.19494072
-0.33238658
-0.4497517
-0.07630551
-0.038166456
-0.23942539
-0.095753126
0.029846296
-0.15357694
0.025000894
-0.006416709
-0.06120494
0.08463005
0.17120764
0.09188122
0.057272714
-0.28204948
-0.07341232
0.014480452
0.044884197
0.085641876
0.072069325
-0.18895504
-0.05461546
0.08767947
-0.25469676
-0.031195218
0.0730385
-0.63052976
-0.056839794
-0.121622816
0.14608876
0.2510393
0.3073964
-0.041962042
-0.14669096
-0.0052636527
0.09360972
0.06128729
-0.5200037
0.14960304
0.27810675
-0.14316027
-0.000374767
0.073015034
0.049428616
0.04925951
-0.082436614
-0.0799371
-0.031390592
-0.050695773
-0.022971634
-0.22277467
0.04159032
0.22504057
0.0037718944
0.15376449
-0.3193914
0.080898315
0.15063561
0.045208868
0.05264738
-0.15963136
0.03272701
-0.14214393
-0.007775955
-0.09247977
0.06513702
0.12482267
0.09480432
0.12659813
-0.004648265
-0.2686915
0.06823051
0.11312121
0.2694293
-0.5256478
0.04705282
-0.06373285
-0.30861756
0.05071567
0.08271367
-0.17456985
0.023816671
-0.02616164
0.192271
0.15489979
-0.07167144
0.40146756
0.07918332
-0.104265645
0.016393099
0.120992355
0.041457776
0.269252
0.17584729
0.06729112
0.14234513
-0.42148843
0.11684447
0.320556
-0.040592864
0.15940194
0.1166439
-0.029947277
-0.06395331
-0.10301258
-0.023065625
-0.06369452
-0.01555262
-0.1821857
-0.08282533
-0.29725733
-0.045826543
0.10591719
0.09679103
-0.05588817
0.0698209
-0.007288596
0.19308396
0.06764041
-0.12804097
0.1312284
0.118186526
0.0404077
-0.2027648
-0.03743982
0.01257367
0.031803954
0.16100928
-0.051310237
-0.06325962
-0.593798
-0.060570978
0.06049928
-0.008885823
0.0633563
-0.005912003
0.08181464
0.027589938
0.07619012
-0.078833215
0.2572441
-0.00019047855
-0.050497856
-0.29562235
-0.06158934
0.019504609
-0.44273192
-0.040304385
-0.09849274
0.0375624
-0.6328407
-0.27118596
0.024420183
0.024847988
-0.038903188
-0.014609937
-0.018661218
-0.049555104
-0.12589566
-0.5162277
-0.32502013
0.040196992
-0.14023018
0.1433433
0.025633406
0.035095643
-0.09533218
0.2819576
-0.02845636
-0.7070037
0.089433104
-0.037494756
-0.0588043
0.032766864
0.08504387
0.057270825
0.009612746
0.109124795
-0.67179716
-0.060405284
0.0113381995
0.085573114
-0.024204036
0.03160953
-0.16761243
0.028845424
-0.1825261
-0.22488278
0.03094124
-0.26407453
0.11531509
-0.26043707
-0.006803652
0.10804276
0.17573127
0.013693569
0.043091174
0.09625297
-0.21668734
-0.026152728
-0.18905601
0.028838573
-0.048210397
0.10267518
-0.044368185
0.043312028
-0.025767507
0.14464949
-0.11582194
0.036031
-0.24057508
0.15509254
-0.096663035
0.008563498
0.13774945
0.0076668398
-0.028203314
0.3972066
0.025597673
0.12897134
-0.049451303
0.15300296
0.08867008
-0.6610278
-0.031440582
-0.11255562
0.014678187
0.0051404536
-0.35111046
0.010382404
0.23766464
-0.032156643
0.076109245
0.25625694
0.0040045925
-0.20301047
0.06029216
-0.11682953
-0.0734289
0.38137656
-0.13058181
0.021620698
0.2128065
-0.029735634
0.0026301707
-0.04018708
-0.11626341
0.036761135
0.05114214
-0.058041327
0.12068608
-0.028384631
-0.051875193
0.0033445384
0.116470195
-0.34882444
0.27129444
-0.24907379
0.07529236
0.081721604
-0.018182708
0.37332752
-0.0006822302
0.042020515
-0.5005773
0.045379777
-0.5545893
-0.95685554
-0.1871435
0.16343614
0.055217613
0.06928925
-0.4012878
0.030310059
0.051752523
0.008952884
-0.42801374
0.07443166
0.21365838
-0.21618785
-0.14322533
-0.08864856
-0.1363102
-0.08300135
0.29144412
-0.0071418895
0.11650975
-0.20921387
-0.101241246
-0.55184597
-0.047408562
-0.218243
-0.30609572
-0.10242066
-0.035890494
0.013883856
0.09561546
-0.2745955
-0.5497596
-0.1745826
-0.12456601
0.15950365
0.029196195
-0.2770758
0.44165945
0.037329033
-0.14954996
0.30284125
0.019970702
-0.15714595
-0.032951698
0.016020862
0.010189608
-0.8095318
0.077573754
0.1387936
-0.08710771
0.038872153
0.2972703
0.18174125
-0.35650975
0.16417225
0.048332296
-0.57958436
-0.51981944
-0.20031394
0.0036030984
-0.24822946
0.011120386
0.041252576
0.12826197
0.15142621
-0.23922063
-0.003908181
0.014773462
-0.007282131
-0.22377294
-0.41493434
-0.05589917
0.32658383
0.0071172435
0.09410123
-0.0071766786
-0.10542523
-0.30187115
0.039016742
0.08823509
0.098318964
-0.084819406
0.046503678
0.1574198
-0.06487989
0.015124024
0.020750204
0.15289664
0.06874094
-0.18895052
0.4131397
-0.12723228
0.057864025
0.14057603
-0.049739502
0.2135343
-0.19838409
-0.7342393
-0.22654462
-0.3396426
-0.1654891
0.43584472
0.043365136
0.21060127
0.09842325
-0.49318165
0.13520199
0.009604345
-0.7572922
-0.06980409
-0.36030963
0.055386048
-0.29809418
-0.39967594
-0.16101137
0.060205534
-0.42310187
0.024063634
-0.100721546
0.13019994
0.03567295
-0.011343633
0.060492884
-0.8015723
0.32971838
0.09883441
0.018167736
-0.08503772
0.06291668
0.033074
0.29712132
0.08989037
0.17893335
-0.0062242732
0.007130485
0.09886474
0.37554497
-0.2263511
0.031461284
-0.07883789
-0.8938839
0.06150042
-0.006327201
0.117505625
-0.106698364
-0.7795224
0.024878921
0.0137400655
-0.003625903
0.090104975
0.110689566
0.1993334
-0.95394665
0.26193115
-0.058461454
0.08398613
0.09795826
-0.09501161
-0.18088591
0.29765013
-0.1510921
0.12905689
-0.1895507
0.17716081
-0.5964621
-0.5185812
0.112752534
-0.1581748
0.29126737
-0.07360316
0.19898099
0.19482784
0.021178575
0.06938469
0.072448514
0.020059925
0.0027827176
-0.0023520323
-0.01244389
-0.2900631
0.018171862
0.108668946
0.08180286
0.42718604
-0.03631567
0.461704
0.2740212
0.0096486
0.103827305
0.14982942
0.16399482
-0.10885277
-0.122808956
0.16245104
0.3743088
-0.06224023
-0.25427067
0.1599716
-0.13506041
-0.07196221
0.018828344
0.09324729
0.05345234
-0.065824114
-0.1271095
0.6801276
-0.018495206
0.24399737
0.11994951
0.47795817
-0.14222813
-0.3662653
-0.15519145
0.14870441
0.09504579
0.01300791
0.1475385
0.051517904
-0.5257684
-0.014383416
0.022811413
-0.04150563
0.013497873
0.07898159
-0.021214481
-0.033173624
0.05050499
0.97042125
-0.14740297
-0.0787819
0.14033622
0.5653713
-0.048201118
-0.13549255
0.46042186
0.09964566
0.23911321
0.2708787
0.10397507
0.20188622
0.022987586
0.050201677
0.319081
0.051509514
-0.115906715
-0.10397931
-0.010264968
0.2626893
-0.17586637
-0.26176423
0.06325819
0.13823812
0.83412874
0.13853763
-0.44338852
0.06703662
0.068872824
-0.03490508
-0.31555384
0.08959528
-0.035102002
-0.21128607
0.33056998
-0.047314994
-0.20742495
0.2548953
-0.050219603
-0.20528403
0.11824291
0.4672117
0.029160162
-0.13975047
0.5109735
-0.013923051
-0.1478822
0.07110446
0.24237138
-0.29034987
0.19289978
0.21362217
0.091481425
0.144649
0.25856626
-0.027805088
0.18557788
-0.21879286
-0.11222717
0.8655769
0.44873583
-0.28278378
0.13492876
0.2759388
0.17128837
-0.18149026
-0.039924182
-0.13102108
0.11056236
-0.038179047
-0.055632826
0.033463016
0.003893709
0.45554513
0.17223698
-0.15931551
-0.040036354
0.29871875
-0.26544192
0.16649272
0.052350998
-0.32035366
0.4544596
0.17756367
0.21670322
0.3208985
0.18902002
-0.011856466
0.047875103
0.27185896
-0.04217514
-0.09580211
0.6562406
0.29134127
-0.059029527
-0.054812144
0.1641961
-0.0067736735
-0.17845973
0.086089194
0.50422055
0.16615349
-0.34774902
-0.07338512
0.013483809
-0.04243863
-0.09809697
-0.031695113
-0.2645879
0.12516145
-0.32311013
0.0928787
0.0045540803
0.6391991
-0.35224137
-0.105003715
-0.07323004
-0.037472088
0.5855108
0.16602582
0.49249157
0.15357688
-0.075938284
0.10097617
-0.0030293616
0.3638687
0.20691012
-0.30146024
-0.097414725
0.04326644
0.011303822
0.10171999
-0.085844345
-0.03622959
0.8363212
0.11293012
0.2950557
0.1788864
-0.13992049
0.064748205
-0.2755245
-0.22464712
-0.12648842
-0.054091435
-0.13546462
-0.114301994
-0.19287682
0.16602458
-0.13556609
-0.22690722
0.19936123
0.2926606
0.028444303
-0.014474711
-0.22283049
0.057355117
0.003029774
0.42648304
0.3566222
-0.09942219
-0.026685089
-1.1713853
-0.19503127
0.16555431
0.12116267
0.19343242
-0.45431593
0.032757666
0.046664797
-0.049787253
0.24020149
-0.18337096
-0.028798545
0.08620762
-1.0518336
0.1784898
0.14104106
-0.07832794
-1.3088917
0.16725898
0.12150292
-0.48048767
0.051699758
-0.07258384
-0.007212655
0.09953856
0.15681028
-0.13145544
0.03263896
-1.1489751
0.07732308
-1.0227633
0.048921786
-0.38943392
-0.15195113
-0.039873824
-0.023419313
-1.3602979
-0.80538815
-0.1542483
0.15898122
0.195755
-0.51582533
-0.014166362
0.04985049
-0.11765305
0.03374515
0.06434035
-0.1126477
-0.6716035
-0.3564372
-0.041687895
-0.22165653
-0.0085958345
-0.223017
-0.07934731
-0.38293085
0.23713271
-0.051306706
-0.090767525
0.106236905
0.11147417
-0.83525056
-0.978974
-0.21481344
-0.10485057
-0.14424811
-0.145111
-0.009037833
-0.052380178
0.11478467
0.17079794
-0.8534972
-0.0100429915
-0.12787881
0.27244616
-0.28433374
0.11890612
-0.5608496
0.08824385
0.23260586
-0.19058187
0.06996853
0.061330058
-0.31167206
-1.515676
0.11669309
0.011877373
-0.37400812
0.10632718
0.008224626
0.13892923
-1.2476778
0.16453113
0.16379002
0.100747995
-0.3938709
0.11613538
0.15309036
-0.13214882
-0.09039386
0.11906707
-0.8545894
-0.30087486
0.26935738
-0.035124663
0.09029933
-1.0947825
0.23884821
-0.10503741
0.048175916
-0.19153522
0.08713686
-0.37555176
-0.25407237
-0.76975644
0.12062643
-0.21535426
0.020646095
-0.14768144
-0.020298012
0.019021565
-0.03771152
-0.21108471
-0.15840326
-0.13576484
0.09440672
0.034922067
-0.043376904
-0.17446274
0.066755615
0.022089483
-0.08867494
-0.08187765
0.22205167
-0.12812051
-0.8329748
-0.28449705
0.0104465885
-0.42996103
-0.041990373
0.13111606
-0.17390284
0.18736091
-0.09164905
-0.041073784
-0.085464716
0.18519491
-0.0522001
-0.085081644
0.0964874
-0.24044904
-0.08916108
-0.10160316
0.10557453
0.2077837
-0.9323606
-0.11441252
-0.13391386
-0.018211566
-0.10722144
-0.10378768
-0.6109726
-0.051686253
-0.07119665
-0.45273095
0.115681976
0.052514497
0.2364303
0.011925827
-0.07111508
-0.95471126
0.12013484
0.16346976
-0.17585734
-0.625076
-0.36667296
-0.26830253
-0.5843689
0.00089169893
-0.15299375
0.04533778
-0.5581272
-1.1854327
-0.6803681
0.16172408
0.08531386
-0.18133505
0.17976554
0.08778596
-0.07003027
-0.016348366
0.22296336
0.15369472
0.1570494
-1.0750753
0.050662644
-0.6134796
-0.3286044
-0.50178856
0.35429862
0.16012622
0.1800967
-0.18859012
-0.38160095
-0.0029903112
0.73880446
-0.34955764
-0.32062292
0.21794337
-0.13401017
-0.06197528
0.057532057
-0.08328724
-0.2334345
-0.11836445
-0.12712178
0.52674425
-0.22297303
-0.08891669
-0.034458186
0.09220889
-0.1626435
0.47095183
-0.11579387
0.01256897
-0.13174331
0.28613278
0.12246621
0.20320489
0.12884916
-0.06906398
-0.3399312
0.15241557
0.19281362
-0.09385446
-0.16922757
-0.08569293
-0.22069374
0.04164905
-0.11556743
-0.115132585
-0.2976401
0.034850538
-0.21787551
0.20492196
-0.33434132
-0.10582466
0.37037823
0.095323384
0.20334049
0.3167338
-0.09734124
-0.04082813
0.4639008
-0.0008551976
-0.20016101
-0.18426321
-0.1944579
0.32661965
-0.13564426
-0.13567498
-0.11008022
0.07064655
0.17284174
0.18713377
0.07855674
0.26898962
0.21271363
0.008696667
-0.12792818
0.16586019
-0.1359263
0.021434212
0.2318186
-0.08264752
-0.114175715
-0.038395137
0.089219324
-0.40366244
-0.10485464
0.28598204
0.24320114
-0.40733135
0.77315134
0.006329277
-0.24125424
0.030051919
0.20251548
-0.049478333
0.21863069
-0.051953718
-0.26273435
-0.07947174
-0.01133867
-0.03498948
0.28959766
-0.32768866
-0.17102647
0.93341076
-0.1961315
-0.2112949
-0.017494017
0.28206763
-0.10791388
-0.28427222
-0.051154677
-0.15160948
-0.12955503
0.123383634
-0.30604354
0.22276524
0.11294911
0.6514597
0.13874285
0.008242824
-0.16519828
0.25389728
0.097066775
0.05187807
0.23464799
-0.32103628
0.6144206
0.11656864
1.9347343
0.490694
-0.07271428
-0.011403818
0.14816207
0.14843406
-0.19560277
-0.37022436
0.06488126
0.36416608
-0.17205773
-0.11163643
0.028617041
0.5203907
-0.10250803
-0.28088832
-0.17467132
0.041637562
0.055865843
-0.09100966
0.4033182
-0.15938982
0.16592816
-0.19780117
0.59658694
1.9268537
-0.19377817
0.12928255
0.094993785
0.12706839
-0.24176499
-0.3198975
-0.035437554
0.22639483
0.24000905
-0.11982168
0.15064621
0.3092848
0.06226367
-0.16839188
0.018018747
0.12601374
-0.036541864
0.09671174
-0.1397311
-0.0027315274
0.2214671
0.063868135
-0.2939361
-0.057585146
0.29417077
0.07375837
0.03862214
0.32649496
0.1240973
-0.07757205
0.18105276
-0.25589532
0.15499243
-0.20337829
-0.15980652
-0.13902374
-0.31459257
0.20814043
-0.194931
-0.40722767
0.20088585
0.34212896
-0.022260256
-0.028560607
-0.33111793
0.09378169
-0.087004505
0.45067137
-0.15645133
-0.09309467
-0.10454901
0.3698515
0.02460074
-0.15918082
-0.3147743
-0.112546705
-0.103558466
-0.25115022
-0.09139085
-0.05344064
-0.1313971
0.09618003
0.1486262
-0.20621149
-0.047291882
-0.6874251
-0.28322518
0.028376399
0.07633349
0.15647963
-0.41520762
-0.30806372
-0.117362775
-0.03780783
-0.021197064
-0.02509966
-0.05506866
0.027857758
-0.13544811
0.2714596
-0.01936586
0.02155863
-0.02242833
0.0074579115
0.04288448
0.11613356
0.089098975
0.40841463
0.2684976
-0.31663993
0.02270234
-0.5058612
0.15664545
-0.39814776
0.017813828
0.010641962
0.098322175
-0.06795869
0.009252154
0.040561795
-0.11649813
0.046792928
0.12307581
0.28297454
0.04723925
-0.60290617
0.30951142
-0.08630798
0.04630409
-0.08517255
0.0796994
-0.041071728
0.25624266
0.24967436
-0.83037096
0.09600276
-0.09282526
0.0068542045
-0.19973119
0.06007215
0.04923903
0.2106609
0.2911669
-0.13235937
0.047742818
-0.42220393
-0.21168114
-0.3133743
0.025094472
-0.012482535
-0.40554404
0.026826154
0.09158395
0.011431616
-0.133648
0.21824813
-0.36127588
-0.025821175
-0.102120474
0.08131441
0.07511324
0.36281905
0.024036754
0.02267213
-0.36955652
-0.094420046
-0.04892908
0.005542946
-0.029647363
0.05424612
0.007612934
-0.027287286
0.2195592
0.007694118
0.3277154
-0.20159449
0.012723949
-0.42339236
-0.19100508
0.019485012
0.009488609
-0.03420559
0.0076278266
-0.11551573
-0.40860122
0.029626923
-0.11732753
-0.046655066
-0.044329274
0.06829303
0.061803762
0.047316663
0.005038253
-0.17038885
0.043837205
-0.009452153
-0.17652455
-0.0021750624
0.086168095
-0.64449894
0.11990181
-0.22299212
-0.09848068
-0.13218617
-0.10196472
0.1710737
0.03834421
-0.28856066
0.020371664
0.2584491
-0.023664298
0.07454096
-0.13514008
-0.2198946
-0.18002374
0.009434678
-0.051217172
-0.054121487
0.019853838
0.10612927
0.031232191
-0.060514163
0.067610025
-0.11028386
-0.09325659
-0.20988391
0.3094713
0.09587483
0.10488529
0.085935526
-0.36602068
0.045203496
0.1436254
0.17937128
0.16805859
0.15665206
-0.2870477
-0.03501798
0.1395727
0.10031534
-0.005502215
0.2034392
0.03535132
-0.2101764
0.007669821
-0.41744524
-0.092706166
-0.011472956
0.095004775
0.0038088558
-0.27395502
0.048198167
0.028478457
-0.49303463
0.17201376
-0.3382481
-0.37463802
-0.44856432
-0.23723488
-0.120248824
-0.026680158
-0.022876611
-0.3343667
-0.30084512
-0.5069138
0.18951717
-0.05734539
-0.14654559
0.09607377
0.24865815
0.36106145
-0.41840324
0.037093192
-0.032442227
0.0650219
0.22350347
0.23055243
0.17239961
0.032805957
0.5326163
0.084189616
0.17635421
0.057147823
0.026736913
-0.37960103
-0.015718376
0.017413393
-0.11317628
-0.4108555
-0.015426565
0.19809848
0.3115432
-0.18883409
-0.014084517
0.061644573
0.18440291
0.03163036
0.113462575
-0.33223474
-0.2537286
0.08272328
-0.66251
0.13843346
0.18546243
0.18870252
0.3779503
0.1249901
-0.21523057
0.049640525
-0.1963577
0.069952495
-0.16293812
0.07948177
0.23684013
0.07688256
0.15815362
0.09899306
0.05821568
-0.055425245
-0.15163569
0.10733649
0.010832968
0.10735199
0.008421717
0.06757581
-0.23427132
-0.53383636
0.09423845
0.13395475
0.00026188995
0.026924832
0.06023474
-0.065815784
-0.37773028
0.29588124
0.012069116
-0.036680937
0.10816464
0.36501348
0.11313434
0.038876858
0.35069072
0.058323894
0.1887222
-0.06380139
-0.41716653
-0.082813025
0.11023417
0.3535142
0.13302763
0.17333356
0.2303861
0.31670368
0.07284147
0.05777626
-0.12695782
0.020392288
0.0074562575
-0.2037487
0.07856759
0.05229931
-0.53276867
-0.18558992
0.15405205
0.057317927
-0.1900958
-0.06555486
0.12993792
0.07557509
0.035155915
-0.015200988
0.1147681
-0.27400872
0.10039863
-0.13737622
-0.16730195
-0.010138045
-0.13723615
0.09995383
0.035108875
0.13914487
0.122322395
-0.22716576
0.11313026
-0.11873003
0.41018912
0.07088176
-0.035772208
0.122655
0.1087714
0.04470491
0.082437254
-0.041983057
-0.35428277
-0.09376312
0.0020137145
0.08552156
0.06376926
0.06651705
0.08397772
0.032065757
0.08513668
-0.15368666
-0.008772418
-0.023804005
0.14458442
-0.28194636
0.12068542
0.0024249905
0.14133681
0.11990284
0.14609227
-0.02565399
-0.16727553
0.14810094
0.009555558
0.1990363
0.057782445
-0.1701931
-0.09983702
-0.0077881385
0.128776
0.10220989
-0.07602843
0.010679266
-0.11583567
-0.13981251
0.14599441
0.06498791
0.29253012
0.01272296
-0.05913344
-0.8042067
0.039473787
0.18756965
0.23158057
0.08967007
-0.013452509
-0.36446157
0.16490282
0.07266782
-0.24118775
0.06726028
-0.088515736
-0.03921593
0.17797042
0.14522727
-0.08731092
-0.6146594
0.032540854
0.16508228
0.028399121
-0.20792224
-0.11426579
-0.71870697
0.0761162
0.034585014
0.32439718
0.015467159
0.17491503
-0.024206176
0.0033610445
0.13177371
0.14266334
0.040306173
-0.043309294
0.06787587
0.12806925
0.021438181
-0.5941888
-0.73574764
0.1401105
0.0668741
-0.059451055
-0.027051706
-0.6309748
0.018082924
-0.0063234335
-0.014160848
0.12683856
0.019431481
0.016381135
0.008115367
0.103395715
0.21051739
-0.09503499
0.008922803
-0.036147967
0.12311553
-0.68191737
0.16299823
-0.46244666
-0.5875538
0.16487609
-0.008768645
-0.6793492
0.08503002
0.011526339
0.116172545
0.070524596
-0.009185107
0.016659312
0.04208025
-0.02108332
-0.0036572614
0.010274051
-0.057246987
-0.035145547
0.113092706
-0.07623648
0.04397884
-0.23737454
0.087649584
0.2954011
-0.0013348105
0.04532995
0.050690994
0.012429734
-0.014249863
0.14811604
0.21007217
0.025706515
0.072414845
0.14428778
-0.0070508868
0.20169997
0.170234
0.02005049
-0.03578318
0.012222857
0.00625315
0.008649363
0.06741745
0.1167239
0.3597185
0.06412373
-0.4428807
0.087065294
0.19281189
0.04417062
0.040744122
0.1296804
0.15001988
0.13958631
-0.012330899
-0.31176472
-0.52232236
0.16597222
-0.005489337
0.018917112
0.095287785
-0.12005951
0.11340133
-0.01715704
0.11778308
-0.07682932
0.042393826
-0.067260236
-0.13872509
-0.04746144
0.11116689
-0.33476853
0.18262243
-0.4558755
0.21282357
0.074394524
-0.05683821
-0.0455602
-0.041511647
0.07254465
-0.045987595
-0.039632663
0.10484856
-0.068699606
-0.7370448
-0.5319492
-0.07488056
0.19758704
0.109117866
-0.059012666
-0.06208534
0.021809245
0.0556455
0.07765918
-0.5008635
-0.0058008167
0.013527318
-0.0824277
0.17963526
0.12798075
-0.0682063
0.07529243
-0.034084454
-0.546234
0.03369087
-0.1445837
0.15409757
-0.07661339
-0.0030684406
-0.10134677
-0.059546933
0.01556478
-0.029702932
-0.06361477
-0.037394214
-0.03650726
0.03981275
0.22262213
-0.100228556
0.09552485
-0.05946664
-0.069653936
-0.28762943
0.018663833
0.16635019
0.2017645
0.012518312
0.064823255
0.24388218
0.015351685
0.06303325
-0.05039328
-0.039753713
-0.03620267
-0.04365293
-0.5598774
0.058249462
-0.04044572
0.03757983
0.0036564532
0.20163478
0.010498751
0.03158325
0.03129163
0.059220884
-0.4906011
0.18975632
0.10164805
-0.19557512
0.09487505
0.09517525
0.054898135
-0.045027792
-0.10383682
-0.11711588
-0.21929254
-0.7614869
-0.05663893
0.08768236
0.046714626
-1.0727979
0.040123913
0.07172
0.22745696
0.015539277
0.028209405
0.006128744
-0.16798156
-0.038984742
0.039753657
0.03105176
-0.025253342
0.014465748
0.005281391
0.09211174
0.019628147
-0.06557818
0.005105146
0.041455023
0.08749331
0.021502376
-0.060119778
0.058456954
-0.05123315
-0.0744606
0.13854241
0.11506937
-0.15086043
-0.15740505
0.5864725
-0.09675685
0.42039073
-0.06651526
0.05121101
-0.1604733
0.066758014
-0.02975454
-0.7090867
-0.001995471
0.21932042
0.008114715
0.32889912
-0.11150713
0.0005537263
-0.23790887
0.22946642
-0.02832541
-0.2528153
0.313585
-0.022174928
-0.14127545
0.2219181
-0.454356
0.4637949
-0.09987978
0.42314667
-0.2182047
0.0451079
-0.37302598
0.25593314
-0.033945177
-0.0036569564
-0.26619375
0.4822587
-0.21700875
-0.12096889
0.12885967
-0.10320335
0.3055345
-0.00067187287
-0.18979841
0.4186019
-0.2095459
-0.09399146
0.33615062
0.1934008
-0.052946974
-0.13309164
-0.071643814
0.087103836
-0.15456837
-0.1528168
-0.2775066
0.019278318
0.23759042
0.13355036
-0.028013725
-0.23782474
0.48852262
-0.30077973
0.00360979
0.26659653
-0.34593242
-0.06565818
0.14509036
0.07960166
-0.013290755
0.020483335
0.3133699
-0.19220048
-0.018629067
0.3732364
0.40544015
-0.19033329
0.21954358
0.063344084
-0.12729776
0.017411051
0.3877968
0.009443382
-0.026475132
0.055627406
-0.050282493
0.24806903
0.05307459
0.09114232
0.41275942
-0.19777906
-0.019080363
-0.07580867
0.22834262
0.0632031
-0.1245761
0.32856983
0.16173111
-0.081801444
-0.047681697
-0.096316636
0.0371919
-0.15295258
-0.43265224
-0.20660459
0.32234603
0.16666088
0.2899762
0.25725654
-0.038393427
0.91160506
-0.12315577
0.11406415
-0.10946102
-0.120571494
-0.59134954
0.2534629
0.02148423
0.08634073
0.00035043954
-0.08033712
-0.19558237
0.15539056
-0.1477651
-0.15580043
0.15132295
0.23518965
-0.056640048
0.28676325
0.11278538
-0.019262573
-0.115821734
-0.31218943
0.101413034
0.061485767
-0.16565026
-0.023074428
0.02080082
-0.101737544
-0.14878564
-0.10242646
0.025554951
0.12624998
-0.12678201
0.55083936
-0.01730519
0.12552243
-0.1005186
-0.027646573
-0.28895366
-0.17584461
0.20384368
0.422957
0.040080883
0.3758525
0.048119083
-0.2609099
0.04291787
0.10162956
0.061236635
-0.139113
-0.03885509
-0.35790488
-0.21340273
-0.10740756
0.009638468
0.044181976
-0.0006363285
0.09656157
0.36339253
0.48870766
0.05819247
-0.11006542
0.1343623
-0.14823371
0.18455626
-0.03855256
0.06069694
-0.023677718
-0.1382705
0.13233452
-0.013325873
-0.19748497
0.42078254
0.4314883
-0.013007892
-0.030428134
-0.047708936
0.04513349
-0.04811192
0.22659087
0.002995153
-0.06658748
0.043175004
-0.3127337
-0.55527514
0.0728323
0.017624924
0.16453771
0.201991
-0.08436581
-0.026357552
-0.06418864
0.038518943
0.099039696
-0.030390134
0.07584171
0.036035962
-0.07916875
0.031050954
-0.055123642
0.07682961
-0.100605875
0.09871505
0.18576996
0.042171966
-1.4512562
0.023428096
0.16398464
0.044551425
0.052879456
-0.69967955
-0.28062183
0.18200967
0.09595178
-0.03192698
0.06797302
0.09694091
0.03338554
0.08738028
0.24324149
0.17606519
0.016624607
-0.018854542
-0.0382099
0.084159575
0.04767167
0.018247923
0.07302715
0.00084505015
-0.013429137
0.01978152
-0.35291666
-1.593589
0.06439337
0.08249338
-0.6523823
0.0855568
0.2477156
0.015896328
-0.036611546
-0.021147056
-0.008377808
0.0906575
-0.0017747867
0.16478784
-0.33631536
0.14813817
-0.78027517
0.24042727
0.021488331
0.06662533
0.088803336
-0.020896912
-7.5748057e-06
0.13034965
-0.32434222
-0.047601245
-0.07467492
0.1417118
0.15684259
0.008962401
-0.035469312
0.09736053
-0.090978496
-0.059937283
0.00039318326
0.0878439
0.15815657
-0.08435934
-0.010109
0.24705522
0.10086317
-0.06875346
0.13630593
0.067681566
0.13790506
0.119210854
-0.23864044
0.21891563
0.041058004
-0.032075536
0.032886826
-0.07385569
0.08555137
-0.32969195
0.081161484
0.14231823
0.11479276
0.05469623
0.18361202
0.13021846
0.038588487
0.040615354
0.06847747
-0.7744802
0.19192073
0.1681259
0.0041076266
0.039640635
-0.024824528
-0.6934835
-0.053755067
0.030362252
0.02696831
-0.008388999
0.09316028
0.028761381
0.072210655
0.07752222
-0.04571214
-0.0035767944
0.08313448
-0.015885381
-0.5307951
0.081467986
-0.01599513
-0.24507457
0.112823784
-0.34347492
-1.5062089
0.06917195
0.05473823
-0.037405577
-0.121882096
0.19428597
-0.21356438
-1.6263186
-0.76481277
-0.14309813
-0.011368908
-1.5275807
-0.084517546
-0.0064390725
0.039359886
0.06215604
0.0048921937
-0.05613901
0.118826985
0.11632018
0.103718586
0.039206605
0.053492263
0.014701409
-0.031357612
-0.20433429
0.011182439
0.013275877
-0.21540417
0.10508104
0.13550885
-0.013657474
-0.06854323
0.03478267
-0.3867987
0.018419506
-0.14272568
-0.085606836
0.21214883
0.12103611
0.008413602
-0.41331777
0.037585188
0.30608746
0.061084226
-0.5497956
0.15305117
0.14354412
-0.17718412
-0.05186787
0.067872114
0.010976519
-0.086795926
0.09684587
0.09665505
-0.02463498
0.023149265
0.014270974
-0.19886696
0.013022027
0.17495602
-0.08909468
0.114865474
-0.029042551
-0.098047055
0.0033475626
0.0020030134
-0.062701166
-0.058677644
0.46349204
-0.05321812
-0.064512126
-0.042944144
-0.11269469
0.16216049
0.08560855
0.037068874
-0.124283336
0.059849296
0.035207827
-0.29671344
0.079927966
0.21636286
-0.100300744
-0.027152814
-0.059332855
-0.23574507
-0.20454386
-0.041816052
-0.0038211604
-0.0320186
0.05850415
-0.10415615
-0.113442756
0.06777019
-0.06881364
0.023181997
0.095261455
0.18605223
-0.1387546
-0.05157554
-0.089751534
0.058136366
-0.07834533
0.048104364
-0.2315033
0.12745276
-0.007886478
-0.18859872
0.097942546
-0.049311366
0.13901003
-0.07913336
0.23536445
0.13297395
0.034087073
-0.25973922
0.1266625
0.07178451
-0.14970137
-0.028924802
0.09969682
0.0026653388
-0.13076714
0.010023757
-0.033130035
-0.0778064
-0.11159424
-0.076423764
-0.004989833
0.09944643
-0.01775478
0.0123482365
-0.08155806
-0.18865454
-0.15608497
0.05969732
0.07894798
0.003433912
0.018724397
-0.023141852
-0.023201514
-0.074967586
-0.10280606
0.027170297
-0.25285935
-0.12432638
0.52071136
0.08345098
0.0645175
0.07003806
0.13911387
-0.016984116
0.16399992
-0.003092887
-0.08636548
-0.0075026285
0.03027695
0.052547798
0.1500891
-0.0055343327
0.015353217
-0.21474174
-0.02654433
0.0635447
-0.17526591
0.07689067
0.08312739
0.054143634
0.054682966
0.17220788
-0.04254061
0.076163635
0.04078729
0.046333965
0.04536863
0.27296826
0.29827538
0.025721833
-0.06557693
0.20337373
-0.026625644
-0.18644938
0.0679328
-0.078171894
-0.36674482
0.27193767
-1.2123396
-0.034735817
0.052870017
0.001442236
0.030832274
0.33675364
0.029443532
-0.117541134
0.005983439
0.024898397
-0.043786567
0.20763636
-0.10026068
0.20470189
-0.03599135
-0.16755384
0.110526666
-0.023068111
0.020021548
0.010808325
0.27876362
-0.27238238
-0.058121163
-0.050363462
-0.15351361
-1.1673737
0.027628921
0.04747931
0.084700406
-0.00557261
-0.036374766
0.149988
-0.11299032
0.026464732
0.048386954
0.19210637
-0.1355615
0.077578776
0.0018882741
0.097274385
0.11942279
-0.04988963
-0.021441737
-0.005049705
-0.08021526
-0.15885352
0.061086975
-0.050567493
0.083502375
0.017692517
0.20589826
-0.00306628
-0.01046437
0.073538125
-0.041484546
-0.046822067
-0.013717786
-0.069188975
-0.03381257
0.07802857
0.06570155
0.0731511
-0.05444401
0.2672423
0.05603264
-0.1966023
0.081536785
0.079156846
-0.12984374
-0.0017978867
-0.02113068
-0.010550036
0.018335246
0.41771683
-0.05174969
-0.18115857
-0.10887383
-0.76368564
0.08128455
0.1609244
0.17788526
-0.1176413
-0.32194483
0.07499448
0.08659024
0.12176201
0.18059225
-0.3108662
-0.15055732
0.30305356
0.078251556
0.102205366
0.08958557
0.24725342
-0.0968083
0.05420135
0.0713622
-0.26776177
0.28888997
-0.04883064
0.120846756
0.17341956
0.037222367
0.053150676
0.03705651
-0.8519212
0.100304864
-0.17243777
0.03606293
-0.09086094
-0.03921478
-0.14916418
-0.14956158
-0.32365888
-0.10282986
-0.12629902
0.17841241
0.18771482
-0.09177635
0.13583633
0.032572404
0.12592146
-0.030697208
0.03475582
-0.13926461
-0.5131959
-0.19846325
-0.23680337
0.024213634
0.0030148025
-0.123458385
-0.07345851
0.2191578
0.14818701
-0.01000007
-0.07324428
-0.03643659
0.13722683
-0.19009641
-0.5747397
-0.29740694
0.05922807
-0.1739067
-0.029592404
0.100240655
0.021575786
0.0824825
0.1311865
-0.2118823
0.17144991
-0.09790625
0.21531402
0.14824298
0.23471677
-0.04441921
0.08252386
0.08726387
-0.18053816
0.15402153
0.053691037
-0.43338504
-0.8726466
0.16066214
0.07242055
-0.106870055
0.1560853
-0.04388774
0.18548942
0.053391177
0.06571134
-0.09004805
-0.01870874
-0.055553697
-0.017348344
0.095720075
-0.13027596
-0.18802218
-0.064205416
-0.5231453
-0.14967012
-0.039596606
0.23649547
0.0063528176
0.03116735
0.30622187
-0.042753357
0.0027988718
-0.043283027
0.18835068
-0.453165
-0.08427521
-0.42185783
0.16914314
-0.010061055
0.077507354
0.0056697014
-0.034959417
0.027554967
0.3111081
-0.09101119
-0.022462346
0.22504115
0.2919827
0.10917713
-0.017815335
-0.20304993
-0.0015328728
0.19539389
-0.17625456
-0.12077541
0.1479784
-0.20880334
-0.21902128
-0.16406192
0.037996396
0.066960625
-0.16073468
-0.050694164
-0.20765728
0.25942522
-0.13561566
-0.061256
0.039382037
0.19111007
-0.13504423
-0.07546643
0.07399448
-0.1453361
-0.20827651
-0.062409762
0.12759012
0.2739591
-0.08374573
0.0214092
-0.03674876
-0.095615186
-0.17282936
-0.37316838
-0.16269238
-0.040286597
-0.2145586
-0.580351
-0.010615991
0.04810083
0.26332557
0.024843954
0.025641158
-0.5259883
-0.16105065
0.2572785
0.202592
0.012331098
0.038446434
0.027136596
-0.20296971
0.067541614
-0.19613028
-0.040768936
-0.39036906
-0.0020350718
-0.008601599
0.22071028
0.10452349
-0.13321424
0.10819005
0.18281035
-0.3110715
-0.08162413
0.1346443
0.12735295
0.18765776
-0.8744443
0.14258407
-0.36601928
0.11048904
0.10916346
0.28039372
0.018272065
0.02362925
-0.07867569
-0.07481874
0.14169376
0.14366019
-0.24892706
-0.07098783
-0.025693825
0.07771679
-0.0057771094
-0.04129786
0.13588354
0.082914434
-0.119686484
-0.07331443
0.10440919
0.08636428
-0.13098876
0.038641877
0.017722327
0.41366413
-0.49290997
0.033734877
0.09028328
-0.0013060067
-0.005035129
-0.05876693
0.06973099
0.077403046
-0.26124266
0.031023266
0.004663263
0.03475977
0.007097045
0.053471703
0.19085677
0.17526883
-0.1412532
0.039917056
-0.13629405
0.24346438
0.18643191
0.025678735
0.036830526
0.12718053
0.019269144
-0.026965097
-0.19118068
-0.5716913
-0.12322558
0.22134016
-0.46609905
0.09537357
-0.2651441
0.23802699
0.078608915
-0.02384219
-0.0016965244
0.09214668
-0.031470027
0.14262602
-0.07468836
-0.26195034
-0.15697697
0.20513122
-0.025387421
0.09365495
-0.07353155
0.00460192
-0.008218445
0.26904377
-0.7011185
-0.054224
-0.17648458
0.30503526
0.11374886
0.1057563
0.021524701
0.06906943
-0.030364426
0.016671764
-0.0055740825
0.08603906
0.016205573
-0.08229525
0.029403945
0.05725785
0.081033215
0.036833122
0.05068135
0.14143664
0.16896246
0.086639225
-0.21275681
0.13695386
0.011446278
0.0085584195
0.10260497
0.19034497
0.11053668
0.022990843
0.13411537
-0.022865118
0.43460494
0.03476153
0.17243646
0.1558409
-0.04728869
0.00236277
0.023623275
-0.030550938
0.072265126
-0.0576948
-0.22871634
-0.025119396
-0.026275288
-0.74453723
0.15131065
-0.08490283
-0.024594273
0.05022332
-0.06070796
0.16715229
0.05461959
0.118877396
-0.050282884
-0.027831405
0.1655884
-0.0030946063
-0.6178954
-0.022609912
-0.1364543
-0.39861953
-0.020686144
-0.12998599
-0.46933052
-0.037563402
0.25647578
0.14864914
0.2812234
0.17529385
-0.29462734
-0.4385154
-0.4377309
-0.49818507
-0.004878635
-0.49596822
0.23153731
0.0017077845
0.058453348
0.039121114
-0.12473946
-0.003868578
0.4869339
0.23192586
-0.02882551
-0.07627274
0.038182788
-0.08717779
-0.1399802
-0.16721956
0.15531981
-0.057551164
0.2993692
0.07946436
0.20445254
-0.1253725
0.01841965
-0.01127227
-0.066194795
0.07524296
-0.22444923
0.07546599
0.1801433
0.096911326
-0.19002666
-0.023508685
0.016913746
0.16367334
0.08911042
0.09112808
0.15700427
-0.06756819
-0.35343233
-0.10327579
-0.011347543
-0.043282095
-0.099341206
-0.24776734
-0.0927581
0.0070712673
0.027371889
-0.22587155
0.08500665
0.02782623
0.2592577
0.250688
0.17893171
0.012994335
-0.025659854
0.0059253722
-0.09968106
-0.1350802
0.22531894
0.22172786
-0.16702996
-0.19496769
0.037904367
0.085661374
0.14242677
0.2887966
-0.15188795
-0.008196793
0.026422406
-0.027487192
0.35409957
0.034343906
0.21679088
0.106671534
0.26641038
0.028113265
-0.10165807
-0.22201802
0.17303139
-0.03780828
0.008489456
0.36696967
-0.059205815
-0.25449744
0.1118354
-0.19531795
0.11663494
0.21805316
0.052208096
-0.24302006
0.13571538
-0.271554
0.19418311
-0.064454705
-0.009208933
-0.24148516
0.017068416
-0.032581147
-0.09060937
-0.08640911
-0.08902444
0.6985551
0.036433227
0.03808786
0.58622503
-0.37352172
-0.0950838
0.5452516
0.084868506
-0.043303426
-0.10214046
-0.02409014
0.123059444
-0.21005425
-0.056667045
-0.25188598
0.020034278
0.06239728
0.10629991
-0.1516315
-0.07836418
-0.11036694
-0.071507715
-0.01911821
-0.18500996
-0.19722871
-0.176889
0.107201286
-0.021906693
-0.26017323
0.0030513848
0.13100877
-0.22819743
0.0908132
0.2842413
-0.031432234
-0.17055611
0.21217233
0.16356325
0.006356385
-0.082327306
0.44429937
-0.08879884
0.16595912
0.11010762
-0.05206268
0.2779987
0.0908897
0.11432456
0.5157196
-0.13050672
-0.026444566
-0.12568936
0.0015064171
-0.16677597
-0.006095047
0.5072299
0.09430178
0.004836193
-0.043652028
-0.23520832
-0.06053776
0.12424336
-0.06658221
0.0039295545
0.27588418
0.11744121
0.29436746
0.22958805
-0.0015752845
0.4172485
-0.2277651
-0.056837425
0.22004618
-0.17976077
0.23883557
0.16077691
0.13398126
-0.028347677
-0.09273105
-0.024786863
-0.028065428
0.12918076
-0.21295871
-0.05842338
0.036875356
0.21137059
-0.007411569
0.16976726
0.0902925
0.07315609
-0.03615839
-0.30588984
-0.05935372
0.11133291
-0.30743092
0.026367879
0.030598795
-0.019278966
-0.23953407
-0.041006852
-0.07101492
0.18035512
-0.17741175
0.181815
0.22644609
0.18231195
-0.067725874
-0.111472376
-0.25169447
0.13728665
0.13013442
0.01842176
0.075722985
0.38643175
0.18629079
-0.25116807
0.3021053
0.082299605
0.11959079
-0.26887283
-0.0027462244
-0.24546644
-0.037735965
-0.11930716
-0.05268901
0.022072932
0.44552606
-0.15601848
0.06384187
0.5024947
0.082756415
-0.16758615
-0.09166701
-0.08886489
0.2203515
-0.121298335
0.097509146
0.0049511003
-0.12460858
0.23891158
-0.086215965
-0.102563724
0.34038502
0.6218998
0.038279142
0.07453607
-0.043218143
0.013313237
-0.064669855
0.040287804
-0.101731814
0.047173932
-0.037283476
0.052058015
-0.15298721
-0.07164168
-0.07722657
-0.029664475
-0.0027551826
-0.11819683
-0.1692697
0.043033794
-0.11671222
0.244124
-0.38077095
-0.1933411
0.11212831
-0.09400022
-0.114726655
-0.78220356
0.14804412
0.19739397
0.019709358
-0.022807833
0.03556383
0.18638851
-0.23064265
-0.0611067
-0.14093104
-0.25897527
0.103200234
0.08659857
-0.02496759
0.012299352
-0.50895745
0.48032007
-0.35712662
0.7283342
0.23756918
-0.0027447152
0.034568198
0.28417474
-0.13470104
-0.07945835
0.075256474
0.00027006774
-0.621097
-0.18989798
0.68466556
-0.107570834
-0.045092836
0.29263127
0.10877182
0.34086454
0.04889908
0.0840049
-0.19921345
0.03874056
0.10930717
-0.099921815
-0.14707145
0.111837335
0.057160404
-0.120190516
0.028170008
0.17091642
0.5726491
-0.22726174
0.024776401
-0.24709061
0.0057144826
-0.31813535
-0.29220527
0.40367234
0.031520303
-0.08336438
0.18223086
0.04508207
0.12579328
-0.121065095
0.39929968
-0.17811753
0.011527484
-0.17591827
0.21152656
-0.1188085
-0.0155134415
-0.025956059
-0.073688775
-0.035977602
-0.096653946
-0.042665344
0.129422
0.19713423
0.25334653
0.0402112
-0.07776817
0.0892316
-0.07984842
-0.46099907
-0.17132457
0.45574424
0.9509927
-0.0015285042
0.19420844
-0.089209855
0.2942684
0.0120565435
-0.23305415
0.06647555
-0.06707174
-0.36917266
-0.5999021
-0.2023853
-0.045431044
0.19362648
0.28315237
0.15810616
-0.15965132
-0.12893489
0.01856006
0.3949602
-0.30401298
-0.15892904
-0.59156644
0.28930682
0.15129016
-0.25118822
-0.11970142
-0.0412966
-0.20680459
0.10444746
-0.44492435
-0.037987363
0.14635901
0.19416232
-0.046912525
0.21477458
0.4333538
0.08109053
-0.14170536
0.06598343
0.74148786
0.01849138
-0.005896315
0.02652664
0.09128242
0.16631088
-0.028095502
-0.111805305
0.12753022
0.09646296
-0.12813765
0.51029813
-0.1950169
0.17590858
-0.099266656
0.06099914
0.00229814
-0.28395894
0.27834374
0.6362017
0.16008519
0.42069367
0.05883612
0.104978986
0.018131882
0.27245352
-0.096816
-0.09011734
-0.009329289
-0.24313298
-0.23138656
0.19436814
0.096010566
-0.07142541
-1.0239239
0.06374701
-0.038501844
-0.06289471
0.04420613
-0.07615993
-0.04088185
-0.5157385
0.08971315
0.13788459
0.07194469
-0.09154433
-0.17720187
0.162234
-0.04120433
-0.17163216
0.48213664
0.10480306
-0.006006743
-0.06674087
-0.038933996
0.023756962
-0.15157403
0.0058595925
0.27142575
0.025451155
0.037422966
-0.6309656
-0.91991305
-0.009861817
0.024047572
0.2648108
0.10939771
-0.040543415
-0.027264467
0.004226205
0.008665709
0.11737874
-0.0018743933
0.01794165
-0.10814246
0.016164497
0.018343616
-0.07521627
0.14418556
0.37507644
0.04149889
0.35975122
-0.2530019
-0.10116417
0.0037504912
0.16676036
-0.035996865
0.028599484
-1.1925236
-0.56807333
0.037097894
-0.0305889
0.048278973
0.35207424
0.067321405
-0.034032464
0.21194799
0.04169672
0.119404845
-0.10063107
0.027560258
0.06021437
0.24636321
0.13497548
0.055723168
0.077700764
0.02411956
0.046461035
-0.06931529
-0.62372017
-0.27210224
0.015762301
-0.011863541
0.10253218
-0.006294497
-0.090522416
-0.39248165
0.12288416
0.07844787
0.01091678
-0.0024632239
0.034565736
-0.07638237
-0.49072275
0.08717895
-0.9381656
-0.3705708
0.08710305
0.03727731
0.053125203
0.077489235
0.026567947
0.1505434
-0.012287268
0.014675351
0.01367879
-0.46468636
0.07256845
0.1761293
0.03648905
0.017145935
0.0015346401
0.08360332
0.03161639
0.11245304
-0.10728839
-0.012106102
0.075437486
0.14649487
0.0324421
0.008447871
0.15136866
0.041324798
0.12690105
0.089121364
-0.1495598
0.22465014
-0.029218022
0.056202278
0.15577452
0.035502724
0.071410656
-0.5329418
0.00865468
0.30010813
-0.23735645
0.04863986
-0.060388714
0.023047347
0.018893234
0.06464777
0.057570953
-1.0280812
0.18450032
0.123643234
0.13690661
0.03549962
-0.19492996
0.059994932
0.316633
0.045056574
0.07848421
-0.035586752
0.2252378
-0.057032168
-0.019624716
0.05356447
0.058067754
0.12595126
-0.024805497
-0.0429426
0.06781029
0.13796069
-0.027727477
0.0593336
0.14877358
-0.34531024
-0.22775126
0.04514118
0.13544486
-0.06489485
0.36324263
-0.4236664
0.034377784
-0.31327787
0.026165131
0.010834463
0.037596382
-0.2733585
-0.059790213
-0.032112617
0.18513788
0.07471891
-0.112356395
0.07300615
-0.24470298
-0.03954237
0.0065055615
-0.005753737
-0.017332563
0.1656783
0.09411394
-0.33291495
0.031942353
0.06855471
0.7635823
0.16025521
0.011820832
0.07005299
0.047426943
0.17503153
-0.519578
0.063673034
0.106347576
-0.11715218
0.016578922
0.2711752
-0.11772012
-0.5160542
-0.011717817
-0.4538218
0.02209404
-0.4033519
-0.057034783
0.018854955
0.07926044
0.03271315
-0.04606254
0.08637538
0.033044882
0.014322443
-0.12234634
0.114075765
0.05418938
-0.009593894
-0.29477772
0.051467378
0.28160244
0.0998158
-0.15961134
0.14126883
0.19110128
0.21405292
0.068836726
0.12175081
-0.038975798
0.00023893711
0.06968975
0.05165379
-0.15256667
0.025709588
-1.3636649
-0.33772162
0.21025118
0.21990603
0.11866596
0.035467807
0.06941706
0.34525782
0.13239896
-0.08557869
0.11988899
0.07774338
-0.053359084
-0.0545876
0.12706885
-0.1391281
-0.08811178
0.14008798
0.022485726
0.045293283
0.39249855
-0.18478641
-0.8175829
-0.25578955
-0.10361374
-1.2946864
0.08103556
-0.38085866
0.016660579
0.049914505
0.15171273
-0.3276178
-0.046343654
-0.24532852
-0.0005147649
-0.20294538
-0.07298552
-0.12868309
-0.3492166
-0.13807711
-0.18582769
-0.21761987
0.049740836
0.007909596
0.05738635
0.2153296
0.06342545
-0.39916515
0.06589439
-0.1216157
-0.06489277
-0.43852416
-0.22485343
-0.2611148
0.13269839
0.32009235
-0.16745028
-0.03719096
-0.15965325
-0.1906452
0.16530684
-0.2935563
-0.011369825
0.051881175
0.13194007
0.10397109
-0.011123206
-0.44355732
-0.029856032
-0.11332151
-0.14328521
0.1306468
0.019793604
-0.09098513
0.43245068
0.015606616
0.024229007
0.21998984
-0.16120183
0.06751793
0.05569365
0.12046588
0.011062843
-0.110599786
-0.013455712
0.16090372
-0.060093816
0.042706277
-0.20080988
-0.5503601
-0.20463946
-0.31011644
0.09250511
0.031291794
0.13306299
-0.12130386
0.20123178
0.10618348
-0.26498625
-0.1773489
-0.11375923
0.18099932
-0.28691956
0.053393576
0.23542123
0.10473999
-0.22563656
0.0213494
-0.58937466
-0.2378119
-0.030514792
0.2439889
0.04361877
-0.12418577
0.0006230776
0.099106476
0.0037587571
-0.20779304
-0.054125972
-0.21074209
0.17627372
0.06083932
-0.03557066
0.10159249
-0.8643064
-0.5164029
-0.33131358
-0.01980569
-0.4012107
-0.2636805
-0.14354546
0.21256943
0.07885932
-0.28230625
-0.024001965
-0.06672734
0.10045519
0.028075002
-0.2244447
0.016479298
-0.95383257
-0.27412528
-0.0063116997
0.045552187
0.004074758
-0.474298
-0.17471948
-0.023889292
-0.12497757
0.077353835
-0.27517503
0.31328082
-0.4351921
-0.53825074
-0.4228379
-0.13854633
0.1769437
0.1716293
-0.21011373
-0.19172594
-0.39761338
-0.3729641
0.15018497
-0.00011542392
0.5560982
0.18368071
-0.14067277
0.2938029
-0.16213647
0.42817706
-0.06143612
-0.0056426306
0.15442082
0.2443946
0.12175934
0.10469474
-0.031578552
0.14651598
0.07915398
-0.3921159
-0.15130615
-0.017048812
-0.0077630705
0.11210293
-0.10231818
0.009023223
-0.19466995
0.026861878
0.15166153
0.13052927
0.11592867
0.10145448
-0.064851195
0.010127724
0.31722298
0.17356731
-0.022189716
-0.02027751
-0.38856778
-0.2509791
-0.032121792
-0.063772656
0.081291445
0.34687388
-0.27613965
-0.13990101
0.0849629
0.072528794
-1.0819887
-0.20054495
0.29745135
0.17380087
-0.457134
0.011948947
0.44519353
0.010515946
0.045430955
-0.034233917
0.07903972
-0.22833668
0.11971936
-0.051087394
0.008275051
-0.031512186
-0.7648601
0.045687012
0.25540364
0.19695628
0.09555696
-0.10526337
-0.21882328
0.17525071
-0.12582079
-0.059157275
-0.11379084
-0.42958444
-0.11095701
0.21355735
-0.056042798
-1.020801
0.17383893
0.028457385
-1.057245
0.1740197
-0.110478036
0.1956331
-0.20284969
0.048042163
0.09853428
-0.3025846
0.0073521878
0.31776077
0.055961717
-0.2498543
0.008049282
0.11243264
0.021202995
-0.55210674
0.0823836
-0.10960978
-0.76364446
0.21564294
-0.17417862
0.005490007
-0.1494763
0.18061745
0.14129324
-0.10289771
-0.06635195
-0.046051137
0.108881935
-0.525565
-0.040907912
0.06495367
0.1071919
-0.056459695
0.029171215
0.26215628
-0.07310142
-0.009143915
-0.0078026946
0.31242913
0.2812784
-0.11798378
-0.06603454
0.3380888
-0.033497218
-0.014917344
0.099184446
-0.13658006
-0.17554887
0.061269697
0.25574318
-0.7979215
0.22653978
0.0057328423
0.22711267
0.021976767
0.060104545
-0.0007559106
0.12679769
-0.074644975
0.17666005
-0.3668468
-0.03290144
-0.12665977
-0.099796794
-0.22437896
-0.037408985
0.024730684
-0.0148778455
0.19956595
-0.43975705
-0.09706331
0.2681108
0.09644945
0.053998433
0.04943349
0.2219251
-0.048382204
-0.37062556
-0.5502767
-0.024942324
-0.43320942
0.06988151
-0.06983679
-0.8735807
0.0060456353
0.051354077
-0.23089328
0.092115104
0.10412502
-0.40531325
-0.94186354
-0.9022037
-0.052672304
-0.111710824
-0.5234129
-0.0072722454
-0.06597216
0.004288021
0.066218376
-0.027751226
-0.06926774
0.13069926
0.3264788
0.01160517
0.0031620327
-0.81876373
-0.83621603
0.14284824
0.12981115
-0.03062572
-0.05657372
0.16250305
-0.06159412
-0.024058934
-0.22594008
0.046157718
-0.01663187
0.11078045
-0.1399885
-0.5033291
0.07637163
0.00022902255
0.41585937
0.14824821
0.019159324
-0.049395036
0.21133591
-0.05705088
-0.002225438
0.24700363
0.09626336
-0.44451714
-0.067232355
-0.020843327
-0.00429101
-0.08763147
0.06889694
0.11313377
-0.1795416
-0.090803444
-0.020289076
0.011864567
-0.08831591
0.21890102
0.092775635
0.20204245
0.022446815
-0.36595616
-0.20509702
-0.017322734
0.0670822
0.005007536
-0.0031527525
0.025181184
-0.0099041015
0.16471809
-0.04493627
-0.06782661
0.13342598
-0.098258376
0.1579671
0.09388384
0.04496141
-0.079510935
0.25568688
-0.20904957
0.03482033
-0.020027013
-0.05568124
-0.2367652
0.01696382
0.0143865775
0.07470318
-0.019170105
-0.2195545
-0.44569057
-0.14052114
0.015531173
-0.06686006
0.17076974
0.008170398
-0.61947495
0.09760689
0.055369288
0.2993885
0.032365657
0.03345005
0.06132697
0.2537808
-0.0039593154
0.05625398
0.019609027
-0.22116765
0.026290596
0.24021016
-0.5389706
-0.010852097
0.20149808
0.2389327
-0.15250587
0.059018455
0.22391392
-0.10507187
0.03054544
0.06980518
0.04701474
-0.0970422
-0.04910556
0.04310838
-0.34759575
0.2972717
-0.15047264
0.0022837713
-0.0953424
0.08738452
0.023544429
0.08664755
-0.662083
0.32178843
-0.042398904
-0.05482733
0.052475084
-0.095834576
-0.12246576
0.22692332
0.067681424
0.0065546483
0.20802706
-0.17571035
-0.061804753
-0.17045482
0.082537636
-0.0045597735
-0.06787719
0.085841976
-0.006858195
-0.0696057
-0.09439064
0.15843628
-0.03663167
0.0791723
0.014927265
0.06166766
-0.050394986
-0.020301897
-0.1351209
-0.22021541
-0.13452835
-0.3780733
0.09876783
-0.27117106
-0.111397244
0.021960322
0.20045803
-0.124445535
0.0034603118
-0.053822562
0.044703316
-0.24109988
-0.22402146
0.42966324
0.13147822
-0.025719317
0.051386103
-0.01196753
0.31966478
0.117896974
-0.089344226
-0.1810581
0.4582145
0.13391611
-0.2645663
-0.09128287
0.118079096
0.054535493
0.07107196
-0.058007553
-0.041276492
0.024828412
-0.012664294
0.058793496
-0.038768377
-0.08065242
-0.06918116
0.0666639
0.31905338
-0.23172441
-0.13422504
0.0791159
0.041131373
-0.031395983
-0.1439453
-0.0042626048
-0.009435727
-0.2706917
0.11757102
0.028920779
-0.010909086
0.014417935
0.10206098
0.047225885
-0.047172744
0.15067932
-0.013500051
0.06728003
-0.6573949
0.043308076
0.13462754
-0.05912573
0.22322601
0.10428
0.4804761
-0.05427512
-0.072769806
-0.11726917
-0.07347389
-0.06279573
-0.30591482
-0.101432405
0.037506636
0.080612496
-0.03426119
0.009418613
0.11803674
-0.16498893
0.04453305
-0.13066405
0.030925503
-0.28116667
0.16092949
-0.01403459
0.08067503
-0.029921921
0.052298173
-0.061371554
-0.028889386
0.15669379
0.12210496
-0.017863039
0.032666195
0.07355923
-0.38680774
0.09331623
-0.18025292
0.26130962
-0.033078153
-0.14523242
0.15797223
0.15368973
-0.0316764
0.08409174
-0.38730493
0.074894294
0.18794924
0.06813352
0.03370212
0.1568559
0.112223215
0.0766802
-0.011084844
-0.39929283
-0.21831644
0.029940875
-0.002750426
-0.4847107
-0.058576584
0.18760023
-0.10028173
-0.28069827
0.11105932
0.015192764
-0.48312652
-0.017687542
0.1319145
-0.42730963
0.26981306
-0.13221356
-0.19091795
0.10051729
0.11285084
0.13928637
0.22642182
0.1080879
-0.29367384
-0.1341213
-0.04215314
0.1151621
-0.31603584
-0.1225572
0.032986093
0.087747626
0.20219178
0.095268585
0.04060193
-0.0016090376
0.18338166
0.3133178
-0.00093467446
-0.17016067
0.08176171
0.012784611
0.07392007
-0.19452266
0.19661947
0.0057920967
0.024036068
-0.09614286
0.016255138
-0.12530714
0.26799327
0.21059078
0.09385941
-0.10647723
0.021071766
-0.07200292
0.0929527
-0.0123456735
-0.07970017
-0.10113623
0.26025447
-0.05026952
-0.3378021
-0.03929153
-0.030623833
0.22636227
-0.01668118
0.24517782
0.131609
-0.037670843
0.032671385
-0.032766584
0.13742606
0.0113760615
-0.013864919
0.0901178
0.07676052
-0.004282438
-0.412997
-0.40687034
-0.6576297
0.13333938
-0.35623193
0.0983212
0.025169203
0.081452765
0.060647458
0.10664707
0.068049185
0.2957948
0.0013389193
-0.24549846
-0.24541315
0.074788064
-0.300996
0.0070958524
0.11814457
0.087136865
0.14521761
-0.5399828
0.037281852
-0.71446365
0.3482024
0.07405173
-0.06377805
0.18654479
0.097850055
0.118194796
0.04608543
-0.068322755
-0.6314335
-0.010721323
0.012376171
-0.075251326
-0.031878203
0.014655802
-0.005334085
0.053701714
-0.011068333
-0.18858871
0.06175978
-0.0147732645
0.17073977
-0.027277166
0.31960917
0.019849023
-0.06258956
0.18683527
-0.725074
-0.1645111
-0.086152025
0.3018723
0.22097166
0.16455895
0.10947071
0.17117125
-0.036011897
0.035843324
0.040345505
0.17418636
-0.13028172
-0.034493607
-0.09351165
-0.1315493
0.16183883
0.01157949
0.16529036
0.09139606
0.13901721
0.10562636
-0.010964594
0.18465866
-0.32355377
0.012627339
-0.071987055
-0.28647983
0.0981046
0.07403364
0.2741181
0.014205926
-0.15627736
-0.0064164754
-0.14956716
-0.2979835
-0.06613152
0.46019244
0.032592263
-0.019948008
0.077427715
0.5090484
-0.35036042
-0.4979535
-0.00708784
0.0619221
0.042394098
0.09984874
0.12041593
0.013616152
-0.04275353
0.19776109
0.20803927
0.13810842
0.23760997
0.021765128
0.08173045
-0.30087152
-0.462898
-0.24132675
0.52990854
0.07746546
0.03926588
0.015621762
-0.21735305
0.19553986
-0.014128357
0.014629179
-0.12824291
0.083247915
-0.4698912
-0.20423892
0.12047893
0.03035508
0.08054591
-0.032302488
0.0890705
-0.10231107
0.10070274
0.049152236
-0.20191494
0.030269327
-0.07619367
0.05561996
-0.1057251
0.006378625
-0.04142721
-0.058686934
0.5950161
0.16657194
-0.09137699
0.06821529
-0.261797
-0.2254274
-0.06882615
-0.18908092
-0.38420022
-0.23750034
0.10363616
-0.054204166
0.08430706
-0.34547782
-0.28118005
0.0013490146
-0.035935894
0.19556335
0.00039735957
-0.098188244
-0.16149439
0.071022525
-0.20136304
0.1843967
-0.054077942
-0.04505586
0.079947956
-0.033833716
0.06900524
-0.15483654
-0.01648354
0.10210817
0.0078009306
-0.19072936
0.47738448
-0.05335018
-0.00012429041
0.20904057
0.02944297
-0.22172932
-0.032519314
-0.018991593
0.13194565
-0.26348624
0.05846711
-0.006385946
-0.01992142
0.0008650774
0.014963443
-0.06973476
0.0772983
-0.068880975
-0.088844486
-0.055535123
-0.0048937653
0.18512651
0.029518805
0.08429159
-0.07011917
-0.023958767
0.014902002
0.011338154
0.094811864
-0.06452218
-0.105083965
-0.100422926
-0.078535676
0.033988137
-0.009005745
0.09209371
-0.08910105
-0.10996326
0.034300137
0.23343553
0.0800963
0.011738287
0.018167326
-0.033823915
-0.00036302384
0.021539757
-0.14676203
0.039880764
-0.040631987
-0.04538917
0.019539341
-0.006864303
0.008030175
-0.008990012
-0.38781995
0.0532624
-0.08153617
-0.20448707
-0.021629132
-0.07165997
-0.024272615
-0.13424677
-0.114892624
0.013493113
-0.044522196
0.012484573
0.054286383
0.046690803
0.08838058
0.010646446
0.026191168
0.007359727
-0.43190637
-0.13480064
-0.14916338
-0.0049765836
-0.12058911
0.030938236
-0.22559594
0.26003334
0.059743717
-0.19573343
0.051131736
0.02394105
0.06815906
0.023273041
-0.119515896
0.027327344
-0.5387219
-0.16776605
-0.0012086615
-0.0039191945
0.050533574
-0.2501642
-0.21301232
-0.060480483
0.06297081
0.108785875
-0.043652616
0.11908948
0.19132258
-0.2802455
-0.32846704
-0.17291361
0.34602225
0.04913783
0.0969565
-0.033881914
0.2988985
-0.006944739
0.062126394
-0.052708708
0.24117766
-0.11372387
-0.30978236
0.11374449
-0.0186553
0.2964249
0.075919986
0.03110217
-0.00079456874
-0.030869085
0.038540214
0.088167675
-0.057749357
0.10220892
0.046240516
-0.10302555
-0.18684103
0.05480374
-0.079497635
0.10417354
0.4893339
-0.006612006
0.16155277
0.16409479
-0.08922811
0.05079085
0.50765294
0.05812197
-0.25755492
-0.16625877
-0.07515231
-0.027478568
-0.21286644
0.00031305075
-0.23179032
-0.36530116
0.15158796
0.1609099
0.18026881
-0.14164715
-0.97975856
-0.26928484
-0.0009088918
-0.050501086
-0.38291848
-0.22135776
0.22692408
-0.18393117
-0.32999876
0.056554344
0.11611431
-0.04127857
0.08450719
-0.5531897
0.38694835
0.028119026
0.090595216
0.033356227
0.07940007
0.13924392
-0.08342274
0.16261026
0.22451358
0.1696722
-0.32348943
-0.12323325
-0.8367107
0.15476388
0.3695826
-0.031082196
0.03963852
0.037517697
-0.08370357
-0.047935445
0.25621805
-0.13679321
-0.034824073
0.0057254736
0.009492524
0.044915058
-0.20805895
-0.13239774
-0.18940534
0.09177522
-0.04296473
-0.0027910604
-0.066322
0.10743832
0.4853726
-0.22529437
0.039446652
0.1419426
0.06475943
-0.09616966
0.05383681
-0.09673953
-0.1434756
0.15973414
-0.01788864
0.023784935
-0.40755868
0.22421381
0.074701175
0.11980314
-0.09810302
-0.29050902
0.023431432
-0.24179965
-0.015550228
-0.0032490778
0.31762615
-0.24110034
-0.014134433
-0.05411239
-0.033838067
0.0036174767
0.2983231
-0.1616475
-0.00884835
-0.17092562
0.09103648
-0.021793425
-0.011143496
-0.010047148
-0.04713565
0.03225691
-0.043435093
0.3648127
-0.01782261
-0.28221437
-0.051513884
-0.047094606
0.034658402
0.18790247
0.07168171
-0.033502296
0.15071449
-0.51196903
0.017123824
-0.63498926
0.029448986
0.0038727324
0.043580417
-0.022686696
0.13213852
0.07621058
-0.07137391
-0.021549722
-0.33080906
0.1299146
0.001649344
0.14077567
-0.041895557
0.10619011
0.29645386
0.09582853
-0.25682878
-0.12272047
0.053964373
-0.7108208
0.2070414
0.28233877
-0.17813414
-0.056637984
0.22600852
0.10132821
-0.4690171
0.08374853
-0.8081505
-0.13467236
0.02708078
-0.011383906
-0.120755225
-0.3786432
0.09344787
-0.012786465
0.009405095
0.25527924
-0.27207384
-0.037292305
0.035891406
0.12271262
0.17941001
0.060825877
-0.0028333184
-0.43829238
-0.044372816
0.1721062
0.003062222
0.17362243
0.10464881
-0.048421837
0.17477688
-0.4192311
-0.003230827
0.09985588
0.30944526
0.08278076
-0.81393033
-0.012411449
0.24649405
0.22144227
-0.084529236
0.17877366
0.04183711
0.11162067
0.0045815757
0.07559322
0.047614228
-0.066019505
-0.88509536
-0.120014906
-0.34388718
-0.018949531
-0.09364776
-0.040221255
-0.033171806
-0.26959673
-0.32394567
-0.2410368
0.34959525
-0.070993714
-0.13948566
-0.09165809
-0.11236336
0.23016638
-0.32854587
-0.22083011
0.07883431
-0.010505349
0.29190424
-0.024940183
0.0041771247
0.016407758
-0.030262312
0.05320483
0.07875318
0.04161814
0.10323244
-0.45927775
-0.12564725
-0.0009461837
-0.10803918
-0.40077636
-0.29287213
0.02620838
0.4659391
-0.071113415
-0.12766293
0.07210137
0.3638849
0.050703585
0.019812634
-0.1559364
-0.27408242
-0.03202668
-0.75781316
0.05698665
0.332685
-0.025212867
0.04449355
0.1088364
-0.29192606
-0.016636904
-0.0043489174
0.052274458
-0.12374206
0.09764593
0.14488436
0.112118885
0.09117426
0.047011226
0.033786286
-0.2341602
-0.04650488
0.028646229
-0.20880711
0.06610425
-0.104563795
-0.08384365
-0.6170747
-0.73875576
0.05945551
0.18749815
-0.04098228
0.014245014
0.019577242
-0.2603573
-0.2246801
-0.019262537
-0.10558651
0.12026575
0.078499995
0.023483837
0.13923833
0.10567956
-0.04023216
-0.0663767
-0.040151026
-0.045598917
-0.07679136
0.10123427
0.12178433
0.39737254
0.028648617
-0.003406007
-0.027613683
0.014981685
0.030159563
-0.10082763
-0.1975367
-0.009739601
-0.04688618
0.0014661762
0.096756525
-0.061151702
-0.30756524
-0.1947731
0.32373112
-0.049104095
0.27766332
0.0900666
0.14253396
0.11218663
-0.079136714
0.115487
0.023102611
-0.22084807
0.026395883
-0.30826712
0.02341696
-0.00040915006
-0.06544112
0.14592306
-0.0049347747
0.13099764
-0.013818331
-0.10622719
0.052668117
-0.24414097
-0.2981641
0.09348965
0.026225397
-0.0028608008
0.23351608
0.058631398
0.06872433
-0.016237162
-0.29610282
-0.12366863
0.009270548
0.11369384
-0.06661126
0.06414278
-0.083459415
0.11853874
0.048459053
-0.24402002
-0.08620721
-0.1625448
0.10755758
0.052407555
-0.07749134
-0.017444354
0.19058797
0.13123317
0.2702519
0.026427668
-0.2244091
0.035262648
-0.09510667
0.04938241
0.043151405
-0.17977987
-0.17050436
0.04024917
0.17989148
-0.02834172
-0.19242188
0.092021905
0.109256394
-0.2759631
-0.10963773
-0.15256786
0.052028403
-0.32736334
-0.22747198
-1.0445997
0.038370352
0.0071584657
0.24676888
-0.05616117
0.06097694
-0.15453167
0.1284945
0.023428857
-0.1981568
0.04661802
-0.1099775
-0.065482244
0.44943514
0.447003
-0.13436246
-0.9658654
0.082072556
0.099440776
0.074794754
-0.5135443
-0.03503224
-0.8414625
-0.18270712
-0.06048684
-0.09580358
0.13051754
0.0060113696
-0.26703373
-0.28581485
-0.06476173
-0.075055175
-0.058561128
-0.3042237
-0.039257284
0.16168159
0.17488685
-0.7913363
-0.38119176
0.101287365
0.027441757
-0.07299797
-0.02926731
0.21281171
0.20278664
-0.015524918
0.0074398513
-0.5663247
-0.2220298
0.039907917
0.00074940256
0.00043706503
0.28630626
-0.34010932
-0.19828776
0.1642967
0.16980402
-0.17699039
-0.28578138
0.12310469
0.12881605
-0.3920403
-0.005964225
0.09683635
-0.047422633
0.112907104
-0.07682668
0.21153875
-0.14432484
0.19261876
0.009153207
-0.07031922
-0.014378538
-0.7187818
-0.070050776
0.15680334
0.26260382
-0.20969993
-0.0781211
-0.35898322
0.081513904
0.038246263
0.052413784
0.044327427
-0.5813755
-0.06986205
0.032229852
0.07594063
-0.5743619
0.023549786
0.17264105
-0.034587413
0.15105824
-0.108549654
0.24427478
-0.13899353
-0.0052559916
-0.10076983
-0.09583577
-0.025280956
0.3060413
0.12992899
-0.4421641
0.052181
0.19753928
0.049840234
-0.4233101
0.0048024617
-0.0877079
-0.6261907
0.16027279
-0.14201699
-0.08808734
-0.38702697
0.18857703
-0.04497859
0.047064975
-0.0021488543
-0.14659949
0.036370162
-0.5210303
-0.05795988
0.16802634
0.17157274
-0.058500703
-0.0068556345
0.1425234
-0.20202188
0.010208738
-0.24197328
0.33622292
0.08916331
-0.14968498
-0.055113696
0.09998758
-0.020590011
0.05907845
0.050347015
-0.29616305
-0.2504937
0.055404555
0.14742358
-0.30370834
0.15307494
0.005564586
0.09647435
-0.06611115
-0.011376951
0.04389767
0.10384171
-0.04750722
0.12611383
-0.36609003
0.08396353
0.09901183
0.06992595
-0.16482198
-0.07437067
-0.0023812526
0.038870193
0.17902635
-0.36677492
0.07951358
0.092411116
0.0410613
0.024933953
0.0042407066
0.075745255
0.062075775
-0.08703567
0.08814835
-0.18072549
-0.105674386
0.021534605
0.02665865
-0.47000656
0.078547545
0.1871794
-0.5073791
0.19926405
0.26573342
-0.20917885
-0.64654446
-0.12395205
-0.09192915
0.0452477
-0.34090587
0.1409271
-0.054897357
0.073397085
0.111428015
-0.19947325
0.038099885
0.12123322
0.34070286
0.120056264
0.048454735
-0.6532893
-0.37778828
0.1415434
0.16219641
0.04135698
0.07686625
0.22472575
-0.15866905
0.063327104
-0.25577676
-0.023814494
0.077014975
0.17945296
-0.05178211
-0.25542003
0.07347681
0.013811534
0.17468028
0.05038688
0.19395119
0.0287596
-0.08871145
-0.046131007
0.17104757
0.24697416
0.20220898
-0.24243411
-0.10327443
-0.41514042
-0.020190641
-0.06813397
0.05869883
0.1497526
-0.17411193
-0.19395669
-0.04316943
0.049927384
0.039051883
0.090647824
0.28226033
0.28040877
-0.04541309
0.03384402
-0.351612
0.049985535
-0.055141587
0.08834882
0.041197516
-0.25522748
-0.06464601
-0.0051562604
-0.079418175
0.09281638
-0.0043224967
0.045493923
0.17096871
0.018168883
0.02940498
0.08620001
0.039385546
-0.81976074
0.033031847
0.21650714
0.28129435
-0.2848116
-0.08406759
0.2767281
0.08265267
-0.120086916
-0.17021649
0.034104276
0.013242287
0.026936444
0.008947128
-0.05182788
0.00016387204
-0.0715144
0.14899424
0.16392206
0.13005617
0.16239089
0.020879379
-0.16268256
0.11394341
0.15888819
0.00019896573
-0.16638057
0.060316626
0.04794885
-0.0015178103
-0.27952045
-1.2175297
0.011322676
0.1344259
-1.0593711
0.0024236473
0.738955
0.22524627
-0.012709348
0.0020747427
0.07266711
0.020461418
0.056165963
0.26117
-0.08688109
0.18170787
-0.3303495
0.23154013
-0.063201204
0.060122237
0.006489039
0.02900391
-0.07245164
0.2017869
-0.6276429
-0.009550391
-0.13049334
0.19029798
0.05130414
-0.007887004
-0.12720557
0.016275952
-0.017048841
-0.11389272
-0.04971805
0.0948078
0.10489898
-0.006823185
0.047775354
0.062225163
0.032793764
0.011571955
-0.4216313
0.23005612
0.16766623
0.017899591
-0.30673197
0.1027382
-0.056734685
-0.07684948
0.0659543
0.13859166
0.12905814
-0.07769897
0.067883216
-0.7900187
0.33366764
0.02542303
0.18583232
0.11153969
-0.08088806
0.06862988
-0.07546777
-0.00814248
0.052750465
0.34209406
-0.06740793
-0.095125206
-0.030428976
-0.5623269
0.0074389894
-0.010214025
0.009211272
0.048902888
0.07331402
0.016507119
0.14584543
0.07208508
0.009977383
-0.049573738
0.0026157652
-0.009642509
-0.7495511
-0.11717746
0.0047003776
-0.19016886
-0.011089359
-0.23656821
-0.8796199
-0.09489119
0.0960197
0.046406154
0.12940234
0.23878022
-0.16029763
-0.7799599
-1.0424725
-0.45113012
-0.13047203
-0.27471772
-0.054779682
-0.020743048
-0.0007928836
-0.009920143
0.102651656
-0.044134796
0.3606759
0.21655123
-0.072275184
-0.054565802
-0.060286615
-0.07178735
-0.0016030399
-0.059943784
0.19145502
-0.0001853008
0.15202653
0.15106633
0.13441506
-0.42970648
0.006015302
-0.03581241
-0.05819074
0.03573375
-0.22397259
-0.021377655
0.07979549
0.26484025
0.0045608184
0.052175533
-0.020185322
0.3643496
-0.040093984
-0.08752373
0.18870252
0.11504836
-0.05272647
0.007001862
-0.0037227485
-0.0668111
-0.15695307
-0.08028667
-0.026280724
0.0699083
0.012269003
-0.011740447
0.07721785
-0.025352452
0.07938304
0.058508698
0.093107715
-0.33960053
0.28979462
0.2938486
-0.026369335
-0.080919765
-0.0022266372
-0.09871321
-0.06819115
0.01590263
0.023130763
0.035129815
-0.40030733
-0.42493707
-0.038359832
-0.016248519
-0.06362277
0.07819333
0.06154584
-0.42455706
0.23029877
0.10421848
-0.044457067
-0.07549427
0.19520257
-0.025910879
0.005882732
0.09293789
-0.058022354
0.13545787
0.23548433
0.06178615
-0.18467416
-0.0385034
-0.4971747
-0.22241527
0.07218561
0.112899944
-0.4242761
-0.21926646
-0.116090916
-0.057855714
-0.010006644
-0.4303716
-0.11483207
-0.028969476
-0.07790776
0.16312666
0.02268161
-0.59541845
0.048407525
-0.32937944
-0.7284852
0.14146842
-0.28298146
-0.15861417
0.05323239
-0.32405618
-0.0030153524
-0.3722694
-0.011022217
0.07867285
0.07074663
-0.05569132
0.24583592
0.12576284
0.29006594
0.14952354
-0.070503466
0.12856424
-0.29613262
-0.01994615
0.12051029
-0.36645076
-0.0673665
0.034845952
0.029500695
0.14372194
0.06150931
-0.6893046
-0.008207002
0.10056744
-0.08342297
0.20195074
-0.014412787
-0.4531744
0.09960799
-0.0025387947
0.0315159
0.4344401
0.07291661
-0.041328304
0.32866693
0.08063407
0.039053228
0.013173859
0.014356319
0.399859
0.015801327
-0.06873793
0.10953798
0.20546435
0.14017192
0.19139263
0.2711425
0.198198
-0.012603317
-0.013281917
0.12855597
0.065919966
-0.35451698
0.020487223
0.10210581
0.12969622
-0.21808478
-0.016003791
0.15797777
-0.08151977
-0.24057344
0.014930692
0.39352238
-0.30734602
-0.026920568
0.16716449
-0.006263918
-0.03215917
0.24021849
0.05068933
0.07855332
-0.22136362
-0.024633536
-0.07461916
-0.2622812
-0.03489058
-0.02361431
0.067037664
-0.5424726
0.03980339
-0.050685655
-0.021356191
-0.162095
0.18232335
-0.04224073
0.18789588
0.06502048
-0.1207574
-0.34585926
0.10044577
0.024875933
0.20324117
0.033386543
-0.04070613
-0.30824593
-0.4037782
0.000370062
0.0036207885
-0.041294675
-0.19669336
-0.3225612
-0.06839611
0.077088945
0.06931448
-0.34794876
0.22256735
0.18322517
-0.4687796
-0.06699454
-0.011111375
0.08226696
0.08884449
-0.0026712504
-0.047338456
0.2125054
0.015754288
0.013093931
-0.2497308
-0.0557456
0.024870655
-1.1764446
0.1726637
-0.00082389166
0.20360903
-0.0007931668
0.17954884
0.15314138
-0.24597177
-0.0072431806
0.06913361
0.05192355
0.009811279
-0.10296448
-0.53838855
-0.56986076
0.05566242
0.034335554
-0.008298393
0.31037927
0.09611596
-0.019373747
0.06723633
-0.4463099
0.0993192
-0.07294062
-0.06166738
0.0443885
-0.020876473
-0.037943423
0.049517114
-0.034706496
-0.029947007
0.030309683
-0.019265415
0.07285432
-0.04113446
-0.06733978
0.08456436
-0.09046774
0.024797851
-0.38478258
-0.08999372
0.19614966
-0.0022641337
-0.07944317
-0.16992478
-0.022482798
-0.002592184
-0.007842638
-0.043148346
-0.13608998
-0.007367835
0.068347506
0.0083069
0.0034877069
0.027032007
0.101606965
-0.038300708
-0.07419461
-0.052915957
-0.16427198
0.069825076
-0.032891136
-0.025203194
-0.027906766
-0.022899559
-0.018349966
-0.07428411
-0.08294442
0.07566645
-0.015357004
0.059460066
0.2085815
0.088767335
0.26746365
-0.0782907
0.050346944
-0.18221475
-0.04840434
-0.06718363
0.04940765
0.045317665
-0.036038693
0.014331488
-0.024443166
0.07106771
0.025693294
-0.017248232
-0.06758891
-0.06772283
0.081304796
-0.02268666
-0.0849596
-0.006780242
0.048910018
-0.09379863
-0.0052001392
0.02628608
-0.054763496
0.015680294
-0.069863535
-0.015853269
-0.027138941
-0.018128755
-0.04046157
0.11518602
0.045675654
0.11632829
0.040403962
-0.00069880194
-0.082081504
-0.16674364
-0.08083544
-0.09579994
-0.10410029
0.1140927
0.062239043
-0.03379758
-0.0112396935
-0.29340777
-0.05484429
0.079646066
0.13289534
0.23177737
-0.05550356
0.035144936
-0.1840032
0.20665361
-0.116055615
0.0034581744
0.07359344
0.0075401803
0.021064652
-0.044401973
-0.14661594
-0.012114368
0.2216106
-0.35446525
-0.02053281
0.08028144
-0.16859803
0.0063700895
0.03041521
-0.0917477
0.06866566
-0.37192515
-0.30288556
-0.048244383
-0.30891836
-0.048635293
-0.029474959
-0.11343173
-0.08300212
0.021293446
0.04639244
0.08826298
-0.06572867
-0.013797349
0.057971142
0.15334041
-0.052383143
0.10640501
-0.006842036
0.06177135
0.08436052
-0.124967925
0.07990078
0.012037069
0.03407763
0.072909
0.04036664
-0.00042521322
-0.118059695
0.049953092
0.14958908
-0.017946811
0.018162439
0.07209808
-0.14257723
0.0079674125
-0.10708719
0.012267221
-0.05494982
0.009686816
0.28654343
-0.0028424084
-0.02192608
0.009601472
0.027366498
0.041533556
-0.009952351
0.045000967
-0.05112067
-0.12907015
0.07007798
-0.06972614
0.041012816
-0.35098302
0.07092564
0.103940606
-0.08085764
-0.0706893
-0.045670524
0.05868428
-0.0151076615
-0.06821884
0.049259774
-0.15807077
0.06549874
0.082918346
-0.02360319
0.051188167
-0.049392857
0.2367569
0.065592
0.042350505
-0.053019743
-0.038735762
0.09213747
-0.041965995
-0.0025828145
0.0031805118
-0.11436242
-0.036582626
-0.029929888
0.14902149
0.03961036
0.023375241
-1.2985004
-0.15417549
0.12846087
0.032627285
0.3376109
-0.062147107
0.09172395
0.059221722
-0.30710945
0.18336205
-0.32497782
0.02761014
-0.010438487
-0.3237146
-1.4220587
0.018860163
-1.008325
-0.49218148
-0.072169125
0.038641457
-1.1656559
0.035509575
0.0747897
0.092151396
0.056631953
-0.11824744
-0.33521286
0.09412904
-0.16012242
0.037249528
-0.09505931
0.035880663
-0.14801152
-0.1631226
0.0025015618
0.07592572
-0.64205056
-0.1500602
-0.11358984
0.10817552
0.109911114
-0.0038018122
0.06612814
-0.042489573
0.12510061
0.11213992
0.08467518
-0.06760164
-0.28800175
-0.1241225
-0.10048057
0.24283957
0.027693972
0.06728812
-0.015628781
-0.00043605024
-0.0059590433
0.030567674
0.008886263
-0.15144433
0.1496191
-0.26973504
0.10829211
0.24806842
0.036311332
-0.0074072187
-0.05694201
-0.15244016
0.16511375
-0.12268624
-0.69217765
-0.38142714
-0.27854562
0.061061107
0.07155979
-0.05083584
-0.11530198
0.1972585
0.06798485
-0.15335402
-0.03177887
0.11128657
0.0063280156
-0.174822
0.06801227
0.0006753044
-0.88927907
-0.07598738
-1.0315688
-0.127227
-0.33283582
-0.23539716
0.022445537
0.06992081
-0.10168046
-0.090613924
-0.0207619
0.062989905
-0.103887185
-1.6486105
-0.5114056
0.04829396
-0.16027488
-0.114564374
0.132907
0.08324751
0.106923506
0.10478506
-0.07718565
-1.8507998
-0.09066404
0.024731683
-0.08642217
0.17057982
0.076641664
0.13705112
0.047606613
-0.048945606
-1.7808566
-0.08694457
-0.0561578
-0.25644776
0.05256592
0.037666176
-0.17290907
0.058769584
0.11787388
-0.03435238
