1.6695306
-0.28399962
1.7372113
0.10285649
0.6959316
-0.1797012
-0.07035503
-0.114209294
0.11107239
0.33335426
-0.85820085
0.21232058
-0.7839183
0.32809088
-0.08357433
0.17553395
0.25944528
-0.91743296
-1.7966721
-0.9813651
-1.3710253
-1.5746018
-2.4168923
1.3381542
0.27012643
-2.5849879
0.66211164
-0.50972295
0.62561715
1.3445332
-0.026064413
-0.0963239
0.09840865
1.8078591
-0.03820308
-2.3472612
-1.719005
-0.45719644
1.5220422
-1.7439709
-0.5878493
-1.3979702
0.51767874
-1.0282104
-0.03140408
1.8774332
0.29972515
1.896844
1.4337301
1.4314263
0.13482313
-0.19834112
-1.9182034
-1.482915
-0.30987433
1.6963791
0.48557213
0.019225124
1.7602972
0.35884196
0.13701145
-2.2107608
-0.555202
-0.8517797
-0.092726775
-0.2434729
1.7479362
0.42191738
1.1191761
-0.71404266
-1.5326105
-1.4255923
-1.5765041
0.37693554
-1.3380295
-1.7687514
0.21321195
0.18529125
-0.68905777
-1.2247204
-0.07882127
-0.13059731
0.6382068
0.6757729
1.8245202
-0.21040626
-1.5673048
-0.6768623
-0.7923243
-0.6296522
-1.9040293
1.4296851
0.12560377
1.7021077
0.81107986
1.9830807
-0.89651394
0.21782821
0.103619665
-0.3655701
-0.45281747
-1.5396832
0.9615658
-1.6795456
0.7782768
-1.8551733
1.417572
1.1247642
-0.21695329
-0.8645556
-2.2375436
-0.3368882
0.4069887
1.9895041
0.50190115
1.6674715
0.613577
2.0933337
0.19582535
-0.42352515
1.4123974
-0.036673684
-0.19903776
-1.9770573
0.80894816
-0.2275077
-2.4857838
0.4802728
-0.25790402
-1.1818384
-1.3463045
-1.4330232
0.185608
-1.0474763
-0.43128937
-1.9622005
-1.784484
-1.1349003
0.0901296
1.616413
-0.09096475
-0.068914495
1.0008659
1.8427356
0.0037625707
-0.10105419
-1.4035239
1.7060797
0.11340218
-0.50261396
-1.763476
-0.879052
-0.9251469
0.32495037
-2.144996
-0.4363419
-1.6945405
-1.4168437
-0.84023786
0.70982546
-0.18638763
-1.9897109
0.77836144
0.38703063
-1.7370706
-0.17071852
-1.3824754
1.8690999
2.035763
-1.1752198
-0.16328199
1.4985628
1.5735918
0.8110566
0.05339427
1.6482952
-2.4211395
0.9255461
-0.58788043
0.2918627
-1.1358833
-1.7372854
-2.0257585
-0.1127479
0.11496956
1.7646286
-0.98735225
0.47837597
-1.3645977
0.6329334
0.0015241446
-0.22392187
-1.0387173
-2.5418937
-0.36804476
-1.7306067
-0.24125788
-0.075448275
-1.9207463
-1.5560309
