-0.13193586
0.16867554
0.09718875
0.17924136
0.07280064
0.08633752
-0.13250344
0.14760524
0.05196759
0.1338095
-0.12456963
-0.080827385
0.042974386
0.018238863
0.23235139
0.14463833
0.02498221
0.14442368
0.12166842
-0.0800332
-0.021431537
0.012064534
-0.019377632
0.10597753
0.08024824
-0.13898402
-0.025427742
-0.097119845
0.27160048
-0.029995915
0.0803864
0.026927901
-0.11081094
0.08462602
0.15890248
0.2074021
0.22061527
0.043954313
0.1069725
0.13907589
0.23045178
0.011118249
0.16382717
0.062307186
-0.054480687
0.12458143
-0.03730249
0.062421184
0.03269427
0.17870319
0.065569066
0.033852894
0.2457025
0.08468853
0.0006610809
0.22210346
0.1753535
-0.061286233
-0.07355575
-0.25801435
0.09028595
0.02114044
0.052596454
0.16161242
-0.021285495
0.1447647
0.015796764
0.04176028
0.20045228
0.11304473
0.06578664
0.1395445
0.11592827
-0.1156209
0.05070348
-0.019497246
-0.091300525
0.036403913
0.09710402
0.05073945
-0.009546793
0.13986155
0.20227723
0.08695058
0.1533894
0.13809575
0.09086757
-0.040255126
-0.008367305
0.2765827
0.04847016
0.11406319
0.06379735
-0.059321035
0.034937743
-0.2875236
-0.028213043
0.057194103
0.15693673
0.12940308
-0.14238223
-0.03738379
0.20680696
0.034438573
0.009298973
0.023054095
-0.011592006
0.14201805
-0.14638664
0.072791055
0.25283325
-0.0765085
0.010844164
0.14778912
-0.08367063
0.20417428
0.2813535
0.02921822
0.115450375
0.065070465
-0.012039686
-0.09481688
0.1608214
0.08977027
0.05851468
-0.07645407
0.13519938
0.0176839
0.082669236
-0.036170486
0.012859401
0.17000379
-0.09730517
-0.16289963
0.15829523
0.01247139
0.23203044
-0.11059127
-0.07851792
0.03135817
-0.075290434
0.12891537
-0.09497923
0.102342404
0.097075775
-0.007254288
0.10405993
0.019877706
0.2761504
0.06728466
-0.0133603085
0.14170103
0.061087817
0.30147815
0.053732377
-0.03324798
0.15394878
0.14509124
0.023811338
0.09836117
0.116977274
-0.08150698
0.061779518
0.033517208
0.3354477
-0.07054565
0.07202439
0.038588632
0.010435827
-0.07976127
0.14012754
-0.046820056
0.06465434
0.06642101
0.06189084
0.0011333667
0.22894497
0.14607492
0.01370403
0.07099469
-0.101581976
0.14929283
0.011813644
0.2599671
0.0501068
0.046961267
0.12125167
0.24559477
0.08296141
-0.118820846
0.23704423
-0.01262699
-0.12854326
0.19842975
-0.12985885
0.08039914
-0.05481333
-0.042625125
0.08108699
-0.3237135
