-0.09892974
-0.046437897
-0.0072844904
-0.008587398
-0.07081342
-0.040401574
-0.04151757
-0.061804403
-0.13497795
-0.00049320963
-0.027190296
0.039771173
-0.042852897
0.013571361
-0.048960768
-0.05977849
-0.07593994
0.026799992
-0.03302069
-0.09672197
-0.114898674
-0.11755842
-0.054922618
-0.1041147
0.01308468
0.0011293788
0.041027173
-0.030432647
0.019082554
-0.00065699517
-0.04365098
-0.0069590425
-0.018712662
-0.014487766
-0.05982302
-0.110855415
0.05964981
0.092715316
0.0050945724
0.047826063
-0.033151858
-0.045675665
-0.16351826
-0.13089108
-0.10613266
-0.046028614
0.12258622
0.17189507
0.1706395
0.26022667
0.20753695
0.23364368
0.058062233
0.0070966985
-0.05438364
-0.11254317
-0.07338161
-0.19911021
-0.000752085
0.113995805
0.19261469
0.12057845
0.1250205
0.13500321
0.052858613
0.13024646
0.089369476
-0.01985655
-0.08609611
-0.021881152
-0.038125172
-0.03182769
0.06975584
0.14126073
0.10761529
-0.10741285
0.0093896715
-0.0402534
-0.13848376
0.05157159
-0.008389238
0.020030659
-0.1720119
-0.16413008
-0.08513822
-0.057726268
-0.0155311795
0.092266485
-0.09469057
-0.006780613
0.09757957
0.013088938
0.14696358
0.13626847
-0.04061234
-0.14301135
-0.081723854
-0.08875481
-0.06656288
-0.1778935
-0.08776032
0.12624368
0.12608154
0.24331881
0.2119282
0.17324565
0.29041737
0.09659739
-0.058222968
-0.06613164
0.014796953
-0.11924169
-0.09617476
-0.15264985
-0.12486491
0.107390374
0.1257501
0.08120329
0.07372788
0.11112437
0.05729465
0.12059882
-0.032683946
0.073225886
0.05838444
-0.067123644
-0.10484879
-0.077013165
0.008083803
0.09047633
-0.020437485
-0.1662855
0.0032627257
0.10715602
-0.049920402
0.05396137
0.15228938
0.12923354
-0.006149767
-0.015879104
0.0070424173
0.0114006745
0.09146256
0.12451951
-0.0070837587
-0.0658022
0.065088026
-0.015543643
-0.072474755
0.02428388
0.118298456
0.1782875
-0.038526762
-0.12267064
-0.09138144
-0.10912741
-0.091287
-0.12095879
0.006201334
-0.037514858
0.11333647
0.044883404
-0.010426341
-0.037603892
0.05501771
0.026056351
-0.09354234
-0.025304828
0.028680969
-0.045745824
-0.10331921
-0.17255072
0.03668226
0.010217007
0.1269791
0.0763439
0.0547252
-0.0061783027
0.0061515593
0.0005783318
-0.059171837
-0.03697422
-0.053791087
-0.048280813
-0.1192327
-0.025275197
-0.039033998
-0.101416215
0.007093839
-0.012769657
-0.08375741
-0.04825083
-0.07142522
-0.16834144
-0.13268203
-0.031263232
