0.0017342614
-0.3014008
0.20351659
0.17183727
0.14810209
0.46913895
0.30269578
-0.5280141
0.39076957
-0.41691062
0.3838515
0.03496022
-0.4840106
0.24357884
-0.1688009
0.14303502
0.30526695
-0.352352
0.30472368
-0.10943861
0.5603112
0.30880722
-0.22497435
0.29533708
0.34001127
0.33042246
0.22174422
-0.22066885
0.42455828
-0.31061295
0.29380614
0.6455974
0.39794958
-0.5966365
0.15021954
0.20402123
0.1731273
-0.38252404
0.4804378
0.57277703
0.19785035
0.41536486
-0.16875981
-0.38127446
0.3956875
0.020115077
0.27312464
-0.40318528
0.3703263
0.41442943
0.50233144
-0.18507633
0.14627388
0.28419316
0.5602067
-0.42502475
0.30685467
0.27046454
-0.34347692
0.35167447
0.15368015
-0.27482736
0.2558583
0.2739117
0.36668134
-0.3152432
0.50865644
0.29130575
-0.39139095
-0.14915715
-0.49778947
-0.14702505
0.13922958
-0.6775229
0.5392768
0.27770662
0.38984242
-0.26540676
-0.3741268
0.40784612
-0.2598137
0.2393546
0.30075613
0.19006068
-0.39171267
0.28164756
-0.6383792
0.2885717
0.13589689
0.21296284
-0.33583945
0.35069266
-0.16369662
0.33311653
0.2156392
0.42878485
0.18528256
-0.28305256
0.17218693
0.1718313
