-0.053967126
-0.11306422
-0.008988777
0.013649767
-0.009338555
-0.097148225
-0.057011895
-0.5300414
-0.03656876
-0.07504696
0.022950444
0.02791116
-0.16828279
-0.042808503
-4.0912557
-0.29666954
0.032386184
-0.06433792
-0.03483206
-0.014801047
-0.061056633
-0.020716673
0.048702817
-0.26100543
-0.15297633
-0.8284331
-0.13065833
0.046447225
-0.014503307
-0.08940283
-0.06452936
-0.1871547
-0.062452547
-0.05462156
-0.20663752
-0.64190143
-0.5073807
-1.466654
0.00063171214
0.0065273256
-0.10519295
-0.04243478
-0.020988494
-0.28475484
-0.05774228
-0.08603806
-0.11576332
0.043286704
-0.04485421
-0.0912455
-0.03714058
-0.05323013
-0.693653
-0.083165094
-0.07011698
-0.14008017
-0.0461154
-0.0012480755
-0.041077845
-0.012594449
-0.09818707
-0.038102224
-0.011218751
-0.45790988
-0.41470417
-0.29004228
-0.03290135
-0.11544882
-0.08718127
-0.040659375
-0.053420324
-0.08898046
-0.123407245
-0.052177195
-0.094471045
-0.009365469
-0.123737715
-0.076397516
-0.1304585
-0.15121922
0.06255722
-0.56761336
-0.025452655
-0.26912376
-0.49618068
-0.110705346
-0.010240636
-0.062829465
-0.11214097
-0.04665915
-0.30612996
-0.021456072
-0.1811082
-0.0646698
-0.12236493
-0.0048416797
-0.091122456
-0.042943384
-0.09663632
-0.13769005
-0.05366347
-0.20406352
-0.1383275
-0.0967817
0.0029055683
0.024051389
-0.075978704
-0.13052742
-2.257912
0.0015547941
-0.008943794
0.051368397
-0.13436185
-0.12652189
-0.06717514
-0.8121494
-0.04766382
-0.056151066
-0.08831766
-0.348986
-0.0764581
-0.040917553
-0.030867072
-0.073421486
0.0021524671
0.004987349
-0.15652709
-0.05817839
0.011509582
-0.020029224
-0.059538696
-0.4587936
-0.026717704
-0.014929752
-0.088401936
-0.0125388
-0.1153919
0.052029707
0.02543294
-0.019114045
0.03261256
0.023427324
-0.09770108
-0.12121101
-0.05614264
-0.07900504
-0.0795024
-0.047100995
-0.18100476
-0.08626869
-0.0275301
-0.036051746
-0.00759664
-1.1139568
-0.02343358
0.016263723
-0.08772892
-0.08588418
-0.055545826
-0.091613196
-0.027296316
-0.058213938
-0.1090887
0.02823657
-0.60223866
-0.027282549
-0.11574653
-0.0241012
-0.09654688
0.016920265
-0.22706757
-0.075823255
-0.12277323
0.054113276
-0.0248163
-0.07657691
-0.112826884
-0.029592842
-0.06332475
-0.055962753
-0.111709796
-0.26961875
0.03468565
-0.11378319
-0.868337
-0.038536284
0.014613102
-0.072167985
-0.13980299
-0.17785564
-0.021307733
-0.28226703
-0.2096816
-0.08129217
-0.0139095
-0.14741765
-0.12680711
-0.19326125
-0.030880205
-0.023942942
-0.020118847
-0.011767989
-0.031046458
-0.06317427
-0.024347957
-0.050615977
0.047931116
-0.45404866
-0.13098256
-0.08698107
0.05567401
-0.070271455
-0.19933844
0.013187629
-4.045241
-0.266129
0.059185304
-0.13066173
-0.07516898
0.044975746
0.049827855
-0.044252016
-0.0064211
-0.14715776
-0.09632905
-0.98427534
-0.0345904
-0.022024449
-0.083913684
-0.017496726
0.0039374437
-0.1604692
-0.0076537207
-0.000515315
-0.19274747
-0.63713133
-0.5485044
-1.5613222
-0.03436338
0.020428415
-0.06085914
0.002248054
-0.12427168
-0.34853035
-0.06882347
-0.107376724
-0.057588436
-0.074865006
-0.034035794
-0.045659177
-0.15495189
-0.08877395
-0.5172762
-0.11026701
-0.015826486
-0.08541105
-0.04294796
-0.006636595
-0.09699852
-0.013958665
-0.006612245
-0.0009150495
-0.06626442
-0.36894822
-0.49342728
-0.3552829
-0.052885737
-0.0014340687
-0.028433071
-0.115412116
-0.15285096
-0.13514318
-0.041184276
0.040116623
-0.022823734
-0.08208089
-0.108507775
-0.13700059
-0.07570404
-0.13585939
0.06227831
-0.50906837
0.007808718
-0.20523311
-0.4090243
0.009504242
-0.009798517
0.057137568
-0.008070079
-0.036953278
-0.27406457
-0.002904655
-0.21574432
-0.06576738
-0.07773405
0.0077334377
-0.101559766
-0.14229572
-0.08471203
-0.00961334
-0.059374437
-0.14679696
-0.10507947
-0.11996599
-0.021761462
0.03265337
-0.048582975
-0.091687545
-1.8819884
0.008198433
-0.08615578
0.01329675
-0.014711712
-0.14744759
-0.013752453
-0.91199684
-0.0810906
-0.11818131
-0.033159215
-0.32855722
0.014739816
-0.086506024
0.019020071
0.045834187
-0.112926155
-0.010931109
-0.14248577
-0.0034087503
-0.04970161
-0.022176374
0.067957096
-0.5527136
0.042295523
-0.021654446
-0.08465592
-0.058287337
-0.028284747
-0.03494964
0.04751909
0.051636863
-0.026147595
-0.06701553
-0.017974898
-0.11172198
-0.11731421
-0.014926021
-0.10149719
-0.0075823716
-0.24961923
-0.10514849
0.0057828086
-0.081177644
-0.06087091
-1.3544235
-0.112938024
0.044237275
-0.018858222
-0.099209175
-0.12939906
-0.14796084
-0.07199546
0.013887859
-0.06272331
-0.029317282
-0.6455332
0.049393225
0.010307656
0.009041524
-0.006759927
-0.061885383
-0.2107434
-0.12491112
-0.07780102
-0.05453462
0.061444502
-0.10384613
-0.091817215
-0.09955818
-0.061399903
-0.081140615
-0.11494987
-0.3139769
-0.003430757
-0.033583563
-0.9799478
-0.11619913
-0.11607487
-0.14844342
-0.11067685
-0.07689787
-0.02410919
-0.28559917
-0.13440208
-0.11366238
-0.025076779
-0.11016067
-0.115315035
-0.14767815
-0.058006648
0.034804426
-0.038660202
-4.116534
0.06416233
-0.2013178
0.045699365
-0.079960585
-0.027413407
-0.019445797
-0.16471817
-0.08751228
-0.04289515
0.16384967
-0.8564471
-0.37243256
-0.7521519
-0.19773898
-0.170717
-0.3023081
-0.03140638
0.011371254
-0.0250529
0.024770364
0.04805942
-0.12193343
-1.0080185
-0.09804765
-0.13284989
-0.04074583
-1.009203
-0.1300168
0.0333252
-0.09578534
-0.040722698
-0.22487354
-0.11998019
-0.1577905
-0.096027434
-0.54709816
-0.16962524
-0.029495487
-0.024410736
0.04263024
0.07423088
-0.20327835
-0.18349558
0.0048290654
-0.6077642
0.05055679
0.03948131
-0.11744065
-0.08125305
0.116385035
-0.019997062
-0.12626894
-0.20394157
-2.8467586
-0.33138272
-0.022835739
0.021892874
-0.05665616
-0.09198123
0.11218622
-0.19941163
-0.22789891
-4.2001185
-0.18252663
-0.051212534
0.085383065
0.00047378443
-0.08636358
-0.06303404
-0.08529681
-0.08833618
0.06690114
-0.08737085
-0.054840367
-0.15559904
-0.083106086
-0.08282686
-3.3198595
0.024163177
-1.4133327
-0.07637332
-0.07563031
-0.56251967
0.09534605
-0.3635197
-0.006355138
0.008282348
-0.11618991
-0.35076421
0.009353836
-0.05193177
-0.080527395
-0.047963932
-2.0366132
-0.14227484
-0.039661337
0.14627998
-0.11341198
-6.913597
0.042447094
-0.15700014
0.03475191
0.053143427
-0.044195846
0.02349652
0.12730257
-0.37419426
-0.050378397
0.06127174
0.0013310327
-0.08859303
-0.13759562
-0.093325086
-0.63418967
-0.025555667
0.0003517938
-0.23463404
-0.22875784
-0.12680784
-0.2714717
-0.8347549
0.066986196
-0.056675773
0.017631467
-0.05897172
0.032839198
-0.100412324
0.03637186
0.059331935
-0.13814874
-0.029003475
-0.25975624
-0.15693869
-0.018143103
-1.0134239
0.024021909
-0.06255514
0.04969612
0.06483181
-1.0045179
-0.074938565
0.002897329
-0.04615498
-0.09844932
-0.10259767
-0.061366994
-0.11425207
-0.024829885
-0.63322234
-0.066430695
0.020776343
-0.2578711
-0.12541604
-0.05327404
0.13829614
-0.06793419
-0.03058382
-0.15500219
0.025279958
-0.006641922
0.098503284
0.059395988
-0.21118961
0.0010983216
0.11432865
-0.25627226
-0.20019217
0.005235469
-0.082683444
-0.04913814
-0.661501
-0.07386474
-0.06838125
-0.12257527
-0.029769104
0.06909745
-0.012403942
0.04618567
-0.10644296
-0.11782076
-0.05152372
-0.010321176
-0.23558769
-0.11699966
-0.29519188
-0.005501269
-0.17709431
-0.34394282
-2.4515862
-0.15389381
-0.107242666
0.022116194
-0.04705793
-1.3418173
-0.08321804
-0.13177456
-0.010648358
-0.22758265
-0.09150193
-0.59011424
0.011627895
0.008821443
0.10629612
-0.110937215
-0.0531549
0.13418002
0.0054968647
-1.2598518
0.020481689
0.39107785
-1.2069155
-0.03036359
-0.5043241
-0.58651876
-0.02924088
-0.03494394
-0.00032032238
-0.06951118
-0.07983157
0.019693661
-0.052523922
0.054586995
0.00049410836
-0.02264906
-0.2900325
-0.07054902
0.0887423
-0.3037586
-0.008288671
0.17262131
0.038282357
-0.41994092
0.0059028575
0.072678395
-0.09951352
-0.25847507
0.02361139
-0.4393526
-0.51246566
0.032772493
0.07484852
-0.2974454
-0.20593229
0.09614329
0.0008068999
-0.061666064
-0.017140724
0.13070099
0.08222234
0.11312226
-0.4874959
0.013258406
-0.2010463
-0.80303353
-0.013554885
-0.061973933
-0.05420617
-0.1078834
-0.40101302
-2.0089068
-0.00024268677
-0.03185229
-0.5867183
-0.15706083
0.13867088
0.06410047
0.18183595
-0.823043
-0.0632254
-0.286641
0.021657897
-0.067950405
-4.7596145
-0.20714922
-0.11281898
0.03419536
-0.01588012
-4.0217776
-0.009090536
-0.31588134
-0.45044246
-0.67951083
-0.0771352
0.05945448
-0.3538062
-0.01905981
-0.022838308
-2.0185652
-0.7798878
-0.035658553
-0.014278095
-0.0055873953
-0.84056866
-2.3736877
-0.13916549
0.17877607
0.2708366
-0.44245005
-0.62526685
-0.03293616
-0.47060788
0.111744106
0.025963608
0.027308714
0.05008218
0.12231525
-0.02492495
0.0715132
0.10694049
-0.2026648
-0.16886322
0.31129313
-0.024963832
-0.56069726
-0.033374675
-0.34527317
-0.37734926
-0.16045919
-0.4759813
-0.1528016
-0.72013944
0.21567748
-0.081831835
0.025045082
0.116069555
-0.103577204
0.04861476
0.000724257
-0.019059058
-0.00893055
0.032483667
-0.05443206
-0.25623095
-0.27634135
-0.19500548
0.023668086
-0.054241583
0.052536722
-0.011723753
-0.37320644
0.045395233
-0.3111056
0.16556914
-0.5835491
0.09538547
-0.15571807
-0.73246664
-0.43630394
-0.7215456
0.15566075
-0.023836281
-0.12994207
0.08505974
-0.02931234
0.21801555
-4.792637
-0.10083601
-0.14564145
-0.032993168
0.068125725
0.15365265
-0.0067201974
-0.3207256
-0.019023225
0.16683841
0.14992014
-0.7483883
0.12457758
0.11878603
-0.053617626
-1.0635422
0.036598314
0.003297401
0.06014773
-0.13825493
-0.044145208
-0.027376594
0.08196739
0.06407893
-0.24099103
-0.0483866
-1.4733294
-0.14623782
-0.442206
0.03805083
-3.714417
-1.6084956
-1.4749297
0.1383765
0.051467642
-0.112960346
0.1527487
0.019596955
0.10438578
-0.1358548
-0.30668736
0.049378928
-7.1508627
-0.15469688
-0.3715587
-0.0029467223
-0.09759768
0.016216643
-0.01467256
0.053618632
0.052335903
-0.011375998
-0.9073567
-0.016629208
0.1888612
-0.46507403
-0.06593051
-0.58107865
-0.16044062
0.050942473
-0.108920455
-0.003187793
-0.052865908
-0.029907435
0.0057585007
-0.07180067
0.031585377
-0.00094879564
0.03905483
-0.32794878
-0.024959376
0.12978154
0.10953427
0.022366285
0.13073483
0.23127122
-0.26872918
-0.057202473
0.03582892
0.034223627
-0.14931002
0.058183577
-0.30429053
-0.15928207
-0.01999558
0.20067571
-0.38332352
-0.33210525
0.13189937
0.003991829
-0.051711123
-0.0097744595
0.09724323
-0.089637905
0.12053924
-0.07154916
0.092773445
-0.08353734
-0.10955981
-0.047410134
-0.018474108
-0.0075885463
-0.14626797
-0.10012353
0.19261314
0.01232635
-0.045078237
-1.8493733
-0.09668137
0.08073637
-0.09845637
0.09100829
-3.4931517
-0.13340619
-0.5031499
-0.082300484
0.03385034
-0.20450963
-0.21996221
-0.044861384
0.038382657
-0.07629747
-4.263189
-0.0064937677
-0.6892384
-0.38893658
-0.14564233
-0.16302887
0.13342525
-0.20796713
0.02492006
0.16191824
-4.101957
-0.17067216
-0.048446666
-0.09804891
-0.05831591
-0.8441389
-1.0104294
-0.089199975
0.056690786
0.052808646
-0.40204436
-7.036862
-0.0857792
-0.21675614
0.13943325
0.0550526
0.03392991
0.102104016
0.04845058
-0.03910316
0.045253675
0.10697093
-0.18026704
-0.18853556
0.14237866
0.027514404
-0.44766045
-0.11404197
-0.1964344
-0.4363768
-0.13250513
-0.36690426
-0.1285773
-0.07603851
0.30915445
-0.049771048
-0.04577743
0.014727455
-0.16199234
0.10767482
-0.019385653
0.036041383
0.04495827
0.03621943
0.015901918
-0.45880938
-0.14794052
-0.07089695
0.019035676
-0.015320454
0.0032353564
-0.014818512
0.0062943418
-0.010093882
-0.32101837
0.10605424
-0.3364136
0.11815211
-0.056627955
-1.017046
-0.3190642
-0.2715564
0.10985472
0.023579646
0.005876912
0.024565628
-0.04923767
0.20443302
-0.34330335
-0.08275512
-0.13353676
-0.044735316
0.016109083
0.044003967
-0.065084696
-0.20148979
-0.06940266
0.16960156
0.09666411
-0.613981
0.2626308
0.16736628
0.0032079434
-0.15891808
0.008707144
0.021587051
-0.017455835
-0.031747293
-0.03286275
0.043166075
0.20570698
0.2526046
-0.58583707
0.04029441
-0.103474356
-0.07234083
-0.29506084
-2.911562
0.11643189
-2.5239763
-1.0041374
-4.0619407
0.04401842
0.015231383
0.11608614
0.059547946
-0.90870595
0.0068671326
-0.074670464
-0.0022813014
-0.26049584
-0.11811981
-0.36114308
-0.000762917
0.03681023
-0.0016751871
0.07571948
0.040302455
0.006967964
0.0012088593
-0.39024526
0.06582344
0.36322197
-1.1293949
-0.24310988
-0.4644903
-0.17189337
-0.056387927
-0.101269
0.15669756
-0.05521792
0.03306045
0.018835181
-0.008067067
-0.04472664
-0.22681756
0.031114731
-0.87626874
0.017712057
-0.2968426
-0.088139795
-0.038603164
0.1762546
-0.26606858
-0.11080875
-0.21428978
0.13853902
0.033447437
-0.13049126
-0.0028182191
0.0051230225
-0.049117588
0.03011942
0.08336184
-0.21015935
-0.14387013
0.112145215
0.009282965
-0.0016212009
-0.036972515
-0.14391361
0.05144954
0.105001226
0.17947547
0.0060321917
-0.31461653
-0.49672338
-0.1102783
-0.028845781
-0.07347956
-0.05618766
-0.06607073
0.46375275
0.0052384115
-0.05833932
-2.2305982
-0.11612937
-0.027479513
-0.0684683
-0.037448782
-3.0022597
-0.098062076
-0.42996505
0.026676
-0.03266833
0.274958
0.03763075
0.0039595324
-0.049514126
-0.028084246
-4.8210855
-0.018977243
-0.2769507
-0.0797347
-0.028894765
-0.21157402
0.15800619
0.053981148
0.020631313
-0.1906785
-4.667787
-0.26542574
-0.107737355
-0.07841139
-0.046846736
-0.14062105
-0.97702247
-0.14865817
0.2088545
0.2902529
-0.37446693
-0.8732587
-0.2171019
-0.15804721
0.036103487
-0.01755624
-0.050176244
-0.0971261
0.21777615
-0.0227822
-0.052405976
0.1246763
-0.1954591
-0.25167674
0.14669096
-0.075474635
-0.26283652
-0.049112115
-0.004122033
-0.2953855
-0.24282578
-0.18911228
-0.07536742
-0.3639313
0.20898704
-0.13191879
0.024979295
-0.10900784
-0.020121958
-0.051048175
0.033979286
0.06514247
-0.034232583
-0.056469113
-0.02109924
-0.41868326
0.055954505
-0.46338388
-0.018304098
0.024428073
-0.07699587
-0.022021359
-0.19805862
0.03717939
0.029577658
0.15316755
-0.0966421
-0.14349927
-0.02811538
-1.1769204
-0.13075076
0.00076140394
0.17841136
0.03509736
0.06748661
0.022902746
-0.01557919
0.13940857
-2.2798686
-0.05224234
-0.13773344
0.2334625
0.039429188
-0.03592377
-0.009895921
-0.27239168
-0.070219375
0.080859765
-0.21247044
-0.17929843
0.16250472
0.14129618
-0.030523004
-0.3530034
0.008306348
0.053487238
-0.28422087
-0.09241488
0.116627395
-0.06604883
-0.06949797
-0.057036836
-0.40314367
-0.03967092
-0.13585418
-0.021912595
-0.11602415
-1.3865653
0.4207921
-1.0859914
-0.8537695
-1.2352457
0.13702941
-0.07187687
0.06811003
0.043970317
-1.6079935
-0.0759042
-0.13786152
0.004205786
-0.41349933
-0.2287746
-0.5079784
-0.03232317
0.034179438
0.021074222
0.044419225
-0.038964074
0.03844011
-0.11253589
-0.2209468
-0.04796065
0.17289245
-1.1428137
-0.35572332
-0.2961899
-0.16087382
0.0941603
-0.111216016
0.20434816
0.043464225
-0.04433209
-0.08041182
0.023633946
-0.21725912
-0.1417557
-0.044846706
-1.9657042
0.011706444
-0.57067484
-0.20780942
0.0366016
-0.05437234
-0.37686163
0.016179414
-0.28828144
0.057106465
-0.06599651
-0.1814095
0.019170431
0.04461642
-0.06943985
0.0251034
0.09524784
-0.30634966
-0.10834841
0.08256659
-0.09201517
-0.01844691
0.05843124
-0.19054364
-0.055326045
0.21074884
0.15394829
-0.13837682
-0.40024263
-0.3559829
-0.029557915
-0.039654776
-0.15102342
0.011770916
-0.10778785
0.4720714
0.10318373
-0.1209316
-1.4655443
-0.14586674
-0.06573323
0.024308773
-0.004805778
-2.4939215
-0.07043643
-0.21801072
0.007564386
-0.001774921
0.34206894
0.110326074
-0.1276345
-0.1848743
-0.08064521
-4.5387144
-0.019370515
-0.019260375
0.059699357
0.063945405
-0.25157982
0.02834635
-0.0067717205
-0.06969246
-0.13233122
-6.044369
-0.3622203
-0.097675376
-0.10362429
-0.086129256
-0.09608821
-1.3780177
-0.12793411
0.09897127
0.21426587
-0.21534613
-1.1361402
-0.08797181
-0.06604941
0.025904592
-0.06260029
-0.02586276
-0.15494163
0.19325735
-0.0921608
-0.06402479
0.12194404
-0.05541378
-0.26872292
0.046319492
-0.055304606
-0.4410132
-0.078010716
0.06879478
-0.30151463
-0.23084316
-0.067206696
-0.04363594
-0.25169876
0.15745987
-0.009357669
-0.048547693
-0.115048125
0.056090437
-0.1434231
-0.002204686
-0.0036105353
-0.017443947
-0.013230866
-0.21086408
-0.20658603
-0.02374557
-0.64035445
-0.049176507
-0.0123186875
-0.06343119
0.023569757
-0.50805765
-0.097789414
0.15456632
0.020304948
0.093631916
-0.28649756
-0.0635075
-0.74849683
0.096439674
0.08070994
0.07484517
0.0043426184
-0.0029041446
0.106726944
-0.047787853
0.18979864
-5.9323235
-0.08881995
-0.18816625
0.26896593
0.027025664
-0.009285249
-0.04812447
-0.31201136
0.066637956
0.10925759
-0.8299709
-0.12529327
0.0920034
-0.0021077632
-0.17435963
-0.4058915
-0.0004406769
-0.00036614656
-0.24730454
-0.06640497
0.25734293
0.007046418
-0.09260308
-0.18026648
-0.021791302
-0.015971646
-0.45331627
0.03052907
0.012300946
0.4336582
0.3280067
-0.6591914
-0.783423
0.25318736
0.024649255
-0.05851046
-0.007964282
0.0030000545
-1.2336068
-0.026050229
-0.054354243
0.05591768
-0.2570851
-0.7207381
-0.21274342
-0.008274135
-0.055261593
-0.015468885
0.033212014
-0.08501394
0.07058122
-0.20555648
-0.15427801
0.046667516
0.27056706
-0.76535606
-0.31210694
-0.17718977
-3.5711477
0.023304755
-0.15530528
0.2961363
-0.036697753
-0.011069929
-0.01584197
-0.058883473
-0.14704277
-0.25490624
-0.083324686
-0.49999166
-0.021748634
-0.6958558
-0.24731058
0.012068906
-0.10556792
-0.001295421
-0.09024121
-0.2167994
0.07867972
0.037496634
-0.20766787
-0.1605787
0.0019674085
-0.16740265
-0.013263169
0.21172754
-0.015174872
-0.14686528
0.04463808
-0.07366922
-0.021605369
0.022467047
-0.17166796
-0.21230794
0.11384316
0.06961412
-0.12146022
-0.034461755
-0.16856769
0.033249713
0.024044095
-0.050162595
0.31595787
-0.15351214
0.27635017
0.44395158
-0.08392227
-0.6947887
-0.16110393
-0.16310115
0.03600641
-0.04780956
-0.105552666
-0.25995266
-0.21222715
-0.1494294
-0.02475172
0.11401167
-0.0054757586
-0.1010494
-0.31822252
-0.06316179
-6.64643
-0.042626634
-0.07388093
0.029191615
-0.044464733
-0.301064
0.11650159
-0.060803447
0.050100256
-0.11437452
-4.9784074
-0.4941524
-0.025883734
-0.10248958
-0.037803903
-0.061642468
-5.5622597
-0.120764256
0.11713018
0.07698323
-0.04177759
-0.35475767
-0.15953533
-0.052289236
0.020189175
0.03848094
-0.0054553435
0.035074834
0.18545616
-0.10845918
-0.18353193
0.009563285
0.021846604
-0.101005495
-0.17811073
-0.057477657
-1.1484404
-0.42361215
0.13742685
0.0863576
-0.14743002
-0.122903
0.035060313
-0.042848546
0.17617063
-0.013721239
-0.027325382
-0.039201178
0.14249809
-0.120856985
-0.068696365
-0.08363198
-0.038381927
-0.0060661137
-0.3035162
-0.1016074
-0.06506331
-0.22919695
0.04372292
-0.06821736
0.039488155
-0.05861639
-0.4652828
-0.055543527
0.0943017
0.11891172
0.026994614
-0.1846241
-0.07430251
-0.41057545
0.083652444
-0.115034774
-0.028023366
0.02144352
-0.06757775
0.02100503
-0.10584004
0.12989827
-0.2748099
-0.05066538
-0.19378129
0.2773484
0.055347346
-0.13695718
0.026787037
-0.18574968
-0.025784431
0.10921714
-0.0379829
-0.0658865
0.12631033
-0.03145196
-0.11943182
-0.2328219
-0.014578293
0.02664271
-0.15646453
-0.18076234
0.2873557
-0.00075824215
0.040391136
-0.07192535
-0.04429883
-0.07456052
-0.9128371
-0.04267167
-0.14892246
-0.059435632
0.10386326
-0.19882718
-0.41512173
-0.11858718
0.12976407
-0.1512487
-0.08924609
-0.07762982
-0.42180577
0.055023246
-0.09077385
0.053386282
0.5360898
-1.3005835
0.21005099
-0.04658429
-0.133015
0.04411695
0.044581193
-0.049668457
0.18372525
-0.19452238
-0.07643062
-0.0813905
0.17292601
-0.6976257
0.17537054
-0.17076112
-1.8381763
-0.06333093
0.055597994
-0.17870855
0.030881831
0.037426244
-0.071604386
0.045878936
-0.19747108
-0.4367532
-0.024149543
-0.13661416
-0.0070743184
-0.5224741
-0.054141972
-0.02416335
-0.17073703
-0.09449665
-0.2123057
-0.17387345
-0.034263656
0.111358285
-0.113199055
-0.2635388
-0.022736901
-0.06807981
-0.036155537
0.08815802
-0.3723553
-0.23095211
0.0389163
0.011170604
0.04274954
0.030815179
-0.099486
-0.07633457
-0.038439356
-0.03113014
-0.13063918
-0.10219642
0.025413807
0.01630358
-0.038182687
-0.14451693
0.35600471
-0.14852281
-0.080717415
0.3723748
-0.028429406
-0.4508132
-0.011404534
-0.15474688
0.099440694
-0.053185005
-0.030267242
-0.6738752
-0.05604214
-0.25691167
0.022235021
-0.3982095
0.0049288482
-0.09862521
-0.687494
-0.14230439
-4.8000464
0.06967297
-0.26463577
0.14009579
-0.13476966
-0.8911416
-0.011617994
-0.123310596
0.05662684
-0.07622454
-2.0431395
-0.6665857
-0.0008290841
-0.1421939
-0.063376784
-0.15180017
-3.2221413
-0.07296434
0.09128085
0.18176764
0.03240044
-0.4090432
-0.071947224
-0.13496277
-0.11676627
0.038323477
-0.06331305
-0.002933094
-0.13204509
-0.5160623
-0.022276547
-0.0050822883
-0.011276578
-0.0580958
-0.10265009
0.005126339
-1.3371178
-1.5795631
0.1123222
0.023612738
-0.20950851
-6.260587e-05
-0.14702052
0.042630624
0.1771124
-0.5254059
-0.074003704
0.029579448
0.08215058
-0.14753018
-0.06684588
-0.025349064
-0.035292104
-0.0822838
-0.8259292
-0.124217555
-0.10806082
-0.10565289
-0.041617397
0.0312164
0.051587567
-0.013820736
-0.28974843
-0.02129232
0.14494123
0.10608112
0.118408784
-0.14695898
-0.17105964
-0.29949358
-0.20640329
-0.8275807
0.0021727688
-0.017676754
-0.057212718
-0.038348444
-0.10341445
-0.06717467
-0.14659522
-0.08184328
-0.17100285
-0.6019575
0.006119074
-0.08656601
0.053996008
-0.026030602
2.4664338e-05
0.058007162
0.66096234
-0.14665134
0.16526617
-0.026357712
-0.12666126
-0.5647487
-0.0088454345
-0.059404712
-0.017831462
-0.5940776
-0.06894249
-0.03573129
0.057669196
-0.15511267
-0.031330008
-0.035401642
-1.1547599
-0.13564557
-0.092244335
-0.07489982
0.10341848
-0.19075526
-0.43538192
-0.20313194
0.010874648
-0.11383444
-0.19200498
-0.030682176
-0.13014866
0.19956294
-0.13586906
-0.020904941
-0.260444
-1.963716
0.051228255
-0.06691073
-0.09550562
-0.042378504
-0.06324744
-0.06949739
0.100188464
-0.10341638
-0.012526206
-0.031253207
0.11579089
-0.9108051
-0.0063463626
-0.02549692
-2.4917927
-0.075332105
0.03746117
-0.15510751
0.05337092
-0.039192807
0.030825732
-0.0550674
-0.16400515
-0.6263815
-0.106542915
-0.15769267
0.033465452
-0.34826717
0.018582275
0.020399412
-0.11495965
0.008187582
-0.14588399
-0.04991675
-0.090241164
0.06200667
-0.13188355
0.06451586
-0.061628465
0.07453334
0.0075331666
-0.27424055
-0.34805
-0.058816195
0.0651048
0.059659135
-0.062169448
-0.015820177
-0.028267045
-0.007340893
-0.1612611
-0.15332057
0.016786216
-0.14893614
-0.37821597
-0.019547855
0.019057414
-0.014272278
-1.4915001
-0.07645799
-0.5545293
-0.2064413
-0.05717443
-0.31644842
-0.27924347
-0.03302882
-0.080136344
-0.01555539
0.054399103
-0.89004004
0.014874205
0.010181187
0.058735725
-0.2476124
-0.020263933
-0.13174047
-0.8590793
-0.0337635
-0.5771139
0.06775552
-0.39868644
-0.033302326
-0.21483265
-1.7138003
0.055083405
-0.08528788
-0.024593063
-0.01915014
-4.997914
-0.68355775
-0.069968686
-0.13131431
-0.018451529
-0.028261345
-0.13748682
-0.0496982
-0.07941739
0.16601045
0.03439345
-0.05892266
-0.61433643
-0.4282385
0.009104788
-0.009051745
-0.022770075
-0.017330725
0.11913819
-0.9954241
-0.04943806
-0.083754145
-0.05629536
-0.07076052
-0.027824612
-0.08453263
-0.4889791
-0.13861343
-0.05311286
-0.04295625
-0.17886886
0.080082014
-0.01858685
-0.30993065
0.11195431
-0.09820178
0.0032115937
-0.06843622
0.001143009
0.0007263783
-0.045828167
-0.08531878
-0.17705414
0.009516164
-0.9277991
-0.012870251
-0.09216254
-0.30286384
0.0059425626
-0.07810531
0.058847517
0.0512644
0.02731378
-0.033582926
0.0687408
0.028043196
-0.0066926996
-0.07271638
-0.14492472
-0.2640371
-0.24849284
-0.44691262
-0.007386608
0.049582765
-0.00308476
-0.04962713
-0.057876695
-0.28337157
-0.14104047
0.03738993
-0.06459459
-0.543832
0.018179303
0.0188724
0.022903964
-0.12501957
-0.059514094
-0.02361392
0.32526255
-0.10010481
0.048569445
0.08101397
-0.050839666
-0.31170872
0.022138955
0.0041625495
-0.03576642
-0.13774505
-0.42815313
-0.055487912
-0.07327241
-0.10875402
-0.030091163
0.023504756
-2.5895097
-0.005898847
-0.04051149
0.03233195
0.024027826
-0.20802495
-0.37812757
-0.05332828
0.04664028
-0.19621228
-0.32151195
0.04095222
-0.07571475
-0.8893675
-0.041242808
0.023022488
-0.2947968
-1.9723996
-0.033088345
-0.0011596369
0.0011890526
-0.20049803
-0.1247279
-0.016686292
0.08328274
-0.013691392
0.041025843
-0.009050044
0.15254177
-0.6993864
0.03500028
-0.05551152
-2.9173586
-0.16271119
-0.07608609
-0.08610266
-0.029780636
-0.05614553
-0.065764636
-0.017401135
-0.042850778
-0.40411776
-0.023686284
-0.050663993
-0.006932433
-0.037606034
-0.0056270063
-0.0106262
-0.15935782
-0.007912005
-0.09459679
-0.1247645
0.008723752
-0.018399432
-0.18742873
-0.030171588
-0.12461213
-0.043996498
-0.022447627
0.12308347
-0.26479068
-0.04990271
-0.001999254
0.041321214
0.029509736
-0.022831455
0.012503857
-0.11256337
0.06025901
-0.5221904
0.010177525
-0.07030084
-1.3248758
-0.18031763
-0.061309956
-0.0468886
-0.13107789
-0.16953549
-0.056822434
-0.11876397
-0.038209856
-0.43506637
-0.43372604
-0.14040636
0.14968458
-0.012472916
0.034211602
-0.46113274
-0.09565578
0.027911784
-0.06419253
-0.15014584
-0.09251934
-0.07231318
-0.5024736
-0.051179063
-0.5797887
-0.032591116
-0.47828433
-0.04879418
-0.41547096
-2.9037077
0.037443735
-0.06234724
-0.0057357284
0.05986026
-2.564955
-0.5710015
-0.060841337
-0.085318066
-0.014811668
-0.034504935
-1.6368684
-0.08458675
-0.04118546
0.064733006
-0.14416568
0.08074578
-0.20036338
-0.17984752
-0.062204346
-0.06302369
-0.07693714
-0.021095052
-0.18565121
-1.3281636
-0.067139626
0.04370242
0.044121295
0.032309987
-0.12488243
0.020218344
-1.153164
-0.08136971
-0.04518708
-0.09474734
-0.23124543
-0.016143922
-0.072436914
-0.9285085
0.12483504
-0.21410826
0.026592
0.0065968917
-0.20655526
-0.05585169
0.008013314
-0.07278973
-1.3328112
-0.045139037
-0.19974099
0.0060166786
-0.038890216
-0.16090909
-0.011301127
0.05750912
0.045228165
0.053435523
-0.025048811
0.017903596
-0.17401455
0.01291527
-0.0009850455
0.028189983
-0.066258796
-0.18954237
-0.08002129
-0.29526693
-0.052688368
0.010003037
-0.17119114
-0.08396444
-0.090573706
0.028292058
-0.7536083
-0.15633762
-0.089196675
-0.1689692
-0.06368331
-0.06036464
-0.03928202
-0.16542207
-0.040778756
-0.12681566
0.058672152
-0.057895668
0.05124541
0.09059952
-0.05159427
-0.25871557
-0.0090520345
0.02978512
-0.054272782
-0.10771709
0.15259685
0.033646688
0.051899415
-0.013889536
0.01106675
-0.024936644
-2.059614
-0.042666107
-0.1352276
-0.15960614
-0.34981623
-0.1473621
-0.2752561
-0.30263248
-0.0028801607
-0.1363802
0.008551752
-0.012967522
-0.029051801
-0.5651602
-0.41942298
-0.027549032
0.04673791
-0.3233193
-0.09979598
0.018902643
0.12701504
-0.07112903
-0.0955437
-0.04264434
0.012718773
-0.10567097
0.023609161
0.032705404
0.17046826
-0.42092773
-0.1118358
-0.13534991
-1.9299595
-0.16179477
-0.04572042
0.18766093
-0.060376182
0.023772892
0.009455062
-0.0691254
-0.029952422
-0.57764906
0.059773203
-0.07599714
-0.03674711
-0.22295298
-0.02485271
0.03024268
-0.058555547
-0.028910296
-0.017533857
-0.21983942
-0.021365972
-0.027222177
-0.19795778
-0.041653506
-0.06326467
0.08405952
-0.044184566
0.040825885
-0.33036593
0.05385978
-0.10993926
-0.070112646
-0.053149864
-0.040073227
-0.09942669
-0.19295818
-0.26990297
-0.37777808
-0.02164638
-0.14172947
-0.30141878
-0.017297769
-0.031809863
-0.06925943
-0.29042456
-0.2945404
0.04528417
-0.09470467
-0.25035557
-0.38345093
-0.31782866
-0.24956392
-0.062727556
0.07859553
0.0057964306
-0.080690734
-0.18755053
0.026045054
0.029203363
-0.14712484
0.04767993
-0.028931938
-0.21965812
-0.04868548
-3.8859744
-0.0042066183
-0.9608045
0.01220023
-0.297084
-0.80262434
-0.09454191
0.016416658
0.0184711
-0.026965491
-0.51792383
-0.35404617
-0.0069481744
-0.0752591
-0.059440862
0.023726866
-2.717588
-0.11904859
-0.046124127
0.035556953
-0.4194088
0.0808365
-0.30260444
-0.08557564
-0.32623085
-0.0002650688
-0.06505528
0.011454716
0.1447634
-0.35707587
-0.15504155
-0.022457791
-0.15008305
0.08942538
0.0046121334
-0.063724115
-1.0560005
-0.06974842
-0.14705482
-0.019095333
-0.22311766
-0.1507084
0.027723482
-2.815914
0.08053205
-0.016885487
0.042969633
-0.018300133
-0.071384035
-0.073760934
0.012328815
-0.031360935
-0.11599237
-0.025564563
0.03073241
-0.15147904
-0.24578059
-0.13741998
-0.04589813
0.002333938
-0.031522706
-0.028572202
-0.21621814
-0.03713906
0.06116066
-0.042024057
0.014632883
-0.006836106
-0.11072989
-0.18058403
-0.090064414
-0.11088949
-0.20567062
0.0024219812
-0.16216734
-0.07394707
-0.019934693
0.03994564
-0.6437548
-0.17648879
-0.3254736
0.118211456
-0.02256238
-0.040608622
0.037465937
-0.28361952
0.01582536
-0.39498243
-0.9015904
0.08403267
-0.097580105
0.04426577
-0.011266981
-0.29173464
0.04199058
-0.015076443
-0.040357057
-0.1273927
0.17513257
-0.017243305
-0.033775643
-0.05594686
-0.16265212
0.054477755
-3.2880151
-0.08393511
-0.2078452
-0.32643804
-0.33444515
-0.06583311
-0.07178419
-0.42413107
-0.10466178
-0.21874376
-0.07339483
-0.009527685
0.08675763
-0.48034906
-0.18449266
0.020258434
0.14934242
-0.11548392
-0.1150011
-0.012457749
-0.02307189
-0.027004493
-0.02445791
0.041240767
-0.48850375
-0.0769579
-0.026642783
0.037080124
-0.015453944
-0.13166547
-0.050270516
-3.9374342
-0.2784276
-0.020977553
-0.038885772
-0.093529746
-0.029295046
-0.035841987
0.049505796
0.025108695
-0.28115743
-0.051568918
-0.9801342
-0.097521074
-0.038548566
-0.042925004
-0.0029153558
-0.024679853
-0.11064392
-0.013089867
-0.02600804
-0.14219813
-0.6228131
-0.4695123
-1.270006
-0.093319364
-0.11348429
-0.0795978
-0.044723973
-0.0255054
-0.36481252
-0.09137504
-0.08128837
-0.1072228
-0.02567951
0.01643446
-0.009613704
-0.13640037
-0.10838622
-0.566967
-0.09900647
0.0042500696
-0.12162203
-0.082478605
-0.02204427
-0.03503923
-0.080059856
-0.024785023
0.0145933665
-0.03360811
-0.39613613
-0.45252684
-0.37341473
-0.061227635
-0.13446066
-0.035546154
-0.09356628
-0.052364048
-0.12769993
-0.037385646
0.02519057
-0.09207628
0.014511855
-0.23247674
-0.049263313
-0.0426814
-0.12872495
-0.062228173
-0.6148441
0.0067078862
-0.2485723
-0.3972354
0.010680911
-0.012105472
-0.054891832
-0.111986384
-0.123358764
-0.3158196
-0.09430375
-0.23468441
0.049640626
-0.09634516
-0.11227357
-0.1614689
-0.09622386
-0.11587913
-0.026164314
-0.013291106
-0.20966849
-0.22565056
-0.0064445846
-0.07223998
0.052382533
0.013117965
0.008743312
-1.6607132
-0.09125676
0.023682475
-0.033988025
-0.014809262
-0.047766343
-0.0028001808
-0.9200577
-0.031910412
-0.053864174
-0.09534503
-0.26824448
-0.113168076
-0.08156824
-0.10987809
0.034328155
-0.041346073
-0.012249498
-0.10799736
-0.030863985
0.005532431
-0.059051186
-0.024129413
-0.534546
0.046007145
-0.13733755
-0.036041465
-0.014227143
0.006807648
-0.042763837
-0.05752198
0.014495392
0.0675718
-0.003856551
-0.04680261
-0.1272526
-0.0072137807
-0.11627473
0.005978834
0.028174296
-0.23326197
-0.071580335
-0.05818481
-0.011891907
0.02315074
-1.4377917
-0.043308027
-0.009971203
-0.10463564
-0.067597315
-0.023518553
-0.23369245
-0.113392845
0.0635546
-0.066986546
0.051738236
-0.65363365
0.056617793
0.012306472
-0.011850059
-0.038527496
-0.10872701
-0.15690291
-0.13955916
-0.106059626
-0.034559157
0.022470407
-0.061460245
-0.06697655
-0.117803544
0.0054256907
-0.13662975
-0.04889822
-0.33070707
-0.025317904
-0.08120463
-1.016364
-0.06931214
-0.071565345
-0.16339736
-0.1711731
-0.16938478
-0.1078895
-0.35885704
-0.11719045
-0.005507048
0.023590734
-0.06813891
-0.16126114
-0.1801601
0.037986215
-0.05067623
-0.020841986
-0.11360237
-0.010950806
-0.1101015
-0.004158592
-0.00945656
-0.011424684
-0.49676228
-0.080990255
-0.1065836
-0.02200724
0.00930777
-0.14514524
-0.06422914
-4.039051
-0.32621747
0.00048115218
-0.102484174
-0.098765835
-0.04542069
-0.056012142
0.048012435
-0.060498357
-0.24519287
-0.050156843
-0.8902911
-0.10431438
0.05811215
-0.035987563
-0.075631425
0.053295486
-0.084743954
-0.05054217
-0.0013416574
-0.11033251
-0.5636359
-0.5207017
-1.4044571
-0.02337368
-0.10245044
0.0072063613
-0.06558132
-0.10970215
-0.3800017
-0.043511562
-0.060860667
-0.10452133
0.028964937
-0.035642643
0.002595291
-0.09949437
-0.092178024
-0.60926414
-0.039961386
-0.013273152
-0.13896719
-0.11332955
0.04037712
-0.011687118
-0.06604683
-0.10198708
-0.102310546
-0.0993428
-0.3995641
-0.4644284
-0.4198228
-0.08410696
-0.080445625
-0.0117329
-0.0147820115
-0.11601653
-0.08017136
-0.084874086
0.046355385
-0.09939852
-0.037768725
-0.24081828
-0.0584726
-0.10547865
-0.0071325605
0.06687346
-0.62009966
-0.05011763
-0.23230343
-0.43568712
-0.080059715
-0.1209468
0.031939365
-0.108525544
-0.037062008
-0.23979282
-0.01959118
-0.14584054
0.0037249636
-0.014361382
-0.012517235
-0.15958108
-0.1327817
-0.024931142
-0.08665199
-0.0018539554
-0.214878
-0.12255726
-0.03584388
0.05710612
-0.026840521
-0.111970946
-0.048565265
-2.0576773
-0.01849659
-0.088333055
-0.0023964462
-0.07462526
-0.08209904
-0.08511765
-0.9035229
-0.09091726
-0.08887461
-0.08010867
-0.3728015
-0.115286045
-0.009221561
-0.030085372
-0.0420778
-0.02270484
0.059133314
-0.06153789
-0.09691677
0.017337201
-0.016579915
-0.005387001
-0.5141752
-0.01644139
-0.012048014
-0.11830567
-0.025298825
-0.0044409717
0.0055891024
0.04870761
0.029450443
-0.04659551
-0.070221655
0.0013529648
-0.088210516
-0.105782405
-0.055162974
0.000552607
-0.034990896
-0.21033807
-0.15045673
-0.13392536
-0.049419004
-0.0743
-1.332899
-0.09727488
-0.015281526
0.008828816
-0.14887181
-0.114402756
-0.17258808
-0.08988801
0.034546517
-0.011517634
-0.015640013
-0.7079955
0.005593258
-0.06616749
0.013378025
0.011033771
-0.115914054
-0.3428307
-0.15947741
0.013425607
0.040282942
0.035056554
-0.03524664
-0.051224284
-0.041681513
-0.07967755
-0.10374472
-0.04515292
-0.25517702
0.0005346858
0.013906425
-0.87216187
0.015339272
-0.020327875
-0.16314487
-0.07579254
-0.12283187
-0.08539519
-0.23849219
-0.096336916
-0.10284276
0.046354774
-0.09342997
-0.026374215
-0.16278051
-0.0029263909
0.044851728
-0.008184527
-0.031250726
-0.043286048
-0.056388553
-0.07956622
-0.024247326
-0.038916543
-0.6079733
-0.08247627
0.018531598
-0.050370224
0.0075798724
-0.21849449
-0.08785613
-3.9910996
-0.34665984
-0.06026452
-0.10051493
-0.015618407
-0.003686762
0.025589984
-0.06141443
-0.06558181
-0.32772526
-0.08368619
-0.8694495
-0.038760927
0.041882627
-0.11829701
-0.116217785
-0.03858378
-0.12006226
-0.012878526
-0.13656221
-0.14978017
-0.5395664
-0.4925476
-1.3235824
-0.037731055
-0.12239928
0.013253785
-0.04645737
-0.06273829
-0.35696045
-0.06787565
-0.09280762
-0.05805245
-0.01427316
0.012104768
-0.09323684
-0.063535444
-0.07165711
-0.6431024
-0.08237524
-0.12670034
-0.13367821
-0.09978738
-0.056109704
-0.1268737
-0.064170755
-0.11073758
0.018263906
-0.11556198
-0.41098058
-0.41774142
-0.27509934
-0.06360091
-0.012944942
-0.015995678
-0.103743546
-0.04823429
-0.084759
0.0010756275
0.036521245
-0.07253999
0.0012317286
-0.20323151
-0.09244619
-0.09591016
-0.10875757
-0.05500404
-0.5450602
-0.086814694
-0.22324237
-0.4011636
-0.0963012
-0.011221288
0.008447156
-0.004131169
-0.048171554
-0.2251955
-0.1270695
-0.12580672
-0.049317732
-0.004306719
-0.042305738
-0.14259993
-0.018165749
-0.084662095
-0.06581773
-0.03748436
-0.24756452
-0.21069853
-0.08372634
0.041601926
0.012149427
-0.09589203
-0.1197854
-2.2012002
-0.10095391
-0.10349953
-0.021770986
-0.05338138
-0.09430901
0.017842809
-0.7519099
-0.022126514
-0.014047029
-0.15646137
-0.28794947
-0.04309011
-0.098355874
0.01714301
-0.016049486
-0.027974097
0.023355594
-0.13118353
-0.040978886
0.009278332
0.03639308
0.005929891
-0.47712716
0.030122012
-0.124609396
-0.070830874
-0.06436347
-0.10734809
-0.03556298
0.052680366
-0.056649674
0.005946845
-0.109147996
0.010552052
-0.02212374
-0.03396979
-0.098073795
-0.034500808
-0.0018248576
-0.2013383
-0.134132
-0.0038058679
-0.033710375
-0.004752773
-1.3276765
-0.109078296
-0.031340685
-0.05468221
-0.054708842
-0.0105580175
-0.16417629
-0.037347686
0.010652136
-0.042515755
0.037630092
-0.64666253
-0.05980542
-0.0130670015
-0.016583743
-0.045780938
-0.09995662
-0.2970866
-0.09056706
-0.058134567
-0.0014937783
0.04595974
-0.018339455
-0.10711933
-0.08023316
-0.07752898
-0.0736275
-0.09147873
-0.33015236
0.03212864
0.009348718
-0.92436075
0.0046761744
-0.0033048831
-0.07923921
-0.08774779
-0.102756046
-0.030050451
-0.26797584
-0.15865098
-0.023032054
-0.042359915
-0.1491728
-0.11326186
-0.15899952
-0.02498127
-0.069404624
-0.4921396
0.0046840436
-0.047725752
-0.09260488
0.088308595
0.15571336
-0.0049335044
0.07151532
-0.06325737
-0.14450733
-0.04660133
-0.0005160732
-0.1323066
0.089433014
-0.2469005
-1.2653054
-0.11924768
-0.08285335
-0.34956634
0.022867449
0.026339257
0.05913413
0.0474127
-0.2432089
-0.30962095
-0.078287005
0.019856248
0.04476306
-0.078982346
0.03442063
0.01530547
0.0490859
-0.032217395
-0.04324365
-0.17173152
-0.09803867
-0.10891167
-0.39676294
-0.012957464
0.1699212
0.12455937
-0.022046262
-0.05663822
-0.17781894
-0.080813974
0.031853445
-0.10437247
-0.012630859
-0.05097352
-0.10672579
-0.14166664
0.04035762
-0.21361928
-0.12659512
0.027757581
-0.24933286
-0.145634
-0.0076246797
-0.073293105
0.09017354
0.009566411
-0.26781628
0.06945291
-0.28571278
-0.2917192
-0.07242463
-0.08418241
0.19600224
0.0023716348
-0.00014495727
-3.202708
-0.22030126
0.0042376253
-0.03106952
-0.17758714
-0.08886721
-0.07926846
-0.43951082
-0.22781555
-0.40585724
0.009796091
-0.33123758
0.102485836
-0.09516926
-0.2666214
0.06134203
-0.30236375
-0.060604766
0.052908354
-0.54444516
-0.3830031
-0.019496862
-0.06324828
0.03570389
-0.1856373
0.38409755
0.0014640556
-0.007114131
0.14452063
-0.024713239
-0.053625572
-0.8675245
-0.20582534
0.111431986
-0.05039134
-0.045814417
-0.1038988
-0.18361136
-1.793723
0.02106945
-0.16888396
0.0009620496
-0.13378625
-0.019443193
0.03191588
-1.947334
-0.16420473
0.1269842
0.044917956
-0.23752612
0.03774189
0.11141698
0.040092226
0.043072537
0.15335007
0.01742452
-0.24178128
0.058136802
-0.12516704
-0.0152432
-0.03389981
-0.24631025
-0.025542054
-2.2827168
-0.122137256
0.0555723
0.004037838
0.0472811
-0.041874677
0.019111153
-0.0016239518
0.043593153
-0.07249288
0.07918684
-0.07093166
-0.02921126
-0.20163389
-0.14797282
0.0033502872
-0.3914888
-0.10375763
-0.089256026
-0.05970177
-0.27802435
-0.07386428
-0.067237996
-0.62870085
0.012844785
0.02261735
-0.0384549
-0.784803
0.030599609
0.04753597
0.02637411
-0.31852737
0.0498927
0.08910745
0.120958276
-0.119921
0.13932487
-0.031249039
-0.09210054
0.10440453
0.044147123
0.053626608
-0.046048306
-0.23270804
-0.41231552
0.03839828
-0.19897102
0.01786612
-0.16830166
0.022963172
0.010690338
-0.21424742
0.011596372
-0.020128833
0.029687118
-0.069659054
0.061787196
-0.031511415
-0.012196757
-0.126699
-0.19997145
-0.0045282464
-0.2616849
-1.8119543
-0.713569
7.6274184e-05
-0.06348192
0.14719507
-0.19929244
0.047866464
-0.22209714
-0.14417309
-0.10868081
-0.08082863
0.040040758
-0.0309924
-0.24462387
-0.002134467
-0.17339893
-0.31456363
-0.061497707
-0.31740105
-5.151925
-0.13507007
-0.21242145
-0.27111349
0.042447086
0.047014717
-0.058447286
-0.066033356
-0.11956511
-0.056333262
0.06553863
-0.13696629
-0.02805909
0.011022939
0.03454438
-0.016569303
-0.125841
-0.17437813
-0.088528246
0.031778254
0.06491976
-0.14723752
-0.19675736
-0.10888663
-0.17138836
0.024865825
-0.0036101518
-0.045367282
-0.36012745
-0.13551241
0.18193647
-0.0065486557
-0.049760498
-0.017750856
-0.14766912
-0.06296717
-0.03472702
-0.040320635
-0.14511104
0.12787016
-0.019379819
-0.21182202
0.04120704
-0.09689067
-0.056017812
-0.4766767
-0.031893816
-0.11218657
-0.37695894
-0.6468269
-0.09312877
-0.0017631204
-0.09576096
-0.0299468
-0.14679378
-0.16525708
0.060790233
-0.27523607
-0.006330536
-0.039020553
-0.094102904
-2.4057934
-0.40906435
-0.024882017
-1.0033718
0.04925051
-0.27791655
-0.00077520113
-0.0383772
-0.051357564
-0.018385306
-0.15415011
0.06798976
0.14214711
0.0386038
-0.24388157
-0.013437183
-0.08715766
0.035009924
-0.31039074
-0.0494822
-0.08695742
-0.27708936
0.021397848
-0.00686635
0.082772434
-0.46749392
-0.28071532
-0.1413776
-0.04063285
-0.019529233
0.012471071
-0.051277574
-0.12491371
-0.21836445
-0.1414148
0.00089548156
-0.07897365
-0.06465092
-0.029831402
-6.540691
0.002998105
-0.30220887
0.13478924
-0.18250771
-0.052830134
0.0029581448
0.045182373
-0.025629507
-1.1197517
0.015928987
0.007320542
-0.015189656
-0.044755116
-0.034464527
-0.014585147
-0.028687134
-0.030158935
-0.12565967
-0.0048910077
0.035126295
0.054484874
0.017423855
-0.06704492
-0.0707952
-0.024193497
-0.16165562
-0.00894671
-0.029956924
-0.13210367
0.0050905794
-0.22384784
-0.08206943
-0.19080733
-0.16554965
-0.12689076
0.0077220914
-0.047693796
-0.06386657
-0.14467129
-0.05252232
0.0027370322
-1.0786718
-0.04974407
-0.14593393
-0.04477328
-0.00033922313
0.16778728
0.023004223
-0.08136834
0.06038402
-0.014788294
0.017623005
-0.09961278
-0.21413091
0.0016849898
-0.0106986
-0.15559018
-0.054900818
-0.0607123
-0.16699973
-3.2795472
-0.15669736
-0.035959374
0.07968294
0.08561783
0.063015856
-0.041383203
-0.7146546
-0.005508228
0.048257615
-0.023738142
-0.6934302
-0.17142808
-0.2266772
-0.31446564
-0.12714978
0.009176266
-0.004184162
-0.07385316
-0.07419097
0.13017805
-0.035047248
-0.08172072
0.0514515
0.23781091
-0.41896647
0.04666625
-0.27079588
0.032955132
-0.18775184
-0.05090555
0.0652267
0.19829346
-0.6796392
-0.052060306
-0.77893895
-0.30191782
-0.13651901
-0.3865789
0.09516988
-0.07582704
-0.27265126
-0.3292391
0.0649832
-0.061947744
0.031951617
-0.00071801536
0.002560861
0.15264192
0.13020651
-0.000115515766
-0.091001906
0.0018687866
0.060633156
0.013705546
-0.08961031
0.25489157
-0.20370464
0.19933438
0.266432
-0.1498915
-0.025160378
-0.05521028
-0.26766053
-0.04588356
0.0643593
0.060154922
-0.1830069
-0.36602953
0.09934324
-0.17857143
-0.012468414
-0.08144315
0.017639445
-0.10238649
0.06621963
-0.026423665
0.1297882
0.29487714
0.12455095
-0.16244906
-0.011267732
0.06317938
0.0037536481
-0.37283495
-0.23788369
0.04990671
-0.18193257
-0.84309924
-0.12717876
0.30312198
-0.042742122
-0.08149789
-0.9825206
-0.0706929
-0.03543549
-0.15843605
-0.0934865
0.12030614
-0.2314933
0.33116633
0.21621731
0.18813376
-1.9632273
0.050746627
-0.3902243
-0.080821574
-0.25060633
-0.06255771
0.057355985
-0.36730304
-0.022585467
0.24289788
-0.11696307
-0.11313854
-0.806956
0.023556855
-0.08343453
-0.7660292
-0.5290022
-0.048275143
-0.50089
-0.21318787
-0.29259896
0.20293532
-0.27779055
-0.44580078
0.021673359
-0.016724017
-0.025032857
-0.23575908
-0.082679525
-0.2266962
0.021362856
-0.28392625
0.06140737
-0.09297247
0.034885716
-0.09012475
0.018412812
0.08457635
-0.13784051
0.10424176
-0.083605625
-0.13443743
-0.10684323
0.07059967
-0.24600714
-0.030900067
-0.022053294
0.031305816
-0.12513353
0.17035319
-0.07672183
-0.03602946
0.029274581
0.0024646267
-0.008621042
-0.011582151
-0.05994189
-0.0116210105
-0.01897238
-0.045823086
0.051083602
0.05620442
-0.2661374
0.21097149
-0.19684805
-0.18481767
-0.17450176
0.078719124
-0.1545313
-0.31084746
-0.23397338
-0.41385916
-0.0049160076
0.013565128
0.05518716
-0.15338588
-0.032762595
0.15959106
-0.7237791
-0.019793896
-0.07900656
-0.27092642
-0.024977058
0.05737388
-0.04368983
0.16410133
0.009929891
0.22959273
0.053755138
-0.19779769
0.16454403
0.104556
0.012437486
0.2514468
0.006395663
-0.017825067
-0.04238213
-0.11851726
-0.18822189
-0.06631011
0.04440376
0.2946604
0.14938264
0.034674432
-0.5113338
0.11213965
-0.09839406
-0.24969539
-0.25067848
-1.0137944
-0.28685316
-0.28291234
-0.2941079
0.05513986
0.21175681
-0.03073501
-0.18131581
0.03667871
-0.19047306
-0.029771851
0.15516679
0.045314137
-0.22228381
-0.06995873
-0.33998105
0.19341858
-0.13262025
-0.015733697
0.17602296
0.09176611
-0.27347076
-0.016471947
-1.1732304
0.031946015
-0.10512817
-0.38379416
-0.09342609
0.018047148
-0.27467126
-0.150573
0.0674598
0.047283217
-0.0052230745
-0.11082188
0.14615574
0.111989714
0.070726864
-0.10102651
-0.03777721
0.08423292
0.18842085
-0.005332059
0.0655401
0.23402397
-0.36705267
0.0064571872
0.38967475
0.26970738
0.007907884
-0.08198046
-0.23161721
-0.14386316
0.047129665
0.034575265
-0.1009238
-0.29721478
0.026964478
-0.10521179
0.0559835
-0.052099727
0.054845985
-0.015611066
-0.032798495
0.17699564
0.11406711
0.16421053
0.06598632
-0.2690499
-0.06683821
-0.0004845455
-0.28573713
-0.22964902
-0.5053737
-0.2538387
0.06827103
-0.64559346
-0.07513613
0.12778157
-0.047041062
-0.12637962
-0.15728383
-0.18304591
-0.18170321
-0.28376964
-0.025075823
0.28399473
-0.21161634
0.19539773
0.2690744
0.062067684
-1.0032431
0.06548014
-0.20434722
-0.1748808
-0.038871363
-0.06822681
-0.14655021
-0.23371701
-0.021892834
0.06345309
-0.25229144
0.016823016
-0.81179565
0.068441905
0.04751508
-0.55862546
-1.222534
-0.07952179
-0.6119573
0.09762707
-0.43939143
0.2681176
-0.050612766
-0.37249026
-0.15069199
-0.033605095
0.025928454
-0.22711612
0.08889707
-0.23728397
0.07008618
-0.28231236
-0.066661626
-0.08909785
0.04334494
-0.078444414
0.10543494
-0.1817419
-0.19238275
0.06825487
-0.056925368
-0.23747721
-0.26143268
0.10813405
-0.47308564
-0.8337052
-0.026480194
-0.08175734
-0.08847344
0.14438373
0.032561358
-0.023875734
0.14162531
-0.06350164
0.28406987
-0.15665744
-0.10970736
0.0015148596
-0.012013159
-0.01249506
0.011336507
-0.0421599
0.0007041641
0.0532946
-0.21120171
-0.17417417
-0.28897905
0.3105004
-0.15536031
-0.72458035
-0.10511828
-0.30397996
0.09405325
-0.05928165
0.09227021
-0.06681279
-0.10605667
0.080881596
-1.0614644
-0.031443432
-0.14611937
-0.13343087
0.04025623
0.024295088
0.008548503
0.05370637
-0.02556858
0.81836337
0.050319165
-0.1848554
0.091402054
0.17444845
0.047109056
-0.29903153
-0.035247203
-0.008858408
0.15073822
-0.007669502
-0.037923805
0.059386436
-0.12689026
0.36240667
0.04832367
0.0061252424
-0.7457779
0.20691714
-0.15809314
-0.088675834
-0.66701263
-0.9890045
-0.2711975
0.37713987
-0.13563873
0.07859256
0.118955314
-0.0014324286
-0.14955987
-0.12306177
-0.097054616
-0.002053528
0.24484847
-0.6331677
-0.41964287
0.03405324
-0.05906578
0.1000095
0.0284473
-0.030882
0.26347718
-0.1317938
-0.19423297
0.027105108
-1.0124934
-0.30872858
-0.3104599
-0.2238901
0.09808711
-0.0102795325
-0.19100675
0.3334518
-0.037353
0.042806648
0.033765305
-0.024330044
0.0014798449
0.012034653
0.08985871
-1.6923594
-0.01682316
-0.35867998
0.09090638
0.049053688
0.09216347
-0.45512524
-0.14596929
-0.28063887
0.24123561
0.20121925
-0.013275237
-0.13938275
0.065108016
-0.25403586
0.04455509
0.31102395
-0.21559976
-0.11824949
0.16029607
-0.09209378
0.0073704715
-0.045005515
-0.2795134
0.14170258
0.10427823
0.40819806
-0.10087153
-0.24893573
-0.11432386
-0.13888636
0.0034595937
-0.25422832
-0.1491994
-0.11080572
0.6817367
-0.11760827
0.04191645
-0.9230858
-0.0023778048
-0.007896991
0.036616493
-0.110732414
-0.3365818
-0.36479288
-0.3183393
-0.061157417
-0.060476333
0.23548831
0.06996613
0.24030961
0.05197286
0.22230686
-0.18988198
0.007020915
0.048745565
-0.1694683
0.101115376
-0.011867601
0.07727948
-0.14743489
-0.06254779
-0.03428121
-0.32782573
-0.22640723
-1.3390195
0.169811
0.052812014
0.07682412
-0.585797
-0.08473411
-0.5151439
0.1263018
-0.219684
0.2123322
0.021186203
-0.18161088
0.0049503166
-0.021307169
-0.06491685
-0.28110075
0.36007053
-0.18636678
-0.032473322
-0.16477317
-0.008879573
-0.13395298
-0.041206338
-0.07567894
0.10232183
-0.23313215
0.2619926
-0.12162703
-0.00037070643
-0.042876214
-0.09194488
0.12057219
-0.31186828
-0.07772549
0.049032472
-0.07742335
0.08284347
-0.21834469
-0.05442353
-0.07572966
0.12257997
0.026502477
0.20570643
-0.524236
0.09464551
-0.31642634
0.038636178
0.028626554
-0.07771756
0.01259567
-0.14037254
-0.035690553
0.033154815
-0.052640144
-0.05607348
-0.14180219
-0.08284889
-0.8912717
0.21126544
0.09926345
0.060497966
-0.016220344
0.072271
0.12675059
-0.08354921
0.13193008
-0.15234593
0.03671061
-0.0061488394
0.2773812
-0.05879891
0.124024786
-0.043408062
-0.13108334
0.00212995
0.50175273
-0.11600285
-0.4002449
0.053285602
0.13631217
0.047942247
-0.76838166
0.04390923
-0.030382391
-0.32798502
0.36598125
0.17681938
-0.013100779
-0.12254529
0.3102423
0.1339069
-0.08535392
-0.3084163
0.12534325
-0.049844213
-0.21045037
-0.06373812
-1.0842069
-0.12599486
0.4082294
-0.0045054764
-0.037658293
-0.014832873
-0.11003914
-1.3518915
0.08463897
0.031439353
-0.027927548
0.29043883
-1.473028
-0.32405278
0.03127096
0.13926914
0.049817853
0.1265751
0.015543177
0.25364128
-0.40609464
-0.13372199
0.06205485
-0.9635903
-0.31864566
-0.47871536
-0.16092187
0.21194984
0.013546993
-0.010414922
0.4494429
-0.06343873
-0.043266777
0.028110875
-0.08058957
-0.1805625
-0.07112211
-0.010463397
-1.5144664
-0.06401176
-0.573964
-0.15184629
-0.01363193
-0.10624247
0.04689013
-0.08314493
-0.28213528
0.20175347
0.14312236
-0.050888676
-0.049841452
0.1258337
-0.038653173
0.0031744372
0.24213956
-0.4585055
-0.03247881
0.24000013
-0.14698099
-0.047167752
0.016092539
-0.3413989
-0.030763177
0.18456854
0.41598406
-0.16518869
0.2245667
-0.120881744
0.00049325393
0.026138773
0.007968927
0.1880703
0.03849247
0.3781847
0.17697977
0.12651458
-0.9168466
0.015351385
-0.23900752
0.018100975
-0.10289803
-0.6214396
-0.46791303
-0.16837396
0.017296072
-0.09184278
-0.2094869
0.044790253
0.2195719
0.0035665277
0.15888678
0.076941706
-0.040233333
0.069078274
-0.0053275637
0.045705907
0.059209384
0.23872794
-0.15814152
-0.012347392
-0.093403965
-0.4867673
-0.14646578
-0.44985288
0.114372894
-0.043885686
0.24385993
0.11309495
-0.06739607
-0.44881564
0.16288966
-0.062003117
-0.60105604
0.11066246
-0.12233827
-0.06617162
0.008829029
0.049917422
-0.17357554
0.33162788
-0.19739541
-0.18277694
0.015715525
0.013738969
-0.22031182
-0.12427688
0.027003424
-0.03176915
0.10206584
0.22671227
0.20727481
-0.053618368
0.020395547
0.060945284
0.013448014
-0.16420187
-0.08412526
-0.0114339795
-0.04373435
0.1958748
-0.34709436
0.0156278
-0.09248456
-0.05480934
-0.044352148
-0.08501386
-0.33275035
0.12231723
-0.28472278
0.02933559
0.033045635
-0.0332494
0.015461244
0.101450354
-0.037135754
0.23046142
0.008362109
-0.0013351317
-0.2632575
0.06078556
-0.49361172
0.23182242
0.10536033
0.11725375
-0.03614892
0.104180254
0.030176714
-0.023558797
0.059908975
-0.7338693
-0.056350697
-0.10087942
0.37648386
0.0018179201
0.014652188
0.014185315
-0.27779937
-0.032798003
0.4772554
-0.1475458
-0.25611603
-0.1518931
0.08740108
0.014449349
0.04125196
-0.065946795
0.032450072
-0.26965207
0.08614111
0.3580467
-0.08131121
-0.11641843
0.29755902
0.23780805
-0.045651257
-0.121751264
0.15247424
-0.046575416
-0.4117585
-0.03510324
-0.64711493
-0.308624
0.46875447
0.16163167
0.020735634
-0.21532048
-0.06538705
-1.1647011
-0.32395715
-0.10552572
-0.056225806
0.15803769
-1.8412848
0.40313458
0.051851045
0.12901212
-0.054040294
0.16879728
-0.013166243
0.3503056
-0.35362366
-0.15440877
0.015445883
-0.3998167
-0.15696205
-0.061049197
-0.08993741
0.16747402
-0.009537871
0.09443864
0.08339764
0.0047705765
-0.039315827
0.005086063
-0.035712797
-0.08563446
-0.12592718
-0.011180835
0.24705681
-0.014932011
-0.6638469
-0.3778865
0.014335319
-0.078483574
0.16152692
-0.054923035
-0.1431802
0.14320065
0.16632062
-0.100466296
0.13205387
0.17791273
-0.08940477
-0.051477578
0.0571712
-0.51935834
0.18357347
0.08690923
-0.17009848
-0.053489342
-0.004018977
-0.1310144
-0.020977395
0.15104645
0.33928287
-0.12110566
0.30816245
-0.078234375
0.14027628
0.028415797
0.3142478
0.5079383
0.49471116
-0.57487726
0.6741928
0.18199316
-0.50689745
-0.11293598
-0.19463466
0.30573073
-0.22045638
-0.3499054
-0.602688
-0.037608657
-0.008338082
-0.028857766
-0.78009725
-0.022567665
0.10460121
-0.11799622
0.18529621
0.1094927
-0.010672089
0.08950344
0.2260869
0.0234159
-0.15357125
0.07434337
-0.18155284
-0.023864103
-0.14778298
-0.58586246
-0.2994964
-1.3034414
0.13277847
-0.07538188
0.34284696
0.13839185
-0.08177551
-0.12247583
0.21938452
-0.10486158
-1.6816252
-0.089640975
-0.36851808
-0.27509597
0.023766309
-0.011720736
-0.1307322
-0.30096853
-0.03678527
-0.10969929
0.16328041
-0.035642024
-0.14214912
-0.17783202
-0.04563025
-0.032051105
0.12561324
0.03686797
0.15161489
-0.16513775
0.020245397
-0.08381045
0.00958544
-0.10572871
-0.16603121
-0.021757143
-0.080683544
0.06327258
-0.124685645
0.024819974
-0.06586452
-0.28110984
-0.01592721
-0.07090226
-0.12719886
-0.14039178
-0.021373663
0.044901595
0.042228706
0.050521944
-0.0031757231
0.7488659
-0.019464545
0.109596774
0.21138807
0.09287682
-0.076674975
-0.029060762
-0.25474277
-0.095352605
0.054561682
0.08014862
0.00028451387
0.013301518
-0.014846315
-0.05209301
-0.015716236
-0.9175272
-0.12324729
-0.06858065
-0.31059355
0.046704475
-0.16804545
-0.046002958
-0.14323345
0.06369753
0.35655588
0.2705131
-0.0036679911
0.07293196
0.09023011
0.026999084
-0.26762927
-0.035149015
-0.02463142
-0.026930563
-0.049404174
0.2600798
-0.036702324
-0.12124568
0.1383569
0.2435387
0.016555144
-0.90400153
0.102760926
-0.10585902
-0.37107638
-0.64401454
-0.12984131
-0.30681401
0.19852938
0.19660151
-0.017872926
-0.13299455
0.018022478
-0.122656874
-0.34467748
-0.64446115
0.010170558
0.0016816998
-1.3988105
0.7977691
-0.009805288
0.23767231
0.06745944
0.35301584
0.069067426
0.19291605
-0.27766314
-0.12612614
-0.0751873
0.2184943
-0.14595363
0.33864245
0.17726098
-0.12922986
-0.060203794
0.106852956
-0.37190297
0.027675468
-0.026647259
0.04072587
0.007392038
0.003916965
-0.18672693
-0.14212576
0.04391041
-0.039247673
-0.24767795
-0.08898737
-0.05048853
0.048469283
-0.095958255
-0.08488221
-0.047719415
0.12856527
0.16915129
0.06135805
0.14159517
0.2817384
0.021514108
0.04475223
-0.46991527
-0.9231673
0.074679695
0.010843093
-0.14104526
0.050346155
0.04660523
-0.14807165
-0.025546255
0.07631594
0.20988256
-0.28211468
-0.1287395
-0.0049722637
0.1234485
-0.006898424
0.11618909
0.36593473
0.41032448
-0.042761058
0.46981165
0.1935972
-0.2558866
-0.12237335
-0.17435825
0.09992932
-0.36466736
0.06568568
-0.6264134
-0.09408535
0.04506612
-0.06851417
-0.41872466
-0.35548377
0.17116158
0.18008848
0.18044545
0.16034582
-0.064254224
-0.055402007
0.43874148
-0.12412133
-0.26633817
0.03574749
0.19391765
-0.06904285
-0.15470172
-0.52416277
-0.41364944
-0.2474517
0.031231163
0.025762761
0.20869741
0.50135744
-0.076859124
0.08821583
0.23493317
-0.002347134
-0.5849741
-0.03641529
-0.56254303
-0.3456024
-0.061069436
0.065858595
-0.19063336
-0.4742553
0.21931666
0.0031816522
0.20200567
0.01509151
-0.055576786
-0.06747265
-0.0705329
-0.015513558
-0.19697164
-0.32024524
-0.83296233
-0.09128059
0.021203699
-0.1641705
0.14169875
-0.014032539
-0.006372521
0.027408129
0.048547484
-0.109762035
-0.061275974
0.009989365
-0.058703985
-0.31199387
0.024860661
-0.13599372
0.04337162
-0.103981875
-0.12038201
0.06363025
-0.03748329
0.029123155
-0.028561682
0.5632814
0.013947984
-0.03704196
0.31205708
0.025849931
-0.047257897
-0.009628844
-0.15221702
-0.6112478
-0.24893135
0.10255571
-0.04801889
0.14675567
0.14607234
-0.04201794
-0.4037102
-0.4242376
-0.16696917
-0.039050825
-0.95544857
0.06469373
-0.23700108
0.010630481
0.03570078
0.033471968
-0.027104113
0.34910396
0.042455815
-0.07405045
0.118238844
0.012915085
-0.42511943
0.010008915
0.042871978
-0.0871394
0.07626288
-0.555044
-0.058861785
0.0026149617
-0.063462794
0.27930593
-0.013351145
-1.1084582
0.17093377
-0.046178587
-0.11613342
0.03443456
-0.2563325
-0.32168
-0.062414803
0.25205797
-0.09037159
-0.2437216
-0.09754728
0.119494244
-0.4708458
-0.7586215
-0.04456466
-0.8694314
-1.0285444
0.60559326
-0.04360213
0.15152338
-0.27609822
0.15869604
-0.0005323151
0.25634474
-0.14893116
0.08657785
-0.097247265
0.20496531
-0.056582358
0.1579244
0.12367735
-0.3999099
-0.122045256
0.15932335
0.17629793
0.064396866
0.031503834
0.04072456
-0.089178875
-0.047834147
-0.28625315
-0.07639827
-0.2895187
-0.0065649096
0.19027577
0.007538266
0.028966267
-0.24923958
-0.14035387
-0.04604297
-0.04963135
0.09428644
0.16927423
0.03426524
-0.1104942
0.009906289
0.22482821
0.06383415
-0.5263372
-0.613242
0.008915965
0.051438026
-0.16420116
-0.015971916
-0.024895651
-0.022159174
0.096224986
-0.08007216
-0.105773754
-0.12398384
-0.14517426
0.018831052
0.14669585
0.046613406
-0.12468199
-0.3334363
-0.03547739
0.34991315
-0.5380555
0.11167094
-0.031042766
-0.47066388
0.025780004
-0.37862176
-0.20682496
-0.003301354
-0.2642787
0.053242665
-0.034647275
-0.04658066
0.3790611
-0.45149845
0.0041194125
0.04736796
0.2607309
0.16305421
-0.040090043
-0.028593786
0.013794127
-0.12678915
-0.20514703
0.09762501
0.21399987
-0.031120408
-0.08412683
-0.3369002
-0.32495263
0.27676433
0.34187117
0.033844482
0.0149273565
0.61939937
-0.09273319
0.22197731
0.2806352
-0.23661983
-0.16171503
0.11831114
-0.26578072
-0.0975257
-0.057151586
0.010887979
-0.22275999
-0.031170564
0.23343796
0.06514088
0.09396179
-0.100203775
-0.19031626
0.14759125
0.038795356
0.23416701
-0.48351908
-0.18895048
-0.86903226
0.019172532
-0.0017866218
-0.008129504
0.03155749
0.15504108
0.095506325
-0.0400988
0.0062619955
-0.59041107
-0.107089914
0.046750363
-0.023553273
-0.061252892
-0.051562358
-0.41345358
-0.0011066204
-0.14254637
-0.14034557
0.012732361
-0.044417318
0.012237769
0.00035013075
0.047888223
-0.08394898
-0.54587257
0.22115685
-0.39370236
-0.05897715
0.010485199
-0.12511607
-0.4491473
-0.1852131
0.16501364
-0.055381883
0.05779773
-0.10669046
-0.055457238
-0.26476294
0.10958964
-0.26062673
-0.017289868
-0.05597921
0.05055791
-0.3188468
-0.038311023
0.029513378
-0.049586046
-0.60977095
-0.26066566
-0.012664446
-0.5225011
0.09338228
0.0084963245
-0.3685901
0.015742673
0.0023622888
0.10908117
0.30915213
-0.33094287
-0.038627364
-0.07260017
-0.15420553
0.2816157
-0.042417794
-1.2589583
0.16384241
0.13306905
0.2102679
0.30377355
-0.40229568
-0.22179022
-0.147561
0.25878957
-0.079495296
-0.19699474
-0.028916635
-0.023785293
-0.9383342
-0.28205937
0.034689646
-0.35312343
-0.764645
0.22415993
0.042346887
0.032541275
-0.49937838
-0.27861914
0.043899093
0.25267333
-0.086596705
0.0709615
0.032530885
0.2102206
-0.037936304
-0.114880726
0.044348333
-0.67344373
-0.032857273
0.1139732
-0.010542604
0.03792348
-0.0774475
0.02585182
-0.09910085
-0.03662755
-0.3312733
-0.08560621
-0.35932764
-0.079922065
0.021330046
0.26201648
0.0104435645
-0.41259223
-0.035068166
-0.1236021
-0.042547066
-0.034114502
0.09708339
-0.031589933
-0.09054499
-0.2661981
0.104430966
-0.026142718
0.15947387
-0.4942586
-0.03534593
-0.0792184
-0.048804346
0.040385403
0.029269751
-0.018222855
-0.2294857
-0.36394688
-0.19577311
0.0042039156
-0.12753634
-0.12119411
0.22410569
0.03504395
-0.06723995
-0.7860317
-0.36062753
0.13342105
-0.50112814
0.10075295
0.046199124
-0.3578214
0.10337106
-0.02397964
-0.03620325
-0.061922714
-0.08704398
0.0226895
-0.22803093
0.0051441626
0.60504276
-0.27617276
-0.19437057
0.062490113
0.2396266
0.005236796
-0.05067234
0.04963497
-0.04325262
-0.044992067
-0.17394914
-0.11956957
-0.028693002
-0.050258417
0.056701794
-0.28269842
-0.36455566
0.4608203
0.5862265
-0.045273226
-0.022519663
0.6501917
-0.07880226
0.18031842
0.32015222
-0.5200708
-0.040943857
-0.010364259
-0.021482838
-0.44219542
-0.04969648
-0.055217315
-0.13991638
-0.082091905
0.08023317
0.13312271
0.03514425
0.048647456
-0.16063802
0.080701955
0.023350924
0.1308298
-0.77098733
0.25233015
-0.34596443
-0.036075562
-0.1928407
-0.039975017
0.0028780687
0.17964652
0.12776183
0.0282091
0.095829695
-0.26832125
-0.13694935
-0.0442245
0.0034588273
0.112512365
0.051008575
-0.6871812
-0.009258345
-0.39240304
-0.15980873
0.027019603
0.038823053
-0.038902666
-0.011128126
-0.17494486
-0.12198485
-0.31956086
0.18670122
-0.1461762
0.037847906
0.054271713
-0.03936641
-0.40685213
-0.1035773
0.17798561
0.037215095
0.06848144
-0.3749515
-0.14913817
0.13307244
0.11875361
-0.8755703
-0.1151196
0.18637954
0.0072170664
-0.11505137
-0.00031038627
0.04502206
0.021852821
-1.0177367
-0.64109683
0.06770937
-0.26682553
-0.08605595
-0.010007523
-0.32809767
-0.06474114
-0.030470597
-0.00033729637
0.36589476
0.32764247
0.052514777
-0.04230813
-0.16834259
0.18638538
0.018939646
-0.7446932
0.16431248
-0.21963078
0.15322722
0.1693153
-0.22958417
-0.16888526
-0.18273981
0.16846836
-0.18387577
-0.010777009
-0.0047768503
-0.025624743
-0.96557087
-0.13356313
-0.05650404
-0.0015974875
-0.8365823
-0.11085874
0.009521774
-0.16875096
-0.24214666
-0.21237122
0.03538726
0.2047687
-0.21204501
-0.015568461
-0.057536926
0.2764123
-0.07233121
-0.25242263
0.21907468
-1.1244617
-0.048140462
-0.13603309
0.09595072
0.0032770862
0.020034991
-0.044654507
-0.08465591
-0.018609999
-0.21318494
-0.05216472
-0.1412218
0.03610956
-0.22337583
0.1664388
-0.0595095
-0.06587676
0.041147895
-0.1826127
-0.017631656
-0.06813937
0.06975635
-0.018475566
-0.0050578183
-0.23363577
-0.020727351
-0.05203929
0.22854331
-0.44593078
0.16653463
-0.092696704
-0.22966577
-0.081069134
0.033447728
-0.040795166
-0.7974292
-0.33278966
-0.3403748
-0.0034804938
-0.17401901
-0.07754858
0.06396944
0.056645796
-0.09205261
-0.84906024
-0.40461195
-0.29610386
-0.39143956
0.050485928
-0.03960285
-0.36141983
0.0045895274
0.05280977
0.059341084
-0.12210667
-0.11821813
0.037035372
-0.11058016
-0.08357976
0.28020227
-0.13603064
-0.6228344
0.022317212
0.31295756
-0.1138745
-0.038115505
-0.19495702
0.09181912
0.22585614
0.0182749
-0.11510565
-0.066038534
-0.020573642
0.0893291
-0.17477159
-0.2806596
0.48190928
0.6214644
-0.011283507
-0.02247803
0.14696863
-0.18192306
0.03674437
0.19756602
-0.5000501
0.08699795
-0.013908218
-0.1348203
-0.98195916
-0.01625264
-0.036493078
-0.13440613
0.2708767
-0.041634213
-0.0034523548
-0.074117236
-0.027915016
-0.15292788
0.054680027
-0.03980214
0.23257264
-0.96871775
0.6105
-0.22362752
-0.28463674
-0.18767007
-0.09012923
-0.038769554
0.16256149
0.10672058
-0.023985898
0.10505842
-0.16043778
-0.050426297
0.013715008
-0.05508795
0.14536801
0.052481856
-1.0823051
0.06726628
-0.5249579
0.053703703
-0.023997823
0.0077571664
0.042407837
0.020625927
-0.39303994
-0.15282577
-0.023052117
0.058627732
-0.118029796
-0.055643816
-0.010652375
0.06484729
-0.2717764
-0.22280078
0.17296898
-0.057518795
-0.10725505
-0.3848059
-0.14851531
0.216411
0.13865876
-0.73001087
-0.31026584
0.14089306
-0.035119943
-0.062476438
-0.06837251
0.027432071
-0.052262567
-0.60602015
-0.5164106
0.07012403
0.11380638
0.011828802
-0.20774384
-0.11483854
-0.028622491
0.0302419
-0.07958162
0.4798866
0.24073839
-0.07712254
-0.005932334
-0.15479104
0.13986768
-0.06620037
-0.11212032
0.046456687
-0.7259248
-0.12719518
0.31279063
-0.14779967
-0.009182956
-0.2883456
0.09518986
-0.16586526
0.14222735
-0.0035543612
-0.10277495
-0.6904395
-0.12024498
-0.06761559
0.16028138
-0.81102467
-0.15968153
0.067289256
-0.2057127
-0.1038886
-0.35409874
-0.06424849
0.1428403
-0.15813093
-0.10265469
-0.054214403
0.24152406
-0.014218723
-0.32613376
0.16961093
-1.0132943
-0.06880124
-0.10258465
0.061787087
-0.023109809
-0.021249656
-0.013219318
-0.104972854
0.008051183
-0.070927426
-0.11443859
-0.22093782
-0.0009195758
-0.23268007
0.17214598
-0.052907314
0.09265047
0.0041159717
-0.0129891075
-0.1613782
-0.0012758212
0.041471124
-0.048407562
-0.034385037
-0.30063134
0.010624109
0.026127266
0.24717785
-0.41849896
0.018924048
-0.16528496
-0.30263558
0.02137334
0.032084208
0.012177491
-0.9144846
-0.18951301
-0.4068292
0.01935077
-0.111992486
0.025869532
0.105239876
-0.009622491
-0.19442037
-0.80093
-0.28148583
-0.30441117
-0.2874427
-0.05256184
-0.06552843
-0.3139202
0.020382067
-0.38913128
0.055232503
-0.079419985
-0.12774014
-0.034699745
-0.041122783
-0.0791012
-0.1429428
0.280676
-0.822447
0.16464798
0.1045595
-0.2194465
-0.058298063
-0.3553211
-0.104208685
-0.040547844
0.0056674043
-0.15757129
0.135395
0.019936584
-0.06293752
-0.5222279
-0.11379116
0.44670624
0.44025323
-0.07506358
-0.047747344
-0.5841886
-0.05792965
0.044267256
0.18442273
-0.69545436
0.09314332
-0.082982615
-0.4273934
-1.4464341
0.055153407
-0.0563764
-0.18175818
0.108243994
-0.41463038
-0.028252717
-0.052608952
-0.08755863
-0.22608787
0.0668499
-0.06927253
0.36733535
-0.97424185
0.3493942
-0.13866769
-0.21740271
-0.3394056
-0.10276209
-0.05448026
0.16232273
0.14440204
0.036000226
-0.06512638
-0.09032737
-0.024254294
-0.017458092
0.025872104
0.3162386
-0.026848383
-0.6768768
0.057731833
-0.4693948
0.07907248
0.028497785
-0.078370154
-0.075865716
-0.017388737
-0.47820008
-0.16503917
0.14595926
0.093731664
0.10629828
-0.045275766
-0.02494813
-0.039369494
-0.27203086
0.05203813
0.12591049
-0.049504776
-0.23797552
-0.19183657
-0.06944507
0.15952982
0.09387192
-0.49727783
-0.29530218
0.12260532
0.01695314
-0.123084486
0.03759221
-0.053541332
0.037852786
-0.9182639
-0.09912031
0.09289887
0.05528651
-0.028534964
-0.27855402
0.027685178
0.013569693
0.018853197
-0.042812508
0.24581562
0.011123086
-0.034400426
-0.06290851
-0.013606441
0.047453213
-0.026382629
0.119702384
-0.18417837
-0.86017513
-0.16817266
0.36484256
-0.21079214
-0.018933753
-0.10178687
0.08795663
-0.15869437
0.11706889
0.02337512
-0.05182346
-0.3611881
0.08592261
0.018962676
0.0011221295
-0.2970241
-0.14015049
-0.057935465
-0.24334875
-0.17521389
-0.08642117
-0.041500535
-0.024081644
-0.01676054
0.08556291
-0.046416435
0.1567906
-0.15601985
-0.6787849
-0.1548641
-0.09924026
0.046228338
-5.2537794
-0.11112474
0.06639055
-0.005020042
0.031223148
-0.0005388575
-0.045738794
0.046790756
-0.6688057
-0.16908929
-0.029486794
-0.27065024
0.016043367
0.04899445
-0.4012412
-0.009057722
-0.05035616
-0.055236015
-0.349736
-0.084466435
-0.32314053
-0.1413244
-0.034389663
0.06124098
0.037692465
-0.11723062
-0.72010523
-0.045303226
0.04140275
-0.049740024
-0.02092156
-0.04325137
-0.030951517
-0.16523261
0.098191634
-4.837219
0.06657758
-0.42536223
-0.05035775
0.057323884
-0.075217836
-0.112707704
-2.5686457
0.1063284
0.0062265336
-1.0338483
-0.13122985
-0.18954608
-5.9915853
0.07949173
-0.7532053
0.010678299
-0.15532619
-0.15082142
-0.1280757
-0.070948735
-0.035062842
-0.01864845
-0.07839527
-0.4661485
0.060918264
0.04439367
-0.26167715
0.045455597
0.21503207
-0.24671364
-0.33668905
-0.2316079
0.03810771
-0.2316268
-0.02493757
0.010791235
-0.14315596
-0.017693322
-0.034781594
-0.018600756
-0.03541165
0.15640074
-0.11108873
-0.083224155
0.007294057
0.12849247
-0.15679581
0.07165111
-2.268763
-1.1909301
0.20219642
0.01254413
-0.0584019
-0.05919896
-0.013975855
-0.5713888
-0.1149867
-0.0247614
-0.0972323
-0.053388085
0.018415106
-0.022229617
-0.8089414
-0.16812697
-0.09935003
-0.5386276
-0.46992636
-0.5289235
-0.7636868
0.012456583
0.07336451
-0.23145424
0.02813961
-0.016469136
-0.2158635
0.0273082
-0.007117157
-0.0038266547
-0.4374091
-0.04850245
-1.8318336
0.08191978
0.07442387
-0.08077439
0.068082064
-0.048880935
0.026628304
-0.029855194
-1.6406906
0.21839166
-0.18721063
-0.031954907
0.011011348
0.038771536
-0.19324403
-0.4737325
-0.1727293
-0.28325126
-0.009842193
-0.07593832
-0.24822643
-0.19346534
0.039024387
-0.16746964
-0.07841636
-0.46131864
0.023506131
-0.015270784
0.0354828
-0.03460317
0.028339112
-0.072737224
-0.028185016
-0.020480333
-0.15525045
0.062828675
-1.066109
-0.22387628
0.10917113
-0.14715028
0.029287238
-0.016995996
-0.08984705
-0.007585693
-1.3684072
0.03554793
0.008450411
0.01608039
0.035267502
-0.056095283
-0.08461564
-0.095521264
0.25743887
-0.048711706
-0.4648375
-0.09417009
-4.930003
-0.105797954
-0.052883144
-0.17890945
0.008755229
-0.04237193
-0.0070267683
-0.17907242
-0.34036413
0.056108493
0.037567236
-0.14030156
0.05783033
-0.015315803
-0.051457245
-2.1723814
-0.1101734
0.000783965
0.0012153018
-0.042823106
-0.022008067
-0.001713379
-0.13872054
-0.22311223
0.014730266
-0.70788264
-2.1059103
-0.07325349
-0.038333237
0.014423629
-0.05283386
0.056842815
0.051572755
-0.061659697
-0.19455779
-0.03646066
-7.5559816
-0.11592207
-0.05055075
0.024472345
-0.37795004
0.006095067
-0.13372447
-2.654604
-0.1462553
-0.08461362
-0.055093374
-0.049061164
-0.45181012
-1.1746938
-0.09823588
-0.067395724
-0.005057726
-0.012053944
-0.4325813
-0.071201175
0.025848633
-0.4141675
0.045374487
-0.0046472847
-0.0607645
-0.0752698
-0.0061680824
-0.009051252
-0.95562834
-0.19409677
-0.097798035
-0.064619675
-0.042522315
-0.314536
-0.068500645
-0.046075333
0.076834425
-3.372077
-0.12464679
-0.20116027
-0.2434252
-0.0035000837
-0.088614695
-0.06171439
-1.7940226
-0.78635675
-0.02362461
-0.26257125
0.06962
0.01597493
-0.071963355
-0.08107888
-1.2315109
-0.11640093
-2.7938116
0.00094245415
-0.036080323
-0.08452805
-0.5124122
-0.33447623
0.051716253
-0.15232879
-0.00037955766
-0.085753724
-0.037580967
-0.20320967
-0.05388136
-0.18348058
-0.085524805
-0.06716066
-0.04363013
-0.10270979
0.047321673
0.16483565
0.013746639
-2.9024255
-0.16161442
-0.22120403
-2.1508734
0.035717156
-0.02565494
-0.081783265
-0.16892403
-1.2095345
-0.067909054
-0.08581512
-0.059290428
-0.53381675
-0.06525564
0.04203147
-2.0477362
-2.1991148
-0.25784045
-1.1763858
-0.29007593
-0.043937344
-0.11343952
0.0069683557
0.097306095
-0.045432374
-0.05632809
-0.117063686
0.04780519
-0.1543757
0.039060988
0.014882467
-3.2609954
-0.04426363
-0.08759095
-0.037720002
0.059974693
-0.0377359
0.05642959
-0.055595797
-0.013405613
0.006493068
0.057609875
-0.22684461
-0.09734867
0.042786494
-0.06997629
-0.42890865
-0.12745151
-0.55116576
0.009255622
-0.12889485
0.0712504
-0.012189698
-0.26122922
0.00085489283
0.013756275
-0.06126044
-0.11259798
-0.86653763
-0.12089752
-0.030464139
0.023812953
-0.035268623
-0.003072674
-0.06756697
0.03736142
0.05608013
0.004816112
-0.12337896
-0.1573843
0.09516611
-2.6837714
-0.111659475
0.05778433
0.013339462
-2.2961626
-2.0095482
-0.06807775
0.035947517
-0.14898902
-0.073431686
0.036218595
-0.006284018
0.055600394
-0.3264828
-0.08853787
-0.09490779
-0.033433113
-0.1005676
-0.26722685
0.077070095
0.08940331
-0.108168885
-0.14397766
-0.05029519
-0.06781995
-0.060568202
-0.76436496
0.00037398064
-0.09289699
0.26063576
-0.10715842
0.06025377
-0.17259723
-0.31397024
-0.094101414
-0.15683836
-0.08566064
0.15953349
-0.080239944
-0.070853196
0.11564719
-0.0798565
0.06919437
-0.25392032
0.0031892452
-0.13881256
-0.15448467
-0.29250264
0.024794554
-0.038743734
0.0195396
-0.044063922
-0.18536335
0.16428699
0.0054667634
-0.62393624
-0.0055649774
0.10537277
-0.17308933
0.0051471735
-0.24461944
-0.15412132
-0.0393816
0.10362981
-0.05084249
-0.06226816
-0.30486724
-0.16710657
-0.21138917
0.022733482
-0.02457994
0.07759587
-0.32652053
-0.17750394
0.077648565
-0.19403248
-0.07996978
0.04128154
0.011575862
-0.058239225
0.07550556
-0.7341378
-0.022778701
-0.068034336
0.037195396
-0.15302883
-0.07494486
-0.23944855
-0.27245516
-0.08308487
-0.55825937
-0.78951055
-0.11563445
-0.46014276
-0.073670484
0.11618816
-0.016783928
0.057815593
-0.5137007
-0.0025839203
-0.0046095666
-0.22527514
-0.054375388
-0.050851863
0.14410004
0.17911492
-0.1185348
0.14285165
-0.5161349
-0.005497079
0.148448
-0.06733355
-0.15234438
-0.1697673
0.11028756
-0.04100239
-0.06887318
0.035462126
0.2023625
-0.21753632
-5.2498827
0.22294621
0.041347437
0.02935977
0.2732538
-0.23203808
-0.10529255
0.14469238
0.12387224
0.23742846
-0.26424506
-0.3379564
0.031677775
0.035711393
0.011670139
-0.22574428
-0.087448046
-0.3834139
-0.26477864
-0.19006287
-0.1727899
-0.019555029
-0.11375938
-0.019701783
-0.13925573
-0.22349966
-0.15865628
-0.4011053
-0.20484075
-0.3556988
0.01448101
0.044511843
0.030126031
-0.3576449
-0.0017367596
-0.13691807
-0.045100708
0.007156802
-0.005840541
-0.055551462
-0.07429939
-0.013107195
-0.44354168
0.029348237
0.19904627
-0.01885959
-0.022029644
-0.010866487
0.04924163
-0.039643377
0.08664465
-0.09728216
-0.052389394
-0.20190798
-0.20941165
-0.04789811
-0.13051489
0.13884924
0.12845655
-0.12877916
-0.102502026
0.033187415
-0.11835271
-0.19050804
-0.15208523
-0.07372342
-0.34769842
0.018520908
0.083947405
-0.22405139
0.027304998
0.1368566
0.046655174
-0.03785903
-0.05244002
-0.9092406
0.0077156704
0.0869062
-0.09017442
-0.022824684
-0.064278595
-0.15194416
-0.0074878866
0.024873555
0.03999902
-0.00974088
-0.12245262
-0.001051703
0.0079650115
0.110311255
-0.1681951
0.023226155
-0.3047866
0.13789463
0.08193579
0.25054812
-0.21782143
-0.28623468
0.05569526
-0.5002961
-0.14822127
-0.013033948
-0.12109904
0.02577172
-0.09439714
-0.06511337
0.3466833
-0.07782293
-0.030584348
0.18365206
-0.1912246
-0.036107223
-0.25011387
-0.44357982
-0.1014048
-0.041171946
-0.31738767
0.19496655
-0.1490901
-0.03273633
0.07103881
-0.06141863
0.021472396
-0.4512323
0.19354106
-0.15744719
-0.20241894
-0.44297957
-0.052353226
-0.038425088
0.024442613
-0.025286485
0.093212515
0.05155366
0.018347932
-0.1715745
-0.004375874
0.124514475
-0.13143575
-0.0363799
-0.042559873
-0.010998108
0.046521798
0.22294828
0.21230131
-0.05668423
-0.03318473
-0.29023945
-0.3223877
-0.10624744
-0.029562607
0.060808793
-0.18991025
-0.20107725
0.22442958
-0.07753648
0.027525613
0.044761945
0.06650996
-0.18029295
-0.06530854
-0.519216
0.14000866
0.3156957
-0.01852308
-0.05696987
0.05949065
0.19829017
-0.13492239
0.00039541718
0.2801384
-0.37935042
-0.069031775
-0.5865383
-0.010597576
0.2366861
0.03296415
0.0036694508
-0.5860603
-0.06326374
0.091550924
-0.018489704
-0.098164484
-0.35628703
-0.091955416
0.15953127
-0.08894055
0.20515837
-0.6444477
-0.05576158
-0.021005496
0.01476863
0.03563889
0.042833004
0.1317023
-0.06640386
-0.034537934
0.14229357
0.2125594
-0.29180965
0.27066615
0.24777777
-0.08291889
0.17513634
-0.24380821
-0.08913456
-0.48625597
-0.8130986
0.12967992
0.1864109
-0.3152004
-0.17221391
0.1753614
-0.008576222
0.022735056
-0.22178438
-0.14739378
-0.1575608
-0.35682666
-0.27445015
0.022185296
0.15262419
-0.075556494
-0.08775867
-0.09709746
-0.20981038
-0.036303718
-0.5104399
0.07056388
-0.21450508
0.08643872
0.1120814
0.06179552
-0.46964553
-0.00865937
-0.06509919
-0.097726814
0.14680268
0.047874775
0.051713835
-0.05248382
-0.07038026
-0.31834507
0.07013251
0.15879422
0.032333024
0.059607167
-0.04994733
-0.019144183
-0.06404706
0.00064300786
0.06639628
-0.11520589
-0.48836586
-0.124117814
-0.001915915
-0.12528971
0.2119807
-0.0370703
-0.14688928
0.078635536
-0.07429087
0.12724012
-0.07004566
-0.057985734
-0.25823733
-0.57031274
0.06829055
0.112957016
-0.15211158
0.05926508
0.26290074
0.033062264
0.27201724
0.035029393
-0.097354986
-0.051435035
0.18132211
0.06126952
0.107351795
0.0806864
0.026669199
0.03341965
0.054643933
0.02226012
0.21646427
-0.016149102
0.0056732586
0.052886225
0.2365678
0.095731474
-0.03997063
0.30331042
0.1844349
0.01788597
0.0785819
-0.39286622
-0.06678411
-0.14044026
-0.29481363
-0.6303208
-0.10364231
-0.019845016
-0.036939047
0.09067318
-0.24907753
0.12278505
0.056367297
0.15006559
0.2663075
-0.10287321
-0.05226917
-0.34385636
-0.12573922
-0.17917696
-0.16978574
-0.2964438
0.19486934
-0.2365404
-0.029937685
-0.75006604
0.020571422
0.048943494
-0.4335682
0.060030647
0.011752785
-0.11393336
-0.42277682
-0.03913094
0.052956555
0.020082545
0.0169435
0.13492031
0.18335253
0.04519759
0.13771647
0.004511109
0.16240823
-0.049592476
-0.016543178
-0.00852821
0.14983958
-0.17664929
0.199538
0.34756362
-0.05267704
0.006749863
-0.27722967
-0.1878555
-0.023917148
-0.06020318
0.10660079
-0.08625824
-0.2687509
0.13567226
-0.08004573
-0.015713187
0.013552898
0.16843887
-0.13752674
-0.1474789
-0.27299106
0.33559513
0.14208151
0.06393645
-0.2583706
0.04662184
0.1686429
-0.33474043
0.17966732
-0.25559574
-0.20108595
0.05758785
-0.11628761
0.031495832
0.4592073
0.018622523
-0.00036694473
-0.16585207
-0.04922653
0.07872903
-0.13544086
-0.0021822473
0.46730143
-0.31119207
-0.0030746716
0.1515935
-0.08488406
-0.42335045
0.029574158
-0.056474734
-0.05861543
0.016282395
0.06620007
-0.012744582
-0.21056098
-0.0981984
0.22120711
0.31614935
-0.08788437
-0.023482107
0.01740658
0.003414348
-0.0010957808
-0.6396405
-0.04804934
-0.40524834
-0.65247136
-0.036575224
0.80490863
-0.06366403
-0.1495047
-0.13089116
0.022778383
-0.027239496
-0.3048878
-0.068408646
-0.28297
-0.17256145
-0.2944731
0.01725606
0.08606922
-0.17173894
0.020581728
0.0911674
-0.19117317
-0.02480609
-1.0720295
0.050946906
-0.16173312
-0.073362455
0.089458235
-0.8563154
-0.18395598
-0.080013685
0.044687163
-0.08990313
0.18653424
-0.05789154
-0.06684177
-0.038963232
-0.08266059
-0.040234007
0.07340925
0.12106258
0.08432745
-0.08619666
-0.030490134
-0.0618141
-0.046417598
0.055307005
0.14590104
-0.16300735
-0.5826454
-0.11654822
0.3174048
-0.07272885
-0.12397337
-0.055162877
-0.4529292
-0.06257199
-0.022505656
0.20191123
-0.09395453
-0.026189713
-0.14415413
-0.5299926
0.08884208
0.02496494
-0.28426385
0.061882544
0.23495026
-0.007984241
0.293471
-0.061390806
0.49137062
-0.054824173
0.06972749
0.054029953
0.058442067
0.19128749
-0.062483314
0.030353056
0.058453273
0.24848358
0.23564829
-0.16470867
0.053739987
0.112922944
0.22452058
0.16950636
0.03327633
0.25880095
0.12095942
0.07487043
0.06378003
-0.39625272
-0.14571498
-0.1659233
0.085726485
-0.5510988
0.01039165
0.062387113
-0.03362599
0.18154132
-0.45136768
-0.0456244
0.03380836
0.46639034
0.041706447
-0.08551038
0.062997535
-0.22876911
0.115330316
-0.07760854
-0.060017
-0.2372507
0.17452864
-0.056419395
0.021209214
-1.6581335
-0.12599768
0.034774207
-0.34832373
-0.0047927094
0.025727928
-0.11576286
-0.05591873
-0.02843165
0.00499931
0.033576943
-0.060023136
0.15403719
0.07669639
-0.047660466
-0.17373051
-0.06651897
-0.0336134
0.06194314
0.0038595751
-0.05525568
0.116717115
-0.392832
0.0918418
0.47340244
-0.006793019
0.08799157
-0.13615291
-0.11626719
-0.20044221
-0.000936402
0.14145435
-0.1139997
-0.23201022
0.07492867
0.020144653
-0.08038829
-0.06169455
0.03260204
0.035501465
-0.11903232
0.018183466
0.17100978
-0.100536324
-0.052247446
-0.29608026
0.03453918
0.12009132
-0.24783374
0.11749181
0.2669041
0.03639026
0.12918846
-0.24601448
0.078500725
0.37457702
0.08373355
0.0036756387
-0.02697709
-0.10055283
-0.06134236
-0.08588673
0.0062943115
0.55003977
-0.22671062
-0.12880331
0.08117314
-0.11668774
-0.1728092
0.041181672
0.071638204
-0.20007013
0.34069967
0.07050365
-0.0013532147
-0.27711612
-0.005690609
0.063309096
0.28633264
-0.15093103
-0.2372979
-0.14453246
-0.023221131
0.11810158
-0.53970516
-0.025236003
-0.49483722
-0.3659952
-0.02650475
0.819864
-0.068274185
0.0058246665
-0.006207927
0.028618736
-0.062133804
-0.15998043
0.10764746
-0.29421335
-0.013105251
-0.2140241
-0.041494854
0.057286043
-0.15048261
-0.044169795
0.290346
-0.06003765
0.27059206
-0.9032782
0.032870393
-0.09411192
-0.35682923
0.091406405
-0.6899851
0.03465712
-0.079913825
0.24797371
0.038998
0.16108063
0.05245136
0.0060210163
-0.018313082
-0.037157208
0.16437662
-0.20254943
0.19198032
-0.036436085
0.044524845
-0.037991878
0.04067067
0.018524047
-0.31149718
0.16192672
-0.10071161
-0.2604931
-0.3162528
0.27211255
-0.019722557
-0.33657262
0.0135086
-0.09731379
0.10031221
-0.0148725575
0.16773906
0.0092505785
-0.07181461
0.06395626
-0.47641426
0.07069218
0.077749394
-0.054742992
-0.031728476
0.20334075
-0.030714517
0.12772469
-0.018864466
0.5702058
-0.067836985
-0.5256249
0.21674092
0.1693966
0.11830688
-0.08571054
-0.054420292
0.06340618
0.081637874
0.34260345
0.03729465
0.03531489
0.04759133
-0.0032796627
0.092941016
0.052246504
0.09430977
0.058783446
-0.09154367
0.2054327
-0.43540183
-0.12541392
-0.10266155
0.02050157
-0.43943143
0.07960156
0.11811854
-0.019378368
-0.10880862
-0.6567457
0.032296736
-0.05461826
0.69000685
-0.27346385
-0.45506653
-0.065183386
-0.15582381
0.08897416
0.045292795
0.018096387
-0.12230206
-0.1358253
0.0714178
-0.05838102
-1.8071655
-0.14519739
-0.2205978
-0.21344472
0.3064251
0.03282415
-0.083894074
0.108990565
0.025450991
0.041078612
0.024231758
-0.05391039
0.061586373
-0.028934954
-0.16372733
-0.3421192
-0.054359276
-0.4375282
-0.1892759
-0.07520003
-0.1757577
0.18766809
-0.17495537
-0.11347992
0.3059515
0.017789198
0.04834098
-0.08397266
0.106146224
-0.20523986
0.003970151
0.2855282
-0.18208303
-0.0032815242
0.10561464
0.017581025
-0.0238304
-0.05265844
-0.15958855
0.0053453827
0.20814526
0.29454392
-0.18083875
-0.20503616
-0.04784282
-0.10244127
0.027486017
-0.020979693
-0.052031092
-0.18735805
0.4221673
0.30545345
0.18179156
-0.5081412
0.050003868
0.21635951
0.14704876
-0.10453756
-0.12148958
-0.14455318
-0.072944
0.0021493328
-0.010330273
0.2071169
0.04381219
-0.117737345
-0.06964945
-0.020162791
-0.10313922
-0.04539082
0.1304898
-0.05639894
0.66528976
0.0063027106
0.3175662
-0.17656885
-0.042586103
-0.14302635
0.45543146
-0.21191402
-0.6360064
-0.111799695
-0.051281758
0.14991558
0.071625575
-0.10714323
-0.37428713
-0.36301136
-0.0167684
0.2603262
-0.028311789
0.05016062
-0.16018508
0.050281387
-0.00907456
-0.06959701
0.5326737
-0.30518055
-0.09874885
-0.1545827
-0.03015663
-0.06323763
-0.016158419
-0.024153592
-0.04927102
0.18167068
0.54572207
0.18193783
0.042990223
0.016802695
-0.2401194
0.12703393
-0.37911576
-0.020542245
0.0060362457
0.31552076
0.20123897
-0.2077195
-0.014925151
-0.025805764
-0.1258119
0.021774828
0.08840922
-0.3585027
0.097853504
-0.27880293
-0.04194784
0.011181639
0.04563129
0.03507976
-0.6035972
-0.04086045
0.06994231
0.05932084
-0.038357735
-0.14410989
0.03017138
-0.31439888
0.41161317
0.22459312
0.3889199
-0.061032545
0.13281097
0.054124426
-0.035093617
0.2733446
-0.18361647
0.14945605
-0.063614525
0.17011017
0.06353039
0.10258782
-0.056416474
-0.10165139
0.02483574
0.22455347
-0.028650528
-0.49832317
0.17225362
0.1391084
-0.0052054403
-0.09714227
-0.01501154
-0.014824649
-0.26719555
0.15905008
0.21400487
0.036465846
-0.053810604
0.09584214
0.20486395
0.025725683
0.33599576
0.08698112
-0.23503788
0.16856827
-0.27862975
-0.17799304
-0.06897057
-0.044608936
-0.4098069
-0.13254325
-0.091114454
-0.049485024
-0.48348573
-0.38748524
0.29492974
-0.039055377
0.6074404
-0.30992463
-0.21452214
0.026113387
-0.09986742
0.097862944
-0.03924277
-0.028599296
-0.045284048
-0.19403256
-0.27556878
-0.02457979
-1.1087295
-0.05610783
-0.30878305
-0.25502464
0.39958557
0.008071037
0.12719154
0.17795372
0.041163877
-0.020555323
-0.024570046
0.055579145
0.043679945
-0.0065595075
-0.090146825
-0.077154964
0.039372057
-0.39373904
-0.25905406
-0.045623645
-0.12533635
0.48975334
0.037061453
-0.0061036027
0.0077455654
0.2449978
0.032071214
-0.08049675
0.23857962
0.0464978
0.05609714
0.23030816
-0.21375275
0.1345591
0.15777099
0.033778965
-0.017423414
0.02468561
-0.055154245
-0.115258425
0.19800386
0.36357254
-0.12353638
-0.015818955
-0.11240603
-0.017548686
0.06933332
0.14684644
0.20636192
0.028853968
0.026847271
0.27593356
0.061251
-0.55199087
-0.061485723
-0.0077830865
0.1399427
0.0615473
-0.19185083
-0.17538805
0.10084707
-0.14137103
0.0054840688
-0.40630648
0.07727291
-0.13586333
-0.008389319
0.11483658
-0.04987144
0.044410188
0.0039593824
0.13097402
0.40064648
-0.15015757
0.42884737
-0.083560936
0.051072616
-0.12356997
0.42610165
0.008019657
-0.58474827
-0.11287596
-0.01118867
0.12746356
0.03443703
-0.1118569
-0.2807096
-0.47909325
-0.04306245
-0.39955923
-0.11094634
0.045117855
-0.060470242
-0.058328357
0.035256125
0.20625281
0.4689777
-0.22268327
0.027867882
-0.18678153
-0.00042736763
-0.43286097
-0.053018194
0.016835753
-0.23168994
0.07604848
0.35877025
0.9034671
-0.10473858
0.07868965
-0.07502931
0.06855068
-0.40325606
-0.105788454
0.046108708
0.29362386
0.19516893
0.009329935
0.05983301
-0.059943616
-0.2938383
0.001217979
0.0948431
-0.265888
-0.047091693
-0.108196415
-0.014212154
-0.0049089952
0.038246933
-0.03129589
-0.22988068
-0.19692111
0.16016127
0.083896816
0.2124551
-0.11869803
-0.07671492
-0.08198222
0.5220974
0.17057447
0.43755642
-0.035374593
0.09102935
-0.10418663
-0.0062260623
0.30723298
-0.22753343
0.025129024
-0.15464288
-0.09807153
-0.06704091
-0.09868027
-0.012698088
-0.10569524
-0.062371556
0.48537087
0.011626832
-0.14623792
0.15073739
-0.03566479
-0.0020534794
-0.24021746
0.0063593322
-0.032594655
-0.021242455
0.10104211
0.18871184
-0.012942453
-0.008159982
-0.061059695
0.41376954
-0.067577384
-0.06708475
0.068045095
-0.18760183
-0.1664889
-0.3215095
-0.080566436
0.06335991
0.029329807
-0.009059394
-0.084995225
-0.18471864
-0.008044323
-0.2876333
-0.20076536
0.037241224
-0.06561098
-0.008830773
-0.27413028
0.38902
-0.00030469644
0.04174787
0.06147367
0.3456897
-0.021082398
0.09292174
-0.09521207
-0.36526632
-0.040207885
-0.33499354
-0.015734034
0.053252347
-0.019282227
0.19879815
-0.044465963
0.09109888
-0.25462893
-0.0046643415
0.052631687
-0.06658019
-0.036832534
-0.037260737
-0.04457947
0.0072239456
0.1422286
-0.027011093
0.03681828
-0.1654489
-0.047355868
0.1051681
0.24465787
0.11783245
0.09807735
-0.23264655
0.13288541
0.045927852
0.10780776
0.3774923
0.07156503
0.016087558
-0.12182801
-0.19801441
0.0632908
-0.14416012
-0.0008142437
-0.03491565
-0.010149265
-0.11534908
0.1885752
-0.029031202
0.42561463
-0.18670902
0.064827345
0.10715605
0.13970803
-0.02948278
-0.04241003
0.20104134
0.24961632
-0.21434085
0.44217467
0.3251588
-0.10556482
-0.02584134
0.079264455
0.025320629
-0.07339469
0.010638943
-0.23696367
0.106042966
-0.13055035
-0.020769903
-0.43998742
-0.2636886
-0.13130923
-0.07484391
0.1786574
0.119147316
0.047035776
-0.012052376
0.39379507
0.111280784
-0.2979033
0.14477198
-0.20672442
-0.02317281
-0.22278813
0.029301662
0.023179192
-0.55178666
-0.12511943
-0.017005756
0.073219165
0.12906708
0.0016471432
-0.23388222
-0.3528874
0.0909223
-0.636045
-0.15270342
-0.22952367
-0.20524243
-0.013735408
0.082291685
0.060360465
-0.6611544
0.07204054
0.22255145
0.13674706
0.0012302351
-0.24379939
-0.17036286
-0.005461058
-0.24261506
-0.10840325
-0.63996893
0.74392307
-0.17718695
-0.00056072
-0.1880839
0.079315305
-0.3176688
-0.11135052
0.008481617
0.13447149
0.13958162
0.17836863
0.0577583
-0.08933539
-0.57919174
0.023460314
0.09385873
0.0064769695
0.00152895
0.13609451
-0.044162862
0.019959273
-0.0704106
0.04026988
-0.16746244
-0.3768068
0.17024133
-0.09175984
0.2758374
-0.031437434
0.07006131
0.0053029805
-0.3859447
0.121803015
0.37795508
0.039259307
0.15943283
0.2620477
0.00680802
-0.10701394
-0.22174802
-0.12927213
0.0847108
-0.63723296
0.06416846
-0.20172766
0.042288642
0.2112635
-0.012974622
0.24522822
0.3197189
-0.03639984
0.1804724
0.15847406
-0.11546637
-0.10088223
-0.06407908
0.020157026
-0.15407641
-0.12642068
-0.40503317
0.050383486
-0.08882332
-0.16207588
0.36479554
0.017169297
-0.4036893
0.28488562
0.08959873
-0.08611755
-0.26461816
-0.08800418
0.1613051
-0.024707865
0.2952072
-0.05136868
-0.13286127
-0.08387798
0.22258852
0.044184588
-0.44540304
-0.07659333
-0.2672378
-0.13024245
0.3901795
-0.037509456
0.15998484
-0.24240108
0.15902191
0.069247685
-0.09986244
-0.03641321
0.16259928
0.013930402
0.04608352
0.0014698769
0.30417895
0.13239355
-0.15741533
0.051865116
0.2659973
-0.37904698
-0.024497097
-0.047209807
0.026055716
0.02379512
-0.018906219
-0.03309619
-0.04153952
-0.1305089
0.022091893
0.32087487
-0.061704118
-0.03960551
-0.14548561
-0.037154127
0.056002427
0.19012839
-0.3147268
0.16946504
0.13581109
0.041254494
-0.053249348
0.22595021
-0.023038728
-0.5856943
-0.24376471
-0.109548576
-0.04762147
-0.09671269
0.0034911053
-0.020400422
-0.020659646
0.29512295
-0.09768856
0.1065067
-0.2039927
0.09743033
0.06819025
0.19512354
0.0761202
-0.24665459
-0.012266216
0.16065936
-0.049606957
0.056056887
0.5475012
0.027753383
0.12645368
0.21977049
-0.25076255
-0.1846017
0.030440953
-0.37452412
0.13321029
0.19860594
-0.07824597
-0.20206779
-0.4983431
-0.10134178
0.03702309
0.33170432
0.338121
-0.045786265
-0.0050776843
0.15958995
-0.10849819
-0.2851652
-0.058289655
0.12187998
-0.046766195
-0.15181045
-0.056878198
-0.078153834
-0.65454894
0.03959073
0.010630955
-0.014204652
0.30196208
-0.0151022365
-0.18437624
0.07401066
0.20995227
-0.27431825
-0.14794068
-0.016078413
-0.8210793
-0.009054232
-0.011660618
0.05331499
-0.56257087
0.16724715
0.43524444
0.20999768
0.08117929
-0.2172201
-0.2585236
0.005884418
-0.21450998
-0.31276587
-1.0390574
0.23212498
0.13008498
0.09931993
-0.105446704
-0.05266083
-0.31462887
-0.078756645
-0.057343863
0.14947256
-0.3108327
-0.053480264
-0.044621762
0.01640091
-0.3071748
0.049665358
0.14731994
-0.011302373
0.03418634
0.17391934
0.008657418
-0.03063152
0.009683842
-0.06877478
-0.029193392
-0.18236166
-0.14439783
-0.050628297
-0.15797621
0.20767027
0.05793818
0.08855881
-0.54206896
-0.022085294
0.19749753
-0.00033228076
0.26828632
0.21853055
0.022417508
-0.42053053
0.004547431
-0.26160723
0.21111968
-0.12267112
-0.012002521
-0.2909876
0.06502306
0.49476066
-0.016440012
-0.51851326
0.098293886
0.20068279
-0.24323855
0.18670227
-0.024836708
-0.21196075
0.052681424
-0.03609317
-0.0131052965
-0.11524674
-0.3953346
-0.026692508
0.020517124
-0.05535066
0.43466875
-0.061863363
-0.5840884
0.38083717
0.34888774
0.020650318
-0.023579659
-0.17824937
0.07265
-0.00559033
0.272817
0.039471895
-0.23563345
0.020035084
0.5160061
-0.3939065
-0.37836248
0.035120837
-0.44994047
-0.08789036
0.48676258
0.039189607
0.11087453
-0.5563683
-0.08806321
-0.15160984
-0.22490135
0.006585468
0.42451638
-0.08929836
0.22824356
0.08312555
0.048123863
0.19972411
-0.54197866
0.015270482
0.26595822
-0.021479456
-0.0210983
0.041636635
-0.011607588
0.08135912
0.14247991
-0.03341999
-0.10432196
-0.040446956
-0.061072696
0.058251306
0.10683467
-0.056349512
-0.5477793
0.034548312
-0.09371307
0.26975107
-0.3406114
0.3475604
0.10352359
0.0733545
-0.34822926
0.11340476
0.026452567
-0.46737972
-0.18764023
0.019636648
-0.027632048
-0.0030302259
-0.076471105
-0.02357762
0.13366501
-0.15946198
0.040378243
-0.0994376
-0.06842297
-0.09767173
-0.001036533
0.13235219
-0.007418753
-0.058341365
-0.43317991
0.119253896
-0.2492744
-0.15940605
0.4007022
0.07331183
-0.001757784
0.18546622
0.011291895
-0.08183589
-0.11497434
-0.010591867
0.25613445
0.21602698
0.0042842785
0.022901196
-0.13561778
0.020461408
0.12075378
0.4875184
0.3072993
0.022745626
-0.006327257
0.05125604
-0.04003488
-0.20447545
-0.23437782
0.29738355
0.051572748
-0.085527495
-0.09898973
-0.16484646
-0.24092807
0.24366112
0.044487707
-0.103434555
0.37852466
0.08965523
-0.04263629
0.1197106
-0.13640817
-0.16711831
-0.27082342
0.36925894
-1.3953203
-0.032633074
-0.024760364
-0.017478243
-0.25804725
0.21556908
0.36830705
0.25039047
-0.0472642
-0.09655154
-0.2249968
0.031811353
-0.117343
-0.608458
-0.62637144
0.08391054
0.22070621
0.106859
0.007940361
-0.04286383
-0.0108192945
-0.02373158
-0.029471844
0.0043050363
-0.40123978
0.055257507
0.016035331
0.06764144
-0.021416966
-0.058668442
-0.22292402
-0.09360902
-0.38341418
0.13686815
0.067802876
0.038893145
-0.023001892
-0.052341964
0.1802775
-0.1943369
-0.7068355
0.094630815
-0.4565435
0.2587694
-0.0024221458
0.16632222
-0.11974898
-0.09100222
0.2673959
-0.07450109
0.1785904
-0.13394208
-0.017219983
-0.2473589
0.19964728
-0.7029069
0.12817329
0.38846415
0.048680108
-0.23509787
0.0680888
0.4130856
-0.045447975
-0.92631555
-0.228356
0.2889439
-0.579358
0.09242941
0.04349058
-0.21003847
0.040567
-0.042358115
0.11668772
0.04965115
0.30153602
0.046118338
-0.08937171
-0.19846725
0.4376667
-0.041365135
-0.52522105
0.37351
0.027651906
0.1354405
-0.15561016
-0.23543999
0.113319464
0.014364724
0.041079566
0.08713487
-0.22746384
0.09385465
0.40301934
-0.9213344
0.21653607
-0.028254675
-0.23548748
0.09923156
0.41817594
0.02064615
-0.19791387
-0.6149219
-0.0039221677
0.0125079155
0.0091203
-0.24068256
0.39156222
0.021277232
0.22659831
0.1773926
-0.21422665
0.29653636
-0.7113057
-0.03130371
0.14005396
0.13948302
0.0005719243
-0.0155724175
-0.010143565
-0.03556876
0.18480948
-0.16925344
-0.17301393
-0.0017971987
-0.08259215
-0.05266634
0.16352253
-0.07011195
-0.66423965
0.0013843613
-0.0895913
0.15204474
-0.32194868
0.27714002
0.16255687
0.39744285
-0.21235557
-0.21694316
0.0145028755
-0.4361444
-0.2559604
0.20205125
-0.16030106
0.19326071
0.033562265
-0.05841901
0.10305522
-0.5416927
0.10637033
-0.016934074
-0.13152963
-0.20494096
-0.15363193
0.06658707
0.05615491
0.06403438
-0.5338262
0.0060028387
-0.22989914
-0.07396778
0.29063746
0.12660412
0.008838828
0.0033277913
0.51619536
-0.057018545
-0.06931602
0.0020741695
0.16669203
0.15591896
-0.101446144
-0.28168508
-0.12243633
0.08152424
0.20191662
0.3871379
0.05080406
0.020151488
-0.051088523
0.2751033
0.086023025
-0.090735205
-0.2030608
0.13069788
-0.059651557
-0.16312173
-0.10582657
-0.20838939
0.3098311
0.3966543
0.044245444
0.31654507
0.2849092
-0.07368539
0.09381173
0.03122327
-0.6007154
-0.022356613
-0.30921856
0.33805466
-2.1816297
0.061001148
-0.03306974
0.040377513
-0.007091377
0.2252597
0.3318117
0.22374734
0.015887082
0.04573765
0.113838024
-0.07323299
-0.2076482
-0.7618601
0.14774582
0.1527222
0.29740152
0.0068428195
-0.19013265
0.008749956
0.13129114
-0.04410356
0.046799958
0.1693978
-0.30083278
0.0101262685
0.02797739
0.009165786
0.21385019
0.0638004
-0.68617064
0.13511854
-0.75439334
0.06456144
-0.027559455
-0.026860295
-0.029468259
-0.06542851
0.042633843
-0.32174134
-0.38596737
0.21293473
-0.342049
0.18643412
-0.040486977
0.2576404
-0.42402145
-0.11191661
0.124443084
-0.03236202
0.15009755
-0.38790545
0.066489354
-0.11829562
0.1530334
-1.2165537
-0.012908758
0.23472023
-0.0066195508
-0.06239869
-0.06914583
0.2897746
-0.058756527
-0.6351963
-0.24348815
0.24684674
-0.5493937
-0.23797843
-0.11373894
-0.15757518
-0.040299352
-0.027484527
-0.13130856
0.18205966
0.40705
0.046709657
-0.13457388
-0.44055885
0.3842905
-0.031286836
-0.41848403
0.18685704
-0.6683868
-0.038993586
-0.19234993
-0.23753828
0.06574827
-0.136597
-0.028075922
-0.014239192
0.03161918
0.057445116
0.063456446
-0.7457972
0.09325286
-0.0033571653
-0.12383952
-0.04440287
-0.049335454
0.069570094
-0.43638813
-0.37343466
0.09747066
0.07545161
0.030044356
-0.26209462
0.24579552
0.091932386
0.1332549
0.1528294
-0.111735545
0.23268852
-0.58849686
-0.024800312
0.00721381
0.12718028
0.023759747
0.056001358
-0.037853606
-0.018228503
0.353181
-0.18097813
-0.23771653
-0.0041739154
0.0076416694
-0.02879255
0.18264115
0.041007843
0.055663012
0.089385435
-0.09117281
0.084936805
-0.16801552
0.23718224
0.16454199
0.43608043
0.1695427
-0.24682438
-0.0014334307
-0.5515462
-0.2724891
0.337819
-0.3195588
0.023029225
-0.025376959
0.03893599
0.10941536
-0.85491294
0.012210393
-0.07654515
-0.08370987
-0.21736392
-0.18462007
0.06311014
-0.054145455
-0.040474884
-0.42566222
-0.21926577
-0.63252884
-0.118576385
0.24986234
0.03979192
-0.15985261
-0.112872705
0.32618502
0.11138404
-0.13580728
-0.08108486
0.13220343
0.13198514
0.019269843
-0.43017027
-0.15213698
-0.435412
0.22003105
0.044072706
-0.11169248
-0.06906448
-0.23954478
0.30812785
0.24412225
-0.0420066
-0.06708934
0.16100082
-0.011779981
-0.25324783
-0.11444492
-0.1873785
0.5080293
0.62032807
-0.019836444
0.254619
0.03507867
-0.05880737
0.15157892
0.008453167
-0.94477814
0.04543404
-0.3223986
0.31570166
-2.618644
0.006531985
-0.06012437
0.13957636
0.47143036
0.21244991
0.28822213
0.0836347
-0.06760195
0.062173616
0.24163444
0.049551684
-0.16484894
-0.9275498
1.1238198
0.0015290482
0.2258064
-0.0378497
-0.23251893
-0.0179877
0.03504512
-0.013471616
-0.028661603
0.34784603
-0.48476171
0.03320998
0.055569064
-0.021773294
0.22340558
0.020001028
-0.76051694
0.18530373
-0.53706276
-0.02543198
-0.009074694
-0.05295268
-0.023608048
0.037591964
0.04344437
-0.43071562
-0.14644365
0.1999622
-0.33900642
0.19383144
0.027754514
0.14349143
-0.61330044
-0.26070055
0.16921793
-0.056682937
0.04088664
-0.27056003
0.02215513
0.07321794
0.23680489
-1.0960096
-0.17872636
0.025252484
0.0014977136
-0.053579845
0.040949956
0.06891394
-0.05215598
-0.30465838
-0.46120316
0.18986861
-0.10026661
-0.3740916
-0.37290978
-0.095000505
-0.030477012
0.034381084
-0.16290991
0.05387024
0.08054441
-0.06030844
-0.26076922
-0.30429485
0.33058256
-0.043205064
-0.12572984
0.041185547
-0.66646004
-0.16027667
0.080356
-0.13474044
0.1537324
-0.143941
-0.048113592
-0.053250954
0.12921579
-0.08603037
-0.19930848
-0.3705807
-0.13931198
0.01524679
0.010013335
-0.30224785
-0.29188243
-0.034243792
-0.40366372
-0.050602347
0.036062468
-0.11083731
0.13081452
-0.29649282
0.104499705
0.0037055996
0.13035497
0.01623532
-0.19477867
0.19367038
-0.40306687
-0.039585944
-0.047077477
-0.0045291963
-0.028699864
0.016058996
-0.0536088
0.017171921
0.19286926
-0.21692847
-0.41331965
-0.1701935
0.046793032
-0.09035441
0.3189943
-0.042094998
0.51263344
0.030378446
-0.05027218
-0.1255707
-0.11914797
0.1106202
0.091224656
0.27207422
0.010306068
-0.16834009
-0.04780021
-0.4401118
-0.4485236
0.27568915
-0.23795523
0.0519609
0.030828625
0.047544
-0.063655026
-0.604791
0.036783736
-0.20030127
-0.0478904
-0.3394104
-0.1802546
0.1499817
0.056897227
-0.27673826
-0.21664153
-0.39608142
-0.2818577
0.10976479
-0.050443668
0.033946093
-0.19742717
-0.102435365
0.04472289
0.11483889
-0.15066323
0.025532192
0.02359873
0.08866046
-0.059619214
-0.79298806
-0.044637844
-0.92031807
0.33900055
-0.18215361
-0.24165449
-0.0069678607
-0.21338028
0.124574885
0.2638918
0.0056847553
0.033145998
0.114964455
-0.036534213
-0.10365712
-0.01498502
-0.10331639
0.48407337
0.43199182
-0.003508822
0.24512807
-0.47194397
-0.107624486
-0.037341908
0.021024566
-0.8946238
0.020654913
-0.33253855
0.11425169
-2.163716
-0.054855615
-0.0045091514
0.02662627
0.16993502
-0.260271
-0.035173744
0.016620781
0.056167733
0.010433686
0.30223963
-0.015931435
-0.06221681
-0.72699624
0.9099242
0.03689329
0.09995104
0.034933813
-0.2810354
-0.14635874
0.06095788
-0.11613987
-0.054986157
0.26244944
-0.30244467
0.00933407
0.042665873
-0.013909925
0.46213374
-0.058311597
-0.7912037
0.1609163
-0.42965746
-0.041648217
-0.06327079
-0.04899952
0.050534807
-0.035712518
0.06288938
-0.47854695
-0.18370771
0.14438277
-0.031958178
0.024356393
-0.08346177
0.11208389
-0.46160626
-0.22949475
0.10736437
0.049642026
-0.07724883
-0.2201826
-0.04345413
0.2442415
0.117055304
-0.17993315
-0.21933949
-0.23911081
0.008403247
0.008722557
0.038001895
-0.032521266
-0.01624584
-0.14099391
-0.4207104
0.14091416
-0.065844476
-0.25359622
-0.46907523
0.16555835
0.005157019
0.057455007
-0.40311757
0.014172011
-0.17648123
-0.012646767
-0.19263649
-0.23009777
0.22164077
-0.011683573
0.087188825
-0.06778866
-0.8370606
-0.24281083
0.36833334
-0.15930007
0.15668963
-0.13527592
-0.08389594
0.04556666
0.23138288
-0.072437525
-0.16122597
-0.32594654
-0.32727605
0.029801985
0.043789648
-0.14223042
-0.08554758
-0.008304674
-0.15584712
-0.9993005
-0.0105500845
-0.09637592
-0.0094189765
-0.24584903
-0.07289636
0.018795598
0.11662949
-0.4261599
-0.45811543
0.04621151
-0.16341749
-0.063811414
-0.07981683
-0.07950571
0.07031798
-0.030477958
-0.07383588
0.025701346
0.0018754507
-0.14741069
-1.0630257
-0.098577395
-0.053476844
-0.17798811
0.20093796
0.037569758
0.14378032
-0.0002597335
0.039094076
-0.06229822
-0.20508222
-0.06281357
-0.093093865
-0.12472774
-0.0965224
-0.06727971
-0.053114764
-0.23541807
-0.25940037
-0.032381907
0.06025407
0.025632644
-0.018438065
-0.025378931
-0.036829393
-0.635596
-0.06406986
-1.3214746
0.1939824
-0.051541768
-0.050897073
-0.11251709
-0.031694394
-0.23614986
-0.4041811
-0.31135538
0.40259865
-0.0018019815
-0.036561012
0.04839362
-0.22560947
-0.22331241
-0.067820534
-0.029844562
-0.015910963
0.091770954
0.040816274
0.06183773
-0.059544936
-0.39318213
-0.572808
-0.70959234
0.12294768
-0.16828746
0.12751473
-0.025235815
-0.0031568096
-0.052353136
-0.37802032
-0.19432515
0.011945588
0.122457005
0.026479634
0.029021017
-0.1108267
-0.06366181
-0.03043133
0.10818477
-0.091211714
0.36116993
-0.4821389
-0.09586637
-0.11323538
0.121889286
-0.8715957
0.032646462
-0.06038034
-0.0998304
-1.4362521
-0.07691467
0.015382777
-0.01571874
-0.16866323
-2.1113837
0.037555195
0.0187039
-0.024817811
0.094955675
0.14641243
-0.069689274
-0.06893281
-0.16036576
-0.08042446
-0.071269795
-0.14494914
-0.06940257
-0.24867363
-0.058648806
0.036216892
-0.10470618
-0.0044521284
0.027210945
-0.3698659
-0.03904825
0.008987194
0.027005153
-1.2129966
-0.031000832
0.13022117
0.08393668
-0.6301963
-0.18450336
-0.05798284
-0.039786614
-0.026134891
0.00056283746
-0.26928312
-0.34192514
-0.29659757
-0.10274675
-0.3528279
0.019540973
0.014705002
-0.31197312
-0.7360301
-0.017565401
-0.1073589
0.03918278
-0.20229937
-0.33135855
0.01699338
0.100017264
-0.0019897036
-0.603677
0.068998136
-0.120716915
0.06515517
-0.043865137
-0.065865874
-0.0651253
0.04552702
0.0025641015
-0.16361147
0.113560095
-0.0032753132
-0.0003316221
-0.5449567
0.054478068
-0.062444534
0.04144671
-0.09018354
-0.024926305
-0.38357183
-0.08106385
-0.038194105
-0.26139057
0.22169581
0.046147242
-0.011388915
-0.5434002
-0.41653818
-0.08051336
0.3589389
-0.051631518
-0.6956696
-0.07725377
-0.007864818
-0.17457274
0.018900285
-0.050784342
0.05128539
-0.2695421
-0.3704446
0.037194606
0.032067318
-0.1587503
0.09312281
-0.07059876
-0.050319813
-0.026202602
0.032875553
-0.05888314
0.0689516
-0.109023035
-0.12799573
0.06639945
-0.15738714
-0.41740844
-0.050925184
-0.3311843
-0.3805685
-0.018195057
-0.20142776
-0.4072996
0.063886754
