-0.00426059
-0.0037602687
0.019078048
0.010363572
0.002019121
0.01621731
-0.050775856
0.00091779017
0.021446712
0.0005094005
-0.003441335
0.0022142585
0.004988323
0.0011970421
0.0020432293
0.007791914
0.011120095
-0.009551159
-0.025866944
-0.005733928
-0.0005739618
-0.022789855
-0.019418592
-0.040674664
0.0014712464
-0.00078538794
0.0042390893
0.00026168302
-0.12902617
-0.0027608431
-0.0006980248
-0.0010135948
-0.0015675537
-0.033679903
-0.0002255782
-0.013090958
0.010613965
0.008081872
0.006201403
-0.0017213366
0.036817797
-0.034589987
-0.00994547
-0.002888959
-0.0097084055
0.043665998
-0.038356803
0.0028529274
-7.19409e-05
-0.04912145
-0.0040766043
-0.0011662488
0.0010199263
-0.05878018
0.0016539344
-0.0081939185
0.0040676226
-0.004070609
0.002141386
0.0011006601
0.0001355496
0.045540664
-0.0021002176
-0.03968048
-0.0018542173
0.00021000943
-0.0010739829
0.0007482751
0.00075029145
0.023986932
0.035393566
-0.01564899
0.006749141
-7.608013e-05
0.0009570659
0.027833283
0.0002692235
0.04810955
0.0048855897
-0.0013256248
-0.0043824282
-0.0076955003
0.00045544337
-0.059539843
0.038504887
3.5778685e-05
-0.002061655
-0.016358253
0.00020609872
0.011110411
-0.06959425
0.0006315586
0.048778728
0.0006534385
-0.0020342045
-0.00059068645
0.0020624208
-0.0024197074
-0.0043305177
-0.065164655
0.025163077
-0.0022517354
-0.045432154
-0.023404373
-0.0012463342
-0.027934244
0.0440527
0.0055708825
0.014524258
-0.0015937921
-0.0031977722
-0.0023400744
0.0010222485
-0.0026279395
0.00061527995
-0.0006520015
0.007043115
-0.008156569
0.0010954349
0.0034658895
0.00038799306
-0.035742454
0.0015502855
-0.022832941
-0.0010953419
0.0019683791
0.013951129
-0.002824998
-0.008611379
6.9231035e-05
0.0065842243
-0.00570034
-0.00011818064
-0.061904985
-0.0019840572
0.0008556729
-0.034608554
0.0019049488
0.05359314
-0.002260565
0.02517798
-0.011457546
-0.009723508
0.00037148193
0.026024312
-0.028628914
0.00018999021
0.0006495231
-0.0028167851
-0.021672616
-0.0047050407
0.0019108286
0.00062467303
-0.041628
0.00034318402
-0.0022231098
-0.0012046584
-0.0031699927
0.001311334
0.0010165004
8.1862665e-05
-0.022409864
0.0007460003
0.020376652
-0.03630305
0.0003362914
0.0019049413
0.0006461204
-0.0025871391
-0.009825514
-0.042202927
0.0029373413
-0.0050867572
0.0010326367
-0.0020242825
0.023102282
-0.0048794732
-0.045535527
0.0002654251
0.0002922416
0.00815868
0.0031004925
-0.00026770492
-0.054752123
0.013884645
0.0017357845
-0.00024455725
-0.0032269766
-0.0019835727
-0.0015290966
0.0192477
-0.0020717576
-0.026441297
0.00053041405
-0.0014110813
0.00204679
0.0009799453
-0.015317909
-0.0019381319
-0.004579877
