-0.13701436
-0.1769311
0.4620103
0.57540864
0.025970759
0.28480217
-0.5585152
0.35409752
-0.20105304
0.11738172
0.6138164
0.056322645
0.3300854
-0.020683214
0.16166276
0.11688582
-0.13818975
-0.047800645
0.3990666
0.046842076
0.17651404
-0.4803534
0.33704025
-0.08557921
-0.6052958
0.6978851
0.13418883
-0.006535486
0.4492816
0.4708675
0.8307996
0.44977385
0.014013803
-0.10039975
-0.070940375
0.22065449
0.6556239
0.42141837
0.015266785
0.2617098
0.1093861
-0.38456008
0.007213879
0.24180326
-0.004354984
0.34924334
0.12126228
0.09334085
0.14044817
0.520534
0.015295559
0.024580188
-0.15269665
-0.105841406
0.82162017
-0.33578393
-0.015578815
0.21190101
0.40725794
-0.061111286
0.24015021
0.09497856
0.5576581
0.7542291
0.58370805
0.038401477
-0.0009572111
0.09434637
0.16797295
0.05170316
0.4132112
0.32814687
0.09090827
-0.4653672
0.058391955
0.2094048
-0.015084845
-0.15672463
-0.1567947
0.22239077
0.3048828
-0.28547364
0.031126756
0.1718433
0.29601765
-0.071736604
0.38649312
-0.04160464
0.2303596
-0.0568454
0.59906715
0.41796574
0.13467398
-0.32561937
0.48494795
-0.06733883
0.17387883
0.003964772
-0.014950353
0.27152902
-0.39072058
0.34058633
0.26433945
0.015149458
0.3764712
0.27042612
-0.029335998
0.039640166
0.35588238
-0.073315926
0.84898275
0.21250686
-0.010038442
0.44526732
0.83288705
-0.18695354
0.48176777
0.46514916
-0.04437174
-0.028850928
0.33273047
0.26807868
0.022936882
0.054786883
0.02141815
0.060106758
0.07255575
0.008810381
-0.059309334
0.33768615
0.23608264
0.22444588
-0.5750753
0.70660377
0.3763748
0.064895
0.32882282
0.04692863
0.54978526
0.097908266
-0.05923459
-0.37519103
0.3943235
-0.09265447
0.66329086
0.42918578
0.33113396
0.2547178
-0.29007286
-0.09091589
-0.4173041
0.10265606
0.21326406
0.5511987
0.30220246
0.023527708
-0.3334189
-0.049030513
0.36805975
0.07495309
0.10767365
0.17871785
-0.94560814
0.24604954
0.39125305
0.40594187
0.30191067
0.28425086
0.51050776
0.53144145
0.29351074
-0.31806344
0.009592671
-0.049438316
0.1967811
-0.059455384
-0.08507507
0.0100048585
0.12329809
0.21027574
0.21233119
0.023671014
0.23196645
0.8399105
0.12518705
0.20470239
0.6590056
0.0318326
0.12926635
0.19521102
0.8128412
0.31481555
0.06280305
0.833815
0.3655791
-0.14635594
0.29207686
0.28428265
0.2915801
0.2994289
