0.14852014
0.01562303
0.22480871
0.30554426
-0.045836374
0.11431527
0.13194297
-0.08910826
0.20651463
0.06473152
0.22992162
0.00088229845
-0.018922556
-0.009144824
0.11131975
0.05592506
0.01206593
-0.041906804
0.06500271
-0.0016793814
-0.01606207
0.025023155
-0.04411414
-0.016135689
0.057426162
0.28591004
0.04489972
0.047844406
-0.061121874
0.037196387
0.20764841
-0.020562358
0.0038155015
0.03335205
-0.01407778
0.0426484
-0.021615343
-0.0024212755
0.013019206
-0.11480809
-0.077581026
-0.038452055
-0.046207797
-0.008002301
0.036958337
0.05368753
0.16316937
-0.10997188
0.015806207
-0.041654065
-0.01036108
-0.059104715
-0.039475895
0.04186764
0.29554734
0.14148845
0.03267772
0.036569364
0.13463347
0.05076115
0.015116181
0.021213211
-0.082571
0.1819197
-0.01710383
-0.1671791
-0.07657435
0.1542206
-0.0027271798
-0.074180365
0.13958402
-0.0520776
0.015566652
-0.034935042
0.07978181
-0.34113094
-0.03448411
-0.08994822
0.07027592
0.034490086
-0.05975182
0.09932888
0.13279754
-0.030533656
-0.031603128
-0.062376805
0.07695125
-0.019856386
0.040819503
-0.0012044299
0.21436036
-0.15156834
0.1317129
-0.090756424
-0.030313361
-0.13502812
0.068404295
0.094914384
-0.058985766
0.054492977
-0.070073545
-0.012138235
-0.0054258606
-0.03738618
0.008417676
0.03856158
-0.0011688768
-0.012949125
0.002485822
-0.033093393
0.0583369
0.08467163
-0.07496819
0.14292245
-0.0048200656
-0.03093973
0.19050905
0.036814492
0.14851835
-0.010937983
-0.060172882
0.29070696
0.053674947
0.049185615
-0.048491437
0.009223989
0.02673492
-0.017900221
-0.013854121
0.037997972
-0.069841735
0.0039916914
-0.05639038
0.18660338
-0.036264263
-0.049042292
0.015382213
-0.061136514
-0.06709015
-0.130927
-0.005495652
0.13514693
-0.046060767
-0.02783225
0.096040055
0.040461104
-0.058405604
-0.026045715
-0.024846448
-0.03952743
-0.09103962
-0.0068254
-0.12025328
0.04677457
0.14071299
-0.13830714
-0.13630816
0.11964106
0.07621915
0.003575885
-0.0020553214
0.030819029
0.07825331
-0.047682133
0.108192906
0.0072969664
-0.22769208
-0.052812614
0.09052365
0.29676554
0.17188367
0.110624254
0.050978884
0.04899533
0.08960851
0.13630764
-0.037277836
0.042901985
0.2553726
0.15883455
0.12466808
0.048110373
0.113394395
0.1553817
-0.049518492
-0.0667246
0.27648908
-0.0019588557
-0.038939267
0.033748
0.1300093
-0.025206137
-0.053162526
0.22081305
0.032990083
-0.044759367
0.11627276
-0.12422459
0.029871503
-0.17357214
0.036524106
-1.9683694
0.17906122
0.19004054
-0.02843782
0.06791825
0.046354633
0.0346466
-2.0268872
-0.036154117
0.023200396
6.2124425e-05
-0.015814103
-0.027560398
-0.019179104
0.03755646
-0.16358781
0.044074513
-0.20645785
0.048911408
-0.11368418
-0.001699664
-0.3374226
-0.04063859
-0.005391359
0.019734077
0.02124047
0.04267852
-0.020088635
-0.011723844
0.032857917
-0.018136844
-0.02792317
0.03978229
0.04756274
-0.10348286
0.0072103296
-0.12929562
-1.349868
-0.12802908
-0.5918806
-0.030651664
0.05578847
-0.033489443
-0.0061125606
0.020617453
0.04373367
-0.11872132
-0.6355907
-0.65565485
0.013239756
0.07147704
0.02288945
-0.02717802
0.096134394
-0.14771748
-0.035498653
0.057977214
-0.0055926805
-0.33673644
-0.54736036
0.015144063
-0.43711877
0.030377813
-0.023385933
0.071859874
-0.051907547
0.025700513
0.00049941655
-0.030457312
0.013151898
-0.2466145
-0.8232712
-1.1191299
0.03209133
-0.19468535
-0.30623525
-0.048709556
0.2309659
-0.0009794222
-0.03119045
-0.00555612
0.0040695453
-0.18559368
-0.5754864
-0.0962928
-0.012817066
-1.0348524
0.030956026
0.06006872
0.051641863
-0.020491041
0.2055163
0.18836594
0.003632662
-0.08083668
-0.11387838
-0.4154615
0.014511325
-0.1402816
0.0043658875
-0.21761099
-0.046927955
-0.04316406
0.16579902
-1.3354094
0.041359127
-0.020463582
0.015067717
-0.04307769
0.08161916
0.056458082
-0.0073650735
0.06878542
0.0066090818
-0.26784393
0.039584506
-0.15743777
-0.005193024
-0.03943666
-0.025214931
0.118556514
-0.7667055
-0.012519711
0.023070512
-0.03273206
-0.1447761
-0.04059494
0.03646616
-0.01676051
0.26147825
-0.16348593
-0.0492591
0.035116814
-0.04542219
-0.09655181
0.12239265
-0.016337942
-0.011029477
0.1026896
0.0057389117
0.03989869
-0.02061374
-0.087131724
-0.025690014
0.0012613736
-0.017170655
-1.0111723
-0.0698737
0.00049834204
0.0612831
-0.76812446
-0.042536076
-0.06456389
0.16433133
-0.54128456
-1.8258023
-0.34604663
-0.041573443
0.014994019
-1.2577763
-1.0154977
0.053879924
0.03711017
0.07158245
-0.1687497
-0.2539773
0.07149843
-0.015139732
0.07832477
0.028106628
0.31039318
-0.052554283
-0.029152632
0.033049762
0.2934508
-0.06307284
-0.0065439926
0.18267004
0.05685746
0.13903923
-0.48251817
0.02995565
0.019987162
-0.08511742
-0.05935936
0.068135485
-0.5147001
0.22320798
-0.5818569
0.040233344
0.04410708
-0.06573095
0.16635609
-0.2761126
-1.26368
0.05552115
-0.034763515
-0.33311546
-0.11207036
-0.024789648
0.029500246
0.20130108
0.16201164
0.020134714
0.102740064
-0.118071586
0.16630337
-0.039822213
0.008753438
0.2690131
0.007776201
0.3797298
0.023768174
0.1151379
0.28717053
-0.34868443
0.0072029904
0.04304351
0.27605265
0.103298426
-0.353423
-0.029743763
-6.6840126e-05
-0.48515478
0.19106923
-0.004118311
-0.024027748
0.056243625
0.18968716
0.16783166
0.10071257
-0.058267985
0.3327622
-0.011399009
0.06488884
0.06743815
0.011946664
-0.0069794906
-0.4179998
-0.0005480224
0.009718441
0.022301493
0.058669537
-0.04345224
0.07985723
-0.006586859
0.05070901
0.0359357
0.0096240025
-0.041576553
-0.03975038
0.22599739
-0.10448378
0.051838357
0.0069763497
0.010073106
0.06490782
0.12257037
0.020071479
0.013692297
0.41762957
-0.033175807
0.09090416
0.014719858
0.45818084
-0.058078896
-0.26227665
-0.01037422
0.00602324
-0.09220978
-0.025240544
0.018645473
-0.05851111
-0.14070107
-0.10561449
0.009293226
-0.047593664
0.01672003
-0.14502779
0.009564313
0.13281749
0.03976167
0.38144204
-0.0034767946
-0.07515427
0.022372244
0.020901985
-0.035323013
0.030865455
0.1445614
0.2330824
0.021719174
0.031213894
0.04148175
-0.012010874
0.034324024
0.107355535
-0.039595734
0.13550873
0.007852155
-0.008188193
0.020669505
0.073785454
-0.008143985
-0.0033359944
0.017317863
-0.022321528
0.045874055
0.030086853
0.128666
-0.084169194
0.06739703
0.0534383
0.16435753
-0.039772917
0.1180647
-0.02328189
0.30798608
-0.033554915
0.063142836
0.107013516
0.030628758
0.11183047
0.0002280331
-0.018458018
0.04941956
-0.040389877
0.0019015744
0.062241435
0.15303303
0.022276105
-0.7066188
0.19602491
-0.23543109
0.082817405
0.15354072
0.048125014
-0.07067596
0.2419584
-0.024742583
0.2122302
0.042864148
0.034123424
0.07218605
0.06929296
-0.012004732
0.017940758
-0.12268155
-0.07487976
-0.033490792
0.06874962
-0.50708294
0.09497684
0.036693595
-0.49095806
0.03506592
0.03485309
0.20023313
0.11969261
-0.020142812
0.037188802
0.30813846
-0.053294472
0.25398406
-0.018753553
0.2609812
0.47312114
-0.010328322
-0.03855406
0.039157104
0.5570494
0.07240756
-0.0139721995
0.24156332
0.23770964
-0.05147257
0.015428954
0.07957722
0.08617548
0.17941776
2.8703977e-05
-0.19723432
0.17475392
-0.05425343
-0.3176158
0.003925091
-0.00038337172
-0.06959686
-0.12116673
0.15647267
0.13603118
0.07411731
0.16259593
-0.008766902
-0.052046884
0.046934634
0.0835946
0.0008590226
0.17765076
-0.028822076
-0.034757964
0.06595551
0.027803333
-0.05206564
0.08678481
-0.26875994
0.1700949
-0.0038288839
-0.0074562705
0.26378933
0.081751645
0.14941652
-0.021244708
0.13582359
0.53146553
-0.17341451
-0.04579376
-0.04756409
0.24510026
0.086545356
-0.43050754
0.0069893077
0.009554184
-1.022029
0.18872392
0.08867568
-0.049791694
0.043893408
0.20273478
0.04963186
0.16874051
0.07681566
0.3225201
0.03379612
0.062599875
0.09979742
0.02303256
0.025189856
-0.05841067
0.025862755
-0.05450661
-0.006752432
0.038903005
-0.0433081
0.046655145
0.0013859976
-0.0916652
0.05376317
-0.0025814536
-0.032486033
-0.009506389
0.26491067
-0.1158359
0.0074801194
0.1920567
-0.025682747
-0.032071665
0.09491277
0.070789084
0.025821684
0.19929236
0.011009488
0.08429414
0.16397357
0.4824076
-0.05448838
-0.24664399
0.0060645705
-0.07826558
0.00800827
-0.038049795
-0.042347692
-0.07556594
0.015875489
-0.014451836
-0.04609691
-0.04620345
-0.0010763232
-0.24649142
0.02839576
0.15185618
0.066217646
0.30959147
0.017976409
0.05209274
-0.011905425
-0.04018714
-0.07013005
0.024655605
0.096097395
0.2450951
-0.0020677585
-0.0070019835
0.044503737
0.0638342
0.03891538
0.10275259
-0.019650828
0.13918127
-0.12858418
-0.001398429
0.0116130235
-0.040300373
-0.002588415
0.04377732
-0.023909353
-0.027557481
-0.009433373
-0.05147523
0.13040943
0.036997467
0.045332618
-0.023476768
0.06625361
-0.112108916
0.056733184
0.006553869
0.30075607
-0.0299218
0.061350815
0.06961072
-0.03550027
0.03098878
-0.004621701
0.024331111
0.030113364
0.038129944
0.03304684
0.103760056
0.14530498
-0.006915205
-1.7590754
-0.0005274413
0.12664674
0.073421374
0.11338231
0.028156368
0.11297932
0.24689293
-0.0324026
0.071044534
0.026564116
0.029164044
0.060338974
0.08728042
0.0023351924
-0.025471814
-0.08455273
-0.02072985
-0.07011677
0.0050353333
-0.095419936
0.120003015
0.03775802
-0.08590546
-0.012887061
-0.0025910505
0.117341645
0.12746362
-0.006456989
0.022543589
0.007268985
-0.058183074
0.24136215
-0.024824211
0.25508204
0.47263786
0.149072
0.0095411725
0.017679173
0.45026398
0.02820154
-0.015765255
0.23606332
0.057318207
-0.021396196
0.008682964
0.006424471
0.0465886
0.2165565
0.004660262
-0.10480987
0.20302688
-0.070527904
0.21252401
-0.003861625
-0.030727591
-0.07010644
0.052536353
0.14461741
0.2513591
0.08856675
0.053492162
0.010117152
0.03324038
0.0538263
0.0862198
-0.020882875
0.15516849
0.050330974
-0.037495594
-0.02476867
-0.042721875
-0.051225502
0.10528014
-0.053367414
-0.52757496
-0.038264513
0.0010871418
0.19547194
0.027896918
0.024187936
-0.025520857
0.20054688
-0.004083046
-0.008944126
0.027279666
0.043218978
0.27917367
-0.7688484
0.048352174
-0.6796603
0.00033934452
0.24078298
0.116994
0.07874925
-0.050632786
0.048469115
0.19666052
0.10316838
0.14218968
0.042531915
0.019930908
0.0033661628
0.044769544
0.14344981
-0.70783156
0.036310308
-0.023714628
0.01848546
-0.0146814985
-0.015076898
-0.009157735
-0.023257451
-0.058168024
0.034914277
0.039788157
0.043966327
-3.1342583
-0.018261988
-0.02056388
-0.2863659
0.104569204
0.042019513
0.022276593
0.050065774
-0.16916059
0.1009191
0.012883954
0.020419119
-0.11288973
-1.7124913
0.093441695
0.12752987
-0.04584544
0.06831654
0.013721701
-2.2794333
-0.10631429
0.032858666
-0.16680206
-0.020677386
-0.06277716
0.04780405
0.16813561
-0.22865021
-0.03708641
-0.30525368
-0.0028524874
-0.09781566
0.016760495
-0.063847855
0.14720324
-0.32828015
-0.035383794
0.07185082
-0.038308572
-0.02937079
0.023873841
0.040344223
-0.022165066
0.16301419
0.22415124
0.055542283
0.028277716
-0.4504689
-0.010710228
0.011226208
-1.4897692
-0.021438556
-0.39254194
0.019687418
-0.007809804
-1.3826768
0.031001007
0.036279384
0.011517031
0.110269375
0.08316697
0.03151931
-0.028644266
-0.07764798
-0.01743533
-0.059808634
0.027779767
0.009256541
-0.6003673
0.056053184
-0.06790236
0.032016326
-0.028990438
-0.12206955
-0.06581463
0.023617294
0.07382489
0.19870387
0.0041909013
0.022956919
0.10404515
-0.13982184
-0.57286537
0.046012696
0.08238516
0.078106284
0.024571365
0.023883259
0.09519082
0.034958903
-0.86535853
-0.011956962
0.092327446
-0.09535847
-0.060912773
0.15633138
-0.0036382403
0.0012684352
-0.0065538175
-0.07215849
0.038484007
-0.073493816
0.026523432
0.01099641
0.1225639
-0.055357836
0.011626895
0.030619377
-0.32949078
0.21581219
-0.08824237
0.0004806384
0.06892688
0.09304471
-0.041041844
0.15442637
-1.584645
-0.3669335
-0.068931304
0.110212296
-0.004517203
0.061628986
-0.11410893
-0.047764666
0.0042185816
0.023286488
-0.038576465
-0.009213315
0.044893622
-0.04761257
-0.12349182
-0.052024346
-0.17149706
-0.024382045
0.19960336
0.091536425
0.018635027
-0.010912074
-0.022636302
-0.09650703
-0.033793867
0.12552048
-0.16249113
0.054103427
-0.012590405
-2.721997
-0.0065122703
0.078781374
0.050670005
-1.7882702
-0.11629793
-0.00025898352
-0.04781149
-0.05182262
0.012823953
-0.07026519
0.012002889
0.0045508686
-0.058429588
-0.011811111
0.0010331359
0.03735333
0.02792595
-0.017895274
-0.056748133
-0.08729389
0.056197975
-0.03293869
-0.005560073
0.04001652
0.0064466163
-0.05326296
0.01993256
0.04053433
-0.06298771
-0.064571664
-0.09122558
0.036040246
0.05794693
0.00036339692
-0.0063807955
0.009115784
-0.060818285
0.033622168
-0.06993159
0.030869994
-0.0030673468
0.005847889
-0.050883822
0.02034591
-0.079089046
0.025853507
-0.00040846597
-0.022023264
-0.032878958
-0.04009188
-0.06752531
0.0128828455
-0.010416982
0.008124918
-0.072456
-0.04065855
-0.010485948
-0.025473075
-0.0719109
-0.08713028
-0.039119508
-0.059795305
-0.016182546
-0.016146151
0.027732069
0.008266483
0.03663266
0.039512552
-0.008193581
-0.04415371
-0.029449314
-0.0679676
-0.038118307
0.0053128465
0.056734934
0.00117498
0.032721005
0.016727185
0.03576005
0.045609258
0.021973632
-0.03820473
-0.073348686
-0.011162959
0.012543662
-0.046918374
0.023358896
-0.02150845
0.047996067
-0.02467781
-0.045319274
-0.030543813
-0.042871553
-0.00064439577
-0.058354218
-0.06587077
0.007436519
-0.088894024
0.07056292
-0.043544713
-0.05859633
0.059488982
0.0318431
-0.011316767
0.007169786
0.035233755
-0.0034598098
-0.09179252
0.0593117
-0.030307062
0.017859593
-0.005826398
-0.00071325793
0.05571907
-0.059141163
-0.077775314
-0.07482141
0.023108782
-0.035062257
-0.07394238
0.030445859
-0.005549634
0.006979377
-0.019527355
-0.04636657
-0.050480407
0.0047910237
-0.07073907
0.018241765
0.051092476
0.011364948
0.004114366
-0.044800475
-0.0026052718
0.037838005
-0.055807
0.04790102
-0.01849469
-0.06598118
-0.014411019
-0.009718478
0.0016010394
-0.057284832
0.034171496
0.03612223
0.023440486
0.030435484
-0.006318729
0.0056626066
-0.0774896
0.0071988637
-0.0664888
-0.073335506
-0.10458182
-0.018244322
-0.018928014
-0.008256971
-0.021900496
-0.04895525
0.017553866
-0.03468853
0.070346594
0.04446096
-0.097964995
0.055908076
-0.025527
-0.06757736
0.023073988
-0.040751275
-0.05636726
-0.039631434
-0.08495221
0.062589236
0.03995794
-0.093289234
0.044648994
-0.0035761714
0.024394626
-0.04695545
-0.04645471
-0.012956975
-0.0035565705
0.051774815
-0.054310072
-0.0535434
-0.017819177
-0.027019858
-0.046569087
0.012944294
0.03718716
-0.052703284
0.0077402075
-0.08215904
-0.03184766
0.00040317274
0.016527148
0.05053322
-0.08605122
0.0238894
0.008812549
0.015210662
0.027971584
-0.019205362
-0.011109443
-0.059030533
-0.0037302575
0.035264816
-0.31011966
-0.27026722
-0.027817853
0.13921364
-1.3012446
-0.038331065
0.17679372
0.030439278
0.03796656
0.00514245
0.4008857
0.022289585
-0.11333074
0.6539364
0.021165174
-0.004567224
0.1730097
0.3281723
0.15528932
-0.19618523
0.06575465
-0.016079903
-1.7753502
-0.04555551
0.08993686
0.057600375
0.075929575
0.014491135
-0.0477728
0.13323306
-0.01211075
0.28824365
-0.050307177
0.07050071
0.14727204
-0.035408303
0.021525314
-0.016624276
0.07921731
-0.0021719788
-0.012825693
-0.08000823
0.046001986
0.013537568
-0.05275403
0.105557576
-0.0041376227
-0.041104563
0.014767664
0.035998363
0.8025981
-0.04828876
-0.08428664
-0.041341837
-0.020955594
0.01901334
-0.08275267
0.16374364
0.017577725
0.122006066
-0.01838516
-0.022157898
0.116834335
-0.050680898
0.18660106
-0.13842846
-0.045441806
-0.0022990431
0.007053675
0.02859255
0.010012078
-0.13183323
0.01823669
0.26573697
-0.07510633
0.16408011
0.0145219555
-0.1110614
-0.016933855
-0.5715535
0.1151123
0.1734449
0.16413362
-0.036840085
0.07470146
-0.00220296
0.005915601
-0.03279707
-0.045635235
-0.027769348
0.016137615
-0.19798498
0.10816931
-2.5700283
0.072614156
0.02805881
0.08678387
0.20790806
-1.9310572
0.018604085
0.05007671
0.019277813
-0.035404447
0.02261315
-0.014878149
-0.03901791
0.1554585
-0.03990639
0.016535517
0.017145844
-0.027361639
-0.066508465
0.02032002
0.122980185
0.015462274
0.01714136
0.3601675
0.008243127
0.03623615
-0.16658086
-0.012896035
0.081008784
-0.044117413
0.073615626
0.24165903
0.059352886
0.016127897
0.1519163
-0.06833804
0.0027793178
-1.6886348
-0.048932105
0.017066883
0.15334272
-0.14446224
-0.016413974
0.13145675
0.008039498
-0.03737836
-0.04881051
0.11871799
0.07223155
0.08218445
-0.04969183
0.14996064
0.012001727
0.12560128
-0.05605258
-0.023090908
0.0420066
0.11271946
0.05872707
0.26369175
0.14892004
-0.28128168
0.08869108
-0.013350576
-0.01519547
0.055024464
-0.07791311
-0.06407076
0.11310162
-0.10012593
-0.049430232
0.09990661
0.28220987
0.061918255
-0.14207603
-0.025035512
0.0585857
-0.01246879
-0.020061688
0.11194804
-1.523279
0.04525611
-0.025579832
-0.22807786
0.064861685
0.2511405
-0.06201325
-0.065049104
-0.035621587
0.00012028617
0.2660286
-0.007913909
-0.063941754
0.10180263
0.031808794
-0.010462763
0.11131455
0.060784843
-0.18215078
-0.003112224
-0.0008213549
0.03332582
0.10238816
-0.008711012
-0.041668143
-0.008738952
0.008814812
-0.032770466
-0.05345914
-0.04013244
-0.06686359
0.020131407
0.05231187
-0.0077514374
-0.007876753
0.031871047
-0.10158487
-0.04004648
-0.045506276
-0.038946606
0.044170596
-0.04352499
0.018228315
0.03329917
0.05890823
0.015116026
0.03335991
0.0435411
0.038173363
0.0012771292
-0.010159551
-0.05580672
0.04222139
-0.031089308
-0.0071451915
0.039978553
-0.05023085
-0.03344579
-0.060107183
-0.041497815
0.03221541
0.09572102
-0.06077356
-0.034479942
-0.06710483
-0.017479042
-0.084999464
0.02654818
-0.10109865
0.056099717
-0.012565554
-0.04013341
0.01849609
0.020589065
0.028280832
-0.022003584
0.021810913
0.00075633643
-0.030714214
-0.022302072
0.035273466
0.041839987
-0.018523073
-0.043792557
0.057649568
-0.06673211
0.04306168
0.031005625
0.010949143
-0.067957975
-0.04056551
-0.028075779
-0.07034903
-0.053624295
-0.014586111
0.019136243
0.026768645
-0.056102272
-0.0052644107
-0.089374155
-0.056282163
-0.016188547
-0.08971108
0.04149199
0.020326646
0.05423931
-0.030371323
0.02946426
0.037364077
-0.04718271
-0.05341894
-0.07046254
-0.017433114
-0.0041290657
-0.02723411
-0.04248484
0.00949618
-0.050802186
-0.055063672
-0.055545505
-0.03210206
0.015279679
-0.033639044
0.032880045
0.014870665
-0.098183125
-0.0682123
-0.069254704
0.043113615
-0.061065387
-0.043451842
0.038965695
-0.024566023
-0.04769504
0.054234236
0.033958916
-0.06334025
0.06395654
-0.043069333
-0.020797841
-0.038024627
0.018768903
0.010907543
-0.058582164
1.404333e-05
-0.015771711
0.047608465
-0.032810163
-0.023076456
-0.05353252
-0.07696425
-0.07010872
-0.033805914
-0.049455706
0.02615427
-0.009928719
0.016302168
-0.063768424
-0.023575583
0.058671385
0.052431077
-0.022256522
0.0018208243
0.03847752
-0.044093028
-0.04855392
-0.0159635
-0.047302753
-0.011423263
-0.08741986
0.030065324
-0.08031001
0.00843664
0.05271199
-0.022422077
0.016826458
0.0121778
0.0026013765
-0.01131036
0.061161976
-0.009664501
-0.04500879
-0.02253351
-0.04803863
-0.015019014
-0.0710832
-0.031343184
-0.04869953
-0.00553424
-0.03409172
-0.010453161
0.03503815
0.03901302
0.021876916
-0.017846435
-0.010933524
0.01344111
-0.041814063
0.03978257
-0.029647946
0.01632337
0.025412967
-0.0051614367
-0.05322944
-0.02193696
-0.024815712
-0.018876124
0.06387263
-0.00841841
0.012233457
-0.06883252
0.012262383
-0.056889102
-0.092372425
-0.043980356
-0.030331712
-0.018604593
0.055156503
0.013267276
-0.03284
-0.07072521
-0.0009302701
0.02443943
-0.019876843
-0.06472053
-0.024973612
0.04742464
-0.2901001
-0.16315456
0.01200386
0.12814116
-0.07303727
0.0007179398
-0.09894272
-0.03639893
0.17169486
-0.058864277
0.014632643
0.00022727427
-0.06908776
-0.12602364
0.011878362
-0.013178393
-0.7023829
0.097617425
-0.2813327
-0.035551097
-0.29098266
-0.031846598
0.14221266
0.045844566
0.11216759
-0.0700442
0.05230864
-0.099774495
-0.07175689
0.1328179
0.022488773
0.1712101
0.057199523
0.057396553
0.10606662
-0.099367164
0.011844122
0.042664886
0.07593802
0.10278624
0.017276922
0.037703145
0.020263553
-0.030554319
-0.016409446
0.09451387
-0.014147202
-0.17188689
-0.022689762
-0.02924082
-0.22133797
-0.018691123
-0.08214124
0.0042094206
0.03466796
-0.028970318
-0.054410793
0.11459953
0.042106714
-0.28650123
-0.046082668
-0.028972048
0.11653761
-0.20434828
-0.020779366
-0.08497587
-1.4793999
0.0765146
0.052232496
-0.050618578
-0.050459888
-0.14414638
0.012469761
0.004248399
-0.27439165
0.33961922
-0.35476947
-0.03159134
0.068917386
0.18549748
0.012100369
0.019343056
-0.3352851
-0.013195183
-0.0031127324
-0.041674107
0.12171664
0.058321062
0.051970184
0.013320745
0.15112163
-0.26817697
0.13269679
0.11372707
-0.4791907
0.22031304
0.035659775
-0.8142047
-0.063909
0.057504438
0.098526716
-0.05466409
-0.1317324
0.02957502
-0.016910912
-0.0066405158
0.1109949
-0.0013213923
-0.030129692
-0.112916715
-0.097410634
-0.08643979
0.1542726
0.06388411
-0.0343276
-0.45571998
0.017326655
-0.033645634
0.08512451
-0.079275034
-0.2788842
-0.062105145
-0.045811903
0.13431562
0.19101742
-0.078833506
-0.048995133
0.4492351
-0.14341787
-0.013018017
0.14347497
0.050834388
-0.0076182727
0.011205571
-0.106559135
0.048357427
0.054642305
0.017861862
-0.06330949
-0.010268057
0.07576552
-0.024378369
0.13685486
-0.031759854
0.034558743
0.04800905
0.23279253
0.027794566
0.12087527
0.05770638
0.032278057
0.028887084
-1.3886015
0.12673716
0.038924113
-0.08835453
-0.09175483
0.26054034
0.057934698
-0.04411599
-0.022859637
0.1370494
-0.00046673208
-0.30340785
-0.045789216
0.11860815
0.027475737
-0.07404922
-0.13085824
-0.19631
0.02211675
-0.047451366
-0.07108227
-0.16609298
-0.006318432
0.029404294
-0.21925972
-0.2290181
-0.013032421
-0.19291624
-0.039080415
-0.07543853
0.049346477
0.0751596
-0.051101036
-0.14969207
0.05861454
0.15178831
-0.08928345
0.0048502763
0.143648
-0.114326306
-1.4268522
-0.08145166
0.109017864
0.13996363
-1.0165445
0.050267216
0.046129715
0.046152357
0.040012017
0.02603001
0.008420149
-0.08915002
-0.067735314
0.024957309
0.0041696983
-0.042912975
0.0013421822
-0.01902267
-0.053809408
0.004996959
0.03355722
-0.06918899
-0.02405464
-0.059848033
0.041175842
0.0018167231
0.0026381277
-0.068726666
-0.019871505
-0.024127891
0.013052638
-0.006617491
-0.08113517
-0.016413517
-0.0017952273
-0.08781172
0.0052975556
-0.09346905
0.009597431
-0.018025864
0.046069387
-0.024062708
-0.06332471
0.026699837
-0.06900204
0.030493466
-0.017482707
-0.047335047
0.011145982
-0.060464803
-0.056422234
-0.034216817
-0.04930516
-0.0015093923
-0.022559375
-0.04374804
-0.0482539
-0.034242455
0.017532993
-0.09582891
-0.06074296
0.0051085586
-0.031222934
0.003990902
-0.07227954
-0.020354677
-0.05185832
-0.017379642
-0.060403574
-0.050517526
-0.013157209
-0.071668155
0.018395215
-0.03351298
0.02816084
-0.05384863
-0.049338836
-0.043766297
0.027340814
-0.095985524
-0.05032653
0.053286415
0.034592647
0.02468794
0.016109731
-0.09355417
-0.070561916
-0.066851676
-0.06014611
0.026688023
-0.05350677
-0.049760744
-0.027673924
-0.06008209
0.009214857
-0.038279656
-0.016040988
0.036270507
0.046924736
-0.019211529
0.0052778097
-0.06170043
0.05818753
-0.042473767
0.014097957
-0.06270246
0.04725523
0.009867878
0.0012360789
0.0346254
-0.06739794
-0.052524634
-0.049027517
-0.029012542
0.016916262
0.034932368
-0.046146136
-0.0097359475
-0.07020245
-0.02010268
-0.03836403
0.018667905
0.02319975
-0.07286722
-0.07293181
-0.050525807
-0.028933661
-0.026551874
-0.024011401
-0.065264806
0.06230391
0.021766711
-0.030857528
0.0139508
-0.026646892
-0.10520518
0.023683032
-0.04059365
0.04573473
-0.0030494079
-0.029027576
-0.05343853
0.031971455
-0.007829345
-0.03409841
0.012721243
-0.02399124
-0.006651071
-0.062258106
-0.065865695
-0.03419056
-0.015413639
0.015904421
-0.066511445
-0.062203523
-0.06577544
-0.044416316
0.064936146
-0.041942626
0.020969147
-0.062076017
0.00600714
-0.020200495
-0.022243556
0.02495563
-0.045828573
-0.020705858
-0.011055942
-0.0072102156
-0.091209434
-0.06954995
-0.06644154
-0.03939394
0.026929356
-0.09228447
-0.055030726
0.0559549
-0.072913975
-0.034143206
0.0024579288
0.029702654
-0.06649187
-0.016184824
0.0637126
0.01036976
-0.07360445
-0.018011283
-0.035392676
-0.008800356
-0.10503142
0.007810604
0.013828031
-0.05476568
-0.026116496
-0.0067233895
0.053053655
-0.090284154
-0.02992703
0.015331679
-0.007224801
0.0259167
0.058467414
-0.032706562
-0.06776913
-0.05876529
0.02194317
-0.045890164
-0.048152342
-0.059176523
-0.043415554
-0.009225842
-0.06774375
-0.04564366
-0.038379136
0.04486545
-0.054998767
-0.019286187
-0.02646082
0.02856013
-0.054144505
0.009746087
0.005072486
0.0121252835
-0.062274523
0.0037967828
0.03380155
-0.045134977
-0.040942747
0.017600166
0.0028366165
0.047113173
-0.040112946
-0.04626941
-0.045546636
-0.04990096
-0.03302459
-0.08997877
-0.007389731
-0.027498577
-0.047952946
0.061727542
0.017563127
-0.07583994
0.0014219115
0.07506385
-0.045488045
0.04599977
0.0030529276
-0.007642268
0.01871588
0.016492618
-0.016835436
-0.10061347
0.05280496
-0.037545323
-0.038576283
-0.06918189
-0.0077523207
-0.036632746
-0.05227235
-0.0746268
-0.088445395
-0.028875422
-0.04644563
0.015127728
-0.035565093
-0.051615182
-0.08276867
-0.034120485
-0.045853436
-0.06783207
-0.03663891
0.008840584
-0.08779878
0.010245214
-0.053447045
-0.07677001
-0.0007153311
0.03143689
0.035603873
-0.109951735
0.043366402
-0.07599638
-0.09678363
-0.07616235
-0.047857344
-0.0757074
-0.013174831
0.053403698
0.052452184
0.0058443355
0.063786596
-0.039831955
-0.058115926
-0.03892694
0.008738294
-0.09092352
0.07547239
-0.031196345
0.03932377
-0.047452923
0.0061401976
-0.004459141
-0.018648796
0.059600644
0.02924188
-0.035625
0.0330214
-0.07303841
-0.073721245
0.01040447
0.03930427
-0.028733341
0.0118050845
-0.0068812985
0.015915852
0.004858529
-0.01355145
0.044290923
-0.08069168
-0.059285752
-0.08116682
-0.027127404
-0.015090855
0.057046093
-0.06102376
0.05146358
-0.015676768
0.015371002
-0.00067245716
-0.043119136
0.012593159
0.037669927
0.00010315863
-0.066044405
-0.057858527
-0.031710375
-0.019561391
0.004932891
-0.028327834
0.030202474
-0.06861563
0.027738988
0.047925185
-0.03530195
0.019310348
0.036890265
-0.06535631
-0.09488954
-0.040370826
-0.0015313128
-0.044832505
-0.03452061
0.038654108
-0.0016391443
0.05840219
-0.050102625
0.011443682
-0.032807067
-0.10310615
-0.007578503
-0.06238085
0.024017822
0.047700346
-0.007653497
0.009265555
-0.043520663
-0.013066878
-0.03173725
-0.004725871
0.03635614
0.028596211
-0.07215565
-0.005940944
0.0062557682
-0.029336104
0.017137755
-0.09598377
0.03334004
-0.05761923
0.008683111
-0.051136237
-0.017525025
-0.032868158
0.043923616
-0.09395512
-0.03497956
0.026081637
-0.05950351
0.026904795
-0.07268402
-0.059226852
0.018699825
0.043851722
-0.08017684
-0.053569112
-0.07854946
-0.049747236
-0.013674107
0.031409707
0.025682848
-0.06780819
-0.07127075
-0.021717107
-0.051501673
0.04275411
0.024309294
-0.0370985
0.0026325383
-0.065861516
0.0602013
0.014728566
-0.061185002
-0.082562104
0.0075400625
-0.0105445115
0.03282377
0.018021101
-0.0378176
-0.029393964
-0.008750019
0.062669575
-0.0799374
-0.030066144
0.00018086526
-0.029093668
0.03102154
-0.020387957
-0.06165401
-0.06680227
0.004730119
-0.025436396
-0.019049453
-0.06379379
-0.05216173
-0.001564984
-0.0927842
-0.08726873
-0.06410333
-0.006633686
-0.04020029
-0.025464939
0.014958856
-0.02957571
-0.024730286
0.047268845
0.06017628
-0.059558794
0.041352257
0.020720646
-0.016648933
-0.09162993
-0.10978323
-0.058497522
0.05028677
-0.0468685
-0.0103833135
0.023882393
-0.039411224
-0.03689526
-0.07581098
0.017770862
-0.062002704
-0.07184537
-0.004568133
-0.07043469
-0.040180027
-0.014358193
-0.007131289
0.010472295
-0.015116532
0.050554886
0.005363906
-0.07013402
0.038509972
0.047013517
-0.08221878
0.049765725
0.009849263
-0.08438434
-0.018908858
0.0048819105
-0.002014745
-0.06659918
-0.053326692
-0.045146756
-0.08002198
0.039928943
-0.03295755
0.04473394
0.005541558
-0.0066009974
-0.033582732
-0.04665421
-0.08485114
-0.019247869
-0.020052979
-0.022337118
-0.007668627
-0.058353066
0.02226773
-0.102427386
0.06365324
0.042204108
-0.05236078
0.042053368
-0.046286035
0.006363918
0.05909065
-0.018386893
-0.005923109
-0.055199828
-0.05024247
-0.062078446
-0.028544491
0.022181518
-0.013745664
0.043479685
-0.033260036
0.02365377
-0.06334585
0.008173906
-0.020213628
0.0706685
0.03228235
-0.053419076
-0.032554418
-0.071499564
-0.068580896
-0.043211993
0.0647921
-0.03643796
0.036731217
-0.0029883718
0.06986245
-0.094213545
0.0040047592
0.020374458
0.01919006
-0.025335765
0.06313261
-0.0020974625
0.026312577
-0.0060354755
-0.016436012
0.05918998
0.044515293
-0.031398743
-0.022800472
0.050248303
-0.046299957
-0.079210214
0.016143871
0.055637505
-0.06558809
0.049818207
-0.047081415
-0.017111287
-0.027575342
0.038849838
-0.050856393
-0.027859975
-0.028650962
-0.07417142
-0.00706819
-0.061185714
-0.023430727
-0.032442983
0.029423475
-0.07099243
0.02919181
0.031911142
-0.07137851
0.060701326
-0.09561535
0.015275031
-0.024526533
-0.009269752
0.013658782
-0.04017887
0.048764866
-0.007405543
0.067159295
-0.017826552
-0.08793644
-0.060661297
0.0142913535
0.055791307
-0.042331763
-0.06192558
-0.044995524
-0.050687026
0.02909991
0.023447063
-0.008975927
0.060798652
0.036034737
0.035441197
-0.0072430433
-0.04458729
-0.044706456
0.06156713
0.018753082
0.0067825727
-0.020916343
0.021659775
-0.010198513
0.0316814
-0.06389271
-0.06630059
0.053444676
-0.051396802
0.041173983
0.0068511753
0.031188982
-0.08367603
-0.003450611
-0.118287355
0.038761377
0.052255396
-0.064605236
-0.05248503
-0.09881984
0.031359695
-0.051086098
0.060720284
-0.039788753
-0.06441062
-0.05593903
0.03305798
-0.07437946
-0.056173634
-0.06916587
-0.037718616
-0.071946844
-0.030333636
-0.007934777
-0.004857393
0.034739397
0.017769484
-0.041002538
0.020854933
0.019292478
-0.02469995
-0.008041852
-0.06156734
-0.009939098
-0.12063704
0.04275734
0.024928194
-0.038282696
-0.014051423
-0.018144008
-0.03414026
-0.037699506
-0.061714664
-0.006746888
-0.014621999
-0.03272001
-0.10680151
-0.0054712277
-0.016727123
-0.030778134
-0.01563981
-0.028427105
-0.02265984
-0.06104248
-0.023550788
-0.05683125
-0.1043845
-0.02998429
0.05401536
-0.052831355
0.042639684
0.047259793
0.026033163
-0.085769854
-0.036897898
-0.050975025
-0.090520926
-0.07191351
0.0016751922
-0.028558545
-0.031277426
-0.059394058
0.026222864
0.024094373
0.003152163
0.004405216
-0.06484096
-0.04948901
0.035916746
-0.06070896
0.040887304
-0.011878102
0.0508706
-0.064708985
-0.026725834
-0.054736312
-0.020367462
-0.03995168
0.045914702
0.050368465
-0.018452585
0.024235893
-0.05913313
0.012074285
0.022466607
-0.06028434
-0.04204395
-0.02646971
-0.07751622
0.038455233
0.051728614
0.015088746
-0.07076774
0.042268712
-0.0927367
-0.00834397
-0.10012381
0.03816411
0.040282696
-0.04396004
0.039799515
0.0070084026
0.0063746944
-0.049350828
-0.06594474
-0.052524153
-0.05165722
-0.0166578
-0.032782633
-0.017699635
0.053693544
-0.055587348
-0.037479233
0.070525564
0.001607464
-0.07275157
-0.092349544
-0.036571696
-0.05734862
0.058571957
0.010199909
0.024200426
-0.018941151
0.02259925
-0.050657514
-0.05687481
-0.04479794
-0.070413634
0.035991978
-0.07535318
-0.088056944
-0.00745101
-0.033087183
0.029660279
-0.00910951
-0.099306345
-0.108861595
-0.0116474405
0.0201602
-0.03678016
0.05772402
0.007906705
-0.08038626
-0.05398621
-0.013009855
0.030102849
-0.038007375
-0.038890276
-0.0107251825
0.06423825
0.04831699
-0.10620971
-0.10063672
-0.0460676
-0.042259477
-0.07645796
-0.01596371
-0.007968087
0.03924754
0.06044491
0.04725654
-0.027970834
-0.0064988374
0.030119646
0.024593048
-0.09162621
-0.08276636
-0.053837772
-0.070070624
-0.05001581
-0.015749345
-0.06698053
-0.048901506
0.010067836
-0.07337615
-0.048031926
0.061012153
-0.059255596
-0.007187948
-0.06467523
0.058532517
0.014128729
0.025842017
0.075757034
0.20211132
0.18276478
0.17921531
-0.040036835
-0.08329312
-0.027825125
-0.023337651
0.35821065
0.080580465
-0.011795551
-0.17548165
0.12385266
0.026635686
-0.02309825
0.19863378
0.15109943
0.055487156
0.08903743
-0.13638116
-0.16598347
-0.4953455
0.03756846
0.053947613
-0.58449125
-0.034581028
0.03727043
-0.007029663
-0.0012361213
0.05865793
0.058172602
-0.016444126
-0.05859271
-0.07546512
-0.023493676
-0.069399804
-0.10341776
-0.04044125
-0.14389166
-0.02114439
0.04705548
-0.0061962386
-0.013900388
-0.08491253
-0.007250743
0.022759452
-0.059345804
-0.019960761
0.036031768
-0.6395334
0.009417159
0.030824836
0.173667
-0.17114747
0.09536151
-0.043850362
0.036264963
0.115467966
0.013730612
-0.12502226
-0.02071317
0.36319298
-0.49645612
-0.02854516
-0.07126034
-0.374343
-0.3291972
-0.14339785
-0.46114773
0.20009975
-0.14937861
-0.110740095
0.09130581
0.041383155
-0.10532753
-0.27857772
0.039578326
-0.073539905
-0.028515173
0.044221852
-0.21628094
-0.13033023
0.07060229
0.18666664
0.003406437
-0.03510796
0.006397415
0.038078513
-0.15361293
0.0170078
0.03625294
0.08617236
0.017452793
-0.12437034
-0.029546613
0.09093742
0.017264497
-0.018627651
0.008858854
-0.18253928
-0.03761308
0.017704444
0.07011687
-0.0039897724
0.07477135
-0.0002316079
-0.038924985
-0.0012203334
-0.18124086
-0.026687812
0.0925328
0.16447626
-0.07130849
0.036378726
-0.13006872
0.46001834
-0.0887545
-0.009301723
0.018703252
-0.039106783
-0.21938922
0.1680189
0.09498848
0.05482045
0.00096152996
-0.09377133
-0.063394524
-0.03176445
-0.0338004
-0.008512949
0.0028382714
0.027844744
-1.0219011
0.14477465
0.02542957
0.09799263
-0.08006637
-0.052176777
0.09992067
-0.14881678
0.038879883
0.005858065
-0.12944853
0.06016209
0.0913198
-0.48585486
0.030828658
0.06297709
-0.14749193
-0.014349711
-0.19157852
-0.012942906
0.30569035
0.0009924202
-0.13463567
-0.07697598
-0.46725276
-0.024481589
0.18479326
0.01692965
-0.0044104857
-0.11585068
0.23691662
-0.025169542
-0.061734118
-0.082038596
-0.27422303
0.005254912
-0.1255866
-0.044550724
-0.12039334
0.23314478
0.082917996
0.047528658
-0.2181536
0.2275285
-0.026308563
0.034237117
0.075598076
0.17517596
-0.17236094
-0.10861948
-0.073922694
-0.00014625858
0.040535282
0.13361283
0.10471637
0.023867087
0.0348598
0.04409784
0.09753954
-0.2374517
-0.046274643
-0.10655802
-0.51869124
-0.018884635
0.09499642
-0.0145790065
-0.23936167
0.15681115
-0.06360673
-0.07287966
-0.021517348
-0.077652045
-0.0007293093
0.006059271
-0.07408261
0.015723776
0.023320105
0.058205284
-0.055873528
-0.019649224
0.038452696
-0.045640316
-0.014902364
-0.06229487
0.05206642
-0.006349229
0.013226726
-0.010030965
0.016644515
0.05560115
-0.05026783
0.019089103
-0.052304037
-0.08078267
0.019767387
0.03367949
-0.059201673
-0.029343441
-0.06804253
-0.06655109
0.006462207
-0.005557783
-0.012651732
-0.068160914
-0.075355224
-0.004856662
-0.023361972
-0.033443376
-0.023535436
0.01277628
0.040645875
0.0045122704
-0.050479196
-0.07697919
-0.115612246
-0.032981567
0.04880564
-0.04077887
0.0037659828
0.06472407
-0.025810253
-0.073350616
-0.10420956
-0.009045785
0.059828687
0.026887536
-0.0494872
-0.039734665
-0.082139514
0.0024454617
0.035979487
0.030261664
-0.0074640973
-0.053450502
-0.06660917
-0.012322907
0.028083453
0.024474164
-0.10320209
-0.06469102
-0.07707017
-0.11876154
-0.0077235787
-0.021791803
-0.028403955
0.017672937
0.042390577
0.05830111
0.017902931
0.055771995
0.02864689
-0.05728808
-0.0686654
-0.07208187
0.02455853
0.0022362182
-0.05210922
0.03482142
0.0013616687
0.0034598492
-0.0779609
-0.015588793
-0.0523204
-0.07620949
-0.02498297
-0.03416164
0.0036604195
-0.05730749
-0.011866077
-0.0068305526
-0.033896767
0.057905782
0.058304626
-0.011885849
-0.004006109
0.009361114
-0.055191495
0.013419082
-0.08817153
0.037994705
0.036711793
-0.0757577
-0.07287793
-0.023016362
-0.021563388
-0.01095837
-0.011309949
-0.020388896
-0.015010286
0.053130865
-0.008551367
-0.024126254
-0.058246307
0.00054237305
-0.0026955442
-0.050607435
-0.0048369383
-0.013320761
0.015099816
-0.024347933
-0.05210261
-0.06834781
-0.071058124
-0.038507674
-0.025175707
-0.00035710927
-0.082055494
-0.056561828
0.010872919
-0.07703225
-0.091699675
-0.069397196
-0.06313181
0.009373198
-0.106834695
-0.026636546
0.037844148
0.007287968
-0.008890499
0.059928972
-0.059378177
-0.031490516
-0.075129144
0.031099679
-0.038921084
-0.008282053
0.05127337
-0.09329347
-0.029187629
-0.041120566
0.04320136
-0.020815177
0.034565106
-0.029367045
0.05295756
-0.044137355
-0.042333163
0.018112026
0.044087034
0.0012089253
-0.06814621
-0.0061435252
0.0001531456
-0.04113404
0.031120513
0.011593981
0.04962313
-0.032366794
0.011385641
-0.06346804
-0.039650053
-0.013767615
-0.08025194
-0.063468106
-0.053226482
-0.012166179
-0.032497235
0.043427415
-0.03955713
-0.06803706
-0.1096615
0.051431112
-0.007821451
-0.068299
-0.043939702
0.056513153
-0.031767357
-0.05037475
0.05486801
0.05872217
0.0004228191
-0.070930846
-0.0020025074
-0.03748129
-0.047779795
-0.0012451551
0.030500347
0.014260955
-0.030672256
-0.05595722
0.015284171
0.026786545
0.00028429404
0.01323646
-0.05922233
0.053186584
0.063416824
-0.023403285
-0.05181041
0.03686301
-0.04552884
-0.008162743
0.06782092
-0.06348096
-0.022752812
-0.02743162
-0.038831335
-0.038724836
-0.054525327
-0.009351248
0.048563473
-0.055741232
0.017525999
-0.0055703185
0.024312604
-0.013200256
0.046007786
-0.018591631
0.022704765
-0.009595044
0.06058204
0.031214554
0.034580357
-0.0039034286
-0.041883755
0.020483546
-0.07645579
-0.05538791
0.016903315
0.021363685
0.06217249
-0.033059567
-0.018790191
-0.044937216
-0.016690642
-0.04789271
-0.051436327
0.028010042
0.039927293
-0.03595569
0.007543699
-0.01327951
-0.06548456
0.019181376
-0.058015075
0.020567492
-0.053242832
-0.07249941
0.05733827
0.03317926
-0.023580205
-0.057530563
-0.086124025
0.008341008
0.045854084
-0.052988302
-0.010665013
-0.05892023
0.011638776
-0.018415257
-0.06567727
-0.061434973
0.035251006
-0.059840783
-0.059982985
-0.035684314
-0.021408282
0.014315233
-0.05722532
-0.014113624
-0.0064508235
0.023762131
-0.071976885
-0.04744096
-0.034532525
-0.063894
-0.079560675
0.05243251
0.030653158
0.006438849
-0.00981117
-0.031392906
0.03364849
-0.011535726
-0.07463489
0.04797144
-0.008203156
-0.04617184
-0.081990674
-0.002703545
0.008535851
0.0016284052
0.026855899
-0.013866391
-0.03584649
-0.07636361
0.041992337
0.023781275
-0.0038401736
0.019965371
0.03530839
0.010525379
-0.018299073
-0.06781471
0.053438522
-0.011858662
-0.069656074
-0.041766625
0.0075226487
-0.0165319
0.015044742
0.044137403
-0.026079336
-0.014786224
-0.064071774
-0.05334104
0.020136775
0.05223659
0.057080854
-0.09373186
-0.045683034
-0.01530922
-0.029738832
0.044923455
-0.027367968
-0.0062573934
0.007967508
-0.028861163
-0.08253842
0.0010422311
-0.029361147
-0.021792335
0.00015263777
0.032413278
0.033059053
-0.028103922
-0.01603724
-0.042944483
-0.017752642
-0.0051014703
0.05895582
-0.09751694
-0.042930078
0.015230446
0.013057676
0.03606136
-0.026558649
-0.06431928
-0.056607813
0.05007363
0.054260377
-0.001757008
-0.012095067
-0.102835506
0.042753756
0.013035838
-0.06827993
-0.0730133
-0.06947962
0.03218533
-0.016947892
-0.010162052
-0.071460135
0.031568125
-0.06512788
0.04287531
-0.074965976
0.0470049
0.034792576
-0.011155949
-0.06267256
-0.006794963
0.018331015
-0.05985735
0.01611542
-0.049762245
-0.07628395
0.03447586
-0.046240795
-0.06212602
0.011784015
-0.030873578
-0.024255905
-0.020060403
0.0093488805
-0.07191922
-0.04240418
0.056137107
0.059148934
-0.022713695
0.014458794
-0.03950142
0.019218411
0.0517838
0.007378929
0.037945755
0.04819909
-0.067906536
-0.055291053
-0.018078135
0.015190807
0.06039865
0.0006817886
-0.07499749
0.0053393748
0.021303795
-0.08926767
0.0058730184
-0.037793476
-0.07358785
-0.025249107
0.0072816885
-0.055812873
-0.040486913
-0.013905584
-0.066141926
-0.035602856
-0.06950024
0.05167674
-0.09758046
0.033406798
-0.049014162
0.014691452
-0.09089006
0.0013788745
-0.06250479
0.038807835
-0.080843456
-0.025394114
-0.013487501
-0.02714585
-0.04589566
-0.07681277
-0.051296216
-0.0189644
-0.007889945
0.02046753
0.0075964173
0.041535288
-0.03938635
-0.036366023
-0.06863359
0.0147097735
-0.04619717
-0.08788672
-0.07275019
0.05789909
-0.03491677
-0.0155375
0.015235861
0.025995893
-0.047216225
-0.0129552325
0.030968381
-0.045421876
-0.09781829
0.041137185
0.01225609
-0.023160283
-0.026461951
-0.040666696
-0.0023593549
-0.031747144
-0.0077361935
-0.05676015
0.010291358
-0.06058737
-0.068089366
0.024943212
-0.04824447
0.03350739
-0.054932807
-0.06419619
-0.0006057904
-0.048202932
0.025815828
-0.06804966
0.052881137
-0.002132668
0.0053676567
-0.04380206
0.051608607
-0.030456917
0.05397181
-0.036870107
-0.054951712
0.029159876
0.04907004
0.02279539
-0.025712403
0.038620185
-0.030433755
-0.0068579814
0.012186891
-0.0047039962
-0.031075086
0.031032676
0.05151812
-0.03352802
-0.0017568052
-0.061674908
-0.04562519
0.021233246
-0.07461392
-0.039354127
-0.047422793
-0.015281453
0.02812308
0.006003666
0.030958692
-0.029899195
-0.05871078
-0.05682637
-0.0033417537
-0.050277837
-0.007364777
0.013922053
0.014374197
-0.009447822
-0.06066314
0.011904956
-0.04360161
0.004914116
-0.053035077
-0.05495808
0.0016814492
0.02542609
0.0405289
-0.077251986
-0.017983254
-0.034406792
-0.0745372
0.031686988
0.025442667
-0.07709163
0.026939088
-0.008337506
-0.009858458
-0.058698688
-0.060478363
-0.060964197
-0.04089098
-0.025682911
-0.022172073
-0.04470861
0.04923853
0.036997903
-0.06360112
0.0041785883
-0.029351333
-0.0010555371
-0.046933822
-0.059011113
-0.011948911
-0.012165056
0.05795473
0.017493375
-0.07845149
0.050763167
-0.019918274
0.05539568
0.030076405
0.015240613
-0.036328763
-0.07623112
-0.021818189
-0.0407855
-0.035840917
-0.055174056
0.019266991
0.021214249
-0.06605073
-0.031173605
0.045032836
-0.03787753
-0.06721274
-0.032279078
-0.07416697
-0.045869462
0.0072593293
0.019746989
0.0019128898
-0.007549913
-0.012872059
-0.027630113
0.16764665
0.01138922
0.049345493
0.05989874
-0.48143923
-0.06718071
0.040947825
0.09563351
0.027808696
-0.41610128
0.015781661
0.0767277
0.10227378
0.09304531
-0.29739752
0.050281283
-0.025888693
-0.20491792
-0.00044167915
0.062982194
0.016103914
0.052215025
-0.024681032
0.15863395
0.017358182
-0.026179
0.17548831
-0.009968224
0.010309329
-0.13940446
-0.0065240054
0.11080367
-0.6456856
-0.02196808
0.10943362
-0.00018578475
0.06727093
-0.017427744
0.086041115
0.0625998
0.032401897
-0.044013172
-0.053974103
0.0061275964
-0.046351627
-0.03276502
-0.19236018
0.1396995
-0.0013212318
0.022926854
-0.004549025
0.01824612
0.0689662
-0.009841485
0.0779468
-0.12583524
0.041324217
-0.038267866
0.27129468
0.039979335
-0.56409186
0.077066325
0.1595439
0.00024058028
-0.020931248
0.014466665
-0.10782458
0.060827903
0.21550576
-0.05809723
0.03486392
0.036165748
-0.8171635
0.04303259
0.12174694
0.003957901
0.11110336
0.058446318
-0.035734605
0.002352369
0.019168653
0.09494414
0.07466355
-0.014318842
0.3465929
-0.052815717
-0.052862808
0.0035082733
0.024597341
0.002184992
0.052556966
0.0686632
0.11291694
0.06418001
0.101027936
-0.013184802
0.0055042184
-0.018891085
0.015445495
-0.045954924
-0.045270976
0.02943653
-0.050393455
0.048108906
-0.07229513
0.059264388
0.017487451
0.16568027
-0.024335146
-0.026671749
0.082328185
0.16706501
-0.025099209
0.09566978
0.018707776
-0.006832828
0.040877666
0.04368865
-0.018615488
-0.04329138
0.0028809712
-0.0564853
-0.013227431
-0.077409804
-0.07523363
-0.13348785
0.03885206
-0.021450398
-0.23568082
-0.047570016
0.028720507
-0.2596009
0.0005945037
0.056917824
0.10119371
0.06657407
-0.015907837
0.2012072
-0.026187154
0.0068619642
0.016030077
0.020496469
0.0072611915
-0.019639965
-0.011446993
-0.64513665
-0.08671146
0.023111053
-0.505541
0.022077132
-0.027969455
-0.051124718
0.15993357
-0.035058264
-0.01023454
0.013895362
0.038980275
0.060667764
0.014510413
0.24865559
0.33235267
-0.033723395
-0.045390435
-0.07097225
0.22322118
0.08687406
-0.011615325
0.23951286
0.16462347
-0.007015819
-0.04899389
0.000956952
0.06709126
0.0963088
-0.005483542
-0.17329891
0.018441161
0.04604444
-0.5975116
0.05102859
0.030798111
0.009139452
0.1024957
0.0013877151
0.2064543
0.07334254
0.053546567
0.020190742
-0.100971155
0.029162565
0.09731036
0.066264726
0.2801972
