-0.0011636829
0.04485819
0.017629651
-0.0017162369
0.00541294
-0.0017394144
0.0019016307
-0.00096166186
-0.0028890043
0.007140821
0.0024289053
0.001549654
0.07090101
-0.001237464
0.02800691
-0.108545154
0.000609348
0.0915774
-0.0014778925
0.0038876336
-0.000110529094
0.0076151127
-9.9882e-05
-0.00062798534
-0.002394121
-0.00032849802
-0.0019460549
0.0021921846
-0.013894815
-0.026583059
-0.011341063
-0.0045074974
0.0055707623
-0.002662216
-0.00067709666
0.009438302
0.00059240253
-0.014189178
0.03290013
0.042606387
0.0036054372
0.00010194624
-0.0032755178
0.060785465
-0.00078750466
-2.9203436e-06
-0.0027915435
0.006642272
0.0014731431
-0.004057659
-0.0025497389
-0.039630197
0.0018658881
0.006963922
0.0012309293
-0.006472311
-0.0026673977
-0.0008134786
0.0016368928
0.0073995367
0.0019902363
0.0024120247
0.07490956
0.0025984521
-0.051031556
-0.016903773
7.883548e-06
-0.036882207
-0.0015246449
0.012924121
-0.0044541988
0.0014254135
0.0060900003
-0.00031388307
-0.0033335148
0.0043084314
-0.0015405602
-0.0011298001
0.0024245444
-0.11473415
-0.00023770092
-0.009665878
-0.002239953
-0.0079907505
0.0017492607
-0.024247997
0.0012298035
0.009462406
-0.038682815
-0.044666722
-0.020561581
-0.0058222497
-0.007592628
0.10296835
0.0022312715
-0.0026696923
-0.0018127479
0.0014433039
0.0015462288
0.00017368302
