2.7200813
0.21397257
-0.0023277113
-1.6112086
-2.0028524
-2.4726956
-0.60946774
-4.9092584
-1.1041466
-0.24543853
0.7385776
3.231476
-0.93887794
-0.27014893
-3.7122862
0.5492825
2.7914398
-5.1359673
-1.376468
3.1857586
-3.9034872
-1.7898495
-0.75011957
-0.102828026
-3.221935
-2.5624948
-4.4842
-0.8325644
-3.518752
-1.5186704
0.010380184
-0.022919208
-1.809367
-4.94887
0.38575423
0.3893434
0.7792574
-0.1417203
-4.257667
0.13622521
-0.4896379
0.32202667
-1.613896
0.3980271
-0.23293753
0.43644306
3.741606
-1.8957491
-1.2507383
-0.4419529
1.3300862
-3.006802
0.23032519
0.02791116
-3.0379221
0.01262299
-3.52514
0.4147688
-4.570158
-1.3854575
2.6439734
1.5138025
3.5721688
1.3191991
0.005369965
-6.484624
3.4040484
-0.33521408
0.7225942
-5.4584765
-1.9872298
-0.582725
-1.5335325
0.9165
-0.040214073
-1.9642125
-1.5822232
4.21602
-2.8353784
4.248927
-3.7217057
0.49416047
-1.1365625
0.8846017
-4.1637135
2.0323062
-3.8585532
0.55045396
-4.3642025
-0.7652437
0.9248119
-3.2960317
-0.86552984
-0.17177013
-1.3348697
-0.9415853
-0.5358305
0.2742819
-0.26999533
-3.9753695
