0.29030323
0.025897674
-0.17954513
-0.56433475
0.26344764
0.109770454
0.15297869
-0.08439608
0.031469233
0.33667684
0.24082957
-0.0069861114
0.031723663
0.2534405
-0.022468025
0.29444662
0.23721163
0.2810817
0.640786
-0.27414668
-0.18109378
0.28795782
-0.020181749
-0.2168599
0.6446312
0.40996215
-0.014266885
0.43419075
-0.03570427
-0.004013661
0.16661462
0.03512819
0.47109953
-0.102159485
0.08242706
0.09372638
0.110770136
0.05741931
-0.023717787
0.15265992
0.50427675
0.39108178
0.44761866
0.13525636
0.5135285
0.42508858
0.46247575
-0.34798872
-0.25947866
-0.05527204
0.0902214
-0.102077074
-0.08870437
-0.5460988
0.35230196
0.72350144
-0.19150905
0.10893947
-0.17043312
0.4935432
0.06955366
-0.10161962
0.27326077
0.1052298
0.5932297
0.060409904
-0.34663
0.04219753
0.811913
-0.12883922
-0.0380296
0.32955027
0.33862492
0.23629305
0.41035074
0.0053533264
0.30426866
-0.36806312
0.19532517
-0.031791937
0.023716694
0.094350226
-0.009757601
0.044083845
-0.07991808
0.34212634
0.77669203
-0.10216811
0.03569572
-0.37811637
-0.11722319
0.2168144
0.17266768
0.975773
0.07402266
0.49454215
0.1884162
0.2851128
0.809053
0.035158478
0.38822106
0.42811581
0.7110868
-0.056298397
0.40839142
0.14706424
0.2845903
-0.15337788
0.029479101
0.4822187
0.1154585
0.026600892
0.7894786
-0.067606345
-0.02766861
0.18058842
-0.0065616686
0.4491293
-0.021652702
0.42470077
0.10185979
0.1614606
0.06390919
0.09327022
-0.122217484
0.19727017
-0.065935135
0.355827
-0.23406756
0.45362914
0.35014924
0.042971436
-0.1616689
0.3182753
-0.2900716
0.48948
-0.038274787
0.41185474
0.0034136532
0.23460633
-0.01592912
0.20617658
0.28055274
0.51699966
0.31794825
-0.07892029
-0.01206639
0.08706068
0.07163541
0.22256057
0.5944524
0.03189034
0.22796258
-0.1057231
-0.041849814
0.20514792
0.061883565
-0.16470958
0.21958226
0.0089473445
0.25744462
-0.060193077
-0.08399194
-0.02623758
0.46528423
-0.09766624
0.39413738
0.6938931
-0.4967265
0.016270032
0.02513916
0.412641
0.082590096
0.0014996006
0.32464904
-0.32433027
-0.02525598
0.22191608
0.17723718
-0.07541976
-0.023857608
-0.019116798
0.5270801
0.35796297
-0.15983306
0.47702417
0.33873376
-0.15091644
0.13765183
0.7070602
0.44751823
0.5493461
0.14184847
0.19159351
0.45736414
0.36617106
0.32876703
-0.019324575
0.2796003
-0.054280944
