0.0021807372
0.015450453
-0.35005012
-0.18690738
0.035150632
-0.070145056
0.09352119
0.03723954
0.024897996
0.0071547055
0.030918058
0.004761375
0.113001086
0.038047086
0.06041164
-0.07100611
-0.02685629
-0.19318962
0.06821504
0.18359636
0.00803428
0.08398259
-0.029748322
-0.4079385
0.028954929
-0.11157934
-0.011410509
0.08348474
-0.019919246
0.041174654
0.09859269
0.009245317
0.064797595
-0.014724678
0.13634022
-0.0056787105
0.049138658
-0.026952578
-0.19371442
0.02705333
-0.12689303
0.16635004
0.13200857
-0.004835869
-0.09346666
0.029791538
-0.04987939
-0.042528223
-0.1863426
0.093628325
0.004506558
0.012969521
-0.028512748
0.268589
0.097930305
-0.051343303
0.012265101
0.41997248
0.015361013
0.14599992
-0.01193894
0.036883526
0.081137404
0.10306462
-0.059921935
0.033390757
-0.30017784
-0.091290005
-0.12659156
0.2384758
0.07149022
0.0443463
0.065208346
0.051427156
0.0055191456
0.0352005
-0.07332441
-0.0019775846
0.05657637
-0.030299062
-0.07841141
0.24691448
0.005722369
0.009144001
-0.060472805
0.061078753
0.074914
0.020627383
0.020219428
-0.047734417
-0.033568118
0.06518489
-0.007834608
0.1639839
0.064768955
0.028765315
0.10553732
0.06533386
0.18995246
0.009224654
-0.080979176
-0.0859843
0.15378435
0.024426807
0.027200365
0.020074239
0.051393732
-0.32560164
0.044958927
0.09792677
0.09524644
-0.022230538
-0.032777358
-0.010372879
-0.01474892
0.01442222
-0.021484205
0.10255934
-0.020522036
0.05658352
-0.08763277
-0.019841338
0.14119156
-0.24846037
-0.013924922
0.080911115
0.16642171
-0.12693961
0.021835864
0.12873107
0.1447116
0.0029761507
-0.23563075
-0.0023259863
-0.021969212
0.014728645
0.03293206
0.06842247
-0.072548606
0.020902298
0.018417805
0.058015604
0.024219278
0.015358385
0.071194485
0.012200531
-0.008729824
0.040116783
-0.08036956
0.0009548408
-0.007830748
-0.011250698
-0.12754443
0.013345768
-0.038388774
0.023860654
0.33876666
0.138433
0.018553492
-0.040503748
-0.041673277
-0.052055705
0.041262895
0.008809054
-0.10253705
0.093523145
0.06959742
-0.18019295
0.16970886
0.026365351
0.035518143
0.054365937
-0.03734996
0.021617554
0.016079772
-0.034431305
-0.024968158
-0.053797673
-0.010217927
-0.039003436
0.010778747
-0.018067636
0.2182976
0.061322335
0.04680967
-0.018592685
0.12524524
-0.008982247
0.06800638
-0.037025794
-0.038337007
0.08068928
0.04757121
-0.063027635
0.122566834
0.2589189
0.06525745
-0.0076915626
-0.0008170029
0.03464527
-0.09611723
-0.0070461296
0.063162714
-0.07554417
-0.020507837
-0.030429987
-0.08472366
-0.017903278
0.0004945634
0.03082205
-0.032914873
-0.03442458
-0.039066087
0.018258875
-0.009916753
-0.0043559894
-0.04506258
-0.078696966
-0.032879718
-0.020901144
0.04019171
-0.055009905
-0.035599742
0.009417963
0.04756451
-0.06876005
-0.05000332
-0.042577103
-0.053700726
-0.023055095
0.035629194
-0.06612078
-0.013896481
0.012662839
-0.029942846
-0.038043845
0.05554043
-0.03865985
0.06340194
-0.07810948
0.012512333
-0.075910404
-0.013224713
-0.05361065
0.015014516
-0.00680398
-0.047758125
-0.06554943
-0.075331874
-0.04925733
0.009391315
-0.018617762
0.026803417
0.0008251887
-0.044788726
-0.06716002
-0.10531118
-0.055028606
-0.025344333
0.0014579574
0.0814769
0.0040347977
0.0051435246
0.011275733
-0.05658461
0.068674594
-0.006834731
0.059588913
-0.059408825
-0.02889271
0.017770663
0.009718043
0.03914123
0.023733716
-0.0038407154
-0.055073593
-0.036384482
0.057106547
-0.0026527056
0.030040693
-0.05174953
-0.022903852
-0.07267806
0.022133997
-0.0655023
0.01952499
-0.081923395
-0.0898881
-0.0045103193
0.013509381
0.052000362
-0.03168604
0.020417668
0.0051739584
-0.0563401
0.038522065
-0.073340386
-0.07415607
-0.062194712
-0.05231683
-0.0050615757
-0.012336508
-0.04401894
0.059317045
-0.011458069
-0.017425321
-0.028747184
-0.04092491
-0.052665703
0.026851684
0.04101433
-0.065034345
-0.054780737
-0.013821556
0.044227354
0.007219694
0.009164005
-0.030272663
0.01836427
-0.012162246
-0.060300525
-0.104676425
0.032123696
-0.052830033
-0.073145844
0.03852612
-0.039653804
-0.08762503
-0.051322337
-0.013719379
-0.04284146
0.065765515
-0.054620206
-0.055279035
-0.05852862
0.012642947
-0.080582604
0.04803176
-0.055621848
0.038175426
-0.04581832
-0.032744147
0.059137188
-0.016383396
-0.112778306
0.0030823294
0.029165776
-0.093517005
-0.051799957
-0.023609098
-0.02949563
0.060000386
-0.06979414
-0.018548096
-0.055790834
-0.0034702925
0.05147802
0.012018763
-0.06472463
-0.05359834
-0.048402283
0.022036444
0.056148015
0.0127268005
0.03084736
0.060862992
-0.086369716
-0.03153871
-0.008032536
0.018293299
-0.08021583
-0.039492317
-0.034559034
-0.02540271
0.037234772
0.009068562
0.0057015014
0.0626976
0.067357995
0.008445588
-0.06485929
0.005650601
-0.040872984
0.07369024
-0.053154025
-0.06586539
-0.09765084
0.01452307
0.02596855
-0.035764456
-0.095047586
-0.11926705
-0.07274585
0.011749386
0.044122733
0.03625836
-0.041793033
-0.058300186
-0.07377969
0.055575
0.10698863
0.046314534
0.29119152
-0.05468552
0.017505499
0.03566652
0.060422946
-0.04966526
-0.037958488
0.03523132
0.049175862
0.008366355
-0.0017422693
-0.0032112102
-0.022785863
0.011478076
0.12419121
0.28637156
0.01944445
-0.06768426
0.0068968064
-0.105249755
-0.03933592
0.24720114
-0.018667357
0.26449114
0.06339178
0.028908784
-0.03539148
0.041805178
0.030899838
-0.018861856
0.08601052
-0.026107697
-0.14099145
0.13709997
0.15732971
0.0024274555
0.3945734
-0.0032389846
0.17629108
-0.08689985
0.017769204
0.03667238
0.17006096
-0.008349938
0.06613922
0.231158
0.3267383
0.13419743
0.1399457
-0.03825697
0.07826798
0.00092558406
0.07287684
0.10767445
0.0023639114
-0.08006759
-0.00050235353
-0.023180284
-0.06202425
-0.013225295
0.08986787
0.0051237796
0.08543083
0.059756383
0.26843014
0.24302086
0.12875657
-0.008278406
0.14102761
-0.017019903
0.018817212
0.095187195
0.07214825
-0.021893855
0.21490568
-0.13255508
0.0032237505
-0.019604633
-0.03722499
-0.03792327
-0.013967667
0.046824276
-0.04980204
-0.029355321
0.07669933
0.03573343
0.035531495
-0.03720881
-0.0005690518
-0.029788146
0.14444822
-0.14461552
-0.091480605
0.007214927
0.05471788
0.033243332
0.03350162
-0.019843662
0.05139426
0.17927022
0.053575113
-0.025922457
0.03640325
0.0986156
0.040475897
0.098446295
0.043191694
-0.001700562
0.013265163
-0.04652338
0.061266877
0.0053446637
-0.0070141903
-0.10608602
-0.02351889
0.0952878
0.0026758346
0.14203322
0.25164995
-0.014091309
-0.0053727976
0.2100546
-0.0064156274
0.092602134
0.016378367
0.11417032
0.07052542
-0.015775876
0.08261106
-0.04981676
0.31317514
0.046854895
-0.055806737
0.10412233
0.0028862064
-0.020184442
-0.019734135
-0.0026606193
-0.013994381
0.073899165
-0.01218691
0.0024715813
-0.0041923593
-0.022170871
-0.0041947756
0.039686553
0.25855252
0.03202508
-0.024471542
-0.052184254
0.18331617
-0.021618845
-0.004477725
0.021036128
-0.15915711
-0.079660006
0.01955338
-0.048434656
0.07831245
0.0012032904
-0.030602619
0.0012349655
0.17623597
-0.047261234
-0.008367489
0.09251018
-0.07133884
0.005421309
0.05527655
0.055588618
0.014397352
-0.03379115
0.07879393
0.0026330093
-0.001964356
0.060002
0.20561081
-0.03577083
0.0033662473
-0.01919012
-0.048755344
-0.12532435
0.10637455
0.15437114
-0.05949496
0.090878665
-0.021731405
0.050638393
0.11374141
-0.036879413
-0.040496092
0.15411955
0.014711013
-0.4500543
0.061244566
-0.021027677
0.07601594
0.034051366
0.025733048
0.018023377
0.2125534
-0.08327137
-0.03384644
0.011786776
0.068867125
-0.0023513336
-0.030350056
0.035131264
0.021583434
0.0019536258
0.032226026
0.025741704
-0.0033938065
0.14084302
0.041714944
-0.036854006
0.112587176
-0.25108153
0.012915557
0.033787366
-0.025903342
0.18229978
0.01351344
-0.027789399
0.022792451
0.041666035
0.0210642
0.021688908
-0.00974563
-0.03283461
0.018452674
0.053755518
-0.2627732
0.07078136
-0.020574875
-0.029310612
-0.06383976
-0.00035650015
0.11020446
0.09573325
0.044517424
-0.008574488
-0.1480062
0.011244564
0.008518358
-0.0068502007
0.5204054
0.05429739
0.033491936
-0.006923252
0.034613565
-0.058787443
0.0659034
0.08190219
0.015400593
-0.23141451
0.0065865316
0.07873766
-0.0026671116
0.030034028
0.053312905
0.1546328
0.026891034
0.0037248577
0.33403632
0.11099676
0.09528099
-0.010091764
0.58675385
0.04794838
-0.046002034
0.046401482
0.031642597
-0.01489461
0.11338586
-0.7254126
0.051294975
0.01688199
0.047584593
-0.06674265
0.050429374
0.012196092
-0.017886858
0.04307577
0.11496898
0.014295347
0.048221994
-0.03636526
-0.037812397
0.063854404
0.0012116854
0.059478287
0.022726553
0.026270831
0.077298924
0.0555247
0.12585919
0.03589131
0.0800075
-0.061592206
0.10752103
0.02646845
0.008808992
-0.052900437
0.07102165
0.21263483
0.17998457
0.052479733
0.07847555
0.0013182875
0.12550189
0.007696567
-0.052398313
-0.0017883888
-0.028676873
0.085836604
-0.0145086795
0.056380153
0.1602435
0.0005016126
-0.018014017
-0.1999728
-0.0053166635
0.0395413
-0.009002735
-0.13575989
-0.029504674
0.09015693
0.06496374
0.06062292
0.2957825
0.025962073
-0.02084465
0.016913297
0.06765019
0.057847116
0.044850722
0.0018211503
0.010696288
0.046588633
0.015838651
0.0128393695
0.024787134
0.073425926
0.004584699
0.029346364
-0.08258079
0.019595582
-0.004851567
0.0013498276
0.19610839
-0.05706567
0.01926169
0.015541457
0.15239117
-0.059070412
0.0069558695
-0.055200152
0.049094886
-0.036109447
0.038684808
0.0392452
0.07407122
-0.16021176
0.04854539
-0.044687934
-4.1594872
0.025560088
0.028818311
0.05332969
0.013852838
0.011427063
0.10470851
0.0028285894
0.009339632
0.041578416
0.18525761
0.026868366
0.032554686
-0.00918894
0.10796574
-0.030099079
0.03929818
0.021355376
-0.060467917
0.010831318
0.13860846
0.052871138
-0.12014394
0.06741397
0.013800979
-0.06796228
0.11248122
0.18567172
0.053354267
-0.01847671
0.037188053
0.022709897
0.026600853
-0.07598025
0.035640128
-0.0256992
-0.031053893
0.038831484
-0.008968833
-0.015712567
-0.057934053
0.026868649
0.026807642
-0.09187662
-0.029758718
-0.036591537
-0.0015466035
-0.01760677
0.08945783
-0.030491043
-0.04006948
0.054875188
-0.029378565
-0.0679413
0.035981555
-0.0366221
-0.0444027
-0.047250293
0.02389694
-0.050734177
-0.00042583403
-0.09257228
-0.067673974
-0.03063063
-0.02518775
-0.047528513
0.034164593
0.04985303
0.043278504
0.04320904
-0.014322425
0.04539095
-0.0625187
-0.049532034
-0.05011103
-0.043086164
-0.022690017
-0.047198616
-0.062477536
0.030552879
-0.081881635
-0.098799326
-0.048668303
0.030802865
0.0029395134
-0.008447753
-0.06759464
-0.018780733
-0.08372427
0.008937489
-0.09880166
0.02164276
-0.00912523
-0.027848767
-0.0014992856
-0.0109119415
-0.03372818
-0.022829859
-0.03194026
0.037554532
-0.042205796
-0.028672041
-0.040965814
-0.061231427
0.035416313
-0.055151228
-0.035344727
0.056031767
0.058896944
-0.03327073
-0.07488254
0.05184954
0.046641696
0.020369938
0.002488642
-0.009448092
-0.048296615
0.0084305685
-0.06367747
-0.08509546
-0.0011439653
-0.02030222
-0.062337443
0.017957043
0.0070463307
-0.089989744
-0.040129457
-0.01925966
-0.08962353
-0.10631181
-0.013060627
-0.034811262
0.04732447
-0.08950865
-0.028579751
-0.022230819
0.028546566
-0.041963536
-0.10173964
-0.033094283
-0.0444275
-0.016644329
-0.040581428
-0.064710654
-0.145606
-0.05226492
-0.031703588
-0.062920846
-0.019061446
0.0038566736
-0.0391191
0.006253552
-0.047594637
-0.10192128
0.016444147
-0.06720091
-0.07313463
-0.0020646746
-0.0771775
-0.096104
0.0020366441
-0.057317518
-0.08581407
0.032049503
-0.051605083
-0.076574884
-0.121266775
-0.04435884
-0.09632572
-0.08988932
0.041429814
0.02136336
0.063914336
-0.09771153
-0.03289573
-0.04605168
-0.09788366
0.05604488
0.019382523
-0.12637499
-0.015023928
0.022486886
0.018858815
0.017120672
-0.034945186
-0.06785603
-0.018090563
0.035435654
-0.008830474
-0.088960625
-0.06963572
0.049121436
0.02196228
-0.07652138
-0.032830115
-0.0031155564
-0.039908916
0.04187565
-0.028842242
-0.07407031
-0.054882698
-0.018626671
-0.0014610753
-0.05315859
-0.052170176
-0.06744898
-0.07444532
0.037239313
-0.03097898
0.03241834
0.018024342
-0.022262322
0.058761828
0.0075299134
0.018321121
-0.03087329
-0.06326265
-0.08396366
-0.062374536
-0.1053326
-0.070894755
0.028832244
-0.033106472
0.027260073
-0.07932825
0.021777714
0.022819571
-0.031225597
-0.04015206
-0.051693004
0.009524552
0.0006057855
0.06943421
0.060913354
-0.31249145
-0.15090016
-0.06965154
-0.07306057
0.06417331
-0.019514782
0.007430864
-0.15658821
0.06594815
0.026348893
0.014215603
0.1287504
0.020926198
-0.45659807
0.1610557
0.076773785
0.0005295431
0.23537783
0.040224843
-0.048892498
0.0029126077
0.30827844
-0.006120976
0.2672458
-0.04454249
0.029362576
-0.049357254
0.060605515
0.06262179
0.039113976
0.104838796
-0.005668675
-0.064696565
0.0516942
0.08385733
0.15710196
0.2998379
0.1632699
-0.10513172
-0.011717787
0.09641377
-0.023733921
0.18188103
-0.05558848
0.019079303
0.26105013
-0.32172376
0.23986489
0.064206354
-0.05024389
0.020337412
0.18582448
0.08855012
0.011191038
0.032242157
0.06915204
0.023022676
-0.0023264512
-0.027709411
-0.04469956
0.11938858
-0.5234098
0.023552157
0.0738102
0.55080634
0.0957006
-0.033109125
0.1649454
-0.07617507
0.025021544
0.10963995
0.0078081572
0.06029333
-0.031214545
0.21474881
0.007207964
0.18831429
-0.016657924
0.011985018
0.016077781
-0.0324514
-0.012759371
-0.017832939
0.18982817
0.02902537
0.036675252
0.051433004
-0.01943806
0.0011186898
0.020350507
0.06474468
-0.12853625
-0.0553021
-0.007919565
-0.17565888
0.039579675
0.055379525
0.026156649
0.071462646
0.17789064
0.1276012
0.04006069
0.041458204
0.15088096
0.29591328
-0.03677453
0.40384188
0.026858995
0.35206905
-0.050321653
-0.016629623
0.02723312
-0.016381828
-0.14304009
-0.045908105
0.28632548
-0.035705958
0.12453848
0.120410584
-0.036933735
0.087044634
0.24647239
0.014061821
0.17022325
0.05163391
0.08628476
0.089948
0.09635836
0.1336982
-0.039196435
-0.27315482
-0.017924866
-0.022661287
0.072455175
0.01735511
-0.2980668
-0.0294912
-0.007418068
-0.030623995
0.19657403
0.04882955
0.0077452646
0.018131359
0.008861781
0.105016544
0.05767793
-0.01993953
0.05390887
-0.0149141885
0.01638845
-0.18337566
0.057195984
-0.017733553
0.030749613
-0.72220457
-0.056655426
0.04909434
0.039000448
-0.071538046
-0.053846244
0.045342553
-0.051756684
0.10498839
-0.068601236
0.028539326
0.019427309
0.047422867
-0.007633758
0.07663393
0.006107356
-0.039373368
-0.045992963
-0.058559604
-0.019567696
-0.042237874
0.06787391
0.14626351
0.044426944
-0.06028705
-0.047709372
0.025719864
0.048628822
0.14884993
0.057790548
-0.10306767
0.064348646
-0.20826477
-0.07653773
0.114686154
0.028263452
-0.013091121
0.14667906
0.111626156
-0.4408802
0.14757916
0.043851957
-0.08947186
0.019916838
-0.0051854574
0.04551285
-0.032254964
0.011716393
-0.090896465
-0.020709699
0.046469893
-0.0067619793
-0.073031634
0.053889904
-0.035401233
-0.06216155
-0.01631256
-0.040206414
0.025661044
-0.0037845823
-0.010275538
-0.06527978
-0.049540788
-0.06406928
-0.026564082
-0.08970251
-0.003991171
-0.009263804
-0.024228565
-0.041544676
-0.060649496
-0.032916248
-0.05071653
0.078998856
-0.042854704
0.02532036
-0.042269297
-0.06719802
-0.0009976148
0.047514353
-0.020765401
0.038548753
0.058786742
0.061427236
0.054885216
-0.047611512
-0.0176559
0.03712273
-0.012228992
-0.070153326
-0.07688489
-0.021831721
-0.043895017
-0.010398944
-0.051093582
-0.040925838
0.036114193
-0.026987297
-0.021949455
-0.06721396
0.01662949
0.036600895
0.030505972
-0.013300096
0.05212436
-0.0972856
-0.07746068
-0.052137386
-0.053862236
0.032648627
-0.022078563
0.03818979
-0.031816695
0.04517064
0.0032063685
-0.020034783
0.041100554
0.04519837
0.024163969
-0.018819377
-0.0693883
-0.083675854
-0.025437076
-0.05172093
0.00024973843
-0.06314519
-0.034367442
-0.03474225
-0.03637912
0.028592773
0.022283133
-0.034235857
-0.017671186
0.010876903
-0.0041569537
-0.0147623895
-0.07667217
-0.048754416
0.014677395
0.03237529
-0.028573751
0.036362078
-0.07474405
0.030296266
0.043846868
-0.055849392
-0.08415492
-0.023189893
0.054971747
0.011188514
-0.008092491
0.0016221812
0.037169203
-0.039303936
-0.06470813
0.02267427
0.0026404497
0.0632648
0.011297479
0.016000241
0.0018399641
0.016106877
-0.025501657
-0.020974938
-0.072352216
0.015385897
-0.06149269
-0.04447221
-0.068955734
0.012316248
-0.03731798
-0.07498237
-0.036294814
-0.016064174
-0.0008616198
-0.0075569027
0.050096486
-0.08526642
-0.07520108
-0.03930631
-0.045129675
0.00860425
0.060975906
-0.07810788
-0.009827509
-0.08607218
-0.018634317
-0.07141951
0.030017022
-0.0645687
0.05740966
-0.028013982
0.04998497
0.0216018
-0.019999145
-0.0026030487
-0.02928189
-0.01612719
0.044921435
0.006429986
0.049259264
-0.044451006
-0.003960159
-0.028429698
-0.051865786
0.034270536
-0.02966274
-0.02904826
0.01583752
0.0009929681
0.031683065
-0.06537636
-0.026999522
0.044313647
-0.07591006
-0.022205345
-0.069657944
0.034588125
0.024583692
0.04219004
0.0034581395
-0.033644397
0.007996976
0.028637579
-0.032028515
-0.06729799
0.03604686
0.025790181
-0.05571228
0.03351009
0.026941134
0.013874417
-0.011348759
-0.012427255
-0.0495681
-0.031547606
-0.0462071
-0.040515784
-0.028870158
-0.038739666
-0.0020366972
-0.06216388
0.027073773
-0.049482286
-0.109419346
-0.04064233
0.033949707
0.021604834
0.034168843
0.025416812
0.013846879
-0.04400132
-0.06716922
-0.029306592
-0.044886366
-0.0066766157
-0.049108084
0.06726724
-0.011163379
-0.030414596
-0.018647306
-0.016154798
0.021073641
-0.016644794
0.0020083603
-0.02478594
0.009881649
0.06093296
-0.072025016
-0.06326638
-0.050292466
-0.07656702
-0.050870106
-0.013471105
-0.052349836
0.021107215
-0.10880028
0.047947284
0.0075579747
-0.04962027
0.034757618
-0.018050952
0.052109864
-0.039144244
0.00922979
-0.055539288
0.020989213
-0.035608903
-0.037135728
0.013794045
0.018065386
-0.0020576566
-0.04590821
-0.05748901
0.051860698
-0.025652058
-0.07446648
-0.07889833
-0.04363673
0.0031832485
0.035529435
-0.07575205
-0.0012659167
0.011027476
-0.055514697
0.019147301
0.008513761
-0.04621323
-0.03478561
-0.0013551126
-0.091115005
0.048298888
0.04966577
-0.019487767
-0.03216198
-0.0027237525
-0.00020951821
-0.037800554
-0.05690665
0.06836889
0.034510735
-0.0556494
-0.067745365
-0.050886642
-0.078931324
0.014138598
0.055311933
-0.025870446
0.05458171
0.0067766067
-0.008907735
-0.08561692
0.042022064
-0.06474112
-0.05346808
-0.01076733
0.030400094
0.011921773
-0.00469
-0.09086135
-0.044457525
-0.023863206
-0.067118615
-0.015542485
-0.058284506
0.015786499
0.016507408
0.041715175
0.01736649
-0.063828126
-0.0358232
-0.029860115
0.016426599
-0.119056076
-0.074080564
-0.044366237
-0.018858396
-0.004833768
-0.030236505
-0.030207558
0.059446443
-0.036653545
-0.0052275877
-0.056730684
-0.07379104
0.024557712
-0.03261902
-0.04148366
-0.0061338358
0.023511445
-0.074089386
0.05458398
-0.09759301
0.026086755
-0.02751472
0.004049291
-0.08370465
-0.09184778
-0.038333934
0.047726918
-0.07818612
-0.025065374
0.024241075
-0.043038137
-0.025932387
-0.031375196
0.0707017
-0.00025940267
-0.053198013
0.060920857
-0.04582891
0.015227607
-0.04355003
0.04588366
0.0018258962
-0.081417054
-0.037020303
0.015008917
-0.07854578
0.055103354
-0.008979815
0.028505938
-0.059349112
-0.031013723
-0.042210866
0.04539454
-0.051771183
-0.050375164
0.025618974
-0.060752183
-0.11564846
0.003348254
-0.016658965
-0.027822612
-0.010433047
-0.1256344
-0.02701785
0.0057639573
0.0056504644
0.018773912
0.011768332
-0.042524144
-0.0182011
0.03268984
-0.072935216
-0.061131287
0.0055758017
-0.066588216
-0.03356681
0.012143118
-0.05554095
-0.07789816
-0.026004415
-0.033187002
-0.0741142
0.0010447046
0.022883216
0.033253033
-0.082958125
-0.08009734
-0.018189862
-0.059313264
-0.05442379
0.04724837
-0.080383405
0.042152602
-0.001896281
-0.07540198
-0.08699084
-0.06986831
0.020904906
-0.032660067
0.0633975
0.0011209472
0.031906568
0.04368699
-0.016365822
-0.0036530334
0.0018058651
0.015199901
0.053259898
0.03999644
0.008356337
0.059739646
-0.055407353
-0.115144
-0.042613458
-0.0114303045
-0.0054456457
0.030960381
-0.07063808
0.021232028
-0.006070197
0.0056756544
-0.0859402
-0.04274655
-0.004870831
-0.0420401
0.0034546144
0.013221062
-0.028948197
-0.097826965
0.0040471833
0.052728396
0.014357058
0.044884477
0.006105602
-0.008941184
-0.0169867
-0.09202905
-0.059858467
-0.04403228
0.038380276
-0.11147202
0.05477326
-0.038065515
-0.06149126
0.045627866
0.01850977
-0.033293605
-0.10262227
-0.033243626
-0.022538286
-0.024894742
-0.067734614
-0.07306666
-0.03399009
0.048926186
-0.12603182
0.038241986
0.011935081
0.027091695
0.02105162
-0.050451443
0.00012901693
-0.07573236
-0.052284557
-0.10321139
0.014749018
-0.0020664048
-0.001339934
0.04203834
0.016182087
-0.0071349186
0.064399086
0.020720333
0.03211183
0.012112235
0.02997059
0.0040062093
-0.023930164
-0.040649787
0.025224295
-0.097947486
0.007928973
-0.034982745
-0.13452509
-0.027017705
-0.0202395
0.0153398365
-0.102848336
-0.10869154
0.017494114
0.032568987
-0.024538023
0.013901734
-0.022894165
0.009615489
0.049310356
0.050848924
0.006752623
-0.06799165
-0.084201284
-0.06919918
0.018264355
-0.08075155
0.0038185122
-0.007709524
0.053524
-0.13387479
0.0068096933
0.056210827
0.0057086814
-0.03499566
0.016312972
-0.09577195
0.038906783
0.008787734
-0.070220985
0.006565657
-0.07510698
-0.05451185
-0.05334817
-0.02842472
-0.022928763
-0.017861763
0.06359487
-0.091248535
-0.094639435
-0.008524693
-0.050104715
0.0071422923
-0.032904863
-0.09634982
-0.02549257
-0.01479532
0.02703422
0.010614488
-0.07286478
-0.003185697
0.068833135
-0.07419756
0.043771435
-0.04868225
-0.05132778
-0.0372517
0.018988969
-0.012850416
0.02162808
0.0043262853
-0.042126905
-0.054870054
-0.086085305
0.046453204
-0.107731946
0.03782488
-0.03414316
-0.018363908
-0.07419041
-0.048884865
-0.055604044
0.022609098
-0.0030865797
-0.032956965
-0.05406866
-0.03409882
-0.010966239
0.030763082
-0.07292445
0.009658456
0.026263723
0.034474835
0.033642996
-0.003678732
0.015144651
-0.020013368
-0.05616838
-0.064241596
-0.0764524
-0.022964947
0.029190544
0.045181558
-0.11599135
-0.031100092
0.00036768964
-0.11946056
-0.12295002
0.09486022
0.06389719
-0.007842158
0.01966635
0.064394884
-0.05258038
-0.011345131
-0.016147966
0.11508697
0.18047768
-0.11555941
0.021972172
0.16457945
-0.09374983
-0.064056806
-0.031062832
0.13598712
-0.7430632
0.06180978
0.06398141
0.3714179
-0.03613002
0.09851989
0.081400916
-0.037380535
0.048473284
0.29616073
-0.8524159
0.057765182
-0.027719142
0.34135044
0.13506073
-0.09271425
-0.14227396
0.046510085
-0.0067514824
0.038489528
0.008425483
0.013414246
0.016487792
0.046667404
0.1079502
0.06918177
0.17198414
0.023485547
0.58458006
0.64482826
-0.05850319
0.18253402
0.115612574
-0.35110247
0.349171
0.039456617
0.0764937
-0.092034675
-0.038822416
0.003058895
0.17191933
0.031626776
-0.015280617
-0.027397627
0.036954924
-0.029303564
-1.562841
0.1678985
-1.4725914
0.041939795
0.1878237
0.07208626
0.06191139
-0.078222245
-0.054757807
0.5495365
0.25365204
-0.14173342
-0.05162054
-0.31557047
0.047147106
0.064505264
0.18974529
0.039123382
0.08634818
0.056826867
0.071680166
0.010153385
0.29235134
-0.042567004
0.03868513
0.12545222
0.062867
0.31657606
-0.012686804
0.25592119
0.040578574
-0.04310929
0.007571137
-1.0672226
0.047943234
0.06581771
0.6987847
0.14192462
0.15113388
0.11987691
0.074692085
0.017367443
0.11471572
0.002330849
0.084812485
0.4417289
0.06125328
0.09168513
0.42248207
0.39481005
0.19786336
-0.12586498
0.3425126
0.048082948
0.27763134
-0.033183094
-0.0112732565
0.03356248
-0.009314537
0.033205144
0.023147848
0.01261122
0.023243679
0.3182043
0.008639161
-0.290276
-0.44686267
0.2097792
-0.47806013
0.29322827
0.07396366
0.18864684
-0.07679913
0.06130928
0.09554916
0.076275446
-0.115518026
-0.011094466
-0.3157995
0.12330036
-0.053916518
0.12120075
-0.0236177
-0.3680781
-0.05450777
0.13097014
0.2902223
0.08441133
0.045786384
-0.01390809
0.10707517
-0.42122746
0.2790029
0.22387408
0.10790708
-0.19036621
-0.039550267
-0.0015162725
0.030255144
-0.48827687
-0.0829079
0.087712884
-0.558746
-0.02900246
-0.06986565
-0.0191012
-0.05379003
0.008763898
0.31103742
0.12626114
0.027053835
-0.10064454
0.1198199
-0.014411505
-0.80240846
-0.0023349903
0.18894689
0.028140355
-0.01710345
-0.085460305
0.10680727
0.4805237
0.07941675
-0.04206755
-0.007891444
-0.8636262
0.123663716
0.07011557
-1.0043602
0.0043512518
0.11934157
0.47854573
-0.09386339
-0.020726185
0.26867345
0.06957646
-0.48631683
0.31494117
0.06630865
-0.76610255
0.23222806
0.03620661
-0.012272019
0.017173983
