-2.8193903
-0.41119483
-0.059284262
-4.98703
-1.0870949
-3.2820091
-0.9515461
-1.3518829
-0.73138195
-4.58727
-2.940729
-0.65914196
0.15639277
-4.698878
-0.8192436
-3.182147
-0.9621398
-0.8832255
-0.7117059
-5.1328683
-1.3651856
-0.4814132
-0.17498824
-1.6312078
-1.9642011
-2.409958
-1.1383891
-0.64892
-3.8067417
-2.2231998
-0.18813825
-1.1353155
0.2991931
-0.7604373
-0.76445425
-2.7941654
-0.7596523
-1.0679291
-3.9937632
-0.86905324
0.3624939
-1.0257967
-0.20003247
-0.9477925
-5.8109083
-3.3777092
-0.73844236
-0.99768907
-6.5453987
-0.95485073
0.16267434
-0.5062083
0.012123787
-0.993132
-9.169037
-3.0922778
-1.0546468
-1.0614771
-9.624609
-0.47182608
0.023113472
-0.12720837
-0.07665234
-1.5546085
-10.547915
-2.4164758
-1.17055
-0.5008164
-9.883859
-0.61275697
-0.52408004
-0.056989577
-0.23947167
-1.3897281
-1.5706679
-1.6368839
-0.7470995
-0.5909745
-2.7053864
-0.29827204
-0.8124679
0.112425774
-0.08622892
-1.8363025
-0.25398737
-0.68664396
-0.38073674
-0.23637238
-2.4171033
-0.47573698
-1.2393956
0.07281753
-0.26323134
-2.6414435
-0.89471406
-0.5507422
-1.7515774
-0.10853436
-4.1605244
-0.43956688
-1.0641873
0.08602711
-0.20368327
-2.7401261
-1.5714394
-0.28556812
-5.4496245
-0.105043
-1.9960582
-0.9441482
-1.166403
-0.24511635
0.23501322
-1.7427937
-1.0264298
-1.0356604
-6.1055064
-0.6610475
-1.0867643
-1.4364834
-2.6559427
-0.815812
0.050794043
-4.584466
-1.0459056
-3.4079087
-0.9698466
-0.9460208
-0.4227359
-4.882987
-2.9130914
-0.5333188
-0.2912227
-4.9697194
-0.893421
-3.2549434
-0.6217772
-1.1881979
-0.7627016
-4.760797
-2.8919246
-0.7610774
-0.26424935
-4.4878807
-0.5213448
-3.4127643
-1.1111821
-0.77405083
-0.65295756
-4.994678
-0.8892697
-0.447155
-0.2924423
-1.9830685
-0.5922659
-1.1386333
-4.790424
-0.46515143
-0.9878347
-1.5959593
0.21965154
-0.63847697
0.03251195
-0.55090386
-0.9846689
-0.8750921
-4.293222
-1.1896093
-0.44005448
-1.3864932
0.8111538
-0.50219053
-0.08230064
-0.6370138
-2.5703886
-1.0673275
-2.552754
-1.1394477
-0.7715315
-1.1237433
0.39830032
-0.34459046
-0.1977395
-0.40556908
-3.5691202
-0.94008857
-0.8683362
-1.0769833
-6.880562
-0.25969905
0.22821137
-0.08263192
0.106266916
-0.8197305
-2.9456482
-0.7996026
-0.7565415
-0.5594531
-5.499908
-0.1109811
-0.30571496
0.47086138
0.22388393
-0.7587506
-2.2434494
-0.6181671
-0.6350089
-0.6927777
-8.85718
0.5284573
-0.6185751
0.8142819
-0.26042852
-1.80544
-0.87611336
-0.6180478
1.5934407
0.2564434
-5.5597353
0.3565263
-1.5784881
1.3231727
0.17435274
-2.256277
0.53937596
-0.6732818
0.8142221
0.3334413
-7.29045
0.7934454
-2.3934727
1.6467216
-0.038324267
-2.3811712
0.7352109
-0.28414673
1.1670499
0.22000523
-5.8471813
0.8206296
-2.5295324
0.8388608
0.12446566
-2.0543206
0.044685774
0.025166124
-0.07166945
0.13365969
-3.7257216
0.7637717
-2.1293588
0.17524692
0.18665183
-2.0354598
-0.86242217
0.23849703
-5.741744
0.0003015559
-1.8054469
0.12952326
-1.751765
0.11880866
0.27155438
-2.3395584
-0.87310964
0.092315845
-11.135148
-0.5637875
-0.8683517
-0.41038725
-1.9168969
-0.38017178
-0.17160869
-15.642169
-0.17718542
-0.5855455
-7.9210787
-0.32531863
-0.45962727
-1.8106672
-1.6662688
-0.10779816
-0.27296335
-2.9166899
-0.99953866
-1.6930429
-1.0136646
-0.8419389
-2.2162182
-2.3237362
0.105103396
-0.98254174
0.06630655
-0.7931647
-0.17677136
-0.051233187
-0.35951746
-1.0828418
0.0475187
-1.2868032
1.0458372
-1.708201
-0.2927661
-0.30404344
-0.31774595
-1.249664
0.7269047
-1.5755163
0.9554133
-0.44821543
1.1592823
-1.5155214
-0.16508637
-0.18020481
-0.5583905
-1.0611587
0.92861825
-1.2604418
0.93411785
-0.17488487
0.9418216
-1.2565151
0.13187347
0.054010257
-0.7428468
-0.71588767
0.7524284
-1.0046446
0.8389335
0.19522208
0.9649232
-0.48692858
0.29138756
0.030391399
-0.56340426
-0.49678352
1.0597385
-0.7555051
0.14781155
0.039892815
0.3416701
-0.21608366
-0.035769336
-0.21782303
-0.6899712
-0.12640911
1.8793925
-0.09558913
-0.7034284
0.11498521
-0.5467208
-0.0363194
0.06477906
-0.35347295
-1.0067401
0.48121062
2.1947186
0.44942462
-1.3590678
0.3451656
-0.8036907
0.31894928
-0.04600234
-0.345145
-0.673655
0.76357085
1.2746443
0.6988397
-1.5797801
0.25634733
-0.8059408
0.58124006
0.28552204
-0.18410398
0.13518545
0.4168169
-0.35210848
0.27123308
-1.3615801
-0.02414643
-1.4008675
0.09308539
0.23805621
0.2516825
0.13578722
0.13907978
-1.4973292
-0.15920947
-0.785292
0.6131132
-1.6091572
-0.37831804
0.10012599
-0.23843814
0.29197395
-0.34598392
-2.9878876
-0.11518275
-0.27345908
0.5184286
-1.7936481
-0.40310314
0.10605755
-1.9103272
-0.329848
-0.5418451
-5.32168
-0.11864729
-0.11533515
0.4650514
-2.7251875
-0.27970338
0.043653384
-2.9640965
-0.4106975
0.29161367
-4.7594924
-0.3576554
-0.55459136
-0.49322584
-0.80082685
-0.43381262
0.2105387
-1.920648
-0.6595031
-0.7344625
0.4739412
-0.63014925
0.070709676
-1.9073437
1.5510956
-0.58250326
-0.038845774
-1.1122751
-1.2531235
-1.1109502
1.2831116
-1.0732797
0.7618568
-1.9059577
1.9510056
-0.92779154
0.24305081
-0.7541454
-1.0733849
-1.736147
0.6955716
-1.1421803
1.3537028
-1.0970029
2.0096276
-1.0637523
-0.2267905
-0.45463437
-0.21055926
-1.4946299
-0.29280627
-0.972759
1.6172155
-0.9105718
1.6533104
-0.97050226
-0.22272846
0.2798476
0.3137508
-1.4042168
-0.6420047
-0.9919376
1.4446715
-0.09359804
0.90979224
-0.6285214
0.16772307
0.38211095
0.45888922
-1.261833
-0.0077280495
-0.59737676
0.5691301
0.31230968
0.0005378727
-0.2789732
0.008291556
-0.11927767
0.25393644
-0.7391712
1.0150652
0.31263414
-0.49195436
0.3304529
-0.6166192
-0.3731233
0.23811081
-0.2201921
-0.22077729
0.0742862
1.2286617
0.79652107
-0.7023631
0.33760017
-0.15285933
-0.28834644
0.243867
-0.1550178
0.15563877
0.28650314
-0.26805967
0.70770025
-0.12704514
-0.12299238
-0.46382785
-0.27888334
0.11362177
0.11209647
0.27152368
0.24359553
-1.3192037
0.5108592
0.13205655
-0.17120762
-1.2774537
-0.4096077
-0.24261217
0.4551919
-0.011703574
0.24323583
-2.5378275
0.28965122
0.2713936
0.20882462
-1.7561085
-0.86544365
0.23635815
0.31931987
0.2879026
-0.4985581
-5.007418
0.22222994
0.6388409
0.47703922
-2.109823
-0.2524848
0.10229555
-0.9911846
0.42753065
-0.77422756
-5.318982
-0.20618276
-0.081736326
0.40444076
-3.0038285
-0.36379075
-0.012057778
-3.0233996
-0.08333994
-0.10448934
-3.805761
0.0047390806
-0.35959458
-0.22349411
-1.6024811
-0.44763806
0.10854651
-1.245911
-0.20523778
-0.5485242
0.72081125
-0.26302484
0.2968923
-2.9485302
1.911456
-0.086574696
-0.02940886
-1.6576823
-1.8820407
-1.6178781
1.4623446
-0.39764693
0.5076821
-2.5566618
2.3540082
-0.4264612
-0.19553888
-1.2242932
-1.2417059
-2.4694014
0.49591902
-0.6844374
1.2447835
-1.7839384
2.131557
-0.44617066
0.2758672
-0.25854415
0.04279223
-2.2721999
-0.6570304
-0.79213184
1.4706622
-1.2826078
1.2483037
-0.45535484
0.077805355
0.1664771
0.7237212
-1.6964332
-0.73167217
-0.23682949
0.99857396
-0.7754765
0.1765194
0.2108283
-0.23669599
-0.33095354
0.48872268
-0.7820802
0.07144451
0.622417
-0.14980257
-0.69365543
-0.73292243
0.65218604
0.17654598
-0.39413995
-0.32520223
0.34107804
0.87734056
1.0055672
-0.89322835
-0.4904271
-0.5098865
0.041936725
0.08714267
0.06879385
-0.87248987
1.0041023
0.4252345
0.5237306
0.051275533
-0.29003245
0.50620335
-0.12341307
0.29095823
0.10498261
-0.4188814
0.8006205
-1.1683862
0.07995651
1.0674367
-0.75698227
0.23739032
-0.16849557
0.24470437
0.08642016
0.16326518
0.24646561
-2.09643
0.3246792
1.0173362
-0.69062364
-0.84251106
-0.4249452
-0.20776188
0.50167334
-0.046215527
0.14189242
-3.4589067
0.5512342
0.9237621
-0.46619076
-1.6137519
-0.35095578
-0.07011567
0.8019762
0.23649442
-0.37722874
-5.5709243
0.17440073
0.7897219
-0.17579062
-2.0617049
-0.59705186
-0.11404489
0.6800742
0.79229796
-0.38125098
-5.9951353
-0.55255455
0.69584334
-0.12887363
-3.867621
-0.34863287
0.10230915
-3.335612
-0.12411234
-0.089822695
-3.7721217
-0.16785324
-0.101743504
-0.36433613
-4.5609865
-0.28884184
-0.14640155
-1.2320197
-0.2693929
-0.763948
0.79038733
-0.4790453
0.32962957
-3.2571733
1.6454816
0.067932405
0.31214318
-1.8051897
-1.6031011
-3.2086787
0.75151354
-0.2708302
0.485291
-2.2023442
1.9527606
-0.32485452
-0.29600197
-0.98324645
-0.20260292
-4.1616244
-0.50921804
-0.29882646
1.0598646
-1.6510454
1.6946535
-0.4463868
-0.23409909
-0.20445457
1.4773295
-3.9896295
-1.5959203
-0.11289076
1.1176113
-1.3185664
0.60655093
-0.17121185
-0.16915919
-0.015105863
1.8378973
-2.600814
-1.1722299
0.21317029
0.30331883
-0.7701823
-0.72898245
0.11432748
-0.3131255
-0.40435773
0.30222967
-0.53916085
0.14856502
0.8535576
-0.59915847
-0.05429457
-0.9284935
0.092907734
0.21556628
-0.5703769
-0.87508166
0.7409781
0.952681
0.88338786
-0.68014634
-0.013700697
-0.12057416
-0.25312993
-0.11557743
0.045993447
-0.87830955
1.0336425
0.42987728
0.0352104
0.25922194
0.027216583
0.96773374
-0.1310617
-0.029277371
-0.33923224
0.16548987
0.022469308
-1.1719476
-0.34492916
1.0193307
-0.33195752
0.46922192
-0.004964237
-0.09904676
-0.3428517
0.3207329
-0.37333488
-1.8805902
-0.014481088
0.9082172
-0.5524236
-0.42520928
-0.0025931587
0.06499476
0.20833366
0.21573523
-0.8237244
-2.780247
0.36073443
0.5325648
-0.65174156
-1.2471548
-0.47141457
0.019853238
0.83938444
0.71500975
-0.9572218
-3.9515188
0.50027764
0.42511493
-0.6656139
-1.4195316
-0.8248721
-0.3105285
0.8350752
0.89668334
-0.6354925
-4.825501
-0.31790462
0.72213954
-0.54379725
-1.9778032
-0.3712578
-0.09370671
-1.9228365
0.09529567
-0.38141632
-1.7400646
-0.5121488
-0.24087203
-0.527557
-1.6232612
-0.15244994
0.06322755
-1.4518865
-0.44830787
-1.9443282
0.6277782
-0.3124703
-0.101448566
-2.604012
0.96003985
0.012982552
-0.27621913
-1.4544759
-1.180853
-5.098384
0.28902298
-0.58144957
0.37840325
-1.2632977
1.1094766
-0.6017905
-0.12668177
-0.45554987
1.2954425
-7.926334
-1.5406516
-0.084419675
0.85509837
-1.2182691
0.79454607
-0.6200469
0.07938253
0.13488619
3.074448
-5.9402633
-2.3725698
0.12795962
0.62888014
-0.7192969
-0.18872909
-0.20495157
0.14401607
-0.036869578
2.1435547
-3.243422
-0.7100538
0.25427777
-0.40689072
0.44864535
-0.7931428
-0.23478143
0.10577041
-0.5143504
0.3072664
-0.8816572
0.37827018
0.45069346
-0.6673266
0.89059895
-0.4668282
-0.44077772
-0.16494851
-0.6299109
-0.3147148
-0.0523582
0.60833013
0.094195545
-0.32134008
0.90274894
0.1948152
-0.4457871
0.1771581
0.22851115
-0.1263408
-0.12030468
0.04675586
-1.0924454
0.49828497
1.4082026
0.8346065
-0.005751377
0.29058084
-0.72100264
0.30979082
-0.7055893
-0.8987103
-0.5728955
0.74684954
0.42412946
0.50418544
0.5327486
0.3016404
-1.239222
0.038902506
-1.3447165
-1.2210243
0.44690987
0.16022442
-0.11252036
-0.102447875
0.60178614
0.24350084
-0.6933724
0.42572957
-2.3383934
-1.4838278
0.7947772
-0.5637344
-0.6865731
-0.5260052
-0.0031228631
0.18240345
0.6087155
1.5691309
-3.1837025
-2.0653708
0.30140263
-0.4255136
-0.83350414
-0.35660386
-0.48501647
0.08283492
0.40161237
1.6700034
-2.9230626
-2.149081
-0.1658952
-0.057604957
-0.70341367
-0.38157892
-0.22924471
0.090246856
-1.4970498
-0.51605505
-1.1020348
-0.23425366
-0.7268758
-0.17858435
-0.7676765
-1.401671
-0.5786126
-0.1271335
-1.7203522
-0.8012228
-1.2391529
-0.21503301
-0.36778146
-0.32346216
-1.5272584
0.2613978
-0.21010552
-0.3052713
-1.4826119
-0.89786536
-4.5324616
-0.28297538
-0.4515036
0.23180594
-0.6116083
0.11546395
-0.5624313
-0.3025742
-0.13808541
2.223308
-6.593314
-2.364361
0.34411874
0.30561727
-0.7930588
-0.17108122
-0.39529732
0.20722233
-0.049774118
3.3257842
-5.8221602
-1.9591261
0.5520682
-0.4226602
-0.186406
-0.3706659
0.1680954
-0.1019027
-0.4648626
2.253913
-3.4905424
-0.09960444
0.23677815
-1.2075304
0.74460024
-0.30966827
-0.26241893
0.2691239
-1.080762
1.2485967
-1.7718121
0.113484845
0.088508174
-0.73908854
1.1237266
0.11275108
-0.48096052
0.13185097
-0.6650868
1.0404881
-1.444468
-0.4924721
-1.0783505
0.1268446
1.847519
0.13919994
-0.30589712
-0.14273512
-0.08403711
0.17362563
-0.6744899
-0.6388797
-1.2926434
0.72116065
1.7250184
0.600256
0.28640255
-0.21340235
-1.4793726
-0.11698574
-0.7149528
-0.22673011
-0.11326285
0.34822965
0.43320203
0.7427723
1.1483327
0.0940513
-2.6717396
-0.32298863
-1.713185
-0.029371876
1.2792112
-0.90755075
-0.7591593
0.21779001
0.754176
0.054963134
-1.2339954
0.4413422
-2.7587714
0.095743425
1.1538393
-1.3822309
-0.74565816
-0.008656356
-0.1018039
-0.040941555
0.40927583
1.9610988
-3.6887486
-0.7383667
0.14322549
-0.75107735
-0.64475954
0.11076197
-0.629807
0.22147465
0.23457083
1.5579691
-3.301598
-0.97519845
-0.23865847
-0.0840364
-0.5566113
0.13255905
-0.68168503
0.27616847
-1.0616288
-1.0201662
-1.3882773
0.05861055
-1.0750774
-0.16598763
-0.6103601
-0.8983224
-0.67946416
-0.1490008
-2.3987432
-0.36894757
-0.31248483
0.13261846
-0.6040017
-0.3174269
-1.473609
-0.91304886
-0.008883825
0.013199743
-2.0202122
-1.667343
-1.9976021
-0.78819996
-0.02023692
-0.41232336
-0.025113855
-0.5678173
0.10108202
0.24078256
0.07248834
1.1282287
-2.2801914
-2.2161915
0.24342003
-0.43996942
-0.65247667
-0.70478725
0.19692932
0.3077405
-0.11521799
2.0215588
-2.9793906
-0.8615834
0.79277945
-1.2828064
-0.2739373
-0.18065353
0.55919707
-0.122894965
-0.64060384
1.7993664
-2.4316595
-0.06914885
0.18895231
-1.4765394
0.34893423
0.35957202
0.50456166
-0.28518888
-0.8738927
1.4603615
-1.6083494
-0.6055383
-0.6671454
-0.69064814
0.8507073
-0.06134322
-0.12311348
-0.031274423
0.15215304
0.74736774
-1.0058202
-0.81646436
-1.2907637
0.25398085
1.7258514
-0.30330965
-0.08976914
0.079930276
0.15424393
-0.08093652
-0.31761113
-0.5913891
-0.866127
0.6001939
1.2956648
0.3189063
0.597332
-0.09850233
-2.0912056
-0.32438833
-0.1815814
0.6473185
1.1173311
-0.33893397
-0.7416761
0.45952824
1.1767827
0.18482317
-2.4870327
-0.29789627
-1.0953816
1.3826013
1.6527092
-1.7739962
-1.0960406
0.31737807
0.41580436
-0.2618431
-0.8349349
0.19174135
-2.443979
1.1246761
0.92650646
-1.5053301
-0.3970979
0.49734658
-0.29288957
-0.07986434
0.31547028
1.2990298
-2.7809646
-0.16829248
-0.052361544
-0.55992794
-0.4864367
0.46328962
-0.5913363
-0.18914413
0.26272324
0.17146398
-1.8396307
-0.35762078
-0.7620452
0.10917153
-0.50358295
0.28874403
-0.8500673
0.1975722
-1.2568613
-1.3963845
-0.95793605
0.3145548
-0.950355
-0.2669757
-0.5834064
-0.8333714
-0.80661994
0.22665244
-1.9905664
-0.26126924
0.24416578
0.5543085
-0.8198125
-0.35082218
-1.4679561
-1.7000154
0.18739034
0.2867769
-2.5189586
-2.0534534
-0.81320804
-2.3035088
0.22247534
-1.1214285
0.48941055
-1.5370256
-0.30394712
-0.14807016
0.24966383
-1.1412592
0.31546703
-3.8774085
0.55965495
-0.36760744
0.004672866
-1.4719832
-0.25124246
-0.28032443
0.8327408
-0.19687201
-0.12956317
-1.9142977
0.37609008
-0.7398253
0.34272036
-0.7885103
-0.13446972
0.123123184
0.3930023
0.4667259
-0.67257094
-1.0315495
-0.2002871
-0.83736557
0.8705656
-0.28611758
0.0291279
0.20473264
0.2337371
0.4999266
-0.51410484
-0.94400114
-0.4917288
-0.43576694
1.1228807
-0.55599165
0.30950835
0.16947988
0.92831177
-0.4961081
0.2708413
-0.5588041
-1.0496583
0.13020405
1.2745875
-0.83928114
0.42237327
0.23232551
-0.08324644
-0.6716742
0.39243066
0.42878872
0.03584464
-0.32926303
0.52812904
-0.17314234
1.1861173
-0.0023817522
-2.1763241
-0.6859764
0.37123483
2.0276613
1.8712791
-1.7057981
-1.2181166
0.061162252
0.60513175
0.21991922
-1.5764716
-0.39517024
-0.90013623
2.4840913
1.5529096
-2.0008447
-0.49276048
0.8403938
0.069489546
-0.17451918
0.08844616
-0.11666156
-2.0627851
1.5613711
-0.020219846
-1.0762608
-0.22115043
0.9756507
-0.16284446
0.11111227
0.5190755
-0.29895806
-1.7242842
0.4112787
-0.8162308
-0.286695
-0.35235918
0.6170292
-0.7450964
0.2781883
0.07149594
-1.454066
-0.94882816
0.721011
-0.9057187
0.095348135
-0.37156838
0.61483544
-1.0420898
0.23840299
-1.3307275
-0.67105776
-0.30110735
0.37992057
-0.9262897
0.22273098
-1.3000411
-0.8265761
-0.7124638
-0.121863306
-2.9300802
-0.5579332
0.013155851
0.29169363
-0.4922306
-1.2924359
-1.2342039
-1.6995398
0.53187823
0.089237474
-2.895389
-2.3222473
-0.15174977
-4.0792665
0.079031974
-1.3246709
0.52289003
-1.7547973
-0.3934653
0.11607647
0.16620053
-1.999029
1.1373687
-7.276331
0.2577978
-0.16334505
0.13896033
-1.9401278
-1.0755539
0.005226955
0.95632863
-1.8563968
1.329947
-10.631391
0.42406553
0.4775713
0.674767
-1.6211724
-0.7717904
-0.30872622
1.3861077
-1.3108164
1.159748
-5.2710037
-0.04574776
0.24173951
1.0622276
-0.8343521
0.12596685
0.2693778
0.7583197
-0.8149236
1.0062056
-1.2962946
-0.092707045
-0.29959008
0.5481628
-1.0310767
0.3101323
-0.11098115
0.5777811
-1.1024556
0.99650204
0.2817312
0.0896084
-0.48818734
0.61118364
-0.7149812
0.49673185
-0.2164778
-0.76082385
-0.8434746
0.8127044
1.4906774
1.3346364
-1.1224705
-0.4593861
0.2657612
0.46636653
0.023731234
-1.5046699
0.08357333
-0.18203664
1.7909362
1.5449427
-1.3746567
-1.0855901
0.92709553
-0.19893336
-0.28986108
-0.20832855
0.44333166
-1.2955424
1.0477638
0.06959274
-0.4982628
-0.27697963
1.1607006
-0.9258189
0.2828232
0.4283981
-0.15386699
-1.9158009
0.77946377
-0.69734347
0.22999898
0.083355814
0.98368967
-0.94226867
0.3090226
0.27657154
-1.1130873
-1.3501952
-0.14964427
-1.0346682
0.59415877
-0.16698971
0.9824576
-0.6919711
0.040099207
-0.39223364
-1.2481383
-0.8794409
-0.08252039
-1.2000827
0.52538353
-0.50312847
0.5011051
-1.242681
0.007564941
-1.5794771
-0.40120494
-0.19879074
0.02931721
-0.9717809
0.2182415
-1.4025502
-1.111612
-0.37398937
0.17137232
-2.8723314
-0.18769462
-0.34646636
-0.3748521
-1.1156431
-0.90161717
-1.8848821
-1.2463455
0.09042924
-0.22133175
-2.5240266
-1.6743623
0.13087142
-6.4057355
0.022754382
-0.97887135
-0.04262087
-1.5234904
-0.2653824
-0.24515507
0.017810019
-1.6202357
0.99166024
-6.6187935
-0.19346315
-0.12617904
0.30288312
-1.5222152
-0.87752384
0.078820355
0.7063007
-1.9231437
1.430748
-7.801873
-0.010743819
0.8566551
0.6099035
-1.1265746
-0.822145
0.03527075
1.0219864
-1.5460995
1.5346861
-4.744404
-0.067379706
1.0822793
0.50151086
-0.6976394
-0.77814776
-0.1430808
0.85594827
-0.9582556
1.3505542
-2.1256497
0.048658274
0.9516128
0.14187135
-0.6907979
-0.83191794
-0.30264786
0.424566
-0.8850584
0.89624065
-0.21039158
0.50381577
0.5497487
0.2046442
0.123899765
-0.40888107
0.2156915
-0.4603575
-0.108606935
0.16822797
0.7247248
0.74459684
0.004764963
-0.66662836
0.8539744
-0.76203513
0.008779359
-0.5256384
0.7515139
-0.9341702
0.5265435
0.3070788
0.28504294
-0.6613518
1.2608958
-1.1999507
0.10218464
-0.0031553393
0.9138108
-1.844022
0.09379584
-0.64307857
0.8718609
-0.15176475
1.3179153
-1.5361553
-0.26945877
0.1207232
0.10174321
-2.3875961
0.5056625
-1.2388846
1.084748
0.2584661
1.2345347
-1.13947
-0.037482034
-0.41969445
-0.1627469
-1.9776604
0.2517539
-1.2316217
0.6631757
-0.20352483
0.87270117
-1.0717444
0.1497861
-0.45665243
-0.35020164
-1.0412796
0.08290383
-1.512784
0.67066145
-0.6524932
-0.33445862
-0.60270405
-0.2830175
-1.7316211
-0.07230952
-0.1206834
0.12752172
-1.1613446
-0.52784544
-1.2304394
-2.734768
-0.61671096
-0.31387034
-4.7603593
-0.6203836
-3.508633
-0.63632315
-0.96795523
-0.72537947
-5.1329713
-0.91955656
-0.5671603
-0.012706587
-1.8797125
-0.6816717
0.31244722
-2.1166186
-0.5495414
-0.41790894
-0.8994425
-1.173001
-0.61954033
0.101477176
-0.5528752
-0.6959969
0.30539754
-3.5068755
-0.48355728
0.36881396
-0.052668348
-0.640988
-0.5450601
0.31130126
0.15668826
-0.7449331
0.5927315
-4.4273515
-0.5962892
1.2525235
-0.2656587
-0.52091295
-0.769654
0.26593333
0.4133127
-0.79644424
0.74216443
-3.4592626
-0.47429436
1.5791193
-0.094320215
-0.39784655
-0.88204604
-0.19124347
0.5594265
-0.60229045
0.51649797
-2.0407376
-0.5437801
1.5623423
0.078367375
-0.15784071
-1.116859
0.13565418
0.31108317
-0.32699487
0.16111845
-1.038505
-0.3259681
1.481425
-0.013930979
0.7345826
-0.62559503
0.27133614
-0.23158032
0.58197904
-0.6230001
-0.61770606
-0.36689064
1.0738363
-0.6131353
1.3612387
-0.7537162
0.21723838
-0.7415902
1.1628777
-1.9995008
-0.042549063
-0.722405
1.0010585
-0.6946096
1.6487105
-1.2025319
-0.16663404
-1.3916744
1.2044922
-3.9553251
0.45771143
-0.78179306
0.96569324
-0.1335928
1.7384557
-0.98350275
0.08734899
-1.4689592
0.52729106
-5.4905686
0.93722457
-1.4952357
0.6261522
0.21607105
1.1629616
-1.4273515
0.17936961
-1.0382779
0.6611933
-3.9713383
0.15710436
-1.1306005
0.61151755
-0.2805473
0.44708726
-1.2916616
-0.20015743
-0.7402494
-0.17388704
-2.4752893
0.25621665
-1.2775375
0.5859183
-0.71994936
-1.6128789
-0.7964643
-0.1095398
-2.0289328
-0.37978044
-1.0450082
-0.479668
-0.35943434
-0.54559064
-2.1847355
-2.9767118
-0.9304222
-0.20391624
-3.9450362
-0.7257048
-3.0630794
-1.2304556
-0.8659571
-0.8092859
-4.99995
-8.279294
0.00863905
-0.26779002
-12.922908
-0.5147551
-1.3668797
-2.4063623
-0.8218959
-0.14410722
-2.4513798
-16.908413
-0.19371316
-0.19132161
-1.1876402
-1.0946696
0.10628878
-3.2902358
-0.20176786
0.19394432
-1.2157645
-15.470443
0.21312971
-0.21856624
-0.5491136
-1.1291549
0.5958243
-3.9474785
-0.32579622
0.74215204
-1.529605
-16.263695
0.49807963
-0.28053352
-0.5310223
-0.7703663
1.2496566
-2.7298388
-0.097557545
0.5308355
-1.9878325
-6.217305
0.33886752
-0.2142275
-0.22325946
-0.5102697
1.2400829
-1.4932137
-0.22394055
0.59262633
-1.9949352
-5.815268
0.24401577
-0.29576886
-0.7288197
-0.4292059
0.7729138
-0.3108039
0.022878688
0.35368174
-1.9699806
-1.1386861
0.13278377
0.27225354
-1.7858444
-0.22984709
-0.17433138
0.4911992
0.15455323
0.19134669
-2.2647858
0.25532225
-0.027382063
-0.24931297
-2.3440628
0.26617745
-2.3082175
1.0637884
-0.07970028
0.07964714
-2.0563703
1.2651579
-0.47908348
-0.21415433
-2.0731244
0.7234716
-5.734367
1.1935312
-0.66258746
0.22780634
-1.2057791
1.0386957
-0.72362804
0.21136126
-1.5112609
0.2592929
-7.6048336
1.0981733
-1.0558658
0.2488539
-0.44257706
0.20527259
-0.8312573
0.24619472
-0.64902407
0.25358498
-3.6951847
0.016533053
-1.1979947
0.13084106
-0.87785673
-1.5512483
-0.62916386
0.051889863
-1.8765035
-0.49466768
-1.6139797
-1.9408116
-0.4637576
-0.24737677
-2.1579087
-2.662762
-0.51295894
-0.12439886
-5.0626125
-0.6789899
-3.5951
-1.0385759
-0.97493666
-0.47199774
-5.0758696
