-0.09592182
-0.105190374
0.16866189
-0.30400714
-0.2176387
0.010735686
-0.15412402
-0.01250902
-0.3653625
0.15484986
-0.015578818
0.37609917
-0.7385272
-0.20052911
-0.7645421
0.16365305
-0.25387186
-0.45676082
-0.19316101
-0.11689334
0.14349896
-0.05342336
0.3764364
0.542632
0.36408067
0.41232142
0.2375007
0.12982401
0.00852578
-0.49631596
-0.36757323
-0.66786635
-0.6294901
-0.37618122
0.15410233
0.5236974
-0.12923814
0.25294462
-0.029364374
0.09226761
0.04290643
-0.07915029
-0.103159525
-0.83925986
-0.93521136
-0.49587694
-0.5372114
0.29617
0.6929973
0.7317685
0.12575121
0.44741195
0.48738033
0.22095701
0.3535016
-0.18799126
-0.7131225
-0.8622425
-0.68745464
-0.32928064
0.18736649
0.6546632
0.38685116
-0.15272279
-0.19905671
0.022204349
0.483432
0.10980751
0.22883448
-0.02849513
-0.32941905
-0.6782347
-0.6391025
-0.24223064
1.0378205
0.68026876
0.17004111
-0.6209889
-0.35086888
0.6225473
0.87499756
0.124858685
-0.1063943
0.10036536
-0.05689947
-0.3980938
-0.0913862
0.43353024
0.9262003
0.7039632
0.23934616
-0.46230412
0.19961758
0.058174856
0.8111447
0.5346035
-0.37773594
-0.3862936
0.17587748
-0.19188161
-0.10734813
1.0240403
1.446346
1.0786151
0.4675235
0.21968068
0.39502242
0.72913855
0.75928164
0.6126735
-0.38793504
-0.25219905
-0.21481016
0.22215599
0.400826
0.9902282
1.2711148
0.48548913
-0.1771122
-0.16098315
0.33098385
0.9912132
0.5583576
0.027685348
-0.043230437
-0.30846158
-0.12850069
0.40761206
0.050501015
0.7768544
1.0064996
-0.24851647
-0.5850087
0.15296589
0.6250895
0.7590356
0.31355003
-0.43835166
-0.516944
-0.45241195
0.198386
0.32345873
0.6782609
0.7158541
0.7146621
0.43067226
0.27197024
0.5099769
0.7121114
0.5521415
-0.19185056
-0.4265934
-0.72942424
-0.14533728
0.07538581
-0.02141612
0.100955375
0.07112129
0.05704972
0.38286933
0.15376823
0.47590423
0.4659241
0.076798186
-0.5355232
-0.6183777
-0.3546581
-0.19605193
-0.28704253
0.1981605
-0.27279437
-0.31093827
-0.46821675
-0.25628436
-0.15646635
-0.48462638
-0.32000497
-0.9122196
-0.35387388
-0.44154346
-0.407997
-0.025688803
-0.30864584
-0.21049808
0.19066134
-0.32729673
-0.19581826
-0.16048646
-0.120234504
0.18652464
-0.15159358
-0.4722842
-0.5044192
-0.14677857
-0.24797796
-0.73005706
