0.0006522766
-0.00045767243
0.001385869
-0.002242913
-0.00045122733
0.0007988756
0.0011120368
-0.0018868583
0.0041514174
-0.0021995944
-0.00032347185
-0.0007162044
-0.00094960793
-0.0029870812
-0.0012387651
0.0011112745
-0.0019523083
-0.0007076776
-0.0014268188
4.1553354e-05
0.0015171833
0.00015278086
-0.0016202872
-0.0005866573
0.0012722269
0.001063067
0.002456379
-0.00113618
-0.003385117
0.00060688483
0.0014414659
-0.00055807875
-0.002541297
0.0030878736
0.0018033901
-0.0011100632
-0.0012907021
-0.0034074353
-0.0031619745
-0.002731315
0.0018123607
-0.0008180985
-0.0003356374
0.0007421196
-0.002428873
-0.0016619989
-0.0026982753
0.0016613202
-0.0028802694
-0.0036746082
-0.00043394874
0.0047201463
0.00056036003
-0.00032303395
-0.0009505114
-0.0025234243
0.0006690608
0.0035793176
-0.0023858987
0.00010464157
0.0019633742
-0.0013658063
0.0033488614
-0.0015300061
0.0015105978
-0.0010635499
-0.0023026885
-0.001896414
-0.00068944634
-0.00094039517
-0.0003375212
-0.0020008371
0.0012159132
-0.0017630231
-8.897111e-05
0.0023581965
-0.0041433997
-0.0026821862
0.00471596
-0.0002507961
-0.003321547
0.0011568479
-0.0010701761
-0.00030991368
-0.0013996275
-0.0019237328
-0.005115733
-0.00202543
0.0006390714
0.00039099576
-0.0035783919
-0.00084590673
-0.00041221135
0.00011988693
0.00049546675
0.0015984601
-0.0014709099
0.002294052
0.002512125
-0.00067726744
0.0010979339
0.0007038407
0.0020626246
-0.00025214392
0.00045675467
0.00078684813
0.0014355349
0.0017389684
0.00448275
0.00039647394
0.0009002008
-0.0016752137
-0.00047170202
-0.00039459587
0.0026132483
-0.0030769573
-0.0006234813
0.0012593446
0.0006286089
0.00021104442
-0.0039379857
0.0023864328
-0.0015123152
7.532011e-05
-0.0030951363
0.0017337647
-0.0038920685
-0.000985066
-0.003881823
-0.0011271371
-0.0022219738
0.0017429083
0.0024392582
-0.002034212
-0.00290748
0.00011856066
0.00010142796
-0.0012626963
-0.0010444522
-0.0016536219
-0.0022752264
-0.0014744613
-8.097964e-06
-0.00037302688
-0.0013089373
0.003162823
-0.00084085093
0.0002971624
0.0013908616
-0.0017804332
-0.0010606026
-0.0018492645
-0.0034576112
-0.002476768
0.0011890794
0.0023189776
0.00046328476
-0.002630766
0.0020151949
-0.00054855255
-0.0007163833
-0.0009124486
-0.0025144774
-0.0030997025
0.00022892891
5.6726487e-05
-0.00092959154
-0.0027424963
0.001318048
-0.0011486667
-0.0009947827
0.00031030018
0.00065966655
-0.0010708644
0.0016192998
-0.0019605083
0.00026363783
0.00025565532
0.0021995394
0.001639785
-0.0029282917
0.0018832205
0.0005555867
-0.000548459
1.0932852e-05
-0.0019354534
0.0013895265
-0.0006117553
0.0041523515
-0.0018845941
-0.00089997903
-0.0002631974
0.0009174943
0.004329969
0.00026980974
0.0013279142
-0.00037015215
-0.0013585989
-0.0008534573
-0.0022441423
0.00011410051
-0.003780145
0.0014285675
0.0023729675
0.003184392
-0.0015263252
-0.0023718914
0.001432573
0.0004505115
0.00038274968
-0.0015565761
-0.0018857989
0.006377442
-0.0032370468
-8.481096e-05
0.0001752835
0.002243466
-0.0030270377
-0.0009713185
-0.0008315837
0.0031758808
0.0060509504
-0.0032770564
-0.0005644754
0.007486794
0.0006572037
-0.00284422
-0.0043233405
-0.0014486506
-0.0014353158
-0.0019007351
-0.0013876769
0.0020151846
-0.0015017794
0.0014319894
4.557387e-05
-0.0003869139
-0.0009389186
0.0014192152
0.00087397336
-0.00030455072
-0.0029056629
1.2709411e-06
0.0021520872
-0.0017723975
0.0004402045
-0.0021939694
-0.0011372304
0.0023171806
-0.0012765449
-0.0016579598
0.00045614978
-0.0019892605
-0.0005075085
0.0029656761
1.9906505e-05
-0.001046155
-0.0017247444
-0.002445799
-0.00010216493
-3.437776e-05
-0.0008572943
-0.0003883158
-0.00071533426
0.0018172237
0.00055899704
0.002036355
0.0062922607
0.00045003855
0.0013938694
-0.0016793283
0.0006776053
0.0015380951
0.0018628491
7.704735e-05
-0.0005201749
-0.0011450798
-0.001426965
0.00040991607
-0.0010747624
-0.0008682305
-7.501019e-05
-0.0016001115
-0.0011990367
-0.0012445297
-0.0012479606
0.0055913446
0.00037757005
-0.000735698
-0.002800689
-0.0012299728
-0.0028659038
0.0005457141
-0.0012881453
-0.0007900369
-0.0010129199
0.0036251761
-0.00040554508
0.0012893553
-0.0018147667
0.00079929986
0.00016638318
-0.0025278262
-0.001530092
9.378944e-05
-0.0049303
0.0003397898
0.0018617123
-0.0054451292
-0.0009117323
0.0015681493
-0.0020632914
0.00028658728
-0.0033086021
-0.0034930063
-0.00034031615
-0.00343684
0.004066293
-0.00096464483
-0.0015411433
-0.00053402473
0.00088933046
-0.0023571777
0.00093602826
0.00016226052
-0.0004756704
0.00097515195
-0.0016949004
-0.002517996
-0.0013017588
-0.0041034403
0.0006741911
0.0031886278
0.001064453
-0.00024156281
-0.00017550892
-0.0010547243
0.0023004645
0.0006892358
-0.00043270233
-0.0019616755
-0.0025935795
-0.00055121415
0.0015990875
0.00029274158
-0.0009295713
-0.0025443295
0.0017381144
0.001182432
0.0012486438
0.00075838866
0.0032086726
-0.0016151608
-0.0014897027
-7.4729694e-05
0.0045788493
-0.002438147
0.00021542919
-0.0019364516
0.00014702522
0.0013259856
-0.0005404047
0.00048783404
0.00047127262
0.0016794086
-0.00032567873
0.0025928505
0.0024611766
0.00036992593
-0.00035379184
0.00018315755
-0.00101027
-0.0024396535
-0.0013446308
0.0003946133
-0.0015409819
0.0013716822
-7.6853925e-05
-0.00019608629
-0.003983104
-0.00354621
0.00022071549
0.0009490283
0.00086294126
-0.00084818905
-0.0037459105
-0.0033995977
-0.0010046352
0.0015085286
-1.6164946e-05
0.0016860864
-0.0020261107
0.0016812863
-0.0018836621
-0.00062099623
0.00091215683
0.0015590999
0.0017192687
-0.0027370164
-0.00033318147
