-0.05070151
-0.27175933
-0.1251077
0.048959102
-0.21831734
-0.39575148
-0.2963806
-0.10484123
-0.0399566
-0.11574177
0.0017561892
-0.38356727
-0.32707685
-0.26572314
-0.38064766
-0.29544103
-0.20029172
0.15172562
-0.095975414
-0.1552604
-0.2801559
-0.11678665
-0.224573
-0.10824173
-0.13805887
-0.22626828
-0.052374877
-0.034088824
-0.064127855
-0.09190887
0.14004633
-0.025302578
0.0391867
-0.045790855
-0.30646712
-0.34129342
-0.012893894
0.30157834
0.13279292
-0.19931664
-0.064089045
0.040622037
-0.07981338
-0.25851178
-0.19802214
0.20912167
0.28706425
0.1830378
-0.02031536
0.36406457
0.53296787
0.47612128
0.25731504
0.06449499
0.07861557
0.13614336
0.002706535
-0.31553692
0.06813327
0.040538847
0.049788546
0.29800096
0.069708735
0.24173631
0.41832668
0.37528592
0.1084878
-0.13266389
-0.3369243
-0.13882837
-0.20772284
-0.2857492
-0.1624045
-0.08387122
0.06168517
-0.011544173
0.019285608
-0.2117379
0.43975896
0.5949694
0.100427315
-0.11177312
-0.15134373
0.0057774526
-0.15126742
-0.03939002
0.04494411
0.24842754
0.49234882
0.08625746
-0.14849322
0.06417104
0.8486731
0.88798714
0.16156022
-0.21105954
-0.14232257
0.023044137
0.08289838
0.0034231993
0.01880699
-0.05438673
0.54638517
0.4020377
0.12064593
0.27492455
0.9783722
0.66216063
0.21997581
-0.008565665
-0.114020705
0.0043867063
-0.10444427
-0.12996122
-0.046629176
0.25645974
0.3779847
0.12206269
0.060745552
0.61094916
0.5634607
0.3162851
0.26631266
0.09374217
0.061810523
-0.29828325
-0.05897515
0.06395992
-0.23044164
0.029852469
-0.121832214
0.007977469
0.04786465
0.5467847
0.06514234
-0.15333977
0.012246862
0.08045163
0.12080469
-0.29175958
-0.22485125
-0.10147987
-0.11630763
0.054134745
0.26790112
0.26607415
0.63891715
0.23720442
-0.38674393
-0.045680713
-0.20696858
-0.14319734
-0.116339475
-0.33579522
-0.30785143
-0.12252281
-0.103447594
0.18555117
0.16153961
0.5678162
0.19685288
-0.32985494
-0.36889446
-0.32810566
-0.010445265
-0.019212084
0.04237451
-0.14321274
-0.081686184
0.07153073
0.07346173
0.014021815
0.124937385
0.2407794
0.15386568
-0.0641042
-0.467882
-0.12744863
-0.17226914
-0.1797358
-0.009967246
0.104310736
-0.2321838
-0.16645192
0.042040832
0.014351774
0.24232236
0.36633155
0.56105316
0.33925027
0.007132032
-0.23573145
-0.17790954
-0.021160562
-0.087484896
-0.11833974
