-1.053054
-0.69964755
-0.24920636
-0.023663778
-0.30183175
-1.850681
-0.33569783
-0.5214963
-0.3792231
-0.3626206
-0.30769172
-0.2648816
-0.89445996
-0.46127427
-0.3777618
-0.30960917
-1.4655366
-0.3928524
-0.7381773
-2.1530824
-0.28194004
-0.32655397
-0.22123413
-0.14811179
-0.20334904
-3.314457
-0.20210642
-1.0310525
-0.14614202
-0.5445293
-0.6764281
-1.1319416
-0.12654178
0.07399862
-0.3281173
-1.3825573
-0.2907841
-0.3472709
-0.388978
-0.37528458
-0.24336661
-0.35817063
-1.0986029
-0.4796006
-0.43672666
-0.21787767
-1.1825114
-0.20601484
-0.8405284
-1.8032004
-0.30375117
-0.55085117
-0.2659194
-0.120090336
-0.0308357
-3.2559812
-0.38700187
-0.8255612
-0.36518136
-0.43031117
-0.6505288
-0.39363858
-0.73542935
-0.016116684
-1.0662402
-1.053171
0.39305505
-1.8799787
0.21018583
-0.09445118
-0.15468372
-3.9435415
-0.37225983
-0.20732868
0.03489194
-0.17924295
-0.70996505
-1.1301051
-0.4630187
-0.9028343
0.16442023
-0.10029709
-0.17236939
-0.05770477
-0.12772602
-2.4660718
-0.31264058
-0.2727838
-0.18504022
0.24591571
-1.501656
0.105862804
0.22306733
0.058676913
-0.46969685
-1.0194538
0.73765326
-2.4352171
0.0035046733
0.2747047
-0.14661168
-2.173056
-0.08186804
-0.9251739
-0.56071573
-0.3886887
-0.51882064
-0.67192316
-0.124500364
-0.2661181
0.27462342
-0.24825324
-0.31394845
-0.694201
-0.124418445
-1.3212681
-1.4635552
-0.47212914
-0.40138617
-0.062531024
-3.4388332
0.38024876
-0.0749311
0.113122344
-1.1158749
-1.0207773
0.8410408
-2.2450435
0.0042916806
-3.383805
-0.64412606
-1.1750399
0.4479439
-0.62922406
-0.2623733
-0.15238386
-0.32792476
-1.4869986
-0.38134766
-0.32206762
0.2858902
-0.19168742
-0.4845293
-0.56562304
-0.044713244
-1.2441248
-2.3500357
-0.53084874
-0.26574358
0.23331353
-4.350763
0.043136004
-0.99010557
-0.11958506
-1.7291014
-0.649748
0.46882167
-2.4440029
-0.11485252
-1.5892498
-0.5572034
-1.8455215
0.43632755
-0.28748608
-0.2530377
0.040709887
-0.29486448
-2.179448
-0.5244533
-0.19525981
0.24355002
-0.087016515
-0.27149114
-0.2589936
-0.2782201
-0.89067787
-1.5657986
0.0010838057
-0.36131167
0.14626515
-5.29284
-0.073101535
-4.3947973
-0.109037876
-3.1249797
-0.40358457
-0.0026310128
-1.9715679
-0.15848403
-0.73272264
-0.39141873
-3.609816
0.4655311
-0.060913417
0.068053015
0.05652084
-0.17833284
-2.9299672
-0.73971045
-0.09083186
-0.09399247
-0.036955193
-0.2368724
0.04677634
-0.17087927
-1.2771317
-0.5080348
0.056738693
-0.64647716
0.2740919
-3.9785547
-0.3657827
-2.5645423
-0.06777177
-2.986595
-0.46744502
-0.5888279
-0.52319294
0.2633884
-0.49262628
-0.42892855
-2.1214595
-0.06243035
-0.14288807
0.06496994
-0.0045376685
-0.27597588
-2.0256035
-0.7660302
-0.28578046
-0.049396843
0.10851094
-0.041558273
0.14375767
0.0020059205
-3.0936542
-0.24475037
0.4473206
-0.795514
0.30993068
-2.8302994
-0.83870566
-1.3411155
0.12628825
-2.4277315
-0.52177966
-0.8079496
-0.6778556
0.096090615
-0.22254993
-0.38302264
-1.3201175
-0.012979108
-0.138627
-0.11253659
0.055765525
0.08999293
-1.1361173
-1.1566536
-0.24614084
-0.012534191
-0.21027768
-0.2318458
0.04952138
-0.24732253
-8.082351
-0.09232902
0.26984918
-2.4045136
0.42309508
-2.0973575
-1.4105453
-0.4681823
-0.021227194
-2.506995
-0.33185786
-1.3284578
-1.0064515
0.3183227
-0.27745503
-0.29355752
-1.2053368
0.021158181
-0.16209301
-0.061927404
-0.14940606
0.0013646001
-0.90375024
-1.5685276
-0.34883466
0.19969529
0.005821486
-0.3839738
-0.1393915
-0.4475684
-7.950405
-0.22273761
0.2741163
-4.132447
0.25645414
-1.3361487
-1.4988948
0.14206685
-0.08927949
-1.9202863
-0.6356298
-2.0128987
-0.60026395
0.17593229
-0.22472534
-0.42053857
-0.950888
-0.30827758
-0.10145842
-0.057765514
-0.14611843
0.078540646
-0.773574
-1.3383889
-0.4531691
0.20183037
0.01847753
-0.24612361
-0.08984696
-0.56150436
-6.9958653
-0.32555357
0.39938146
-4.9092083
0.25320557
-0.52505213
-0.5121826
0.68241435
-0.17757007
-0.7239758
-0.77609277
-0.47990274
-0.70328826
0.1886649
-0.024379075
-0.46215838
-0.56128716
-0.09260016
-0.3225952
-0.16252784
-0.07859136
-0.51542914
-0.50951797
-0.7357178
-0.60262185
0.0040663467
-0.14507101
-0.3677187
-0.29387343
-0.65479815
-1.587755
-0.26984903
0.16728434
-5.677998
0.26503414
-0.8328482
-0.9458934
-0.28129917
0.11229721
-0.19738713
-1.9443156
-0.27923185
-0.38737643
-0.51473576
-0.2103711
-0.26206905
-0.33652216
-1.0712638
-0.4804202
-0.39495817
-0.23770402
-1.5890741
-0.2099985
-0.87291
-1.8150558
-0.34785435
-0.27101165
-0.3625059
-0.23695967
-0.24709152
-3.3494854
-0.1364834
-1.0701162
-0.011695797
-0.48880708
-0.75057137
-0.94622606
-0.0909704
0.037606012
-0.09547795
-1.6798
-0.25960547
-0.49710268
-0.60522
-0.37719342
-0.28932366
-0.09961608
-0.9342673
-0.486693
-0.42505357
-0.22524865
-1.2535921
-0.4189268
-0.70019543
-2.1653175
-0.22682355
-0.40904775
-0.40699705
-0.11117914
-0.091542445
-3.195945
-0.3387538
-1.095298
-0.37640283
-0.34971222
-1.0364146
-0.7403514
-0.11585511
-0.040356897
-0.36695674
-1.6488917
-0.25357184
-0.14891726
-0.5680483
-0.15807934
-0.26394418
-0.36050665
-0.83896995
-0.4155709
-0.39789376
-0.48691761
-1.3114821
-0.19286133
-0.837795
-2.2343562
-0.1955401
-0.5228091
-0.118267715
-0.12971178
-0.15874545
-3.2661293
-0.28559574
-0.93738145
-0.15631944
-0.47489506
-0.4407097
-0.8213697
-0.07961077
-0.12819651
-1.9528476
-0.6759825
-0.17266996
-0.47871134
-0.123421006
-0.0006309472
-0.3660371
-0.8516465
-0.28974533
-0.09580675
0.031715676
-0.033741716
-0.31397998
-0.94378084
-1.0012808
-0.71536463
0.048817907
-0.010600901
-0.1262539
-0.06177896
-0.32585156
-5.148939
-0.09491465
0.20626524
-0.63594013
0.250499
-0.7217677
-0.053680126
0.77811927
0.07188385
-0.6199814
-0.76568604
0.40181655
-0.8451744
-0.028637493
0.88616383
-0.1318569
-0.88023937
0.0860643
-0.28342435
-0.29912698
-0.28733745
-0.28962323
-0.9030841
-0.198444
-0.34750873
0.36623698
-0.30553964
-0.3209324
-0.3769938
-0.7229261
-1.0996106
-0.5759126
0.0032826154
-4.33232
0.032519884
-2.869452
0.3916536
1.3651322
0.010140338
-0.9900634
-0.8797077
0.43190867
-0.9075798
0.21500313
1.2067375
-0.090749025
-2.446476
0.65554225
-0.56059587
-0.4649123
-0.35586873
-0.51947147
-1.983208
0.191473
-0.12031133
0.22872141
-0.28240755
-0.08669656
-0.36034194
0.39571556
-0.86851174
-0.7612218
0.045313124
0.38123658
-0.13723129
-5.953687
0.46522802
1.4252021
-0.11442264
-0.90080374
-0.6093904
0.16429484
-0.35570818
0.1776007
-1.1652484
0.005445138
-1.3948573
0.5789263
-0.5974344
-0.47277445
-0.2955143
-0.25147048
-1.7196708
-0.06925458
0.09846549
0.14105788
-0.21795253
-0.20482416
-0.5289862
0.73567295
-0.7185386
-0.60615206
0.34519938
0.3531163
-0.18916182
-5.391438
0.19557203
0.39262995
0.103398405
-1.1088436
-0.16873132
-0.08986712
0.2331323
0.12439162
-2.6672359
-0.1992031
-0.3960392
0.3061729
-0.2328819
-0.055049323
-0.285265
-0.46378514
-0.84981126
-0.1798051
0.13899985
0.26932183
-0.26584598
-0.050503325
-0.37486747
1.3571109
-0.7430573
-0.4472926
0.70490515
1.1079097
0.011768469
-4.2331305
-0.1492618
-5.305846
0.011279972
-1.2223183
0.22368546
-0.81506354
0.14350595
0.13733886
-2.0375721
-0.28498453
-0.4932994
-0.06283857
-0.059367213
-0.2358531
-0.16458368
-0.030366225
-0.6991949
-0.5635408
0.19504517
0.2634672
-0.1374057
-0.19586064
0.10016037
2.4152937
-1.4214001
-0.12260808
0.55603814
1.6704792
0.21336983
-3.2709873
-0.34647608
-5.486318
-0.11488527
-1.3594601
0.21011461
-1.5457665
-0.4360269
0.0374722
-0.7879805
-0.251807
-0.7152527
-0.06847389
-0.12620285
0.053959433
-0.10467464
0.33330503
-0.65056896
-0.82866573
0.21178506
0.40710077
-0.113217264
-0.08053072
-0.10361663
3.124205
-2.284346
0.14710946
0.055708062
1.7167358
0.64380515
-2.10186
-0.2798204
-2.566974
-0.07520449
-1.444483
0.008753793
-2.2362955
-0.5067966
0.25080323
-0.25709954
-0.24064499
-1.0260962
0.09314425
-0.045696303
-0.36015686
-0.038262676
0.285871
-0.5359339
-0.7948658
0.09873597
0.63084996
0.21666543
-0.19210956
-0.18198636
3.2259579
-1.73234
-0.010303358
0.09613991
0.8418709
0.39423478
-1.8478395
-0.9149264
-0.5543373
0.046970792
-1.1787751
0.10039803
-2.550246
0.15320766
0.35173935
-0.41207865
-0.39924622
-0.556452
-0.08433959
-0.264513
-0.23888078
0.008276799
0.2320611
-0.40078193
-0.73382145
0.34114733
0.94478846
-0.19759366
-0.23199795
-0.50239474
2.0433621
-0.92170596
-0.6313655
0.46571195
0.6072364
0.15000586
-1.4999887
-1.3899933
0.12650922
0.030013103
-1.0875101
-0.03224723
-1.7074022
-0.030924633
0.31384942
-0.20540616
-0.34972188
-0.44626138
0.13066636
-0.20586431
-0.46115154
-0.045273557
0.19434702
-0.27591267
-0.4848141
0.04797206
0.76860934
-0.2644639
-0.21697694
-0.4665619
1.3783321
-0.018970568
-0.31484038
0.4438145
-0.02304659
-0.026135905
-1.0696151
-1.3374909
0.0126628
0.13159847
-0.8314186
-0.1983674
-1.2436087
0.14031947
0.019415963
-0.31868407
-0.3961678
-0.39179626
0.072100274
-0.20138076
-0.4412715
-0.0861179
0.09426534
-0.34681022
-0.76941687
-0.3776954
0.20710689
-0.098486654
-0.11290218
-0.2529958
0.21698213
-1.0578349
-0.20553358
0.4871152
-0.10443691
0.19439098
-0.722992
-1.415786
0.16659984
-0.018849745
-0.78488183
-0.4199141
-1.4359862
-0.12166704
0.10460325
-0.060533673
-0.22803025
-0.4927646
-0.03675
0.0024689895
-0.095466614
-0.04955204
-0.07487832
-0.42612606
-1.3148974
-0.6284812
-0.05170136
-0.08834204
-0.19747418
-0.3140975
-0.8860263
-2.0246773
-0.022305071
0.36954567
-0.7752819
0.0020069825
-5.803682
-9.905094
-0.033528097
0.122072116
-0.2823106
-0.62745994
-2.8309517
-0.19235182
-0.03853756
0.14882474
-0.31531882
-0.33248633
-0.12768479
-0.18500714
-0.044487193
-0.21535756
-0.498205
-0.35116717
-3.0154846
-1.1225767
-0.35541585
-0.11364913
-0.28456017
-0.06827772
-0.2500033
-12.030544
-0.053218853
-0.017464017
-0.1421322
0.020743852
-3.248458
-0.13948633
-0.23033589
-0.092495196
-0.10629144
-0.66423273
-0.022226812
-0.5512385
0.11517658
-2.8314898
-0.16604243
-0.31088713
-0.38287118
-0.33579224
-0.20473346
-0.16139792
-0.80582213
-0.050809816
-0.17465888
-0.9434346
-0.08188814
-0.1395602
-0.23935002
0.076381005
-0.19918324
-12.424379
-0.19687231
-0.4439963
-0.6141502
0.007918249
0.1445477
-0.0147761
0.99913937
-0.12274967
-0.4224835
-0.7756214
0.36501035
-0.77796996
0.15830904
0.48179752
0.0105850855
-0.8279382
-0.14002256
-0.27086234
-0.110966325
-0.20493257
-0.5451807
-0.40344894
-0.13528794
-0.5563816
0.0092572225
-0.0006617663
-0.19382726
-0.13653488
0.4226659
-0.9351448
-0.4126344
0.0050270814
-0.011105053
-0.048958246
-0.7297094
0.3205698
1.1942922
0.12600969
-0.040386427
-0.7453304
0.57887447
-1.0997584
0.06601102
1.1327351
0.023363516
-1.3813418
-0.29502082
-0.13043064
-0.09818453
-0.081485845
-0.43732673
-0.59899735
-0.2650062
0.23558745
0.00930312
-0.22939539
-0.111782424
0.11542717
0.05026839
-0.9749405
-0.28276116
-0.8136575
0.42774922
0.039766785
-1.5984553
0.2424264
0.36304745
0.14649291
-0.168871
-0.13211618
0.14150538
-0.9292229
0.09228309
0.2495939
-0.13974693
-0.44425806
-0.943735
-0.18414873
-0.016943723
-0.22786221
-0.14553666
-0.68758726
-0.14986306
0.37408578
0.19885547
-0.21139783
-0.03840223
0.075447395
0.18269189
-0.80884653
-0.07240782
-0.5478585
1.2053969
0.046388626
-1.2853487
0.1252215
0.3233478
-0.040969435
-0.50529194
-0.03688709
0.118648686
-0.15535578
0.116229855
-1.5703363
0.041481685
0.2827559
-1.0502148
-0.052774608
-0.06247245
-0.05119589
-0.28823057
-0.33803165
0.022057567
0.22690625
0.22798629
0.0068746014
-0.013498825
-0.056479506
0.6972384
-0.9834129
0.06759821
-0.44989258
1.0193535
0.2763852
-0.8400236
-0.3380208
-2.5375636
-0.09997954
-0.07223708
-0.08029573
-0.24158974
0.23947151
0.25224254
-1.7060655
0.15234344
0.095941976
-1.1718127
0.23690534
0.027428037
0.0606203
0.11651363
-0.074531645
-0.23371647
0.20091452
0.23459217
0.11658778
0.08443336
0.30271554
1.4428166
-0.89337486
-0.27439725
-0.52354515
0.3643364
0.37562785
-0.12100431
-0.5202307
-3.1173053
-0.11912224
0.34917656
-0.189482
-1.0355707
-0.30578175
0.49631107
-1.1807617
0.14161907
-0.42446208
-0.7363879
0.57338846
0.4237998
-0.09744095
0.2138961
0.10792042
-0.9003414
0.5796544
0.5069033
-0.15866281
0.25319582
0.5051376
1.7214403
-0.53639746
-0.08871711
-1.0871754
0.21809688
0.7139586
1.126619
0.062222283
-1.7406718
0.13665342
0.26917163
-0.088385984
-1.9779376
-0.4555075
0.27411574
-0.59099954
0.16930662
-0.3479864
0.054708567
0.24912678
0.12552044
0.010432633
0.37986535
-0.2043791
-1.3424393
0.80900645
1.0555592
-0.1706287
0.1687447
0.44944066
1.697272
-0.5079978
0.28620344
-1.3964083
-0.012337269
0.4604211
1.5927261
0.017980935
-0.94163203
0.03303489
0.37757194
0.21432763
-1.9213885
-0.19506256
-0.309213
-0.1732281
0.059509397
-0.22864637
0.95705724
0.06463946
-0.24988283
0.0111475345
0.046937995
-0.04123804
-1.1640682
1.363623
1.7577337
-0.034624714
-0.164347
0.03665797
1.4132876
-0.86396545
0.10898053
-0.5767556
-0.54365885
-0.7551541
1.7603247
-0.5170879
-0.3605884
-0.09250153
0.34219512
0.45215964
-0.8451895
-0.17645694
-0.35540745
-0.41187033
0.14456384
-0.22265236
0.5603417
0.0148291765
-0.17676975
0.11727485
-1.0158861
0.05540967
0.007738174
0.77193683
1.5475436
-0.002344786
-0.21768318
-0.0012525534
1.1223814
-1.7206805
0.20926332
0.86914414
-0.4921216
-1.1481626
1.3499076
-0.75000876
-0.0047134524
0.17313865
0.21154691
0.36919016
-0.012322566
-0.090573736
-0.14460665
-0.4835417
-0.057141803
0.062053505
0.27380878
0.16435991
-0.100073144
-0.059197873
-1.1348702
0.10388472
0.7164206
-0.43280935
0.84872293
0.08142664
-0.09378651
-0.29007888
0.22371203
-1.6537685
-0.030451227
0.9873373
-0.3191957
-0.39041555
1.052462
-0.66647714
0.22437772
-0.17905633
0.42742094
-0.05900056
0.4280782
-0.07348656
0.13249254
0.04854553
-0.0730557
0.16817166
0.12682375
-0.22252534
-0.41201383
-0.025336355
-0.31265423
0.015454885
0.5368265
-1.1210175
0.17537947
-0.041208602
-0.08775262
-0.03599873
-1.0178251
-1.3581285
-0.10228688
0.59200317
-0.35261363
-0.25490332
0.35814175
-0.13017993
0.2409692
-0.05276499
0.24630834
0.0075290045
0.59943086
0.08678501
0.12552685
-0.0138806645
-0.07324456
0.20726894
0.15385474
0.036650397
-0.17879577
-0.2596987
-0.189829
-0.07530462
-0.025856255
-1.2562956
-0.42957434
-0.07593763
-0.1485296
-0.24434048
-2.031468
-1.1834289
0.06372852
0.19225176
-0.5954193
-0.0871071
-5.1900887
-0.43074143
0.020621374
0.0010513143
-0.039810512
-0.3705408
-0.14809355
-0.023024797
-0.025580881
-0.14070894
-0.1303367
0.121251546
-0.1017097
-0.0506063
-0.09535789
0.03200532
-0.51509506
0.08935546
-0.3826561
-1.0622542
-0.054595966
-0.14448059
-0.05111558
0.05821959
-0.8966214
-1.9428016
0.016274188
0.0012769696
-0.633067
-0.10655569
-8.294812
-0.119111426
0.41377786
-0.09843576
0.14199314
-1.5175203
-0.68524814
-0.048797924
-0.24457249
-0.59538805
-0.20581342
0.17713037
0.043668933
-0.50268996
-0.44358367
-0.59624904
0.1885099
-0.022521617
-0.100481585
-0.7469459
-0.47758844
-0.74507904
-0.20597501
-0.23195772
0.30267426
-0.6193004
-0.18111923
0.45236284
-0.031669624
0.619569
-1.9294385
0.028661806
1.5414128
-0.032153733
-0.07721476
-1.3420098
0.6522339
-0.109518304
-0.4058081
-0.14554974
-0.13931221
-0.23192933
-0.8122412
-0.13369606
0.08906825
-0.37806347
0.44972065
-0.020179983
-0.07802217
-0.3964663
-0.24137823
-0.47047767
-0.28750068
-0.044349797
-0.3048094
-0.09941437
-0.31906623
-1.2323748
0.50176346
1.0455545
-1.5086339
-0.36246976
1.561888
-0.11299415
-0.028590728
-0.93308455
1.2573324
-0.4577826
-0.25290638
0.75367665
0.24348612
-0.16046302
-1.2247187
-0.010828711
-0.060713388
-0.2985308
0.6322476
-0.17539825
0.022103924
0.0015307529
-0.51562077
-0.20420757
0.08655408
-0.028090717
-1.2493372
0.01634651
-0.475153
-1.5354124
0.907322
0.8428251
-1.3106557
-0.5504901
0.29857606
0.15834802
-0.02298784
-0.4527568
1.4107028
-0.4753596
-0.4831394
0.82076406
0.34589833
-0.18988766
-1.2789521
-0.23328865
-0.04130283
-0.03542569
0.35295627
-0.16272478
0.28083324
0.20800118
-0.32771432
-0.18550201
0.10138562
-0.10780488
-1.2268088
-0.26831582
-0.44767416
-1.621149
1.0036153
1.0395613
-0.44134426
-0.6149515
-0.90418094
-0.038117107
0.06741642
-0.3388896
1.2561669
-0.47415236
-0.35288113
0.10723458
0.21439533
0.20308895
-1.1096114
-0.016783694
0.08249895
0.097074136
0.107904136
0.07482463
0.1918727
0.2058673
-0.026853029
-0.07111361
0.21202861
0.185427
-0.39285687
-0.3451301
-0.37999037
-1.5163893
0.3148028
0.98958933
0.52818334
-0.8411939
-1.8892994
-0.102200046
0.26992157
0.15780996
0.5075118
-0.35760945
-0.030430892
-0.4287218
0.28190568
0.10197443
-0.694438
0.108077854
-0.0078094094
0.046833143
-0.19813475
-0.07633413
0.16513829
0.06404132
0.17387643
0.106911115
0.23142093
0.15147783
0.60503155
-0.21844198
-0.32244164
-1.0141926
-0.24020879
0.87185764
1.8756018
-0.8001785
-3.0832448
-0.12907533
0.40959746
0.041950736
-0.61026734
-0.40869737
0.49981096
0.40067095
0.047946636
-0.25402966
-0.48698515
-0.16897827
0.21454616
-0.07630213
-0.322772
0.012807702
0.1945235
0.17314439
0.21973874
-0.1269402
0.090984
0.068270184
0.9712443
-0.11306352
-0.032757103
-0.8733291
-0.40942684
1.0447334
2.3615353
-0.6314418
-1.2014295
-0.15237336
0.31269225
0.011884059
-1.2753549
-0.20310545
-0.05063824
1.006335
0.23700583
-0.07219685
-0.13098587
-0.12776099
0.07050116
-0.16148788
0.63047916
0.072134174
-0.47929123
0.655383
0.7344962
-0.18962471
0.15589587
-0.24393936
0.4781933
0.27095222
-0.07484268
-1.6324534
-0.66966313
0.7651934
2.8299677
-0.79421043
0.537532
-0.042118497
0.40719223
0.49441382
-0.62125045
-0.063508995
-1.3391943
-0.080447994
0.48719868
-0.074991494
0.21022762
-0.0069150017
0.010279687
0.07538013
0.5431199
0.19411771
0.11457102
1.2356603
0.7804743
0.26265204
-0.05390445
-0.02928996
0.40814608
-0.5622499
0.08121623
-1.0665364
-0.7429086
-0.15411592
2.6762128
-0.84902096
0.20050883
0.043684717
0.6402918
0.26884764
0.9411711
-0.1598007
-0.7895622
-0.95542806
0.4638731
-0.14793107
0.5004054
0.11831934
-0.16389233
0.35096818
-0.7104685
0.10565091
1.1423383
0.21673922
-0.19431928
0.43100742
0.014013808
-0.09535673
0.5870728
-1.6275486
0.32936618
0.29544973
-0.5497172
-0.36337072
2.2833405
-0.58059335
0.028055355
-0.057613324
0.56306577
0.33823624
1.3798748
-0.25433692
-0.16826455
-0.45195514
0.25185692
-0.24576141
0.4784419
-0.18038434
-0.08882588
0.20417145
-0.83541137
0.2666334
1.1359576
-0.95215625
-0.4890708
0.13630162
0.000768494
-0.1010746
-0.94643605
-1.7592258
0.1556023
0.46167788
-0.10790505
-0.114435
1.7212613
-0.12359208
0.39852196
0.05894897
0.79218113
-0.021741677
1.377711
-0.13094482
0.07260389
0.3086925
-0.07111998
0.05501154
0.31086215
-0.037186153
-0.38402206
0.02124495
-0.32377398
0.07756687
0.4303313
-1.3056254
-0.712435
0.13484554
-0.14226194
-0.10306511
-3.1193826
-1.3329089
-0.19456537
0.08503299
-0.21491218
-0.0150167495
0.82425195
-0.105956286
0.6663398
0.043913048
0.6175469
0.14914887
1.8288146
-0.0030556025
0.2649992
0.19460835
0.08377789
0.2165345
0.13277882
-0.23068081
-0.0348644
-0.011371786
-0.47369283
0.10721933
-0.25815213
-1.4929702
-0.8599603
-0.046383254
-0.23097433
0.033407275
-3.9358404
-1.0230803
-0.20929924
0.07842426
-0.9972407
-0.18789299
-1.7303406
-0.16784436
0.5684377
0.04610724
0.074977234
0.12141429
0.6337061
-0.06015815
-0.0034777392
-0.13264838
-0.101407334
-0.031101244
-0.04822603
0.032682575
-0.20000675
0.09977753
-0.4855842
0.12106453
-0.24636932
-1.6789923
-0.5414544
-0.08911446
-0.08729028
-0.07723625
-2.8080065
-1.2638223
-0.19335133
-0.02614853
-0.5512217
0.15241836
-1.6668108
0.33170474
0.13972108
0.12885427
-0.068098664
-2.1136394
0.08601664
-0.037981667
-0.5852562
0.019570133
-0.15681301
0.12419438
0.7670118
-0.76228595
-0.24003886
-0.81244487
-0.15861076
-0.04265394
0.06589878
-1.3519297
-0.41440558
-1.1665084
-0.39248085
-0.31279463
0.23263703
-0.13522917
-0.31163976
0.9014784
-0.19385299
0.92776465
-0.82689583
-0.034391485
1.073888
-0.1792401
0.07563815
-1.749608
1.2132827
-0.23437868
-0.589446
0.38877028
0.02149825
-0.19596405
-0.30385056
-0.21264838
-0.17812724
-0.20934752
1.291357
0.007927117
0.13865155
-0.8670787
-0.89689827
-0.49766028
-0.25977886
0.014449165
-1.0879961
0.27472398
-0.19771104
-2.0081072
0.1556865
1.3185456
-0.94480765
-0.4206319
0.7308137
0.08098073
-0.050691415
-1.0497015
2.034482
-0.26150236
-0.33877155
1.0292814
-0.10857149
-0.090761065
-0.4548426
-0.31944162
0.119585365
-0.32222155
0.9610895
0.0043797833
0.30467668
-0.3673674
-1.0224364
-0.5504432
-0.14150125
-0.19604331
-2.090153
0.40667048
-0.512634
-2.260657
0.75278986
1.2587974
-0.3898235
-0.68818164
-0.15692012
0.089562684
-0.08041415
-0.47578555
1.9276015
-0.29800373
-0.38187066
1.0053567
0.3015745
0.27728048
-0.50244623
-0.5277066
0.062010735
-0.30215833
0.512634
-0.20442942
0.43667954
0.10587246
-0.5896652
-0.45988217
-0.026457697
-0.25986925
-2.09294
0.28210753
-0.5303014
-1.7647073
0.70835406
1.0590549
0.30751708
-0.72336036
-0.87190825
0.13702865
0.19066854
-0.119497776
1.5402391
-0.26659644
-0.08092541
0.12173453
0.092081994
0.7479393
-0.3694818
-0.4293646
0.08142396
-0.27283135
0.023092134
0.025825353
0.47867793
0.13079153
-0.58622
-0.11619482
-0.04462221
-0.1665034
-1.1591338
0.12566768
-0.29901633
-0.72922844
-0.113494694
0.64632446
1.1921403
-0.8808415
-2.0056138
0.018583326
0.25017932
0.13746086
1.0261084
-0.30386686
0.28535017
-0.48894083
-0.04630627
0.3052679
-0.0020935263
-0.15017675
0.25079745
0.07074361
-0.25436252
-0.1420703
0.44487557
-0.37531936
-0.78028965
0.32745907
0.0688008
0.28177217
-0.3383034
0.43756017
-0.34135392
0.013762068
-0.37573928
0.13080372
1.3580747
-1.2248983
-2.4110773
-0.08330031
0.35858592
-0.08080098
0.14984445
-0.3286236
0.86480784
1.3155171
0.2500143
-0.3666991
0.3045048
-0.22070359
0.012317099
-0.40734845
0.31175265
-0.22558501
0.3832962
-0.34212226
-0.66684884
-0.26832148
0.13938126
-0.21286175
-0.48942313
0.70244324
-0.26142216
-0.49604222
-0.20547973
0.45309994
1.1334734
-0.5735201
0.37251288
-0.08701728
0.30173144
-0.12691033
-0.38229254
-0.43113214
0.22807804
1.5822194
0.3536247
-0.23968638
0.020778032
-0.35196012
-0.083443984
-0.20786898
1.0677972
-0.027011074
-0.59244007
0.4336053
-0.22442108
-0.4447999
-0.07088024
-0.26856917
-0.800313
0.99523306
-0.20724732
-1.3261806
-0.09780811
0.32403478
1.0364465
-0.16531514
1.4095808
0.0038418327
0.20666747
0.5932622
0.5339146
0.13489628
-1.7319274
-0.14821078
0.29154873
-0.1463624
-0.12347642
0.07296049
0.01403967
0.4066404
0.6230543
0.013215834
0.48023874
0.5855532
-0.20318149
0.29623047
-0.12903363
0.033656668
-0.059028506
-0.13137522
0.10058675
-0.5347277
-0.57466954
-0.100736715
1.2128315
-0.024971792
0.36708048
-0.15891376
0.28297925
0.29087856
1.8618373
-0.11815681
-0.83783406
-1.1138314
0.3115244
-0.0884348
0.5433192
0.2052711
0.27492487
0.15731402
-0.41785702
0.26760054
1.2662922
-0.7824049
-0.9831773
0.25868678
0.15643862
0.19677544
-0.49369067
-1.1992425
0.3241978
0.40692097
-0.08112071
-0.066354156
1.8003232
-0.05349939
0.12668952
-0.046743155
0.6306161
-0.04359667
2.4609814
-0.37701482
-0.0566299
-0.35623407
0.31947243
-0.11909275
1.0435746
-0.21702184
-0.2519924
-0.066752
-0.29104927
0.1439675
1.1307054
-1.5370818
-1.5974021
0.08590296
-0.090960026
-0.0841721
-2.9395244
-1.2755474
0.2714256
0.030151352
0.5029731
0.34605488
1.4893029
0.24791658
0.5278101
0.15224394
0.59074086
0.16697939
2.080993
-0.15795442
-0.102332495
0.62819964
-0.13276023
-0.12034454
0.694723
-0.34863448
-0.3822141
-0.074994504
-0.10511733
0.091207504
0.38711384
-1.2229131
-1.3250597
-0.079373114
-0.11217616
-0.27800444
-6.1827087
-0.9195799
-0.13339299
-0.12529743
0.694615
0.11149948
0.79876053
0.22484738
0.8549853
-0.1568004
0.67132604
0.13343608
2.1446335
-0.107729465
0.12068716
0.37274182
-0.23777087
0.45975515
0.31797886
-0.18245278
-0.42689246
-0.23906885
-0.19592613
0.25721058
-0.39160204
-1.6174804
-0.996245
-0.16137528
-0.20187081
-0.12764229
-4.9827394
-0.8126993
-0.14016433
0.23420796
-0.6377584
-0.13363391
-9.046336
-0.1317922
0.56450135
-0.15767932
-0.1638191
-0.12729432
1.0004109
-0.014641999
0.30465788
0.048683546
-0.13051292
-0.049453158
-0.061182898
0.057913717
-0.2488006
0.01890839
-0.5515172
-0.11745332
-0.036412973
-1.6895801
-1.045864
0.048084043
-0.08918642
-0.20094733
-2.8934844
-0.877162
-0.040669326
0.25574365
-0.3954245
0.014511217
-1.5724945
0.40913215
0.5782699
-0.03724931
-0.027087813
-2.6982598
-0.28792953
-0.16686298
-0.99425244
0.25747526
0.003011885
0.057315808
0.8350084
-0.54937243
-0.29006025
-0.77655643
-0.5939347
-0.18861037
0.30826718
-1.8556043
-0.1626843
-1.0428323
-0.11236598
-0.26831767
0.11392788
-0.2917316
-0.11680822
0.4895991
-0.12680443
0.73420227
-0.6817042
0.32540193
0.5023279
0.07378222
0.0789977
-1.8766091
1.3478386
-0.16572149
-1.0544182
0.47772586
0.015469905
-0.060208213
0.10377746
-0.23915277
0.049656246
-0.13036415
1.0127255
-0.08154744
0.39783248
-0.8012945
-0.8752512
-0.49359474
-0.09165165
-0.17705324
-1.9417081
-0.095541716
-0.15679961
-1.034519
0.4511827
0.9699112
-0.2051436
-0.08384187
0.5406739
0.10022405
-0.12539735
-0.9826723
1.8981807
-0.019437699
-0.48104224
1.2651255
-0.073165976
-0.01011563
-0.00093435025
-0.37311357
-0.17781678
-0.43299004
0.66808915
-0.20024925
0.20038392
-0.29164445
-0.6113525
-0.5012565
-0.15850578
-0.27698314
-3.6279123
0.37936607
-0.6420189
-1.2968215
1.3789004
0.66857237
0.23980957
-0.32689884
0.06626573
0.13097945
0.04223573
-0.6222725
1.989647
-0.23205386
-0.29849386
1.0116401
-0.103937894
0.5808675
-0.24747324
-0.46505317
-0.008106514
-0.3189679
0.32434413
-0.13564388
0.52834606
-0.04291181
-0.6981238
-0.28929943
-0.0164581
-0.40279314
-3.8262553
0.29208308
-0.37478876
-0.50911146
0.80589354
0.3749007
0.9296709
-0.6215346
-0.49647647
-0.043109305
-0.19665268
0.35916257
1.5375583
-0.26541325
0.18770204
-0.1619574
0.1323199
0.7043187
-0.41784796
-0.13804656
0.047988143
0.25032598
-0.18785848
-0.21901895
0.36352137
-0.51324815
-0.69522583
0.21026841
0.20830761
-0.037315957
-2.2903378
0.5159105
-0.54235685
0.29929888
0.18242046
-0.30899525
1.526788
-0.5487049
-1.3594755
0.09595983
-0.15643245
0.3797791
0.2742454
-0.43503416
0.5288128
0.010359187
-0.09115567
0.13006684
0.043839645
0.15621549
0.14625464
0.41757208
-0.21785596
-0.43998325
0.30603755
-0.51666725
-0.83621246
0.45490944
0.09355361
0.110598445
-0.64572865
0.762213
-0.62164253
-0.1482751
-0.0324925
0.0029263454
1.0009757
-0.056255188
-0.4802043
0.104911454
0.35666552
-0.4561958
-1.1007291
-0.42162418
0.9901122
1.39134
0.04330616
-0.03177011
0.1438283
-0.4416228
-0.25114763
-0.6373011
0.9246923
-0.12475714
-0.30910593
-0.2624919
-0.6523696
-0.2654626
-0.07604255
-0.2884811
-0.7023773
0.5291545
-0.1780868
-1.1353292
0.090265386
0.8909013
0.4969744
0.6552237
1.4624707
-0.15317875
0.43183693
-0.36886722
-1.1660951
-0.023290101
-0.21415733
0.5957045
0.05683939
0.30973953
-0.02693597
0.10599338
0.028121343
-0.3001949
1.1985047
0.117110275
-0.3509706
0.34501317
-0.17251745
-0.55522776
-0.2157985
-0.2124497
0.07751481
-0.08379907
-0.3125646
-1.2147062
-0.0427666
0.67962366
0.08086554
0.26182696
0.72392696
0.036807492
0.17851299
0.53908986
0.51656824
0.14886001
-2.117967
-0.8414791
0.27204508
-0.037048437
-0.16022353
0.40325665
0.34793657
0.504094
0.05826579
-0.002782383
1.0679874
0.1018137
-0.036203917
0.3535917
0.07763062
0.13967869
0.6194553
-0.8797207
-0.16701482
0.22502783
-0.33988437
0.09932752
0.14032963
-0.12581402
-0.33972612
-0.09367625
-0.060363885
0.18517575
1.7383765
-0.3826947
-0.47153932
-0.96003044
0.4725357
-0.20949368
0.7257379
-0.026061831
0.3432417
0.13018921
-0.6030036
-0.24029051
1.4631518
-1.386589
-0.6921737
0.43973172
0.19228764
0.20576131
-1.5205826
-0.98480433
-0.11156487
0.7903352
1.1293435
-0.13716812
1.0552546
-0.29439282
-0.53291625
-0.0551908
-0.15088937
-0.06785255
2.2992735
-0.44753268
-0.16959064
0.02603222
0.39297104
-0.31902415
1.3353444
-0.2279314
-0.29270446
-0.053157747
0.03131171
-0.014010882
1.259909
-1.5066059
-1.1657914
-0.033388592
0.13773161
-0.08305392
-4.682207
-0.6803765
-0.2461162
0.09820779
1.6046792
0.1029081
1.0884849
-0.15265845
0.36231235
0.10703802
-0.011921767
0.007614689
2.1134737
-0.0015935432
-0.17603415
0.8882356
-0.29908323
0.105874896
0.72325116
-0.55780065
-0.39215985
-0.39385247
0.072480015
-0.16881168
0.6141841
-0.8686615
-0.94232583
-0.15353298
-0.31679893
-0.29175892
-6.971173
-0.55085826
-0.23962457
-0.04797827
1.5310239
0.072856836
0.6746163
0.1994636
0.8377993
0.027163928
0.3601924
-0.20806633
1.5745243
0.036737237
-0.18916585
0.5841839
-0.46824238
0.36508188
0.3362108
-0.24227554
-0.45341355
-0.38177514
-0.17697603
0.14035156
-0.35125783
-0.7183216
-0.39788443
-0.21287625
-0.4022252
-0.4229473
-4.9138875
-0.7816328
-0.13200174
0.3554862
0.4754769
-0.20891315
-1.497873
0.09070715
0.5389252
-0.13053025
-0.310236
-0.16109979
0.96795696
0.047063723
0.02602048
0.20241316
-0.15847266
-0.18734826
0.015211009
-0.0682553
-0.21274734
-0.18590802
-0.25823924
-0.12799507
-0.40049827
-1.1465877
-0.60616106
0.026562583
-0.18350838
-0.17783429
-1.8671061
-0.8455828
-0.14595711
0.09139744
0.038622987
-0.06655501
-0.6521597
0.34034652
0.2902364
0.17184117
0.07848773
-2.2626188
-0.4155925
-0.26368576
-0.49869075
0.027373577
0.14384808
0.11741767
-0.093807824
-0.93873286
-0.5146812
-1.0257682
-1.6683487
-0.1360382
0.17337783
-1.3537086
0.06831209
-1.2671455
-0.07332052
-0.2746837
0.15325189
-0.6265263
-0.0015352322
-0.5663726
-0.032004707
-0.24276939
-0.3650306
0.46290812
0.5113062
0.06207214
-0.04871598
-1.695841
1.3026291
-0.11672785
-0.8060389
0.41915897
0.03629027
-0.07435615
0.121960424
-0.2625958
0.013969973
-0.30938622
0.13245478
-0.14200515
0.040096957
-0.6529033
-0.44556582
-0.5123579
-0.13397068
-0.08566712
-2.4930966
-0.14001237
-0.24863754
0.50194544
0.75565416
0.11925745
0.20859306
0.21160085
0.6942655
-0.06790203
-0.31107277
-0.91559577
1.7035308
0.051030524
-0.40542847
1.2127316
-0.095119804
-0.08766245
-0.042534865
-0.39199212
-0.3023722
-0.2355548
0.22088207
-0.22055875
0.010690056
-0.051490664
-0.30390912
-0.5918772
-0.21673007
-0.025674958
-5.813287
0.151817
-0.31407553
0.16628207
1.8027409
-0.37029198
0.7896514
-0.31876007
0.48040354
0.071954
-0.42750907
-0.10741009
2.1550312
-0.38129586
-0.18597953
0.7675015
0.037386328
0.47649026
-0.4098789
-0.5033096
-0.22646247
0.0142268995
-0.1960972
-0.27326384
0.38696432
-0.384402
-0.3498201
0.00846417
0.03301527
-0.08126977
-5.7959256
0.2636874
-0.12084959
0.5835576
1.2071928
-0.6135691
1.3505548
-0.54345584
-0.09748672
0.087496124
-0.68256885
0.70899945
0.94680357
-0.30860126
0.3560384
-0.08867295
0.12723738
0.095267504
-0.9990513
0.3604553
0.3394677
0.6723228
-0.89159596
-0.5398629
0.13485157
-0.39155096
-0.3157782
0.80976367
0.3296181
0.2685795
-1.8467815
0.6710148
-0.7621899
0.817961
0.4288936
-0.9228041
1.06428
-0.9085776
-0.29102385
0.07555168
-0.19391294
0.39010808
-0.5371162
-0.53292114
0.59203315
0.7563621
-0.13884221
-0.35945928
-0.732218
-0.10870444
0.22737567
0.45879996
-0.05934623
-0.21768095
0.1162427
0.026230672
-0.3049861
0.47171736
0.18538372
-0.051159214
-0.18853235
0.7611938
-0.34327215
-0.5953483
-0.32515496
0.24363708
0.40899527
-0.41154972
0.18189237
-0.076745726
0.33306772
-0.38306212
-1.3951389
0.14816749
0.37414902
1.1284089
-0.0397771
0.084326275
-0.5453973
-0.23243956
-0.33651096
-0.32805485
0.6123051
0.32813287
0.15928206
-0.007821843
0.2570631
-0.09235803
-0.2148643
-0.26968613
0.45840582
-0.35395813
-0.21978769
-1.2467556
-0.62335974
1.2838979
-0.21736352
0.33654392
0.65093184
-0.1435835
-0.037428327
-0.19985718
-0.89884704
0.28257143
-0.47802547
0.007905596
0.30591705
0.1023319
-0.36831766
0.32303187
0.10666093
-0.044248328
0.17532632
0.30701113
-0.0983785
0.23180187
0.5797166
0.0796374
0.034371
0.28581378
1.4880391
-0.58772254
-0.20253427
-0.75633514
-0.5392203
0.5802974
-0.9470336
-0.6771568
-0.45567986
0.106650285
-0.30026466
0.61909676
0.5704003
-0.4511026
-0.93713254
-0.44833982
0.45751554
-0.42908913
-0.5165784
0.48445076
0.42460835
0.43870357
-0.65815276
-0.33112827
1.1813834
-0.3519583
0.27179882
0.8306004
0.58156395
0.20506212
0.2526775
-0.6431934
-0.21269688
0.6251039
0.48761445
-0.2698443
-0.34050065
-0.51741004
-1.231456
-0.07191907
-0.77629995
0.10009008
1.0626949
-1.1407424
0.04372235
-0.23162258
0.729707
-0.86872375
0.82981545
-0.009705754
0.4360641
0.09793537
-0.48278275
-0.56132483
1.6131301
-1.3298402
-0.41905367
0.24109662
0.44254625
0.3416381
-2.867662
-0.35559455
-0.28851575
0.6813459
2.4274125
-0.27365178
0.6261619
-0.4079283
-1.0011897
0.14816271
-0.79863733
0.18993843
1.3855343
-0.87522745
-0.22486328
0.55889785
0.6008628
-0.7776622
1.1043752
-0.104459025
0.033424214
0.03073141
0.11756669
-0.8344477
1.2475115
-0.9238212
-0.7727259
-0.11914312
0.066940375
0.25412124
-5.727234
0.107534334
-0.8350252
0.075457536
2.7620296
-0.102523364
0.49905288
-0.07536047
0.3328649
0.099851266
-0.9650349
-0.050865695
1.6763403
0.21126014
-0.14284116
1.1308529
-0.21828648
0.06909701
0.29469892
-0.37482122
-0.4919431
-0.42133215
0.29752755
-0.60771066
0.24287103
-0.24540217
-0.46555802
-0.11375071
-0.38523424
-0.27786165
-7.1921034
0.21701688
0.038968485
0.14380576
2.1092055
-0.38378534
0.08828232
0.13179585
0.482693
-0.1241192
-0.8398978
-0.3991077
0.9661194
0.26918918
-0.04666892
0.8713853
-0.17793502
0.4011265
0.21418643
-0.65187246
-0.3408042
-0.51700956
-0.058962584
-0.27341104
-0.12507124
-0.05192635
-0.082056224
-0.37091607
-0.18457128
-0.224514
-4.412543
-0.18429191
-0.5519346
0.33946463
1.3983091
-0.2584879
-1.0609384
-0.025154723
0.33695602
-0.06351413
-0.4043359
-0.6055686
0.43962336
-0.019910453
0.025491703
0.329165
-0.23048131
-0.004396583
0.09384322
-0.40993944
-0.09740126
-0.19799984
-0.62027353
-0.3926776
-0.07985732
-0.5388995
0.13181284
-0.11618067
-0.36843345
-0.42099407
-0.6329583
-0.6875444
-0.41165054
0.39244816
-0.07694431
-0.16719794
-2.1990554
0.082829036
-2.3976524
0.1227498
-0.09728309
-0.8240149
-0.04543887
-0.44968238
0.07316435
-0.19422443
-0.024487756
-0.08003321
-0.09639346
-0.5728851
-0.42515662
-0.3146464
-1.0256864
-0.1332118
0.06421679
-0.7689986
-0.02969189
-0.44687223
-0.14409463
-0.44335914
0.49652067
-1.2596502
-0.36577025
0.0028603529
-0.6300196
0.12879649
-0.95223415
0.15565315
0.13122424
-0.1253227
-0.27265352
-1.2728268
0.7067187
-0.23639871
-0.5341477
0.046529382
0.08724696
-0.40757683
0.93405586
-0.59306115
-0.21641783
-0.6556274
-0.4010629
-0.21884406
0.15769938
-0.28292078
0.054962385
-0.65605515
-0.11278519
-0.22346509
-2.4925454
-0.2075224
-0.018470084
1.3999698
1.0031157
-0.34517604
0.21776803
0.1301454
0.6105402
-0.06629726
-0.46584922
-0.42288798
1.4682539
-0.057058793
-0.06542751
0.88376004
-0.30670407
-0.33888257
0.10114186
-0.4778737
-0.28124303
-0.29015687
-0.23401374
-0.3076896
-0.020845816
-0.17092177
-0.09971881
-0.3561357
-0.38139412
-0.30286077
-8.701245
0.17160295
0.27765098
0.917338
2.0992482
-0.7768627
0.6854629
-0.042438105
0.4650083
-0.069266975
-0.82302
0.31061873
1.92343
-0.19043528
0.18517995
0.2962076
-0.17615287
-0.14678836
-0.07445877
-0.092841655
-0.105261415
0.13589695
-0.6651586
-0.52750623
0.4612707
-0.47721413
-0.36534408
0.3157607
-0.07696158
-0.0290541
-7.0996795
0.29044455
0.21060333
1.317303
1.7174633
-1.3744652
0.522723
-0.59152704
-0.14009674
0.09856339
-1.0266467
0.75438017
0.7514645
-0.3408062
0.40794626
-0.08166987
0.14070334
-0.38301972
-0.78242344
0.19976847
0.23742248
0.7890221
-1.0745302
-0.8216517
0.25634253
-0.49810207
0.14085521
0.8741616
0.48350778
0.5219755
-1.9736358
0.75757545
-0.5493469
1.4560386
0.70273125
-1.4584899
-0.46383125
-0.71002233
-0.36324537
-0.073760584
-0.45948943
0.43093786
-0.29030526
-0.29731983
0.49892065
0.39176056
-0.11187317
-0.3221186
-0.82806563
0.030589694
0.10463134
0.4242908
-0.6123118
-0.32539478
0.1345931
-0.1013429
0.41443086
0.728025
0.047486704
0.18258052
-0.12264093
0.41592285
-0.049878027
0.7683111
-0.14122254
-0.7189352
-1.1176032
0.0025858334
0.15721868
-0.119141914
-0.19866468
0.114326425
-0.5100495
0.49459174
0.6386624
0.14757267
0.15219137
-0.049003128
-0.78967583
0.083551615
0.18266287
0.18601365
-1.0256906
-0.12359167
-0.32990977
0.040490083
0.69627315
0.15481715
0.07808764
0.27370164
0.6308185
-0.20927279
0.06960946
0.42234614
-0.36325103
-0.122879036
-1.8984426
-0.12728566
-0.26977637
0.15134616
-0.6274817
0.15595199
-0.07655962
0.2849839
0.45926785
-0.0006980451
0.2655392
-0.3335337
-0.341029
0.59536046
0.31291813
0.31551722
-1.2674124
-0.36191094
-0.5360895
0.1997763
0.72767705
0.5932404
0.33804792
0.3745702
0.8940193
0.4149473
0.038732074
0.2316393
-0.13538368
-0.4029036
-1.5261313
-1.4624665
-0.5465657
0.09879514
-0.5941997
0.59540755
0.38601124
-0.48489863
0.09809693
-0.0059948703
0.62496245
-0.9392129
-0.6086781
0.42152086
0.34732616
0.66235965
-0.68533593
-0.62090033
0.8221853
-0.14701389
0.17983066
0.57122886
0.6203032
0.45853055
-0.41717544
0.4374331
-0.22311352
0.6047015
0.63454014
-0.7216013
-0.022490298
-0.49675038
-1.0309848
-0.07463452
-0.62303215
0.16568859
-0.30333072
-1.5220273
0.330605
0.26337245
0.5358977
-1.1498168
0.6932706
-0.10097261
0.19191866
0.07880415
0.25192705
-0.6315081
1.4155859
-0.83874387
-0.47154748
0.23094
0.11783749
-0.09101974
-3.1133444
0.23815776
-0.38160244
0.14869839
2.4796894
-0.18072462
1.0013978
-0.27588832
-0.2610349
-0.16492654
-0.66815656
0.100462526
0.20495555
-1.5984962
0.1268301
0.41078073
0.28261787
-0.8139119
0.5669854
-0.14522961
0.19353776
0.20374434
0.30310214
-0.94896674
0.88311154
-0.5858922
-0.4713815
0.24105082
0.33106062
0.37539527
-4.2159634
0.38947916
-1.2388898
-0.104490235
2.81896
-0.28961012
0.16444783
-0.023823373
0.67728424
0.09276723
-1.0409589
-0.21203044
1.0742555
0.42463106
0.014834114
0.8497512
-0.12530376
-0.19581643
-0.43019396
-0.26252922
-0.21620756
-0.24266933
0.05844628
-0.60241514
0.02916797
0.17748608
-0.0026087002
-0.31725708
-0.115317136
-0.18529171
-4.6454005
0.1857158
0.28644934
0.33737344
1.8654842
-0.38767862
-0.57722425
0.30966946
0.5707054
-0.050040722
-1.1173353
-0.5253137
0.65688026
0.6224367
-0.2067738
0.59710705
-0.19552244
0.5758056
-0.102467306
-0.5287276
-0.27954417
-0.34238225
-0.0023360043
-0.58677006
-0.20333157
0.24881054
0.20415996
-0.15748289
-0.10986462
-0.36364788
-3.654022
-0.0024768326
-0.537475
0.409772
1.5361031
-0.36063927
-2.6749222
0.13394637
0.011427595
-0.09623428
-0.4279486
-0.8463028
0.54112834
-0.104308
0.09544808
0.13401441
-0.2519187
-0.29359928
-0.18045108
-0.46548674
-0.19056378
-0.40620697
-0.3984647
-0.7263048
-0.22505745
-0.3785928
0.09037666
-0.14068812
-0.21681264
-0.092246175
0.010044686
-0.61273205
-0.7114044
0.2419242
0.28888914
0.09348614
-7.7435913
-0.42920065
0.17537576
0.1219219
-0.1365795
-1.0586139
-0.006881941
-0.25414196
-0.3610415
-0.11364579
-0.18513873
-0.013062399
-0.3707939
-0.181546
-0.16040745
-0.38805482
-0.29627636
-0.1043808
-0.28818002
-0.600093
0.08368779
-0.471863
-0.31425193
-0.14356428
0.4412758
-0.9981729
-0.16056947
0.36226168
0.13051333
0.32957956
-1.0707762
0.29397857
0.08604389
0.12609482
-0.36178225
-0.6438171
-0.17254376
-0.0634613
-0.3056149
0.097572915
-0.11135106
-0.32945794
0.42643052
-0.5321447
-0.35408497
-0.31112403
-0.1165669
-0.2602639
-0.060219273
-0.23205039
0.0037579974
-0.4889596
-0.1994475
-0.30518812
-1.9642361
-0.008534973
-0.28318727
0.96299255
0.42649108
-0.014620991
0.12271751
0.29716328
0.7489737
0.1565038
-0.46447623
-0.22847502
0.92550236
0.2696724
-0.040079296
0.17282459
-0.30917975
-0.41375908
0.2931837
-0.5359524
-0.3675936
-0.32023412
-0.005112729
-0.17266677
0.15257607
-0.18130268
-0.27222022
-0.32607397
-0.30714864
-0.027361698
-7.0650196
-0.15803875
0.70812535
0.98133874
1.1903193
-0.7548482
0.38681427
0.025992224
0.83988124
0.090031385
-0.84886754
0.0858956
1.4673336
-0.08458135
-0.010904429
-0.21670319
0.0711274
-0.28452536
0.22436307
-0.0951687
-0.09942781
-0.09810976
-0.6402445
-0.3789376
0.45814216
-0.41295582
-0.08581593
0.31002578
0.16430126
0.12874481
-6.890916
-0.21370336
0.3872133
1.467294
1.4568893
-1.24043
-0.7598086
-0.24022497
-0.5267024
0.09020391
-0.90616524
0.40898943
0.6050554
0.05912258
0.44463587
-0.40416104
0.06490868
-0.3945039
0.16991113
0.15082256
-0.022030057
0.44374546
-1.1722001
-0.79244053
0.6492581
-0.5972097
0.49142995
0.3482885
-0.012618083
0.102600545
-2.368351
-0.18621005
-0.07165053
2.0622318
1.2829115
-1.4518986
-1.6348754
-0.03187848
-0.55193216
0.05887251
-0.5034919
0.51196533
-0.00013049833
0.08117868
0.32984808
-0.40091383
-0.05031472
-0.40169734
0.08460592
0.12713286
0.12300331
0.28697616
-1.3718518
-0.54126894
0.11262474
-0.3543656
1.0184295
0.56723845
0.03194201
0.20869988
-0.14595312
-0.20294486
-0.057774343
1.7011836
0.5796716
-1.1800317
-2.072199
0.45046273
-0.20881999
-0.062379997
-0.66186243
0.33886844
0.13933298
0.020998953
0.6065748
-0.34794402
0.09321618
-0.40888718
0.17227079
0.35786012
0.17127596
0.53046286
-2.1119356
-0.5757063
-0.78591675
-0.16734551
1.1167203
0.4113859
0.36281848
0.15884371
0.20781295
0.24300253
0.035932977
1.0398055
0.7337454
-0.7193604
-1.7775446
-0.9926425
-0.72924113
0.14190717
-1.0818908
0.48710287
1.0282067
0.06163685
1.1509063
0.4961019
0.44143888
-0.8959788
-0.27014014
0.37690073
0.5617479
0.6637402
-1.3547367
-1.2470678
-0.49953294
-0.1439068
0.052729033
0.49876845
0.5672279
0.4657967
-0.22641079
1.4939089
0.12233983
0.21287227
0.5312382
-0.95278037
-0.5737669
-1.3784896
-0.33479947
-0.015103719
-0.76608807
0.32033083
0.049764905
0.422725
0.82936007
-0.13256152
0.4333382
-0.2143905
-0.6436322
0.10682115
0.2509882
0.18667042
-0.12337648
-0.67073786
0.8173429
-0.20016378
-0.53752196
0.36469805
0.3498645
0.2215665
-0.25735718
0.948705
-0.08507604
0.45836744
-0.2584649
-0.5277216
0.8472573
-0.5616149
-0.7509278
-0.13896051
-0.062542535
-0.12517904
-1.3300167
-1.2798897
0.16000861
0.37828895
0.12163608
-0.96546566
0.82216716
-0.3157211
-0.0852079
-0.19876511
0.7743915
-0.68877643
1.3670974
-0.3185869
-0.19752203
-0.052025836
0.08866683
-0.12648572
-2.374209
0.476244
-0.55799496
-0.3815066
1.4912095
0.42744577
0.7303429
-0.07222572
-0.1705946
-0.15426128
-0.09585663
0.23225865
-0.33370778
-1.5517882
-0.11133344
0.43849173
0.078164905
-0.9172553
0.21999225
-0.17730202
0.0876191
0.20415263
0.19870982
-0.8049231
0.344441
0.09031128
0.028542347
-0.08320508
-0.027389968
0.10064254
-3.0059266
0.19101498
-1.0033818
-0.28968358
2.4035978
0.042234454
-0.24442355
0.17996402
0.5105697
-0.16845155
-0.9750471
-0.12731403
0.77014345
0.27750775
-0.14780736
1.0364262
-0.24546884
-0.81056964
-0.6971522
-0.3852281
-0.22351252
-0.036968816
-0.022564933
-0.5994166
0.08770421
0.41091785
0.112263635
-0.28514752
-0.07014448
-0.23674965
-4.003148
-0.070771754
0.17370854
0.087787256
2.3179553
-0.10740803
-1.1699449
0.24557798
0.26229617
-0.10390922
-1.1170735
-0.6464968
0.48617336
0.37750202
0.150445
0.27501792
-0.16055253
0.25636923
-0.14909258
-0.48458457
-0.19817795
-0.30972245
-0.072744615
-0.97789705
0.03194324
0.10452795
0.28410158
-0.38321358
-0.19006525
-0.21154997
-2.541238
-0.29254726
-0.41509223
0.20999663
2.0833
-0.18016842
-3.7636533
0.15325272
0.27108866
0.044644903
-0.44239846
-0.89053357
0.40549174
-0.26193464
-0.17772964
-0.051586684
-0.036679067
-0.22860484
-0.094110206
-0.3445055
-0.37537473
-0.27723452
-0.32693988
-0.64236486
-0.31452835
-0.026146235
0.29839933
-0.14884718
-0.08229009
-0.19331183
0.6164666
-0.53726673
-0.8028514
0.31597528
0.47453734
0.0022097756
-1.3589734
-0.2667034
-0.27769437
-0.012709207
-0.16658546
-0.68371505
0.18987705
-0.2740674
-0.26790297
-0.2002479
-0.32763976
-0.097645916
-0.37339678
-0.32806677
-0.11403343
-0.23362753
-0.2111652
-0.074269556
-0.29582748
-0.74629056
0.057764255
-0.2992127
-0.28063124
-0.04189172
0.33608034
-1.3670089
-0.10567802
0.070660025
0.43856415
-0.096720114
-0.12906142
-0.06697847
0.29190177
0.09642215
-0.4393067
-0.09617122
-0.38202712
0.36411938
0.054685682
-0.32065672
0.028446784
-0.28841218
-0.15934063
-0.30818626
-0.024616646
-0.18074255
0.10273385
-0.0037995554
-0.046285287
-0.22849074
-0.15253453
-0.25718975
-0.2544586
-0.09141737
-0.9019632
-1.644206
0.1882424
0.26594105
-0.5610744
-0.105850525
0.48041785
0.511754
0.9138051
-0.06689092
0.3545922
0.06801501
0.31247866
0.43836975
-0.28169698
-0.5104003
-0.11280328
-0.6086108
0.4099469
-0.3936376
-0.39708447
-0.53044707
0.10199459
0.5618818
0.54544836
-0.36331975
-0.39900547
-0.3122412
-0.11506901
-0.41604558
-3.3742986
-1.8433113
0.5547737
0.93323314
-0.24574931
-0.27483627
0.66487265
0.50337005
1.017511
-0.17679048
0.62274206
-0.12748617
0.89942706
0.119532324
-0.14539199
-0.48559996
0.3264691
-0.29413965
0.42492008
-0.39797056
-0.17614637
-0.27372873
-0.06465606
0.03698216
0.61363965
-0.6950578
-0.3857059
-0.47283322
0.07494721
-0.19059373
-3.2260983
-1.988991
0.45148855
1.267386
0.1275539
-0.45835468
-0.9650126
0.08779469
-0.32353944
-0.034931257
-0.25844595
-0.05973514
0.42107564
0.15600732
0.15296319
-0.15398039
-0.050024573
-0.13390514
0.5554052
-0.09385765
-0.4294349
-0.15639247
-0.62095183
0.022859432
0.63393456
-0.49162158
0.3459073
0.16435267
-0.08774678
-0.21966457
-0.84638643
-1.2065327
-0.09948286
1.1506745
0.54415417
-0.27976656
-1.589267
0.65976757
-0.479449
-0.1292521
-1.0347698
0.5121036
-0.03381243
0.17252125
-0.16051877
0.055965688
-0.43726018
-0.32966757
0.7888752
0.13538341
-0.009040195
0.30870646
-1.3052136
-0.6630084
-0.27097058
0.08473976
0.93486917
0.5203085
-0.012361126
-0.13649794
-0.37973166
0.020228775
0.05977884
0.28917274
0.7901669
-0.21907754
-1.5486372
0.17676495
-0.12658145
0.091833666
-1.3317997
0.5824494
0.5895004
-0.2621028
0.41306382
0.29899943
-0.17865533
-0.9633497
1.0790677
0.53822565
0.23044397
0.67224014
-0.774151
-1.0654403
-0.73358196
0.027620088
0.12631471
0.5719366
0.1291689
0.29345217
-0.80482
1.2743541
-0.09065418
-0.61399704
1.4751953
-0.7401449
-1.2360247
-2.0807822
-0.553085
0.04057957
-1.0210402
0.33583444
1.2621026
0.3205677
1.0359515
0.5404977
0.74742013
-1.0836304
-0.8212453
0.4464916
0.7836919
0.5410707
-0.17019184
-1.1933874
-0.044602677
0.06394617
-0.5985931
0.45052958
0.5588605
0.7088489
-0.5138843
1.5657951
0.13355704
0.1824437
0.4077222
-1.1416823
-0.64611167
-1.2473931
-1.0648227
-0.17842413
-0.26003894
-0.07867988
-1.0761487
0.69344705
0.7843033
-0.21757191
-0.04007027
0.42596698
-0.5299047
-0.26814428
-0.11504531
-0.08719081
0.7240523
-0.40647635
0.9496843
-0.11391068
-0.28128162
-0.36905688
0.1593274
-0.211361
0.18987967
0.66592836
-0.013830502
0.71993315
-0.81129575
0.049766704
0.4945981
-0.15992324
-1.2329595
-0.0002243271
0.1494983
-0.2190756
-1.5392219
-0.9263588
0.14186017
-0.22731665
-0.077945195
-0.3019863
1.2868845
-0.84565735
-0.13902052
-0.34826547
0.9906708
-0.1858939
0.88494915
-0.04689008
-0.041816134
-0.40997702
-0.18546379
-0.49289918
-0.27536535
0.33686966
-0.5302611
-0.6047276
0.24773133
0.8196567
0.017038781
0.45179796
-0.20196179
0.047581613
-0.060046166
-0.3197755
-0.6408565
-1.4282061
-0.12417605
0.657754
-0.107839145
-0.8686686
-0.26575845
-0.56683666
-0.15044318
-0.31467018
0.28451836
0.112640485
0.22827233
0.44185516
0.27621368
-0.07055955
-0.21089318
-0.18765815
-1.2612953
-0.52810377
-0.60166466
-0.37459356
2.064469
0.62282753
-0.23654036
0.41814828
-0.04722084
-0.1435208
-0.79074436
-0.61665356
0.4735356
0.3075905
0.15494816
1.0672661
0.105593406
-2.48839
0.08160195
-0.49005395
-0.041512277
-0.3143599
-0.08340085
-1.0640244
0.2032795
0.37106737
0.3950851
-0.22476864
0.079152614
-0.03876638
-1.2687337
-0.91459394
0.5827031
-0.5002491
2.4121816
-0.15660174
-1.5106243
0.305283
0.08119541
-0.05218871
-0.721398
-0.6280619
0.41195887
-0.37292793
-0.09846136
-0.156794
-0.038305007
-1.4086185
0.13515836
-0.2761825
-0.2471252
-0.29329208
-0.31419528
-1.5171549
0.29841533
0.2571369
0.3320359
-0.22331658
0.114460394
0.014445833
0.4606549
-0.89082026
-0.20913638
-0.085908115
2.1196601
-0.091873884
-10.180873
0.12691681
0.08012356
0.013875241
-0.6302209
-0.47432286
0.60865253
-0.20363842
-0.13726044
0.12773298
-0.4166887
-0.2736984
-0.258265
-0.22031248
-0.16410223
-0.095279716
-0.10179609
-0.686186
-0.45993716
-0.3786965
0.1974798
-0.16385327
-0.3856904
-0.29583415
0.7543914
-1.3520684
-0.6020034
-0.23610687
0.76564217
0.24678043
-1.004797
-0.3141768
-0.020670881
0.114065774
-0.3793836
-0.5694111
-0.21423353
-0.20937458
-0.0037196542
-0.08908036
-0.20455074
-0.4927321
-0.28954753
-0.26468164
-0.16502233
-0.03814259
-0.35145074
-0.11114298
-0.4364496
-0.48624757
0.006106668
-0.2071017
-0.14365046
-0.02036145
0.60834897
-2.0863442
-0.2717194
-0.15739605
-0.14234807
0.23314287
0.55837804
-0.24589974
0.3589998
-0.0012101518
0.11790512
-0.0073303664
-0.39353067
0.12511781
0.21098088
-0.7155169
-0.06269313
-0.1181815
-0.21803054
-0.12892471
-0.0077408836
0.09954813
-0.045762077
0.12953809
0.11866308
-0.4757485
-0.09463006
-0.123012125
-0.045233965
-0.207883
-0.39829767
-6.1639667
0.2562101
0.023670554
-1.2368474
-0.099804
1.4966422
0.17731786
1.0532119
0.028725034
0.9709207
0.0116751045
0.093972266
0.119316034
-0.13959613
-0.7233635
0.064204894
-0.5902982
0.1517562
-0.10252148
-0.22412851
-0.16581674
-0.021315267
0.32385924
0.5975661
-0.587083
-0.25528878
-0.0913305
0.066752635
0.078569554
-1.4278834
-5.7538357
0.1922154
0.31597358
-0.53560907
-0.15343769
2.3599417
-0.07471545
1.3607348
-0.08184585
1.0897337
0.22605772
0.7163733
0.14468452
0.18371072
-0.7317984
0.37944475
-0.72266704
0.27296078
0.09853042
-0.035373595
-0.11461014
-0.17984958
0.105470516
0.6744602
-0.7750078
-0.46634156
0.08904082
0.1997659
0.19933248
-1.1991584
-4.7942877
0.25443718
-0.10853852
-0.4590759
-0.22611885
2.1097772
-0.13106145
0.66964793
0.09846077
0.068924464
0.6863744
0.6801639
-0.06407118
0.09451603
-0.26717526
-0.060131818
-0.4157456
0.37959
0.07530988
-0.030866263
0.32312155
-0.7073688
0.026008526
0.1563787
-0.1521293
-0.06771834
0.3772249
0.20794469
0.021818507
-0.0477477
-2.7018437
0.31655714
-0.94465905
-0.2729431
0.12958096
0.31362155
-0.25081488
0.27303421
-0.09221184
-0.85106134
0.94565773
0.36545035
-0.2706238
-0.030510856
0.33798677
-0.40485927
-0.67955095
0.6812773
0.38709614
0.12834285
0.5396266
-0.2782888
-0.4660245
-0.7136788
0.27089113
0.3700572
0.8843058
-0.003008241
-0.003864405
-0.66289896
-0.08480528
0.084929965
-1.6472715
0.71821594
-0.1391875
-0.25746143
-0.7464571
-0.25636575
-0.036627237
-0.5958653
0.6814723
0.43353394
-0.6052318
0.18756329
0.5185486
0.3856242
-0.81202924
0.467459
0.30706903
0.11975698
0.42541814
1.1893903
-0.66900986
-0.8652033
0.28852898
-0.4593473
0.48169878
0.2305008
0.39787275
-1.2298733
0.6847553
-0.0468914
-1.2783085
1.313468
-0.9888949
-0.17306237
-1.8837026
-0.47384945
-0.08775273
0.26579234
-0.0005846197
-0.2596755
0.39739618
0.52048844
-0.0430163
0.6455687
0.025250094
-1.6170508
0.24375315
0.3361473
0.07747196
1.3078371
-0.09748491
0.25983104
-0.012890746
-0.39996713
0.016006954
0.19644362
0.23810516
0.3332809
-0.05160674
-0.02940947
0.31196082
-0.24174501
-0.31543162
0.73455024
-0.10079209
-0.88735145
0.005517898
0.6442252
-0.64208114
-2.1153436
0.49337313
0.6221695
-0.6018806
-0.11482753
1.3035551
-0.48294386
-0.67368025
-0.31986123
-0.6433601
1.1096667
0.61357504
0.1704841
0.207975
0.1291668
-0.8402661
-0.34899536
-0.3018127
0.7155008
-0.28308153
-0.04295842
-0.060871102
-1.2037052
1.0782491
0.6247379
0.22289301
-0.9095455
0.15113664
0.6825599
-0.4323496
-1.4495412
-1.2566477
-0.1416449
0.06229676
-0.17493124
0.44890645
0.35337293
-0.87732404
-0.6739112
-0.65033954
0.72999203
0.66566193
0.21540663
0.5224377
0.39531466
-0.67501634
-0.41778323
-0.5281849
0.8842604
-0.36115104
-0.40694347
-0.8980626
-0.48632464
1.3848735
0.3250649
0.43973324
-0.42321616
0.0409929
0.16787961
-0.50605214
-0.3496431
-1.9365823
0.01674795
0.6285404
-0.044244535
-2.1431422
-0.4471702
-0.5417763
-0.33159903
-0.12382008
0.013303704
0.3664665
0.15320037
0.3703223
0.48206335
-0.29764783
-0.33777633
-0.17572737
0.2583048
-0.8705397
0.8730485
-0.4143784
1.5971985
0.43494654
-0.20981242
0.38942844
-0.70934105
0.1697005
-0.27357492
-0.65295154
0.4352504
-0.27791604
0.120650746
0.96867126
0.13726637
-3.6368585
0.7833107
-0.5208037
-0.17384556
-0.4770098
-0.31908357
-1.1117893
0.41920692
0.3882873
0.35973808
-0.1073748
0.047922328
0.022357592
-0.37372184
-1.3700981
0.8055569
-0.7261493
2.5832124
-0.18219422
-2.9143348
0.33699125
0.12956764
0.16958076
-0.3782005
-0.63769954
0.35154942
-0.7981815
0.04564674
0.4804313
0.18867116
-1.6086673
0.2741673
-0.24382341
0.042443365
-0.19753318
-0.28073424
-1.4614625
0.07044504
-0.027117763
0.2825558
-0.14881268
-0.02152313
0.014633499
0.31946105
-1.0736166
-0.6249827
-0.35846117
1.8988395
-0.0168673
-1.9396174
0.036312543
0.14496244
-0.038539775
-0.61414266
-0.74916375
0.6296391
-0.085485965
0.04639984
0.15433668
-0.26225066
-0.4269409
-0.32067207
-0.06724161
-0.17930721
-0.20610036
-0.25266066
-0.47769976
-0.556171
-0.41178554
0.19472605
-0.057649016
-0.10948003
0.058398742
0.7177758
-1.8282808
-0.48687384
-0.28602302
0.58741015
0.08435582
-2.6384737
-0.21221007
0.2349147
-0.114268966
-0.08277264
-0.80777496
0.24501242
-0.07807698
-0.18177916
0.04549679
0.0036335886
-0.26106033
-0.4989945
-0.25906274
-0.01036142
-0.1018083
-0.8028813
-0.22244674
-0.70387006
-0.84376675
0.10309288
-0.08493069
0.015411684
-0.26194528
0.28832006
-2.4893594
-0.088572875
-0.5194057
-0.06534055
-0.17096166
0.36384666
-0.39202952
-0.06209226
0.03731195
0.44630462
-0.18636209
-0.24577074
-0.034410987
0.16272864
-0.64551747
0.18852201
-0.13387042
-0.4517152
-0.343511
-0.04233079
0.019166702
0.0015423453
0.15965043
-0.011665066
-0.7375534
0.08634141
-0.002191787
-0.08721091
-0.003421235
-0.040701196
-5.557619
0.14687653
-0.083339356
-0.6580096
-0.10349626
1.9150336
-0.11696874
0.60538673
0.15782285
0.9983481
0.053558268
0.06887963
-0.42443088
-0.074358985
-0.5656943
-0.08282953
-0.46735772
0.122428425
-0.22884658
0.015616373
-0.08298565
-0.114438415
0.34647092
0.91686404
-0.71770835
-0.24987797
-0.079123884
0.005029834
0.15003923
-0.97140807
-5.122084
0.05203958
0.24579842
0.19206366
-0.25588268
3.1043744
-0.5675726
0.7514144
0.171791
1.1533617
0.34987873
0.6205396
-0.43934202
0.1415092
-0.77130544
0.15175223
-0.5307499
0.09193558
0.40197858
0.24693945
0.13861223
-0.6550063
0.14898297
1.0715845
-0.81695
-0.4252752
0.07408013
0.031937733
0.1972269
-0.9591777
-4.6365047
-0.0105776135
-0.36596465
0.42126358
0.04302889
4.5748506
-0.9506363
0.43570617
0.1781089
0.940643
0.94870657
0.9139793
-0.49067584
0.24607684
-0.631522
0.113201864
-0.6193161
0.20366351
0.46698433
0.32772073
0.47025004
-0.91350996
0.0587237
0.73083925
-0.372658
-0.45599017
0.5704582
0.1752969
0.5258726
-0.23725787
-4.1972075
-0.0023517383
-1.5967463
0.5124803
0.044246107
4.6350856
-1.5253246
0.14870536
0.16620915
0.5757518
0.82606214
0.73782945
-0.42724377
-0.2235102
-0.08425828
0.13441183
-0.4149308
-0.18393089
0.3038581
0.29169425
0.7996536
0.30105326
0.16064146
-0.039989267
0.43043345
-0.5653358
0.983551
0.12671894
0.2589516
-0.18995568
-2.1175742
0.2332028
-2.887733
0.14457868
0.23423442
3.6170235
-1.2645359
0.45176247
0.12822251
0.40425196
0.368161
-0.36301515
0.045717347
-0.5376265
-0.25630784
0.14189877
0.32504702
-0.3927601
0.19466124
-0.05054829
0.4427881
1.9592189
0.46410215
-0.5283215
1.0143392
-0.59985423
0.44755828
0.054863725
0.3466891
-0.32856897
-0.4693177
0.2879067
-3.158147
-0.4693293
0.37642112
2.628319
-0.5937388
0.4970274
0.098963074
1.0274495
-0.24073282
-1.4345026
0.46639878
0.14329863
-0.7339696
0.2732953
1.1158969
-2.479475
-0.053632613
-0.053234145
-0.2104509
1.5808276
1.1123687
-0.6035064
0.43175492
-0.3983609
-0.25026926
0.2657285
0.27352837
0.96474123
-0.70522326
0.40399674
-1.3573924
-1.4172417
1.2868994
1.9060843
0.28567237
-0.66961616
0.010162603
0.60203165
-0.59589535
-2.00647
0.03057799
0.7036827
-0.011904331
-0.27801585
1.1608591
-1.5844098
-0.53683573
-0.28152332
-0.5429992
0.6429443
0.78517497
-0.48844072
0.41813138
0.16412425
-0.6854647
-0.31611252
-0.30049136
1.052219
0.036117125
0.16047531
-1.0877626
-1.4329058
1.6268718
1.0679463
0.14599195
-1.3021045
-0.108518556
0.5742726
-0.60823685
-1.1825913
-1.2608862
-0.1181949
0.6837015
-0.0537503
-0.005470957
-0.9828507
-0.54485625
-0.3598507
-0.362092
0.21677595
0.4295661
0.1042562
0.60882807
0.46530676
-0.51413095
-0.47154406
-0.27395755
1.3023382
-0.14026906
-0.13689017
-0.6670191
-0.7505564
1.1856151
0.310738
0.5359432
-0.052335292
-0.13570277
0.027330063
-0.3639925
-0.08004922
-1.7107424
0.008555406
0.5435958
-0.13188528
-1.883657
-0.5429136
-0.27618298
0.064409494
-0.31847048
-0.5890209
-0.013235854
0.15564507
0.31599632
0.2359
-0.29401743
-0.17775789
-0.010431685
1.0737668
-0.45956364
0.41522473
-0.2280503
0.9018279
0.37769887
-1.412282
0.41372508
-0.4813778
-0.10270305
-0.07968948
-0.8213795
0.6893297
-0.74899054
-0.02123023
0.72110313
0.28487882
-2.2603493
0.7778756
-0.436699
-0.20542413
-0.11283318
-0.7066974
-0.8230982
0.023391334
0.4408447
0.19914664
-0.2500766
0.20573471
0.05502972
-0.7049241
-0.9090001
-0.1749785
-0.3307461
2.055227
-0.28056464
-3.389592
0.07768577
-0.2493629
-0.15946776
-0.42716727
-0.5628247
0.8222752
-0.518634
0.07390921
0.60085475
-0.104775414
-0.8224403
0.4121669
-0.41670012
-0.2571877
-0.30999458
-0.40439257
-0.84418875
-0.038448405
0.041223865
0.07955127
-0.09438092
0.05897462
-0.22909886
-0.09599713
-0.8821596
-0.7047039
-0.23205666
1.2555054
-0.30656466
-0.2590216
-0.013881877
-0.17218554
-0.07124567
-0.3540638
-0.8895702
0.8775367
0.0037106525
0.069867246
-0.08139895
-0.15479958
-0.005016729
-0.317284
-0.049928583
-0.24351108
-0.19945323
-0.41752788
-0.20021726
-0.9089944
-0.70046574
-0.019887973
-0.35926545
-0.26093766
-0.12541634
0.4869975
-1.620876
-0.37078923
0.03871982
0.3835617
0.0382838
-1.0553516
-0.90605867
-0.323046
-0.012376513
-0.20513836
-1.9558958
-0.28813154
-0.13108638
-0.46636274
-0.09358105
-0.31378242
-0.33971366
-1.182247
-0.54325545
-0.15141696
-0.39276657
-1.6535999
-0.044611834
-0.9752299
-1.9721467
-0.31469446
-0.27980822
-0.4045453
-0.40168065
-0.23990655
-3.1918721
-0.19544439
-1.0619164
-0.17812786
-0.38901073
-5.650845
-0.023507338
-0.25924125
-0.06336517
0.1697229
-0.3775667
0.30966595
0.061669312
0.15600257
0.018817145
0.12416039
0.059341587
-0.2593824
-0.13461553
-0.0645749
-0.0048138667
-0.40828896
-0.16245179
-0.28074875
-0.7795729
-0.06443094
-0.10540399
-0.15099981
-0.28933534
-0.46156454
-3.276806
-0.0053467266
-0.5349758
-0.18362632
-0.182941
1.7705578
0.15048958
0.34264687
0.0033665388
0.22649632
-0.20229891
0.9650278
0.09507997
0.17838241
-0.09748378
0.04359378
0.2465606
0.0639792
0.060104433
-0.09317245
-0.026150402
-0.6766869
0.1881131
0.28377968
-1.2155186
-0.38308296
-0.093851574
-0.110833704
-0.10323503
-1.5155131
-3.0156934
-0.124407925
-0.2931659
0.08447701
-0.030841142
3.4644208
-0.3557838
0.28791463
0.10189687
0.44718912
0.35471478
1.3429534
-0.4063073
0.2955536
-0.05874973
-0.06586514
-0.1892266
0.33794284
0.27121955
0.15556628
0.2422814
-1.0087752
0.011610411
0.4458148
-1.2375108
-0.53347534
0.29127762
0.09235526
-0.03511904
-1.4543612
-2.6734154
-0.2602346
-1.1426835
0.37578937
0.114906825
4.335666
-1.3735542
-0.03155199
-0.025733912
0.5408283
0.75131637
1.7953182
-0.660556
0.24882925
-0.16959634
-0.009784414
-0.30305597
0.542481
0.33898234
0.051758148
0.5778976
-0.9416947
-0.22113949
0.26841223
-0.9022895
-0.42532387
0.4480092
0.30444938
0.21398342
-0.74287784
-2.0025723
-0.3569718
-2.2079213
0.33348
0.15735875
4.159921
-1.8395528
0.19449887
0.14451504
0.19989994
0.6251318
1.7149594
-0.48324928
-0.37420863
-0.29899928
0.12800775
-0.1423784
0.14904356
0.49498674
0.2695495
0.7692695
0.13453744
-0.041393027
0.04547319
0.0739491
-0.76859677
0.8879982
-0.016038146
0.22738603
-0.726048
-0.68993634
-0.1795749
-2.8147368
0.018347029
-0.04957747
3.5749886
-1.2803
0.7436837
-0.02194636
0.21080105
0.44110742
0.6866333
0.08497315
-1.0886155
-0.6496309
0.08463899
0.34142038
-1.0884794
0.4235903
0.5553143
0.6777958
1.2410883
0.35167697
-0.40076035
0.5784204
-0.5964656
0.545833
0.31511372
0.30351585
-0.29680187
0.024162272
-0.08515847
-2.4713123
-0.6906682
0.039460547
3.1052437
-0.2707
1.6936575
0.067290686
0.5368891
0.09404267
0.039856408
0.5790381
-0.6250955
-1.0239547
-0.13474004
0.532103
-2.345176
0.252616
0.5231503
0.1479999
0.46097422
0.36081424
-0.6483176
-0.030729689
-0.24472404
0.20024168
0.13679299
0.4814903
0.34084016
0.09289389
0.110919245
-1.6356287
-0.94971824
1.0284122
2.5761209
-0.15446243
1.016832
-0.11490769
0.36166483
-0.5570867
-1.3611863
0.30279535
0.2808584
0.172332
-0.3403598
0.55443776
-2.8537278
-0.14863133
-0.31470552
-0.21483468
0.1756133
0.4453422
-0.37674832
0.21052568
0.45840928
-0.1939882
-0.19639108
-0.27214205
0.60354793
0.34332287
-0.04836523
-0.66088605
-1.0921849
1.0715618
1.5156919
0.28772944
1.4425273
0.07945506
0.109561116
-0.8875135
-1.3389095
-0.6700907
0.050108902
0.4183984
-0.386613
0.18217714
-2.367288
-0.5309415
-0.29335225
-0.43382406
-0.5887558
0.2782107
0.035341356
0.7843016
0.47074634
-0.4681444
-0.30855706
-0.43043804
1.305693
0.17849407
-0.40714186
0.018297838
-0.68198913
1.0375642
0.3713391
0.42266887
-0.35851532
0.1399055
-0.22269215
-1.3090285
0.6319984
-1.0646478
-0.03203678
0.4700936
-0.0934814
-0.4644724
-0.54437524
-0.11663789
0.023601688
0.061463546
-1.45449
0.05771416
0.11430669
0.2523937
0.33506373
-0.39775842
0.059992142
0.10806235
0.56652415
-0.49527246
-0.3354833
0.25987208
0.40954417
-0.0014015998
-0.62295383
0.14940901
-0.79124343
0.015511565
-0.2777955
-1.087707
1.2392933
-0.26003557
0.109770834
0.86428636
-0.102414675
-0.9906819
0.97335523
-0.4767395
-0.26743314
-0.28948647
-1.2862775
-0.37581572
0.02477218
0.12769966
0.3591099
-0.02177488
-0.29542837
-0.16297036
-0.68506944
-0.8512347
-0.54285765
-0.063683525
1.052001
-0.5774344
-0.17891158
0.18418042
-1.0030776
0.16330338
-0.37174994
-1.2859108
1.1074928
-0.07822632
-0.07167328
0.79047513
-0.16836254
-0.5234074
0.40704125
-0.74764454
-0.33195075
-0.20608523
-0.56421745
-0.4961428
-0.083362915
-0.23509865
0.2152031
-0.18730544
-0.4682914
-0.33585334
0.054269455
-0.9612911
-0.24100375
-0.5823561
0.61442393
-0.41064703
-1.1718386
-0.11779339
-0.8398087
-0.037118223
-0.18455294
-1.1839024
0.38986313
-0.46975726
-0.10092322
-0.015119352
-0.008326872
0.015501939
-0.7727238
-0.28872234
-0.23959538
-0.13742994
-0.7348503
-0.24125297
-0.25708598
-0.73025936
0.17486638
-0.40707383
-0.14899169
-0.28717643
0.46991673
-1.3825628
-0.37791988
-9.923067
0.13815594
-0.57078445
-1.2485539
-0.9371777
-0.17317538
0.008026544
-0.094842784
-2.196078
-0.050946817
-0.39071164
-0.3555527
-0.09164685
-0.32986948
-0.12373623
-1.096307
-0.48733282
-0.30947703
-0.43133378
-1.5126041
-0.29291895
-0.8900635
-2.1048834
-0.23915835
-0.44691738
-0.2666987
-0.36204496
-0.11201908
-3.0912573
-0.024596447
-1.1167811
-0.00847517
-0.4545967
-1.1789464
-4.04628
-0.1047333
-0.16832833
0.09278264
-0.77798015
-0.24978404
-0.26783037
-0.09748478
-0.025913514
-0.15892057
-0.011475916
-0.42754295
-0.00750295
0.014487925
-0.15220344
-0.8940908
-0.11093082
-0.7110809
-2.0494256
-5.6925497
-0.19211115
-0.23319866
-0.14310695
-0.21582843
-4.7102113
0.03732279
-0.29827544
-0.035387628
-0.19359474
-3.0893233
-3.4225392
-0.6525188
-0.046321426
-0.008860415
-0.22883989
-0.34655336
0.08356762
0.2897364
0.016650105
0.15036139
0.09877302
-0.04440468
-0.0011230358
0.07248651
0.11541313
-0.96422946
-0.034931175
-0.30677897
-3.0011458
-6.3311596
0.023036674
0.0073468043
0.02468515
-2.3475158
-1.98339
-0.04856505
-0.32448927
-0.24300238
0.11574057
-1.1386445
-5.757707
-1.1036081
0.013725936
-0.025685413
0.3794481
-0.3921725
0.13735569
0.87381685
-0.18267778
-0.13478294
-0.20779255
0.35893548
0.033714745
0.08583785
0.37246037
-3.1155145
-0.017501086
-0.11536345
-4.971642
-6.549877
0.26784158
0.0021893822
-0.06007276
-3.2527697
-1.725784
0.13684566
-1.5188711
-0.2347613
0.79397714
-1.126134
-2.6903973
-1.1992425
0.00024178225
-0.008523142
0.43262866
-0.13405856
0.101904035
0.801642
-0.12642524
0.018701304
-0.07603897
0.20796293
0.182526
0.04364304
0.10934759
-2.3995302
0.010786118
0.09202585
-6.600525
-7.593065
0.46340653
0.040810533
0.01768212
-2.364629
-0.64773107
-0.09128037
-2.0969205
-0.31670728
-0.111992955
-0.841494
-1.37504
-0.022831088
-0.12724501
-0.02849415
0.5066957
0.07433628
-0.051017765
-0.010987875
-0.11334219
0.1454638
-0.121305354
-0.3234189
0.1188154
0.14790463
0.5794684
-0.8334448
-0.034741662
0.4718307
-6.422598
-6.6315737
0.6034693
0.01929423
-0.047790784
-2.0732045
-0.31865075
-0.047111243
-1.0698885
-0.22789106
-3.2253468
-1.1216441
-1.237109
-0.7995016
-0.0744105
0.060329948
-0.03628523
1.2002491
0.20257825
-2.4468722
0.13736334
0.103522465
-0.036314093
-1.8597174
0.26745778
0.6008433
0.7671221
-0.3238404
-0.0777948
0.44402245
-2.5301745
-1.8885237
0.7873993
0.32255015
0.29196283
-1.866164
0.025012929
-0.029694041
-0.101246335
-0.55884457
-5.7850337
-0.5742641
-0.9713595
-0.5983708
-0.17637606
-0.106959134
-0.5782139
-0.673363
-0.1256183
-1.4167504
0.14926726
0.22504361
-0.17864749
-3.2448819
0.22256227
0.25277203
0.3942497
-1.9513384
-0.20041856
0.15526839
-0.9182295
-0.048860766
0.4624709
0.10399046
0.36211744
-0.53667456
0.62583745
-0.1993861
0.12865296
-0.2707976
-3.072416
-0.8544159
-0.18372697
-0.19609518
0.1359358
-0.06441589
-1.0377554
-2.6870804
-0.29626513
-0.11081427
-0.11343187
-0.100592546
-0.107859455
-4.6579275
-0.8007996
-0.3712605
-0.2173469
-4.1051874
-0.1399773
-0.031570993
-0.35781145
0.506921
-0.45195398
-0.030965231
-0.0718989
0.8138616
0.6567535
0.034381453
0.3315956
-0.40653607
-3.2331698
-0.71662813
0.39243633
0.34464818
-0.014700292
-0.07549134
-1.6302079
-1.2458282
-0.34710822
-0.19846596
-0.57796705
0.0053430167
0.05562284
-1.2171072
-1.1428909
-0.651322
-0.42802802
-4.649515
-0.2906925
0.23070715
0.12994115
0.40637672
-0.58028865
-0.10113684
-0.326332
1.6045196
0.017669424
-0.35399053
0.43476096
-0.45395496
-1.2381611
-0.72809213
0.28461045
-3.606012
-0.1774964
-0.0980163
-1.8126428
0.692894
-0.80520976
-0.11166745
0.5600759
-0.31428444
-0.081367336
0.3510107
-0.96282184
-0.6340226
-0.56880593
-3.3792431
-0.26820108
-0.047793116
0.0352289
0.35382146
-0.545064
-0.39534703
-0.16188337
0.9017917
-0.21647522
-0.43516865
-0.0047409665
-0.087189674
-0.8073966
-1.2862875
0.5924433
-0.15705904
0.07831834
-0.08397318
-1.6750317
1.2273716
-0.15940677
-0.26441842
0.67284334
-0.31844085
-0.5347222
0.4736542
-0.42715687
-0.2165396
-0.42083934
-1.8261924
-0.37091228
-0.06631743
-0.45198363
0.16855237
-0.48267478
-0.37069783
-0.012691783
-0.37761053
-0.80983734
-0.11894253
0.18581507
0.401947
-0.7252957
-1.2244328
-0.25372973
0.20011379
0.048329204
0.0674665
-0.81593287
0.32384613
-0.33699724
-0.05004155
0.11483072
-0.0131110195
-0.2571197
-0.29348302
-0.51867884
-0.3857415
-0.2549357
-1.2194507
-0.2714303
-0.31551018
-0.9736931
0.05841825
-0.15843438
-0.2933759
-0.21667215
-0.105864644
-1.8432485
-0.2758121
-0.48303717
-0.039134067
-0.15648532
-1.0563027
-1.1612638
-0.33477592
-0.026170617
-0.15740258
-2.2374463
-0.34672874
-0.41378516
-0.5276246
-0.30707064
-0.09420758
-0.1330891
-1.2474871
-0.56473917
-0.27632448
-0.43323955
-1.3839641
-0.20874898
-0.92537224
-2.0634818
-0.23233682
-0.4215746
-0.34909907
-0.12787373
-0.09674386
-2.6333601
-0.2184491
-0.87506884
-0.36974296
-0.22818495
